{"snapshots":{"0":{"biases":[[[-0.6747281678656837],[-0.08942384798167684],[1.58576193477755],[0.7423589279704311],[-0.2798164593567248]],[[0.46577195194897064],[1.1607173834055644],[-0.21149177418937115],[1.3755265496018485],[0.6182531426239637],[-1.0187744932441118],[-0.17708872031106715],[-0.9032344782156722],[-0.3712243852108544],[0.5517526427556936]]],"weights":[[[-1.9777030486540743,-0.24560643269013346,-0.5836770529703704,-2.043769905033972,-0.92856562693612,-0.21433387053682693,0.007425372041909533,-0.04905195160399196,0.25370859457229233,0.05286967855122311,-1.8641285981320947,0.029697736748312834,-0.6167430492563125,-0.5527623200665682,0.19740893518887467,0.46982854691060094,0.7568900983993313,0.900102662364972,-1.3621018486981396,0.7957784840266273,-2.126031612395575,-0.8609356367686573,-0.315623865588422,2.011952722322512,-0.1126510236555762,0.027018650870293388,-1.0120808166107333,-1.112047512252655,-1.6835880497174347,-1.9207700758621922,1.5388600245137338,1.4635959728557766,-0.2107187486149054,-1.900872195202576,0.26465352422002797,-1.110423504395448,-1.6405126859433559,-0.17337160397243362,-1.2490889564463392,1.1460954975090907,-0.25653640717827114,-0.6698835744955772,-1.4892648766998784,1.131916249027082,-0.9138350347840034,0.12512206692804606,-0.11243149239424476,-0.3432238269686199,-0.03463491219997441,-0.23772145632380517,-0.45758095232115475,1.6707540016626419,0.5100008747370249,-0.010211121216185984,0.541135294723362,-1.4385924446749272,-0.15243230040931202,1.3703794011279518,-2.441935689002896,-0.9878112626846519,-0.7792557684700168,-0.05438970242964014,0.05701338719151823,0.33923760359400323,-1.234805697934574,1.296057864860255,0.9873787583418964,-1.5093937296386686,0.5590222271920057,1.1177154528555053,0.30841077468876527,-0.48438958645219704,-1.215987637550992,0.8315455710985082,-0.2053916902525248,0.6590559679250454,0.9049096048983396,-0.8322866483844574,1.0461552715207307,-0.9868478664193324,-1.5200010481207462,-0.1561740298905847,-0.688414277925398,0.0021910315165480795,-0.10587191924688606,-0.4250697149336784,0.2655700571998574,0.43113416702866203,0.49750303039355165,-0.20581069472107852,-0.4279545419693123,-0.609039536913367,0.009875171500615702,0.5873462840687129,0.1032999129254158,0.3175050043431607,-0.14934160638834304,-1.440498994180136,-0.7696243998430188,-0.11298324354030044,-0.17434885309516596,1.3586176139812232,0.19875887655805036,0.14887132694698293,0.9050058184452436,-0.09574969713068508,1.123183773710996,0.8678392932896388,-1.0073292098057753,-0.008928732098682592,-1.6492061490256222,0.6235826083774577,-0.15817156502870588,1.083155834735687,-2.332646640395147,-0.2429765520873278,-0.47769131107019025,-0.39325016769972876,-0.8318827183184762,-0.09828505788261778,-0.9623391916495311,-1.0031277056718992,-1.746475804528996,-0.12565200399020268,2.272273121931029,0.9022811547915521,-0.29530485623169817,0.11531850805025991,-0.4298619141455445,1.7573666945035804,-0.8054670508629136,-0.7945742822782316,-2.33210167038597,-0.6854957074268085,-0.12357608454364394,-1.1418854423348581,0.38480399694360745,-0.8155627063802646,-1.2362481239130343,-1.514439784270855,1.12892608846308,0.7182305585479719,-1.3424151712182564,-0.87291914487341,0.20880720914514686,1.1128249927401805,-2.1795481231502043,-0.7697746675703697,-1.3779063389210058,1.0005344963213096,0.9323812247977705,-2.9968290838386746,0.3074425887037692,-0.45418201588294954,0.10421067141362948,-0.8794854906102656,-1.126608608322116,0.8953394241390933,0.6839407581716002,-0.36067450988217586,1.6351314884992851,1.0143510573137422,1.7614221366353373,-0.4959651659584003,-0.06413014305521932,0.45763626124853085,0.38122117098116665,-0.9156838377326696,-0.883357629051332,-1.0362101484966906,1.4836269312368726,-1.0362071725963053,-1.686179984510617,-1.0894080794372556,-0.05431754062917247,0.35969557911436667,-1.2153058692828946,0.5453391004187955,0.7075810789209392,0.16796556500266607,-0.16963258177729584,0.7547122472643762,-1.1504599930141952,-0.14808127054427,-0.22508078529395162,-1.005626831091773,0.1792422419968867,0.07569139251690435,1.2026396578378828,-1.416064231898898,0.2512793735495108,-0.43612353415923094,0.05683663836516758,1.4486810036969113,-0.0035801280581173093,-0.21400765320489412,-0.03778994744631136,1.4949234307831636,2.16195526079876,-0.3162387193139318,-0.446978176079067,1.0181089563110273,0.19212119802913374,-1.6835876390024385,-1.8512275338836044,-0.06167525193351411,-0.047869877747127934,0.7710912440446319,-0.08399349760567783,-0.9017832698643934,1.1854895929491864,0.011376226989841157,-1.7243864435547902,0.6177583601849499,1.9109774271145898,-1.1464384256256106,1.1750101247483302,-0.46466501580334135,1.165579657226379,-0.6504955839485965,-1.1177383677396304,1.1261934528573232,0.3984448251786087,0.24986125947544616,-1.019569396583773,0.47790326898169166,2.0900073358934548,-1.5814845465728944,1.5294968478195288,0.6184340333381968,0.9588648551423743,-0.18336050717653918,-0.9290019446560386,1.2555662164109935,-0.03810279093775909,0.6041916495359863,0.29110676602699287,0.4737857022251232,-0.020217961904395773,0.9560936655675633,-0.4634673413520476,0.6818192285356706,0.7648888303944213,0.541641688457577,-0.0026619484071896296,1.2749567924097178,1.2332496011995413,-0.8063854034127227,-0.7723984824941731,0.7967648089926141,-0.9177540168389652,1.2039202765413188,1.5549696942685716,0.4655758156370375,-0.30473338215864465,-2.044510950325126,-1.9926028064909045,-0.17095677139104132,-0.006704999140500372,-1.0779778903205932,-0.7265724244518332,0.43960645858642267,-1.5557546491420247,2.4788872469739256,0.29877307033332084,-1.0600784985364484,0.23931227096216845,-0.10726952869627132,0.5439714693193521,-0.34884298173613115,0.7236805538679034,1.186697391866502,-0.9210408641805234,0.1391001855956431,1.1402653141800907,0.10632521931645308,0.36423130266367887,-1.5090863979942892,1.1113475023759511,-1.7288131908141546,1.3167233877723619,-0.8448849558405962,-0.6843571697805674,0.3888128488872647,-1.4070986067538391,0.016584533342480848,0.7856430991502954,0.27312948310298674,0.4419976381859573,0.23009462934409022,0.744825576000765,-0.13102935104709354,-0.6818210592430901,-0.9305027910149085,-0.45493336951367586,-1.4658506134839835,1.5223116752197443,-0.7079482845714559,-0.6330104960790088,-0.3788144345749035,0.2776209881379549,0.7946884218641626,-0.21031698422029213,-0.976193261184147,-0.4200975448461285,1.8607984009833893,0.8263595013734236,-1.2762230647175248,-0.09381746767791375,0.5536900394548069,0.044675070952759126,-0.43662304828160964,-0.6856794771780224,0.6337349768004392,-1.90533544141729,-1.1327742721967515,0.028773376995163656,0.1615419330330525,1.7645113337804872,-0.9626853060784143,-0.8184348305584948,-1.1186931724420162,-1.8157570515337311,-0.8043770150437911,-0.25777426489783717,0.02158068440362564,0.7537038754675116,-1.6549316748005156,0.6246402853782667,1.5570782415376305,-1.2986199977506172,-0.1431329496263346,0.07061396672070461,-0.7153491428283849,-0.028309334698177455,-1.6913799732307175,-1.3986673798285831,1.4875801066768346,0.40647680939284936,-0.06718154073857754,0.36876307270202036,1.2505711916742275,0.28522887576138706,-0.3794241093073828,1.174193175488596,-1.7313855323771408,0.4122083735624494,0.28959686876316604,0.7616511479890524,1.2286660039604356,0.5648125404605018,0.5894234288006549,-0.5196003205429744,-1.4018648913767904,-1.102051769141801,0.27672854383092604,0.7302352793518357,0.44187697415428795,0.19811078081437752,-0.4361608842591582,0.6840900845026991,0.31639599531488427,-0.09087027185038526,-0.434424527602847,-0.3617495500044251,-0.7641163489957119,-0.06572588225261358,1.0483808932950036,-0.25603874831108475,0.058747416010214375,-0.6764052420242279,-2.1304527453235624,-2.3929139454852426,0.8282857881241845,-1.3634385235517552,-0.20648392749314698,0.18139231226691477,-1.7193327929403965,0.33442648276464987,-0.45082121331286307,0.7480764425211778,0.06465109024431884,-0.4447919978319123,-0.3684672208430699,0.1524858372882,1.2360146311847913,-1.1090787042262018,0.8698738390382758,1.710361386296904,2.098483442963654,-1.3784539720311053,-3.0893198531616055,0.2437301472753804,-1.5523060657816727,0.08432304543877586,-0.81199715586231,0.6425159781066545,0.1960739744537571,0.5352698776167468,-2.4886596145807354,-0.24577452139301725,-0.62412013938302,-1.5382330701287676,-1.7530938424131621,1.6920934085353352,0.1800585489941278,-0.3286515570643837,0.4961645877098583,-1.761932080855021,-0.7439636226454677,-0.2599726326220142,0.4859043900281735,-1.8216425108776404,-0.7320430967501225,0.43781272186486214,-0.12654793491987215,-0.8639191730783558,-0.1062005606325458,0.08622425900301972,0.3025083421398832,-1.1430431278850846,1.1076278657548988,-0.9524269767759727,-0.4002525029170328,-1.6854299756448088,0.362820396137803,0.6848505316631209,1.3505294303130109,-2.4787767552388806,-0.4786278473616512,1.9876341573901597,0.10480162447230598,-1.32010526606954,-0.9873022553716387,0.19975732007561306,-1.193751189753399,0.2971611768986454,0.5719681648903899,0.8124215769938878,-0.17917144361069914,1.7667144835351674,-1.2012562412665686,-1.3300758841820703,-1.9888665386816693,0.06209226184957813,-0.3761268370896444,-0.9358990678250217,0.5611887411631199,1.0867194605553876,0.5736206934502661,-0.20217091986349406,-0.7362759015583124,-0.1792941146467097,-1.3822655884216042,1.0749406168413755,-1.7425926791377786,-0.8193708142507548,-0.051514043159214644,0.2774673423086437,-0.8736826771482571,1.5480107289295608,-0.15811468294770764,0.7360792602746157,-0.4440795661607576,0.18133820505947468,-0.0021039209228533038,-0.6535595926164562,-0.8079558872484731,-1.001037902106174,0.15515811138143112,0.5494694778115612,1.7465372914707589,-0.6887494407803144,0.3851810825690735,0.665041457250865,0.40690967339637124,-0.8831551900709719,-1.1327223160775892,0.7012370455990372,1.412299260366492,0.48421740062523816,0.045933945510819064,0.2117344304282435,-1.7058887734888413,-0.7825045751663375,0.06584036336360603,0.7187488741705381,-0.7723991816258576,0.3541213521456911,-0.17225011015661115,-0.5236399056771925,0.2519046900072993,-0.4535515667747893,0.4105271202686885,-0.5416923714364841,0.42568834989550264,-0.44749077273398424,-0.3645921893908402,1.1559871645959228,-0.18729617166492016,-1.162470516371755,1.1405223826461126,0.2767315852718659,-0.277919309718564,2.724417336232378,-1.1980089968155578,2.070698943228519,1.7325441642630706,-2.371395390151663,-0.5792994978443982,-2.2318667647540043,-0.5034533165260245,-0.6910163371797714,1.705100666810855,-0.22208789291534117,-1.3208926969639656,0.3155444302666669,1.022082889223647,0.02178097047306014,-1.5843270280794486,-1.1823907453055444,-0.14274473469936885,0.29905952041715445,-0.40600324347580874,-1.6429274290849012,-1.1046475524113015,0.9877202920834827,-0.5780048107352569,-1.3905744488606564,-0.7236706784595255,-0.02907082689429341,0.19655484560413367,-1.5707576543151742,0.8555936921148068,0.16309692583875743,-2.5150133952135523,1.8019329847638017,0.4002409341202233,-0.9229062850178783,-0.12251221870254658,-1.6330277535170918,0.3046751815801637,0.2940023547348301,0.3274451221935761,0.8084999545659879,-1.9678971278333215,-0.7056441455100558,-0.2669023672489326,-1.6033647140196432,-0.8739712515121462,0.7965610500793251,-0.8934073608442074,-0.4203725870512342,0.2316373579675151,-0.13772399410474787,1.878193908412108,-0.3660872256474214,0.40088150348347107,-0.9425857138753663,0.833921894462048,-1.8788982160362933,0.9738490688171486,-0.19996999103355526,1.8856281734958769,0.6976205680422773,1.8959452750093546,-1.2561030763350312,1.7865947254293684,-0.865294989139803,1.3216593640336591,-0.9164648134349884,-1.7520951749574634,0.4652499542938426,-0.5422993941787168,2.041669591812246,-0.6627043432011659,-0.8860711268050004,-0.44234301263816145,0.7373636027570243,0.5536058871157409,0.029359225104227036,-0.48495583796899255,1.4425156486746096,-0.2761274546348464,0.9218505571586929,1.0487093246961985,0.6721430090269361,0.02365558991004196,-1.1607736443194168,-0.8292127926899904,-2.1488153196690982,-1.7990500302566423,0.2569400493719212,-0.391378693435694,0.08884100838743868,0.2552033624907616,0.42587431858378777,1.0417173718241133,-1.1000107532412693,-1.63905531494017,-0.39677767739457764,-0.8753512068548136,-0.6728890542786575,1.6763612178170337,-0.3112339521488941,0.7935210005663837,-1.8913092810045544,1.1584675769638777,0.7690684985551831,-1.2192438861925876,-2.024344470442939,-1.9330299315860318,0.7300165957554281,-0.8510387882232628,-1.1915001038350312,1.0890486203896808,-0.9120504488082755,-0.5220351110713388,0.36061166379163734,2.18840864066615,-1.8134080023131327,-1.2652496251720118,-1.9519793862272317,-0.31409474049358815,-0.683700508454412,-1.0578437309104576,0.42811466284408445,0.905495982602042,0.38736016668664325,-1.3762854612250164,-0.3705180992945133,0.2576040046559048,-1.6563217216400425,-0.7712844840533081,-0.9695679763747143,-1.1001841035118545,-0.8361875863401732,1.1338211013992041,1.7388279291103816,-0.9238942545727289,-1.6260166689095488,0.16370584185623063,-0.5511666468109746,0.5841720923150165,2.0385607274035022,1.1990043180259065,1.118614742024481,0.7711206364778774,-0.5948231712130952,0.35242385923991754,2.047724531931906,0.4347516210200976,0.1772034879156825,-0.048463589908108895,1.477164540944576,0.7281040174244452,-0.5972238075543437,0.33115357208214735,-0.36338043603472686,0.7869803588470096,1.7585628148070722,-0.4923681457023652,-0.3569795393543311,0.18538234452040273,0.7554269439146942,-1.5295333245938374,-0.36754361749895076,-1.6040443350615219,-0.27059532302487643,-0.3332955339896388,-0.33473421979170687,-0.16326691672034047,-1.3184873218484459,-1.6684279222876788,0.04333293969747979,0.04937649245922017,0.5229130693361833,1.4350630613473119,-0.9063773318531925,-0.9100226414537763,1.0907723785038546,1.9631256639720418,-0.8503202745473922,0.22526257314158699,-0.06692072037206113,-0.8328823037675821,0.23091966047386184,-0.22447499078981806,-0.2767166560760431,0.5930851455586834,1.3310141325186773,-1.1083524426851319,1.0053120488755838,-0.6609835458303686,0.6513651358215785,-0.8548978475069902,-0.041164689796175664,0.7506726976063366,-0.5404684395045719,0.4794043999505617,-0.19019966831189478,0.08465626733042247,1.3099716949087987,-0.2066316850902193,-1.4384997848959702,-0.37098234039828015,-0.34686467153157785,0.4721793658317975,-1.7153275928905114,-0.009747439618893166,-0.6670646126686645,-0.3107386323688574,0.22742204454631165,-0.8576349530783531,-1.5759926006979095,-0.7608292883851575,0.2261020925580018,1.1251283781656394,-0.5702068320745217,0.06781908940078979,0.9650986952364667,0.5225834113624984,-1.6654633400753722,-0.03805783720708677,-0.08156770575255012,-0.12929796343251787,0.03318092247768004,1.2984099130755637,-1.3435836055072334,0.862793013736949,-1.2432926935785102,-0.5743228398391031,-0.798365852281245,0.27672214060042283,0.48966244364690537,1.8668013785761142,0.17452674886194064,-0.04960141862388649,-1.551109363813213,-1.4312933171501498,-1.483936199338682,0.9125111413856705,-2.027963563726037,1.2027769312203953,-0.4807200534410787,0.3172523176046734,0.7327713944268393,0.274205558258544,-0.21399923240702737,0.456473992820904,0.010881246529603067,-0.5385981375679882,-0.36852267313664205,-0.6711766776508443,-2.6610968415184004,-0.4069725968589301,1.2622687673250537,-0.4184069306567814,-0.44983464095785,-1.003180782474825,-0.48654100025679947,0.735966376817072,-0.5260217328704686,0.7310427754698903,-0.2730762217712967,0.834153667859389,-0.18865649357409642,1.5393770263463855,0.05776708051932451,1.138220292080281,0.8488055438905142,0.31116581098319,0.7971322632298151,-0.34828753460150047,0.1878917650199285,0.5537661103272589,0.6942112657709852,-2.599766542975537,-1.3251329980682873,0.9083534138049592,0.20552576551301943,0.3828872527819069,0.7312217277641936,0.1390342510525825],[0.7374217656680488,1.8769223588956685,-0.21555472802355258,1.8083286197750306,-0.23597306600696644,-0.6720441758786053,-0.08547075594381379,1.0934892419456739,1.260596738443723,0.13793403460255674,-0.8821333156330873,0.7380540504779328,-0.9907180049621946,1.32954438923066,-0.46157601500439494,-1.1845650767720632,-0.5681731399954759,0.3575482469969905,1.0748026108214843,1.487207642866292,0.13167744825652028,0.7371988717318924,-2.3475552805894457,0.7570148786418247,0.6404199421954742,0.35702354108605105,-0.4831948515739112,-1.3356670920877154,0.41266155301487284,0.26752458356137815,-1.0273243991174983,0.9777104472032996,-0.966893152174035,0.23498038146729136,0.04771314337156173,-0.14708366996992303,0.9665235115007899,1.2073730198785468,-0.12111607660661632,-0.48182436820764496,-1.1542080523431488,-0.4965584324514828,-1.634880236523561,1.03979354430753,-1.9884896529675782,-1.1228940400529743,-0.9330171650593848,-1.8395682238473308,-0.9700429088207855,1.401942526785344,1.4924593889877689,-0.4488597830032825,-1.7045162985011302,0.6051102604322126,1.6333521130599782,-1.0567710356699933,-1.3597125785557191,-0.39999024695564467,2.0474833462333817,-0.3026797271484135,1.7262734470414207,-0.11865145847525234,-0.8158340594979225,0.6144428076533764,-0.09945173200792326,0.5005980603657353,-1.1502906460536915,0.8002771780025901,-0.8312386629538006,-1.8563761020135312,1.6316752961792012,-0.7810438773674184,1.1907227720125015,-1.474738035677791,-1.1190405619927002,0.06583426728376932,0.22097299414707366,1.6684316529761174,0.2015964752168733,0.1112373071468558,-0.20424333069338405,-1.9590670946691087,1.1896422106977098,-0.06614378531608267,-1.4408360868503576,1.2306863223450497,-1.3127142003996912,0.3988743602173816,0.8498435610143845,-1.0400821665841662,0.04800055453952654,0.5264203451552036,0.013184900384578235,0.8863679291040708,-0.9247148585788099,0.40487807127897024,-0.7243094523020716,-2.3220787574195496,0.9082988696116824,0.2431509898837105,0.10226573737663106,1.3773307800085723,0.08951207718131951,-1.2726617604600543,0.7238188876564209,-1.0288615354740773,0.2679326429711541,0.3024580940347251,0.8633523590324407,-0.9644935848835643,1.1938100554032567,0.23184997415134234,0.8713033571151633,0.9901238111086674,1.0055578482780907,0.9692703944386631,1.374748920819875,-1.0254157054309065,-1.639621149551112,-1.1509964907305255,0.11572667448116063,-0.20361580065084983,1.4922858105095878,-0.6603692721622001,0.6475567740477599,0.2788105219423891,-1.1629187783830006,1.774647137523391,-1.0343015477198454,-0.6866438755698183,-0.24420968579172367,0.011207935721276123,-0.5769554904458994,1.3734528724773962,0.5453389283602194,-1.1193388357740885,-1.6724345374590839,-0.7336584798205741,-0.330992339193078,0.6381490939150488,0.19923452328801314,0.7583065790459939,-0.489340243161743,-0.1843569398027851,-0.9615123318150153,0.4567033387503512,0.48855407767906145,-0.2925201973371124,0.8890761875160993,0.9385511732342483,-0.5102774117662405,-0.1087780304514997,0.020211130083899916,0.4115226726996943,-1.126807896945799,0.6633493500788507,1.059548466136171,0.5880605826861093,0.16698084977549982,-1.2810487639795227,-0.372994823533585,-0.49070354608513056,-0.3356395003552594,-0.25296768663108665,-0.33291721618648434,2.403387391154077,-0.05970528424310925,-0.5846430222459104,-1.1352022242410726,-2.150815123572543,-0.31632680684013675,1.594214359626483,1.5767570869867906,0.9176612455153697,0.5354892010068062,0.049343585933608484,0.9275508878238926,1.3757853972718155,-0.48638051584046377,0.08024426825394147,0.3157942926157178,-0.1346912681340524,-0.6368001070392163,2.23651752879032,1.1306013582961165,-0.4111982144736366,0.34726733342885663,-0.3775967467930986,-0.4284371351747783,-0.9713930557062013,0.6346019016977629,-0.4671634136073168,-0.6906659516209549,0.9331810003493566,-1.884937300232409,2.0219033708333503,1.5192446241032802,-1.697115121177889,0.6543555733515533,-1.7238722112317633,-0.6926271268612406,-0.7425658389907688,0.6411305852688637,-0.6242954960378438,1.221755824978159,-0.43427112740531054,-1.0524199969310775,-0.7950215715868075,-0.4021088562481135,-0.166854690689749,-0.9403855780441773,-0.12163697414709647,-2.052009455599791,-1.8446789944780537,1.0840809218421381,-1.393010817242028,-0.36076773791692646,-0.8738420386807535,-0.0976456683443854,0.2365414531613776,0.561281696514116,1.9586638565163341,-0.7817026461669944,0.5426001164677632,0.5126364876679821,0.5372257083401731,1.0528034430137478,0.9375335830201235,0.15531203329077264,0.24249680419582625,-0.2799050447124416,-1.1908982644663295,-0.011519730596392526,1.893414469053627,-0.4265725081196114,-0.29839293978737624,-0.9873791835754301,0.6933503386475127,0.7240491719045979,0.7359232287887701,-2.124237336520666,1.003993865879496,1.2207120826335625,2.94233773047398,-0.2911276373569506,-0.35115249239952895,0.6287637307659302,-0.0615931551406949,0.8083893854242705,0.3011899399412399,-0.214614930401043,-0.27241317703665285,1.3648532721007232,-0.2695671989425808,-0.24490516776449583,0.3420111986193906,-0.7814675980915488,-0.487211256705383,-0.35585457936852416,-1.2972966599420817,-1.2484585055583037,-0.5786931427006033,-1.0050571812958482,-0.4279409283083514,0.6409330653179868,1.0642565793583842,0.4969717743418077,0.015568254160942246,-0.08538977575773632,0.49108056156013086,0.596907112001192,1.5534722534263394,1.8596413017589746,-1.2541443982780702,0.30629635058374843,1.752583852153309,0.4442353844402384,-0.5150060749543202,0.6355832977902874,-0.4257734559218875,0.5713926999749753,1.113043075581621,0.5810736271583296,-0.5968898674263006,-0.8498417631820013,0.026560570935285445,1.478735374261321,0.40990864571033897,0.28052182806861103,0.30584795598130177,0.02303008794399603,-0.0712379463523963,0.2706778489788045,-0.3071871607873126,0.13819976813932805,-0.9077218582145397,-0.7645301138449279,-0.5021823932022709,-0.6512064938729871,-2.48143929465051,-1.5571823623874885,-0.9687971100905505,2.011308490602772,-0.9300892322285691,-1.6921280770814082,-2.2491363060680873,-0.5978659762704158,0.6709689771852193,-2.2549514918864104,-0.06540061999512338,-0.4676134457763653,0.20487278046372684,0.04053423568794266,0.168225556785375,0.2803662745368316,0.08686065970892497,-0.7043251327027639,-0.10050356887313414,-0.13398039259159997,0.333187455680413,-0.4246079409335369,0.2887404249131351,0.24985955862274606,-0.19013242374239514,-1.1160191762989309,-0.11941848450994416,-1.4770079916631393,-0.9838922659355888,-1.2932693906800596,-0.2510104960827935,-0.7154578497633922,-0.29038512786801596,0.3878549982901788,1.242529514009671,-1.1213088515459315,0.1880399153225535,0.4072018214511577,-1.4953074777554778,-0.2604686044223428,-0.5215829131843284,0.40207014138612296,0.9442053517639285,-1.1576653921440168,-0.9700118607983864,1.4934764084483139,-0.04445583059860939,0.3919960412971532,1.7988413254639244,-0.9757903710237759,-0.028185554618535724,0.24638287690171967,1.4362838289137407,0.246253480855857,-1.0038530484182095,0.30571202472543546,-0.5146244298584436,-0.2293904713667309,-0.8412708803195723,0.1569547265302395,0.8660320363650471,1.0270912330646744,-0.9131358166996923,-0.2775892999754517,0.19153694496069598,-0.13553791518387642,0.6217635649983284,0.4973678037427004,0.6115456815903512,0.024627882094308648,-0.26148097228372297,0.9908318553252972,0.7295383361317673,0.42565864346827553,-0.17008459377551716,-0.2685775942880024,1.8549571052211669,1.5896868751311632,1.6652739075370513,1.3999666537216136,-0.07223806098403505,-0.043449335470199586,0.5097824065390953,-1.7072633568101385,-1.202838519847948,-1.4134275072764053,-0.1281167479465911,-0.18213592235413217,-0.14803032246870537,0.3251479056599833,-0.8447875653337399,-0.03399556272137774,2.072081944334536,-0.3510969442001972,0.014162335906095074,0.6396716180833782,-1.1264222842427951,0.19664497952221288,0.5153404638908293,-0.4475311208673996,-0.5855063553846809,1.1615060887607664,0.059146716872422095,1.0992400037859344,-0.9115462337754154,-0.6072366595913568,1.5985325972308455,0.7983419576177274,-1.350065738197177,-0.3932483691115424,-0.17548494434018908,-0.18229810244007003,-0.9479890515626302,0.9480011158969588,-0.9940431662657223,-0.1360626960711009,-1.5593827999971086,0.15738822071889802,1.1290684538159304,0.7168220342976238,0.5007925680866383,-0.6314493437247398,0.18209795417383554,-1.6102427624761153,-0.29278548633986734,0.5165516412085178,0.13834426754245657,1.1446476961792615,0.6166681130157339,1.634514577354234,-1.8606667377894006,-0.012962916573742989,-2.199689389525555,-0.9882657053442014,0.4414347325553966,0.5043181905124353,1.4033208706582871,1.1905991587628066,-0.6925786082337149,-0.9920685225616017,1.3035357073722666,1.9308628061903566,0.30899972563297046,0.43809816270093765,-0.7773759206847604,-0.26998776090829646,1.5754668730902175,0.4431357979935027,0.08811245706446348,-2.099694422865303,0.7818348308533063,0.26468700906162645,-1.786798354241878,0.8098034070246357,0.6802267540522173,0.33326402903782637,-0.8019594938423374,-2.015635260570105,1.004241544432571,1.5533870214943215,-0.13765342826661622,-1.5509443694250595,0.506343730597983,-0.886368220627304,-1.4053836893356066,-2.1473102263909336,-0.29953503956754646,-1.1403571532559373,0.08389102490162195,-0.8412952013770931,-0.17484499020623237,1.3836358474973165,0.39199791529989486,-0.7446253245511694,-0.6611669268243904,-0.19517195781945484,0.6365077968087104,1.3966093844348804,-0.5924023654556422,-0.6992208221403804,-0.1717066875590617,0.3542179383233956,1.6892924899274018,-0.08517860524945528,1.3871721233695467,-0.7764073653141349,-0.8149572039673604,-0.7891546432864994,-0.3113593034714775,-1.218073562794337,1.0456617482525103,0.7900405270303784,-0.2698324025376551,0.8445270550488523,-1.2169268677760006,0.3407429799723017,-0.2773059953297129,-0.9228623213609667,-0.836552293945125,0.5551381441548665,-0.8387963017070178,-0.7618611105750498,1.1018104938631874,-1.263846839293656,-0.43246481786735314,0.5831299409861826,0.6663987104629321,-0.24608851922751956,-0.15932575592406806,-1.0206240751404445,-0.9478690942271639,1.300198571531978,-0.12551555026593694,-1.537199221453538,0.12021717880493811,-1.071838068873807,0.8093484384273744,-0.24305715783160065,-1.2065961732855939,0.6966643631540749,-1.7310540338527858,0.9417133923335088,0.7458691566994547,0.617749359325553,-2.8453516655851705,-0.480771392414335,1.075122825157723,-0.7337337053982949,0.982204106335361,0.6880675454033685,-0.22505600771248402,-0.44491196890724555,0.11568805865189456,-0.829984556987691,-0.37503045268292373,0.04427177116757175,1.2068499942473372,1.8051601866642963,0.301245111621379,0.8672917851872878,-1.1447325878247667,1.2214636958565497,-0.1756605062634258,-0.488456793060594,0.11901340969496857,-0.4976799448763857,-0.06780050391266279,0.6639731187353219,-0.10775945932722253,0.2938091906054535,-1.478698288382264,0.9739026834051773,0.035144625627401706,-0.2648260831051301,-3.5791373595346037,0.21887166589663784,-1.2604577353018376,-0.026149465123125316,-0.3857282531283331,0.7821269385331927,-0.32177463103237935,0.13303881318765107,0.10841710495149451,0.6577368644209869,1.367097479819886,-0.06280676381211517,-0.3631547917996029,-0.1686859796415673,-2.122381339903081,-1.57211416107134,0.4813889672408132,-0.0019705066222478022,-1.8259103689374077,-0.7725518237196765,-0.5571783555824127,-1.9562920419622547,-0.4856116793480324,-0.742161534000205,-0.40629536156482404,-0.23121511570798114,0.46019109475892367,0.3899592081373816,0.10200037658024443,-1.2772799770287762,-0.4157042948155748,-0.5726075623102328,0.7257512181454033,0.272188090807231,-1.2097559153827915,0.3059712050481029,1.123283403233823,3.70575515349462,-1.004088755327743,0.5040752846930732,1.1714758556760347,-0.25306745922911855,1.5248837333856773,-0.580091184912361,-0.1103084392771594,0.19720978350013726,0.45823995524426936,0.055879631739888164,0.36858481612229294,-0.6870260263107087,-0.1451360206522482,2.0715672278717205,0.4476531199528236,-0.7960407116665829,-1.4992919196856858,-1.2616096296908716,-1.5429654698211617,0.1406515977105982,-0.618298642166738,-0.7683452946598769,0.10632852336987388,1.3918674079707354,0.353068618450209,1.7159054164403749,0.6966584325486455,1.2089007625723729,1.2004730780394017,-1.706779087937223,-0.5129812080318268,-0.6607913502219427,1.0294883336505327,-1.5705878031022618,1.0570866706709243,-0.04141580745743667,-0.21645870443448093,0.7397884258370426,0.6451269667449646,-0.0645138642071425,0.021095230852950553,-0.4887743886234294,-0.25100958246880867,-0.9003899361690556,-0.8514451805998681,-0.4142971714702564,-0.2851661489808047,2.336741471638674,-0.0835644395477936,-0.3647404545874226,0.2685306139794509,-0.23688359939276477,-0.07352297934501764,0.687975123348755,0.7774503804721118,0.21181278213757282,2.1685853208807964,-0.298419757496881,-0.10659349757356978,1.6644249511756797,-1.3351414061394207,1.3045167204706554,2.563707066296113,-1.8670856041946897,0.7379036822561162,-1.0496527535518134,-0.5637683453532237,-0.9213829151971116,1.773555886969216,0.9293822588615067,0.3927142827815125,-0.2887573017921037,0.8148186399813648,0.5672507819439296,0.4092664479734613,0.67251262057479,0.7376685070600912,0.5346303089306601,-0.9330747952949523,0.5972760119991262,-0.4539244107430762,-1.5305181216338986,0.2770131881774618,-0.9148078640028043,1.2830466117385733,-0.1869595172151816,-0.29386195477837235,-0.4998038999592072,-0.4666045342235984,-0.09333897553234041,0.5860195547244538,-0.06377629699147591,1.1049135345595975,-0.17793413603361713,-0.43116697971427964,1.968874855590407,0.11759186882909152,0.9857061152357997,1.3581299248367196,-0.32110803371405033,-0.616738088437702,1.0841255135453487,0.6073967905192416,-0.1947426607444736,0.491268358250453,-0.4244857226679158,-0.4610419857412928,-1.767104338847723,0.41009240726011625,0.844819742724387,-0.2591362134046614,-0.541548663932068,0.471142526491074,-1.2167110392925469,-1.174448294296102,-0.5611780961024105,-0.43728261506264016,0.5729944289439276,0.6593115802641366,1.3996263605519847,0.8843712319614968,-0.07154400729656335,0.3512775936256381,0.07516929893307317,1.5285595904867422,0.3602936095868873,-0.6607839928892018,-1.2335934059119402,0.5211517266485112,0.7910522514521103,-1.9123412303158458,-0.7002649398144144,0.765050672790612,-0.9004771645813362,0.2698796427610421,0.38462215965131435,-0.0912959258449644,1.4287063006797511,1.2550153175935341,-1.2965186030911315,-1.271542607846889,-0.14593025893760608,-1.0537351419278196,-2.8967845287802523,0.34123619722404697,0.24773687913549824,-0.39441775162063236,0.522695160471339,-0.1682960246406307,1.3861753958078202,0.24363149185505503,-0.6003702456876616,1.4809770697815112,-0.04101825560782172,1.0772288916439612,-0.6832737847059451,-0.18316459111210645,1.4384384723542547,1.1904514979193759,-0.7613173432399138,1.0580147830690676,-0.6483864866928838,0.24096061116382583,-1.2167107986503607,-1.1880544727764266,-1.2917817747749685,0.7940728956476804,0.39777473288385806,1.7401543661168302,-0.7167398167385708,0.16435163196107397,0.6091063087742223,-0.022012130150906528,0.9886539756213033,0.8838706891966651,0.26693022549483575,-0.5305577336538985,-0.7185159257763472,0.11561252890739318,0.3292917090299559,-0.22692899871833125,0.9278070087972241,0.5869645159450535,-1.3389217104372872,1.0925243743138162,1.1150656218746064,1.6108837068952255,-1.665562944952773,-0.43461592072259786,-0.9304353820507625,-0.7963152443144216,-1.6288541341979057,1.3695847979885052],[2.05752412275602,-0.6538757560820847,-1.4504060447594436,-0.9180213795144357,-0.2647445424036774,-0.49750892532135677,-3.175612523129122,-1.101317825553362,-0.5931235002477993,-1.1148314273647966,-0.12230545155849791,-0.2153663644514126,-0.31589761961673546,-0.19138577525309397,1.0826712981021267,0.7111931697346743,-0.24325812731367813,1.5350266958598515,-0.3754543037069512,0.7578605750112976,1.0144076880167407,-0.07084992229689674,0.061640388334279816,-0.4306774676518343,-0.00022962040919181586,-1.7272992734506016,0.9086225164109889,-0.7700829843795866,1.786486182195438,0.06033520947347505,-1.1196257713982816,-0.4644220585207537,-0.5030649298165392,-0.1355471819266919,0.9771714343877297,-0.0823295797897309,0.20653382842621226,-1.0710345375805732,-0.46411226285276147,-0.6376965135161031,-0.847262712306155,-1.0270382267368452,1.736739302083876,-2.196942365691004,0.6216015703223142,0.5474403018291922,0.8579961400247452,-0.7610806997992315,-1.4785363939638987,-0.17236306705377033,0.6768905871806489,0.1024205706436608,1.635915331851202,-0.20967063673791303,-0.30963160108106685,0.12277142565835525,0.20890297390370574,-1.0343042287465256,0.11490652501926868,-0.723765380328351,-0.18260082716016787,-0.8814232635644162,1.3826743303462152,-1.1863593596168927,2.020817280579883,-0.17078088591024404,0.1993297841553724,1.0628131452704856,-0.41763613857376636,-1.3155656189021514,-0.39943894161266,-1.5039804906691052,0.458755423099262,-0.15657990551228018,1.3580138340561054,0.1754132287883481,-0.5261363818543208,0.352072190324161,0.7107901566368255,0.2114192307021508,-1.048774148106234,0.12452336655173281,-0.10166191672891776,0.5354419759308352,-1.372091430565251,-1.2078215532962862,-1.7515346298985794,1.4717934169458702,-1.60325728465302,0.596654594626756,-0.34499406674144845,0.9178075189260462,0.051737960370698784,-0.2141304543086316,-0.6530695945446353,0.6437860260912026,0.2421402249679001,0.06872576194566478,0.23127656825316129,0.5796241071122461,1.0624003710589653,-0.9768554053810073,1.45831747422099,-0.31658756686283224,0.35581298891581553,-0.008902060917500114,-0.2644268821494445,-0.1604248022055568,0.47885840620017567,-0.7080588141536808,1.0014398692854782,0.7391413257963237,1.0606841982099757,-0.4045761083787815,-0.7156399432640148,-0.5484646890837713,-0.7482514584445451,1.0049394654777994,2.610997996275115,0.6405734243006381,-0.5582336812167533,-0.7944071997709489,-0.98542292120064,-0.3330588704537685,-0.1688042544629679,0.3448480201870861,0.1648362153075158,-0.4960456853351263,1.7123593914865751,0.2714835758742764,-1.5458819174139695,-0.4077021041530643,-2.6619320198263643,-1.0156492131551091,-0.35303758391389456,0.9834291192093654,-0.20217195462612003,-0.1931666145496327,0.5649673011901302,0.3458253533112636,0.814072489107641,-0.3010246320823259,0.7141947933036815,1.1775888512765091,1.0260737948024397,-1.2035081177572695,0.6551966103600196,-1.768003925798136,1.2463192178316067,-1.690935969897331,-0.5282413715535939,-0.23701053496167232,0.6037977431305787,1.2304839259967817,1.1696791818203331,0.05640618578393495,-1.5756944925228233,0.7153531516582047,0.46206614822173064,-0.4411896158103313,2.3774604142724916,-0.7517702918390335,0.07340127460643417,-0.7812707921874449,1.2119990577066888,-2.043073844365609,-1.179690524255211,1.5715745464057707,0.5565154159281713,1.524178151484865,0.421021961568661,0.6132598605123054,-0.8400084098631652,1.401366618649342,-0.968139665313831,0.6982892205828529,0.8713441632760905,-0.7209317889601803,0.5829663319987557,-0.94446611094185,0.6501895541990272,0.34698071225116855,0.5715276683512421,-1.5113101527596962,0.9294770492693653,0.3899892734184528,-0.364078185315494,1.7501649052038826,-0.9239452158457406,0.11158454594970033,0.37115225214401754,-0.18018411038439447,0.3973558063206923,1.3145185526642928,0.5116864440037363,-0.08902937996771537,-1.3306968100823688,0.44190867445775306,-0.00642329736523199,-0.3620382191825862,-0.9680143561878418,0.5983245385869962,-0.37089131125938707,1.2190959326066988,0.4572990967607598,-1.6259458991763422,1.530437648759286,0.02070203284702832,0.309631536955368,-0.3758754184000813,0.05507971143235739,0.27332181859439153,-1.098484509011496,1.197023795926148,-1.2720001043957103,-0.3647097783559509,1.7980303183815494,2.709231158666762,1.0607486144607274,-0.8211613787011353,-1.1315606308229107,-0.3657098483123675,0.4869897705542998,-0.6251329585986203,-0.3203622124368469,-0.18675974613779553,1.6634667283847793,0.17031989887987237,-1.1243868696515464,0.2783157797094732,0.1039601556747964,0.6351865242324684,0.9982003490355819,-0.804115773145173,0.7346976714755338,0.670801796375886,-0.08673847594479484,-1.038127048696478,-0.1556870543170312,0.3105305140948048,-0.2785446135527027,0.8087127765715568,0.5293130326808317,0.0858789913305609,0.8501452132493541,1.9069811993584198,-0.45520134887693803,-0.8988889429615753,1.184866339317924,-1.513703874978112,0.3197381023860536,0.028713330115337075,0.1521301921131996,-0.46460805063368404,1.1624605612018508,0.08515757492390466,0.45206145072603243,0.38103576453951143,0.552670894835813,-0.708023331943553,-1.1185941186591983,-0.4890044844465102,0.2519084788603757,-0.6489591620139816,-1.8593051750223175,0.550895200210165,-0.2672294272261763,-0.6105368108787699,-0.38527283662720846,-0.003452279444626694,1.426107794937277,0.7728967223986098,-0.4716413158467412,-0.39825035416130583,2.1071907541888195,-0.0762830365672172,-1.5728783408725693,0.763122314889504,-0.30550196260265117,-2.4825077943782317,-0.5368965611751148,-0.3734190162055095,-0.3841085597411169,0.4349940546840968,-2.0008250806517363,0.39332365365440836,-0.7432723385437738,-1.0424283776874732,-1.5894538812644865,0.6571519423336228,-0.08638519986040374,-0.292892125659985,0.9875229074129889,-0.4046145614222524,-0.7495342938099733,0.16339551242921707,-0.4273840687970051,0.1760547837091065,-0.6598252058750878,-0.2805215078415475,-0.3941024932579833,0.8232901972143754,0.10652140470336942,-1.7181698377006416,-0.03280210736414692,0.4821150164433491,-0.4886225755145952,0.9211248271458484,-0.2199780469024106,1.7296660310150618,-0.4945246036272005,1.125709704453063,1.0290921480082964,-2.142510640901043,-0.45413734179740767,-0.8805152508660485,-1.5217086277767802,-2.1028818112865166,-0.17218805982953517,-0.8497561017861581,-0.8983743981923491,-1.5837265563451874,-1.2978126223162085,1.1743596868196748,-1.0219456849794373,0.8729975572952291,-1.7154918216159436,0.22541092103174498,0.439051393497041,-0.6447389672806138,0.2149613055561672,-0.9300712909587887,-0.5011453587041635,-0.4035366359831819,0.08714460897829221,-0.30644089875098834,-2.1212195862805845,-1.7329110891377602,-0.5173933478155704,-0.23055869714507243,-0.7517353471529055,-0.15976376564659164,-1.014282454626721,0.4572987647535608,-0.6879010277357539,-0.6722882815901571,0.09210173561983895,-0.413864034426931,1.1852141150291562,-0.25286778808902505,0.5263105957692171,0.7623449634860172,-0.7129875446710255,-1.3611239085609623,-0.4834375372374389,0.28885790504522335,0.021939326570022483,0.6830040202708367,-0.6059119411969743,-0.5679283686608984,0.01174001457689675,1.8144848382254146,-0.680805729742034,2.3514309407596854,0.48647835517188176,-0.7426510892320235,-1.6705878084866308,2.4705812086524044,-1.396794364119953,1.2284629859673675,-0.269583431751942,-0.3183836081551632,0.8315423768718943,-1.5803044010917031,0.0744281073109049,-0.6355160227070289,-0.9985836337033119,-0.37388831900441116,-0.6394823751582623,0.12727898605965507,1.5126659381087255,-0.6784909783471501,-1.2021677722098774,-0.00693132578711768,-0.3505429130550122,-1.9734514315329745,-1.636044200023706,-1.375584420707486,-0.6226725924226463,1.2385421147637208,-1.4524582460710853,-0.10308009079962054,1.7945316792482093,-0.2625870018616754,-1.2370478281164627,0.15441345172361998,-0.6620328503742302,0.6853234172145228,1.4085271896625016,2.2161543420622,0.14421586275146672,0.8905775429697997,0.8424856990265177,0.7112854476883013,-0.3807887436523503,-0.408613156367652,-1.195303680962595,0.21399076864180863,-0.31688444529321863,-0.987703476178195,-0.24607780379957142,0.4196327310112736,0.04479719209290701,-1.2647999697324968,1.049136923993342,0.9495535290379755,1.1021230992319264,1.0730439968875878,-0.7754678888835902,-0.9548171263082654,0.5205443525543231,-0.6252329626412207,-0.521033154549426,-0.9136931843771631,1.1148409657811293,0.2946711439237553,-0.498432202951946,1.8574897814364113,-0.4676892639322813,-0.34155161509176946,-0.9560901227410442,0.8969970389571699,0.38944957416547654,-0.4780516526745093,0.12663266339843018,-0.525489176107986,-0.6251598589511341,0.5463400866790235,0.5577009267462418,0.6322392669959874,0.6749404096441168,0.6933494974603366,0.9741119708608307,-2.7848337474262985,-0.5146369141333776,-0.8759995137554074,-2.616491821728117,0.3786111374608214,0.4530101317747554,-0.1135959679422973,-1.9125202032080693,-1.0500814059505568,0.12675423502499134,0.9399938358048574,-1.837459312124312,-1.1150182813518066,-1.1560936346496524,0.15869474155861268,0.8220649241400343,0.13496458574409864,-0.1423110552473004,0.06295982148444294,-0.9740439797373129,-0.817666815201519,1.6595939670147335,0.5602640001554222,-1.5580165679603313,-0.6389936070424923,-1.105376258769707,2.3695480951250634,1.6128846349799781,0.06307399931405785,0.953014732572978,-0.907099704554934,-0.38186633001696263,-0.10314818149334434,0.4010955859561192,-0.2099107610059158,-1.4063275356812321,-0.8523121452574299,1.2077533680514034,-0.009532915425822986,-0.43599705790025695,0.13504107145535693,-2.0244958356404124,-0.02206045224914559,0.35283721656320516,1.6353298047110085,-0.0980106123990552,-0.11908157816491598,0.22089627845312396,-0.46898860578475277,-1.7243550085463843,0.5126046784257572,0.9791335465731693,-1.350581292527085,0.20876027059979962,-0.5576813926688118,-1.2129898409278692,-0.8427579184831023,0.6044664166892733,-0.39845360808644115,-1.044826375432931,-0.5200850548631973,0.15290104866530513,-1.128240662303854,-2.0164964835729107,-1.631035795716757,0.9446465715246458,0.6491278362196256,-0.6955629268577037,-0.09547464761603666,-1.2125828016147746,-1.2150990123315162,1.112898662622971,0.10543558509853582,-1.047796629130595,-1.871708019862682,0.45116878218948125,-1.1186958946240833,0.35342517778677296,-0.3083211830385049,-0.21983536071757703,0.5556732136382996,-1.9219448785268392,-1.2097096262047917,-0.7004463120661458,-0.26037010474420996,0.46192773938314224,-1.9776370927376783,-2.5969778537013455,-0.24768084008536279,-0.3903256318952617,-0.644814456868507,-0.05023344024334743,-0.9429077051025345,-0.5233337179626604,0.6556028905223189,0.22753946734655234,1.378104897004746,-0.7807699365097536,-0.0756185393842726,-0.537814393793322,-0.671675167827281,-0.9707042558610843,-2.2752018773668734,-0.5530852630728373,0.395623627537622,0.8627848215949675,-0.8518903562849202,-0.5145848732826113,0.593010378898039,0.014236286926639799,-0.8903035942618662,-1.2937032543447073,-0.5514896644769475,-1.2956552540742934,-0.5073520255279412,0.9550216361823681,-0.7908660506387529,-0.44195603328210636,-0.4940189685239689,-0.0159144849412407,1.0712866712058209,0.5072266380809052,0.5031412058331816,-0.06451838358778914,1.0320108344580101,-0.43259006803123246,-0.010200213278569667,0.018022206960724808,1.7572495938688708,0.22060643918944928,1.1592856011226016,0.8481501997193912,-0.3821941838391302,0.18203407719672365,0.47560540704798066,1.0088183619459412,0.9680947223345683,1.552061566896012,1.163532363512595,-1.2414886766676734,-0.2953510884226725,-2.5356497877674506,-0.6839334799786048,-1.086789761643607,0.14904011562248357,-0.7492364476952641,0.05400290049530756,-0.6162969094178377,1.0320840390425121,0.45271199713698174,-1.0239971307167781,0.011364091996382145,0.6337973277290201,-0.6342190207656225,-1.3982036859099003,-0.925032785966077,-0.25713382764905857,-1.0998277798601432,-1.5730856364880355,-0.8708335638632456,-0.5173598984812017,-0.5119995247327948,-0.7767056208325691,-0.5875907399451525,-1.67101901658038,-1.0680381494750226,0.16881896245757652,0.24364185018935514,0.40887867675731965,0.08073135282745555,-1.1476663739309245,0.16714935338395087,-0.215618903665263,0.011264400295765515,0.5813450320286349,1.0327093982263698,0.13484842552411522,0.23931363345136947,-1.7545346376123712,-0.6288931012828862,0.09509932273164849,0.8660226196812912,-0.34098295494144093,-0.7461200317262717,-1.3603305667503185,-0.22285115251033344,0.13042219082132733,1.058186201525671,0.463001316046365,-0.14821550313742599,-1.2261114543596106,-0.6042515962580668,-0.24116368319036682,0.002161524725781763,0.34389046854986455,-2.6659771462895483,0.848592340117255,1.8758346013603773,0.0299865404431993,-1.3545910822278115,-1.2980693765473337,1.7907936956275083,-0.08030315165376803,2.1769710920673715,-0.05786129722362623,-0.8211754818475828,0.15787580326290368,-0.248533580717863,0.38422482562004634,0.9416282395660617,-0.9177512748525198,-0.7378406209840692,-0.11810363140636611,0.15778134343859157,-0.1351285896070839,-1.3253613921659049,-0.5305330771413517,-0.7059418023082423,-1.1493148838988305,0.9945276727607234,-0.6738928341341488,-0.46708977555784004,0.23290700325389393,-0.03649098160141831,0.3663882091345497,-0.2988439636941954,0.26788331493424183,-0.30435827949998634,-0.8192843432776914,-0.9813675946592159,0.17035057802966183,0.3923243616023761,2.4490114329951505,0.7071284370492427,0.38082244229564294,1.0716171539088972,0.7158691707060029,-1.311079978957136,1.2062813436182729,-1.23396687610126,0.8429580230906153,-0.3829853416051904,-0.6284853259333296,-2.3367577021318997,-0.024528264203307292,0.003573697936350817,-0.799358557414204,-1.4228419396314105,-0.2677507090947973,0.9962741505262244,-0.14426450565887794,0.2112643383219244,0.3125322735384109,-1.8721074497313326,-0.4346754513935343,-0.1415460710802715,0.6924029626848948,-1.2430746709783858,0.002493476478448288,-0.6678446682541647,-0.33734922324709293,0.43071701165129617,0.059731624479492415,1.6057166433418846,-0.2078954667542444,-1.0948263585878582,-0.5297480031280501,-0.08937398834472726,0.3568696171622417,1.020769391170928,1.0542227018122734,-0.13076904351160026,0.860716046881246,0.2507175412491485,0.04464314315065615,-1.1048152087871037,0.5554763241128237,-1.2971079767211242,0.12066999520021408,1.5238654784764536,0.48868930679492445,0.44679240286638366,0.5561596539634018,-1.1147803522302007,2.6459261210880225,-0.7556765415621808,-0.07026401545762234,1.6006028047593577,-1.3530102672891045,-0.19752664636805806,0.039475535129859116,-1.414797135516205,0.1137233745550742,1.102832404913046,0.6259467682642526,-0.02883418709752946,-0.4598535999507563,-1.8484769043163067,-0.5114086470830236,-0.4999170246738232,0.5153908111971904,-2.0745585607856314,0.0027593971882245846,0.02958028865796921,-0.9879222304168138,0.4350049199573858,2.259458895776573,-0.7893661095450738,-0.9110652328619316,0.04053707962497531,-0.04721416008140208,1.3005834090542474,-1.2238462228993008,-0.2753734792659308,0.420917395717386,1.0555577492604344,-0.05418017803736606,-0.5570002430962033,-0.22850594016726147,0.2576387744303351,-0.5345224441838552,0.7281607507709759,-0.5077360264683238,0.07841997046193962,-0.8826524974855994,0.20435226959281974,-0.3750465890623673,0.12033686883992838,-0.3080532342197979,-0.9413453423164987,0.31575414064760693,-2.0001884987663083,-0.03284062602938988,2.5097692221955,-1.2945856948541592,-2.306392026588888,-0.3984286130091014,-0.5783933429513971,-0.9466297512258843,0.5396559344903635,2.060336259579247],[-1.4138414787213303,-1.0563210614658936,-0.22718018101582205,0.32502694475299115,-0.06699157829707698,1.1557400800525577,-1.515559061923328,-1.3153915267273912,0.7353140218716324,-0.5754395371666146,1.2079734192813532,-0.47649534734541604,0.6374285281556437,-0.07391623082232304,-0.10597002680348387,0.5045136585134464,0.6198608082276067,-0.41930362397680754,1.0566384754503029,0.8625418176696159,0.4178359862068676,0.6751819082022796,0.2854683672382636,-0.4987168075948883,-1.7734367340250594,0.6094742636826773,-0.008833291711129268,-1.1345520318344056,0.02227606918645943,-0.5254520138769625,0.6679396835840432,1.2896293559181515,0.5282758066181716,1.0650178691923453,-0.9928701082456354,0.7046263576287538,0.39130686337013876,0.874081495225673,-0.1156939160191197,-0.7299620390701282,0.059595062830789566,-0.1274671811931039,-0.306059195784603,-0.9907846191131575,-1.8663024037422993,-0.2860562719767864,-1.0657254455223952,-0.4164035984251474,0.21454514114856457,0.09281142115480012,0.45655474482363956,-0.26987026601676406,-1.1625936531532532,-0.823697417828272,-1.278484661594774,0.10773414025372009,-0.8291975735205899,0.8424321247061866,-0.11931135954350482,-0.4131729055646164,-0.20411761852687316,-1.6826084502705274,0.9150458591501905,-0.3143193262118759,0.40860683298305445,0.47964342762288736,-0.2110375883999174,-1.5829761201529187,-0.6385352682275444,0.5976163198368598,-0.2071217149488775,0.8941615104545413,0.30212348772881625,1.2204516688512594,-0.14417461122976674,0.41052466222014444,-0.8584858274206169,1.6702559118770144,-1.540636375923669,0.705738555044752,-0.1345228839061697,0.17250408005759724,-1.1111642926329994,-1.8659153119423773,-0.347312390558929,1.6460256318780044,1.3460370317192492,0.8506633287145526,-0.22265099644846623,1.749071175095937,0.1932722535180567,1.148344650579712,-1.5458687644007845,-0.05823085809593812,-1.43652876279808,-0.39059278045142526,-1.189114315127664,1.9979451761316898,-1.7002573210614347,-1.9694586642206637,-1.8391059813624748,-0.10863968795242945,0.6347840042391129,1.7524283593208594,-0.9027920539949275,-0.5024330764961278,-0.6754515863207857,0.5271144344016822,0.2504735542760056,-0.2805601644739828,0.8639920444902274,0.5811709119924957,-0.14534266624098727,1.0871867351644773,-0.9832472136081284,-2.0851246273550053,0.14021981720935356,-0.062395123380240204,-0.9670321476737336,-1.2408537341161445,-0.3458463637821328,-1.356004299301924,-1.303516543056939,0.41223544524230404,0.17148184144413636,-0.176628303359181,-0.2547200611332803,0.0605789773002332,-0.7107121661066468,0.4812560689832784,-1.6841242160375298,-2.391136445546846,0.2696075547340523,0.12373587533452604,1.3100648613026555,2.500997013750532,-0.3805977707966692,-0.7380931049548348,0.4625289299204116,0.2692538017190651,-0.662684099862031,-0.321825652906981,-1.4897939582769715,-0.40605568196761566,0.12491446582846549,1.0861768948901962,-2.124696837834974,1.504535705488219,-1.3232237332022876,1.4874099537170824,1.0359108976186278,0.11523355568555584,1.6355133821416203,-0.6022423818893721,-1.3252231837187498,1.9560434986146678,-0.012933329103012717,-0.749497734466024,-0.17835231977355667,0.7617781315655426,0.764455581045404,0.475620256300083,1.0562246200656962,-0.4701032075341509,2.456788475539662,0.49489942314987756,-0.6300550367263644,0.25529270953370164,-0.5572263371899159,-0.12896735348210508,0.49632882626561325,-0.29477257700729315,0.44354550259104814,-0.3140169751900196,-0.15422976050304932,-0.14382499145342342,-0.4897704137308073,0.9443490771153237,0.9061739200011417,0.03886446469769665,0.9348109284159077,1.4640253802853747,-0.019123646896931152,-0.8268855588706158,0.5101816867365989,-0.16341683633892107,-0.4031493495137651,-0.19005013836868442,0.5656028299761533,-1.2264665454851142,-2.3566639308953663,-0.3502455528674521,0.7598031495491016,0.352112634984339,-0.5024334380448905,0.01857059757562931,1.916199015573272,-1.6676816700270038,-2.7438253020214933,0.04655712610952745,0.11610903226783756,1.1844270570426567,0.3554103260827164,0.46685781706989027,-0.3952273992654764,-0.2963081749676134,-1.515048280796846,-0.57422973216223,0.6847554782472894,-1.781830021536598,0.09663110445756536,-0.6113403375554777,0.49864126519118007,-1.6774135255046247,0.7270611550780326,-1.2402961676258848,-3.0760006854822124,2.308437723540734,1.164182736875743,-0.5127306375893964,-0.9939859946725415,0.14458973348501686,-0.8365545408564795,-0.97262814541898,1.51569881239474,-0.1660475952516653,-1.6847917272780486,1.3877318692159555,-0.03574448566695588,1.1031937778894023,1.5884717991522872,-0.6746184312194564,-1.9178422137807465,1.16038544174357,0.22987732209281103,-0.5280792012495966,1.386668283427463,0.30345847964743594,-0.7580656464169296,1.6181368146678907,-1.0191260123476384,-0.3434763924241707,-0.9729650871993358,0.8767126616442593,1.4164975840741225,-0.4027418974545164,-0.8927005644227901,1.1246280111825862,1.7407262609147667,0.15438966774053314,-0.5333027867378956,0.7736381436151883,0.843898952500882,0.2008773521075492,0.8305272194754776,-0.8731914550779587,-1.4039933742336306,-0.20505384129320425,-0.25285210740431485,0.7257901933905707,-1.6759264570776453,0.60042536296728,1.5015893028313219,-0.46939492417264506,0.9118301868772429,-1.1255139386027284,0.060368650525823,-0.5963401451451946,1.2151145380126136,0.8913476371152147,-0.09192761312554855,-0.456364044340461,1.364517378035516,-1.6122031250389866,-0.4313319431566766,0.13921700167408552,1.3644230116038638,-0.39748763897853556,-0.10581557437504026,0.22109687464100258,-0.2830677083036947,0.43624052267896135,0.15988714048018657,-0.4232216510361484,-0.8569788430129645,-1.1614990152459417,1.2039690088728587,0.4555353782230754,0.5044706285954493,0.684804165270462,1.029304114591156,-1.2352433563684342,-0.918731778622496,0.4752938374464541,0.007879268811791735,-1.3682150414442518,1.677261795102073,-0.6451671413900117,1.337704495344876,-0.5578753726406837,0.49627820527741356,-0.31188947008854395,-0.24213054878597082,0.5933698793911705,0.3944333424716925,1.0066807989589401,0.7680079038440291,0.3913373693487832,1.671511449706776,-1.2483242608103229,-2.17706443382427,-1.4590130956357132,0.5128307132236224,1.6070137695939368,-0.27433339674769425,-0.6034405992809887,1.7234904538803546,0.2818426750437701,-1.2210815028644928,-0.25718253025517535,-0.8612048679572718,-0.318472316665081,-1.677976269977604,1.655909778303283,0.9475368107958502,-0.15016865587067568,1.4641696935439923,0.8794213656334819,1.0370384061072546,-1.2944935322072628,-0.7347311333663176,0.4982698026573446,1.4459201610299615,-0.025837047597956637,-0.9693888354196957,-0.4493457481077349,-0.729778699538132,-0.5883282383873671,0.15592139619225803,-0.7443342228804656,-0.6457648950745051,-0.0927024400496268,-0.8179760332410208,1.071588511990916,1.2940679423813493,-0.2829516775529261,1.0335940742667389,-0.527064684089848,-0.047379552143819205,-1.454631305926678,-0.8814930553400345,-0.32541752754602654,-0.2582958694721778,0.11835554428564365,-0.04016634242031254,-0.924136678308584,1.0657681213408556,-2.087590767033401,-1.2627406621500574,-2.4033453898489987,-1.0303078820128553,0.43997987392456517,-0.2303240701502181,-0.4753505258775053,-0.3250252360047924,-2.5083874011277754,1.7117320908364964,2.3012092346234576,-0.6596099640645312,-1.383963851881465,0.9379191551218744,0.1348178713331907,-0.4339657056752228,-1.494721532911544,-0.5118530058751168,-1.5734337640904643,-1.4454101229593646,1.3567212664091846,0.7864104567440401,0.9708884486263426,0.20560739141973086,-0.7758789447373337,1.187415294963545,0.8267901696267057,-0.971670338293486,-0.45324541205258667,1.4861720335153583,0.4238280139903844,-1.254234786925548,1.1866503522651886,1.7381634212492965,-1.5489303216403045,-0.4571716433730057,-1.4660374985765903,-1.9638891945906987,-0.1808994199673486,-0.8642525337326814,0.3834818110466621,-0.8988888854600157,-1.439441470534024,-0.0042442584460956,0.5765752269731632,0.8834102242067675,0.03009837238653439,-0.12818355404355067,1.0139133576927317,-1.2742736579988014,1.4274110954755375,-0.08690501014619148,-2.647124517192465,-1.4825429005371888,0.7150290919518537,0.4974180833914793,0.41238260280149996,0.5917476870854924,-0.576797986965014,0.991279709033327,-0.9487376248905686,-1.1973844136701546,-1.4136884536272483,1.6750080035299877,-1.4876033033930625,0.6570470926836056,-1.4900667144786661,-0.1253426393187465,1.1844190690349228,0.020471091997226347,0.4044075202324165,0.642644074333397,1.2966587569930348,-0.8159578028586479,0.21053221393614005,0.5053209852909651,-0.1231921910009166,0.05178927003487561,-0.4671653929662903,-0.02613315325025966,0.9650206646337414,-0.24469791009672984,2.2185318040107167,-1.2297084616004847,0.6791570316143051,-0.3164739718688559,0.9569449569150573,-0.2691805749004911,-1.1719600057476274,-1.7849371891243735,0.056929092296650795,0.5539349130625907,0.5565882279999351,-0.7200854714631928,2.4244179161078607,0.9258644796676533,-0.9310870566154875,0.2526471681936729,0.07598549012415061,-0.7226648092938626,-0.2544624762640432,-0.19510095404707478,-0.4346263541224508,-0.044701025497379775,-0.261621231744105,-1.6558916508098185,0.58045616448631,0.7552236741754103,-0.5458656420134935,0.9096156321783848,-1.039312777686306,0.5787349731977459,0.4645133021878751,0.32968776283513795,-0.1088844785848305,-0.1388818156193705,-1.3045995263912908,-1.5605033155404846,-0.3812841835273618,-1.1762422343725278,-0.5223209582846419,1.341979230292179,0.37292967224582757,1.8347723059358136,2.014117281626375,-1.0273278225003148,0.9964751615756258,-1.3842284180910045,0.746893481136172,1.195991753923364,1.3764195142865883,1.9706566696429682,-0.7758428043216069,-1.2132152489739594,0.6272264877004063,-0.8038917222211285,-1.8047100226831911,0.9402816338927001,-0.97371609846443,0.20208754993075162,0.7735205523959917,-1.3518771869058026,-0.1620590061760578,-0.7023738747508639,0.2409201225484962,-0.2210627950300952,0.2555392755223303,0.04308020929630414,0.2526371392058697,0.3283985687449412,0.7248756800109712,-0.8963705649591,0.8789920357746328,0.13975196305806875,-0.03658927632073158,0.8812012438935083,-0.54497516027955,-1.030152829372148,0.4708610906064526,-1.8467638010021872,0.999307823363124,1.5452783482666992,0.21117230406758838,-1.5235238356721639,-1.8048754446549649,0.2568472440448256,-0.2812782080505117,0.6927682558811854,-1.5505453585726894,-0.471607787573047,0.10117459666383598,-0.3890651221153393,0.2793505138151998,-0.6014552415086856,-0.5200197522677187,-0.6190084812116132,0.3561017048328873,0.24806895125345405,-0.3638090049049921,-0.023209489262607567,0.3487295473961088,1.7256072881530675,0.44691077459966533,-1.3778106427751673,1.319751258198939,-0.03129709180129728,1.2264592102010643,-0.023119230364978375,0.15980585991605908,0.8010161339698737,0.5724655828710055,-0.6796897867868358,-0.8424216890713088,0.8323332949262507,-1.2501020990037177,-0.26173630033150685,-0.3413813682366811,0.8343290816837281,-0.04089537670623932,1.3444407320755316,-0.158410916501428,1.1485903772775672,-0.33674407720650046,1.4955616134340286,-0.3050544647292886,0.5512987849595636,0.40433865693893656,1.011317521391332,-0.31952891674596573,-2.0395938209587654,-1.3244949607599734,-0.4640358545188162,-1.28215729717701,-0.6867720822169727,-1.0919576752039497,0.5034852704117335,0.5521982639742519,-1.3657670357490155,-0.796091278562501,-0.5332965980717523,1.8661848397633267,-0.49190459329091457,0.025456321935879638,-1.1267624784480768,-0.09096126073109764,0.7681095312805933,1.0697586711925111,-0.10038707342818923,0.6252442745796197,0.4476267545554976,0.572838961095437,-0.8419387272723278,0.813326906589543,0.25430113014205274,0.4802548363911916,-0.47353738291097297,0.2604982133790993,1.007392032986708,-1.5813563569030014,0.3333235742748076,0.3570696667703502,0.8785200862589647,-0.5515648338845263,-0.26739359625475995,0.5498025492677658,0.1658556932121339,0.31079346764536303,-0.9601631936186972,-0.3355796390671337,0.3390340350438704,0.763477446853994,-1.6057422083823025,-1.0467926785774029,-0.5224673766327479,1.1946727993564965,-0.6854257195969388,-0.5729146944414705,-0.16284186843649934,-0.1961105934137053,-0.5327728080123976,1.2424247962340838,0.606427372350832,-1.9991307977903705,0.320155272131537,0.023224300677182983,-0.3802312493088644,-0.13243523028462645,0.8683004851901682,-0.6055242686076521,0.8522255469344228,1.38743976764358,-0.018595241684987725,-0.043144719829281,0.19123353529057888,0.5864769035014333,-0.8082983206400695,0.6206876183409763,-1.9467238678723304,0.11020793348269675,1.3068707383245417,0.17687592685347014,-0.6962359700830533,-0.18263654387374537,-1.401653561485466,0.3793589339558167,-0.7156807175385967,1.5612315057390156,-0.1867139185487194,0.5423083928281437,-1.380300468238642,-0.9114641633777862,0.6645888203262599,-0.3822912230351273,-1.989444189781663,1.4799867478801925,-1.139747140226615,-1.2765403826232007,-1.024998293310647,-2.234212434302988,-0.12309485277333686,0.32887797339139635,-1.0047044207933893,0.7115457067180108,0.22950973911904088,1.6199410156108773,-0.857829278080827,1.9020239193562543,-0.9222823046299361,0.8753071788941832,-0.08037887504036785,-0.21794540380060057,1.2061093220459127,1.698261107142998,-0.9907813171916271,0.34184514851981207,0.2185803150368146,-0.46696274275220195,1.9754419712574403,0.8218924848786092,0.7489198175593361,0.20233069540449442,0.6135063465381962,0.36987257391985173,0.13328888561822202,1.4070692223229437,-0.9504218603860467,0.43857345923841223,0.3023486145639747,-1.0744746369335256,1.3499106089539623,-1.4417204306040006,0.8389123824700114,0.01866164833043127,-0.28946432897777596,0.6993757297710796,-0.1313438864298266,-0.7968519343319335,-0.5113854062498132,0.12182626931909461,-1.31812199473636,0.2536114915566689,-1.123205614962206,-1.5928206411670098,-1.1707753775381338,-0.7509517387655502,-0.2693039511791004,-0.7701668309151373,1.0568551730175435,-0.4800659806425548,-0.18219651331961956,-0.9682198366402884,-0.029747198647884547,-1.7970154528980962,-0.7213399502212371,0.8123643495331245,-1.1523304612596532,-0.43899762524084857,-1.7516862345930204,-2.004996582730668,0.6256501684958122,-1.3326603037081821,-0.305585982971001,-1.6076964040930393,0.5602414252576493,-0.8034586682393476,-0.9487462944681551,-0.6412946270523604,0.9840846456305556,-0.21003518865374063,-1.1846965871463484,0.6762236946096962,0.5671969923532991,0.0029089534885864774,1.2242294725139893,0.4908751227629496,0.14084262696792718,-1.268941422405885,1.6214113693448462,-1.169796260844512,0.5111565754477989,1.1148868618662278,2.3259507742748595,0.9654979852780289,-0.638931663875125,0.5672474765781327,-1.4871436896796328,-0.9960467403312963,1.2824546081062955,0.942044315573415,-0.6514956520800071,-1.300732459223949,0.6535913070276128,0.23931657897449635,0.2379898069429129,0.3119610040413145,2.551940587638131,-0.3038075375089062,0.9934038704104556,-0.21679634558135602,0.3657838001369523,0.036812384618140605,0.7868384014005655,-0.0863085619843375,-0.3079843616859644,0.7914704330594718,1.364312079864688,2.2056242499247345,0.866921371109559,0.7608191136765035,-0.514982166704256,-0.5255295443979014,-0.19281803317881724,1.9234972302071551,-1.0428521989857973,0.5772906398667274,-0.2920105162355825,-0.6271323064913308,-0.45942067571023837,-0.7844256431869034,-1.3373649506512415,-0.55655411799673,-1.133889904620224,-0.4653004877127115,-0.07238666513706289,-1.6487659042673108,0.472534406386315,0.3098890201259579],[-3.8494315403586565,-1.149496606736732,-0.3858667275661345,-0.936331597808951,1.9722619046716832,-1.4290056381650091,1.7542229624384067,1.9106523187489812,2.3338155446639925,0.4657739488420456,1.0336296320958178,-0.1443104397857705,0.3027715366687134,0.3266430612203637,1.510382140751416,-1.8133196805066252,-2.0344832221528115,-0.8061477428020697,0.09701621755250135,-1.1349590811192811,1.736673070570313,0.154161160218892,0.0076250543875854004,-1.3397641599970798,-1.9910584162319585,0.2685459789490498,1.5315510581551508,0.5382720712039478,-1.9842994522867816,0.01428078359766518,-0.01959825066474606,0.42656677865386866,0.6218325961524519,0.815985747883169,0.005992633287067363,2.0030153346378823,-0.4742374033376976,0.7744131810317016,-0.004885877552963493,-0.8635029380460613,-0.9847994559449152,2.740439879328572,-0.6224764519122575,0.9601040574487532,-0.4616791021576843,-0.18978394441323673,-0.8950510470329991,-0.24659784126413856,0.44749577874616653,1.0112652344659878,-1.9581599778818843,0.5886617192671968,-0.6443496799638692,-0.029479325376510438,-0.2624303645133205,-1.1115331523626402,0.12217908182703058,1.7121031474947745,-1.8875773036128665,1.4237750587127758,-0.42205601619352406,0.4248424615844248,0.902051975956917,1.0932686954931206,0.16237988713017618,0.1766661220310271,0.4306561484118409,0.31817393272324074,0.6520969085349174,0.5096527914198434,-0.3872646544432341,-0.3485239139304282,0.10333992619322356,-1.8893560393453155,0.9607670922707754,0.7466348611885065,0.24174637078096575,1.0591133657103158,0.4621225876500949,-1.196075594308381,-0.4646817927288103,0.7953823631968572,0.24609911353654962,1.3272208040025297,0.42924450752813,0.41037494320204637,-0.9023722604980569,-0.39275438087447684,0.4004266508717451,1.1331617964014313,0.005476991183911799,0.3157743739066893,-1.0919467751233134,-1.1177503854262634,-0.9246803460506431,-1.6837390106840362,-0.8660954718181018,-1.4727362994447415,0.6763793516264451,0.6056085233544543,-0.4507988309085826,-0.6836541959654311,-0.134848340025983,1.0400468298735857,-1.1103344497456473,0.3630143790998276,-0.181043398075365,-0.7947679240595232,0.4524110681600313,-0.7681848443156515,-0.22215590219729045,-0.5980458261677013,1.4741399760090261,-1.1391606176368214,0.4499304053122705,1.195843860264977,0.46420734104137823,0.8737053365828603,1.564923814525264,-0.6690657455497264,0.03806790961459775,0.08089902354455111,0.9725181237645986,0.07658107072363052,-0.9699039468060972,0.9371636074665387,-0.5068126406096782,-0.6474730670139542,0.5827008814321727,-0.7633235009334198,-1.0814594231442483,-0.3459843883960064,-0.37618755879342647,-0.8360434615010467,0.003990349608839125,-0.4861897071143632,-0.18199193211101924,0.06345552315474985,-0.6136586114370016,0.7464779868181934,0.5872401253010261,1.5040916664302526,1.873843399394651,0.4875006094517626,-0.19729481248112815,0.30732994982260026,-0.6526438129687983,0.2657127693632063,0.15692310876437165,0.09913238592595157,0.2765618255707313,-0.8218267268578269,-0.28331318613781464,-0.03625154466570223,0.38237223729394393,0.30751373057082404,0.43040314454222267,0.13810919471871702,0.6382296194175096,-0.35655624555394105,-0.3053748463151144,1.2961551243816387,-0.48865957097204665,1.222028758279267,0.7094436507313401,0.11017613074805516,-1.6097511668804725,0.07316602254543347,0.06813291697797495,-0.2542434100791553,1.3998055811731602,0.5168600636458872,1.8725937668063555,0.42242271259602726,0.017565449340862144,-1.190811292660376,-0.49199540196339236,0.2941250838990811,0.4162833094623516,0.7946071214767112,-0.4790951833518457,0.1535293193173896,1.106577875484905,0.2505209085490672,-0.1296147372359512,0.1518781946373351,0.012505438526037827,0.48124156593454903,1.002536733201857,0.8585758550919301,0.6592318812630834,1.8654035959612474,0.16210756653892192,0.5527229938593748,0.5059687501009037,-0.12833986312412407,-0.02837620617102174,-0.4588590127443939,0.243045694166683,-2.232805216910622,0.328107588873637,0.7177405712785304,0.5318990613384764,-1.7810052506578318,-1.6711724945752437,-1.309613927595965,-1.182392082681846,1.1686243181713367,-0.4118109775378799,1.0329563502639891,-0.25739816732155907,-0.42860246716888084,-0.19848384922876292,-1.180084601006308,-0.43616649094410403,0.6341153155337798,0.17673198763422773,0.4571805237850781,-0.28844997824470403,0.10398593278955572,-1.9164253308830759,0.9192758062716289,-1.2920264829445702,0.09993619754453072,1.203578649483127,0.3137587258495548,-0.8066177386063472,-0.7340427388876631,-0.4375205303818813,-0.5035815728291746,-2.1866893627546022,-0.8118337242903255,0.25565403640032197,-1.052741360690054,0.9733460506651777,1.1266089862986155,0.716495746559006,-0.3306384317754052,-0.6223113550507011,-0.512306305518234,1.3280703881141689,-0.07105232421818747,0.019765237525306834,-0.011823567589641803,-1.324072457927816,-0.03409962970695233,-0.41068827815874115,-0.7338698518009257,-0.8903374538707345,0.8761733716376736,0.7491663266574639,0.6397629462926647,-1.4413648797029859,0.7926707023912166,-0.015313131482675017,-0.2974101657480352,1.1950177630566536,0.43391941124095224,-0.6487436768517523,-0.20896056021992834,-0.3271018689197852,0.24660236358575552,0.7567442182731979,-0.7233982653073898,-0.4569790909115123,0.0012403826808665213,-0.840850021909652,-1.0549970531877637,-0.5153348734618188,0.5048934151463373,1.253777188031584,-0.42929819853659296,-1.5242174697386535,-0.6118973904617394,0.41335777346295555,-1.0603847638106878,0.9194517322364578,0.4499829004034336,-0.4671019791766672,1.9312005384461188,-0.7445288841884433,-0.04846375382229589,-1.0361257186626396,0.4228404276643916,-0.9413789260330018,0.2711324473004259,0.7302909361331086,1.0552019329322688,-0.23296884099906362,1.5698067928842094,-0.6373803643198866,-0.05221600906951633,0.20369403567626915,0.014270566458147348,-0.15978455446712472,-1.2736625368650325,-0.20235338377864842,1.2028073106988966,-1.8618318912914091,-2.85450262698746,2.4269698127760804,0.35553454318538613,1.5678490048224623,0.269811648952362,-2.1059438568206983,0.40939556536092825,-1.1103963957242795,-0.38680616591436257,-0.8518564573322522,0.9963286510728679,-0.8983416891217549,0.029633897811946197,1.5854035246545854,-0.16324323645141398,-0.2598599433926578,-0.5893496667942025,-0.3683899264843346,-0.2661120036711518,-0.2889699674285096,0.12348169617862004,0.8647817557645239,-0.45765383489476025,1.0816444544361512,-0.8993107257136396,-1.1167543595375025,-0.371395162482482,-1.5793504211497422,-0.05357348806258796,-1.0473862355451697,-0.9917596508509451,-1.0659881004883651,0.3053759282158762,0.21515063253756972,-1.134804668812112,0.7368118600379661,-0.388214487297318,1.2169116833722367,0.14554658699265713,0.19735465197504917,-0.922736187439531,0.5599768466830862,-0.5271107542115361,-0.34945467363911475,0.26241208440109953,1.751396828849276,-0.08551039659245574,-1.6868464624359985,0.25773663485522286,-1.4747419801931432,-0.3663441080512807,0.45837796145642734,-1.0399416428652475,-1.9685197224472966,-0.12820078512106245,0.3781828709187857,0.3972971623611832,-1.485646656844205,-0.9001520949508315,2.586597713593052,0.8704568640340021,2.0581621255691247,1.8096855105676757,-0.9371175589280524,-0.9077719259066499,-1.988563726485137,0.41621873887217314,-0.9739863957622584,0.12578470938170522,0.25943655338819327,-0.3223698805446699,0.06408922060030349,0.42157775349654075,-0.13784458758250545,-0.2941775595723752,0.02631453678357825,1.0212795933241476,0.9060433996004762,-0.08595362789329168,-0.5943909820001412,-0.08013820758222653,-1.0171075122460924,-0.9370172510232836,0.5192835754430117,1.627022150908068,0.7407151071867258,-0.5510113379116564,-0.23806740277994254,-0.0658942428320983,0.8916487500522098,0.18313802440974086,-0.21062316320886854,-2.0681431052808557,-1.1088925306393353,0.28539947917074837,0.6450397393779451,-0.24385136360448145,-0.07587726435275441,-2.7376958807258873,1.8355222055531313,0.5820864354377533,-0.4729128384376078,-0.4441328451033977,-0.9947195227329643,0.4007538977048483,-2.4684441010548053,0.039592215627510696,-1.5895568293814217,0.20968075030872327,-0.19998183465505528,3.6375850141637214,-0.537472959427725,-1.1311353173398508,-0.8344931317405971,-0.8057129288711158,0.5279784167309461,-0.8901970286934029,0.8871870330775874,-0.07372411354748286,1.21620212121976,-0.026347420501960567,-0.1268169128322747,-0.01305156835846202,0.09168536687223802,1.437783859144873,0.30922826142131055,-1.3685944529579517,0.49451481108389034,-0.260079849480975,0.4631667291788376,-0.5242850539515519,0.06638264630246911,0.05947581821859649,-1.072806976701244,-0.12598383404234625,-0.5665372701870521,0.06890146838857886,0.3270930687596558,0.5859964017831286,-1.8842886589395187,-0.3481387064936075,-0.0792142938783964,-0.41452394635471485,1.0466165102796818,0.12539756461268342,-0.21356661783533246,-0.6761797309109179,0.891411233617597,-0.5604012616431023,0.9633091129051133,-1.4661805823072172,1.0496590531325196,-0.004725210008389191,-0.41551572089901534,-0.5767666469781105,1.9129975943048318,-0.4427140797044801,0.7469071371210084,1.833067352852096,1.1326014871130885,-0.36852103290575755,-1.4021799505304169,1.2053904087449794,0.9455422291227539,-0.6566289442924268,-1.753540082104955,-0.18935949180773548,0.7058390398300659,0.8786153022030416,0.19296025958423527,-0.4891008681479909,-0.3544962235495291,1.0299357813735355,-1.3339819891657454,-0.9188180848450298,0.5387729149416183,1.5265921718598745,0.261095236238646,-0.2915462855422715,0.8308512609351291,0.3949462651270368,-1.4108281547233625,0.7503118020883853,-0.9311385626736864,-0.11952065908180129,-1.5299006688826924,-0.33068077468581586,1.682825165591765,-1.3589371348276813,0.4216651328025613,-1.539147291703423,-0.949307859084321,0.3327006614947229,-1.2902585388056664,0.4113026859477521,-1.1010818495888473,-2.1824936019337655,0.2537715449742379,0.09781813711403312,-1.2077973285220216,-0.2332188355450828,-0.7433075275096229,-0.5838544405128766,1.3662077583086851,1.4723021993040808,1.2217129203206216,0.5722835689020981,-1.1274328952237478,0.46527286847739663,1.7442698360167836,1.2472428509143327,0.876211728764196,-0.7238009411669468,-0.274237911004918,0.8585263834470795,-0.19614860495139808,-0.9535590479068455,-2.021875765786688,0.16574570627234114,-1.2171362004421666,-1.5081169687223435,1.7906789021719267,1.1724962938540497,0.6532047484477581,-0.02039332328853587,1.068579142143783,-0.5079231909496497,-0.9174416419435302,0.607855462210916,-0.33996556109876197,-1.005060872336991,0.2252806493814896,-1.1624720183273811,1.317236732879203,0.06678094560780436,0.3626570809641701,1.4992752778048477,-0.5437325095456914,0.1903257466324525,-0.6750684083088552,-1.2526129660014058,-2.3722243939070418,-1.1784035962092443,-0.6467341819870729,-1.3837044051289067,1.6411675867555542,0.6413111527461792,-0.1950856188478575,-0.4634739755270388,-0.4261991188711718,0.05640557857608382,-1.2018234567232735,0.28792270047776325,0.27447282129664075,-0.34032904049527285,0.14093412547289,0.6001282367755595,0.8449804230020803,-0.7461725781034276,-0.5218147212149187,0.0900282760929872,0.23537052715117315,0.06378765034778251,2.2189848250787185,0.527662588420867,1.4313783644200258,-0.005974063650909513,0.1630237583260758,-1.784681374894596,-0.9384133907370485,1.6284745076929243,-0.5291246171844046,-0.0851629885720608,1.6056637882846272,1.5278953929170798,-0.7183734350364912,-0.38030133847722397,-0.5121243191670678,-0.5259437502488864,0.5682651749541747,-1.4944291039713424,0.3819178004940741,-0.2013559766185006,-2.0507078855366703,-1.7646319430526296,0.21065729827452861,1.1511831335442322,-1.17598218928015,1.7003458692210953,1.7186279138163716,2.3152253769378053,0.6863596157273829,-0.8365309538953293,-1.2635906343908831,-0.8803644884852537,-1.2269780694446304,-1.2585588129007903,0.5937361998145366,-1.2736072186046217,0.3203360554421992,1.5589564124001443,0.634416595126805,0.612147952419643,-0.8181046543445609,-0.9828608024316167,-0.016125592043482698,0.9711515580390441,-1.2969081001961433,-0.8573030978487577,1.645181682828265,0.1419248916506545,-0.9240447818206473,-0.15204455546121903,-0.13316482718143194,0.6708011880424942,-2.330258173951407,-0.41166736959142564,0.0854390918842007,1.5285284602590563,-0.22240307271683105,0.12616452339480155,0.6564372057774092,-1.2269057408890296,-0.2898241055656314,0.7533870323865356,0.42804974304796434,-0.09017232069489113,-1.050426266274677,1.5014128692028041,-0.46251167715301383,-0.8610156678307078,0.7578496844457113,2.0175153997444037,0.7759540291320184,-1.4049498333193937,0.8163163582171586,-0.06765843224876585,1.5243203219947667,-0.5712755588218629,0.8308669929066006,-0.7090127111501741,0.913578804960329,0.2187074642918193,1.9484418868388613,1.1572877570814186,0.9898149743095083,0.10052268921491093,-2.4940102842230454,-0.49928034758157147,1.2944206994348215,-2.312301035172038,-1.2712800056575577,-0.2524276977606907,-0.5827093071307624,0.02510930326415737,0.2329812367371745,0.135601883346363,0.4933431379711809,0.5206098132064064,0.35870223454181055,0.013538787918516301,0.40646140409137954,-0.012001736671113164,-0.18363676498153678,-0.47366914640093566,-0.12107731609611175,1.515170274413349,0.5071510937919548,-0.12007708568699824,0.6492931667014169,-0.4808693931348283,-0.8895276007958626,1.2074779545114382,-0.43917030317203154,0.14811796891602022,0.20470898948918148,-0.6138366267596538,-0.5092947535322796,-0.5500709954534989,-0.13846673258380257,-0.29975423027692616,0.9554959271244221,-0.9423038465883317,0.7476952589596932,2.526882760993146,-0.7958925693148262,0.320865110353777,0.8788809789609976,1.4537800983713778,0.10154553738884436,-1.5573082967828322,1.8341714289999769,1.7006815071546602,1.787626480911137,0.4158898428198593,0.4494570230054078,1.843932872017007,0.13979012559393522,0.7211512510391078,-1.1647924311571702,0.7979484749439532,-0.8764909022069804,-0.327020455558336,0.9583496711384705,0.24864236207227783,-0.8742441329045937,-0.6855923120911371,-1.5829196427626864,-0.2995493318056903,-1.3126666993018212,-1.4133768459786265,0.42370379205837116,0.7569087614107567,0.1734913639766254,-1.9076273537492414,1.2190666221356878,-0.8776943442689532,0.2827495265838861,1.367515540231155,0.30541183364362884,0.5672396381138508,0.7172980223251805,-0.8758538458461453,0.6432801110061678,0.6573188801295061,0.9667976948740102,0.32074918472276615,1.6008210832797372,0.0028435816972002034,-0.29538931204276286,1.0613781761642194,0.2585727135438573,0.05895025724521586,-0.8442305438810651,-1.1726633130542525,-0.6770322018269558,1.1402694654890713,-0.04356962063939606,0.17554873521269254,1.5190250166527972,-0.3645150813018584,-0.6927150171354881,-0.1188195875001082,-0.15392966552044188,1.6230202466455776,0.9787653006659753,0.7452253548345659,0.2617116816392577,0.5220075661157085,0.542650488296446,-0.853797583020436,-2.0876246629082336,1.3628034376042542,-0.12134558770029705,-1.5823846401124426,0.19573115424598173,-0.6007145762157716,0.1641991421859511,-0.9502732392111103,0.6405015833829081,-1.1551431608419735,0.9779825240903105,-0.21786181248976844,-0.3350545350494064,-0.06539231352083626,-0.0503306295468199,2.251814283612755,-0.13465193970015185,-0.661657773031602,0.41819500073406957,-1.6576350230672923,-0.5596741856629082,-2.113549778001578,-0.021403583646976133,-0.5687985973895041,-0.310568774873369,-1.1405580723393745,0.3435046552606994,-1.5932508721733243,0.17881286490706486,0.17949633387612807,-0.18896925535137293,0.28516645908661237,0.3558298916271859,-0.25700902908507983]],[[-0.8671716616113714,-0.5558577210299585,0.5959624591021447,0.3750194203751124,0.4113471453737019],[0.6067652820698642,1.722815769839821,1.1247007287950708,-0.7476906621147821,2.1131922629836297],[-0.4613744421254014,0.8603746476810611,-0.18696197218913232,-0.24834727663515666,0.014019511620910498],[-0.8989702817854106,0.4940124534018233,-1.6979010407486086,2.63200313706752,-1.0695504017192288],[-0.363980081046264,-1.0336668074634332,-0.7855053524526546,0.9556314691481944,-0.37674261630882455],[-2.095710357413448,0.7732202194830935,0.10715885649705044,0.1242630345479223,-0.11471619139240002],[-0.2359880115515053,0.13946005416418228,1.7222801439491324,0.32387986203809993,0.4659143052406719],[1.7704663746816725,-0.6914127780976481,1.0898814124458542,-0.4348647124403251,-0.4768943110859432],[0.8418635599741645,0.4162498716625709,-0.04910925035185504,-0.8051660093549915,0.7037046828460077],[-0.012226051903902621,0.504091063241385,-1.3958095057417055,-0.20515022751565828,1.5556612412437736]]],"testResults":{"0":{"correct":[],"wrong":{"1":[69,71,101,148,183,188,215,269,305,327,365,443,490,498,545,611,656,661,704,713,742,750,763,821,845,871,896,904,972,981],"3":[3,10,13,25,28,55,126,136,157,192,194,246,271,294,296,297,311,312,324,346,372,380,407,424,440,441,459,485,525,546,552,561,564,567,581,586,592,597,608,620,642,644,701,717,721,723,794,804,851,854,884,895,932,993,997]}},"1":{"correct":[40,46,74,96,168,176,189,191,203,224,239,267,272,279,302,314,350,409,419,427,473,523,584,619,640,647,682,696,700,716,735,749,755,772,783,809,818,824,900,918,948,949,988,994],"wrong":{"3":[2,5,14,29,31,37,39,57,89,94,107,135,137,143,145,154,178,180,190,196,202,204,228,251,265,276,288,329,330,332,342,345,348,354,357,377,378,385,388,393,416,430,455,476,480,489,504,506,529,537,615,652,663,672,675,695,725,745,754,767,768,777,790,798,826,831,835,836,840,848,850,889,907,920,929,956,963,964,967,977,979,984]}},"2":{"correct":[],"wrong":{"1":[106,147,225,321,331,444,456,629,924],"3":[1,35,38,43,47,72,77,82,119,149,172,174,186,199,208,221,222,236,237,244,249,256,258,278,280,285,291,293,298,303,306,318,326,362,363,371,387,390,396,400,404,418,421,423,452,467,477,492,503,512,513,516,536,539,547,549,583,609,612,613,624,632,633,635,643,646,653,659,690,715,728,731,738,741,744,764,775,796,799,816,823,828,830,837,858,863,867,868,873,875,888,891,892,905,919,921,922,926,939,945,974,975,980,985,990,995,996]}},"3":{"correct":[18,32,51,63,68,142,158,173,200,213,216,230,245,310,335,381,402,408,437,451,453,464,493,500,528,548,569,573,576,577,590,595,614,628,637,648,657,669,677,686,687,747,753,780,792,808,811,815,847,849,855,883,887,894,923,927,938,944,957,958,976,982,991],"wrong":{"1":[30,44,76,87,90,93,112,195,205,231,270,309,313,323,334,343,349,369,382,442,449,450,505,507,515,524,526,531,574,578,683,699,727,734,782,795,801,807,819,865,890,912,925,933]}},"4":{"correct":[],"wrong":{"1":[19,24,65,67,121,159,210,227,300,325,420,532,544,571,589,802,827,902,910,959,969],"3":[4,6,27,33,42,48,49,56,85,95,103,109,115,116,117,139,160,163,166,169,170,198,238,247,248,250,275,287,295,304,308,360,376,379,398,399,405,425,428,432,447,475,484,497,511,519,533,535,541,555,556,565,610,622,660,668,670,697,698,707,708,712,719,722,736,740,748,752,757,760,762,765,770,774,776,784,789,803,829,838,843,881,901,908,916,931,953,968,971]}},"5":{"correct":[],"wrong":{"1":[8,23,45,52,59,102,127,129,152,153,155,162,165,167,182,187,218,219,240,253,261,283,289,319,333,347,351,356,364,375,397,412,460,469,491,502,509,518,540,570,588,604,618,645,674,692,694,710,766,778,779,785,791,797,857,866,869,897,934,951,978],"3":[15,53,120,132,207,211,317,340,352,367,395,406,433,478,483,638,654,711,720,739,751,812,856,935,955,970]}},"6":{"correct":[],"wrong":{"1":[50,98,140,386,439,457,499,508,517,600,650,688,737,743,769,786,817],"3":[11,21,22,54,66,81,88,91,100,123,130,131,138,156,161,164,197,201,217,259,286,316,339,341,353,361,366,368,384,392,445,446,461,462,463,472,514,534,559,566,568,587,594,602,607,623,625,665,680,724,729,732,814,820,834,860,861,870,885,886,903,937,940,942,943,952,965,973,986,989]}},"7":{"correct":[],"wrong":{"1":[36,41,83,122,220,254,262,337,358,383,410,415,585,605,649,658,705,730,842,852,917,946,987],"3":[0,17,26,34,60,64,70,75,79,80,86,97,111,114,124,133,141,144,171,175,223,229,234,243,255,263,282,301,307,328,370,411,413,438,468,482,494,510,522,550,551,554,557,579,617,626,636,651,666,667,676,679,684,689,702,703,726,746,756,771,810,822,825,832,841,846,853,859,880,898,909,911,930,941,950,960]}},"8":{"correct":[],"wrong":{"1":[128,179,233,260,299,401,431,436,458,470,486,538,563,572,603,606,621,664,685,714,872,879,961],"3":[61,84,110,134,146,177,181,184,226,232,242,257,266,268,277,290,338,344,355,373,374,391,403,429,435,465,466,474,495,520,527,542,543,553,580,582,591,596,601,631,641,655,691,693,709,718,761,781,787,793,800,805,806,839,844,864,876,877,878,899,914,915,936,947,983,998]}},"9":{"correct":[],"wrong":{"1":[16,58,78,104,105,206,320,389,434,448,521,562,575,599,630,788,813,833,954,962],"3":[7,9,12,20,62,73,92,99,108,113,118,125,150,151,185,193,209,212,214,235,241,252,264,273,274,281,284,292,315,322,336,359,394,414,417,422,426,454,471,479,481,487,488,496,501,530,558,560,593,598,616,627,634,639,662,671,673,678,681,706,733,758,759,773,862,874,882,893,906,913,928,966,992,999]}}}},"1":{"biases":[[[-0.3680462411639549],[-0.5296821043673291],[1.389198162236086],[0.2808722359184993],[-0.6175916450488513]],[[-2.076484265194008],[-3.670083500411815],[-1.8447794263448805],[-2.0382536148218064],[-2.145151172371523],[-2.285726460987946],[-1.9728165809154872],[-3.085422789280834],[-2.1163238865275],[-1.8518120165035392]]],"weights":[[[-1.9777030486540743,-0.24560643269013346,-0.5836770529703704,-2.043769905033972,-0.92856562693612,-0.21433387053682693,0.007425372041909533,-0.04905195160399196,0.25370859457229233,0.05286967855122311,-1.8641285981320947,0.029697736748312834,-0.6167430492563125,-0.5527623200665682,0.19740893518887467,0.46982854691060094,0.7568900983993313,0.900102662364972,-1.3621018486981396,0.7957784840266273,-2.126031612395575,-0.8609356367686573,-0.315623865588422,2.011952722322512,-0.1126510236555762,0.027018650870293388,-1.0120808166107333,-1.112047512252655,-1.6835880497174347,-1.9207700758621922,1.5388600245137338,1.4635959728557766,-0.2107187486149054,-1.900872195202576,0.26465352422002797,-1.1104235043954573,-1.6405126860664363,-0.17337160432675172,-1.2490889743481426,1.1460953896377004,-0.25653641136136984,-0.6698835749563014,-1.4893128870209411,1.1317550867729398,-0.9138996489969948,0.12510290421249862,-0.11243150164048994,-0.34322383599226824,-0.03463492007109615,-0.23772145754177337,-0.45758142712874983,1.6707533390043352,0.5100008747370249,-0.010211121216185984,0.541135294723362,-1.4385924446749272,-0.15243230040931202,1.3703794011279518,-2.441935689002896,-0.9878112626846519,-0.7792557684701399,-0.05438970243000879,0.05701338718986807,0.3392374602641961,-1.2348068506218217,1.2957787176542503,0.9869029687729723,-1.5119486649681606,0.5448547225902907,1.0965182637506499,0.3007666169573858,-0.48808636804659095,-1.2187380982827265,0.8220643757708022,-0.21284492695848103,0.6561617197415884,0.9038325200150752,-0.8323016480720357,1.0460987189061663,-0.9868573923939297,-1.5200010496041392,-0.1561740298905847,-0.688414277925398,0.0021910315165480795,-0.10587191924688606,-0.4250697149336784,0.2655700571998574,0.43113416702866203,0.49750303033836973,-0.20581069577371228,-0.42795357711829346,-0.6093656433749451,0.009846678194289124,0.5871598231342173,0.10051950995082568,0.2821680820018671,-0.19575340017025364,-1.477167035080744,-0.8160851807634344,-0.1520763554102084,-0.19992448502971188,1.3366974316937221,0.17556335682497404,0.13934176484216734,0.9035097539575894,-0.09507172481563916,1.1258195830970332,0.8695883817460051,-1.0073292229243163,-0.008928732098682592,-1.6492061490256222,0.6235826083774577,-0.15817156502870588,1.083155834735687,-2.332646640395147,-0.24298148148118398,-0.4774053665041881,-0.39449776007300064,-0.8326320450617928,-0.09946484062356256,-0.964498404367354,-1.0161661959303727,-1.7852139904595166,-0.2163317918181369,2.151141232766744,0.772739473451987,-0.40946228544860186,0.05427906611884267,-0.5093611709752548,1.6032468302230176,-0.8780596510494885,-0.7332825631393322,-2.3069414161168322,-0.6774154466376746,-0.13271437296353353,-1.1499725911967313,0.38658639773988407,-0.8159617122419925,-1.2362481239471623,-1.514439784270855,1.12892608846308,0.7182305585479719,-1.342168808061431,-0.8727574607208796,0.20879431736482912,1.1108075808733986,-2.1822191824053188,-0.7771913581602152,-1.3828026597770173,0.928355381114334,0.740253067584828,-3.2244198257156804,-0.012349145199160173,-0.8038216219424127,-0.1920540409487489,-1.045905948683252,-1.3971849274615773,0.45612567636193857,0.19912833671068975,-0.6789119545654069,1.35245015569871,0.8035394578760544,1.5783974735614825,-0.6231944939448286,-0.15097580112580644,0.43704046767726407,0.3813099621198966,-0.915684374596759,-0.883357629051332,-1.0362101484966906,1.482208960124879,-1.0388880401593437,-1.6723547524102955,-1.0690771198627018,-0.04020563079061315,0.40695411957794925,-1.1031692914685645,0.5342856258526549,0.6282309721836925,-0.09498489827200783,-0.4958645835909896,0.40274699003727815,-1.3959940212307622,-0.33680864350933115,-0.5607862362952308,-1.5326705678346115,-0.4607324986816929,-0.5286560667040326,0.6470279000043265,-1.7984691772772674,-0.06402738911043913,-0.6897366558615391,-0.14065865299855682,1.3631043164537502,-0.021757813658489424,-0.22261188380936137,-0.03778994743675722,1.4908909142262023,2.1663217663573286,-0.29421628765589236,-0.3723730150287932,1.1092447270503019,0.34787751584120297,-1.3902706454221634,-1.4632076871079533,0.22314534539030198,0.14354477600199075,0.7263486304510454,-0.3158932405143565,-1.1012953545533994,1.0802612878666942,0.05249334361336152,-1.6471318837414841,0.44721371659018216,1.4419053207390826,-1.560632075894569,0.6143299873727125,-0.9269691647992349,0.6452599321443028,-1.0988489945809345,-1.3967944524480391,0.998829255345214,0.3830221363225594,0.2481918227452722,-1.0195693965449466,0.4827400336966591,2.118019004330898,-1.508812549136736,1.7049805417453163,0.8776685830423978,1.3457192882301567,0.35811827238423394,-0.36960258163542825,1.709717337497211,0.15207810371395256,0.456524116466609,-0.0026135397594987016,0.43836267557715203,0.2606320059692151,1.4078105488737087,0.011171613636086302,0.8812731393812854,0.5263050481060065,0.3437642025849944,-0.2397201987629714,0.9427504548540826,0.83700175898154,-1.1488843366897818,-0.9770963800508042,0.7244870582599987,-0.9290462693150233,1.2030735838252788,1.5549696942748732,0.5006816949913091,-0.2110091688326708,-1.879116846035757,-1.70907568501653,0.1862616002463361,0.4776713848417074,-0.41168921065711217,-0.0550052661964465,0.8383047103236507,-1.5290594629757057,2.197331515345279,0.259069278541549,-0.6747006468944845,1.0874690329241994,0.9011364540188871,1.3026407708544483,0.10299494564588156,0.9036783510956794,1.3663114666307796,-0.6772434743233006,0.09734259320786515,0.9995675369978279,0.03130116052434426,0.29344519616456904,-1.5256651503243308,1.110654981787312,-1.7292964734306857,1.3167233877723619,-0.7873277868240321,-0.5893658688494475,0.5837957639851177,-1.1028466681627027,0.29921622952857674,1.2417279987565368,0.779106867145516,0.9656362503810022,0.32715942285743566,0.6082186743650326,-0.13050627806771883,-0.2030053007745245,0.029740781389826852,0.6888166218302603,-0.3455446238925726,2.3089723842685324,0.015217371486616279,0.0982456872608187,0.3294632332671499,0.6899968800861186,0.8236069226212438,-0.22639105978583107,-0.973951293572587,-0.45236197878634793,1.8412559528162278,0.822888549691702,-1.276223111625224,-0.09381746767791375,0.5632207348997692,0.11830047992340856,-0.28136433993881266,-0.4813720060652808,0.7984999297205145,-1.6260595003466491,-0.8614656923943634,0.21757978329984215,0.11659010336504906,1.4895367419880117,-1.0035320140909145,-0.5089019392561508,-0.5521554783363564,-1.108984975871408,-0.18185788305695857,0.22881884529204566,0.7948304026243326,1.6843714879260454,-0.9655529049766877,0.8246332425862987,1.4815814758152221,-1.3063045471133383,-0.1990078620736106,0.02149190191390968,-0.7256179389277885,-0.0345089248966432,-1.6913799725370204,-1.3986673798285831,1.4875801771792134,0.4502359801305368,0.005690951450075783,0.4718693483441377,1.321222142041154,0.4518958009189934,-0.17134225395038574,1.30184726725608,-1.8859410330823179,-0.07433092989604713,-0.14860865640798362,0.25411007473591585,0.9374564391358075,0.5591495900036103,0.5181924030015621,-0.19749689331862463,-0.6411483281689576,-0.2785241397489413,0.8286307977979219,0.8313801086426036,0.39990272719636205,0.20420912903539457,-0.5267184139989602,0.6251393822933828,0.3178754299643308,-0.09046420384881522,-0.4344245252244573,-0.3617495500044251,-0.7641163394948572,-0.024861416617913332,1.0744310324920927,-0.2128649694940277,0.027802962075096433,-0.6344973111111455,-1.9337774380624437,-2.2076451076980343,0.6837393691447814,-1.915226398621149,-1.1593623680337306,-0.922856249726451,-2.4584856245112343,-0.2310794294450888,-0.739293680520323,0.947201926093469,0.636853495898268,0.1624173210905385,-0.025263940571056537,0.24606884666088938,1.3008385295460931,-1.1503525219109778,0.7391799400694865,1.63104838025355,2.1013049491384064,-1.3769373849179647,-3.0893198531616055,0.2437301472753804,-1.55230606605282,0.09018830527225487,-0.7913257159409302,0.6415242490773551,0.07500899947742042,0.444392093793125,-2.3961820443094255,-0.08512974548165524,-0.8775218149064686,-2.2243912980444813,-2.735555605349281,0.6361244374366776,-0.5386653963849654,-0.8272018198079822,0.32960491230063665,-1.5461518262344365,-0.2819897952457417,0.049449016015767566,0.7131330838027324,-1.6268692926916426,-0.6447529554040562,0.4038121563510259,-0.2013896588060326,-0.9283563669254512,-0.10346766109191274,0.08623538371678735,0.3025083421398832,-1.1430431278850846,1.1076278657414536,-0.9535627282156293,-0.36780466561116026,-1.662754897896788,0.28097996997442914,0.5665636274605693,1.2703912786022953,-2.5931834422029856,-0.8969159133615884,1.1906302775303224,-0.7815135314674444,-1.961501438313716,-1.4055891253489934,0.13227553455793195,-0.9732459862980609,0.6315298366095173,0.8178717914000087,0.9668472834105463,0.07045049407455872,1.9438112721914913,-1.1406157697626886,-1.363714619767056,-2.0812030596819495,-0.000003004763867718524,-0.37163672651076307,-0.9359433965855164,0.5611887406709948,1.0867194605553876,0.5736203089337348,-0.20554165226117468,-0.704555101543385,-0.15360925442967194,-1.4713732475403691,0.9235372430885032,-1.876068732386762,-1.0566688699796727,-0.5815633274062697,-0.39041890951755714,-1.5965030795189443,1.0383623078456536,-0.2862291624199298,0.8958203600084083,-0.13548726395664162,0.449658105360505,0.13975168632633747,-0.48736460331915316,-0.5444441192302832,-0.8015798067201467,0.10695653231640201,0.4278500299634839,1.6317992590833066,-0.7595116946199812,0.3771769019836311,0.660950410912764,0.40690967249414184,-0.8831551900709719,-1.132722336975276,0.6854303034752314,1.4165745107171097,0.47636366661248825,-0.0615064944085954,0.026468180244545742,-1.7926250939091875,-0.9289635867968663,-0.3960656725418376,0.19445082490103963,-1.2294557129046109,0.08799421788296849,-0.07561242998415509,-0.15605941305156795,0.662212587695349,-0.1896719874194375,0.5106356143768631,-0.48412391016404227,0.4313326379087502,-0.36530062836801513,-0.5057461422113578,0.9634741559901243,-0.2977634268892901,-1.2165429077762753,1.1138008236333372,0.2654064629273799,-0.2780393624670845,2.724417336232378,-1.1980089968155703,2.0476445400368535,1.7271197604262134,-2.4305003674246177,-0.7371816585704899,-2.396195792461333,-0.6163293170597633,-0.8574380869102802,1.3331997201058938,-0.5655010545457941,-1.396556419389085,0.4516631582456314,1.3771359593937207,0.46030263522510284,-1.1102311642156788,-0.9241191550648873,-0.17246668880337632,0.11354882027226797,-0.6910961762415321,-1.722858734358737,-1.2782678643804588,0.8174352910922532,-0.6689463011278328,-1.4233740243151778,-0.7292898282517669,-0.030422195208605805,0.19693459865161728,-1.5707576543151742,0.8555936921148068,0.16351929132924278,-2.554964542979695,1.6742150238970066,0.14133538121768235,-1.2074911372173995,-0.36035560280657114,-1.9474929082294543,-0.11542793919861985,0.06753650943498349,0.47820079810250143,1.253177739165056,-1.5313849531496015,-0.3553747832740264,-0.04575061726396505,-1.4879792719215466,-1.1095750755352995,0.3313499721338633,-1.2790625468939771,-0.62050830778524,0.03539393831561681,-0.29530082501187715,1.8101193086162048,-0.3871509426359961,0.40044750056774037,-0.9425824906877504,0.8342619113620627,-1.8788982160362933,0.9738490688136032,-0.20007109148487465,1.8381430054238819,0.5689848707200236,1.6228573313422199,-1.67139586121269,1.3296652505958766,-1.313090921306126,0.9356454650194064,-0.947642857685805,-1.5139555805934461,0.7967736874256157,-0.1814634932016146,2.255901563310504,-0.6604679779314934,-0.9848670397792821,-0.7820854213371432,0.21082156415707418,0.2135539017802075,-0.19312954069298088,-0.6390934989024715,1.3445728142987017,-0.32569083734484094,0.9214959816101389,1.048739394495963,0.6720003060851119,0.023235698144674858,-1.1607736443194168,-0.8292127926965357,-2.1489856178881603,-1.821925555098561,0.17471427245685903,-0.5947246001859243,-0.2977682442387201,-0.31221175253437555,-0.12947595727299055,0.6945097004449112,-1.269445518691035,-1.688711954119985,-0.24793503791790297,-0.7115126083749709,-0.6045312831292413,1.5020179007619503,-0.5002419948626643,0.4460057616183368,-2.2529729581131654,0.938746325790262,0.6123964004839542,-1.3006268748177197,-2.0739962117332342,-1.9448795251189006,0.7292798172801327,-0.8511149041980275,-1.1912738731988257,1.0890486203896808,-0.9120504488082755,-0.5220351110713388,0.36048070468034166,2.178967962088095,-1.8506319776192555,-1.3630105804473072,-2.2031290118869262,-0.7855849939429673,-1.1122399248216823,-1.4369963210472743,0.038412579922313325,0.5352513900482164,0.3494695092081615,-1.2898460076732106,-0.4753449417395334,0.2732272511438813,-1.6512757541652845,-0.9048036977555642,-1.1523841526852292,-1.1996572159906025,-0.9559111581153166,1.0658483873606783,1.6817838385496315,-0.9312015921108145,-1.625537845249049,0.16269739351697748,-0.5548800518894271,0.5841720923150165,2.0385607274035022,1.1990043180259065,1.1186147409180918,0.759223233481935,-0.6148458409597747,0.30788203771903927,1.8751571187467022,0.13669346808976135,-0.17368797610961906,-0.5249631392035851,1.01156211095072,0.3910568429020612,-0.6793445796180907,0.3341724328513304,-0.2896242205151165,0.9931339873849191,1.9080780330822569,-0.4923929669028406,-0.45530802600416054,0.06958355807159033,0.627541337008942,-1.58564795151353,-0.3925458637203285,-1.605841378616896,-0.27070273905291875,-0.3368580546586971,-0.34891256032906776,-0.16326691672034047,-1.3184873218484459,-1.6684279222876788,0.04333293969747979,0.035924423548580206,0.5041577381950096,1.412026408348957,-0.932393103712048,-0.9617320749275252,0.876486704479094,1.6416631777731678,-1.05676405049649,0.19917059759622932,0.002931289813169404,-0.5825893791324515,0.6422251231304156,0.18999437460201457,-0.007336363225498959,0.6544465882579462,1.3123868475779359,-1.2034148902682928,0.8942041264568403,-0.7045652923128748,0.6344861837474843,-0.85409069868216,-0.04131001046289213,0.7506420936233877,-0.5404684395045719,0.4794043999505617,-0.19019966831189478,0.08465626733042247,1.3099716949087987,-0.20436255218470697,-1.4286184983668995,-0.35657735981341887,-0.2703855385707911,0.6048323309331659,-1.6079385085276001,0.12837971518963454,-0.31834936945609743,0.23476751768971985,0.7308925176286386,-0.2699522641796636,-0.9334805773753333,-0.294073484001773,0.4452094146806989,1.2114316727814947,-0.47901769580684334,0.09773021992387551,0.9433322991379102,0.49789494670102896,-1.673046559470199,-0.03652332926947971,-0.08143633920289933,-0.12929796343251787,0.03318092247768004,1.2984099130755637,-1.3435836055072334,0.862793013736949,-1.2432926935785102,-0.5742895978399397,-0.7981191566083866,0.30690500541213744,0.530636225190876,1.8557649269933527,0.19522834122930588,0.06759076185884048,-1.2390177183842028,-1.1121286272176707,-1.189450667163037,1.213283465887344,-1.7830291312108397,1.4401127698883145,-0.2538506812866375,0.4202874012835227,0.8366507576657614,0.30824455426232933,-0.24443911550298414,0.4489544901667396,0.00794495223668447,-0.5381240301473027,-0.36852267313664205,-0.6711766776508443,-2.6610968415184004,-0.4069725968589301,1.2622687673250537,-0.4184069306567814,-0.44983464095785,-1.003180782474825,-0.48654100025679947,0.7359663808337032,-0.5254919243616653,0.7341391379253734,-0.268670323439263,0.8395237987526621,-0.1408101933059147,1.603553491069839,0.15337436334323418,1.232757845793569,0.9105795996445561,0.3591484061814632,0.8401881493982423,-0.3009705364966836,0.24950120407767687,0.5699131014478512,0.6942604740121997,-2.599568501335926,-1.3250669226964702,0.9083534138049592,0.20552576551301943,0.3828872527819069,0.7312217277641936,0.1390342510525825],[0.7374217656680488,1.8769223588956685,-0.21555472802355258,1.8083286197750306,-0.23597306600696644,-0.6720441758786053,-0.08547075594381379,1.0934892419456739,1.260596738443723,0.13793403460255674,-0.8821333156330873,0.7380540504779328,-0.9907180049621946,1.32954438923066,-0.46157601500439494,-1.1845650767720632,-0.5681731399954759,0.3575482469969905,1.0748026108214843,1.487207642866292,0.13167744825652028,0.7371988717318924,-2.3475552805894457,0.7570148786418247,0.6404199421954742,0.35702354108605105,-0.4831948515739112,-1.3356670920877154,0.41266155301487284,0.26752458356137815,-1.0273243991174983,0.9777104472032996,-0.966893152174035,0.23498038146729136,0.04771314337156173,-0.14708366997005823,0.9665235115004531,1.2073730199562474,-0.12111607647654607,-0.481824368098776,-1.1542080521261304,-0.4965584323447487,-1.634880236647889,1.0397935782088892,-1.9884890063246228,-1.1228938838251565,-0.9330171653323207,-1.839568227312718,-0.9700429417768104,1.4019423280371628,1.4924592540495878,-0.44885978300332646,-1.7045162985011302,0.6051102604322126,1.6333521130599782,-1.0567710356699933,-1.3597125785557191,-0.39999024695564467,2.0474833462333817,-0.3026797271484135,1.726273447041396,-0.11865145847525493,-0.8158340594979228,0.6144428061886149,-0.09945174367449668,0.5005946640629494,-1.150291706760578,0.8002775916560907,-0.8312639548081049,-1.8565460224200827,1.6309334924318977,-0.7849270671556017,1.166334700361845,-1.4804483874310945,-1.1192306692559972,