{"0":{"biases":[[[-0.12015364484393279],[-0.7271297287478944],[-0.02769431471616895],[1.697841638387287],[0.3553855673399597],[-0.3509156725060642],[0.7325882961186763],[-0.18133190615537695],[-0.09375343847517369],[-1.6880556157244337],[0.1021550351397667],[0.031102828774464887],[0.2827061986939805],[-1.5619822303418451],[-0.5329295448003405],[0.5325326305408777],[-0.6284904604004113],[0.13252916104003595],[0.20454104469750636],[0.5078300144530057],[-0.30316690715607897],[1.6533356857781416],[-1.8842401015931454],[-0.0667671172950836],[0.11405813814165923],[-0.6637908228177538],[1.6791793465904559],[0.26712854386063806],[-1.0216372356469183],[2.089311416199267]],[[0.3335164704182437],[0.2975987398480017],[0.3009346039303808],[0.5518829030676691],[-0.2995269052366446],[0.5138941080170886],[-0.7974679722218901],[-0.4769469829699001],[-0.9574148044454056],[0.245472656374773]]],"weights":[[[0.12447028223619191,-0.46373495404234777,-1.4719149413363048,-0.7029549554024526,-0.5898254856169677,-0.43223258875122117,0.6629145644848379,-0.1967747511392444,0.6088309515156552,-0.12281185296994776,-0.03930142668688414,-0.7599759525036914,-0.05035748152817646,2.513765575134934,0.2781940723637464,-0.35310396857820836,1.1650949005591702,-1.8508681230433592,-0.4963455901209572,-2.732141026043994,1.9026112013994922,1.8050445054035287,1.2648736774829028,1.4941241268763705,1.4493786548582066,-1.371302852057717,-0.9607076955745322,0.14100000485661862,-0.1404824520770858,1.7719448845660253,1.0994401904240487,1.2739253417731162,-1.5024296158313284,-1.411578191612665,0.10013898670198819,0.5762517739123925,1.0229804918167194,0.7439086774653498,-1.0238118079801766,-0.42419643543885294,0.5283756197842344,-1.9225658436962356,-2.470753892465098,0.30922728118687165,0.045912802822705705,-0.6178698601492698,0.008936419540448047,-0.9088542993155526,-3.3156680215139827,-0.7435911205175338,-0.1438111805550024,-0.3658606226592677,0.8516239598803462,-0.11953206518098702,0.2213634098644197,-0.5805927841549099,1.71593632192661,0.8163926982721705,0.05475071110140999,0.5109954521100983,1.1438207214631775,-1.5584846180588603,1.3881577426565284,0.7195605797236747,-0.5254669320938306,2.4392897127922413,-1.1837416506783962,-0.8678284882191573,-1.6840781033618324,1.0108018285518414,0.24248179229781064,1.616513841714544,-1.342504586172289,0.33891665074222027,-0.0962441079489679,0.19451844853541925,-0.8273235000087903,-1.1256164948623797,-0.3306224875152158,1.7455182795485913,0.47347824503887814,0.830958752007109,0.06126238908163975,-0.42353182936960665,0.9484011440871716,0.11511020853420077,-0.3633405207798832,-0.36417282747599766,1.1084470207035784,-0.9213084424774376,0.06980764816020066,-0.14397303872605938,-1.0568523007949484,0.10526905154606606,1.3767759944268987,-0.3429111910106119,-1.1212489535086951,0.5458849373960514,0.15886159539845687,-0.1418736235337211,0.4016405830599653,0.11142084625391765,2.0093646657164275,-0.5632218467550018,1.3228780190962095,-0.11349840117892752,-0.29238438612062184,0.342950889525683,0.022031971761429157,0.14202692041374002,-0.22231160205058056,-1.7059000085494869,-0.09110536096576098,0.8558662941863424,0.7688067910390052,-0.31114016093344016,2.546109482591239,2.299740990099298,-1.8606672843061542,2.074707048088733,1.3155837629185703,-0.6892513891345717,0.6371414158215173,-0.23974437086630468,0.21450505533087777,0.7928193690172592,0.051753587620461824,-0.5700529482707571,-1.0635680501407205,-1.241531034430981,-0.08960587772646343,0.7106394308301708,1.8695813505164847,-1.2858830514057045,-0.4713288502889774,0.20606072789875904,-0.27428285600219027,-0.18177870085524986,-0.1123903163739383,-0.8283527468193421,1.0837763626280283,0.5405622265955935,0.04636017730072532,-0.8373206154037834,-0.9915023352863886,-0.3151406826808608,1.4527717416530601,-1.7814263672083461,1.0820800777921875,-1.0670439829222733,1.0636085851011747,0.6247516316080435,-1.026939588055018,-1.7474095630998656,-0.3431905917599796,1.103082291899013,-0.2260228407222327,0.23255789655415232,0.9518185582272795,0.027554866308974846,-0.332306949727556,1.7322033031772384,1.7124893834113262,-0.5155059728003781,-0.4921978760505406,-0.15691666931860254,-0.48635045038986113,1.439986372171997,-0.21770583843762892,0.022495162543599134,-1.446598290487266,1.0192922822115964,-0.08641058360155933,0.13806884993998517,-0.4822675052735079,0.18939982335503305,-1.5875057876437486,-0.9426919977533456,0.46094330246871745,-0.3648892510226749,0.4025223799398938,0.14816025248205733,0.7166763838642185,-0.23639369598929558,0.6310882733550085,-0.23551614878492938,-0.2772752304592374,0.17924850119018595,0.6166513333678936,-1.891234684639257,0.4966403552432062,-0.4286769792777079,0.034891847178342456,-0.22282987936797263,-0.30739630658953654,0.17154577699243082,-0.8126964898857015,0.19284335539471853,-0.4350140368223161,-0.29114286666944,0.03689704253644956,0.09694175121344407,0.5330094834608721,-0.6129231018838829,-0.014084887160010473,-1.90356525351105,0.005804056396091401,-1.3907454552293916,-0.09485015992877756,-0.5402371584845869,-0.8655864624226971,0.8133615894797865,-0.682504156828549,-1.3382532197836576,0.19585148702682068,0.24908840828736237,0.6917925973978784,-0.6517345698549927,1.2612537238763244,-0.43147389794307933,0.3223907102233589,-1.0595373144142304,0.7385456163989353,0.6718506088714858,-2.1078609203938754,0.6719999247560734,-0.3576110718389566,0.9478134936432151,1.1909311658071933,0.008514899696162426,-0.661036310483762,1.2214129005952918,1.883181270181309,-0.39233250484659604,-1.0270454124731105,0.25815067761956745,-0.5833618136429154,-1.1105454384459277,0.5285520698015274,-0.8739987397883331,0.4181812659521902,-0.13758299522172496,0.24668218718578586,0.09951842454334334,1.5875410529302738,-0.23880331024834092,2.081421402302259,0.6229833801067531,-1.6213931091893259,0.09102380011481373,-0.569258331671577,-0.12375330697000476,0.4606266376409036,1.035151504883319,-0.510251220688482,-1.5699688084516692,-0.5671994849863958,-0.2595787209715013,-0.4478595000602131,0.11213100380921812,-0.05809072128592075,0.01714830031982193,0.10816771537027287,0.15747715810468896,-0.07449512598796712,-0.42922741161196565,-2.257695839922091,0.5384782694388442,0.17908442442377934,-0.5555728972506754,-1.8756502970988906,-0.3961819666732669,-2.8648547122938752,-0.7253891295884255,0.2623691584023229,-1.0352887612562915,0.016856291592402074,-0.12171887954678304,-0.6990541022969231,0.47671227980502523,0.662012459932155,0.8396809655652505,0.16602648384920896,0.9446992813967432,0.49156060733098117,-0.9175501729269924,-0.947818430973459,0.14502554166268444,-0.7897188252127997,-1.930292835255889,-1.8964559886505519,-0.7361632364899002,0.18788500987612117,-0.8857597105754378,0.1168018383910874,-2.244178248405594,0.05322852941990192,-0.38617736711652106,0.06592655206133635,-1.9455832506259716,-0.1719585840006304,1.0801243491149917,1.1359046506262949,-2.5470696921013225,-0.7219712554125406,-1.130454873420122,-0.12276536334286112,1.3859277050230827,0.4740715172455834,1.1014833067531882,2.0959262110733334,-0.30325356672311593,-1.681216005340176,0.10436932050949896,1.907584535578015,1.0312128025208611,-0.44895055410963725,0.5148756164846836,1.1361297732965336,2.1172414697549375,0.2597234959960712,0.85815986586252,-0.10251809630731233,-0.7880956971468754,-0.6802014334007337,-0.6314848449858743,0.9646237688204647,-0.42406401989016407,2.082658718594334,1.921851852166048,1.4301987697490994,0.013722822664579365,0.6058466151460821,-0.14222868293561142,-0.39164910009437753,0.03421770991610794,0.2266873509763669,-0.6398165047106528,0.7689950504460512,0.9624206595776198,-0.42796136486856085,1.3044486742528096,-0.1292740011175425,0.23677432808333285,0.5411549151058843,-0.2984524209699587,-0.5899097769253031,0.30213318061237976,0.557198529487001,-0.2815385186948026,-0.5994124400581424,-0.04231421110045014,0.7684511986874171,0.6630533775770726,-0.5086465975955426,0.8040843597221815,-2.05609173114774,2.204028184081461,-0.900377996894949,-0.6988265731742658,-0.5543407105720151,-0.2950862493283048,1.7526074886513308,-1.4137022629137126,0.8439114028476711,-1.0635744704521903,0.9382288559449629,-0.6822136350214467,0.4885128908968766,-0.019165414599723058,-1.109635511284863,-0.42999329934626934,1.0619575740622151,-0.4296992542692572,-0.07514651049223027,-0.2394623266864952,0.4110976701979653,1.0829529812366914,-0.8454569257581847,-1.1043198868563753,-0.2789676312711879,1.0219718324114975,1.9433403605210509,2.4176414138909874,-0.8571523634978137,0.32040103104693396,0.20527684907952967,-0.933783963990585,-1.048823253464946,-0.19385788214806965,-0.06522339978225833,-0.7065137325476009,1.4719796528301008,0.4455734784320203,0.5621145369749447,0.14581219769204934,1.97507120470995,0.1538010996341471,-0.1082273148143499,-0.39868854435556766,-0.4031889465030536,0.6247983270458175,1.2221089396934792,0.47485350075271987,-1.126142174552625,-1.6140455628967023,0.8919448028812775,2.1530366125663307,-0.09166758641699056,1.3689518995287793,-0.5953220656541279,0.8280972091162154,2.325353465232293,-2.1614338101538233,-0.7607714963419583,-1.878071058271926,1.6931022721733426,-1.7151782030182872,-0.4131356377745979,-0.7606095926840526,-0.9691623296484558,-0.3490293437132856,-1.129100790636924,-0.25143696827786877,0.0013015519854995216,1.461480651355841,0.7559307475002149,-0.21476173390327558,0.4633448529214917,2.4387922133440267,2.029467522691844,-1.0786574943833975,0.2909550886072427,-1.6371122068160264,-0.09937863729276,0.83201511980727,-0.8334284099687113,0.7918892941494812,0.7660708398811397,0.44909115317834886,-0.022421679757268196,-0.29426415724545907,0.3799945851807341,0.8263033138319578,-0.16863773123587925,-1.4634185424815136,-0.7562677009008049,0.31186705776843093,-1.2013992307843129,0.38670647906813144,0.02072079554101088,0.7671978492442724,1.387166574277723,1.1614197403387394,-1.643247485426173,0.37326659607904544,0.8703826717334563,-1.1207636246771684,-0.14757949813615848,0.28262967931463395,0.2829551024754516,1.790851299153062,0.6545362208304385,0.6978233788595001,-0.6374237296272277,-1.903840856809156,-0.06263958065447363,-1.1763216805356198,1.3928298572287992,-0.9675377774659668,-1.2403717664500304,0.09104712363007553,-0.5969136088489685,-0.6092839884723911,-0.42861929616122707,0.41023844467802517,-0.07414423687369451,1.3659407645668677,-0.1280470527895279,0.41536961523725885,0.07006069333912136,-0.790493641854852,-1.6767457728888597,-0.33739112459678355,-1.3550971599337085,-0.13094512288509375,-0.0035458243446025214,-0.47298479990445125,1.4101510852712205,-1.1562838380129772,-2.3065691931125056,-0.28281936166210403,1.998077616440331,0.9563754728483225,-0.48345609369811865,-1.0743177610591303,-0.6037840344678891,0.29342727248998957,-0.13707388054258102,-0.6705262791111166,0.49867026075963383,1.196377306942902,-0.2874897685868962,-0.5155930697818352,-0.3627493541609196,-0.5024802493969583,0.41904703181353387,0.33083773353087703,-0.5056475028185536,-0.3617159999074289,-0.667701357137154,-0.040239858280637385,0.3321763753045264,-0.021493408734977907,0.9719439684107516,0.5989243574151648,-0.2998490331417909,1.1489112821159957,0.3956508617808623,-1.0852476940308682,-1.891974795838141,0.1979797694637716,1.204469717630591,-0.8244211226936766,1.0506321366971714,0.6325730401687423,0.16081184928280362,-1.1369459517690381,-1.9171407926932602,0.5239256772314731,-1.0876891298314142,0.18258568644245443,0.6761150354136659,0.1906991870237004,-0.656697015907431,-0.6608765096541971,0.32029807732510907,-0.8678156540275174,2.516840240354505,-2.21439176322245,-0.5602378792406133,1.3840117470926292,0.46684644425197525,2.0565244583984024,-0.3729214557986797,-0.36584498962050865,0.3596994880059783,0.16885937874760373,0.20539173190744411,-0.47800903395981253,-0.4619922027690441,0.6423856103419116,-0.405016541060796,-1.3034894123061116,0.08694495693900883,-0.6526742023859972,0.48157041046792826,0.048314919121131644,0.7478095219171963,-0.22884475883470598,1.0633499294013622,-0.786468251313189,-2.708341526934489,-0.4355044042354628,0.4257844939462235,0.14516330856420975,1.3261066835486013,-0.8462719176961034,1.1103111073394847,-1.0694252414688008,-0.0667095429561269,-1.473353303846833,-0.970917639786069,-2.0942839097804917,0.6889389681566368,-1.888219483259848,0.24383974057695215,1.3632010137592758,1.4743963349140456,-0.5488965900452144,0.10363780917351045,1.3777253246554044,0.008241338114834454,-0.04961675809113323,0.06996202561491313,-0.7727041977457241,-0.8511886998527648,-0.9064526017890975,-1.5027125553684813,0.08075464071182031,1.6122521817770008,-1.3629361632074946,-0.8539784569422593,0.12014955913235446,0.5346687929027304,0.8235181492207463,1.0549722696707444,0.09934853773082558,0.02395617138005869,0.9517474946811108,1.1752246049804513,0.473151321892421,-0.9656250125314794,-0.8339269709660121,0.9395363036902898,0.8852583979200299,-0.45665264125314026,1.7118928944763587,-0.802367614459188,2.0534633259721913,1.137878636977531,-1.062638369273776,0.004496084715910692,0.7751961598957683,0.5898188662135271,-0.9146634235378445,0.12265366209570495,-1.0656670612598373,-0.6104279246025621,-0.7570960460835764,1.3070534792721822,0.5146917201569459,0.22865064680354968,0.266431635896702,0.6800938172584318,-2.101163088831458,-1.3145238766597451,-1.1956291590074757,-1.014557378527993,1.3644338146842088,0.73382301574023,1.1062014581940003,0.9828864866911337,-0.04289208843425617,0.14250788623033872,0.8819997156631285,0.5897727536727085,-1.274890134084578,-0.6303198559010003,0.17389734448259192,-0.1375026085402066,-1.0582178793825725,0.43858193288830644,-0.5271663068296646,-0.3883832431396752,1.6415368999180173,-1.019631463122717,-1.2740857056809158,0.4948741652649781,0.7226353131626775,-0.7089353452431659,0.7607271517978336,1.5382952702967263,0.3417402115712574,1.0324821091087373,-0.14105684933826862,-0.1576012616207749,1.0990339535253313,0.44420053462888354,-0.5805333140035919,-0.39897543204625163,-2.542953146328606,-0.10298403959243871,1.1287878578354966,-1.3427715529448045,-0.9827816094159852,-0.6517554892945763,0.9998049882774718,-0.3279344949018418,-1.862057434050772,-0.014402097371973253,-1.340815483882533,-0.8720595696367711,-0.271434579164863,0.4498195588927731,-0.834413832247621,-0.7364981420219308,1.175071543374995,1.2024808963967644,-0.8724631696075593,-0.58744132001803,-0.27203652566035236,2.2273012960711585,1.2240378081993948,1.5960765791209393,0.349766738060584,-0.7973828139095817,0.024365543676017978,1.877728294816352,0.40659448510337426,-0.9565951526661918,0.33769185594689144,-0.670472153349924,0.2594390869595814,1.3791336737943112,0.6376702083434485,-0.40587625179721115,-1.1047814582141853,0.42207315627801306,-0.12681627756734984,0.6572690095023181,0.30986876246737455,-0.28804780184541157,-0.552255599083885,0.5262624908016988,0.4888262179587088,-0.5412758304593996,-0.12652280346826023,0.6070192809239764,-1.3875886273266718,-0.0036466485105418013,-0.09870955479078009,-1.256713490327763,0.42046928377873943,1.041701337255232,-0.04458269828313098,-1.094726614623272,-1.837330412332282,-0.640411311637707,0.040105601728447585,-1.1960001489213428,0.11091745441738979,-0.9876780719310604,-0.8917932679984589,0.6896904638106055,1.9019152297382715,-1.113445930631221,-0.7627786763797699,-0.8018693765978836,-0.20766812233969048,0.545658524720187,-0.1382634174413366,-1.1217786715065814,-4.0594654780021315,0.5089898791233207,-0.0026622063340560912,1.8122155330780618,1.3938103389892669,-0.8070060693534823,-1.2679112201673608,-0.4182901920314009,1.0926179668289835,-0.7293741335527337,0.6230005802491736,1.7425855408786903,-0.45239077123603083,1.68504703925693,-0.49257788935349706,1.5137246001236304,-1.8051812293640817,-0.6375197634149197,0.5488490529106494,-1.5782599677438716,-1.7294508497640484,0.7732990972882882,1.0178618480455157,0.19864395709500943,0.05165251617449086,0.4491317163977254,0.17263676162383576,0.3759024310544711,-0.8183993323551965,-1.855983831468599,0.12357790010310842,-0.8103633168913077,-0.15681828674256154,-1.8756487130988846,1.3147569936892336,-0.47034524227502644,0.38914326492152307,-0.007392495103147452,-1.1991021842578078,-0.10200941623108957,-0.09415380209365756,0.8623562066929711,1.3208496844480004,-0.28455861810849264,0.804428495117044,0.6850903406387899,1.4619995443870581,-0.9407711184726572,1.0001234394102179,-0.3201736963630272,2.271833421338183],[-0.04467169728000438,-0.6088874898587837,-0.271490286011732,0.18900168964665665,0.05221693664916795,-0.592860486255306,0.5831711982686663,-0.6255178143311548,-0.27706409283244443,1.0160778673766673,-1.9025031817148117,2.5360242238192074,-0.8178451593289962,2.6156570313541563,-0.17102731933353407,-0.029450191285616163,-0.8538306795121459,0.1489786289720365,0.5502406366496188,2.428467466166422,0.7091428680872688,-2.1385946769052038,0.6010092752490954,-0.554754581776049,-1.3088164524335404,-0.5237497592631578,0.31856912472714444,1.9959652896703577,0.1676470570806174,0.22078718068939976,-0.09007260763041297,1.2818665791209818,-0.7510676343969974,0.5143231149632489,0.020308927012528826,-0.24553959878442888,0.5656231278890224,0.15367023169567162,-0.28742086884311024,-0.5074128162113871,-1.9841432595368163,-0.6250226824484356,1.615723861298063,-0.19566577970073387,-0.8385545351083515,-0.5405792741900205,-0.9995224946973862,1.2862542517426128,1.2130463592861338,0.17871616825770037,-0.3390574699831643,0.7908320347499243,-0.43997101568687697,-1.4644053401587986,0.9022016231917573,0.6926209059600249,1.8142260819961888,1.232277032515139,0.4900527640225295,0.8705038569898369,-1.5781647746201957,-0.3407140857587995,0.16376939129884924,-1.160788465074917,1.2577222391499432,1.680773783322396,0.8889048425947551,1.4554984964680533,-0.2886448829349365,0.8294934631573423,0.10128110654839542,1.0241859164293003,-1.763466218625143,-1.4235137548345551,0.2020625570356806,0.09497563907711476,0.43780529423980225,3.026457505780379,-1.446787942366033,-0.6186227397853508,-0.37848104961712187,-0.7637846528864987,-0.6971735712850449,0.45307867776853955,0.03128898697576042,-0.26558867309202994,0.1313662630202295,-1.6074218715285404,0.02622148612303107,0.6970961211357554,0.23386697614711216,1.0677955593341737,-1.3087716241384852,-0.6521264909544119,-1.5829784747668956,0.35588985068354084,1.4076715446258088,0.46083026086154255,0.15125096354192943,0.4635700963228898,-1.2812790244632288,-0.28763156348883884,1.7204283983722772,0.40738687524700384,-1.704399967967722,-0.6606969364124509,0.9828493913670211,1.3028134450015165,-0.2990083839457814,-0.03133460647934751,-1.8944694004372857,-1.3178684726725935,-0.0730699210518839,1.4260891758683052,0.06610865370498577,0.7569135562288705,0.45718987253859333,-0.48684811896563535,0.7092210334317475,-0.5633322398170315,0.4768827988365321,0.6542018887187676,0.08371652753595331,-2.1376784163385687,-0.7496065054879717,0.5743123678271086,-0.6411449229347408,-0.02878336895761419,0.7775653779511177,-0.03309164373560721,1.6681323213972215,0.9985150426596365,-1.4012989292732023,-0.9214508302011082,-1.543952659341065,-0.4361643189775877,-1.3403342475274744,-0.702428850390364,-0.7445999417992896,1.0050958598345172,1.3958913676529052,-0.2581339368143926,0.2525032735177383,-1.8897863983168512,1.0345175786496363,-0.14550868185797447,-0.374537242569055,-0.46537852472523755,-1.4663609591534783,1.4404840791593645,-0.7946232505425539,1.000140710191596,-0.14422893315833482,1.7069185917925813,-0.772448652371417,-1.5912769809391591,-0.5801764804936208,-1.910773699930764,0.31316207393603307,0.47007292664806055,-0.40601443362574235,0.9666049804179215,1.683279742222534,-1.9943609693072024,0.5548684322447565,-0.5648015100916824,-0.332198001840603,0.07851957476535207,-0.9878652804175257,-0.2873795284055443,-0.920256970437243,1.2985252167699302,0.6575653526903084,2.15321013449842,-0.6279296257001059,-0.022364119011325685,-0.6776845715896256,-0.665978646877369,0.08194066103978193,0.15337995573519428,0.2939106204917022,0.8770876770481952,0.5296978424406346,0.7555950130890294,-0.8812440626387049,-1.4037582816005871,-0.4924790475507569,-0.2981480844055303,-0.4685838815160974,-1.7457888932183792,-1.3122836918554355,0.04293194670429643,2.9456081096214075,-1.5033534486006808,0.971468150168562,0.4844739727742356,0.3004631958456316,-0.38016715197442363,1.036704048315407,-1.8294002042861752,-1.5666899135600754,-1.1296434925181904,-1.23058818205482,0.24344292042892177,-0.5837108306864077,0.8922717238534958,0.29601719902513834,-0.7799228449033079,0.1385108989428126,-0.6510952447113467,-0.0768162946567057,-0.05170369979417976,-0.14589486454809794,0.38524915873416943,0.25887799174661147,-2.0383996025095277,1.5981019612975707,0.25300529570892843,0.5613212959360919,1.7365984961022374,-0.11682370652983382,0.976341718190036,-0.5922933131278887,-0.7400344400870275,0.5287836531199553,2.3970197472762385,0.3220730297487149,0.35574858781896795,-0.9716806095060866,0.5616943223868853,1.020227298148194,1.4033882145289762,0.10298094397330478,0.866902149447155,-0.8711744419210914,0.31088461990436306,-0.7924686743728422,-1.3577850245082963,1.5534147238167184,-1.1648042297812855,0.054165434557391534,1.1445377278010798,-0.21124916976888788,-1.3411139083756156,1.1771668386918368,0.4970057247680395,-1.746641220168425,0.36803320668925954,-0.1304587820510066,-0.08262525598325826,-1.0643320863413834,-2.178234016773278,-1.8976548663770847,2.9781281928125933,0.1450900035529686,-0.629866450632521,-0.3410794945927529,-1.715182264716993,0.6527694855972402,-1.8356274283215277,-0.06878351060784813,0.4021584063643336,0.7453688922250276,-0.7801562174548098,-1.4073827525645404,-1.3559349570668777,0.5195980828720022,1.7765204216717134,-1.0922351239935717,-1.2106358455990114,-0.4751014890009709,2.0667024915407604,-0.27661660697126184,-1.5960453362620317,0.07564781576893204,0.5976146661399832,-1.6499508509446648,-0.24203343282793913,-0.43040009786264494,0.5299620895361727,-1.1104388442240345,-0.1118096143138075,-0.09618661048605659,0.38478889578174125,-0.13993652203472903,-1.5301785284688927,0.6357307997047754,-1.143496904087833,-0.26143664413185697,0.32883775309171587,0.012103553713778532,0.5687400166335763,-0.037954647292810124,-1.6369924554670854,-0.0338908463080783,0.4889697764807054,-1.3882753939444876,-0.9615694747042203,1.0090777382088605,-1.2054899072412961,-0.21988686333502738,1.5948366631950612,0.1985061267380931,-0.8306850567247415,1.8713541389156552,-1.0841321697383566,1.3730201854360957,-2.4724452733056443,1.4879476242187406,-1.2952313569603815,0.1931441513929546,0.5282902109297369,-0.6352423084660799,0.14050193900763225,-0.997095892552413,-0.2662724016501881,-0.5184063361132032,0.9809339595045458,0.801646652058039,-0.1972871620260493,0.34997798245445344,0.31653508998839763,0.13586858501907514,1.5225494755723792,1.788789355820251,-0.4816151398381408,-0.33297456798279457,-0.39768894406917654,-0.2566368917609017,0.54604956155923,-0.8018699115295158,0.3603135301679871,0.15315333261038833,0.9020837883320583,-1.27304236207382,-0.9957386011183015,-1.228230928368455,-0.16716343172153994,0.6420033463134966,-0.09081643499945212,-0.2219667736172371,-2.035392265895146,1.236499011798182,-0.7266643461387717,1.142285828256481,-0.12732133559910505,-1.0616886063295694,-2.306051424582636,-0.5252595135344086,-0.3209064086365344,1.1321667936525017,0.9164486665629755,-0.011414146211907271,0.6582648164844368,0.7769622540702003,-1.3565091247405694,-2.16665995262509,-2.710428286629573,0.5867058928328263,0.17212031928480928,0.4309761849425192,-3.011489522280571,1.4903624241907363,-1.9485459549632695,-0.21276923096908176,1.1524951778110917,1.6150404811934191,0.6225689551031512,-0.35603097090798896,-1.3302282920967121,-1.0380432240619744,-0.7472439996108687,-1.0585286963037766,0.2545396799305963,-0.19420683915089007,0.1384863113926141,-0.40430622754707957,0.010945500649702124,-0.9347503977261039,-0.31926372627762173,0.1458004487243966,-0.14715515399015175,0.09989336424598223,0.5210764759167306,-0.38296798200953136,-0.6060819073836808,-1.3318502098604816,0.7002501457958407,0.747535136364271,-0.7791228421252149,0.8455390522334882,0.8954843356565101,-0.2245420700224544,0.35301723367516047,-0.2969978874258165,0.004137044063789088,1.4380060294890236,-0.9106323836308929,0.22992977438640616,-1.6698366200564394,1.339964446719755,1.1651386960104797,-0.15458365977062447,-1.0288813535069559,0.7660762538546485,0.9976229869627512,-0.4468349110545318,-1.7896063773237532,0.0775134884166491,-2.2202657004325714,0.0039622180478759575,0.5531480796477956,0.8116242597698405,0.3485678579925922,0.3225732349558919,-1.2683550583176935,-0.9254762725760661,1.3755743500155022,-1.1912676044198756,-1.1008767818988496,-0.2807203970078072,-1.9801372408449087,-1.60187133614893,-0.136095312428095,-0.5608423677388176,-0.1059424589909388,-0.9285809833909044,-2.0020393278511435,0.7214470366688955,-1.2408226852902948,0.3372716374600424,-1.439697003967051,1.5670286532910156,0.23740403638070406,1.681792818373777,0.2731025257610771,-0.45451474112293383,-0.705553393682868,0.9573619688974468,0.06551677093999078,-1.0847870483280477,-0.02886276465784281,-1.3096923667607627,0.4683365376694594,-0.13514509319404291,-0.5817332022503664,1.2834432401592832,-0.2095542872462123,-2.0494337516909895,-0.05887818630267235,0.5229613526977779,-1.6016151681632043,-2.402815821342687,0.02079169388737839,-0.2083420681280202,-0.3647799553367927,-0.018493919851736883,-0.7825753569122779,-0.13523599923293786,-0.5871779437587202,1.8000528127973463,0.4909936911315769,0.5970262140273971,-1.2295749517410635,1.618273716018481,-1.7462019879358643,-0.7097681924832036,0.02440270805185157,0.20015445082143163,-0.5543072099054961,-0.291950727805986,0.788241249047736,0.9050940827187389,0.2667943359124405,-1.1176207282771797,-0.9739670860480524,1.4471084155355294,0.5190810746566129,0.8768727505482298,0.4670901650712411,0.33003430279668705,-2.022445587272677,0.6576937373427407,-0.5091566488554685,1.328350429671516,1.7674761562393837,-0.8877368629007755,0.767055929695238,0.4411284221055121,0.03257981553234989,-0.027368167329117107,0.7699161976486797,0.5872775647577757,0.1912015856983194,-0.65563713482594,-0.300149779229107,0.310629509328408,0.6522662047072181,0.1282334599041975,-0.7289536831027335,0.3860081624538278,0.35254873229682326,-0.6723757284962734,0.1977059079548225,-0.8377615609563538,-0.1852553243996753,0.5626169124490937,-0.9274253840509786,0.28512511106992633,-1.0704542639921224,-1.274880854688387,0.6712944865012865,-0.0018154673836568566,-0.14262891172070524,-0.21402628528241185,-0.6271508881683733,-0.4002754357930496,-0.8135213199466448,0.30291670699233536,0.3469345866506194,-1.117550086355405,-0.12706528783151544,-0.00004719977395129963,-0.45999980634772375,0.33729269714878946,-1.9232279903427627,1.5825047045895924,-1.5597999153907465,1.377634618302405,2.061821742474248,0.01943673275898,0.9471916675674913,0.4087306906974649,1.465058933754898,1.6258306424808053,0.6910537779076517,-1.164180559606325,0.6843287015312659,1.4457914890147783,1.208254247280294,-0.7271515395141043,-0.30623870566058947,0.488427719932116,0.5755340986034497,1.0525779684226868,-0.081483614011499,-0.3213480583913652,1.066957697224519,-0.987613234382117,1.198116982677143,-0.44394471396802027,-1.467260474744422,1.2175187138813048,-0.07195096724216203,0.02067522131623124,1.7769388845546203,-0.1897420044399489,0.44145832938064095,0.78439251073145,-0.7050321407668534,2.3542810200310407,-0.9704231237180251,0.2562775299927378,0.1772323547713827,0.5662876504078036,-1.1416419854237005,0.10312724212991739,-0.8952659648015586,-0.480350312407573,0.1165972044215835,-1.479120287931222,-1.4666598008376583,-0.5425471305717572,-2.384549044122636,0.5705118591659606,-0.2202503865566972,0.39463165026349595,1.2218451758213542,-0.27823390025639455,0.2840122081500389,-0.9627960677058272,0.4301131979827253,-0.11547455352000387,-2.1167524336719534,-1.1724726088244954,0.3917207149097978,0.13074177058153957,-1.6377878685554919,1.0811172873497756,-0.19251972628675895,-0.7086866835879034,-2.9802760398087935,-1.3956892676786052,0.2901717190593322,0.018750863205035113,0.413680134642428,0.7059786226924235,0.6900967260538433,-0.2779657221547994,0.18680385622582257,-0.5229779956217022,1.3115898918688873,-0.3093284744107995,-0.267664214272064,0.8559886598218532,2.08850589924534,0.6290625601509721,-1.4873889416403658,-1.4704493809211645,-0.5085006628319871,-0.36945985333319203,-1.9173874107384434,0.13443422196079272,0.660124138246647,1.5933739521992012,-0.8665565969872694,2.0766937667922827,-0.1881894619132661,0.28293326561733223,0.9116083607261972,-0.5032393630644529,-0.17442720812000362,1.8108161889422505,-0.6959246341422559,-0.38251609454354707,0.8638054154224578,-1.5283280345700379,-1.2044159641658974,0.5113401335458014,-1.0391983039144217,0.15637009907209923,-0.14054477324638887,-0.843945779748805,0.3558766499106816,1.2915869774823483,1.2389634168730268,-0.40757349691209627,-0.6218841018264984,-1.5836090227958666,1.0345822739918822,1.2436953878909276,1.7626791706720175,-0.5237066578867509,-0.47217511743751517,-1.9119330379185993,0.8743560011580289,1.9399655163308067,0.09477189512615156,-0.3127294696980722,0.6619086938789324,0.9816352736195048,-0.07893186883121706,-1.441617635151744,0.45887227092451743,0.1970968307835795,-0.12764607382756718,1.7084761893343159,-0.14075041635549224,-0.3595158247498615,0.7714899873679006,1.7070863266625051,-0.18551443648599056,-1.2012304169212769,0.15791546838688675,-0.17221264593581964,-0.13502843053711647,-0.05128331573504168,-1.393733665401428,-0.23797787429395345,-0.9150179205599529,-0.26395659032180424,-0.6878981737054535,-0.058974033308386846,-0.8680450924825251,0.199602112494355,-0.8655060737005934,0.12667632551590677,0.0028669625220773694,-1.181530451592968,-1.104702353894006,0.6132878855604339,0.4869265441872443,0.7039363061786775,0.10654110939145714,-0.0779205090081895,1.409990386583846,0.21444946545421734,-2.2831202743016252,0.9708641238782703,1.8800644111327303,-0.32799980572112114,-1.2006349081637506,0.33519525854826787,0.5372015589282952,0.8940857314578562,-0.5642599714023627,0.2709181928054217,-0.3076094101995908,-0.8990031949321406,-1.1860981412037326,-0.4816899523735606,-0.9248989509287029,2.0787696182965756,-0.6456340502917145,1.3421725772351918,-0.6238883217900543,0.3990767300512952,1.3761103664336412,0.09899537506998159,1.4546309327315332,-0.016330889958091222,-1.3844131163966424,0.7923144735815086,-0.7916642728405745,2.502457946778852,0.513552394747928,3.411789701180047,-1.5770289424012407,-1.136356057747128,0.9062532015909343,1.3985184395766852,1.1428096871533546,0.4816420023263568,0.46043424089559276,-0.5734090006751437,-0.5071022387110835,0.13319641954697214,0.48545310852826207,-0.7052480498972019,0.331707690970514,-0.4432280249532765,-0.4797069715576465,-0.052785255417708454,-0.7582980505137739,-1.7668163946957551,0.1590822263032784,-0.09181317385942692,0.2715154333952033,-0.16389046041030408,-0.5596815320663245,-1.357347960217213,1.4849509068647504,-0.36957164321770314,-0.21972319995212972,0.008314066131969855,0.3179927149651144,1.4512892462601947,0.05960553179332757,-0.2950403923752862,0.9586702593621366,0.005845391273131518,0.47960729685088294,1.4462846635683049,1.861576554859544,-0.521592546638805,1.2702022633226353,-0.36096761472288164,-0.7464691871784542,0.6842210432978552,1.1863998409660113,-1.5376224800926162,-0.3728884841831535,0.12217382483282592,0.820455614972283,0.1854369971540835,1.9147654229418134,-1.643141203308483,1.4946384737798841,-0.13438740773015512,1.0295879801196555,-0.822613994622475,-0.024141562288389734,1.917791760490089,-1.1048816833987776,0.17217397433704598,-0.3963302427191776,1.5397208026420235,-0.324100657924796,0.09636330334139061,-0.31332353013019726,0.3862589209519092,-1.1122676839414551,-0.49984842169744287,-1.651532586427368],[0.24016998699210834,0.923889241232898,-0.15952687302246119,0.650263194878104,-0.8746811640315918,0.32859611652353193,1.5349395889042985,0.8092510523739547,1.1280008345824064,0.7909457072402921,-0.5148457827119476,1.7669641853433649,-0.29428840596997136,0.2925450661450838,1.0590680890716588,-0.5529102909695395,1.3741551018814782,-0.33626679109016977,-1.2247012556850696,-0.25521288858803254,-0.9223422474522349,-0.8305860275516838,1.1310135998042579,1.5824934481914654,-0.37806062127812395,1.1678643908139443,0.19267185229283554,-1.0919599859941187,-0.9823276891324072,1.5051468608359917,-0.7691944358901315,1.7845052408528705,1.7255423043728642,1.0281352694960368,-0.7053622389049186,-0.1096510184587879,0.7583826657357052,0.999423788488537,0.1298026127165967,-0.6298586235225716,0.39300118437259013,0.5579007176185401,-0.7362586711833145,-0.14019739230459388,-0.06123944728816817,-1.0335799107928159,-0.2680072577140704,1.559827531423103,-0.15154857004983568,0.8094780513015123,-0.13998103648173674,0.1352010120622204,-2.699189067585498,0.7594415106909363,-0.8794119988973462,-0.026202603518251644,0.14510805177388147,0.9965947167943409,-0.172061680211054,0.42609067266028133,-0.684249428505826,0.6373586471515437,0.17919686652587455,0.1892004312063675,-0.4700896843092613,-0.49367000036729247,-0.8468291548534054,-1.6467048320381727,-0.4561609569228165,-0.034310961251019095,-0.73209643025793,0.5035319386735327,0.6444823327635568,1.2646530893603956,1.4677904589526287,0.3928594803512187,1.6593752077113837,1.0300095799730655,-0.20690244808728825,-0.23776013777295288,-0.8606461663473195,-0.5606203107325818,-1.3404405783171767,-0.5798086171110429,-0.7823989184378211,0.277351232370651,-1.140507582697759,0.6721257909179064,-1.221754019117912,-0.027595877707123396,1.3451186665479644,-0.7953578894931218,0.17601437541021525,-0.6759374800329837,0.26425958979192454,0.66270297918376,-1.5489168149644483,0.7863907004929727,-0.33684673740220683,-0.618843241719226,0.2414985739965033,-0.8578076762617239,0.6469185353723812,-0.6705160587803397,0.29958847228712,0.09883937031316906,-0.47833725632399704,-0.7393590244367425,0.9385166910427735,0.4323198987023337,-0.6660812991908105,-0.3813955371458835,0.7310630594520925,-0.5310099107404402,-0.4331216748324314,1.02608321724064,0.9392690877189455,0.17987561802420698,-1.059409603496717,0.2541990852268701,-1.5636321280001046,0.39587420163658116,-0.14198227060046756,1.1243460220734134,0.3466654309541387,-0.9397121803966786,-0.13493263384096876,0.29974719989595916,-0.6755827695169163,-0.2033094035461483,-0.17983640366570622,0.1342184239601253,-2.1701769374020743,0.1934069520657944,-1.0001209464496734,0.2142344884293753,-0.011380800928279589,0.19848636659867058,1.7098529792408013,-0.7971430463004819,-1.3969626253100869,1.1463659577198744,0.6753753653823616,0.44023242767516385,0.4388274338771508,-0.6220180278018568,-1.0266250438814262,0.33449676960001956,1.5862789359854927,-2.774120637837511,-1.4208467768823059,-1.1699925943499931,1.3472676933608074,-2.6389458577125224,1.6591163613070756,0.28712579153632994,1.5080437409643714,0.27742949267503575,-0.5382528812292656,0.4728495943587778,-0.5105379489378971,-0.30074415703685625,2.184858122573489,-0.5316869216585083,-0.04247040659358879,-0.17534221220581533,-1.214744266917761,0.45169938550406163,0.6090670130746537,2.4881597343366213,-0.04613620711459789,1.9678290346901552,0.4047465160217946,0.8823894698169681,-0.41425570421829394,0.4972972869149882,1.5045237934392004,-0.4108326107496953,-1.239300505749969,0.1661164465631062,-1.9153855837468428,-1.9214571439667798,-0.34886870039190376,0.12385192137854031,-1.6003247454112806,0.9248403970492087,-0.8972497838080805,0.4026409290561575,-0.34327813592621587,-0.24479930037266226,0.6239048548514641,-0.19643738143823763,-1.5990000520043703,-1.6305478242166627,2.2510192527814414,-1.377138291866375,1.5201591211030072,-0.24919927436633754,-0.12386359074846562,-0.546822171982294,-0.10777618752757553,-0.35193184873835553,0.14000376942632328,0.5371717549570395,1.6502403951818625,0.19185182769973005,-0.9486954490982612,0.03257820958463159,0.452334018136663,-0.4817976725917369,0.05379523762031059,1.3242748197728502,0.5456935312094968,0.576034108160702,2.028085824157573,-0.23149775400000067,-1.5002995730869124,-0.379492651471838,-1.1395139842361977,0.24714524338751162,-0.26633569007908514,-0.3564899794763164,0.6499823146409143,-0.49391048456256553,1.066963475175675,-0.2676700619836243,-0.7452022904649354,-0.21258707431833307,-0.28573501679686475,-1.552779599520602,1.3325209648862673,-1.9486594453147459,-0.4917279594458061,-2.410746971686778,-1.4422273503941974,-1.1744830090894853,0.3185273422530759,0.535140360045171,0.8851186662284739,0.6817132648254712,0.18394213736870915,-1.4013060364193708,-0.6509780076793646,-0.4148002608066079,0.05151950288567357,0.12604325165716856,-0.8806234829272847,0.7029721640193738,1.2787936594690867,-1.5933469970154064,0.9554722564943646,0.4177440131571657,0.27146235795314155,0.7309335070668812,-1.1949227195291576,-1.5924226644780242,-0.6798866136046027,0.7104778274591206,-0.35053210185797046,1.9888225082298867,0.3175404678246862,-0.48008263595280404,2.119135882546799,-1.652711510942412,1.0142715603706773,-1.0875373064805884,-1.1477677787210037,0.35980122026298755,-0.7695371174880227,-1.8074349171502555,1.7708264564806329,-1.1755746604811743,0.11069275567550634,-0.9612042140916082,0.47784239546818247,-0.3080950280059389,-1.0251987379505993,-0.12392909398692677,-0.3695114702739662,0.7928867513923787,-1.2717556221123485,-1.7529667785726664,-0.9805676894477753,-0.3180680690955509,-0.35418870774981476,0.822922774462762,-0.907150958337524,-0.13074829531272672,-1.9208270025638512,-0.7336999484775161,-1.665031251513489,0.5971038755490188,0.334816895827424,-0.6916399288776657,-0.4901159492548054,-0.8883516667351365,-2.342755447414344,-1.983608213006888,0.48781388668469394,-0.8539563091910621,0.19807442459610566,-1.2807618513092882,0.7902776441824113,-1.1038436517460495,-0.2831512585340136,-0.09971620427425679,-1.0962348540754454,0.9367104116043761,-0.020711971867367278,1.1236535729206623,0.31783450990298984,-0.3491960705099468,0.1538006064847145,-0.9116566522713402,-0.12884113235051764,-0.16556704586056867,-1.0254324833450936,0.29015070508534446,0.245310966161407,0.46737412816077073,-0.5729134768372489,-1.347132977855364,0.580989998177409,-0.41147488502983115,0.573360110440318,0.21405742544689896,-1.9484140882538423,-0.9919376212977525,-0.17742251474832,-0.10904093299184349,-0.06242415456091161,-1.075310606656682,-0.17559131294696156,-0.40801495032028584,1.5096237854911878,-0.6154418455284261,0.31013419522301483,0.3483883068738016,-0.5941312454137374,-0.40560551191675565,1.3463672071167174,0.27972418032358287,0.20224572206088068,-0.6308890353075223,0.7447475184342106,-1.2130055668074005,0.17442539926847597,1.573343699088915,-0.2644066609142372,-0.366691633984473,1.6230619408183748,0.5008204608054031,1.5637510198954758,-0.5371793430161197,-0.1480613745699611,-1.158354751907976,-0.842204209227754,-0.1865545111295241,-0.5520816842630545,0.06836555734992704,-2.0813828579791367,0.8401361131375799,0.03523816403332744,1.7151863889026389,-0.1655486941907833,-0.5197074162806234,1.9361732836123842,0.5306063242213631,-0.8764276406195011,-0.2069573714233921,-0.8783417191460928,-1.253013538228426,-0.4942107574292243,0.07566110723271018,-0.000023657100407577354,1.0376800069591703,-0.5807609974064354,1.3897755894000283,-1.4369147656455887,0.5816941621743357,0.5939550188961024,0.30013396715172824,0.9007178847231639,-0.8141516905839862,-2.426738284843949,1.5203148181429191,-0.17579381992613852,0.5608791339325335,-0.5188929772291206,-1.6172844196879128,-0.4811948229659538,1.6504944926995235,1.1636711433786167,-0.8683395083465565,-0.8395566510158493,0.2844786822711038,-0.23496306458215757,-0.0776462178687754,-0.8164703557335559,-0.5867937005849458,0.5385089300260146,0.6921039771426253,1.8688031654374089,1.1118820386835417,-0.19993847449484445,1.2162118412246672,0.125315257363006,0.6360014010818166,0.05548557083761156,2.534564820483617,-1.003651237913686,-1.4873349761452777,2.6145257110138704,1.5029075934034346,2.2952737375946795,0.5719009921293658,0.08731473190921896,1.713879757837868,0.1478383016721158,0.23843601093780425,0.17380044345495366,1.6798752557081922,2.780781413782282,0.12804840929032102,-0.05123715346220354,1.361362903332683,-0.0057761669546660755,0.8022059740142099,-0.5587896638363486,0.10553200078588239,0.3736850980760706,0.05975734444100149,0.967724963596671,1.3419533844336984,-0.6425540203968735,1.3868468823697313,-0.8522779299311031,-0.847474189541738,-0.7206036815955904,0.4711156801108036,-2.959865730197942,0.1521167553516391,1.2053685301793244,-1.9680288718079828,1.3991944285118632,0.19458414158721643,-0.3875646044992581,0.2365521752627728,-0.1360990723493497,-1.7178114222552263,-1.5680275237508323,1.2299011442387493,0.3398797366130188,-1.7779451580226975,-0.13395775205680277,1.8266660540376887,1.1430952794310436,-1.0768048410517364,-0.5139675847983731,-0.8983804717785412,0.9287941478651536,-2.0065762013223516,-0.08580433161120991,-0.26864921499601446,-0.21552580106183078,-0.3960386674413117,-1.0851850769181766,1.0794386523651127,-0.6073629457237152,1.9849138946674314,0.5501941626723975,-1.3480322051175273,-1.030163356056809,-0.3462045526472012,-1.4848589699311705,1.5398766399555657,0.23358327772580637,0.952312819426368,0.5465030730707042,-0.16811755282238805,0.0018052018283466148,-0.21972640309125618,1.3383525185430418,2.4460804933001143,0.24945339172430062,1.9447629461757896,-0.8124343360934987,-0.29848249081283057,0.7154651059873577,-0.20365656207635116,-0.5887282622487608,-0.0835639966599761,-1.4715627970074034,-1.5498102785974794,-0.6180037632486566,1.5398501519346197,0.8604786858462221,-1.5640191357831252,-1.3304270217272414,0.49691799451970564,-3.007057335993631,-0.9500992577619612,-0.44507455858924533,-1.381476634880836,-0.041302128783625054,0.7604327763223476,0.8708835598808872,0.8859365823384542,1.1142249841814682,-0.6549964354002201,-0.2306522094212957,-0.41909162328737776,-0.8502572501744395,-0.7724558345487608,-1.093058950464162,1.695866047693777,1.3810000363535324,1.5367715368860377,-0.01625346202858842,0.23744993198795442,-0.266276703239423,-0.9295376755381495,1.1792472132732768,-0.43627071388238914,-0.9670000666562895,-1.558960695239567,-0.10216327639147002,-0.846913035785303,1.8206243918889227,0.417796207644734,0.8185867841375776,0.3640646120956435,0.7483529680967096,-1.3791419041999162,-0.42719622223044523,0.6627481724721787,-0.06591484774169978,1.2782474231945726,0.5901799546490565,1.656477302937151,0.7894868823802911,0.9316126124404169,-0.8480446305840176,-1.7985222337345663,1.0335911254820798,1.7839275414090108,-0.46699243830212367,-0.8255496631895266,1.133177414545892,0.7289318870989877,-1.1245670848116625,0.01586338306041306,-0.0376660657984792,-0.7005128983482344,-0.8903611661811199,0.6453141571990616,-0.6870600406357459,0.8947174873703836,1.2943164587595992,-1.04836353380346,-1.3783732440412637,0.9495401742123005,1.6745057685222924,1.7869038076922976,0.9758575318496284,-1.3143245524317277,-0.3605455374303064,-1.738205767867741,-0.29754461276768973,-0.17617952379684315,0.6749996655809589,-1.6052222632536193,-0.5871532036132542,0.4978310748848592,-0.35851186723110706,0.515076267673917,-0.24706250698762308,-0.29810340792939216,-0.9484952812718159,0.5714635133380883,-0.49120370111942313,-1.0413944388284235,-0.054625120154058904,-0.24647605391399705,0.5915404604408774,2.2705500642142016,0.20390625197760362,-0.3818597719612996,1.84221219228306,-0.7141795555894902,-0.1453648286023087,-0.09637410833438756,-0.17880034768186187,0.37741076311225574,-0.7438354829343531,-1.2196864101576992,-1.6428428255776437,0.11410346527851603,-0.41927704334926014,-1.7492358679216125,0.12586732479866772,0.3204014593926055,1.0454767294845693,-0.5123800451038735,-0.523083707632827,-0.3757143244297517,1.861165903128783,-0.533756817330236,0.678828046377786,1.9836520923658778,-1.7541309290843687,-1.2773826850394958,0.1466541620742575,1.2560378807494714,-0.6492955464257791,-2.0683761518842103,0.6881326143666587,-1.503372766378603,-0.2830897212514331,-0.6427830519073946,0.7809724788511346,0.7674399100458893,-2.5952654078955413,-0.24031575360716556,-0.6578677785037246,0.506848521296189,0.024002694621106394,-0.4968233190199354,0.5506109806554038,1.1126424338258376,-1.8143870613373134,2.0016383706653227,0.4381377262953227,-1.2021101170799486,0.37257448677821015,-0.29094478366827015,-1.019263168497944,0.44505159536238303,1.463545113037379,-0.49246482325358976,-0.8849620984504292,-0.08690862267179918,1.6081425105809657,-0.3865308254503816,0.8927923068966747,0.28824185824882115,0.2142566043784829,-0.14797122326494627,-1.1741468526047567,-0.15019669261542173,-1.1294031846162325,1.2552535025832026,0.4081224664071059,2.1697751129927365,-0.27407038470493167,0.4319309385733493,0.2900906773177825,0.7589382470992353,0.4475809410266161,-0.7434198769813677,-0.88246048862626,-0.17523148693938229,0.9773198531001513,1.263078003493957,-0.9590691961504971,-2.1030239923632306,0.3026024572787535,0.14521601776879556,-1.2670749701697743,-0.29943262281664346,0.48087955460163195,0.2728632033610863,0.9518811521120187,-0.7973810009646352,1.4655533485848105,0.5820239359205194,0.6975817591974199,1.7007131903022141,2.965112312159197,-0.8099199708912317,-0.37236683196535764,-0.44637888880599447,-0.23745501120612336,1.8623597254228752,1.2105019995132162,0.1518601315217964,1.1897848577152663,1.831805027344912,0.8831082742768415,2.5386877691611183,0.25755940566126845,0.2665443435744078,-0.7024555525933388,0.15028699463727443,0.6268913503365138,-1.5514222828791844,-1.3235700555961083,-0.47865204850329857,-3.12528309782274,-1.1702149536924242,1.0727245203031333,0.6088713966599898,-0.4110978227521435,0.4143107110051494,1.4236829220404215,-0.05769342855709844,-1.3731162589425543,1.6814323668278357,2.2863189985877312,1.0739431645146171,0.08920936387828197,0.2967398291350159,2.1414566038476694,0.7690584989967826,-1.175645262421679,0.1352127394493717,0.9849609823664831,-0.6390079545294424,-1.155413024852085,0.8132218640854425,0.7629718731438313,0.38467950573549836,-0.6280892396789223,1.6209137161782745,-0.18742511474328372,-0.16329057600076088,1.9362397384900587,0.5108276179740854,0.35470583121758625,0.09479977331960986,0.75110426916857,-0.9510924524548289,0.23725750898573636,1.3266092283975641,0.13945012432267545,-0.48953081155253864,0.25545124026949123,-0.32271977505374155,1.842913035628845,-0.8379119666248195,0.7253546451848223,1.2835901574617377,1.567757685136959,-1.9209856342719576,-1.7462633408058374,-0.5982535290226123,0.6811121997873192,2.341260122945765,1.0064929293136227,0.24524871523554714,-0.24241921158906263,0.34956597492416336,-1.0191790443716038,-0.2784120369996842,1.1430050497979791,-1.0348536739180951,0.10995943567219886,0.7664176407811361,0.2232858338704533,-0.5659679811957309,-1.6960172180443633,0.21451398158950294,-0.9496621234450913,0.48566329327648383,-0.06046408334671462,-2.4503742369097283,-0.5196016270446167,0.45426060654735556,-0.11505196707212807,-0.610496204653264,0.8901812465745027,0.9509878079997761,-1.8183115810970667,0.6448705457594811,-1.1722362177873047,1.1182492666738508,0.7904720541837891,-1.846355979024163,0.6094676638062916,-0.27370299213879995,0.9590061789408459,1.282799499245833,-0.7421223724212739,-0.9402151919912312],[0.7756902725093507,-2.6994504805973354,-1.6081545920893103,-0.8716999362987464,0.793739030882933,-0.05771215410327084,2.1062582985882536,1.0753900330001416,0.8457538338148393,0.3720853418120075,1.8406752722301825,-0.4139574642029465,1.3490300214268538,-0.5300414431133255,-0.69545071710179,-0.5932084986070809,-1.241318824644334,-1.499734238768771,0.16962355262610432,1.2753404119858993,0.24724816874777036,-0.025124164528319743,1.1493876196284303,0.0017738884248736844,1.1574417817943432,0.2790252929260103,-0.17780025913019412,-0.3481184059941895,-0.9639522482090548,-1.2981277819372163,-0.6903093509066786,0.40006109969591164,-0.6612390439950898,0.7281989680396042,0.801528546666666,0.07038930127258011,0.4570970756061342,-1.4100054178891808,1.5643410295362727,1.3913590468388448,0.2700249927282337,0.44802326968734435,-1.0037283989184018,0.7921076792126168,-0.785785303898825,0.28399734577854624,-0.12194585303696158,1.176332496597013,2.4037398693681955,-1.8152271069032104,0.6412044193271607,-0.5669834353162626,0.28970823148047303,-0.397161410295284,1.3365728643033872,0.5535879475675726,-0.664768565110732,1.079186905799873,0.7607160803508857,-0.7077038131250505,0.47771936068243953,0.08947820421523024,0.9423751905034347,-1.8778091155184997,-2.3722496980320043,0.898522144157786,0.7462253387655896,-0.08918574582916318,-1.0609129181127959,-0.5508127306829702,0.26190236920271776,-0.46839757255356795,-1.078972767205578,-0.8910311844360295,2.1919481823330274,-0.8883905441431628,1.2656295169989724,0.3206128639426826,0.395974483838496,-0.7915117253499825,0.39530033511469126,-1.8282296494063706,0.35470110626038404,0.6759830860516312,1.1124936097438811,-1.328809308582641,0.15780524194513434,-0.8230856175457624,-1.012545924402463,-0.7272814486391541,-0.3855748183586663,0.13687441595402336,0.482852889847768,0.5764021290021688,1.4864981715672339,-0.34602967064832313,-0.08853826019589632,1.416034470505525,-0.15666959373355552,-1.1264131180527666,1.8534592902197349,0.9561801268574452,-1.3891514097134459,-1.3943887224940028,-0.6022243014959884,0.4121465134003732,2.222361499189843,-0.2718664039117971,-1.3169681043342405,1.4395528033978842,-0.40354742082745304,0.09629357525212484,-1.0721314769367825,0.732769901856097,0.6824170692658135,0.026862659085779075,1.1247742229754056,0.4716712014546151,0.06430137448454465,0.22056623845692672,-0.3421213118407007,-1.364510097844636,-0.2942925019937667,-0.8672956566045171,-0.11614844201899312,0.4106753280565673,0.017017055557434355,-0.39809820023335396,0.3243476123101893,-0.986163691017171,-0.10946964763356169,1.5323104846840079,0.8435307702068501,-1.1238555159482246,0.0071050257514218,0.625208644485223,0.5258624067750767,0.5311202830604781,-2.020697147518735,0.05450744017735358,0.08773429106176286,0.5366423236988677,0.580733858270579,0.8462735292268768,-0.16085448303638902,-1.6101293510771215,0.19905032923804344,-1.0960856842979245,-0.9018909151411222,-0.38778689367911834,-0.8437888548826569,0.9725723583531589,1.4246101529539708,-0.4378312400447295,-1.1675099793328734,-0.5252452680715637,1.1097082484179226,-1.3724642519700934,0.7399254143717705,-1.0260498736851302,0.7333495369351621,-0.776649394306091,0.9283658903196964,0.004240551114277374,-1.716701226908475,-0.1300638278562732,-0.2780464838544589,-1.328104102472756,-1.0687829074475457,-0.7022947692450595,1.5017922299799846,-0.2740160629221418,-0.12187601938900398,1.0622293197379598,0.27932075797631073,-1.051604679019608,-1.657278374753585,0.2850128571664622,-0.27284430090508166,-0.6839362671523346,-0.03544007697796242,0.01926570450371852,1.7678490499156274,-0.9944070896275602,-0.16247687506288788,0.5110404691502116,-0.4936898266435705,-0.6496758323476014,1.2027371643636382,0.757065369834303,0.20830028575977907,-1.2562968693251635,1.0326413860965924,1.8614889960240084,-0.9466260813884825,0.6530665170886221,1.1026264953336413,-0.548220567389887,0.25990150075989005,-0.1628787700065397,3.4261693324332376,0.9693123672676338,0.05659290141643552,-0.41465710941532896,-1.1063507706302922,1.5067774217746959,-1.4333718937154756,0.6654715035530877,-1.2839751772497034,-0.22212707367372214,-1.4924780509607454,1.537622531494393,-0.013622602481670075,-0.2416311891930229,-0.5308830328746234,-0.33301489127349854,-0.5998596633379848,1.04291579633714,0.8551041520223392,0.30313750700045494,0.0629044589026775,-0.18512118901510827,0.09487941353649619,0.47369753895713335,-0.10246162475243588,-0.38918644097092975,-0.6371614678474006,-0.05043881260718422,0.567694807399484,1.3196074925131827,-0.2729003603952867,-1.555603676888541,0.7271410083279275,-1.4332895564702484,-0.28010843506325256,0.21914331786668817,0.8555305025973753,-0.5516975459234283,-0.09422562734919684,1.739645378032325,0.6253819156488639,0.2634457153407017,-0.29941193986392395,0.44501626901363023,0.00009812469847515727,-0.771387026503901,-0.8130905804874102,-0.4125856223857369,0.2885616070636252,0.8474972389115827,-1.4085434113036197,2.0525135420954954,-0.21256713455065504,-0.03287896905811969,0.9143373644907561,-1.4437291457469008,-0.5939821636884814,-0.37431131255540123,0.45857145823106565,-0.34366635094292824,1.2343950657557696,-0.3822905386289069,-0.37314426447145027,0.8309452632530253,-0.5952077953629739,-0.6100996038837645,0.6993614909185857,-0.6581227127981227,-0.7954376943052457,-0.04554023941274152,-0.7679361660590077,-0.3122698706338686,-1.4851609654640878,-0.05355834999946993,0.4035976305592348,-0.01742285138954805,0.6017049594115383,-0.16661196227243577,0.8284804657663247,-0.7820104648039664,0.8298904923058256,-0.5538576712169674,-0.43347003027108555,0.6355450874014178,-1.3087937613144627,-0.42034618884802066,-0.6132430586779494,-0.7442208906641662,-0.23664484174887718,-0.7659983432452744,-1.557497054128527,0.26976810282436275,0.5994554231966148,-0.702685732449829,1.0078521557475824,0.511916611764983,-0.648209190102507,0.7765009782913711,0.009029817929742674,1.1124404437076467,0.23710246113383282,-0.22640678070860853,-0.4095206164398351,1.5165631462839364,-0.2859831997648842,-0.747435170435834,0.35843996234745573,-0.8916813727030377,1.4210570266808857,-0.7315194426186995,0.1640060317556722,-1.04267202478861,-1.6549910650511443,0.37107138942176787,1.5161485365621026,0.18208971712326652,-0.8608604411116956,-0.804117609152438,-1.1594290111030487,-0.5891982029973296,1.43821721289664,0.9174384437537716,-0.7061559467543835,-0.8173227936540273,-0.39540678226927506,0.24493376101504782,-0.4063904238452847,-0.9406745084856288,-1.4958128451583201,0.8181201634633769,0.27608918397020293,-2.5281794353300833,-1.616063898160303,0.09077013207798128,0.04835478813348105,-0.7734335549478965,-1.2506717521357356,0.9174933492204369,-0.31781477662741237,-0.8739245222087454,-0.06936743047840956,0.5855840461778375,-0.9254303722970633,0.18110885595895884,0.6738207475777463,-1.0715193012363382,-0.33319689596407165,1.4050990463213455,0.7128774875506353,1.3788673568549836,1.6875422012370407,-0.7455393733581036,-0.6655350431342024,-1.6095333950314579,0.3803430845816647,1.2660240375090317,0.5452043578671615,-0.38799118460264725,0.06609548575181877,-0.45782992174792775,-1.4278296626504003,-0.7306192142209647,-1.172514203967235,0.7383595383761812,-1.6370133839358483,-1.7470800816731928,0.23491302201632547,1.0779155561536906,0.594977700215635,-1.7046302279543535,-0.926082382435185,-0.5123532864144953,0.580115824924134,-0.9927059538022825,0.28338576477771404,0.9061255308795593,-0.25470906664408594,0.2654153281397578,1.491766495096548,0.10700837720295954,0.2829932781811643,-0.2356852953846058,-1.6244562820885051,-1.2703579780811096,1.1491530761561501,0.5954213370210706,0.6240106079861389,-2.0993066911517184,-0.7286730661170941,-0.16760310880192184,0.2656071049642922,1.143188931779482,-0.1744848965191547,0.48509430979592066,-2.182092185433075,-2.124523809678897,-0.8007210284992835,-0.33073410200507214,-1.7237365424076216,-0.8645520994875385,1.4454163083677452,-0.9898746234274144,0.23755590461776754,-0.16511297047107723,-0.007485365166318988,-1.940076782490689,0.5851728392427142,-0.8256874900364057,-1.9922246996759423,-1.3093444518370518,-0.6551707552857138,0.5488137978676603,1.6053875184770139,2.0382336384914557,-0.1436586059694904,0.23036410282563152,2.262430164865488,-0.4014531212691546,0.7206257124517077,-0.18835094444645778,0.23340941259462594,1.1880043118071288,-0.8134155073677193,0.3133082882623539,0.9015497531424134,-1.253277387561972,0.39892493041836863,-0.1927505780067673,0.5902529648288962,-0.49203383144894713,0.5604079329790587,-0.6679689019846038,-0.36257519838059094,-1.2417506791786497,0.6690858672345327,1.150455003165534,0.33905845322636363,-0.06308978261360093,-2.2863168251464288,0.3086578219317555,0.7349720079049136,-1.0698209632398166,0.8248835558478186,0.7993706324716818,1.337164824387571,-0.13241803838845634,-1.7938766177284682,0.6539415784586249,-0.6550226055185427,-0.40626281758250904,-0.7607657600722455,-0.31591839227000734,0.6944388689930696,-0.37913011230274807,-0.03546950915880771,0.28772640875848365,-1.2615617664646153,-0.3738926324664666,-0.6176337243983548,1.1820495054991509,-0.07703580630139602,-0.21077617706150925,1.2616247791625415,-0.6623771519053302,1.5648518907739861,-1.0379587034053488,-0.3876249143978257,0.6111050055550812,0.21195996455874283,2.2537174267846822,0.4972251182966611,-0.05424236009687384,0.301365862308692,0.5797980603685192,-0.5562100578650812,0.7148958028472816,1.4626348541330052,1.1748115096657343,-0.18171070073516837,-0.012505028452812074,0.6358601337771729,-0.11918370244514817,1.1845553795518604,1.0101559238639943,0.0665738189259048,-0.7275327895398598,-1.0667094792517067,0.08079339093614091,-0.08803534362695813,-1.2160590858232987,0.14817147607788353,0.8893687467256195,-1.2563214106483667,0.10130883948113593,-0.0623055561259077,-0.8417566706584542,-1.6793271007093333,0.21141063640350255,1.073074619242094,-0.31730523575090247,-0.614369057962823,-1.4226329168994276,-2.009020776624717,-0.1145077643872877,0.47013379215333556,-1.72620840270511,-0.19002614131128287,-0.8279091969444945,1.367968331256055,1.7082071655993813,-0.7693580835237487,-0.4962122530482843,-0.35790856508119817,0.6004319445891175,-1.195541132584253,0.5980829622923636,-1.4245923568412255,1.2282442547678236,0.6577545187822812,-0.7955305352448597,-0.7599161210672125,-0.043918142456732395,0.38908215101917437,-0.1893533024766015,0.861666528604266,1.9090237300273851,0.3837811997430117,-0.9035275362730687,-0.18641313434862508,1.566249217988335,-1.001309858330681,0.259969430709429,0.00963572524094088,-0.11566954140207557,-0.04356129665807622,-0.06589416969383063,-0.467416344540778,0.8997650858219869,0.7749351480738262,0.2821531722523728,1.5962760249326475,0.4281419006310466,-0.29168717381957016,-1.1888004475133984,-0.5256281733346589,-0.9309790254550503,-0.4951160341209095,0.1418316443384299,-0.4901657563705401,-0.265036663248713,-0.8566849840067712,-1.063026505413717,-0.8509464628012383,0.6498528162298214,-0.48179989873612106,-0.24845727684592708,-2.04111997669802,-1.6381722992744188,0.8260205535151616,0.1365141299121558,0.7397488014172798,-0.3896258085866916,0.21023768419066058,0.4406966487300894,0.7366875199265311,-0.8091322896708686,0.1221733414544194,-0.7198489019166681,-0.15142618482631828,0.2596741621416543,0.46894566625267875,-1.146006598069167,0.6517006562865953,0.11404223291946246,0.9623099801314337,0.0452031035849021,0.40243600075194247,-1.1569958971615772,-0.4202084020579715,0.5645269693168375,-1.0174956096328043,-1.3828951382461712,0.6064801660166471,0.49124727496433496,1.3479456103106413,0.2380252157058328,0.10126040116595936,-0.7199578374538748,0.03367648874862383,-1.0896127645058908,-0.5318499006571185,0.5334564948052377,1.2039309099210467,0.5791950566160137,0.07145477439440077,0.46857239094914777,-0.5023965417943748,0.8812156596576428,-0.5417486032465824,-1.3296141860871336,-1.5308957565956431,-1.2529085333667755,0.24664127421983628,-0.7086911536983557,0.19404866107025776,1.3621372030246501,-1.0100933861739316,1.7482877463131725,-0.4103482332376135,-1.9651890831550434,-1.5130387777038756,0.7404793831541059,-1.6145811514778332,-0.5694700083469566,-0.11223220644716975,0.029251179218582307,0.7437594420848145,0.42975571223846987,0.6079289113482992,1.3580313322462838,0.8053978631770297,-0.6817085461185035,-1.1933756860164906,-0.7449495694124424,-0.360129131974219,0.8372768056330685,-1.9774745134089746,0.512327678870108,0.22290700443489728,-1.3449799249880858,1.274140470620808,0.9066379401924031,-0.9109956006630479,-0.014946804901479302,0.200681418440744,-0.25639939533109135,2.934447933608133,0.3539637350934365,-0.23202353100640147,1.9997828355119343,0.2177607330413482,-0.1528604320113653,-0.4887172731719267,-1.6069679837220179,0.5892401142916235,1.0424074068490745,1.3559507463203508,-0.35202418154687576,-0.18123077324786724,-0.1166058743619021,-0.6898167939443323,-1.1746236880231347,0.3819389278754514,-1.6108583857,-0.48201529579326247,0.10354707786098218,0.6026908146965809,1.100655627030742,-0.612392392189208,0.3904403200266314,0.1617705151991573,-1.1279520388937128,1.31046833667947,-0.5202238055192118,-0.03044285542328041,-0.38753159241107654,-0.26751102476114325,-1.101467406123512,-0.13140863469783792,-0.31084680064053855,0.41251371739549303,1.6528352979438599,-0.19293159205479582,0.8387661668086306,-1.9840474340475156,0.11885036986375447,1.4866835522941708,1.2715669999950887,-1.946160169739865,0.6674941429244685,0.1950277392986241,-0.003347175354642585,-0.17063273293846207,0.06231465137742891,-0.5525217832635518,0.04658635745505309,-1.7806359942102947,0.2891503698264466,1.7641195387686803,2.126595386721546,1.345980506098531,0.23061532650015681,0.6585204928493056,0.36645563034445655,-0.17944533185524797,1.1489225158455245,-0.9506289437961021,1.0567567738289776,-0.5630356222008062,-0.8488049206738332,1.4582333035004724,-1.1845545597830833,0.2568602928777537,-2.6550627170113557,0.19721097865226053,-0.36149826052458767,0.4898068034932583,0.823189365581805,-0.8382634499276728,0.6979752354067089,-0.3478786819012023,0.343544132788188,2.1528147933463178,-0.9489814583469659,1.485682901575597,0.8414518831827934,0.46014015497514055,-1.166723861404547,-0.17159348910096017,2.070314158199035,-1.2719035309818618,0.4142082545353012,0.9623588153843774,0.9236333361652611,-1.486808734426948,-0.052529033833592156,-0.6489397616238031,1.011604942166118,1.0528248705249843,0.5343237441186938,0.531688284529105,1.507105461820937,0.08752251381288677,-2.4363142709768977,0.9610086249696996,-0.2542772660028758,0.13992087309116033,0.20031485064715962,-0.42921793153459703,0.38875681699780634,-0.5373153893101154,0.5237189336790189,-0.4372915408469835,1.027674402912559,1.0294255928996299,-1.2099426089174368,1.748906156916491,-1.1053950234907255,0.9595394969582136,-0.4887648243923586,-2.790906075034641,0.10429167578043222,-1.3811529215873923,-0.01893774643412765,-0.20082102540055233,0.4180707898246026,0.4293500036261722,1.479283399220413,-0.30033804690919885,0.2814558463323828,1.4562334583418264,0.8835637507756285,-1.6941605153857537,0.6637215218285348,-1.099826626789069,1.0015528747026592,1.1758770147022013,0.794337768423003,-0.25604310581561657,1.0964906145598143,0.17098015984950915,-0.5740116415364869,-2.0119986106059957,-0.10037358137803926,-0.7979293289010586,-0.7097751340226116,1.6112509453430264,0.02419761122443148,0.830916526104287,-0.1270335730647302,-0.41615470980027464,0.5848168029360586,-0.6228000503191297,1.0049579370283843],[0.7523636384759388,-0.5874624807530385,-0.9502856251190477,0.3482092929260045,0.2860104903208344,-0.07157913093683962,-0.10716283666735807,2.0098260698085757,0.9326098803204842,0.21003082815357013,1.2623539364630676,-0.017497876235839607,-0.18620640723456441,-0.4492048933102409,-1.3171453626130833,0.4155686454816039,-0.0231816885545116,0.9819586455640631,-1.8766445019496836,-2.104844961662396,-0.062398183751609486,-1.4084837918494142,0.1032822429617779,-0.3203313496565407,-1.1547446069012468,-3.060321745124156,0.13172524898451507,-1.1787905737446989,0.2585678480885229,2.218660860285097,-0.0814246211984224,1.1996786618369804,0.29399808999055044,0.2049498024383787,0.003285150102599088,-1.0604677286860462,1.5622022051045859,1.6532034419731014,-0.3106235801780712,-3.1631191869022217,0.30621832486251715,-0.4092631302617488,-0.30083035087842636,1.178192965803751,-0.2502175933729424,-0.6211839587673824,1.613143688219008,-1.2419759396190975,1.4833625376975652,0.2698014810446965,1.023574370666836,0.19552661692522613,-2.2446126994056916,-1.5185863059343523,2.4628505691418674,0.9872493024109263,0.7469240300466045,-1.8240769991745875,0.5654737753261436,-1.9334919856713189,0.39433068952094463,-0.6359394492455634,-1.3180135927461112,-1.4269330296261558,0.6508518246882345,-0.9033839778830481,0.7267290779166685,0.34224622455890674,0.6958460718274824,0.3054982727263588,0.3299097439856399,-0.3142781222160909,0.05849490015817576,-1.1363137985233207,-1.0960725592915945,-0.6906237722663591,0.9198595540135069,-0.027711523141479243,-0.2902971394204103,1.3113691229157494,1.8643501369003128,0.18469523624673,1.0465053691963122,-1.1953966707279324,-1.12558204480112,0.6417260696553679,-0.127844722951261,0.9366021108700069,-0.664514745341975,0.10516009117290553,-1.0351990667753548,-0.12190451755007899,-0.3347028005313048,-1.2922340923447153,-0.530117604318083,-0.0151564356324836,0.7173750878327486,0.5185140575044664,0.22551631335574127,1.2516349305813401,-0.22312678692958055,-0.28205705056453834,1.2906013282749387,1.5222975653909774,-0.20645363288375698,-1.091511854745055,-1.3511971767925872,-1.3043589562834577,-0.3186866147875411,1.128932042475181,0.6744713600560333,-1.5048612805763752,1.0168077042296524,-0.0854619410620496,-0.6748345823529537,-2.37391027191578,1.032369341275749,1.0343549965879466,0.42301521676111825,-0.15480917792832727,-1.3455352682792052,0.1621602812706795,0.03170397162753033,0.9392547993853894,0.566913556132391,0.959017453596072,-0.12656105211756496,-0.6376946221193418,-1.0710963166097711,0.82241354733233,0.48897692326486947,-1.059356081873928,-1.0739826447364085,-0.24777649558569093,1.3744316732104775,0.42910478292971477,-0.012850774703488324,-0.6941865969636982,-0.07791100604020508,0.4763122144924836,-0.09565611577690314,-0.3058189255753258,-0.5808994932166565,-0.9188785133260187,-0.8076504962265987,-0.3303702454359477,-1.7655079370605895,-1.9832410145207475,-0.4047948094434009,-0.9996560334499434,-0.021550797503615778,-0.9158682647906451,-1.7201778720807206,-0.9221732562357826,0.6677763465645733,-2.056317997049391,-0.2365017307948655,-0.5785445299209424,1.2276566646402767,-1.3263016828168472,-0.48406359491879675,0.6493490721366473,-1.3183616077086964,1.172819397854638,0.9010726324794239,-1.6532342637165303,-1.741685348033706,0.5095005283349953,-0.94475928530479,0.030404031646779114,1.8176662461252115,0.7557530026004307,0.4244126244536963,1.3623400022176237,-2.4967696747660924,1.380062855666811,-0.8353766637842905,0.5023362577327453,0.5096541900704585,0.9299474420429046,-0.7706053280325735,0.9285946504662864,-0.5592902071435597,-1.320433252748818,2.1425098454236706,-0.6301902783717583,-0.8603353239296503,-0.18683496500806188,0.6058316503155112,-1.39070892062285,1.7954696291781607,-0.412131104937585,0.05821818928670544,0.2634786329341041,0.04771143114425975,-0.09786337191787403,0.37676204937034186,-0.30383895965178526,1.8432955348764768,0.04310452865130729,-1.2313481498603231,0.08774936352618422,1.2287978179825951,-0.7547917755406593,1.5638819982246805,-1.8479765377630057,-1.3366296877989068,-0.7813194600147814,1.3050550134406198,1.1595530338583002,0.7830904707514313,-0.5916857786987941,-0.04061923664201088,2.47022899902283,1.1896296043869492,-0.5908771528176051,-1.2773729373922844,-0.2561305441425563,-2.699909563331097,-0.8465016417081848,0.8923194783223571,1.710747257149215,-0.49505220108341985,1.0162995417690501,-0.90466036931052,0.32085744016709117,-0.22522167661195608,0.4022827145525644,-0.08299235137319573,-0.8589617684972942,-0.794941749112029,-0.1779375979129937,0.890677379828988,0.9638306761982836,0.17687952328764586,0.47782110409650214,-0.2973552499146081,-0.4574425453727359,0.502395164126948,2.8682686089238745,-1.4553623649622414,-0.5271220043016323,-0.35965960310851347,-0.7986197079663094,0.1356389877466872,0.46953212508248654,1.6435912876588434,-0.4008608186887859,0.03304521277353503,-0.1840883335585109,1.4969164524114777,-0.004494438962564592,0.1372598129316549,-1.294640907067438,-0.7160009020925843,-0.21003125604154932,0.6667975805894193,0.0946386655730343,0.3290242433289266,-0.019227100259848733,-1.4871400698150004,-0.7743481796922624,-0.5572126493650892,0.8048699818219892,-0.8168252870439684,0.13757990861343658,-1.136596281683529,0.2761995903007018,-0.09504367873945595,0.0607103812612874,-1.3605988098274129,-1.549373775626748,0.3150208356141749,-0.08567820907635833,-0.05985796505232964,0.5122025876440713,-1.0849230246287545,0.7284873375892162,-1.0137425872404284,0.480954824628397,0.20057236893859973,-1.5321494576526642,1.392865007444182,-1.5026627839767561,-0.6508027084671371,-1.1691013423064507,-0.037854624420624226,0.625169924065637,-0.7347995311501953,0.7124409426007955,-1.3363246497252375,2.155389621396794,0.43951153906295287,0.7138850807369981,-0.40412136469606547,-0.3443402567299555,0.855852763158045,-1.2319823437566835,1.1708769799202465,0.3547192829485542,0.45028473538628294,-0.4125586414237065,-0.4905469096934089,0.6397163872021644,-0.4110983027520767,-0.3274587463927559,0.4138849496709165,0.031753961520785474,0.10320188964571093,0.888226587793251,-1.3929891263160477,-0.7604250898057426,0.2391051215931977,0.43118874802374935,-1.6678221234054285,0.1380913192167546,-1.7805614575225415,-0.1260955875056563,0.2712493410919775,0.2510726310216962,-0.20266609136062888,0.3414813504882601,1.8580958726049923,-0.5629696054764797,-0.09036569860023803,0.6184985039865404,1.5406920655850946,0.32454562447652124,0.4275894091130496,-0.6183188598960376,-0.7813340249869712,0.7027846242527949,-0.9610199741356629,0.3485287643568122,0.6465021057414938,-0.42230663869224333,0.5700521810359698,-0.8238318286537147,-0.34310571222968156,0.21065535435952537,-1.7092518065120077,0.00805071410601892,-0.5924147951785202,1.7309215860303795,-0.7609293809008224,-0.27315582329094207,-1.0021403606041621,-0.06313953394771776,-1.1873892407807904,-1.0233182296780283,0.783014785032738,-0.3116227707266801,0.5515277839812244,-0.8109400052218348,0.9591269423202796,-0.3978498721563899,-0.11189706664399951,-1.043696205739241,0.03493388967491172,0.20584763593758557,-3.7012685395829705,1.4487131992510913,-0.26580523613758583,-1.0757107088500948,-1.9039091399221935,0.1250321972643765,1.2233204393646178,0.5983950971531169,2.0438430052931054,0.40902843353859836,-0.9107277727896239,0.5793778224203842,-0.13256234397548253,0.15232209731216792,-0.45420093324679583,0.8394438180472061,-1.1343284690156956,0.10745034972815426,-2.0947376070480077,0.8714255299054118,-0.9849049142525997,-0.283415970746393,1.5221452021157655,0.47545592318269286,-0.3219396941961768,-0.9894178298050502,-0.3523899660629358,-0.13259893401889908,-0.05590698877377097,2.2588718934542444,1.226017241768208,1.0578435396390937,0.518825117771371,-1.8278670217149595,-1.6869709804610296,-1.2414113074349875,0.5203263916502295,-0.8703944462245559,-0.23503061800398448,-1.064166743834641,1.9652384587886078,0.31974296196635604,-2.790852367270877,-2.536670582509464,-1.8564669373368248,0.6506640619420668,-1.1157177736592456,1.0165462880411937,-0.2631211430467002,-0.29201313056510614,-0.7857628792710938,0.9530686683921817,0.3399568750166686,-0.7387501621956283,-0.1810908056700956,1.3854344148060702,1.1463862319456926,0.7855169512575607,-0.5468909288066531,-0.6548926970571171,0.9400349817001761,1.0286188571548491,0.3505078653387411,-1.412270928383776,0.9904747876160179,1.1432041649021254,-0.1259434410167326,-1.7877730527072195,-0.7762004951543042,-1.189624244645556,0.7842563423519602,0.38693136509487613,1.3017764703639596,-0.7110555304703253,1.282667007382303,-0.032667110710166467,-0.8861649147449557,0.0339716369094285,1.4785910821017925,1.1161960724094353,0.7809049594382526,0.23867014747849197,1.5270675700367855,-1.4951025813499512,-2.006860665685478,-0.3945810065289437,1.5006037835320492,0.13162346837202243,1.7170699961464073,-0.332624912353999,-0.791681654594408,0.19589771183837287,1.8180493261869735,-0.7831793691619401,0.8777243707052929,-0.823676649909092,1.0604657536140807,0.37094274375182706,-1.1631295759237354,0.3746362624620338,1.6640916608627383,-0.08473625532700159,-0.513744548884944,0.05171436790602302,0.14224038693594326,-0.5497723168018488,-1.1303685505666032,1.3392062014856847,2.064739470071567,0.23426194049586266,-0.41008901026166455,-1.8287553062678876,-0.07343399213201708,-0.30041480300775436,0.6818154134838865,1.1651988657244368,-1.0142368017973475,1.001906283670712,0.25402697639423455,-1.700477148326192,1.749753808381274,0.3936171139225449,0.0663602355753515,1.146236497551773,-0.7582580032971612,0.10002619112981574,-0.003955832887865087,1.3323660522352132,0.14674620007540537,0.10732547972470784,-0.6450556890338252,-0.0709015039589504,-1.899664539446627,0.5000390790475476,-1.9588635681054176,-1.4100095968212962,-1.5686622377605735,0.5973561830662923,-0.8973107600548228,-0.28141463992412064,-1.730758448608448,-1.0431386766999906,1.155480266756499,2.3721022186945606,0.5441812338752989,-0.14017438033262866,-0.3878535188462614,0.09927068360502017,-1.6770867451799094,-0.624952470462885,0.3801218828269828,-1.9854642091639545,-0.8424723496100551,-1.46643437351518,-0.23926305177085672,0.4214514566495579,1.100679505014239,-0.9913433636718505,-1.1503678851381314,0.5641847852143328,-1.3479567543508186,0.2213753787608391,-0.9578718638775315,-0.5851049876453213,-0.8611780906805057,0.5718763457702563,0.18255086723730984,0.19664840037445322,-1.0031571134838229,-0.10944632610608192,0.9980974562006065,-0.5705042403685083,0.13403784537400887,0.8756763717772432,0.5990709687052256,0.7711120636061801,1.4612540066929005,0.12775758003364132,0.10351472781438048,0.734758423889647,-0.43808594441779947,0.30271574679840274,-0.8505611167058414,0.32088488280247507,-0.6154538354467529,-0.0713494187607105,0.19161485979397877,-0.5880798286239874,-1.422295291814121,-0.7462911921371058,-1.2974083101263199,0.04985764205151023,0.14432970961719002,-1.0903918719840235,-0.1551010992097416,-1.0139942793974766,0.0932570265539001,0.17390720379874527,0.38728290545447674,-0.08932866521362252,-0.1074981697149852,0.8217071237735446,1.5070257677584673,-1.0876636206015111,-1.999760368419808,-0.2917257693433378,-0.7018396408801187,-0.9522139490414507,-0.9192573925240978,-0.3013303864890978,1.2926079664201808,-1.330925439433256,-0.572866628686611,1.6713318134000288,1.038492600408453,0.25908282179278497,1.2076931255633963,0.30875532212506435,-1.3324495608578093,-0.2678021871170362,0.3262122247670546,1.0763146446092018,-0.00731950354625126,-0.4506984397988379,1.6130835495918237,0.32442292837294073,-0.05360570038574918,0.29243790082533155,-1.0314026492253423,-1.83659743289755,-0.4293102245395413,-1.4744559812695321,0.6290488118588967,-1.7164331669748347,-0.2830176977717238,0.5325471782102672,2.1022165838895392,-0.6490027701061376,0.5107047677812553,0.12215126155033186,-0.8744672055061514,1.9803726162168733,-0.32233472691590564,1.090665388077574,0.7226811211714521,0.6395971332522108,2.001234427682992,1.4332465365537903,-0.48291559531717415,-0.6517888721226881,-0.5212470600215725,0.22899685517665916,0.7903878692406642,-0.708649292072448,1.8947914898807667,0.19065293004631131,-0.1337243821341566,-0.9713139975520669,-1.6012545073975628,-0.08819881371617722,-0.3396269656407796,0.7528022129454639,-1.1958177591518242,0.22452923498962887,1.060711260145825,0.20805508605287135,1.1182719749528063,0.771508729679385,-1.5668215392094669,0.9780127312973869,-0.15668948640356078,0.33499468321653686,-0.6217419216240141,-0.6974175609375375,-0.7289363249847975,-0.5752132886841896,-0.4060111015876993,0.8524634982550536,0.8088690916012733,-0.1839005718280383,-0.6880445140655534,-1.313655392884981,-1.2001538835854804,1.3816121477825611,-1.5866994656914992,-0.478057417459313,-1.4110988272392833,2.0101996795722723,-0.7667844419279092,-0.6664418576938287,0.6856478724535605,0.15293086872276068,0.19502416605484613,-0.17853761022595133,-0.1122130536801923,-0.4713513356579003,0.6220061195399402,-0.4591376618694265,-1.7492765233218464,-0.4931969800038234,1.5019067959144028,-0.22149822695838853,0.24271656542380596,-0.5334772386994874,0.417143059044,-0.7039645462355091,2.2230058405776063,0.8938069759907,0.5743316047758193,0.13359092105146902,-2.051922219631167,-1.5619108433245028,-1.8149604213768757,-0.5487896055409417,0.8687616503199056,0.40048564757885274,-1.5768173422074185,0.8477091664852905,1.4721517725835558,-0.8141258519054115,0.9039458476539844,0.22557462045313456,0.10031434406306731,-0.344121551403005,1.1738262626802112,-0.7117642052826056,-0.5847893539717552,-0.14083211017550779,0.5977666384901806,-0.8204281407656316,0.3035802093002681,-1.2658419569378403,0.27898230007521563,0.09263504775436267,-0.7283379528075349,-1.0573558709462079,-1.4490946154350797,3.0895459898101763,0.06853108633248368,0.5502647177442448,1.9644763870589321,1.126563144543466,-1.6335494541272837,0.12157294430772003,-0.14622901346068576,-0.05659589277382228,0.30859099700960446,1.6249357271434584,-0.7101490740178188,-1.6299751323076115,-1.8221642642477793,-0.012310698882437809,-0.5796454251175869,1.3934215756071544,0.6529604977481541,1.1268255993385095,-0.638201978465323,-1.5785868164600685,-0.3529895905554284,-0.484569880838559,0.1397384595600522,2.4837269161517317,-0.3276810507608997,0.12461422639602261,-0.786649606155011,-2.0679279549332352,0.09966533380380575,-0.08513598576498875,1.1706692307088298,0.9325652349824342,-0.8774557527728097,-1.1803617718524415,-1.1758866846845193,0.7407629565750146,0.975324676157468,0.9951538371209353,1.3811445019258997,-1.0223489965514887,-1.0081521919231087,-1.5547769774727458,0.7349626434557325,-1.2798576025385382,0.2767733322035666,-0.20425564645862834,0.24471333862821137,1.397609817254313,0.8126275812798375,-0.29897143442998514,-0.29292141489297613,-0.9308058362876959,-1.8961510480821078,-0.8817632614240817,1.302311277897562,-1.075966596167011,0.33406696636422645,-0.30013207531555025,-0.021609192631257507,-1.3716808054376075,-0.6776219388728197,0.11981481539716826,-0.2205127901157699,-0.4789512024082365,0.535742713320539,-0.1755606498473661,-0.5645312385005546,-0.8634368410761597,-0.8405982226223938,0.4237972857135649,0.8156131665623632,0.26454522599295294,0.11137049418163872,1.4697024053507608,-0.7727660565325286,-0.35087349424779296,-0.29333776305473214,-1.9777070360687232,-1.2752676280900024,0.15252171750309337,0.5758693432853788,0.7421085954508536,-1.691378851330565,-1.9491941987665407,1.3019168755094899,-0.7151317589956739],[0.519815526378353,-0.12283741911475206,-0.039397527794781256,-2.50248951901629,-1.6597749892121592,0.5007463764529816,-0.7537310688732857,0.6112318942532303,0.5506615117939997,-0.23815961580785633,-0.13050940645954642,0.578516581407263,0.5419108057268226,-0.41161267773831967,-1.7144821181708834,-0.9930834937044817,-0.3976731270389901,-2.325975049155454,-1.1799125855688382,-0.6705200056743199,-0.052165068178788146,-0.9276638100139089,-0.5441566141942171,-1.6245717143095033,2.0159156762211903,2.1194434828675868,-2.2341482549839475,0.5936789924379182,0.16348050510225506,-0.45599586763302924,-1.6928893834072587,0.9738680527767386,-0.3155076604370853,0.4241707563787951,-0.3439985450620002,-0.1904472086976956,1.0270077408426068,0.014415938014503783,-2.111585523939345,0.6528896705339609,-1.5554611116253325,-0.7006560235263051,-1.464730154862805,-0.743963556535182,1.5638341069500499,0.4420453771716594,-0.9995752056109183,1.1425604926310646,-0.21867215008314192,-1.6924496436572491,-0.5161424158622206,-0.7927104471324176,0.5417325366859963,1.2116054417840152,-2.020184354066844,0.7974067915387574,0.9568324151032043,0.8330881425983758,0.9655088632445886,1.8732597250379475,0.4838070987119922,-0.2901181604760209,-0.26778691182259867,-0.6874826339570704,0.3097841331752189,-1.9736571006807329,2.233009431185102,0.3886610217691765,0.19094955118893045,0.04772488000295552,-1.2287907622082137,-1.7967535244278983,1.391333503236451,-0.15807778972691516,0.3366264347561511,-0.3845881122400028,-1.5700603780136564,-0.9718027714384625,-0.2411971600890556,0.4735071738565752,-1.2380380418526646,-0.04088808640726173,-0.250229261934064,0.01141802439005089,-0.42210036284062546,-1.466606468861225,1.9054071822171104,1.9977139320359731,-0.03199492445823093,-0.9085737183877562,-0.27191528868492965,1.1588988115781056,0.41317865821247557,-1.3709136213578401,0.6345070194692306,0.2753469326685973,-0.35437399659808605,-1.5615877980260096,-1.1856444903771493,-0.4665454910951151,-1.416542757972454,-0.44390948116542706,0.5534419481303708,-0.198062743579163,0.9463613986150964,0.2403853219130996,-0.40744211260162627,-2.0185453476472484,0.3367802045565329,-0.20164124898986077,-1.2701952627131725,-0.4293407067506859,0.9297258237647049,0.6092428412068256,-1.1733344673962938,0.3903447644212024,0.0857767080811109,-0.8493785997740231,1.9074608278567802,-0.20699456602107993,0.19598688437118966,-1.2264854660966187,0.4575198364126322,0.5650272010283238,0.22332555421230432,0.18623538806327217,0.2537135069610844,1.8049987528218483,-1.3549794404260795,0.9036493925488295,-0.7684854766136271,-0.9289483611068692,-0.9443695076268398,-0.37330874393986563,0.3487464113791502,0.02023712865357161,1.3019576645035273,-0.675093897437305,-0.9821678122682289,0.45777939654363475,0.16467282973782507,-1.9360061378740225,0.146354717262962,1.7738825174886477,-2.3983021977774195,0.20387022806044633,-0.0930283146166098,1.444250741678737,-0.9445303565151852,0.30805037161526266,-0.8897948115587663,0.31843088585299884,1.1600658630917604,1.8274369599156843,-1.2450511714687431,-0.0757925603002787,0.47642546246714224,-1.1044248599537456,1.5948248331007715,1.886673421986225,1.4132616235425648,0.34957518741319005,-0.1726406697110734,-0.3336708233960392,0.16054033616896557,0.3649913336969521,-0.9693881402930133,1.7296964792724399,0.9454295611678482,-1.4152499836049965,-1.2242730113134916,2.1048150567195245,0.1149347183390121,-2.0792489554062326,1.01084904158291,-1.0358446463462108,-1.3997313772871738,0.8626181272161694,-1.1891582145731883,0.07945233889033702,-0.34300918491713234,-0.8090595947509133,-0.8964059561189077,-0.36622282385238863,-1.581285058535663,2.47278351760954,0.6633281576597849,0.16422487393626936,-0.8599336220862925,-0.8873677768434645,-1.266604693340209,1.2224966793186194,-1.4704780423745119,0.4296499827297247,-0.4014681980109641,1.5418381086755042,-0.8522245623104376,-0.16742416728583775,0.8689421362917321,-1.494569043880004,-1.2908401162743754,-1.586859762505072,-0.02246768643325212,0.17291037822703334,-0.3264278045241118,0.14918949291661526,0.08308525547785671,1.2990082752237186,-0.31814418263228256,0.21551108194690155,2.2020945861818473,0.9830672427898,0.7927928209198569,-0.6267908624398727,-0.7489401980555189,-0.6118536609118727,1.8123496577001506,-0.7622544416700322,-0.31956240203032243,-0.5560635422918773,-0.28554461000815773,2.094971049719386,-0.16334485806725077,-0.3844407854114999,-0.32235610679100324,-0.45009188543146345,-0.9270860637206689,-0.12177379945089781,-1.3197172580066847,1.514146918505284,0.44337371939589193,1.1420580629794905,0.7380738230086159,1.7322065046910564,-0.4701131185647804,-2.323572366093775,-0.7257752595011047,1.0402298975009425,-0.0033824785602149894,-0.808787491759361,-0.34397992543331,-0.10067287936613219,2.181409356870739,-0.7350053243570471,0.7541199282098797,0.6362417192603504,0.013939625563473767,0.41743585464056254,0.6226402208629894,1.68137105228155,0.08051070207809771,0.2438652289739463,1.2447025306667654,-1.2968264477384328,-0.9723680925626684,0.555175978632776,-1.4621277264341257,-0.1835702215312398,-0.1962151262204247,2.0370396517447467,0.37027124584836935,-0.8524681426696076,-0.1326703869301912,0.7388142847340924,-0.444208436554869,0.530272181164871,-1.118521445129403,0.7017866052527895,-1.9859911612330534,1.536314010464866,-2.814779259509454,-1.6797740312193037,-0.5859996633114911,0.36069190082211944,1.1128068419864912,0.5406171485989509,-0.6637731826251096,0.9142525454131631,0.8995682927501325,-0.4864874682043717,-1.6561929363197387,0.6485852362725191,-2.3683918738571705,0.37377155281568814,1.0421865444327938,0.5091050367395942,1.3590174706522686,-0.5741699263265981,0.9554631786468388,2.1534899039341373,-0.4692999223127496,-2.159451460019442,-0.3190951210655643,0.9934266196762391,2.2988427553302437,2.3523713969262183,-1.041318745639439,-0.8376589287258522,-0.03511419329246759,1.6939647782738056,-1.4635838186310928,-1.0186174018905767,-1.1895832426281667,1.5168497676254662,0.3551265523369675,1.1005495392199411,-1.8158020711606717,0.5616721585283823,2.2469205379221835,0.2103352546748504,-1.0698521293554417,0.04443262616862582,1.6944027109164983,-1.0881991860489288,0.3478129105944522,-1.535061633855271,-0.14531263498215546,-0.37553894380436154,0.19471201381860623,-1.4920447599443376,1.3085482643048012,-2.469820688367671,-0.5941939089246674,0.724493584731893,0.3152404841977093,0.48264526144400594,-0.6663987894847029,0.1080534699834931,-1.4894604763657364,0.7970437171793013,1.2637223724950224,0.40584592074232023,0.7935867657273395,-0.4885942529590559,-1.405735119788959,0.2369594978437075,0.47947107224845675,1.2729737020421228,-0.7977724539242347,-0.2882579907451458,1.6993086623149014,-1.306809720486127,0.9906864109674278,0.3209325335781013,0.28027089967043134,-0.838926070151631,-0.048914409813296054,1.1351665670907254,-0.29576663561329164,-0.6161727582330507,0.6007620391516798,-1.1020214741618588,0.029585630242584923,-0.2551960500075107,-0.07664561130839274,1.7695738392411091,0.7988826615539854,0.14167230091356678,-0.07545537127988708,0.3256144941821916,-1.2629454824030426,-0.7932271179275286,-1.072116758103702,1.0015356178532149,1.293183296370479,0.2487306035120338,0.7004918669602822,-0.9263090871201505,2.233434555014438,-0.4636440470812746,1.9855179230572282,1.613718661192788,0.6728662307290116,1.0876651318825563,-0.5960580673482211,1.5302088205009365,-0.23411119950430775,0.721356621044132,-1.91810769140136,0.26638670109265816,0.31556446787023884,0.7517671039026608,1.1222870016691315,0.2562032375004097,0.5170086030642521,-0.7153519374120147,-2.1755117397481945,1.741034931249269,0.6766988698461583,-1.3305384838161503,1.1116732106521297,-1.2915773980021519,-0.9287690247454171,0.21884348309123902,0.6944979600525323,1.5454737820034057,2.281581576365543,0.33288078067208327,1.2515649083875895,1.5329599294928182,-0.940264591050852,1.6613985343659565,2.270897244492775,1.124390770951289,-1.4058940424307094,0.4667014380299458,0.30051692300910887,-0.27519258966216525,-1.2267302639179365,0.7618047744231096,0.5339930570252027,-0.8654912796649622,0.5593842366217378,-0.44038584769318195,-1.4846303844897444,-0.012571148760324261,-0.4306997967270935,-1.2197097368431167,0.9863828619884164,0.3918927384862282,0.8558935610185141,-0.7668792490045467,-0.4971766960839724,0.27357566433173036,0.9321102049741133,0.4629458619237588,0.44933480656526137,-0.059536331748471394,-0.33815402032171854,0.7176613942926019,0.2789173280042562,-0.6484263638763681,0.5414837681655497,-0.8683624114452246,-0.06508885283270861,0.4809123437520956,1.2678695184487723,0.47910106873357855,-0.2874672972015682,-0.43484385112817475,0.38541856287115206,-1.1850100051419399,-1.664751377764812,0.8601929115757984,-0.8875381848444756,-0.2554200575540997,-0.5229199870710148,-1.1248402482693025,0.3561965488829544,1.152962134981119,-0.3156103996274,-0.10499562200763353,0.4971260011107149,-1.7631227407973133,-0.490091418595243,0.9295787036759798,1.8382729873337398,0.07511293088585441,0.900446072201909,0.4889187564510516,-0.6065994096173437,-0.7131252680195971,0.38007979716435525,0.19515452654783286,-0.7412330519401465,-0.42173730570045387,-1.0515371360951915,0.5723860798347371,-1.8185061713535668,1.44421515228842,0.2885297442636917,-1.1162461647863184,0.6932872241844928,-1.3820754700821218,0.22068622973791335,3.124909713553019,-0.48052229109052574,0.5418954839196959,-0.05455207736072369,-0.4874314498592617,-0.36264961891662045,-0.9672160297656253,0.3333854213926142,0.16034167971146318,0.07195488035116876,-0.03501733800281632,1.0475652613853195,1.0641199896362217,0.19950517899357223,1.7088389644065214,-1.0922029230120456,0.2668408079512094,0.5118528156008312,-0.9708422775154151,1.6709907297424684,-0.14260196050670812,0.06482660205268734,-0.6407919429611169,-1.302082858858253,-0.5248204086257339,0.584198062912668,-0.5310364159216073,-0.7490870409412183,-0.8586269732122181,1.3103148898610317,0.3725172036275586,-0.6524118243465703,0.6844419940227107,-0.47221831225530314,-0.4782042915577721,-1.293320667388334,-0.2323393375164283,0.34064732931867386,-1.0371193074603409,0.6377234705956268,-0.99969151861453,-0.38719372566533344,2.5363455689066985,1.4868499796788757,-0.1864988316884699,-0.95112733963377,-1.071704196935961,-1.4693376936323812,-1.6938461255028734,-0.02363778081634161,0.3812083767903586,-0.43237211645449064,-1.0448210102141435,1.6507620846286413,-0.16593807092339846,0.8616155698417379,1.749733284007449,0.35089615887848724,0.8562145132153745,-0.5919019197225637,-0.5624504558295185,-0.13858299624377965,-0.6857846666620667,-1.2927800257786237,1.1173455934957237,0.3319229598670569,0.1609230349217162,0.2014081438959738,-1.5595574418361993,0.4749314722805367,-0.6057956961943198,-0.3241428798624041,-0.3551835418801537,1.0737198047688739,0.48393091687614204,0.917779246298773,-0.7198314771306181,-0.22673675747742203,1.7494926518022091,-1.3701676360503825,-0.579821009814914,0.32964106634516877,0.23932189692220363,0.12139303038027587,-0.5170832638419086,-1.223300051838426,-0.7449252647460498,-1.1404451254768506,0.7295961312876873,-1.5876944425065957,0.69848209745468,0.3700772754902895,-0.08567256882030554,0.3178751946756011,0.09725347100688764,0.23976627741789783,0.44634785611694,-0.49300711596468216,-0.3740706261924978,-1.0147148081127841,-0.7314392440497471,-0.7000107580679976,0.6699808624787131,-0.5127614623041825,0.904242291370586,0.23511169320222122,2.5615498022151546,0.9646187048497957,0.3369496849450523,2.3559270479777448,0.8560047000189487,-0.5539764291324131,0.2491433117834561,0.08119237768601907,-0.5377623988342454,-0.8204033016013504,-1.3867142520007076,-0.6739087981695605,-1.927921244974307,-1.0712147354402204,0.8614083082111472,-1.4920699294661683,-1.4651872443417,0.30101773654539843,-0.1130275674268393,-0.8144872241403064,-0.15462894296982532,-0.9792317737374973,0.603668875288013,-0.6869242488690545,-0.9240971279131881,-1.2618207985128154,0.026452131133698868,0.1874766766933159,-0.16091484464865558,0.7104936988011031,1.7428160582419348,0.043693005017869976,1.3383702739732724,-0.20946193888914344,-0.043927232415954774,-0.5300364674228134,2.616086869236577,-0.5553677472753167,-0.8693129952684202,0.48372121232748516,-2.28489406314159,1.2464465154902802,-0.3621990354157105,-1.5159684133712366,0.5387402341203965,-1.4034370660222255,1.1860149178825536,1.367617429653069,-0.8513270682859321,0.6374805574468891,-1.1346761975505029,-1.6892148248970267,-0.8542461801861649,0.28931272671805636,-0.14218462965787373,1.151581028731748,-0.5532301514749408,-0.4752478060845485,-0.5829820133480506,-1.2020293952339456,-0.7675256267081684,-1.247889984868605,0.38361376590911417,0.30678229460318174,-0.5922224273304763,1.1195027613527924,-0.434111136686666,-1.243345733012472,-0.5912916381114199,-0.013224047974244993,0.9122935936078829,-0.25755381800970584,-1.1389889000265068,-0.11714926727233492,0.7267261243211823,-0.8447168293750182,1.7875681072259477,-0.19254749146290673,0.6979366082895456,-0.4473089070347245,-0.7299266502778379,-1.5058298947579871,1.095617831107481,0.2780396544318391,0.33378801643973827,1.159527307579208,-1.1529756837265899,-0.5636159598905203,0.7682072289881456,0.35483124208371736,-0.9287322442136331,-2.0203503588057616,-1.635879742176607,1.588648290585746,0.3581127283279201,1.71762965696685,0.5378177791554825,0.16872663098774277,-0.7104253012851797,0.24912584249037803,-0.9172647937683621,0.027304355723342305,0.17809152632953143,1.3440597862897994,-0.23959428267720922,-0.510430063786049,-0.9765337016561879,-0.5362006749047731,-0.43267308554788114,-1.4787396254334817,-0.9007190948772299,-0.40450573976746923,2.165021992830244,-1.008351000355453,0.5791001616834339,1.1825466441990384,-0.04252617286124919,0.13588017207735467,0.10821343568038254,0.9819186099267138,-0.7466800418760466,0.5659553207160511,0.25187125569634056,-0.6231481553903545,0.7752720102467309,0.09245380832993332,-0.19919512871880443,0.40467787392841176,-0.3255159102921796,-0.11678393414986475,-0.241633895667908,-0.574851403226869,-0.06832183749887745,-0.47125602727266713,1.54916610383182,0.8655727055484008,0.1671812574740546,1.1571056099328056,-0.8431803761893671,0.6802794621956471,-0.41693653733641867,-1.1939210059037921,-2.118235074170935,1.4663661844846165,1.5247273625125666,0.8164362641293103,1.0906910818954374,0.5177125819097075,0.9567232476432851,1.1506461588723584,0.004516285283070961,0.26565061768865367,1.526752781774093,-1.204405624136762,-2.2585722954892242,0.7079002773440848,-1.0015662664910974,0.9153317776930177,-0.7945381345114082,0.6159313992102939,-1.4966666869117424,-0.9884407373577648,-0.9768056438130368,0.892666578317701,0.42331935674177057,0.465674698249605,2.8200585166899215,0.25426395309748123,0.5207473011201911,0.753789372775934,1.0927851135140354,-0.33091233652624397,2.1341955047304446,-0.29270754689605916,-0.007785879787956647,-0.8681610269888625,1.191836604120606,-0.15169554626536808,0.5363315292118029,-2.10036294354266,0.18644429667710466,-0.6593945581231067,-0.8784198198072641,0.06306657745172406,2.292167684447064,1.8807298797840302,1.3249977982143164,0.10195143189311043,-0.37821232367685925,0.16317031079088393,0.4695457857581596,2.186320387873498,-3.416667352556742,-0.35273897835146434,-1.543143044743397,0.08295043931995898,-1.4845873967428345,-0.6686120435601945,0.23480354663068295,1.2323509514815678,-2.4631432348293076,0.2982497916479991,-1.5202524602335228],[-1.1811472091859578,0.4112240850996533,0.9285339124993868,2.2309220876228935,-0.22176331310397043,0.812488706070296,0.24589218449117453,1.8563969093285682,-0.6499407755448269,0.49305610237004827,0.3846951468250947,0.09865478211321797,0.8953614176442103,-1.4604044015331563,-0.5785458404347348,1.287528786854319,1.544590888291482,0.3620140058490945,0.3432474179726101,1.708751303782805,-0.02491751682141386,-0.7264259331838571,-0.9051749356093878,-0.34524124621163843,0.06844781857422043,1.0839965467946726,0.5463208456232662,0.15931235637719057,-1.421269650660367,2.4323355936248623,-0.3796561181511348,-0.821690024993498,-0.808581046578246,0.2716447037188012,-1.703710891266491,-0.21458427518295106,0.9005767473855409,0.4594270746689884,-0.8290912230959276,0.43707896157945475,-0.7635574136560285,0.5075942397362114,-0.9318638170544027,-0.5858089388200795,1.6083124446907093,0.5235282152113407,1.3262150795265482,-0.5442108449998193,0.3648237348048654,2.1480086130279257,0.18430182239385098,2.17168091551147,-0.35623765022129533,-2.0451847326310717,-0.3222986850482496,-0.1390191902165334,0.2745918364137629,0.6194667411019262,0.3305913236302667,-0.029517655945607613,-0.12637310242371208,0.05368242197043742,-0.022230436846797094,0.5435248340422596,-0.4779549006771891,0.06989662386359936,-1.352094147471365,1.1563153692448103,1.2316703658776433,-0.5800313133561869,1.6985529708675788,1.5620753655574318,0.6565966657870552,-0.6289986090714252,-0.5526375847389308,-0.5083110032699306,-0.07769462611306126,0.3349100878594729,-0.6912690219839885,-0.22324838101653152,0.37384015444620355,-1.1780668902504576,-0.06231182219827386,-0.4598519937024481,0.9408803353386623,0.6290102140113163,0.14827751653483345,1.477574195322766,-0.2572487663268948,1.9201045474623493,1.5393958265973877,1.807389681069353,-1.1774568008875212,-0.3178326170665459,-0.49171527412388466,-0.4335973638752353,-1.819173492788987,0.8247920269263017,-0.8467839883979552,-0.20817102184481284,-1.8170709684300217,0.5038917426842067,-1.4847872106076847,-0.31983793714332764,-1.3308984879885721,2.0330932908529067,-0.024210642717318705,-0.22318513584647193,0.24995060780130351,0.7179798738879397,-1.0466292226180807,-1.2372339902527532,-2.3217487689976073,-1.95594684748136,-0.6379953434609003,-2.4165139970925233,-1.9252791813568428,1.7825519354097454,0.05490206094805842,0.19945171217710306,-0.2612058620205888,0.8646097820259633,0.03237287295259861,0.22107368354625243,-0.22875645860565533,-0.7283763297676504,-0.45875306151945516,1.1168842047856407,0.16520983318312563,0.1709505363900716,0.3684204697090289,0.6150571669261033,-0.7358882532160581,0.07811216986456339,1.505722173913261,0.34930195334260383,-0.48757423197580435,-0.06684558509709479,-0.2767213780954348,-0.4913178558575741,0.7322111177140047,-0.7367566523619526,-0.1392124420889933,-1.0938243216252286,-0.824720652293836,0.6179292090277475,0.20408802389933087,-1.1647028615737645,0.5011112632588389,-0.30849688216018023,1.168998745648212,0.37605495029780517,0.2025912762382571,-0.09400522192566442,1.6601611189880798,1.2872956280224077,-0.6311082839215522,-0.18890571379474033,0.6251003611563979,-2.6972698311791987,0.7747137425454886,-0.1315604536108601,0.7867683092331412,1.2279718648766282,-0.7958070277746763,-0.17321009951577782,-0.15709741050532114,-1.3564872783449917,1.361534554969443,0.9292585414919275,-1.233506052257956,1.5340181367056103,1.2361473997398984,-0.4562078106383262,0.3725959578808503,0.3455312700887247,0.9248377678729272,-0.407597682468966,0.8570190984278611,0.35321776260651205,-1.0150784405386843,-0.654424064151523,1.052104127986368,0.08083439579331136,0.19004124395798064,0.2780511874362377,1.7248580690785817,-0.9805250137488735,0.4098266206692826,0.24515425125546264,0.13721797442682468,0.8456931253165951,1.4881080567156793,-0.09661711212472376,-1.0264829587226947,-0.18427931346320925,-0.8496119830077279,-0.729586347540529,-0.26394294531512,-1.2048855876329425,1.498370158319354,-0.5807473833456334,0.47910857257508727,0.7040191429712589,-1.443313913602754,-0.7613789023960519,-0.6132202529021021,-0.6338122386017356,0.8850045224767555,-1.260011003783923,-1.6650329270956703,0.37216429963672976,0.607839437207503,0.6724234814017814,0.5668703202316995,-1.8518514233045433,-0.4993384480021524,0.020130343850871736,-0.8147158212099979,0.4677435864006114,0.590877520666025,-1.105179059810909,0.22252531837716236,1.1397651592513505,1.4652038046599278,0.801019691143883,1.354088792685383,-0.25783897937999145,-0.04205452313423196,0.8542179677247329,-1.3383546907121617,-0.6596311548253467,0.15943231525602433,-2.8184633546612226,0.47205131626022395,-1.5936941757471794,-1.1288959286791447,1.3724793868751595,-1.3371350231376706,0.02634739629870037,-0.04086357768675123,0.1929248159717798,-0.44835522866346034,1.2926197916525592,-0.9515395290407475,-0.5773839111855689,-1.7918692570561643,-1.1698407419648749,-2.377419007321754,-0.5397835072740065,-0.24524772090104086,-0.7489518082825454,1.887982772210165,-0.5324352079349679,-0.5774016882516588,0.1975481873779779,1.5826236538815375,-0.49781665810619025,0.5417332139065574,0.4092979552658035,1.8002325741663152,-0.1813521720456153,0.41984430136234957,1.7104149038727279,0.9041288327178659,1.0492688869424451,1.0852419965472146,-1.4953765843768914,-0.05465081787525618,-0.6454021709645146,-2.696661778237057,-1.0497886071261553,1.3837324830786042,0.22763442265258216,-0.3360364368240446,0.34872236949967494,0.7877345185389658,0.016459403618033563,-0.08267290005636298,-1.123188789665101,-1.446011328875318,1.4050221876368594,0.44943778509675414,0.18641397587138556,-0.3718476798338742,1.453755064150096,-0.9691990450803571,-0.6931751573425361,0.10046299536533841,-0.544818521523212,-0.3083160076519722,-0.6953987873705215,0.0433570569654099,0.595200597283131,-0.9855432302039105,-1.014642118764268,1.5383087624769824,-1.836672269004066,0.0005219944315172703,0.8094398753054858,-0.5683312989903898,-0.8987181207775455,0.7822660160892402,0.7790406577336062,1.7647245969494425,0.9478270870304382,-1.2819720463167692,-0.5420755531983134,1.2621165178937344,-0.26733476411188734,-0.1353128935645876,-1.2603864974540646,-1.0493137757839466,-0.3651546025956763,0.7978735483226953,-0.36597482072823756,-1.5264202914068716,-0.3248390820868354,-0.9670327129081362,0.1247956343641165,0.5317873463912671,1.7455893764644503,-0.5049118257778195,-0.1928450039595311,1.1435060500112542,-0.6468932388069671,0.419076577890236,-0.8770280135219729,-1.1836275373740555,-1.197829796470702,0.5151542368784294,0.0922588991442585,-1.2137712035579376,0.7247652664435436,-0.877871400152669,1.1635635103420516,-0.7072745952827826,-0.27832421182432776,0.8178396044123798,-1.1688631876445912,-1.9710797965163576,