{"snapshots":{"0":{"biases":[[[-2.9128175906901648],[-0.6273640580491127],[0.8672680236394821],[0.49043139777871736],[-0.9352662642673375],[-1.0184586535633489],[-0.5363914696747509],[-1.2979756297357963],[0.4698458951202505],[1.70764177885333]],[[0.6689055319664933],[0.37443284827382356],[-1.8278821922735105],[0.9222104850954832],[0.7629780298286375],[0.5688984932732596],[0.32141076550117315],[-0.01542836092828185],[-0.32005201319868803],[-0.16352455986863124]]],"weights":[[[-0.24153388669483986,1.348505216173089,0.13802329181476988,0.6876711529545313,0.3422444637088793,0.849472096311001,-1.0841177429808289,-0.1998666531430541,1.9668462948527454,-0.7511091940044268,-1.066988290071582,-0.7486873937101166,1.405688837506331,1.2025552086143136,-0.8248570143140911,0.09533757464848014,-0.3413299540855445,1.5135952834418056,-0.33311732334801647,-1.1409089552762717,-0.5485750658423096,0.4210917781281645,1.8850978040879074,-0.3912485213203778,1.3339289160672931,0.9397458215696188,1.2958107940697172,-2.2670626178053803,0.38685277950418495,0.06216733831714036,0.3714967153481417,-0.7996811405449472,-2.2385667328211194,-0.5764503958622093,-0.6843173616793113,1.0766472365415118,1.067500165398966,-0.6567702160114078,0.18382782943449327,-1.808022500309499,-0.8499774721787469,-1.107517725230453,0.45561579401147956,-0.6268785571739969,-0.5278738504329724,0.7330216206680548,-2.1133806878051176,1.33684812303378,-1.452083311973614,0.5060209184970137,3.937288555320049,-0.9708179548303784,1.1427213776492133,1.3377738234851462,0.21766005750162826,-1.5758987547464611,0.10236728787528299,0.4805751034097594,1.0390396286846642,-1.1269799159736964,2.1122570210252665,-0.19254072871410283,-0.9805859778837211,0.37205854410754685,-0.5038346676687132,-0.08853311983154112,1.3933808205617113,-1.7006299149285582,-0.5989181517499901,0.7790325953986712,-0.3642675838615741,0.21474911824619639,0.6751398000597414,0.05070493689445589,-1.4926335043347119,-0.02513577307077799,1.181200139251727,0.16484956424704603,1.3018304239907237,0.549125270041752,-0.2052597215338882,0.18546402037971896,-2.1065703372986713,-0.1652100613557309,0.30020096562366994,-0.1713024548370388,2.345657128597444,0.8252819598968533,0.33809581297216024,0.9872128678895679,-0.41581266667929995,-0.49357368613633806,0.2487279162705245,-1.593722823011865,-0.7421362037598235,0.009865377215333891,-1.8128314367995244,-0.2744105552468769,0.9251241453293406,-1.2724501054896096,0.8275298090693384,-1.4362768463525544,-0.9974659482117683,0.334464631813125,-1.029949325142076,0.5184285217365513,-0.7704302783468379,-1.2349636851010295,-0.08819012244710941,0.7157428842070505,1.5175128364446964,-1.5368627763881595,-1.3931999563111765,2.189699789598614,-0.2699715920652349,-0.054229316065288094,1.6093634678553006,-0.8296862287166445,1.4003812665422155,-0.5594375910772317,-0.3567612242545968,0.1045361900448096,-0.5597894473890621,-0.24089334387207764,-0.4504469551530279,0.7195178495451762,-0.5011203124627709,1.314729307616536,-1.4312513359213974,1.8524476408337074,1.1944710346101475,1.8549030477321118,0.17016505460090003,-0.18738769763460628,-0.3195384329980168,-1.0038596146707213,-0.6104412707288018,-0.40962764836718407,-0.609554001392215,-1.3952528611939945,1.1809743994441,-1.296046255795976,-0.8562646152556029,-1.3179307287711979,2.6909723606070384,-1.0374750810376083,-1.612569937255882,-0.5394208492563428,1.234047134429626,-0.11548068289359006,-0.7673199722593887,-0.5402210583829826,-1.181212443157857,-1.1316078789278972,-1.7520874556633728,-1.9503279819793409,-1.8622688874181013,0.5612695056633429,-1.7628035665551414,0.7124166356168713,-0.23502774472276186,-1.5234244781519206,-0.6524709875082089,-0.05623960958366375,0.34228123041770914,2.2288976149261517,1.9572800104409076,-0.1386639534087881,1.4372364448579646,-0.8628714631044619,1.1577871434047342,-1.665112989626542,0.18551859097168372,2.5594752783637724,-0.12130981199577295,-1.221012190638139,1.8950172986309854,-1.0196423604400673,0.5547812511479144,-0.336432914286012,2.0610959363565597,1.0154793837523624,2.1266543808784837,-1.2494630563046476,-0.17989731287903446,-0.4315841388404111,0.21888809221076355,0.927521869561137,0.34181500152921596,-0.16553863279712386,0.24413882925435892,0.48285601624695557,-0.5164525035375414,0.8490052743602822,0.6573686942487611,-0.40147140271061454,-1.081177750748716,0.35391257819088917,-0.221231099758688,0.4631271555632205,0.44821353966031496,0.3499914634232701,-1.4677969897762844,1.5878055795868316,1.0701111543905866,-0.006356703027106878,0.8308118842709833,0.6476030407804646,1.1787680113596024,1.7665076248208067,-1.318019363499174,1.2177011862349365,-0.35189576569505826,-0.049259665364774524,0.2766442337100577,0.1253057480550787,0.8270848655296409,-0.5805549673070599,0.16051775396670434,-0.4507614364924085,-1.2744774922184197,-1.067017946416069,-0.9067017813006898,0.8911884780551781,1.4648304363970905,-0.9206645954096675,-0.17261348641529708,-0.23570123116329744,-0.22437284368064261,-0.5655205149253526,0.6012159250202791,0.3904468613602327,-1.348224256599521,-0.09562367894943492,0.9148124378785517,-0.030306777411102426,-1.068320194291369,0.3059741241528341,1.846176974031577,0.619033519616666,1.0369747360912132,0.46023209651580926,-0.4654486666073844,0.4146246609590021,-1.2754359934150512,0.9555829536549424,1.9810217918671147,1.482201811394922,-1.0778645488968563,-0.11092754485141065,1.0062568254216673,1.0913185822615241,-0.22018774054900855,1.3795427620859877,-0.5495367380937699,0.9009802892845784,-1.0357786695489655,-0.405703783357486,0.49545324997908513,0.9344155458074542,1.976273348914651,-0.7921305949765846,-0.22243603100813858,-0.6825382006198163,0.7280269910842129,1.1232340715799678,-0.8287421756239387,-0.4990157955729781,1.4501209177466359,-2.2855714548211066,0.3412109262594204,-0.33785570921671854,-1.905907000647737,0.6800205275167617,-0.17276356097204604,-0.19567310211889025,-1.656180495064898,-0.49013349088727287,1.0195347550966887,-2.3522059745008184,-0.9281855082292467,1.3130450882208753,-1.6003432559507893,0.1373383920024867,-0.07136048748945666,1.4812101690756427,-1.5839291634469266,0.3735343844913689,-1.527648435284088,-0.4275553987548544,0.45282572500483853,-0.44842611512270025,-1.6438610688555475,-0.6327889280765014,1.1529508207328059,0.24776084386030398,0.7861505935688334,-0.47567378485590545,0.28102434533587095,-1.0853440619434,-1.4827475308085099,0.748326876218874,-0.960123917760935,-0.014155328350276004,-0.34124180098076123,1.0358602425849244,1.3946764099436264,0.42313898479177936,0.16528999773557537,-0.08704981966104684,0.9920118943755418,0.5006120305780002,-0.01392002860399835,0.7812488961044033,-0.009343847147939791,-1.1070246019583303,-0.8139844122030907,1.2288329793536847,-0.24486799530155193,1.7367381537154885,-0.6193207941101652,0.049578004333359585,-0.9800925410881582,0.3360664377320665,1.0121389852768463,-1.4536067125318206,-0.17114604223976962,-0.7253761581400892,-0.3697242098815239,-1.5806546553075462,-0.30841760220463216,-1.1293852115938778,0.005263659016918362,0.2706387256476785,1.248276148355046,0.49920787828644997,1.2228455224386399,0.9495517097736794,1.420202035027815,-1.258263975132623,0.168661209493261,-1.5403555236641282,0.611897701889175,0.10737303572568817,-1.289819206898115,-1.494825841118167,0.4701834941224341,1.4764191084863258,-0.9033524617260968,0.529588611059283,1.0954705682956782,0.8640202896398083,0.1701756623970198,0.32303619731998856,-2.368977828739211,1.6953739671849837,1.4284584651519596,-0.5162970928469611,1.382919937411051,-0.047495044764014456,-0.8657281510902244,-2.404731163275087,0.06077039750807836,0.3035219211871455,-1.1997652278874227,0.9237919236546638,-0.38421234893552025,0.9608079329594807,0.039114286782727645,0.7384055580738359,-1.0292095904977292,0.7415994221787767,2.578232596465947,0.8905578764581497,-1.0610409975163468,0.7208038175126553,-0.7736539274737433,-1.0327055956998947,1.8618012673257933,0.6630591885480133,-1.140848413525711,-0.35906705817418105,-1.632504586682815,-0.20714327387610992,-1.5386626668881411,-1.8534962650945017,-0.7887245634877955,-0.5750230459815006,0.3239790903186119,-0.03717111439824112,-2.2183360656333173,-1.0356837246104125,0.20326429266308016,0.25899398939635904,-2.036630874178005,-0.3268609497401329,1.0429294769648323,0.5722027101690698,-2.1443840585011062,0.8953641812633772,1.2157177074679362,2.0789252420251625,0.7717180343818772,2.1146261953184045,0.12190918849755934,-0.22727379962903774,0.02992487361701066,-0.9226009319435752,-1.0689999426683188,1.4734003235695883,1.5044443954414528,-0.32236421221902734,-1.2976481787304037,0.4678971963539268,-1.2239233328208945,0.9492502542526595,0.264727425035997,0.6002273937028,-1.119865241573782,-0.005207468278082292,-1.3395816161010785,-0.5353740402067831,0.6554381277495211,-2.5115824101624677,-1.384829523501741,1.3651759175056304,-0.4127998550481746,0.22802059735524904,0.393886454887696,0.3731724219541959,-0.408197617815114,0.878306980286492,-1.1695026310837522,-0.08104917603024754,0.7688506502052376,0.07200979899148975,-0.8870039854158838,1.372308914978761,0.18719192903516085,0.12425380150654657,-1.1230738458471723,-0.43662860580702123,2.321350641011918,1.040440020555719,-0.1697135446820973,-0.8646654373115664,-0.24924410759330656,2.8859096774923754,0.1032191357649859,1.3026371769119498,0.08112526309578645,-0.9674077811526655,-2.7962501379459117,-0.16674953677713178,-0.2846591085084063,-1.7117155955325294,-0.43422763710305656,-0.22307835138931298,1.6716403478613258,0.8401324712820266,-2.3929524485219176,2.2365820397058584,-1.2868773660349817,0.2101162365848056,-0.3879545567866967,-2.1731765276527457,0.1395328124247115,-1.561066248879085,-0.03952682304634204,-0.6020673357900965,0.6255762097685835,-0.5453721918452279,-0.8004868142453319,0.6330154243932252,1.6871084794825277,0.6519712287610478,-0.9221768393674702,-1.4627168004827935,0.18763385635743668,-0.5255718333030288,0.21994184458437574,0.16259712845548693,0.863545986028934,0.0686589513365073,-0.7602469667599209,-1.0207066662945372,0.6095611294089424,1.697112374964749,-1.200864542794753,0.48004462270213566,0.8092577087692694,-1.3891426906919038,0.4038911022125521,-0.6497643324600634,0.6266955936638162,0.41427966249568426,-0.28172107192010104,1.3133805735014432,1.1102148984206652,-0.6735783211004016,-0.18133105156111332,-0.7370629196319832,-2.39770671865729,-0.45296837609677126,-0.11558682944138686,-0.41790863310747356,-0.48378504946669326,0.0652312632909482,1.121097192280572,0.1072067981941788,1.055785699598056,0.5764506498174897,-0.8993244910045032,0.4009882548457597,0.20650432300244012,-0.465807662633676,0.6376860117242334,-1.6346853567168584,-0.36956922653671476,0.6853443152616054,0.7979818958076529,-0.531575053886409,-0.44822944633285183,-1.1708578127961982,-0.15748828049997915,-1.9105646070685969,-0.07153418061368279,0.052195130867982185,-1.1337012686872312,-0.33603132552652376,2.299739846379601,-0.05526594254261727,-0.20669888817875295,-1.15623492787818,-1.7497364390444459,0.18864126688763874,-0.0426675099923071,-1.1801569272390107,0.4541542642026424,0.6217436467985499,1.1616380777412982,0.7970849047980658,-0.3045233693955585,1.4486973498448887,0.33257016504099884,-0.45789036057211846,-0.4058097882482455,-0.7411630042310904,-1.2961093310191165,0.36389434593507314,0.5167816833831655,-0.10906960413319264,0.05687766018868316,-1.1940681343580108,-0.253876208705208,0.4309898900974345,-0.36881002155565984,-1.3803151061697343,1.5043336929522175,-2.371252356060093,1.1055451780271324,-0.2740169264210816,-0.6115508916926218,0.20629030312993693,-1.5888016315313467,-0.7381716433288223,-1.8723356189862388,0.5012967328554258,0.11058624927475261,0.9673806929977845,1.0475944177919834,-0.7042546435622608,-0.27597035858494706,0.2851816570314248,-0.1714048222874478,0.0935831543103111,0.4628546180141729,0.2823472348842487,-0.29540159331064236,-0.3798559435818204,1.2352420943041982,-1.3146927307067748,1.3056925641365265,-0.38567051741961683,0.1068480699051101,0.9674938895381745,1.207793600149236,1.4605075291393883,-0.7601334016336104,0.9792883038348124,0.4067399052632543,-1.7674868200836604,1.0888451730156041,-0.948417565985096,-0.4430698522035953,-0.5343947284271471,0.8804276779704058,1.3576893775398868,-0.07715487940367935,-1.3989579851368856,2.0294537898452556,-0.43088910167182826,0.2950010408887186,-0.8234369427252657,-0.36238468868252277,-0.19905947207615687,-0.31163228206597143,-0.20091664457899827,-0.8144606062856343,0.2113571216523449,0.4016914634617399,-0.14174965965088285,1.9751872026076764,0.02660647570627995,0.6411773025254482,0.4273663330015976,-1.4363638777224343,0.10059198480176117,-0.4968067156588975,-0.09278575569206442,-1.3988599525803336,0.4865938323019342,0.146952769564809,-0.9696540358460626,0.5849580900531895,0.43961848833845596,1.5736919154129514,-0.5932430320377348,-0.5676598824877185,-0.039861620896456736,0.30201692652292034,1.139495204311276,1.3730237421278113,-0.9335943666000549,0.16927573231421894,0.508130707802375,0.7545163924322839,0.007940940060083756,0.03564186291685427,-0.8851750755617473,-0.5377235791086721,-0.11452736754520891,0.10020419389282693,-1.2053839208034645,0.6715083192830575,-1.1252798541618887,0.5869714767243188,-1.396486776996731,-2.562478927675841,0.7362789905228033,-0.5795797821331292,0.05434018901785293,-0.5797767228002358,-0.26007435673638074,0.2641113761063438,2.1760244154426367,-1.162348923354445,0.20349789838686053,-0.05772210335927735,-1.0600249299921838,1.7997633727518816,-1.2910952761667358,0.9453515470172659,-1.0856988689169733,-0.5545193427371893,-0.5896549881341252,0.36521498576323597,0.36181604168927384,-0.3429528817694305,0.7273388154789812,0.4582414642531541,-0.35900183758631793,-0.26136814596990393,0.262194457233932,0.713752182965407,-2.6657794662560654,0.4816495575521418,-0.8429992480855798,1.1401396434346849,0.08408658512051759,-1.44920394971686,1.5406670448847106,1.5629625454888776,-0.5609903808861981,0.6105544753549585,1.1256121424550845,-1.1023812554828358,-1.0536989444070501,0.3049667299410966,1.0270458714524309,-1.477852180204754,0.9197525779134735,-0.18829972421055155,0.24079920944147173,-0.8956166640662431,-1.489934952545263,-1.23991802917622,-0.624594863608698,-0.9858992864395053,-0.2846207288991135,-0.7725448845583481,-0.11914376402329585,0.3174057516468413,1.108525947321136,0.9645086950232373,-0.35812299270105624,0.9930300869618058,0.262284535001261,1.7581907545385917,-0.7436945114286948,-0.6804296839993608,0.133436677965045,-1.7726328076572468,0.21822154320475662,-0.2545976433827622,1.021281611377317,-1.2945336523125854,0.6314854354481492,1.0625133749265485,-0.2934441194167475,1.1693705840102282,0.7302047446471652,-0.23422506377769142,0.5070154521659346,0.8819358896860315,-0.1805179308277518,1.0672030797714598,0.36002462754040016,2.2319985505698297,-1.9487751082324598,0.3422466911888647,1.1787008392174323,-0.01614855410407538,-0.24665457819460443,0.3203608803333197,-1.3717044616745033,-0.23414929950450528,0.7802633335102849,0.7510278760343523,-1.4895799323488899,-1.5842238180930643,1.601707141819451,-0.9889039893555345,0.19921529559641382,-0.5011836483717227,-0.8081755979521986,0.7771067525768162,0.050493964318447035,-0.20553609085628208,-0.5592262043199268,-1.0092985744363505,0.25448908675497967,0.7432602372100515,0.45185367620479244,-0.7267258998771619,0.11431608370887253,-0.0931058444782813,-0.9235180360077682,-0.39498362077721083,-1.4784895134192302,-0.54321342783424,-0.2888862625434921,-0.5484499096740006,0.6439028154223586,-0.07553410609716986,-2.719243545174655,-0.19247412164391905,-0.03888838174112341,0.4589110902865699,-1.7173903651992948,0.2193210936567736,-1.0222662058306617,-0.2239204683383224,-0.7773257771734798,1.8506430840479065,-1.3901758961762616,-0.5088737471339831,1.3367735287443916,1.0755259126186563,-0.6534874753240352,0.09121169641457162,0.4764717642690034,-1.8162892666167325,-0.006690374283719335],[-0.0030115990173899005,0.3744220588512169,-0.9981199451078528,0.8638176848995556,-1.433004838327077,-0.14522723564536244,0.6830061903309991,0.2828181446997323,1.608027238146122,1.2378261450218966,-0.9687274036814917,0.7543733174772544,0.9998438332630469,1.1190568850700882,0.5903465618875913,2.4429793191116174,2.8674580021311775,0.6723947521041376,-0.8760734646582299,1.470788903336787,-0.5874618709283281,-1.6560161506117692,-1.5225937229377928,1.498341703227621,0.5890620353568482,1.8648738233861615,0.5202561469313028,0.17613331841368202,0.12195059229723705,-0.34606476727317753,0.8187496119136749,0.2849240701464803,1.286990443032555,1.2821686513991446,-1.2563169586265408,0.4973615619846176,-0.3087649963101963,0.4084870389408881,-1.085958942398944,0.45463150045527206,1.352804542550308,0.4494931120377556,-0.8967879346136897,-1.2406048904135658,-1.9940391624516867,0.7627288047247661,-2.5511901596624225,-0.3560204434831465,1.7793527493636683,-0.6998925064070951,-0.4743712605544654,-0.4078357169934178,-0.020408607542397844,-1.566550368989745,0.6817109407590053,0.44595358857931183,0.8578255013894167,-0.22502679668422984,0.6385278402245212,-0.1864798948531538,-0.24024541086097043,1.1436711418725656,0.22581557550954579,-1.23587832023148,-0.9329571464393224,-0.30916379273317035,-0.29328757436517267,1.2186971679521519,1.2307340313959567,-1.8073866644496468,-0.9960025901918831,1.1200344767339754,1.1564033087455168,-0.5217367511651231,0.3124981926851975,-0.14596664262713466,1.8835710264948566,-0.943543005967238,0.4715060758188529,0.295882830352654,0.4831030814510924,-0.1642423999103338,-1.7389203059152567,-0.5052721990491524,0.8946162301918392,-0.021525347676122863,0.4553451201179186,2.2835160385723143,-1.0383156436289391,-2.76876545327207,0.013844376985223904,0.21154479178805774,-1.0775319640234033,0.5733950646471795,0.1438836665498815,-1.2548673534103358,-0.3660975396127989,-1.3029605910951576,0.4783201925385255,0.4011815990485933,-1.2755716453818315,4.052813293430773,-1.2528351810076268,0.6299366163296213,0.9975655982691575,1.1024222520008842,1.177594686617386,1.7919624903416416,0.29029658786182316,0.3691412941908245,-1.186637538126827,1.9273479131125828,1.0795131923416463,-0.5103687119629123,1.976242659081861,1.4601960898618864,-0.6997137227426045,-0.8343296642936531,-0.03320498215228151,-0.7919075285036786,-1.5415008329658777,2.5503390033160507,0.2963584732190176,0.265505582157448,-0.503022064488857,0.21447034284250396,1.0476917350939805,-0.9578481347338649,0.12393782795849616,-0.3783905378582141,0.8190782628360852,-1.1184806643371854,-0.16707689921840937,-2.378175963873158,-0.7628918071165582,-1.3781811961229025,0.2597062446665008,0.75406863052373,2.1017581413807838,0.07090909146450014,0.2641407946626372,-0.9812505802646134,0.0015923572274903902,-0.14116029805781835,-0.41195305015058653,0.6172225032019217,1.1552651103077187,0.318373287558437,0.6961704872582454,-1.17371378847057,0.42957536162238735,-1.7251324642226724,1.039541209499522,-3.576588759324062,-1.294977925331803,-0.7338507060096349,0.10519170031591417,0.41611551960685605,1.040773451152092,-1.4089886620072187,-0.4466110965277719,-0.0731356624412782,1.8247304050938111,-1.2161420785027843,-3.782234752368301,0.8395124620706196,-1.0850048679273971,1.1199673709562477,-1.2317829028128018,1.8695996093848593,-1.1354945606855564,-1.444542583777582,-0.5274861703084068,1.1840793392646467,-1.6877913378893978,0.12235677618471182,-1.8765910899055016,1.2148783428633934,2.5634784944232494,0.9706740909461614,-1.6923252824830912,-0.8559970611124783,-0.5314864255227411,0.4567646873400964,1.5470363279325774,-0.7802023820088789,-0.17650408747242394,1.4119036543499512,-0.10132786973423666,0.46857926466992805,-0.38666290443056056,-0.886664512569193,0.5427684545131884,-0.9020109835704925,0.9479957762565128,-0.06077318739360059,-0.7539858005761998,-0.2979988398153932,-0.9230428825049855,-1.2841456610797848,1.0103661165184692,0.9817124755210587,-1.1213883637330477,-0.011702003898680735,0.36235675310306426,-1.130283468273937,0.772467521182107,-0.4718641493618052,-0.8331588674405112,-0.5292349584386913,-1.1428646391597717,0.2136464862736025,-0.15729189895174414,-0.6203951556478042,0.9916574138001394,-0.4745251803940092,0.7328588689665406,1.4489090030694316,1.248678197329652,-1.9166152330077821,-0.4845899284174016,-0.6521643633799993,0.28950091966249497,1.419801190290705,0.250762235362566,-0.5021017353433617,0.20218658093213432,0.5714751235106299,0.7645880038733666,0.8219414067218732,0.07421627685733091,-1.0917426616094292,1.698670156378437,0.6041515952149499,-1.5589935317202808,-0.7360693766979236,-0.4718686421459699,0.4668638532101535,0.08053488023288291,-0.011962560559776559,0.7674273719195552,0.6686987172679216,0.4458727930673152,1.7772573147651223,-0.36866240323830646,0.4731652459137417,-0.16748660458587686,0.7122452740449293,-0.3490203590299607,1.128147172318172,-0.9802746051597342,0.3751626034091274,-1.2857238722260957,1.4563762708494432,-0.47076719139618106,-2.657535565716277,-0.9277028200190273,0.6503726073294168,-1.8502450630239402,0.09656274688406409,-0.4478065604455715,1.2490500621622107,-0.2554401294020651,1.6335041425561727,0.8667558634081022,-0.2168461095339728,-0.12971417308884073,-0.20535014214890082,1.175759606480122,-1.1909761769746043,0.9820453715607136,-0.0006468604039228666,0.23837509535871546,-1.1825789924295806,0.4684083418922457,-0.2346963073563698,0.2512517860882926,-2.3597484792959897,-1.3721892765829917,-0.6265662148194615,-0.0330118838473913,0.2085336981090013,-0.05022137492941403,0.9188381954748881,0.02005977505691739,-1.559419343889173,0.19362689781660972,0.684597478714534,1.2811723168807387,0.9233724268400286,1.233071906640642,1.4004871207935352,-0.33688112006928894,0.722869071549506,1.0431928467318812,-0.1370291911531195,0.21576774807229604,0.07565056198118272,1.053203784602937,1.2237930771145058,-0.47071759996617546,1.4125234013884151,0.3465775298686504,0.7241005306988396,2.913689356723196,-0.4903050711304864,-1.1359855270659063,0.7216361977504896,1.6401538371192619,-1.0794978893078677,0.22436879323864758,0.9976886779705467,1.033700965659543,0.2584538093584759,2.248781594644155,2.1538915251892,-0.18920883917606918,0.41732751053066264,0.17329813643660577,-1.3082201964048958,-0.0129933425828822,0.46439546433172246,-0.5748776943662575,-0.24501398006034558,-0.9054820526773009,0.10421299197575484,-1.2901588569390083,0.4531573342289532,0.3913731732852341,-0.1536902134393086,-1.2399930488513518,-1.9680266232458195,0.5783625273260427,-0.3803159728219159,0.05144911339736563,-1.1058423778400976,-1.3883548599807856,-0.4687092169205178,-1.1452864162238163,-0.222170442760394,-0.8135213518815388,0.8344529906947168,-1.518446202793719,-1.9309882761139225,-1.346147015489981,-0.58809487537763,1.3806411981367124,0.9624572466973085,0.18952011942812474,2.158924165026681,0.007862790417260401,-0.3422066453392925,0.9623468681711191,1.649314037093425,-1.4845988061891973,1.1371372063832201,0.6198206336493247,-0.431227934397282,-2.3764694156887236,-0.08525104429025028,-0.45270089954304354,1.4921257648408772,-0.4036746759051753,-1.6957181489010364,-0.574458674595367,0.0662341148418783,1.3752847843818388,0.9045778357306046,-1.2079001539362637,-1.7351889228739776,-0.9272265083696496,0.4483260860840229,-0.8536576114487249,1.2491212838583565,0.10823223249837219,-0.1956822676134731,-0.8773143152706269,2.45758132779895,-0.944580338889352,-1.518822249812903,0.2499697648816154,-2.960809965848945,0.5323583235543616,0.22910703890655762,0.6271705026873418,0.3465873008322547,2.4066586218871464,1.3032310314413629,-0.5095993846078016,1.8664304690944764,-1.7941427340106784,0.33398030283398256,0.4487107138268466,1.467120121386292,-0.2607680239845807,1.316715236810401,-1.0337506723197494,-0.3367200147164819,-0.725392085994644,0.23797508036445872,-0.4476622189167419,-0.17112779215612553,0.21829732415866784,1.6034151280714777,-0.2563718150310074,-1.7771161005224645,0.21291854442416017,1.8569060155357455,0.9062231109626808,0.6590283239334483,0.6039983874451341,-0.43951565720918734,0.09749460243117984,0.9680976619939955,-1.2262521053320925,0.059251190111757626,-0.5027492096181992,-0.7367550385555235,0.2431777988747097,0.778257581969425,-1.2833854311589865,0.02864514399949123,-0.3587347926394481,0.4273388893556336,1.860370364780305,0.3909775992266704,-0.6033556360206153,-0.7750938171691836,0.3381995485898224,0.37305249764210985,1.5103901406734448,0.588210880691316,2.645542566175982,0.15235649341997487,0.16366014186642996,0.8874404437069394,-0.511130667515068,-1.4379006433051544,0.7299334550675238,-1.3228236375602875,0.5466890522189221,-0.6387777103283857,-0.16859756809451457,1.493369106545948,-1.2718784898248625,1.3227557728736685,1.531925631554258,-0.6042062767005918,0.5863381749086122,0.3139162038950479,0.7713783620321792,-1.4771074940617919,-0.036607874394861226,-0.7363085462147395,-0.5987765142451954,0.1909368385436993,-0.6317050433290082,0.9081012301379404,0.8423743077671073,0.8626766904229071,0.4097957862567195,-1.2987600024821238,1.5682843461055411,0.3050507567914524,-0.1296919545495988,1.2902305842737267,-0.0981787150689529,0.996267816245165,1.5430325891139933,1.445963060475474,-0.46234455405190933,1.2923049784080007,0.10533898215103554,0.09262433506676461,0.20966508420834754,-0.32314765871851386,0.4316865729487119,0.1773696609437205,1.134225984523075,1.0565728893470674,-0.24405252557984478,0.5402386773693862,0.022387770953613596,-1.1135215893758252,0.7561207470488971,-0.10342474465345129,1.3753484851268447,-0.09809854822625737,-0.22554465366877482,0.48762120665029834,0.5767106031107769,2.064946321444894,0.3870481380624157,1.3508052543611173,-0.6788411006624328,0.2585516110310888,-1.6547859730615142,-1.2571440020916798,-0.1678521503895668,1.5203460167757996,-0.3557948228670674,-1.0591957425078893,-0.7982261513486587,-1.246086810906001,-0.355842984693768,0.5187748140476418,0.6127570095080765,0.5753921509513416,0.9193282839951396,-0.4233664774131164,-0.6287423624426602,-0.7730651750591805,-0.40350853772078243,-1.411038589471827,-0.4853633243227471,-2.1521198422176266,-0.07238587369437997,-0.19851628489780868,-0.1670571542701375,-1.3341684225949526,0.3393471937050901,0.650260990420605,-0.6523575746338698,2.904190533712779,-1.1090186519455127,0.24844265279197703,1.148538916354765,0.5972652422028318,0.48168780154067903,0.8433689192344875,1.917981162341276,-0.13570570552452713,-0.3062370695131554,-1.1699582700999969,0.7441852737330281,0.7620760562748866,-0.9205637032914357,0.33117586802319987,-0.6103508100158468,-0.2069415845268884,0.37002258229421864,1.7699043478447123,0.5279122172352426,-1.2840326842157581,-1.101804040312405,0.9363241085720548,-0.5099363161772685,-0.8918826658390856,1.2382703308380936,-0.47168739845936125,-0.5625491072032371,0.21438967561496758,-1.4160064554858458,-0.24680106302507196,-0.02023814370705471,-1.025512554095577,-1.7768962512876971,-0.9469553129303419,0.068602799923008,0.08297331267978861,1.6431604872783077,-1.1878291976452588,-1.0387826660942894,0.21786534400672522,-1.527159205541623,0.4879376454260338,-0.6354215590430894,0.0763940137384817,-0.8918521601011463,0.5382584679036133,-1.4473815901522988,-0.560262402142745,1.0452743451291941,-0.23550617794278825,0.7165368090825818,1.48643893105986,-0.48239708250584407,-0.5883353613470234,0.8199653969209619,-0.3818848721422316,-1.8718895218986382,1.1364763893072463,1.165011433758104,1.5194420303205767,-0.9548086279443923,0.014647195275882012,-0.7071286182452621,-0.8824500039623052,0.7369442270464023,0.6450868975323283,1.8217886996231378,0.6136765037526407,-0.8744070227024865,2.4866658958930388,0.7607654020632202,-0.1723916449333495,-0.40565041932275037,-0.08608160219817287,-0.23038934583031498,0.655350176370383,-0.7988957499669301,-0.9232373017963598,0.05144494384837054,0.34801703635678893,0.0013196537014786738,0.38276056455820845,1.533078987059975,0.11019676850138758,1.8643079806486025,0.6957561108018424,-0.6577599860477699,1.2249894304478994,-1.4828581347986418,0.6491511921558704,1.4800546113995199,0.647311846675402,-1.8660450540179805,1.980887306380538,-1.1925668981048796,-0.18811681558645635,-1.0407503859849965,-0.6404135288629039,-0.7052048576003404,1.2931236604896472,-0.6396221515683981,0.4191783959321379,-0.6811917267799705,0.9286382068100002,-0.814325427467395,1.4564259557277675,0.07643267980929128,-0.1658435463573191,0.7763046232037719,-1.0362870642506012,-0.5793793322601846,0.7876435647077316,-0.198454141299151,-0.524172948819393,0.5562276308176218,0.6160063987428082,-0.26730460544730605,0.9207898258490104,-0.15069729525248138,-0.013920938994379704,-0.01269613725096307,0.29301348528471316,0.6891944870830398,0.8435652441915857,-0.19079771851999505,2.605259421325272,0.3203651985972624,-0.7205753648733985,1.8406071785420703,0.5787310972948686,-0.34213942698815575,0.5539135319242995,2.3604060678164505,-0.6985131535638652,0.10724712435029805,0.822848311179354,2.049861516321889,0.05695520100208007,0.1364989603812706,-0.3562680843877185,0.6403399150026724,1.4114302031277637,0.16755836849382783,-0.7217789518634111,0.9487639825842787,0.6853058060809256,-1.0550663685409516,-0.018307558247563197,-0.013594921123850842,0.16197321453861854,-1.5572030286409835,1.1174467716472924,-1.4402437340909562,-0.14746353736621326,-0.5879863049251476,-0.44575755976794035,-1.5685503157136753,0.14948645386160989,1.5093108398091708,-0.036262979928052295,1.0369799401695257,2.9811216276821355,0.26638317527829103,1.6679461738066885,-0.2961130245428448,0.9689792494750423,1.6015334692534393,-0.4298604666660788,0.8965591598891688,0.005806605844172725,0.7847504887738643,0.48024273429606273,-1.4669696539876542,1.532128794170101,-0.24548087909503094,0.7793112009951139,2.0630455136311956,0.6966012298961686,-0.5636241075501133,-1.2638549977689633,0.5170634461041972,0.2817600727429095,0.02759486557266758,-0.14892401418152443,0.0544646039441006,0.5323772154815971,0.15318650460818145,-1.1891019415627355,-0.9013983790850858,-0.522078291055278,-0.387796952012241,-0.12823047661697884,-0.6964835040877413,0.5188059859431663,1.226143328025545,1.1722469293555073,-1.2480310831526424,0.136919075533833,0.3155852271736088,-0.30148806812247647,-0.36108613449064497,1.2135027233510913,1.781216682833238,-0.059850700107815694,-0.4803840199731542,0.49778765822669696,-0.35093540157149133,-2.2469235526302493,-0.11676544825696122,-0.9467891649837895,0.08485410719880171,-1.3392682452194233,0.5706695951572952,-2.395863576963263,-0.25039243506585135,-0.2668432553254023,-2.0894512276861383,-1.1172943594097358,-0.16688243574823108,-2.445924216136123,-1.0504959082240748,-1.6111445335894545,0.2150370555953843,0.37774945969118373,-0.29941448628812295,0.3251887357112151,1.6111464349219267,1.4829250368029285,-0.8439151808785927,0.8113800100391363,-0.1483319298691616,2.015090128757765,0.9454549645222212,-0.951988358083305,0.22251812963001538,0.8452663030511384,-0.9808244930816581,-0.4102013454131346,0.6850869801927637,-0.24840976840856788,-0.6675512704151975,-0.15213482012018936,-0.315331430561269,0.8946125539573911,1.6012129582846342,-0.8965837470966707,-0.3782507952238963,-1.5741189785886553,1.0085991650456063,0.7210107750752077,-0.6609113731035078,-0.3588631158469477,-2.016003631110239,0.4730661624982283,-0.49966458672518366,-0.46982756279583415,0.1909834197854185,1.1403648542324605,0.26224490701846453,-0.2832771789597456],[0.46957569455653464,-1.2275661592163005,0.4232301110887588,-0.5007510429373612,-0.04801201317865741,0.3583061063482506,0.5838235307998667,-0.465564552420755,0.17446038061119987,0.15368629142445006,-1.370669222120762,0.17861552030175595,0.010038874346517082,0.6107123093266842,1.352215855448482,-0.6706973274195662,-1.0979666728267556,1.7340308044167845,-1.2951684562664723,0.24604829320514698,0.0315384548995363,-1.1913983452739507,1.295855442323827,-0.09940691184063297,0.005315315713526465,-0.18854830505026893,0.007978621750717695,1.485463230527958,-0.6505648987773253,-1.527335666290001,0.8934769408102664,-1.1521081526627912,0.5739668456483402,-0.2290699580819926,0.7219175676223761,-1.0077407967866288,-0.47556814890534316,0.8737699562119738,-0.11634270340202439,2.204580932113746,0.9656467835900896,0.21286834271054544,-0.528716738604632,1.7885402681607578,-0.32123501156413775,1.0958971595761264,-0.8050201810846324,-0.4289880340949314,-1.08188463611211,1.781615251595131,0.04094845256336726,1.245169474593513,-0.4973481156797277,1.3147334095147694,-0.6290390804566579,0.08108143644978208,-0.8923021932417363,0.3360066070164133,0.5704986471767828,0.4968634134953304,-0.22996788505214166,1.0119723625604096,0.7147513552839295,-1.0185800241826672,-0.9050620372034522,0.7561863741532983,-0.3305262998121104,0.46669727059291255,-0.5417278112716281,-0.7519947343234984,0.5046812016580929,0.44424212258574614,-1.1649541554931357,0.12414506245825895,0.28872523522047305,0.7573818624666157,0.19830538905323053,0.44461208038412725,2.2073950428733937,1.6322922528199977,-0.013951162511301471,-1.5787941332432789,1.9295840807578604,-0.5028211783222885,0.8120476128249565,0.5676710305299315,-1.0011691012047652,-0.255921819295093,-0.06226291250714169,-0.7633671944815817,-2.4998544567566907,-2.3992108398370577,0.2736809734720005,-1.9415935925214658,-0.6300240302043218,1.218030138210572,0.609639215649753,0.1006724024745218,-0.7739389848270325,-0.3656674287843128,-0.9112852134166186,0.9795077720100059,0.24118072751513148,-0.6724052739120878,0.9993429515477055,-0.7100137142479482,-0.6850684710352867,-0.20256686819506842,1.1436618389566247,0.23863726079735445,-1.2138165968155563,-1.0327898676458456,-0.4831261667214757,-0.525468911454936,-0.13327548815151916,-1.0877372711669944,0.0523245391433714,0.30870081421580614,-0.24336110485651744,0.29138950535353064,-1.851367892716824,-1.1064147135710372,-2.089502648484291,-0.7978264102707648,-0.7005649376124502,0.9380377465721694,-0.9399075791780569,-0.3739588270910795,-1.0747111015838633,-2.1979400997307135,0.2138600288411587,-1.210974009517567,-0.7323265579151884,-0.06350319336313474,-0.290066007185615,-0.9204324774258433,1.4825896021929506,1.0205123059512093,-0.7290252803732391,0.9888196755883029,0.21446149419373967,1.28517307813574,0.4846791980859359,-1.029198436837576,2.071942877326083,0.24054265820698925,-0.6741716940607451,-1.5805498547402472,0.023385578858087726,0.6546574757006327,1.1062708094514886,1.1783051170448862,0.16874414499258839,0.3612227504115155,0.2798182255597903,1.9442089499235393,0.7296193358954065,0.5527924950101192,-0.13208881826906688,0.27349773284299184,0.45356013794398947,-0.5693900590591119,0.9580446459082472,1.7911129512851045,0.5368593376724345,-0.40845163807013196,-1.9260192292283789,-2.7099971145448016,0.1743961711076656,-1.045521915896028,-2.122066749250911,-1.1715673584094413,-0.5266404320168803,0.060972455277254804,-0.48791048348440724,0.5697526358092185,0.9495582346236158,0.14591774111394248,-1.0801030044684778,-0.7279459266660213,-0.2999259448698029,-0.162805475105552,-0.14291031038394963,0.5236753280616325,-0.27565977312727274,-1.3130839135176728,0.05019756526907528,0.4873255491037826,-2.1833425160486226,0.9044028176683746,1.366947806593116,-0.0483557047203068,-0.10401984024927242,-1.933824144442455,-0.3114614914865768,-0.16845696332228932,0.10075298877861481,0.6536877005401412,1.3574847661288305,0.5374269182335281,0.8974547525922086,0.8060017119886083,-0.6725208609684667,0.6115272451305388,0.9175924283653829,0.2546534895240477,0.4162148347877477,-0.197796265230362,0.837438792377902,0.799699159061728,-1.2702727629290476,2.02419929637804,0.30353900423499014,-1.3601729731926455,0.0218699608091885,-0.23105045537349114,-0.3294439243176335,-0.5491414783035519,0.2346930519483869,-1.042558983860185,-2.2778349555521613,0.939774936026793,-0.014431805824920896,-0.0569102907502279,-0.7792822258802382,0.0885072147396824,-0.5906962229977117,0.40700760018621285,-0.5234661687510931,1.137006252710727,0.9757022272169409,1.0164107169806866,-1.9845130073075132,-1.2103962375073816,-0.6836579369835947,0.28315396355883155,-1.1129924761134882,-1.2611347018899544,0.8838999464773275,-0.25917111610794047,-0.06682903200912145,0.44520114052447457,0.31027763429607835,-2.3820267708695724,0.25728378730380325,-1.913104538328992,-0.44862978660221897,-0.8355279806406894,1.6982453352364095,-0.25117594948242106,0.4299228541011862,-0.4545382273878372,-0.15414272175463067,0.32926110954071,-0.4357381772490798,-0.5124777097862815,0.3005602317937821,0.9212510468419436,-0.7517214509965309,-0.28784571646559887,-0.6571687592089591,-0.6814566554752426,-1.8640854923457042,-0.3470725984008869,-0.8202619316148994,-0.8275466418424048,-0.27559368024023395,0.06099519344722051,1.7462966319403261,-1.6502087223526105,0.6813368571637001,1.2470805553031465,-0.13981785444175332,-0.09550950648669854,-0.43659462478192673,0.5724815976962716,-0.38341324532916826,-0.5563507789998507,-0.06389241599233973,1.032619523787333,-0.3906779241407467,0.4133636411450899,0.13593454174387823,-0.3057878761543622,1.9391979896443696,-0.9464505201752441,-0.18360841363061084,-1.3181443431175628,0.17298622576835476,-0.6844189852803233,1.4387641480477367,0.8467540595534956,-1.208573958725597,0.13778188053437465,-1.1891368163882532,0.28450836218514525,-1.8634112384039934,0.41634085475394206,-0.7786129178957794,-0.6976830119285129,-0.5763648487616191,1.4926333238837897,1.4708526708361545,-0.5956291911514552,-0.5602237975551861,-1.2705504333089215,-0.6560413224127992,0.08981784382071283,0.7523202490311834,0.6266491335059413,1.4339842207573483,-0.04363046128596581,-0.18576976795562106,0.3090223846058034,0.11033724735832406,1.4312481257737166,-1.1939350708408074,1.8113841746833104,0.8413246639028262,0.9680653209674076,-1.1190081441771174,0.42565347258790387,1.0157450080203825,-0.7641084735220951,-1.619086247477413,1.0566979083181294,-0.28058852100499937,-0.4603517477836544,0.1601836520200342,-1.0918050487049493,2.3512624833151166,1.1785004570295874,0.15661393599616896,-0.9836064606035262,0.5793243175957031,-1.1377764514819588,0.2953415668358827,3.7298741172186354,-0.416765096318891,-1.2847653053303987,-1.0139357476498867,-2.50663393604973,-0.22696837740131248,1.5890801777509131,-0.8357843672030798,-0.5604503223432644,0.3727546378372064,-0.45968488448247863,-0.39267355189909153,0.17256771684289382,1.1471963080467718,-0.919347714431929,0.5424650802045057,-0.3833449047804685,1.4930085171693135,0.1972417066435408,1.123144357748806,0.27902311437556626,-1.0387062358859178,0.9529242348328296,-0.5005358296129504,1.1423416932163026,0.7418179291406439,-0.3841871461229545,-0.6594538584586813,-0.28776280355093425,-0.49933184655156837,0.19466836846903482,-1.0039973606785728,-2.6925489438856824,-0.5394339423297863,-0.8041208350150474,0.05694702752069539,-0.17241085777679857,-0.15634004974268026,0.6357457363410446,2.7210998180604444,0.4770799733643173,0.05476488913152973,0.01582610842636818,0.5572191723115163,-0.5687755035512327,-1.1624188151180097,0.6917301099124027,0.7120714372927839,-1.1451826205900648,-0.4721921183892976,0.24243088768557824,-2.1317085135522498,-0.1644240336270104,0.9372949806323495,-0.05022476873042514,-1.1822911442907968,0.24159260753216658,-0.3135369248131981,-0.06400206198206729,-1.3669649840053015,0.9240349515365756,0.898337253162051,-0.1961774500450151,1.2899176341580667,-1.1548836708321462,-0.4035964492709658,-0.6740368505402351,-0.12256409004060055,-0.7737320100981743,-0.7431997568587002,1.2512666274263449,0.17808770606594865,1.2830014699549366,-0.9361940400238019,1.0606065804457152,0.7024079975363465,-0.11533401778385821,-0.9283507130819578,0.904311583187178,-0.3299341050791603,-1.242372152647309,-0.5588557354407698,-1.0460512266977593,0.9646873444448844,-0.20183732034162766,0.6395021076795182,-1.1322172559838237,1.0106486946342523,-1.565955546349091,1.1236688249634228,-0.7953778450908414,-0.6179518496505404,-0.4203061945993573,-0.01557374051578777,-0.37435658820259127,-0.039821436070565756,0.3272393818580002,-1.389703256863026,-0.07772534960165554,-0.7638840110752334,-0.07934115674283049,-0.9845218558693114,-0.2849509308443533,-1.8213873497691262,-0.445748600381458,0.030935438471994595,-0.4611844690074166,-0.34554295821659525,0.14201847004184137,-0.9423828614066133,-1.541267170033101,0.9669042514756298,-1.907908350596623,-1.2374471446778341,0.08903059705986602,-0.6854267019110745,0.5241087353152896,2.4983500589736787,-1.2972091566456452,-0.5445276669074638,0.2593832067690173,2.0762248969658166,-0.2553482125896385,0.16185322635870852,1.5603826169922743,2.28047761957182,-1.139510224878397,-0.3360775661607157,1.6696890106851823,0.8336817932287722,2.076542652053509,0.3598360887155084,1.5426273067470297,-0.10147976702239996,-0.4932320684595833,0.10491868222431122,-0.3621436696444378,0.030722235722058025,0.5291388047459333,0.02689511392340143,0.4112622507392925,0.3934350120940536,0.6311797850869807,-2.480766534685132,-0.7137056353460168,0.7351831040895143,0.5012958127618602,-0.2890647852300088,-0.5598602547251328,-0.5441895731972306,-1.2392856583397676,0.6094070814444299,1.0360733266121853,0.8190127958776491,-0.8555136787736412,-0.47536735961907417,0.8080843090715887,-0.4415800416055485,0.5823324504731512,-0.9501824278676199,1.4090395751603462,0.0866635834585112,1.0647093409040393,0.5650460713384343,-0.8989386448264572,-1.756222948730794,0.49600947778844834,0.6820532536531928,-1.5063364267381492,-1.2434624644257462,0.20826636047613079,-1.0530276270345742,-0.0017772067293765881,-0.06068972830897398,-1.0599605942944346,-0.9987330324202864,-1.6314122212541344,2.133308439274905,0.6910554512148391,-1.2745082189184767,-1.0670243051147439,0.06913961105242843,-0.793059513132284,0.8438931240171015,-0.38573844648461547,-0.8811889382595884,-0.06022324124861544,-0.47431359882170343,-0.24516059763335896,-1.2139582896625094,-1.485661588772952,1.5442889544269378,0.9972269743858363,-1.4424245590878388,0.5900731730827579,0.6535840990282579,0.44914559624310757,-0.4376176277786824,0.006567405461331503,0.7403812769046347,0.7693394006700627,0.32736526258810217,0.22966983762002716,1.9740294357758472,-1.146022671707952,2.74174734958791,-0.08315376325199945,-0.6846526527643929,-1.172038081829576,-0.6310778852886014,-0.22097913032151137,2.184678663728294,-2.425088953446203,0.2687861493550536,0.18591762429809222,-0.5134555053703004,0.9721493667382167,0.030289355043485355,0.5824757855465251,1.2590300355295765,0.7313133305865791,-1.0568532558861554,0.8588942619363783,-0.19865520164124253,-0.06185139539131927,1.6479832841928104,0.6247613680203835,-0.722069468883865,-0.43468049964146244,0.589013141686623,-0.3764960899744568,-1.1286747434613025,-0.5861556579340974,-0.8030084405114537,0.4745207673974153,0.42623826745675186,1.1302778803552673,1.2267773214514044,0.12827136732489094,0.36085852220500586,-0.06350805214923873,-0.3288400739275316,0.14407535379791195,1.2037759293734966,0.5584433876936763,0.4722275140974779,0.01630485769582955,-0.9351580897677007,1.420166447795828,-0.070372543598146,-0.8615605643148768,1.1298051445974613,-0.09848227998158506,-2.1112415454846665,0.10444624520321104,0.32571490925685925,0.9338047476940522,1.3229016019606135,1.1044581291996227,0.21495403568847984,-0.46423710671151036,0.21980139930625558,-0.5770278945632026,0.025197621168351628,-1.6621842187740135,1.1723548432471869,0.8762712788253166,-1.199807146714129,-1.3857092189000006,-0.19586720321617354,-1.4057541604222292,-0.3000592654756396,-1.0115774744557842,-0.41843960351303505,-1.3644214557979457,0.3330419673879832,1.0207894665595716,-0.818654618247786,1.6311503384546011,1.7518296358765948,0.46513025602976477,0.23723116222847446,-1.117860503176951,1.1707654393526135,-0.37519093120894165,1.3170966014067533,-1.8247837172786405,-0.5260418276072172,0.7477184132278968,-2.0362606606026734,-1.0227444808534247,-0.9049078055367775,0.08550411754556829,0.9919765138276824,-0.8760239178185812,0.728933097884789,1.7287601466598883,-0.6201542505805607,1.8308468004106253,0.5304261509924338,-0.3319683105857396,0.41376652428493577,-1.339238469060496,-2.356239563086751,2.9205297570763546,0.18437625441651026,-0.9767588415327024,-0.7431143890512045,1.9575664774236372,-0.5534440662207136,2.6411364879892063,-0.5414776418036402,0.02367057536591513,0.26909986706110045,0.7732217361904257,0.03220094651621463,-1.0962061935205338,-0.6444583289015073,-1.1824536027896175,0.31487213269192843,1.0921925533724375,-1.1448892510627982,0.29394780855838304,-0.5726466713472418,0.4086342258938575,0.8976278400432047,-0.04467953129189046,0.8740672511095332,-0.6610495755572067,0.15347934414649375,1.7208648491348548,0.32520023195878744,1.450682126259628,-1.651568621887284,0.6529397784046439,-0.549504790590576,-1.0622228511040255,-0.9363203900553707,0.1713590179511557,-1.2882931506512527,-1.4488625476615395,0.20407660463045132,-2.04963429454228,-0.4246482533962819,0.22509855457231867,-0.7868522892507154,-0.1151642205719682,-0.8069933003414643,0.8330468759905273,0.3214571894774436,0.5571043624463835,-0.29842566633454054,-0.44866359405258766,-1.1336570593062456,-0.9300367472196236,-1.9991289084046837,0.51665061002679,0.3647042053491769,-0.2951893045853581,-1.3129415758638656,0.07427224819664151,-2.914976774868915,-1.2448252308323688,0.19126190871049728,0.6266633852856703,0.17747392211704513,0.06744240353175723,0.21998373025274792,0.4021653224346116,-1.4113833508810727,-0.7270172485758112,0.23781915188294023,-0.7943722431812785,0.8973672665569473,-0.819101008845585,-1.6828887838471593,0.6822948924417236,-1.0771385076682132,-0.3672076012199991,-0.5314225946597186,-1.4580254075285617,-1.171617828088989,-2.063919401734254,-1.542346641832227,-0.7725939345442394,-0.9066501266619456,0.414169186323785,1.401646661167612,0.49375108097972203,1.1406506733465922,1.4039171185019002,0.24878254054726068,-1.3533495257196075,-0.852151624855624,-0.643730739062159,-0.347111482176217,-0.09387105148338261,-1.284594000374947,0.5847318357041332,1.3647768194408156,0.5619231670551043,-0.7640257764248778,1.68165421825478,1.9771078427996283,0.6269063239763237,0.10256192732253135,-1.3479247996495645,-0.21058927643978909,1.2521323720236885,-0.3446280482824301,0.7729800009620901,0.9176587311455803,0.007600291622969023,-0.0018533343312258138,-1.1163236880485983,0.9139948576764678,-0.9956528345246897,1.5981597966977958,-1.0071754146078584,-1.013291542373947,-1.3628019706994934,-0.9218856441979781,0.5978004295955309,1.1102352226715637,-0.46970617821998567,-0.11259540561032207,1.2796222418187162,0.8309733210685847,-0.003942647600956432,-1.3516648744205064,-0.44002380998946056,-0.7517089014570209,0.1281878312968099,-0.9303642785809018,1.6329857196657211,-0.2805235505055653,0.11801956373573519,0.41326019727857305,0.3522126273498469,0.23269101403352566,0.20912915507429722,0.30860437568270266,-1.38146173982344,0.12691654764307292,0.31146277547861956,1.0915867931720165,0.40566566366940343],[-0.7831419873915899,2.484887009202012,-2.8509904278143208,-0.7126086225263293,2.8236991327124614,0.34108822590511456,-1.0092695972077659,-0.6900060838070363,-1.3939928573465399,-1.520554226591839,-0.19932152850576468,1.5159577997735902,1.7345629231981152,-0.03184539266762569,1.6377944266401936,0.3752969857351405,-1.220783720134035,-0.4824883121963217,-0.16390120405011407,-0.1830933795548933,0.448675189088098,0.5379042383494433,0.8115951752389081,0.8413293661431216,0.8422252632913394,-1.6311389598657702,-0.02702275365272637,0.800378312646394,-0.5913244019961683,-0.04934094445620922,-0.23213467626423906,-0.5513311322333655,-0.1502002454626863,-1.9955611238755404,0.5709004864643111,0.5258419266261136,2.8614280693784298,0.1725045933064888,-0.5148858109504696,-2.642814303118031,-1.355390638661988,-0.5188625644920886,-0.7506049911092387,-0.846786338324408,0.8756859234076076,-1.4159840625117561,1.126551487387635,-1.6233713744243137,-1.1896273606366934,-1.5154556343004673,-0.4027659277755183,1.2265927918380424,-0.04862583125475955,0.1209176214985306,1.030386068397316,-1.2115239728421436,-0.5166104989781235,0.9507134926732571,-1.3000775236844149,0.6130982874324328,-0.6460988026494202,0.5457423577725032,0.49491517214029235,-1.060221579872739,0.9447620132608622,-0.7662945015479523,-0.24011858319689416,-0.6004810727433276,-1.7150724928237402,0.17466345716979076,-0.29039098929665813,2.1891805800015454,-0.40557444642711066,-1.4177272597960535,-0.7994702378035536,-1.7641457706276824,1.9543965604922195,0.6985691299232152,0.01967145830784835,-0.530839800827801,1.625118078239433,-0.7527237459943275,0.632810178066923,0.5933052205027242,1.4792691541653042,-1.2226115770755897,1.068896625857638,-0.20038032007550372,-0.6891438380854776,-0.4357564019329639,1.0067531784043913,-0.6463156422102058,-0.38875988935482847,-0.6030004317873342,-0.8491102761561735,0.12061823222398965,-1.1052472530217339,-1.897098024952051,0.8809497616780599,0.8078364693911504,0.6936506414983067,0.44448005521723283,0.29031890883025097,-0.6141292020073665,0.5708541108605396,-0.09389938352182976,-1.831558695574396,-1.4029216808934217,-0.580101102774762,-0.2112934614414712,0.11455303243362991,-0.469455960271906,1.8544437624093226,-0.0901810015224816,0.27108176256789385,0.6763622084547941,0.9532620024509569,0.08418437650844322,1.3716507806348894,-0.01799736760190674,-0.6492499989445463,0.6609508585671319,0.09549188109474371,-0.3062936916105165,-1.2671067999667125,-0.0879855456402461,-2.601189861028458,1.7182241136130114,0.12438818239377072,0.8331364348333887,1.328197810626667,-0.34803627964898565,0.9309076521827145,-0.8661904151939874,1.877359227256132,0.5062087954222599,-0.6250028909449374,0.5926408500666805,1.9060796650352902,-0.017958346983325695,1.3981142785534253,-0.14402509993912482,-0.019735979297511277,-0.6330477478828072,-0.7215622962578181,0.36084416190092367,1.0067856970709974,1.649870760881683,0.10444555225792006,-1.6679899167788745,-1.7921566524652004,-0.21580717448470846,1.0930121072819337,-0.8195827151098201,-0.3642661418487282,0.6977978502228449,0.1801016308815389,0.4055907016844768,-1.0638491165258925,2.557429175412451,0.5252643178083806,-0.7084900402916808,-1.4026067388843788,-0.006383577326425204,0.7651368703095559,-0.8439775966621273,1.6142495220495323,1.214673363594643,-0.6501078404558183,-0.031553089677570346,0.5692052481581437,0.3709080004199505,-0.1734694946448311,0.40776144080703575,-0.33315862332833984,0.24733206104152305,-0.8244009576778822,-0.5564559814950565,-0.030015857359462713,1.0013785125367687,-1.2067335225588076,-0.4441215259440764,0.08614650155404287,0.9862365353728825,-0.23431697550666988,-0.1473357934563173,-0.9500151836639724,-0.7957540223669634,0.2733358936616204,-0.29156637637356947,0.7811003807337243,2.260317492239671,0.0671181412488709,0.3835786977525348,0.0750322820034395,0.21281116835370342,2.1842233669781237,-2.4943452673294084,1.532199190006691,0.6108067151207948,0.7056845025995149,-1.881694392678612,0.6813412359144566,1.3100168511500931,-0.7885234479476181,-0.8382083549244826,0.20470466278198243,-0.9579202754933535,1.1669362672967114,-1.2606981127908994,-2.1004006923258127,-0.4725492169170257,-0.35653414554996843,0.9634548541140202,-1.1982563485180615,-0.25970053316436587,1.6137461703810727,1.9120575825815322,-0.251409701187986,-0.8775886879709613,-0.11995839568201278,1.2060854418316598,-1.895743612190168,0.8726093105014171,0.5406945573695687,1.458374009933374,0.9779822905220056,-0.1734843226924003,0.8388219394098084,1.2962940600971757,-0.7975411236519181,1.5044339212751652,-0.4677403318089245,0.1678172924020436,-0.36031494893737653,0.13143319734571116,0.9647498976298909,1.7151841390081313,0.6611293138882937,2.0943490535215954,0.29311804883725084,0.41621862199550447,-0.2703448120375136,-0.8389411552940997,-0.2805711852020091,0.5672545063468758,1.617246518010713,0.4408990619650193,0.8121783696418686,1.1617600045935434,-0.2291429435759623,0.15632354098048193,-0.0599194813509675,-0.9993757375682107,0.566223056883125,0.9930146183324221,0.541401891584697,-0.3777570043416948,-0.9694556119261177,-0.4716171684796369,0.397679913729365,2.168142704796547,2.303183038751632,-0.2827967642208017,0.6060580491370389,0.6107672806271447,1.0127081756655443,0.31236349332062335,-0.44239518944080575,-0.4317717581750572,-0.6223800717673723,-1.1751845236229241,-0.29566620461345616,-0.26627572789416115,-0.9377563388759687,0.3982169174083068,0.9004644375394478,0.6087231135374349,0.6985182890324151,-0.7705696850243318,-0.19315430294789201,-0.8592093738311589,1.80036548152614,0.9348921045353394,0.13092021880734925,0.03363049308003616,1.0747620394961697,0.4061407666274363,-0.9227305564053633,0.2796261204496239,-1.1141507242128839,-0.6083193039298094,0.14652656315147075,0.253063138239287,2.121001868672154,1.1960700469866352,0.7322340281842415,0.9475161741234637,-0.8038105009714034,-0.6314004841100809,-0.3213062337732089,-0.5481811161757071,-0.23886948185357748,0.3175170342196168,-1.7265408544175842,-0.39013795681367897,-0.007131730732234148,-1.3299022949658927,1.5189945155266042,-0.548040302589637,0.6725052057122841,-0.26606282830481326,-0.16799412949137055,-0.8923771738989008,0.32754036092177274,-0.06112545019894395,1.4952266320065277,-1.1282364398290092,-0.03042481326355606,-0.710374480713002,-1.0384616648817113,2.9860093481291514,-1.234409516779712,-0.4824387739295454,0.4742893002083004,-0.8578780543741666,-1.2969854162611234,0.5796472840594526,1.265097279213662,0.46625366597976226,-0.9801499342396357,-0.2761531327318579,-1.263149223269759,-0.9723497029828954,0.043519899969748775,-0.2070075571871661,-1.2172833198343882,-0.6914175037491918,-0.8475015719529239,0.10504429868206906,0.6317002964626512,0.4122143795026115,-1.684652606994426,-1.0269915668714324,1.3492001003000655,1.0165359703512769,-0.6579278781411382,0.3883561421597475,-1.1945881244132681,-1.2101777081132128,0.9011497005992234,-0.22959935012522067,-0.4860410977332809,-0.09798622675263693,0.21189509686867447,1.2681326134724817,0.6586559332027314,-0.4357423532152133,-1.1692030111160658,0.4916127697528458,-0.6310542467612887,0.48867031381612575,0.8506928289730461,0.9220314093756895,0.09770021328593222,0.7111171069075115,1.7161033435885449,-0.7680967352627824,-0.12320407971116318,0.20696094008145088,1.346437545482693,0.19709402303297627,0.3290483585761368,0.03846643519177592,-1.6633806241505538,-2.589313704910189,0.011212434352305248,-0.792091476905456,0.7295964413628431,1.042623294873873,-1.5706858419227787,0.3164625521200777,-0.9988943220316423,0.06350799701497778,1.0858380722280296,0.19180136219132374,-0.4472560931424362,0.26992238162079696,1.8489143328026916,-0.12336411634632544,0.9244579962372914,1.0001087198870982,0.13957890426641462,-0.03093415474173742,-0.9200045325476517,-1.1989449403581054,-0.722525969532185,-0.58502375434116,-0.6215585186895265,0.8441720792115089,0.2893464175832571,1.0375558089533428,-0.31176318454926266,0.629583197052081,-0.6532754961124136,0.8960710505054971,0.5299002041149538,1.5224342175050933,0.7462039538969366,-1.7036796762289619,-0.3041383525085622,-1.2319653329726716,-0.3636584002378399,0.27934620686789285,-0.06042431304980673,0.612483957116436,0.4743017213702584,-0.30089958395967853,-0.5287040823012424,0.07175429435153054,-0.6398335760198782,-0.2515720556363944,0.7207021217158356,0.039218365608256735,-0.18201801746889779,-0.32564252677629446,1.4054968378575605,0.7751110089262757,-1.7952888302821672,-1.625765677873808,-0.5494550398107189,-0.5437094609734698,0.5660066220870625,-1.285548849492871,-0.1878942661755281,-0.5427101293952175,-0.11843607225502228,-0.8163403385666803,-0.5119806851694508,0.13197237754414778,-2.0120893257157557,0.26083366451438017,-0.900469435779676,-0.38532885294332014,0.4185478958918216,1.9860086471765173,0.49854283476380096,-0.9454935254537588,1.0214192395678816,0.17547829274998938,-0.7543361187756644,-0.6201474108985238,-1.5141386684847833,0.5338662051894765,-1.0604318986196435,0.9442673446105411,-0.35620327591233947,-1.4013987593184938,0.3145038085034178,-0.6750580645691828,-1.5004871659498618,-0.4383887648511478,0.03787702729811519,-1.1213200892689066,2.0829724121774746,-0.09747612595168904,0.34740117629954415,-0.13755103319986847,-0.5498226215177568,0.4529294072253338,-1.204365196560964,0.19948795925432336,-0.9602336791503635,0.13740999273503524,0.41922194329300105,-0.13131371236331804,-1.6106057090584915,1.023558304227449,-0.5880713421156762,-1.7909964900721769,0.0820036471892762,0.020046932185470837,-0.36671557964852386,0.23158573247777592,-1.665556149745295,-0.3426602066423165,-1.5093062084401752,1.062106864023458,0.5223465147080472,0.14470673602431244,-0.5291088748971094,1.4326127975290905,-0.20408398569304767,-0.3828218965485018,-0.196075905148677,-1.300945489586193,0.6790004300680369,0.25049702021187553,-0.3245900160193872,0.9797986618310779,2.0252450072938943,-0.41763997073120235,0.9821417188460481,-0.4220353822241746,-0.6417080950341665,-0.8760984274196937,-0.611550882219088,-0.4293959702190482,-0.16923089707901146,-1.4393274989131957,1.0889016498750985,0.06791827722585095,1.5589321338136861,-0.24416410448115433,2.2421651805547667,0.7036758897564979,0.6822436358613464,1.4888831491457353,0.11014001349702171,0.7928367687960928,-0.7243083964468074,-0.5071140868227128,-0.47640778836856434,0.8309075693423306,0.8707538529470488,-1.0338451253267502,0.6352087991773483,-0.5923012752205118,1.1609408289738805,1.3371412726762584,-1.2228106743175746,0.19963991043439802,0.8561124964151526,1.3747496851214354,-1.471288058796747,-0.9156343264396596,0.3951891414403533,-1.6138684994574959,0.47603560551045704,0.6448257041084074,0.5509248282971518,0.46456747346183774,2.2248972251803,0.29729375126243196,1.0020652581936087,-0.41631742595676036,-1.5272318288568645,0.012731308855793084,0.5626908447101991,0.3554641290139591,-1.4450279579703322,-0.18787210837457102,-1.1722551557910783,1.6355872341603659,-0.273530049011633,1.0466573578223923,0.6859611438376374,1.3327212591419988,-1.2701291817893925,-1.455575897127531,0.5389553691160082,0.29093267478330254,-0.6528312189956575,-0.5804910763059493,-1.2632860668640504,0.09341146123754797,0.6231821807632988,-0.27203759190758137,-0.1642473574740403,0.3511997711533676,1.8287198245177076,-1.056410315954348,-0.12175959480193048,-0.7301766256426803,-0.40414567245313704,0.10389888822342626,-0.31426188794182663,-0.21120071777808339,-0.8295008935778264,1.3328834544198007,-1.2257787949254022,0.21314891444504003,0.841342443708925,-0.6899064892372542,-1.5939162003237026,-0.8090546391966144,-1.581719576054523,-0.093125240720016,0.38003650568986425,0.08454678767373365,-0.8706454004544283,-0.005556132381899301,0.6789628555654532,-1.28939575410279,-1.1899995078004941,-0.3455865019138845,-0.9573308723397377,-0.5292798326667206,1.4158114898846894,-0.3521882119767424,0.7539744665214408,1.0620681369737277,-1.026650568881331,0.6553054144610923,-0.2641695729128364,0.9405639198213851,0.5814476712550549,0.7655804908529377,-0.25778403719003157,0.21992375348320242,-0.1601900846844509,-0.3658951518314919,0.15115644716507717,-0.48453451867539027,0.8778346497339473,-0.8408888700685583,0.4445728548495497,-0.09488433437696554,-0.07267671131413404,-0.058743186086543275,-0.031183581878282803,-2.789273453565574,-0.7319944454783711,-3.3316218239787894,0.6561817229602828,-1.460172734963811,-0.07659036518518175,-0.2613345317972461,1.5020927991750406,0.49190587135426433,-2.139163399692225,0.00029479674142388545,-2.290870298502789,0.2765825780013312,-0.333074547569497,-1.10619696774013,0.8091171450694954,-1.5873075288680645,0.4075952450446591,0.4419372624562911,-0.3209512258283823,1.3121878606208601,-0.711182366779098,0.5968016522677471,0.2078076430273802,1.9029425699705214,-0.41234329238521533,-1.8363735134007413,0.9660907219786398,-0.024624724456611458,-0.9585478844723723,0.23740955009130305,-0.44657540331377704,0.8848616877829941,2.584401021033537,-1.0146269921091244,-0.882800244543357,1.3310388699792723,-0.033769551253619225,1.3826726140642946,1.3693127725493408,1.3566281892673546,-0.5974105816905559,-0.6071728864639461,0.9269514336357229,-1.0408020601345314,1.5568785690095797,-0.016330508972375656,-0.010333496766153782,0.5239875823673195,1.0761107929774967,-1.630554875425634,-0.576182190798446,1.2536420965080515,-0.8977188819253947,2.523762073364809,0.07186779808227785,-0.4477834310512107,-0.36428273679473644,0.5772572678172695,0.9012882617278658,2.430226724206768,-0.21799685442254096,0.030362550459693497,-0.7686134155630556,-1.5562051383862374,-1.215294655970241,-1.8966707839078292,-1.0753496182707527,0.67408803194958,0.45472034390756694,-0.609365950763081,-0.28726813630994075,0.038041964532690896,0.9801309032314687,-0.6602655749107402,0.3754350869131983,-0.9300199344923197,-1.5842222487096913,-0.32801189307931194,1.1722383143211101,-0.43579303596126623,-1.4031953935149477,0.4960930134736351,-0.5205587953462548,-0.6616824764025612,-0.6752139169576339,-0.8362446950677966,-0.2149219783954602,-0.6395663166446157,-0.11703370177987477,0.28634042954948735,0.6350262437461208,-1.2077010659338328,-1.8418155117161,-0.6239012823776503,0.10433819240831674,-2.502433885440593,1.5861225866598025,0.41083139805088925,-0.6806385481332572,1.681205534795223,0.4930338483915157,1.21803365485424,1.211992533433528,-0.254217496362529,1.1452135425444117,0.42625000345318115,-0.1447813851982022,0.11654451428292248,-1.1612920332398742,0.045912853635904846,-0.6522840373738149,0.23006355299213546,-0.43836429342404304,-1.2539394726774529,2.258221740280504,-1.3546081301454274,0.8088067114096238,0.41020950817839374,-0.650112471804751,-0.13665446571264422,-0.8069501257468393,0.4297800774565513,-0.4510307831102835,-1.6711463086580716,1.307660001084992,-1.2413959460612192,0.24593384559907389,-1.4891276032271807,-0.11552097287353648,-0.9764857158031017,1.2918081130156007,-0.3223429423807581,1.308124828556983,0.5240859111433253,0.5550570952769829,0.7131171831403831,-0.043019821279013104,-0.7802071737408572,0.4248774972771323,0.14790267972597737,0.5326629361975493,0.7867906215344805,-0.19728721436948182,-0.028414631637090647,-0.9470163642883308,1.1439462892791816,0.000596140055354535,-1.4419939290721773,0.02780835010428242,1.896577518359379,0.32174217011693124,-0.24157657774799624,-0.492530132450264,-0.9240110209183185,0.07661010636859754,0.2176213131772852,-0.8582983564488125,0.7181526748769417,0.2865982957472349,-0.5989690040849858,1.56149873751174,-0.09685252486971653],[-0.981855642610262,-1.1131608265279433,-0.6579092071197739,0.7471767860129087,2.488414217752091,-0.6083435183143887,1.4534328535326486,-1.2017843898449634,-0.7028575445948001,-0.41629728988435116,0.10726256501579086,-0.8981764129905861,1.110275528630855,-1.492536418417704,1.07084676153362,1.5203407747358684,1.0533654946312914,0.3115531778941744,1.83497885411015,-0.5119603847112678,-1.198891922765931,-0.11691237942477617,-1.2612095623735127,-0.5260655953085334,0.8513371656656512,0.26874494544643546,0.4912709981476763,0.40035401638033397,1.304190931144235,0.7369217223866704,0.874240488858116,0.952780933752391,-1.2426764560968977,-0.19031798777289377,2.2003411978164227,0.9612615283552276,0.943964045469779,0.408539933377469,0.7765546622498072,1.308938303304635,-0.03965016724661438,-0.5425795653423224,-0.39067202480708,-0.21569849735048513,-1.2888833685491168,1.0202072457095488,-0.9011410530356994,-0.8733733936097634,1.0947481586778371,1.132519326311366,1.1757791272054323,0.5629537343318284,0.7670294326954255,1.6542519767587047,1.1517524250739617,0.4720937788841591,-0.5218805409551507,0.29532423768715743,2.0142224553939623,-0.9449881641900442,-1.257522681629713,-0.8052775442623954,0.733680164636874,-0.2914443608512697,-0.7609929352273601,0.8020474057419372,0.7877837561257052,1.4326412612722232,-0.38097282247683567,0.8202299210728673,0.649981534924902,-0.03088671573988497,-0.9379174084927542,0.01771877577719813,-0.07189030186742217,-1.4179910353088774,0.8113807418338691,0.585906158976692,0.08085629222497594,1.0047399153603198,-0.941014058434225,0.6736946127025447,1.1878693903914601,-2.0096706983581094,0.9264543959295537,1.379888594088981,0.3732601206745322,0.1779770308414532,0.38219071808888455,-1.0599956061971838,-0.3452651218188118,0.045032424409124416,1.567876756525655,-0.016073529360061952,-1.1300628274585334,-0.13473565197658285,0.6276030676576073,0.6342093576541425,1.3845734494230637,1.4210558257944057,-0.14035399914187485,-2.210528369998902,-1.056758382818701,-0.7072539480391509,-1.5029474139400547,-0.18624328033270912,-0.5867672276641087,0.40186962916699404,0.4543754415503089,0.4291893500232561,0.11179363356735184,1.5459758648807769,1.3353465294763607,1.6941286226861012,-0.8979718283096456,0.12224098563450311,-0.9131543161711101,0.5141953364711731,-1.1238074137220617,-0.1105998217886912,-0.24313568406153982,-0.5339536670305449,-0.8424885187774285,0.12097418112544928,-0.12791848728209468,-0.8046998807342715,-0.7198506257570991,1.3278040538307534,-0.2579359414720561,-0.7637215741369323,0.4393346529098811,-2.599151071268082,0.7182997392508271,-0.5029509132414869,0.41402161027049855,-0.6482758840786426,0.02666821536479016,-0.5969975146809327,-1.2445152501481447,-0.23670757266049341,1.8384397358034956,-1.2945870794017613,0.09568174945809096,1.2402330487888744,1.4865976139841126,1.6439702595539234,-1.001704295369154,-0.46125664484501816,1.024433442836428,0.625831841398448,0.5171460300139895,0.13247927024790596,-0.4183945624218049,1.6417795692009862,-0.8176046729348285,-0.7068150420483901,-0.13552534117746642,0.5053079039635915,-0.34722553112814564,-1.4347259600322921,-0.041298829108173875,0.5205832228563774,-0.07641734998691882,0.9048198809017063,0.9299337053693564,-1.1385747243285957,-0.2676279431007892,0.6212655430859177,-0.5865669255794196,2.463252060805695,0.07298155988026317,0.6481991842507709,-0.6022117712493079,-1.9305672860798742,-1.553971400334689,0.36826156367818697,0.6006395041999498,1.4390012911679009,-0.5553373631845884,0.26610239561700827,-0.1949884747424818,-0.31111438476673037,-1.5192407338305562,-0.9067640115004413,-0.22894920214884087,1.70047991003231,1.1110875590545823,-0.39525766846593674,-0.33618137416372773,1.1026460197986199,0.3637462219530134,-1.826106970450204,0.332531723835243,-0.25057682680902976,0.32104221330496896,0.12394770458831655,-0.35174255813288685,0.5713281483756771,2.862747878834383,1.2651390194621661,-0.5962976050578087,0.971172501522825,-0.049836055445439335,0.8600494666726222,0.445608808518523,0.3626130685020781,0.5110536086133455,-1.974633678420308,0.17443586647642428,1.2039528744687524,1.6195959259756978,0.31023653778726873,-0.15586322781239084,-0.6365013951466203,-1.8919195996482205,0.830383388155039,1.6110561224623496,0.7520273961079824,-0.9147801692158336,-0.3008980713025268,1.18959866046228,-0.4169514189058275,0.9316657773961965,0.9281385217347081,-1.043150119027804,-0.2941416788564096,-0.4024903125704171,0.009764573778720347,0.394199621546647,-0.21170975832960842,0.22933180793407185,-0.23164793376872225,-0.2575203800338737,-1.1902777673661278,-1.1800806399879447,1.713675149811214,-0.02370008237139962,-1.6579719132148882,1.0564960964130945,-0.7149960325884982,-1.4397234276182453,1.409267900039169,-0.2518373420353417,1.52067655457812,0.5008406364217326,0.9711702349266423,0.13974064881369097,-0.5437042396557213,-0.9230021465029452,0.6088816097441745,0.5697573753380272,1.3128370143366,0.3958879526598034,-0.3805706709041258,-1.486219175805806,-0.8220142950924343,1.6366592730271372,-1.0782738132382326,2.332615512082546,-0.7475999302576677,-0.6316104761830053,-0.32454222126269316,0.6014736042217068,1.044186199807776,1.3740401998854597,0.8243112514073683,-0.3433098806834464,0.3344124604354607,-1.0919340804195024,0.8145779668727159,-0.007760370779118354,0.9918293842766128,-0.22566070902211632,0.5709115637456126,-0.5619479478123371,-0.6067764572289575,-2.3678987285987785,0.4171895969583178,0.932008943585635,-0.7965814209338163,0.20200016703192902,0.3519991948689417,1.1945864719614678,0.4836940966268963,0.3562309478901395,-1.0812660325583197,-0.6685071817042704,-1.0079407594366134,-1.851868618574619,-0.0320582891613324,0.2512175865938762,-0.35363057715572016,0.3254701317899422,1.0591943334089386,0.31798399987014725,0.4053373001945354,0.7195395761860873,1.1630111219185209,-0.1379535944262559,0.1439346032142636,0.28619104291239367,-0.3348425579255075,0.8051065248624568,-0.9440056204425583,-0.3928471840040079,-0.08475386444470785,-0.20062528332293347,-0.10618471840322921,1.486427045276838,0.9891261469017804,0.8637905607293684,0.07289606308757769,-2.1299978165183724,0.17362637382828508,1.7466293106076871,-0.9177398718470726,0.1297172105938468,-1.8142368396040298,0.2671563955361984,-0.5298334593785432,0.7455727442349065,-0.8593782896796769,-0.5760573684558761,-0.43827703572223053,-0.7954725765515936,-1.4138063776089331,0.16940877746654667,0.8028018835642213,-0.13934164970101007,-0.8122922379686939,-1.2507252242413585,-1.542395741008351,-0.14856151524975605,0.388317476863017,1.2557421066112866,0.8152555862464752,-0.7348278118401022,-0.8435127144561555,-0.7588530802427277,-0.8703862125541643,-0.75508686954882,-0.09078926054991053,-0.01998393602234337,-0.4106570428535181,-2.2523476449344537,-0.4203734916286536,0.5006423292613597,2.4758217832994447,0.16287063311391073,-0.21253118261431297,1.273768083210663,-0.07835813882850923,0.14320474200387562,0.8097216157751549,0.15118363707895544,-1.8325646948635168,0.3310469049329442,0.8807902007657062,1.5477210624294586,-1.9044598117367026,1.5754346937704282,0.9954435772307164,-0.8279525898396772,-0.5999745467231302,0.9109392249754318,1.1326104061848403,1.9886328264541342,-1.2178231391038383,0.11193132669549215,-0.5750355471888043,1.168556654656273,-0.8577982834332759,-2.081558208781269,1.8841174841199484,-0.684800042562468,-0.20603740885999508,-0.4685240130100824,-1.0741794824038446,-1.3251009417878543,0.3928596059198344,-1.969068115068191,-1.3487061399608935,0.2536103678014029,0.7214475992797731,-1.762808346071488,0.4077402784052764,-1.1030590539155725,-0.006420606191731954,-1.579883123790205,-0.3289968824344925,0.5786956579176477,-1.7921512428771376,-2.842455454960211,1.4491235272006102,-0.11177868971532524,1.1115816047699318,-0.07368052388628597,-2.1867695240612384,1.5958660000732825,1.6936611891444522,-1.8576822402564632,0.7077777249414288,0.3532287470536077,0.19852483454997402,0.024163422799279455,0.7257952546119545,0.2904812922655483,-1.7151495948148179,-0.9942049565756651,-0.9608496542653515,-0.8610891190921514,0.5044325353717883,-0.7471869814530385,-1.2143828860914778,-0.8807538354052523,-0.5347081137387757,0.324763335032612,0.029024601396857624,0.5441885174772926,1.420341939966307,-0.8679952839237388,-0.4690527376644083,-0.06977751156613557,0.26719376557168995,1.42803163432172,-1.77542760734982,0.3433761792715075,-3.468901336687992,0.7220183929012185,0.44085505930237123,-0.9803015449794594,-1.2813234539499208,0.3463606815549535,0.32528149080261354,0.17940736925595338,0.3407694116288488,1.8574751727769074,-0.808759389624447,-0.5258879307848563,0.45259412965051754,1.580243541538465,0.013746063091928835,-0.3320657987002128,-0.08282050019958283,-0.09909640968516732,-0.2857700517438607,-0.6057794300628101,0.6083805143990828,0.23799429425332258,-1.9947834782433194,0.8532958602490124,0.48243643157496524,3.405382676407898,0.00027597586503750286,-0.5560649700500553,0.41606490599725093,-1.7309851673894676,0.9352788800693274,-1.5418090347255524,-0.17485793349098852,0.02895050773174374,1.901115580956022,0.3410710214843043,0.11586554616616018,-1.316722063885757,0.8453179410431689,0.9664212425909993,-1.3996293396239265,0.33803680314882495,-0.3391807149183727,0.11272715259329773,-1.8643094309091057,-0.995223946812578,-1.0298272107866924,-1.8374312687265022,-1.0988792099480225,1.5039240289185503,-0.17832267050023703,0.28121496654562333,0.28510258304558594,-0.41113659463307684,-0.3161311864294861,-0.8658997807233935,-0.5612754980809295,0.22980797732628777,2.2024472551441825,0.7273707937246321,-1.3857522441897585,-0.9569813433542672,0.4040556121850327,-0.025559154403432434,-0.400130840422364,0.3480699551723464,0.9342031669805136,-1.1327118781940062,0.5763231344132663,1.0433713318202953,-0.8055936365969536,0.34280255055053094,-0.12583272724645272,-0.0412824644666986,0.3662874605749393,-1.033752461335931,0.1406990790048507,-0.7632211850380035,0.11574317140856262,1.3491416949822606,-1.7848094718298415,1.033695337959659,1.9533418167169234,-0.7896504406350262,0.17872071070809675,-0.31857335201347287,0.4576618921441096,0.0002706096721218705,-0.398416245131167,0.28547772159731216,-0.8237500263589913,-0.8460060656561481,-0.57458081399486,-1.771440166931488,0.3197932726787176,0.6317423403472898,-1.94332865385,0.26369623974316164,0.70211212429136,-1.3664406745952873,0.9536676761473087,-0.7736886965418152,-0.22850925892735086,0.5331762625364209,-0.002035632584476973,-0.4594147429473616,-0.21938490671967262,1.085032365991184,-0.12038088264226696,-0.9594430241127837,0.02025990455211809,-0.6216287417174928,0.1778021041900629,0.23155971345859155,0.21224401942905513,-1.232216005730714,1.2711380828977168,-0.5096787055144907,0.2773523937433811,-1.1629895917725879,0.11125204115769186,-0.45729408829768536,-0.6295776666378268,-0.026129281315823955,0.25726358128664634,1.979731727376929,-0.30254996705944226,-0.9363668059025324,-1.0717559576653388,-0.7282183860859184,0.932960954880066,0.6586632277900778,0.2481081690934559,1.3804244239964152,-0.06998791666490117,1.142330267116893,-0.182833588894046,-0.31849287608379817,-0.9704557023767854,0.8880156964357084,0.19023983306952383,0.9549500725044858,-0.7596564694295722,-1.7784618111342558,-1.0902373092960072,-2.558405376454818,0.19064260222960544,0.34466047442664677,0.3092584038078598,-0.1522877505694106,-0.7557552070486699,-1.3407067038364093,0.6163365781039697,1.2193725326260922,0.7193087918021254,-0.6779603844340876,-1.3011522660210348,-0.10428529022015444,1.6027229767117588,-0.4469423513599011,-0.7822472494183871,-0.2663925499595462,-0.0014392359822305507,-0.7137794679793249,-0.4040869987217936,-0.6778938818534171,0.21055654859489892,-0.01357705858593824,0.6418918741937115,-1.990149607351959,0.9023015404836371,-2.1779678968085943,0.23235792623575893,-0.4411821260061796,1.21834118478681,1.4901636878358329,-1.2074518523405016,-1.319731243431943,1.315470685760116,-0.22101442027815799,1.7864316714441684,-1.1225579490887903,0.27248227807620234,-2.0367759526674076,-0.3259548618104251,-1.1483852852917225,-0.45953372312708485,-1.1350974705074415,-0.6259330503389134,0.5907242286583739,-0.08435032994655581,-1.1512241156926035,1.1671948959536662,-0.2973844880464495,-0.19511693138863428,-0.1978323728716349,0.5073522128209215,1.4110185800061623,-0.05681941500208925,1.1047234147233171,-0.25611922403156967,0.8127004754513173,-0.5003747049675609,0.13205650164621094,0.7151878665359044,-1.492584019299714,-0.39239919063331274,-0.5421672972484274,0.50611185555349,-0.3218022473681292,0.45925195664382934,1.994725666034072,-1.4169162851020767,-1.370068391074537,-0.21965641600490993,2.4908657961439116,0.1299151420862004,-0.7905076164082689,0.6697725621214542,0.39905216435503654,-0.3802608861547092,-1.0667204959560859,0.14383400213720848,1.7123346521327434,-1.620023910423728,1.9010892248063807,0.775021418715743,-0.08886158774363082,1.4524240414175387,1.4730545725112223,-0.9725497337222709,1.8796295547101924,-1.6420506532814985,-0.23696767293075136,-0.5161552752084253,1.318298613554815,0.028487193381405977,-0.8707450025036929,0.7578984813085484,0.10434201226744341,1.3025373258544521,0.001658049275952841,0.3542471691208671,-0.1600559916631927,-1.0814443432802108,0.01503070013849298,-0.7033880443907539,0.22858213069590577,0.7150933173964678,0.67141300139815,-1.8173687622265988,-1.206297386095619,1.2486332234464754,0.2772575051230926,-0.6301220123928053,0.4877175596988399,1.9045964330770877,-0.35016934943800015,1.8670750712461184,1.267554144255805,0.49947478144924157,-0.856945786244509,0.5255051306618999,-0.4913783784191945,-2.100271084928905,0.18075532157339425,0.08654795134324983,-0.486327206198212,-1.1043266730473873,-0.6535148563236236,-0.5406209044789785,0.46714489217145555,1.8324633235655996,1.2643083422819736,-0.3980350467864931,-0.6172237467276627,0.4808653031332322,1.207448836829167,-0.2956057357035831,-0.017090736391718347,-0.1190132816267046,0.2616877165424519,0.7301218058186841,-0.11282681337350495,1.5489622316697933,0.8549404505976573,-0.8131487828611952,-1.2629796796096822,-0.5119910788271257,-1.2400532925473025,0.5414811386723889,-0.03330306352926501,0.20284789921759414,-0.13564321687265823,-1.0397153192037496,0.2630925633467254,0.20123223422050748,0.3831358901830728,-0.1005555722714172,0.3104292012975359,-0.9988715231012999,-0.9195945828646789,1.0998092096688463,-1.3415584021054472,0.8703626328984945,-1.9039923057538035,-2.708803542041704,-1.2424226582730402,-0.3429971931232287,-1.4622073790512737,-0.05189874360901189,1.3130571476799242,0.989828818712268,-1.1994923618154534,1.9775861435934392,0.9031366144801596,1.6686214984640038,-0.13621951014989284,0.7509162481781132,-1.186634971372454,0.028717671951682913,-0.7540925967358516,0.9321662637758698,1.6078265345348302,-0.453583465045557,1.821086482099987,-0.19789391056516803,-0.958857005557559,-0.9255313210312812,0.42081727748373793,-0.19201071965188105,0.599393755587847,0.2644634933981267,0.8785666232353555,-0.1562807970200215,-0.11824008583520272,-0.4447249120455764,0.9177631387372299,-0.18720820096419058,-0.9097397607169908,0.36869506506416344,0.29007220840455555,0.1051862286752657,0.6640719292101459,2.1131040574520505,-2.0315045665991276,-1.432678149128356,1.6466729033551766,-0.9817569182208131,-0.1534295234879528,0.02234227719647072,-0.8568707003288526,-0.3271719824673561,-0.4845392281442357,0.36326100773960157,1.6498695206755676,0.8189874389893135],[-0.44894196271272707,1.080281254292557,0.12263589826171992,-0.4765031163617861,-1.2418004626600434,0.33513832760886786,-0.3552066128600704,0.9862191852231421,-1.3741891021749228,-1.8261031955074971,-1.1983965984260374,0.28717465990121804,0.29451697868963983,0.06649279948431393,0.5717198528746533,-1.0771533724099702,0.1475692463807727,0.33936622748503387,-0.11085355651328993,-0.0179724273690762,1.5892434329411242,0.8486010661132679,-0.2944186565605046,-0.9628943739800365,0.905688473346586,-0.40321832908381416,-0.1119357899029332,0.6732396125466867,-0.5305166947411591,2.476859203511174,-0.4469190376553348,1.5612244518092409,0.19267221638032764,-0.9180936969953732,0.003786549830287736,1.6218655044604173,0.011244533443334242,0.7632505619705997,-1.547305140142384,0.4468618742016895,1.8909824697859678,0.3574029846844779,-0.6995467958491997,-0.6907374447845251,-1.3017416755189128,-1.7918691483992604,-0.25251879845688113,-0.4295189592960098,0.8464246540575434,0.4972448669259421,0.5675750136651773,-0.45053867908800416,0.7353733381706912,-0.8633595603248972,-1.0576856778864459,0.5040013364324222,-0.1396813476483938,1.8563561318259036,0.7641284356706929,0.11020318223979286,1.8307277223763707,0.4858619210229071,0.8190268422040863,-1.41518574219169,-1.8007377208050932,-2.249689072136644,-0.29304936155769246,0.531009450909299,-1.0109248206383437,-1.1259329970032184,0.5154297541453337,-1.4677257544543139,-0.9671670097971069,0.025897319362408522,1.2797247030390628,-2.5241938184794916,-0.4473195260260017,-0.6678150561501666,0.24172520805947267,-0.6386392490892907,-0.03971577620172671,0.17951522017725038,-1.081440892421172,-0.39082724913403494,-0.6190625633098492,-0.9071605947755598,0.5531436074889753,1.230842999682182,1.2289360800839766,-0.3327013871048522,-0.21733798484017197,-0.49716017626134723,-1.9742208147204607,-1.1474735173475477,1.4450941185271455,-0.2655317998092043,0.2858828158227064,-2.2996665815626223,0.10602263645801843,0.5820977475091635,0.18579528246282614,0.038274875071983724,-1.0841755143901226,0.4347197267093565,-0.47373776649035854,0.8279565503182091,1.1352539398841248,-2.0631746163589884,2.0578960080585214,0.678065379108916,-0.4526494092289361,-0.7813244546771496,-0.5832811413490012,-0.10498193256930487,-1.174815631628997,0.5174450839026954,0.36764297099923343,0.5008462153197698,0.11076397949927437,0.10067875322953773,0.3565699758762471,-0.12472060862595583,-0.6309487140702217,-0.08435928044944585,-0.6510394839803009,0.5582548353085955,0.1789983636965822,-1.4950493235456854,0.49835117756358127,-0.5808751411727957,-0.6754990497855341,-0.5327759351878798,-0.732265454089571,0.6884383104367731,0.9234107197480017,1.0313037815174704,1.106997544342741,1.2077636254319568,0.9027828303902609,2.58577506881076,-0.12730260310693134,0.426448222462313,-0.5308625404162682,-1.7385457906863917,0.09758858939127911,-1.182835127455855,-2.1698626835218113,0.8816614057546711,0.3379724456401722,0.14723419679471636,-0.5925746758184867,0.5864780667533416,1.0618560279184437,0.025570313838531505,0.7480871897946801,1.201480765362518,-0.546659593211701,-1.0771759796953884,0.06565269394076163,-0.8540225713210778,1.2915486550964432,-0.26249635896873214,-2.001508127583486,-0.0006482603623229384,0.251629713790551,-1.1540459717406952,0.24427867393944136,1.252946672417822,0.4830579012227112,1.1186405291292372,1.6913718459671818,-0.3376104278441836,-0.7469267565447574,0.26826797850532574,-1.2780235382125005,-0.19071142425609988,0.14877551680725903,-1.4875686543424513,1.3207379941225499,0.5082081595519603,-1.131272011624351,-1.2921308398461206,-1.4399263552437904,-0.6973192189847066,0.9380936282888632,0.08668023162485514,-0.854331233238751,-1.4646145135359487,0.7410073041982174,0.36198104595536823,-0.3782739795016841,-0.4935164626537929,-0.43811660779129413,0.7761893386942142,-2.126945504360908,1.4362045032742599,-0.9453794159830384,-0.024502919823605206,-0.07550684689918086,-0.11321241371601094,0.08855974669175373,-1.5912646186777386,0.8231983403981451,0.20129457263875244,2.1958942398661265,-1.0376738641790855,0.637424910113989,-0.9768017642052191,0.4595433346403856,-0.8309522279656983,-0.21513047554790016,-0.5610965375707956,-1.166428326856345,2.4549586025973476,-2.2151346200031132,-0.579641284430472,1.1811910040017979,1.230806767064812,-0.9995622762323172,-1.2203642073498837,-0.4895034404855583,-0.08897285843968357,-2.211936239625068,-1.0129405800690863,-1.9842573211637575,0.3953004205027986,1.098746031358569,-1.6059196233993844,0.37916787433811916,1.7065606297917497,-0.9641570473859574,0.04208763269318902,-0.0467008622248082,0.5397539848478558,-0.6105287923133125,0.004112372090754744,-1.0545246971142914,-1.1212368983847059,-1.0816638029861572,-0.28943554559325707,0.07938149200551921,-1.2192097894872436,-0.7881162806525472,-1.8267313457805396,0.572194333726618,1.037062613708187,-0.8676678050167492,1.3165937173650024,0.7644548393791776,-0.11299584945800545,0.9847633554551939,0.39003886496227375,0.2242818696812722,-0.1406823255772377,-1.4299154580031523,-1.457852251040289,-0.27894270313288383,0.16691363076702787,-0.11877047124401204,0.08714125673276092,-0.21996476331598525,1.084748214750846,-1.2370229834386008,-1.7558049932555206,0.169702264222228,0.3902268817762473,-0.7230997368961009,-0.7858427249878112,1.7438250760052427,0.9416050704823232,0.9060046593861858,1.2635063216968294,-0.2548668631207114,-0.920527536555429,1.630158042676428,0.8305895990693248,-0.04080547037042472,-1.1736031685629253,0.1822630001265963,1.0521222014944427,1.0545032767759535,1.0893212124569862,-0.35298900857719717,0.0804318148648078,-1.364527424500212,-0.2947222485849037,0.2860542636341863,1.7455213258706854,-1.9206767523988804,1.2575441817978217,-0.3908987089537654,0.777263217477841,-2.0047198253090186,-0.24307983078682338,-1.973330548050677,0.4187783739593055,0.4268802047279424,-1.289554729982313,-0.3681102227808607,0.7514254413097516,1.471268408940048,-0.7433417574908137,-0.4177489955344691,0.08152760802317305,-0.7650949769670526,-0.47825764694449563,-0.815818577834487,1.4290809449033046,-1.7374467289920874,-0.3983419348584693,0.5259816601919572,0.800686127601469,-0.21546832061617585,-0.056702494261005425,0.9868361829142757,-0.23582336348755834,-0.24648712692721023,0.7124851962553519,-0.8636936233923042,-0.10181775896269163,-0.7516414747659265,0.8356466876458463,0.38202340889739334,-3.0721321954092944,-1.4165517089563595,-0.6029189723945525,1.1580049945992241,-0.24450846224106065,-0.8502310655341492,-0.6255739336921706,-0.9797063837112974,0.245022853144442,0.7819042406392075,-0.4917901629841994,-0.5591070867366762,2.326658702676838,0.3582917472163527,1.2709471872217235,-1.0280417344625932,0.37515455601037523,1.2747211618480976,-1.2721297421809605,0.04791872983687899,-1.2660252367005418,-2.626474495876768,-1.091844483690921,-0.6387117117411296,0.0796430577019396,0.22131990221960735,-1.1905078534047422,1.353657556967564,0.0695299249283753,-1.0071507072434789,0.19223180559045092,-0.11080694990660124,-0.5375201022281091,-1.5862992044327915,0.6593524768244345,0.3824535284984848,-1.0558397533322572,0.4625109750671703,0.41033566290377854,2.3289351494117647,-0.36772776833352333,0.7083318116088232,-1.1133674006537195,-0.7428388605124163,-1.3134938228292923,0.5906800604802889,-0.2917898157342475,0.5528212567902567,0.0037884747347994583,-0.09963237748454705,1.8811017070211125,0.23751593368862328,0.9365739646674502,-0.38593227908544336,-0.8378240881833524,0.6741178030234221,0.6120670903916754,1.7666669351522826,-1.2953057311722125,-0.048046159330937796,0.3107179633384754,2.4440825326330056,1.0054679843640308,-1.5436860125216554,-0.5717418849126122,0.9290212503162771,-1.462056913022787,0.6139613277984913,1.430173171461762,-0.40130533795403983,0.3477395217312445,1.1024430010849686,-0.5311951087605177,0.031538412415951914,-2.4605840301267556,-0.10588179764207299,-0.20854129638928634,-2.2726422559480977,-1.0859805820732271,-0.641830963345173,0.6086496492164514,0.37566857925007247,0.03360090969510385,-1.7312799920041153,-0.28457336608606426,1.031662745641289,-0.8847841419851645,-0.7274282439079315,-1.65539996670576,-2.3235217024136996,0.3868869653308326,-0.5520991650892592,-1.6961307403967343,0.24601887770475103,-0.8618759908966053,0.012938526520018695,-1.1267205964570557,-0.32285702555058055,-0.489367486722269,1.3045813927852767,1.2646279457872458,-3.2699758054976718,-0.47207399589877735,0.595670980288342,0.14033884663335977,0.3773982380034455,1.1860136997364055,-0.22997896145220784,-0.6395124016218247,1.1325022551108772,-0.35750217326126515,0.2305473126009833,1.0920447323920726,-1.052503341133265,0.3815372225516196,1.045861659808949,-0.5378965108631185,-1.6128724185921797,1.1261472646886883,-1.6625528886257464,-1.5217623136441323,0.1112865429261288,-1.074961391146083,2.4696512373892032,-1.5535944773845787,-0.25245014845840513,1.615752876578761,1.121345775983604,-0.3982302358770304,0.7661223175780983,1.2060268069875149,0.47570895481972003,-0.8741227308697,-0.29085861613864583,-0.6973237987994088,-0.374062196174188,-0.6272874963253989,0.6770579292206307,-1.00065634575603,-0.1732451615446389,-1.283626099675761,1.804273300108267,0.7799753794935089,1.1006182420684103,0.8951432566909766,-1.1497616560665256,0.22325163537142828,-0.2963601902626729,-0.8022312848120093,0.18138875836420035,-0.9094165318714479,-0.17424817826400066,-0.9496436466952055,-0.24290816567439216,0.9836924248949768,0.16533108411468686,0.024625778301537445,0.3246847919460574,-0.13557727483613882,1.0306091615036899,1.793839056995598,0.6336417271819539,1.13857393078812,1.2958293783241712,0.042829244482588666,0.42527455982805845,0.3981243987737729,0.8576607749250942,0.5644561719192686,0.8342835942693996,0.5291450247312003,-0.33772977693728207,-0.17731306020774087,-0.15344691672718294,0.1255444616223576,0.13594508360286311,-0.8581516129398874,-0.8170869184888168,-1.1435201900227712,-0.9195218119182154,-1.6616933391602717,-1.7553517230892735,0.7104196154930118,0.9561822279422153,0.6663478851404557,-1.728855108749714,-0.1333162423254443,-1.0605501071200105,-1.7214541065261626,0.6229737163897854,0.0971366651321141,0.4058282728625011,1.9011612660043833,0.16639183601821278,-1.2644375188330255,0.22306852463131818,1.3669503272444525,-0.7769362721430646,-1.9369074819586927,-0.7957590033615989,-2.782241850630654,0.21764667185318287,-0.9945740990748742,0.5211282542580409,-0.8829599988350523,0.6544763246519201,-0.1902602525815747,-0.16286762603247384,-0.9765188647358314,-0.5344013176396453,-0.6565023949338651,-0.5874452670660131,-0.6591680302846392,-1.0910570996604512,1.9260916230298868,0.6622264286423898,0.12391704715169165,-2.0509423980709456,-1.0523870055684743,0.6909035414456882,0.5542163328910269,-0.0908961097539138,1.3936268738409017,-1.1406928024115588,0.47889143197902495,-0.7436605243389246,-0.17440333783011525,0.5608937903081591,0.43894481428688503,-1.4334614808804318,0.7578219583859342,1.7436787571200507,-0.8975884606904118,1.4927256347713556,1.1070640892337948,0.1932819497372357,-0.5125644273988241,0.09536892851408736,1.9860650127194366,-1.3139245580527443,1.1689658733295374,1.9625618049311506,1.8970157906295513,0.526264037788111,-0.061437885914919464,0.04487277227150861,0.6849433345089664,-0.7009719500289362,0.34895466118145346,-0.8659426793858696,1.7081603217415748,-1.740955351229915,-0.5470129813975584,3.521537372980652,-1.6886398501049742,-0.19249185980414096,-0.8695089197633004,0.12485590561648084,1.5266213839112408,0.6801589828426867,0.7091692076077629,0.8464349446763663,0.17905251641941397,0.020630339598008487,2.2158214947903456,-1.5074048734812073,-0.5329821408995901,1.4888156001072752,0.5451592630280698,0.5022478961827552,-1.0517355757300777,-1.7229560146853895,0.9860295077673126,1.3910929768674691,0.9836014541367023,-1.136914509836025,-0.2654787344677236,0.20175965328996442,-0.13135907781718534,-0.7054999936841682,0.4871382880571986,-0.15845437571796145,-0.7799652436146339,-3.1857229876380813,-0.12811904131620175,1.7970919937612215,2.887016428952306,0.3402798898189974,-0.1893806921230943,-1.1166574451477063,0.2563298643764222,0.029460044589331644,0.09123267704408412,-0.8505998646488186,1.1056387976503574,1.0750321922254797,1.710376128534032,0.3729366269911771,-1.209295571278226,1.889278631996771,0.5611091898836047,0.9599201251013154,-0.011626055562119795,-0.4339528053738654,-0.8151509533617782,-0.7318774500375879,-0.1565462876701176,2.45533047644743,-0.41660032744584585,-1.422045149634703,-0.23393381141339967,-0.6826332110627201,-1.044977029235841,-1.6891404236617946,-0.9652913942985695,1.8538988100204161,1.910395095866178,-0.3226110470230361,0.1619676949033307,-0.478545396368925,0.5014769050081308,0.24437738150250202,1.5651616991739155,-1.1466679732621485,1.3590022885787345,1.352996866905107,-1.0495287856467352,-0.6482432142254432,-1.050943323425821,-0.01115223758377192,1.4125227491895038,-0.26067645917072707,0.20719038274939205,0.6484893848932308,0.43188968096990243,1.7847923566629813,0.5958860173434248,-1.4564117269424015,0.49493832596730425,-2.116218661006081,-0.7610917355717848,-2.6593553101881025,-1.0000696652302417,-0.14351786123788965,-0.4876448393435597,1.195252161002544,-1.0012138991577915,1.3779425478858847,-1.3482852386110455,-0.4662787237155829,-1.1785284810450976,0.36786084426846594,0.8346794529284989,-1.4965992229258769,-1.2869901106821886,1.1008656809975297,-0.8800682261576397,-0.2274516116421921,-0.26456128006630547,0.7736198069553977,0.013580797465255713,-0.08836288618117687,0.6398127242183891,0.9545155270077116,0.18946390596590112,0.12050900144388038,-1.0160732198969338,-0.2441737926585627,0.5676337761889475,-0.5093240799448286,0.7158084125270718,-0.11020280726428755,1.3614938335509268,0.9022194672109399,0.284959348504726,0.9045233889380955,-0.018042503226073866,1.1360741759499542,-1.5831213623366571,-1.7548994050352846,-1.2611539391441093,-0.9298612766575673,-0.4830090385427489,0.7859471209699715,-0.9687125664190357,0.4853853772178189,-1.9145121700477956,0.6763312496452186,0.2606387398423393,1.4923690897922999,0.5580031046988709,1.2117983485810155,-0.8521318931187855,-0.09565658006425992,-1.1723065774006385,0.5140798784741751,-0.2216490842954687,-0.0032163040204685814,0.06905114738770177,-0.031128767664153553,-2.079485799846355,1.355266157544441,-0.5379199188422239,0.0090168671159551,0.31926474294642954,0.6054303469161008,1.5247894318151132,-0.554341221922654,-0.5367551173525011,-0.658112066125938,-0.6884172382718431,0.36371139284536835,1.2050218249869007,1.0396395599421713,-0.272471674125264,1.0173543351263703,1.2439360504916812,-0.7394978319013878,-0.7202086551045271,-1.0138199404241568,-0.1082817420295195,2.380207493900497,-0.10809869268331207,-0.37767146041139216,0.2970708897609424,1.4022101285104853,-0.13561998953880952,1.6468370037422808,-0.5505935869013598,0.8078056882893323,-0.3171670588373528,0.856600033232127,0.5750852166074749,-0.4284783856319556,-0.024214274598021175,-1.1053169660445639,-0.2941585409097301,-1.238720328103378,-0.1171041475212703,1.1643076590172623,-1.1803241507999733,-1.1361957998642382,-0.8000162862889608,-0.5582151457368377,-0.4776743167468297,-0.054783708844701934,1.3635854947990984,0.396734890363947,1.2952184312186532,-0.8082804640580576,0.9673115982786161,1.3649678506832301,0.0607847407710082,1.9414729230547907,-0.4618610542354218,-1.9573272374307102,0.23369099418858083,0.008143509228077392,-0.5901439754549602,0.2507435983244583,1.0943965735949663],[-0.025579973555187426,-0.9904201480335418,-0.9868173694457586,0.5726845411319664,1.7442898429220988,-0.15160887237769208,-0.8579769576907463,1.159850886108443,-1.7060522888316814,-0.7198500347880862,0.9457855684951603,0.6070275854515725,0.19560468039814813,-0.8694635607883183,0.7277627481550678,-0.554562342646046,1.093961106950174,-0.40922999452616377,-0.36837377098057,0.39387536615257074,-1.4080920040546498,-0.26363832562406325,0.27417924144160416,0.9233826415865851,-1.1109874815808372,-0.2698410560982951,0.701772536314858,-0.18084794575375127,-1.0598973080106233,-0.029220262679008353,-0.1456768140455679,0.6646471958375895,-1.7800634890155933,-1.4137296679188291,-0.7344504971133127,2.1969886623999795,0.9825438116492288,-0.3263409254005031,0.5361716754560405,-1.972242712733973,-2.4081560435475917,-0.22449455300141896,-0.6558179204609551,0.4531714055422444,0.7805421201067759,-0.21695261433837862,-0.8165378446238691,-0.5928288558189687,0.5819691402941031,-1.0439796630255274,1.4999178942671914,0.8147228133266537,-0.5657283455191142,-0.09809768482852019,0.10082178829777183,-1.6768727601428541,-0.6419320276093914,-2.064747858718049,0.7802759100029204,0.27592724510495337,0.891056191512466,-1.1066341335424061,0.7418096842039419,0.12734154053848548,0.750028723257602,0.5048094880031129,-1.5238830998659965,-0.9472113076422256,0.6719944443683659,-0.6520712412658658,0.6132144285728974,-0.14139928700671356,0.06357073899673642,1.591617997256844,1.1939182037253206,-0.2855268636038566,-0.9224294825447544,-1.4570292800759634,-0.034259169834301516,-0.6422945271209922,-1.200745722578957,0.9622043783015541,0.3747324228033961,-2.4589874306283335,-1.4999691531054111,-1.5558732977310035,-0.4174209134039488,-1.585611062337754,-1.068194071615018,0.5645272471315211,-0.22386438322388766,-0.3848367077011922,-0.332632244088654,0.7201184059084972,1.0873687482667602,1.0121750736932684,0.6275260183298641,0.31746732921707493,-1.7773198732100781,0.39402041666383997,-1.0102470159290862,-0.039762468281522426,-0.8517268688538397,-0.607032722370131,0.43242857971966703,0.8751801620584763,-0.7626444366452367,-0.3549688148384321,0.168802528618625,1.342356968360865,0.49888585214486264,-0.8298871838641004,-0.20243872444027472,-0.2758321119925248,1.1890739463945552,-0.4818734704748706,-0.2220698025001396,-0.7400062327032015,-1.7384760103477392,-1.0160167666046325,-1.041015855368075,-0.13482956088594972,1.2320913459208451,-0.6988961782869509,0.07064085733293927,0.6385970330521009,2.0066549611919653,-0.005939019322105846,-0.9206002002391755,-0.9867282036641538,-0.941928979416258,0.3748522223852402,0.533434480446606,-0.8650235886535245,1.3300487101754683,-0.0923938385875008,-0.1215892436906234,0.468645239753894,-0.6046989852353896,-1.2993938691029379,-0.06659738548930287,0.24194551852009893,0.5130598328536606,-0.1962369869524045,0.5397586901874573,1.435256087971357,0.1481871667880371,-0.705271296759604,1.4463799697724586,-0.018171932238118853,0.23546878396382884,-0.5960542631174262,0.8150681764591983,-1.186039038297291,1.7727900258311806,-0.08323089589339472,0.38255391711981906,1.0881502386031274,-0.12959814709136766,0.5346195464283626,-1.3464527317245105,0.912539054743039,-0.28105071624762,0.8910305796586288,0.9799392853949431,-0.43565635922759155,-0.5909941198025959,-0.7003420563103437,0.5837882496317345,-0.17526708066356944,0.7230984057078628,0.5071744965148475,1.4458316135541323,-1.8703668886799456,-1.0104919606392002,0.0864464823879626,0.9423190297734478,-1.101275678389674,0.07035721652247363,-0.660642753595157,-1.744434681983832,-0.06030623997417474,1.3313562076767498,2.397712962104762,0.33470320708357065,1.3999306859981815,-1.27895413152756,-0.6481210525135875,0.23316416842424065,1.61535144742418,-0.9839562916357643,-1.7038649387168936,-0.011359830062474372,1.5667664624563489,0.7653248743861129,0.39570609644756516,-0.4429740247332981,-0.46432940191591676,-0.8792824989972554,-1.156085597573065,0.022888298472917463,-1.660787968920518,-0.6473729463856485,-0.7082570059939622,-1.02947102497224,0.2588786391317621,1.7206464210237307,0.5455571114453105,0.16466298194522125,0.8475568063021346,-1.059746930396264,1.6082763494979344,1.2817328476029939,1.0898259202348362,-0.6916399959125221,0.6818346235766367,-0.35548286035954335,-0.40324759744396216,0.44183953571140844,-0.7821020531820981,0.6955425347461374,-0.7433791895529412,0.548473073466999,1.1494835008102018,0.7377004179054422,-0.587284056960365,-0.4167976001956175,-0.6847155878120378,-0.9264350643950545,-0.36705000596084014,-0.6644312469700323,-0.853415730297521,-0.32331745908883525,0.7655841389474183,1.0978524063970938,-0.7613775590210269,-0.21399784517616696,-0.05898319237272466,1.732428631351498,-0.14173901435909594,1.8229972003604542,-0.9299894929872539,-0.5300040454237204,0.4173281672205224,-1.8275801411055919,-0.020278368944662856,2.3448451758278592,-0.6519748765041283,0.15831043080271995,0.2507606109244037,1.6951835688185126,0.46692991968150444,-1.7478208401490716,-0.9752665469036399,-1.944764790391475,1.216785618647226,0.38205720725956754,0.0764370568708098,-0.600019160743092,1.0962159717052544,0.33848586516001367,-0.8565628252123313,-0.4257059901625422,-0.15494135182047822,0.5523696402540051,0.4142722165647159,-0.35885482271583924,-0.6329734291321496,-0.12898642955086217,1.9524380442872822,0.597479304420418,-0.07040584466708295,-0.8636176393180074,0.8615944774000746,1.7533972442372803,-0.15171430801069985,0.3388699304676679,-0.5819633259341723,0.8819220535634305,-0.9760669610806832,-1.5361577300604825,0.407836298057613,-0.9947426301706431,0.0507828602861851,1.287943688531747,3.4028176621425614,-0.06733307400216097,-0.245836466522144,-0.3129000966801419,0.9089444725037719,1.2307613889475442,-0.7507922604140681,1.5096578192979777,0.13730062432479026,0.25840880765631213,-0.10302225808891272,0.43321575365524295,-1.6959172828592919,-0.1704091205515976,-1.0741967994475754,0.7522562387719655,-0.35909791383919915,1.5496510537214683,0.7401749761797619,0.23408664756392708,0.1889016444829499,1.2686524024867865,0.749778694566851,-0.12948337441130864,-0.09387976629449991,-0.912300031727357,0.4879226163801388,-1.8457174507068688,-0.22931461711659168,1.2731570905859713,-0.061849417175705475,0.25181586634022035,-0.913459054591565,0.11339185300413662,-1.7548136646456562,-1.3902548053223787,-0.762238927069212,-0.05123446887464058,0.3185024622836356,-0.1690950887319988,-0.07482238574841212,-2.030449044728289,-0.8759372379887527,-1.462391332709021,-1.1331099125681192,0.8192419507531364,0.28389464351473753,-0.4381675841175415,0.04531293911668058,-1.8608205512942213,1.4779504397187972,-1.1943529054124953,1.2547348484129597,1.0785255401341676,0.15722273626547667,-0.05743386073559273,0.49605455753238936,0.0086218529263721,-0.7486797985685232,0.5747443868910765,-1.813933437845288,-1.1690217200015711,-0.8916286739436968,-1.224523205357395,-1.215572504664711,0.29175479339326854,-0.9227944249867128,-0.8713526515344578,1.2087130381829319,0.6896732719462363,0.5849606745536825,1.2344883265078077,0.8344173976009793,1.7600924316978868,-0.8743159900734305,0.04856647192029484,-0.9191356743354925,0.8602638277267978,0.21841055355968284,-0.6395439936065865,0.16047277648819638,