{"snapshots":{"0":{"biases":[[[1.565136451012602],[0.041716677515749326],[-1.23696391742366],[1.2755524088564687],[-1.0374592071695996],[0.4023756010518624],[-0.31252648571757646],[-0.4613200476942121],[0.5381284303922584],[0.47369106721753357],[-0.5308184822747471],[1.7417321376884116],[0.13880293892100526],[1.3598557296916065],[0.5925502068793851],[-1.5403634648893785],[-0.11465804492691302],[-0.3980034893191847],[0.4190977676159023],[-0.13664816772050328]],[[0.4259864524063027],[0.09649799375337903],[-0.3305994797113129],[0.4080112115020052],[0.5596115429839673],[-1.1937193114477118],[-0.47777932972967085],[-0.27220452670389894],[-1.194690385354466],[0.8973303544889148],[-0.38665065151423383],[-1.490872279006093],[0.60946221974519],[1.4050534951831537],[-0.3192963606019069]],[[-0.39920379382233406],[0.16330963519597722],[-0.04690276032821954],[-0.7276574612602786],[-2.0991470688036946],[0.15896976397331317],[-0.028956476427576473],[-1.3379655500553138],[0.6755504674301204],[-0.9014570352546439]]],"weights":[[[-0.08043957800297674,-0.7875155427323512,1.7277443480748282,0.4889001903186611,-0.9666734868550435,1.1489821860401312,-0.9055828026973058,-0.9023114458585401,0.13342905494366764,-0.6345679575935774,-0.09185895121540985,1.2987164819377262,-1.4916069533847167,-0.011119695837295891,-1.3393251880880341,-0.21233989098716388,-0.5510646434273758,0.7729113247528162,1.2548988168730826,0.1507754367836467,-1.36693292381763,-0.6280993765753146,0.9182373173299148,1.1707304319612757,-1.8350090017923637,-1.2148168404379067,-0.06611184557291697,1.2937291747953783,-1.3131560229151213,-1.7478148015974473,2.5385755839201467,0.3822146127607152,-1.059397200842942,-0.1852013913507488,-0.6081687350111106,0.5929544798168037,-0.9629608674717631,-0.1162957880954091,-0.6079927554993079,-0.968428012634665,1.3141181781384073,0.15154829846482434,0.4780938222766652,0.8838450611893752,0.31403210059753167,-0.1948927454407825,0.6095966447907425,1.0730345972362343,-0.4941859586654065,0.8140200729163226,1.7856749921075463,-0.8180822707376362,0.07692091701633069,1.0652587336069494,0.3471321326609585,1.4917778097622971,-0.3766094494732783,0.4189274104780405,0.06917995392868087,-0.107978184767492,0.1308681778016998,0.1532226728365205,1.3491553943772185,-1.6710607255759427,-1.3609834950881439,-0.3817324155139229,-0.9308170911566889,0.36261004147605935,1.2957932603556388,0.7056976075675824,0.234446976283797,-0.08990322419017724,1.091517556278981,0.9719901138784972,-0.47570480746336047,-0.5642219698437949,1.3687880526496945,-0.0228154584700178,0.8222548445695836,0.1245854116485771,-0.20907578429502713,2.3134006870244384,-1.0529551575591969,-1.4448226841652079,1.257969726196629,-1.707337247771228,-0.9403123171429977,1.0913975471572017,-0.7921462901585685,-0.3597119912384482,1.1182468919528448,-0.04380658649742261,-0.10240010456085774,-1.3998490820615017,0.654572251845299,0.8163184053400241,-0.5364281695039531,0.7803717881350246,-0.21579396209124987,0.047046928419783904,0.5400909681614435,1.8323262358634225,-0.5593843933855687,-1.419092491203544,1.8494752379179338,-1.1990703547987824,0.2716441369117655,0.8858996847606493,0.2066955162282954,1.7913246270811738,-2.6010307125596763,0.6446659866042351,-1.2752459880366582,-0.38093998845171073,-0.17300992165776322,1.520661336535214,-0.36739715237367954,0.2915082609293097,0.23474838543971577,0.39345945175204244,0.9733943846045238,0.13987226725992888,-0.10189604473734112,0.030481965611549346,2.2089391794706836,1.2373489458873326,0.3272300456588596,-0.2279282634476752,-1.0529459114560014,-1.0658051890468747,-1.5000331853301512,-0.9386209996169687,0.052876342714627406,-0.839972134760034,-1.4367346077943122,1.055620195370906,0.4207452373408146,0.8910369813246358,0.44644567167629595,2.0873939143939837,-1.3892862221503182,1.859535560947065,-0.38036987029800856,0.8107660027354623,0.199941646970439,-1.4904051577877602,-0.6545847988311757,0.7133633700203951,-0.10166214018581166,-1.3858842712219999,1.8069958617596977,-0.7996263840099259,-2.3281529386060837,1.1078643278374314,0.7596036276252867,-0.5579547537972621,0.10414215982919674,-0.7877214562933877,0.14452435153034146,0.292844045341712,-0.39284782551371195,-0.1275610895884462,-0.2771121822761913,-1.1653325523534455,-0.2648215662373414,0.8535456404816893,-0.1810730831489957,1.8001699050582074,-2.1194795541653004,1.0201135942350017,0.12174710733485784,0.7283068135158826,-1.3115304056362116,-0.11140444624613235,0.01791289395149169,-0.21149253868215662,1.9198436705714674,-1.6720548331568974,-0.662859159992877,-1.1109626594162507,0.732200869369426,1.173604591438306,-0.8879809027953773,0.11692816960738923,-0.23078005890298886,1.557680979490897,0.7369994681276342,-0.014672291564303256,0.021729220092267756,-0.7392015713569469,-1.9972970820030815,0.0026637925985216766,-1.6606295364931587,0.07374673957106223,-0.43055805837997374,-0.9105758021486354,-0.7950499737777093,-0.32962672926428366,1.9510599022525834,1.2024091020647214,1.7482421525405905,-1.006603601461255,-0.524688319215789,1.2601554199917708,-1.3119895550837413,1.0078084289306133,-1.7172129667697136,-0.5278433274093993,-0.5399392934092042,0.13865870980912362,-0.04521040057165319,-0.06841776905552141,-2.281110862135388,1.568080922966474,-0.9396386449161654,-0.7638161577509008,2.3533668293026158,1.03729609413829,0.6759258914052827,0.07283935420738108,-0.020728865490736846,-0.9728872211896747,-1.1255551901663632,0.9694771459178522,1.3990052771701562,-1.402679841357918,-0.7404025472301096,-1.5409278171861485,0.1552738530795555,-1.5754987422345004,-1.4921784700385794,1.0179601038610797,-1.0615045892701054,-0.391620144314339,-0.712705271878946,0.392588591368824,-1.2200568761464836,0.29164699782231124,1.3406854322117703,-0.8893046344492499,0.6425366334633502,0.12551388387669177,1.4035399601191754,1.6191089114737367,1.586740635090687,-0.6314764438919558,0.06917489854818175,-1.1731508590273798,0.8627063746632178,0.11055313933390758,-0.008072264584800284,0.6368411611725926,-0.6854176405324365,1.2741055045702467,0.596904691207457,0.06532715803252516,0.6352247562259272,-3.063193903867595,0.9675832038119473,1.8981027285542673,1.0071903343734643,-1.6493984963307973,-0.6446780289093418,0.19715451056421668,1.8471415942433278,-2.350318890618183,1.7332205912406629,2.922835543306481,1.0630954467720017,-1.1489374749865415,2.063429705333472,0.12036671256368153,0.9270949521097579,-1.4922060072675252,1.2792858304675765,-0.13760817576938475,2.1013459634982987,0.48489122989397077,1.1256948313666448,-0.9278297849503195,0.027921735764114657,-0.21027390213922229,-1.6597682968292502,0.1899469848566243,-0.20698887641697697,0.08321695477579409,0.20778349640845692,0.38416808373115807,0.8245741240114168,1.736714196886975,3.094248722204243,1.7150525863503963,0.5901014620250642,0.9286118192421947,-0.48042012842876824,-0.6583077278881314,0.6960864482018044,1.4956983016546528,1.368077697995017,-0.4612529794697307,-0.6929157513063563,-0.05706952905260946,0.456687395727494,-0.9815600430537262,0.38550427246991137,0.28010296401302787,-0.9083962659019487,-0.9053369836290815,-0.7315169042245107,0.29493474956963395,0.18767198401213578,-0.8316578384624226,0.949263742971703,0.5763871407247952,2.517629147548214,-0.4010441618627507,0.24762400920660538,-0.3386757119649837,-0.6259205119821414,-0.047012517065530474,-0.0253317590527132,1.582546276413473,-1.263004168568368,-1.3012495933904134,-0.4097744010305422,0.7131799121805785,1.892917005725991,-0.4480491148268402,-0.08383100091769242,0.6208210234470803,-0.608422633456837,-0.1631566961414199,0.3933325558270294,-0.12036978672817718,-0.5182937095443272,1.2366690905007918,-0.9817948169658526,1.961579601190656,-1.9343598465870802,1.6362748274749668,0.529951250429537,-0.1683349966458568,-0.4054873221308057,0.018755405523122645,0.033742801093547874,-0.31267898909932734,0.30274914050518226,0.4054916417357608,-0.4871626813329084,-0.8981875637377175,-1.3157893622953483,-0.3792254130539775,-0.4024262358246138,0.3659051389387597,-0.21313495482888084,1.615957072856031,0.9996867396032321,-0.4783001374371833,-0.6422473184061864,1.3711306106079355,0.5329657682288763,0.23545938292585875,1.585448768871173,-1.85093495701846,1.7187471847953466,1.6591826314477023,0.299908617050307,0.4689218937711788,-0.36532925551141476,-0.772893104233931,0.6342136417949681,0.5586226357187719,-0.2751064330785143,-1.4446832814316457,-0.40494256335200857,-0.47394266230775606,-0.02190716120883441,-1.8486395103291884,-0.619678177214092,-0.9529898294037791,-0.61382727863961,0.2546236996255312,-1.0637204327331464,-0.7429466550653161,-0.5351945985075917,0.34323741314271966,0.14302798641950792,-0.5810539304816614,0.13198085003799157,1.3646897994188762,-0.22604328289504455,-0.7941525066703462,-0.3107565991691172,0.1660402441842936,0.04872174442355012,0.06814877592032649,2.0897991101386446,-2.2603478682045717,0.17841880229350449,-1.5599554519973118,-0.507104204371137,-0.5613386618074799,1.8899482996126704,-0.9322467121240331,0.42990917127078143,2.6056939367410306,0.2848503197218042,0.5644624351894912,0.024892957592803272,0.07753291888098822,1.4069135912872248,2.2254351009522026,0.619565287880124,1.0004899095850328,-0.6627242415863711,-1.206874381916796,1.2406951008975216,0.21687167591682638,-1.7054763016727144,0.32140497683891894,-0.6466345250845159,-1.5136072278424921,0.16581563729619075,1.1184044024778639,-0.8518741193123712,-2.0568357798737527,-1.9201514122716352,1.1813640696230239,-1.9466415958987966,1.433605396803917,1.1455897513897724,-0.6380681675660376,0.10786064928145646,-0.342541231676662,1.2690898321379864,-1.3085000541629292,2.1414143130185836,-1.723688392583427,-0.8273583215307584,1.444301776988066,-0.3639065506628981,-0.14148264202564706,-1.076395402212359,-0.2718424358977197,-0.2483562128220974,1.6673472926952067,-2.5317761213012804,-1.8634202703222331,0.37125296804210944,-1.1605693694648958,0.9721927494503171,0.21865460173835338,-0.30874976583076924,0.6513303914469127,1.0866014536106972,0.5462771345984162,0.6551948971113838,-0.6239463318360122,-1.6530264332023195,2.883063292531763,-0.25661681987919316,0.8949403997030864,-1.2409020619675648,-0.374298821999952,0.9858888605278592,-0.9876561400219873,-0.8008974677178626,0.21301984147252456,-0.6422110898857226,0.6340103301908273,0.8178997692737142,1.0360295039124034,-1.4925032851329234,-2.33671160598215,-1.7843999290683827,0.36958938234394223,1.5775329109467553,-0.7553307007387674,-1.1211488405617942,-0.13707388172409904,-0.39504290113156215,-0.6378997158874432,-0.9869662881764214,-1.2958388022034424,0.14127222636464018,0.9857038531101203,-0.2963350931947994,0.5064492893645718,-0.5254400755072313,0.07453344026214694,1.066814886874018,1.088085572072859,0.9778964613947103,0.6123863945908644,-0.5418956751301065,0.21192397127866647,2.003356382930182,-0.2783225877475544,0.8007016547071766,0.7545340592223717,-0.3790776431045228,1.061811848936259,0.406649507648851,0.06471848805945732,-0.47240641400742744,-0.7777110458831653,1.5771784578798107,0.35993888225594917,0.6118982068131391,0.3799248868029694,1.3171953169086856,0.9182896573057799,0.9758566337506696,0.4159557121345723,0.17238408340183015,0.6311995865775782,0.39483961141416196,-0.06651410964606227,0.8711050675380686,-0.11311643083717503,0.7430296984588135,1.2002244381457605,-1.8423067349045883,-1.407797234372827,2.915384171027575,1.395368633492017,0.02767973550005386,-0.09948490963081705,1.087950284803641,0.16120486870291836,-2.179880848807689,-0.5939539801154857,0.027520487128676607,0.9851772159271414,-0.2613944742951181,0.7154081052586251,-0.053558373761785155,-0.5385539126107608,2.639875649560669,0.2415851374457855,0.4668134585857426,-0.23281072655158266,-0.05989629991650469,0.390722409780393,-0.3005702187377327,0.03156115853083747,1.1561738809403606,0.6738334132340186,-1.034993487677876,-0.25917917410557695,-0.8998755133307883,1.1756739883460632,-1.05561808968202,-2.0435744300337606,0.7600665470399011,0.006988557389507503,-1.2707002126546028,0.0143798468777043,-3.0031756866402186,-1.7593632631688063,-0.4670747425598381,0.2422334844306336,-1.0977923725957788,-0.7503773598207689,0.24689909736159865,1.2575503665080345,-1.745699254771785,-1.2685899639154807,-2.503734234563893,0.3901724710892079,-0.18575514238273985,2.269921158149554,1.0188575497944632,-1.480387873724571,-1.2130648362227157,1.178505467060052,-0.3145611829568109,-0.2158385322044568,-0.8838508727173721,0.11563451445352275,-0.812098215865284,-0.2775930123981322,-0.068475483269854,-2.2868350093860914,0.061361104922588706,-0.24830473479196583,0.5232427253430173,-0.43978620085247533,0.7483770848457001,1.0372820687633741,-0.6131869837907679,-0.3279945424889062,-0.5376248087608827,0.18243099902532786,1.1005382148083382,1.3063754091718733,-0.8662008525611253,1.134192407617191,1.5792496619398717,0.4542795733193485,-0.8250818982741639,2.254976633037613,0.5986336874066046,-0.39616265333683737,0.8138181794484795,0.08507361706633661,1.2665731014049968,-1.6187520251817167,0.3378532647888052,1.9716492304674536,0.19692628369899504,0.2499403949758015,0.267191368974381,0.4555712772741744,-0.10165672406279802,1.6189453469467223,0.18245801471489284,0.7347244798272601,-0.27277159614756147,-0.2069808812528165,-0.7978919738703095,0.7800554790185742,-0.23948133579962277,-0.31040940701734177,1.8353044411391715,-0.46563071278760293,0.34035652577701325,0.4519084524242931,-2.2398705803062535,-0.38835948389984276,1.541964225729772,0.4913846604645834,0.3909052753182309,0.3276403705382251,-0.49250256667726144,1.1533815015909716,0.021483322959088984,-0.07076916240518048,-0.789370746490041,-0.6457577039193328,-1.2380515092387696,1.432016743613511,1.2404365842276193,-0.5689787428658187,-0.19918022680585068,0.3586021415448421,-0.14302166882254383,0.052107594338799065,2.0697800775361537,-0.27402315578120173,-0.20964397872292687,-0.2941795136560746,0.7175585926436292,-0.4511555723448378,-1.3135841821548,-0.47693315002613046,-0.10984051363962968,-1.6021426905488192,-0.6703436754473193,0.201083585111809,-0.18330561329889844,-0.7084397457857877,-0.6223959064869785,0.5082331460327799,-0.3567880891921921,-0.3742058939356869,-0.7291828953969297,-0.29371010618713284,-0.5934240374535755,-1.0957545384764504,0.648174892515154,-1.1946387068475282,2.178422364100258,0.9102263104996225,1.0469939392795586,-1.3222855932141462,0.7136569389443412,0.35226214558375696,0.32857852837385426,0.44968725514531493,-0.7821578824983827,0.40887141970051316,-0.3970235604672593,0.24915925782931167,1.0387207175501967,0.646986102126498,-0.4848899914442181,1.1258784679511873,0.45480987504311654,1.9525334148989952,0.32467926530544494,-0.431438174483007,1.1076237544806724,-1.5594283728858906,-0.31248820239384006,0.38049073363102,-0.23592325058134922,1.3747301407964618,-0.710414000961465,0.621031116986135,2.0519290517923268,0.6869021442808787,-0.6095270827921986,0.8227772753744402,0.022426569299144293,-0.36642936366201795,1.3166668596261013,1.3718727476283041,-1.2294061781120655,-0.9713019529635905,-0.9318679951723627,2.2241372640130677,1.78987933054776,1.7677081670483783,1.1578453880549842,1.1107869538690978,1.834636636122543,-0.7378635687124532,0.23276075508794333,0.29549712008169166,0.14992790093475322,0.8065633514766887,-0.6247579823042104,-0.7314660998009763,2.1038896972891323,-1.5998333070655217,-0.11031421022225167,0.7536212968404624,0.3901953361865361,-0.5874098434133679,0.1696451595791532,0.4024177741696978,-0.04177119525229989,1.0434009076163453,0.46057705926294246,1.1965289837066584,-0.5929133731663839,-1.5923620791406787,0.1089086530235582,-0.7653636184171757,-0.8242620843402867,1.5620307011176082,1.0968313789748836,0.8557823071159104,-0.11614228687680363,0.38937202785795694,0.2930513875615354,0.17451066528543796,-0.7711055470687859,-0.7429352308014834,1.0928831238725547,0.7246005305989475,0.2004715809639145,-1.7881814341052342,-0.2835330331775527,1.144772688804716,0.7326788869559063,-1.662960627632143,0.12645098846671501,0.10522435744651905,-1.0919042368915484,-0.8174305932779683,0.5398388961977433,-2.1448589459005976,0.23006969404031224,-1.3960210194795835,0.6291180244606271,0.5662195397985965,0.0014428356975235846,-2.743445047976448,1.1193904862811297,-0.58638876869749,-0.6803146282307535,0.04193578214866703,1.244534291381365,0.22151951626747776,0.9237026648409409,-0.5938528060277625,-0.9148611390568215,0.12548311284668728,-0.6216348184383632,0.07334119674426864,-0.37094741592993574,0.014293848938811622],[2.313756888450099,-1.2870616870512765,-0.4908767650960973,0.5895243511234352,0.2611373079940967,0.0075366484544780125,-0.5159301124726653,-0.3783655204340634,-1.859653216811943,0.7371687981729241,-1.6686899294315392,0.15721698836604373,1.1397477093529793,1.460787746541153,0.6301064396618655,2.0557346820299243,-1.51296366932036,0.05954409617012927,0.14188637500616072,0.06370256589800889,0.4093681135828111,0.1395291016785122,0.6058340689882813,1.0279432270843445,0.7145992628609541,0.7345775476635632,-1.098059195087668,-0.007037781106794071,-0.6680557002792702,-1.6864506830919326,0.8141701008400113,0.4506324135265324,-0.03744872865249854,1.6271461408338492,0.3609758484051025,1.3654787219920193,-1.548103330884938,0.5860654703966889,-0.17348320006385154,-0.2607229248694198,-1.9609205316002023,-2.0021681551497883,-1.478929217017468,0.5549319174803855,-1.3904041520251396,-0.43285457509418723,-0.005773349869023144,-0.5148482713684487,-1.441665826701381,-2.727461637708044,1.0501090220624991,0.7851671419443191,0.6089166029506822,2.3471401321351446,-2.547049994225982,1.7296327016146376,0.30131958361334027,0.22020162088744147,-0.16637569811056985,0.5728337222042805,0.14855966395524806,3.2850093894651002,-0.14638091944848164,-0.5565109252257802,0.5238656455610213,0.33659164215523446,-3.6220377069456546,2.0705714815055494,0.6110217714064587,0.27173588254278197,0.3128794082643624,-0.005597241030035807,-0.10091785870882755,1.8101844972912802,0.0038387407029164804,-1.5067008067319894,2.1916216471861594,0.23721330789447373,1.0411325095006445,0.22825953942413588,1.4320707724525341,0.664821583813677,-1.8045940242558138,1.7654673883631544,1.8540234323077025,-1.2652704657009555,0.05471205338876294,1.1714535044097614,1.8530825015093926,0.1930806088920966,0.7904145725435469,1.8659500895583965,0.4493893527451143,-0.6137268551029883,-1.4487691018651159,0.596040948969594,-0.7431750991488937,0.17981615988488742,1.0380846168154403,-0.29411588069952166,0.645642624542152,1.7052751613353596,-0.5693601741991512,0.03413867869673753,1.2484745708542382,0.3900359000551695,-0.8741936583028268,0.46893666262684736,0.02731267021525374,-0.5887989488074407,0.9265917387497463,-0.6115673946700795,0.686501091391472,-0.9482901877169955,1.8519701589474586,0.9119938335525009,0.5911444329162175,0.16381025262689722,-0.5297813535922336,2.5721533053546106,-1.1370022562031632,-1.1073998624843007,1.1529797925147158,1.0098324677825976,-0.1132557803048453,0.47554966629292617,-1.1063836656922135,-0.022213827048196456,-1.5135804636498333,0.21440313957249302,-0.24752117268293045,-1.310187822541216,-1.3348382753431671,1.0799064129004894,1.7750189106997094,2.3643359415963907,-0.45770893167071963,2.007425321501096,-0.35565759709362016,2.0342289758085577,0.9804956834256583,-0.9037854021103154,0.9587722691563426,0.18556507241991974,0.47016551810053575,0.3578870368097711,-1.377613852252064,0.48747558078566383,0.3599817533213669,1.282844531796021,0.7538728007148701,-1.3458936204585845,-1.1608987789151055,-0.4440660619641035,0.1827938690338085,-0.8889909204150552,0.7713129045497766,1.195950422307871,-2.6375109151426837,0.13579907357627094,-0.7325826822434592,0.8788312751799559,2.428703042063458,-0.23418423692352705,0.8800108403699888,-0.04608818861544057,1.6890882405495424,0.32720114243752996,0.35226270692280115,-1.0120871326820513,1.3554463009019446,-0.5593275261364451,-0.9433054106985546,-1.5596963825486088,0.32828885911215816,0.0863661717869954,-0.3567068216816225,-1.2180568841643031,-0.7661375016865246,0.3185059537521003,0.6686592414660617,0.9507239092573112,-2.0302014518299276,-4.477936078288909,-2.528013288680529,0.19435370331856872,-0.19821026794852326,0.7552971210867087,0.11532670086353308,0.13716698267966734,-1.016221012420175,-1.96495423472814,-0.5699961447888422,-0.4668467094290091,0.4690081551897091,1.582785805905787,-1.6904282349058966,-0.5639432752417174,-0.6010930245481073,-1.474954460305787,-1.211975715468969,0.638890811693712,-0.7658927267912422,0.11146867977692124,0.48336456923874443,-0.3500766738624114,0.5237832389267181,0.8517689195325985,-0.18468383341491154,-0.2564488099574708,-0.4263386902359014,-0.18133178537021677,0.6738549277882844,-0.29543599255087744,-2.1717713388862214,-0.5010181199944862,-0.6710828310627635,0.5866546191018864,0.33268714715826164,-0.5547660186122079,0.2043806188351528,-0.6456223735131366,1.9841940328614514,0.8185845192049135,-1.3445720168242608,0.0347440269831918,0.3118483515427904,1.0250601203386247,-1.1330170230806778,1.826533152871766,0.040474965677219275,-0.4815944866943475,0.5446772879002919,0.20015291420119727,1.726711587705452,-0.2367956102988988,-0.32685702739300065,0.5330920295778665,-1.0725077418853233,1.357585318297125,1.2618565649193312,-1.9106140728819907,0.16009529962648236,-0.6182342736815177,-0.7017649278632159,-1.0000834252534578,-0.04807475056256581,-0.2715013225915044,-0.03605424419597419,0.7651759138641285,-0.4145860718297855,-0.7736414334712957,-0.9774716767007116,0.922064028750936,-0.9088627828086381,0.38612319788980726,0.07369704324598046,-1.1235108635803772,0.584322444461574,0.06308511969274472,0.2871763200836557,1.1772698016393093,-0.5415150022814513,-0.6839281668131859,-2.0546691008978746,0.10682126787260579,0.5820144887089507,0.16308974544262572,0.2287732355203286,-0.708258226073543,-0.795210617750089,1.4211590910480556,-1.068051156014615,-1.8788171487352274,-0.3240159887036037,-0.19963026004368867,1.2554867900236,1.4397209159570097,-1.9558211723311145,-1.336188110962338,-0.06170817324164715,-0.2766373423570294,0.030617913052825525,0.5101477836379856,-2.070106144089568,-0.5391465326701838,-1.336869125792627,0.6295781418359623,-0.49266771867632053,1.4732010592477984,-1.1894758426004646,-0.1635306091761123,0.07629119702985283,-0.29040011152815015,0.9297470540943921,-0.5700206709912534,-0.05455479422981903,0.0054253397783534316,0.8266182908758907,-0.9097079458633545,-0.26483061682065406,-0.6807306242101743,0.1577164186171339,-2.380748836047327,0.0625217549845371,-1.437042177303714,1.1223435027991264,0.5065253487997865,-0.8174754474063023,1.1613803750128935,0.7692758107732726,0.3539891990034053,-0.6003627647130919,0.17569680009514416,-0.9193832379138497,-0.44758466843867234,0.09126691693875114,0.5835756250130221,1.624622173947329,0.8116071684521925,0.4316498674798587,-0.9235800992015512,-0.018046854230530093,0.2073368652052045,-2.0898825653468003,0.057475330868796165,1.6489817375642515,0.7622086436664512,1.9287474036227756,0.8635624753306201,0.6031018754747292,0.5290696934489805,-1.9568331473606166,0.7676181226702412,0.8663479384407715,-0.9930511423271481,0.10448900282873555,-0.9401383062742716,0.37639471702186733,0.32887765407177394,0.5498914727877888,-0.7066031181148548,-1.3448164462187506,0.4056248605397069,0.3406294992181959,0.8576805881940635,-0.273915532764813,0.1959145211917151,-1.7540949438747195,0.014874934953427824,-0.9771819967300829,1.5436507730758604,-0.17606167436453615,-2.939389214143815,-0.7645094389908607,0.7917280779544774,0.18271043630849687,0.8327184680583448,0.22572505328380488,-1.5946162712368248,0.33595710117828825,-0.18213412488457537,-1.8455103994416449,0.3097450945509634,0.5954965471324823,1.4875995294308937,-0.2157132582121391,0.1327958092457481,0.9517067658059735,0.3126852287016664,-0.09617645132357466,0.812664129651884,1.1400165950879126,-0.5072179076028079,-0.6250691689268623,2.268158278725834,-1.6885760664763967,0.987250600551325,0.10591766051683037,2.251346621163059,-1.2079606510219796,0.6219804876645878,1.8686843290527455,-0.012390457614542279,1.1566596095057748,0.4050169452641474,1.2080093097023028,-0.4881711058559551,-0.4425558961542585,-0.8140881042489222,1.3157865167775111,-0.12279105172661374,-3.307420894646915,-0.39662871557577667,-1.6313835052891204,-0.7465416634166087,1.2355125792416561,1.4253148665801165,-0.936508717549978,0.11039739638848765,-2.037265597511302,-1.1594251631789896,1.334398277541804,0.51252052139074,0.5813082815439464,-0.05236328663766966,-0.7312213962254076,-0.5937566678840647,-1.5919923282260198,1.9071116892974687,-0.7911014535985899,-0.6389002692185223,0.37189183856925834,1.1037620747244643,-0.8980480784329089,2.097315050813132,-1.133280508941274,0.8291920009514926,-0.19887753899448318,0.4955041770490588,0.19023155972069314,-0.0928967594963851,-0.4386689471515954,0.7947799774667341,-0.06490180494006416,-0.8590005541862973,-1.3931953308584617,-0.47717598710392917,-0.7172786997321344,-0.871949477142738,0.3172462155038757,-0.5118653522695134,-1.6625532916471242,-1.7701253298333837,-2.323299962241826,-0.2309951964736485,-0.8394787089707236,0.17671672134240168,-0.9177280434102799,-0.6887273739647178,-0.9174696612835845,0.025755787226336996,0.0729962210452295,0.9280701898404211,1.5663109143298843,0.2308114747515784,-1.1413044263557957,-0.9093579576545511,-0.3302715323045173,-2.683080849047737,0.8320246451676879,-1.5512469650683713,0.4585228643628901,-1.9801327819745318,-0.49587129736392166,-0.8287015664031655,0.9956224969871542,0.3181198912208666,0.2143901706557798,-2.0131424436087184,-0.11913526673428534,-1.486394084960197,0.3856707534424763,1.8623674717540644,0.46660440060326935,1.2902708205131426,-0.6908016131373492,-0.7440039522098054,1.04846175023535,0.41871108502090904,1.3917779930189231,0.39660548836746107,-0.23723452303498355,0.702671159361348,0.1194769541161289,0.23848066948654395,0.0019584433540542783,-1.2066253205302016,0.3693229835500044,1.0000555843457795,0.6400257857101664,-0.23054685725788893,-1.0638781047117436,0.021037458959860453,1.4527005385077245,0.3819337828663154,-0.32950239458630926,-1.475263799357711,-0.6124536448129518,0.879312574428884,1.8468028821753428,0.2760632264176861,0.5234473025850609,0.18713297613320615,0.6392488074571243,0.653969389995963,-1.6297232478289239,0.5361179319320012,-0.24755289818658707,-0.4152483548723857,0.6465713614236532,-1.3391308536820465,-0.7440088732093303,-0.017156320745408786,-0.21466144740940887,-1.328476391050127,-0.15403351128608747,-0.38131443106635987,0.8880231062279731,0.8317064944770761,1.7486320359583098,-0.045436130702941904,0.9066840614234231,-0.3961396798655404,0.7168245306401212,-0.413018420180748,0.4538603017438697,-0.8199440773805943,0.9777921643602349,-1.4573176036846494,-0.8808782830794889,-0.4878040056156417,0.4248342919611481,0.27653287154279665,0.9043805166992869,1.6147143429746167,0.2994015081944609,1.583713874066844,-1.1191975073105265,-1.3095215297393907,-0.05733413393189813,-2.203129173950736,0.5217104176218685,1.3954565139030297,0.69704249864818,0.8702935047827709,-1.604267636743765,-0.2651393815246413,0.6706950524124088,-2.2908547062880293,0.3548684768679029,0.6067975858934033,0.05571934832882784,-1.3389958451267772,1.1687507774142643,-1.5061109504136962,-0.7175071388218183,0.17512333098263327,1.0652368776553476,-0.3496153230007375,0.48145978747609774,0.20060354243406944,0.981942320992921,-0.11477693262360726,0.04207927301777854,-0.06778710423266959,1.4922109878738836,-0.5255919999356251,-0.7155939927703128,0.5864113683810345,-0.2804761241903635,-1.4139237579554795,0.43848987968419617,0.6971913951782127,-0.8391806141297457,2.0621051105640795,1.4667887127715675,-0.7695086330864053,0.3888856139884775,0.39747347212003226,2.0118809093122856,0.22531176060739622,-1.8729277679286027,-2.1797680165831252,-0.35392465857270955,-0.6837502852146224,0.35506247055277157,-0.03981084938213264,-1.4568061769193088,0.7288570558480144,-0.45855792769152515,1.0319848363022468,-0.13548303654346314,-0.3261531416969985,0.02147562433671545,0.18249260466499534,-0.5421308838553666,-0.7059408652769618,-0.5733297955626063,-0.44162198122987667,0.27316051224007387,0.7842780583556014,-0.7093757469480677,1.4885579406364688,0.007484685365974686,-0.799863059964925,-0.09095607277917142,-0.1643411673324042,0.9735304988361021,1.6188978821562086,-1.5211609151499261,-0.22707068336432745,0.439043304914059,1.9885588272918044,-0.5518973461539604,0.2974565292914473,-0.39525656768807327,-2.193025900436567,-0.8670855791304015,-0.05179775741594081,1.1023998278686906,-0.30507149522873994,0.2961742577377798,-0.2508530493540128,-1.5674832195286843,-1.0483847176600074,0.4787463584455326,0.4121720349152263,-1.6952362725086416,-1.071352668562379,0.8403166786972769,-0.11534636590018076,-0.08216667260421681,0.6560914153704406,1.1628308944082326,-1.3735567119380596,0.28002925572867376,0.9465474287428998,0.1266868307851404,-0.8854844512059197,0.43153992080224907,0.7556683713891428,-1.1468184881434327,0.29440714341665514,-1.2150143915411376,-1.0792165146828363,-0.7609073688073589,0.423428203993622,1.1185602166394875,-1.189467263911778,0.41078782750505255,0.7428654059582369,-1.5018009097789593,1.2918826715603655,-0.7105076983706828,0.6412347674187893,-0.5796444864124252,0.8022548513218447,-0.43035088263973437,-1.2962319253041465,0.7385312670824743,-1.2006107322054052,1.4763788106738838,0.14329821218706254,0.8438246657632054,0.014217993797395847,-2.0997077829265876,-1.4341867214482218,-0.8238564514229056,0.2878594440561906,-0.15268496423135414,-1.5804233676285149,2.1043962026296663,0.2890165958675777,-0.29442100622058115,0.1708732108533466,1.0621506962167704,-0.7484664452210096,-0.9609735790601784,0.6402631993248167,0.8181480090119738,0.17602661165569392,-1.4164391281982074,1.1886409290472375,-1.7135714118155336,0.6639132911098486,0.13808790973085217,-0.27293346862978485,0.8368416685757204,0.005656131468124,0.6482821779593891,0.004814300509047454,-0.25154094798423765,-0.5765491956123213,-0.5761936139093737,1.5664046103634757,2.0830176042638637,0.5542670514169855,0.6106104135810562,0.03259396703627516,-0.2475072313967469,-1.582884452013539,0.793949205375446,-0.6443807724705207,-0.8940351188862353,-0.18766302803912108,-0.23365212340488775,-0.30020803617612696,0.12570274751577756,1.2980469664001124,0.2370418175806047,-0.9451171917411311,-0.37875063040499213,0.13720962512785773,0.5489477551867993,-0.33959924210756604,-0.34881353649726005,-1.6396671096383022,0.6013256863521422,1.4340014552480138,-0.22658369899642672,-0.3026636729605873,-0.8723093881949483,0.8080093006471769,0.6414974699211292,0.5932346310136628,-0.35474315331145434,-0.22841876291669097,0.9781199980652686,0.08666104999961284,-0.35825001027100223,-2.806726142333598,0.9956930728238716,-0.6905316406570969,-1.154659771498204,-0.20155355341822445,-0.13781203568645126,1.1153238515798927,0.12709962400215652,1.3623068595867418,1.0364400540649439,-0.07134782573722676,0.7684840216385936,-0.1625317206432793,1.338990668445893,0.9745785556751614,0.6477043692551061,-0.3170135352150536,-1.4385974295011748,-0.3266086622604111,1.2193887913503658,1.2187076495702778,-1.6554698789059814,-0.6741708888578195,0.40572283020224964,1.4760698162378842,0.010910648998322075,1.2361844502480566,-0.8560327755558361,0.27839554549689727,-0.5728923391850533,0.37114237470083977,-0.20321561971188487,-0.5134127342794418,-0.029391107977918773,0.34277365308770247,0.5699306476716143,1.4388068767624207,-1.5085496329968793,0.2721541939291355,-0.08678479033324002,0.01759024682414962,-0.7780387517211032,0.42452744186551217,-0.7664480828910128,-0.20961504628325375,1.0713041452203964,0.5577995140359688,-0.03687669814807256,-1.2452940165550141,1.068481645745643,-0.09967349345614439,-0.7887057680698888,-0.43969552097887726,-0.4389936356037019,2.4357748172632943,-1.3801319479233427,0.34470920224817125,-0.6166045145793035,0.2488891572726552,-0.0720520894996352,0.7282679170049846,0.28412371459184826,-0.048272273788773745],[1.0650130546831658,0.07701633351650937,-0.8381392938388484,0.8168024457037057,-0.4469772329736215,0.9667493676035757,-1.5430341138870758,-0.5562777872081068,0.6036113139259048,-0.7521669542228602,-1.7460713350452721,0.6247632692703045,0.29376202534881324,1.2230099696452725,0.4162617550677936,-0.6643221947074832,-0.2979330460560566,1.3099338308992845,-0.4655739118675974,-0.830085103226625,-1.0461855126779365,-1.5305392999826812,-0.7056346622465133,-0.7213876495317414,1.719972016633609,0.4720493090062499,0.25651111588721975,1.196026567039526,0.239035493998678,-1.1561667922958885,-0.5784185658830167,1.3586143918471871,-0.14207971582881418,-0.4483916350603808,-0.026650906186017308,-0.4707964984749791,0.8859422697345828,1.8346854724070125,-1.0092819296369324,1.192505504797605,-1.2726787257629497,0.7448447397468811,-0.00263251115671412,-0.25026894479927697,1.8173132541272778,-0.2161396113938897,0.731070707723967,1.1251357514205313,0.6160840172592627,1.3487021254350555,-1.1281002865313465,-0.12627259511960356,-0.6082245814813114,0.028286418187247413,3.6211433004898135,2.305415368673713,0.19390728871282464,-0.17985453204365862,0.3100027158878298,-1.4702075748019832,-0.7339844857970723,-1.8149903957001892,0.7166907284687187,1.0396756630067892,1.1968541871181473,0.1859223849708224,-0.6824201638858793,0.6760680006256528,-0.9387360985162647,-0.34130551363736295,-0.4331562516050255,-0.26395289926002113,-1.3766207842350213,0.2584675413171641,1.6580968288052553,1.0738887242150295,1.8495961154952465,-0.23271410129415185,-1.4972561951406218,-1.0979439465890577,-0.9927896024248195,0.3029906959879536,-0.887087927251902,-0.29107501052331103,1.3701732317749815,0.440643337706031,1.8632777022689204,-0.9098861218892793,-1.902420375764964,0.1294088482046471,-0.5078794941356503,0.6936511618644555,0.6007808290062518,1.6885848176784173,0.27694245032687015,1.6685659243211943,0.08224341275515339,1.1988847707517214,-0.024554531381762036,-0.5316410054805267,-0.5620685659250461,1.3809536033428838,-0.7986496116070414,-1.4364599649948673,1.3971075063187568,-2.1341160364171454,-0.8009739582909526,1.3167774480192895,1.075114895706446,-0.13302603322137993,0.6258447235476093,-0.4473240198274897,-0.1189901768092426,-1.3978513905107766,-0.34159046373141366,0.315154900665871,-0.9630223219417332,-0.5261860696060695,1.2486322112086803,0.1762420103434971,0.7958053671343946,0.3503358015218722,0.6564812346956608,-0.7347704536868909,-0.4230080677047198,-0.5776773104077705,0.31442900966062975,0.9783969096698286,0.17482614106305047,-1.2720739165142532,1.2975902074831098,1.2330391490561077,-0.7223789838602809,-0.1924314641441337,-0.01353084238076299,-1.8446630613911716,-0.10879471070549017,0.6956743535563663,0.1292254469823511,1.016974907606978,0.2493856103259407,0.0029707398262417773,0.6225263251197343,-0.11355830259179397,-0.3793385347654447,0.887242486346695,0.9479379117989487,-1.5746899519015956,1.7816454316077521,-1.040997462199234,1.5476691180002993,0.37157164172424184,-0.4856567601377239,-0.191395478552663,1.1650436020347743,-1.5034074088725917,-0.6713713159667073,-1.7049209596774975,-1.6490966864572105,-1.481717289896109,1.7768931531269163,-0.8464405482010903,0.47296047485197296,-0.9534978918800764,0.32549467322783415,0.4508306149851913,1.64352888204835,0.9471577674796582,0.9248663218939525,0.27509916670705065,-0.13415007795783426,-0.5730966082817508,-1.319838650435557,-0.7785525849967619,-0.8886707744217793,1.0631982889599203,-1.4464784265862278,0.0935753083988285,-0.33399395285410344,0.5186712138284697,0.3727226430338467,1.9340494549577834,0.5007311985144007,0.05635634404282993,-0.6915608995726736,0.37858528521712165,1.110114843953358,-0.03219524969887275,0.19393959862081642,0.2265299783055877,0.5391461760905006,-0.5426133108276162,-0.7144073286449028,-1.7575948018281187,-1.2261300742129566,1.0625566208300634,-1.0088921547319847,0.06621354880296026,0.0613407292494353,-0.7641965582105218,-0.4297760937747962,-0.03571225529266791,-0.1393147647431324,-0.026942694412056094,-1.1503109119845927,0.15484111023667876,-1.8193659730689355,0.42968475014818724,-0.4879666793637341,0.4807995884992432,-0.7261410506748941,0.10567565431852806,0.17646031275133495,-0.1957321800316157,-0.8922726886477305,-1.5198243646076022,-1.056741178140385,-1.5579001528083962,-0.2971559644468551,-0.43412022234026854,-0.9225455708532473,0.2627666250742805,-0.09828783086356191,-1.3439135226120917,0.896904544563784,-0.26638140454297166,-1.2044387076953522,0.9147681837170122,-0.7166549769228749,-1.828406176101391,-1.6183465758167603,0.2609230218580438,-0.7751833006949506,0.7566549866708384,-0.7127992672295262,0.5888634907212407,0.382291353496353,0.5322129468717378,-0.23926329055859655,-0.5464065920206477,-0.9777594105578047,-0.0706248598820988,-1.9364389054120807,-1.2211821959301856,-0.31922218629639576,1.151217108225468,0.8398924563058187,-1.1045901676490444,0.3015241465789285,-1.9393876054892059,-1.8214291519922778,-0.058257707701203795,0.18622400194433322,-0.48687811599925307,-1.1281714868656574,-0.3028463385513439,-0.5546469460785997,-0.10039444883447057,-0.3319061257717733,0.7826820519089126,-1.1703070397353015,0.6785292921450006,-1.3027033044825445,0.9948602982267738,-0.6920632629685514,0.5510275251070802,0.22342619547259154,-0.2620178063699288,-0.16417396754077032,-0.7650620507756762,-1.2847027845684966,-1.0196345093785963,1.2366512615712453,-0.24303714106305074,-0.9969139590640396,0.10672002703622964,-0.6325903061276611,1.0503065874671416,1.0563601586908538,0.9775105776630537,-0.6692919446996226,-0.6487397831480914,0.22790211095952675,0.43999898867451737,-1.1883415643827715,-0.8126467633625413,-0.1218009508877899,-0.7771682352341132,0.7160120001569075,-0.41966670829556435,-1.014349714368681,0.2854893122839595,0.655666719247332,-0.7140607190958534,-1.7889393080493965,0.7763580299496182,-1.3508878533957778,-1.1696144386718301,-0.7396273201643835,1.4893342857053329,0.1924561326378386,-0.15282647604182537,-1.4058834320863949,0.409759388606758,0.384263237819436,-0.06058757768755607,-0.15214405088147007,2.487177085606353,-0.933631655745973,-0.8956717864001598,-1.3454936400127215,0.24636989225709316,1.4091850775189152,0.6521226787189199,0.22009421364539195,-0.46241309123285024,0.07472153634440265,-0.490616520708696,-0.773328903554687,0.25222231454775457,1.147786203065232,-1.607646899121626,-0.6903413272295867,-1.5370495313435235,0.5328152535544355,0.911735799353316,1.2459055928549085,-1.1581287101489983,0.37911573277052124,0.606024813928165,-1.099016279086611,-0.6555467756495054,-1.0200715540282108,0.02977741064818999,0.08084477313411112,0.7672221359222557,0.7463554866379923,0.2408461361450184,-0.6605852825317068,-0.7944498446930662,0.2505543411369612,0.20068225594390196,-0.6212257556028749,1.6549727944311845,0.9457970428506925,0.3123927358821122,1.33845745558837,-1.8768287903870837,1.5745495042522544,-2.096514629774136,-0.07941963160121926,-0.2437452218458162,1.7617940997968424,2.3703910773373766,-1.467170548577143,-0.3284619882383019,0.1642980659671292,-0.341318704090052,0.48672335204101547,0.5821844907303695,0.2569143931736463,-0.46869159848389047,-0.057693615793398295,-0.19565966318263867,0.2941125299155974,-0.4332371325203929,0.5606283036308116,0.5265034625240588,-0.03226003647656463,0.03652484542918156,0.04894066231890796,-1.2145778012014918,0.2005842066293894,0.4361551980035657,1.3455787347699502,-0.7577554891336568,-1.6239746855418806,0.20687898648648276,0.4571637762443266,-0.2794638152060575,0.4230978806869855,0.7482478661361843,-0.757233892455355,0.5272781989906488,-0.7804009716734948,0.8249706340478626,0.34919178128781236,-0.37679192511113796,-0.44460237195089686,-0.8022915455978611,-1.0011826666011383,-0.5138433492420381,-0.6550442567266574,-1.0698337547450467,-0.954756634058919,0.03561319624591135,-0.7604027339128767,-2.4582129798231898,0.7702146385587656,-0.39248188303784365,-0.513293836829268,-0.1457221567253066,-0.35660970361042726,1.7660056155687278,0.2640137111712639,1.3625031288944904,0.5015991577664508,1.1643793952990718,-0.46299446996267285,0.4810289986802726,-1.3485911498714047,-0.86191835188061,-0.17660716476800647,0.19097814695273313,-0.663035740315481,-0.7649716189437833,-1.0391799489930758,1.2402180281857755,0.20806650320356923,0.19557225242942888,0.7176432940546753,-0.49409677054769935,1.2745656412760438,-0.416154189679895,0.7638998828257237,0.10166778789624174,-0.036082001955092445,1.234299425866678,0.4867217754817844,1.5389157443207668,-1.4617775528829564,0.7939414263285438,0.38131288635491223,0.3964070109938532,-1.2945233934825513,0.5322166209392712,0.7301336315690315,-1.1991159864509602,-0.695450071014081,-0.8351148816765285,1.696746335482484,1.1325981028457788,0.3786962586949114,-2.6049679810381607,-0.721248680500517,1.6046661478052007,-0.2924398121147594,-0.7833244374342603,-0.11884337428183067,0.8090764448472669,0.30393242769519585,-0.7949760711463162,-1.294426391855357,-0.14794796973311636,-1.134996273755678,-0.5843250848925403,-2.098262806868426,-0.17039072748640316,-1.3070334473842917,-0.08832639880563076,-0.0345519786154755,-0.8166588970549606,-0.25985535161764584,0.80260577293043,-0.24408941134029005,-0.1934712246590909,-0.1855397202790155,-0.41142054551794544,-0.6885725747780351,0.7676964690125931,0.831081287006233,0.2842787985075154,-0.6310274867469099,-0.2686169154433596,0.40401509157346044,-1.1446444254225487,1.3044952727817587,-1.04466417983231,0.4353212394963152,-0.4288215127507969,-1.0156350126732085,-0.723413494892565,0.8838261889432131,1.9228474334864738,-0.14199485387147381,-0.12096444772140032,-2.0401546963062724,-0.8187665052745834,2.106073793788651,-0.21003815289388225,-0.7645001182481795,0.13436104176211908,0.933178368238576,0.7489724558361796,0.7917348303497748,-0.26737208404627444,-1.628860451815885,-0.18449302748938617,-0.7911468699843105,1.1117704803176303,0.8275673471028119,0.19558203989987766,-0.04317304773900502,-0.30283834000167736,-0.9681354675778833,0.0976640698350638,1.241350729393914,-2.702339314249161,1.6694877370395997,-0.17401081885709851,0.4742979605377565,-0.6370042834394162,0.8977899289488873,0.5490049046655351,1.4835362938210541,1.2894354501204957,-0.4620155544010153,1.0640552489437067,0.6388342023574023,-0.14819414404033066,1.068323043523383,1.361646968803642,0.2971047013470846,0.972261200389183,-1.2247952601713283,1.863226002649045,-1.0014709079005377,-0.6438935443879058,2.2575899513165023,1.4488470510872655,1.2656519677333613,-0.43861631843091464,0.8585122631626944,0.21398249581797785,-1.968889476942585,-0.2204961092180799,-0.31873206831142054,-2.1562204604037505,1.5058363317131038,0.5539758692766753,0.8791838154683895,-0.5532668340428382,0.01666343498580805,-0.3161269342583266,-0.36478511244291223,0.36077259590714633,-0.43786683869630455,-0.38295610297668536,1.1274458343131022,2.957925202324826,0.14214704063538502,-1.8328596818527725,-0.4130928615897871,-1.6228131566664792,-0.23903501913138997,0.598478589634788,-1.397162118383297,-0.4236724831675811,-0.1646689879448589,-0.781819088534474,1.3192075025170487,-1.0599701719382095,0.2604686175180656,-1.5856703246267598,-1.3744309436262347,-0.2988172169285935,-0.12399098073460933,-0.9784011469684906,0.818561017502705,-1.0216311955986805,-0.3128148272071576,-0.9193387303285372,1.2194931540624951,-1.049886785066293,1.0036835013446066,-0.13981653378340841,-0.16319296252150964,-0.19868767441790003,1.6834774498679987,1.2206000088712559,-0.009439768135260937,-0.781253279357109,-0.19238440590342107,-0.5260883312409045,1.2406148242688588,0.4447704130344327,0.39364927379946923,1.0043599260010843,1.4062475099133815,-0.3248129368418139,0.9060855408549617,0.09707322198118645,0.3270006861506199,0.11321532604039787,1.79820761366419,-0.8612012115834826,0.6466740663257083,0.16720976078209224,0.7924033883419239,0.3838844305977566,-0.25972863118796014,-1.606612712986972,1.6031777538314098,1.4591788147941487,-0.7550512426205648,-1.0062629959218365,1.2507354994770916,0.29357845133522464,1.071893527999406,-0.6838457686675119,-0.02699564023263125,0.5716761726819994,1.2365095418431016,-0.5270785766295042,1.3515859828674557,1.8556685324276734,0.9531581881428252,2.56339466958384,-0.5196998152374184,0.21681453799283099,0.6367614519752063,-0.3545111678001793,0.34803143755446625,0.2522216284616938,-0.9687476624301233,-0.9347559815745259,-0.6454819098190042,1.2486451720741916,0.593720570481479,0.9216006383057765,-1.6378192646648053,-0.7352401266165031,-0.13203056876427585,0.24471002758038304,0.041114161764937235,0.9796441285561823,0.2803472532867619,-0.06774616580157806,0.31031267038539767,-0.6390600660602145,-0.3898462940210881,0.8469464629627158,1.0919075647392895,-0.5794478605625543,1.3019429995849392,-0.4187189623000667,-0.34893052583730255,0.40686861288318915,-0.2932899518295089,1.1620822587365698,0.5126427106002942,-0.6614096929885702,-0.44569373270808804,0.889786255166377,-0.9282474971611081,-0.8980361007630452,2.3099768858104945,-1.019403132086876,-1.0180116030714197,-1.2512416678780252,1.9706390773340399,0.650103151843324,-0.719233756972056,1.4105579375566404,0.592881211327971,0.07716375581893774,0.6477174985319893,-0.29031474920053724,-1.0065048716071825,-0.3951863390681892,-0.7614615857607141,-0.8204208535977763,-0.25927520862075487,-1.7809383433009545,1.772988542326686,0.7434584452539266,1.6117677839412266,0.183552208277844,-0.2764629465057361,1.2946550250167235,1.1200636207484889,-0.540750748775796,-1.87760383076907,0.07135859811201108,-0.28976798300598317,-0.20105524463183813,0.7365495160204569,-0.36267294944341116,1.0192781413335994,1.2030942044917137,0.653291016867167,1.4411320828316962,0.4209588889879906,0.7955540588753488,0.6617785450180171,-1.0749630242533135,-0.3380077956007079,-1.7915788637088164,-0.6680448441805568,-0.5406033081241208,0.8961441638684471,0.7648489694787741,0.3885881184239108,-0.7320345408045722,0.26699865075786716,1.4385850725111728,-0.14100894768200187,0.24560646789538806,0.9464890874831934,2.283310595525789,-0.01041127770581263,1.0252899588142246,0.7367313751609899,0.3458233107331614,1.1450294770241103,-0.39445868059273564,-0.26787476609632005,-0.438931332589289,-0.521058047792757,0.3325834564760555,-1.380574560124118,-0.8876330083022075,-0.1770451023822392,-0.21816660522149794,-1.8294965675133952,1.0302167571493317,-0.259535278180277,-0.15338782466305995,0.5000225934967086,0.5693420465626312,0.3177068185328329,-0.6056164604721901,0.2521797872072425,-0.3129159036463982,2.179050870385324,0.9822816665428852,0.4715544330778401,1.1940323703478315,-1.1739445817710321,-0.4833931259597379,-1.472316089923662,-0.34810599017259986,0.4335946164802518,-0.25256668288397044,-0.6764712572438202,0.06835572916876334,0.6692105407553103,-0.5690679216577055,0.122760567633446,-0.7697209326989588,2.0922590965984442,0.4444639816673196,-0.4561981942608453,-1.7431210810295217,-0.3436811488932203,0.4264686203329051,-0.6307335032971886,-1.156499307670398,1.5374542632622574,1.381066414027017,-0.10858844874935056,1.484823042683991,-0.025800431033673594,0.5162517758955966,0.8463436234996141,0.5172612760795612,0.749110392570189,-0.3294955345753099,-0.38064801295602835,-1.4644515800820674,-0.4227583259868252,-0.6146121286982945,0.2958085938845375,-0.364145381502094,0.5288165209544264,-0.06095592344906439,0.4833249859548783,0.7923176090601091,-0.46497612638559477,0.2523275944338063,0.4593730026311397,-0.8617919466432614,-0.48559414613729607,1.8973261038969695],[0.5232184204340279,-1.413708956254414,0.5367978006466332,1.3541851867416537,0.6810713251868882,0.8956883534199849,-1.3524246202986971,0.14836609605007062,-1.9966065198727787,0.17786461699585934,-0.9301062032870799,0.8258184722411049,-1.4373896466964295,0.5145785056374458,-1.0109908418292544,-1.161307966847607,-0.6758154556947445,1.6021720791893532,0.6471566039808506,0.30465412408541376,-1.6087657843820018,1.410312506061531,0.8614701576565027,1.147386555950642,1.1176039444071713,-1.493175715699684,0.9724606816654517,-1.9307246809323817,1.3536263092217538,-0.4066163658417024,-0.0701588414857331,0.8189065245924382,0.2990677506672502,-0.24538304017690155,-1.391863248377048,1.4048632420683045,-0.9503306971046154,0.04853786344189985,-0.41327073251892743,0.6860948345140564,-0.33384349847685224,0.5493578297423699,0.27464954794340085,0.5620345821855613,-1.1496522529186153,0.6211690102497809,0.1658875123772137,0.8376318210146388,1.1907051154279604,1.562412656006659,-0.9246301996248597,-0.9533229844952752,0.49587711431452536,1.206385230842497,-0.25090466747063545,-1.1324827658776173,-1.1947621287051637,0.5440869139981614,0.989496443928943,-0.48884425180002594,0.6097856156781946,1.5798431626328937,0.27955153015452744,0.13536624659339705,-0.9428322691032418,-0.12863600377132312,0.2944541028961976,1.2396400140219443,-2.5939151019883924,0.11397284686101466,-0.11485935637179484,0.3879915274867021,-1.398534159622744,0.4055569438545754,2.3171076685242316,-0.5689695034533195,1.319827380149925,-0.7550727314496566,-0.8591925150371911,-0.8265960167428348,1.1048123705656765,-1.3435249872804262,-2.6879655450219735,-0.928146972709224,1.3225531994759265,-0.04137718267764613,0.02901612642048765,-0.11658582943651359,1.5779815112136808,1.146638682765777,-0.6402200637464969,0.037986447044848146,1.149136566824098,-0.057803253234284445,0.48984161079356076,-0.20429348302447684,1.282462354075197,1.088054583887926,0.6520220956535939,-1.9935731876011675,0.3413675355030378,0.8681482236022006,-1.9977829860941116,-1.1307252921935285,-0.11720845472029723,-0.9453410272332836,-0.12175034746322075,-0.1747534729437811,0.27941962744738286,-0.8279791483339002,1.4529739178420378,-0.41349992681838615,0.11126767448726697,0.08743946516353149,1.1093013373434744,0.3525403206848906,-0.7651940247052387,-3.196958673614887,0.964379405073874,-1.2178216458811628,-0.7618125556115246,0.9069888370350756,-0.8839546664151526,0.4683014445150438,2.2458100015415345,0.12801196701643905,-1.7068108501650032,1.0885346420556175,-0.7771377089377643,1.6884069671536233,0.9359390242999064,2.3914579665717715,-1.0080546751915602,1.0444058359127706,0.6674554729827216,0.3702975666881467,-1.5663467842550063,-1.8057576489932978,-0.4231206922527919,0.9262697480187784,1.5469217102284518,-0.15435320244103418,0.7662100315332155,2.1464820018542055,0.9986083881283497,2.112370028078136,-0.11871807163827845,-0.8524726741798554,0.6659616312892792,-0.8039179665936499,0.6510151748961784,1.3190176770281712,1.2383203196803234,-1.2250102037044435,0.34663016822227827,1.1159990107516302,0.9912113522844385,-0.5619385053221851,-0.1936627701162393,1.497205543200237,-0.44986677784613377,0.9940273877941864,0.021147119908427634,0.5242798489613508,-0.2685068784371365,-1.6115209659585128,0.4577825287747717,-1.9765714936949648,0.0028943734044388067,-0.5064042356678249,-0.08191376058720114,0.6534159044747493,-0.1071848301828808,-0.10608650600241849,0.34536832139177176,0.5430559541023233,0.5874368616902336,-0.45501872560315426,-0.1859819902563741,0.26968433374204126,-0.2363591948108716,-0.45301940579036915,0.46813557428093466,-0.2538605411275979,0.2895173068434141,1.5382841184395195,-1.8169496873494957,0.9588385799081638,0.3820037785712924,0.10971156290894159,0.4470248494118114,-0.03416414120044579,0.29451114517961974,1.9187534491065632,0.6581312814675311,0.5921546486774255,-1.2980928173616204,0.423406888568329,1.878256323731559,0.8000140457798666,1.356137025701765,1.3536024200842516,0.17725308242008772,1.35418360149767,0.46866189944545444,0.049447434993868625,0.6508038199675554,-0.40419669840535144,0.3100900761273393,0.017767717162710576,1.6020508411516812,0.79828350348595,-1.2412059420637955,-1.1497912592802781,0.6308762782621024,0.6693113689395259,0.5410326771973172,-0.4823506486557757,1.259002415963748,0.28385855387434705,-0.7243705704454649,-1.2293979532197086,-0.8487018867780873,-1.470804641486785,-2.0055755833873636,-0.013397989644639074,0.7669984090439359,-0.25163076081564734,1.0670428017468858,0.37419179197730934,0.0527772937659967,-1.3057071852547553,0.28195894600392896,0.2794351836783954,-0.011905836926131902,-1.2709115938004243,1.240083653917198,-0.8547472486460755,1.6213365017844736,-0.1529483962041499,0.18520581114220944,0.14084662910230164,1.2215111112087103,0.9099097846414477,0.2551048494538476,0.6374391063384874,-1.0005331636832258,-0.4110681685278164,-0.49093324207947175,-0.48758361268269435,0.6727221170809522,-0.5309884472089469,0.9084445738513531,0.08470246119525747,0.6867672449529905,1.2872597920324336,0.43649579150677437,-0.7352739730547884,-0.764934128556745,-0.4328742689279397,-0.011044749573283243,-0.3004493157885327,-1.7921841783673353,1.0761524221065957,-0.2313397313415309,-0.13485664957350924,0.9829413807897874,1.2341271548733752,-0.04404515494204849,-0.595704784949935,1.5823279548858138,0.5008357003464735,-0.5883795748942853,-0.8389092701777149,-0.44274826657509314,0.3329731185433448,-1.255198585513967,1.4040360708255075,-0.1681549040955049,0.01725340992257498,0.10307384335820646,-0.7174678019100095,-1.9474798845895427,-1.3576817970831467,-0.8780963935792585,-1.1748594293215833,-1.2101343958170094,0.03506726017383843,0.16777552766968942,1.1086440762494274,0.20444071220440654,0.9921769730346638,-0.4547953276256005,-0.2658760341283551,-0.19110627888059858,-0.776856895553788,-1.3833790854138066,0.1298676455213526,0.43541651511173085,-0.42706643630117097,1.345870206923371,-0.27810842550109266,0.47917653380543784,-0.8002143485100723,1.7904494128930981,0.18304465572633397,0.6669537146177331,0.27721933546310507,1.0413577762446142,1.6302672549377124,1.9870303684784867,-2.4433010854140558,0.36816956903522846,-0.9595302360406732,-0.43090696293556763,1.285663674447161,-0.23316151858534068,-0.32540575123430415,1.0043100228334356,-0.9231838912880954,-1.415457266831767,-0.3336318744043812,0.5523762848685881,1.9276369037083576,-1.0716156398288335,0.7992810442412225,1.4228227854354356,1.0659918554958363,-0.08306582132898879,0.6058940728149554,-0.033576133264242476,-0.09881197598289804,0.1453154816583726,-0.18169141931610838,0.6454414959128201,-0.5591391832852546,-0.2141602730455248,0.23048533668900315,0.18985382318536462,-1.017225108851346,-2.234414256299383,0.653193629440149,-1.4552145975472293,-0.7908201522300071,-0.270624513577236,1.3224978388219424,-0.7443471342176055,0.356644517580732,-1.1819114982343193,0.29923562214593225,-0.6566690796525955,-0.5655411168201798,-0.5515578890867907,0.6191855539325807,0.17709207715184536,-0.4202742638583349,-0.3727496020962361,0.565184859435677,0.3994770749457445,-0.3210190546178727,-0.26849670873553616,0.7740561272380474,0.3595574177557804,0.5600674305913019,-0.800255278908777,-0.010166720314829155,1.1899065844250492,-0.40842547914143307,0.6010460194590427,-0.7781256147700528,0.09080746287914802,-0.7166715065758111,-0.15697796721905252,0.39167075532970397,-0.37748497749378773,-0.3318068021487709,0.756065118057058,0.1566873593518717,-0.6845666069317633,0.36586983495618997,0.6445701617629404,-0.31609626322029694,-0.5163254928960334,0.24367684020116062,-0.8409946026822915,-0.5067271638105647,-0.7806425196428771,1.5748309388320225,1.1181170854648885,0.612669715323533,0.22332988987048719,-0.2797794751339461,0.3013195583972333,0.6167778301389535,-1.7636285038570978,0.6394870775185761,1.9074452354667952,-0.09982082354313697,-0.9294823975454186,1.6809217441719684,1.009529985539418,-1.139374164910778,0.7164405084586923,-0.8656013329004018,0.19654342129039093,-0.47687689410711964,-1.3040629405630006,0.1854738423512109,1.6154374050409726,-0.9549502892151381,1.0412651815483622,0.1307664346965044,-0.9246896523203361,-0.3691238133963178,1.044839275684049,-0.9426726829873758,-0.6961295259415856,0.6651058796306629,-0.9389922356915146,0.1752668251385314,-0.7860907751389675,-0.42446450688309556,1.1704860083961885,-0.23536734075006555,2.0161661389023755,-0.2757038413592399,1.2566019938812334,0.39443320309651525,-0.35366769603293247,0.18699821205247855,1.9603172395629516,-0.3504153112067098,0.5058103598107192,0.45688537809755836,0.11872970104680006,0.7102967866371939,0.6504074636344608,-0.5979493656129515,-1.0505292555221803,1.7879115525238753,0.5602768620154145,1.6564227344917695,0.34260020873270813,-1.5632468953361789,-0.7651982898671925,-1.0005342667481003,1.6374257837456394,0.20374068970736556,-0.2596068396903079,0.3383226869787807,0.800890970899864,0.05221233126502609,2.0382925020177387,-0.7306826163039937,1.287324301885836,-0.30807049156756333,-1.7247917926081502,0.9442734924824326,-2.3103697384631317,0.46962694018331047,-0.31720522391350225,0.3235705911554874,-0.924712074785042,-0.24099867672064168,0.14279981795625352,0.9385564050940053,-0.9216359103803917,0.5561461353585531,-0.5679941162211122,0.011345807124813726,-0.4285569757020036,-0.21598663639287913,-0.8027113405925305,1.287044040342191,1.0458457727186683,1.0358525493411215,1.358637459398046,-0.8778722240300675,-0.3743951432872526,0.6192848071931535,1.0525515081228756,0.95900497065187,-0.8792401755499665,0.7488931253428578,-0.16198075619888785,0.05153896332902143,-1.4881542795463023,-2.3367953057995092,-0.5223843870226282,-0.33792026615935467,0.09384398691288887,-0.807765688199127,0.8524712547867265,0.9547657672711394,0.16847967361699956,0.92625956638622,-2.2764918591249836,-0.001753906565522859,-0.24399896944342236,-1.7896685595668658,0.44573432591560314,0.33332489773090257,-0.4025436629642512,0.14176258408238054,0.8588369826835398,1.0962534214969242,-0.6655107390185407,0.8403315172151077,-0.33632533712031415,1.217959241630241,-0.39193082831931636,-0.46452548865764814,0.009778537116251516,1.7894388941873063,-0.9525970480502012,0.3576875641717577,0.5578594744385533,0.8643387599243751,-1.6636071487523938,0.6585851971374347,-1.6140035463764624,0.4309039792841992,-1.3940770646687122,0.3279013749505331,0.25299586095229953,0.20560142023581665,1.7735757532451342,-0.8663821869895236,0.16749520356054926,-0.5541537583398068,1.0947902271835543,-0.7420882152861787,-0.9956739796868771,0.6898310166184692,-0.3975193912443929,1.4066155900084736,-0.2566745322514781,-1.2368228786404156,1.2309904185076732,-0.980910668906701,-0.815354909861515,-0.20005471518429838,0.17047228798351,0.6899566773740012,-0.1453812510187802,1.6584275619152173,-1.2210218864485822,0.15961891386103494,-0.5785558616396059,-0.9706074051265396,-0.24948077986305808,1.8740191618540278,1.8944007411744075,-0.3124042940132248,-1.3939305171923255,-0.36231245305124604,-1.5938518923122038,-0.26972489490049845,0.7121795093480385,0.044208743529149205,-0.2269213231206381,1.2643141479397948,0.3927306545502984,-0.009209793033435686,0.17919047247831207,0.6222397233367184,0.11357089735532419,1.4519563382741179,-0.9167302296545856,-0.0509899098483821,-0.06690441708315455,0.19952515980172414,-0.6217239420237601,0.005291737150170432,-0.019814018246418937,-0.647075539629836,-0.006911112304029385,-0.1143841329180175,-0.036666029864103576,0.6252488023662178,-0.2057088445469343,0.6873603919325726,0.09537312348637092,0.03398223285394856,0.7039873636059255,0.6175451409141401,0.2288311799662232,0.10462312824604064,0.7209342359310849,-0.4134242285827059,0.40861864716804247,0.2479960267714831,0.5081839733749157,-0.6918975166059603,3.493054466299253,0.13910544876940598,-1.1490735381067771,1.93484111595995,-0.8420464823205672,-0.6297179401597047,0.8720393089567907,2.074738838790581,-0.02343050938517035,-0.5272660674070296,-0.6778748946487466,-2.0373487266509667,0.012938443342957594,-1.289876426458267,-0.10924681248770667,1.880938760208992,1.2986740238595673,-0.7856448367459197,1.0400986829184282,2.2720763965451276,-0.34606898758632143,2.6409320994445533,0.8080248780408413,0.3684664740626998,2.2428872199877263,0.7506770262396723,0.5522123869522474,-0.08686138856253396,-0.9539729041210042,1.1085597817304544,2.802050687756783,-0.4344532061923863,1.8938782489965742,0.2467136208374723,0.013366196849404403,-0.16380413931571994,-0.4851293097512035,0.422032383150941,-1.7883129948027419,-0.3637575074980012,2.5211215587256954,1.0945579125162446,-0.02705542105024818,0.7414465134448686,0.3009179960735047,0.8940411979804015,-1.1102118940277967,-0.9099313475536308,-0.7745997112128762,0.930223215183217,0.882257783278508,-0.1868699820548216,1.449964231096023,-0.38071212977817454,-0.9098043368702922,0.5102891892455437,-0.6908331817103507,3.5717909100695686,0.18938048081838635,-0.2810263693572464,-1.031868492302292,-0.3283661271259137,0.2515088873033068,1.1943761299774915,0.5819002950114459,0.355924730446846,-0.2898148338579955,0.35513158677259543,-0.7156536909145238,0.6828362154711743,1.0338361146695227,-0.30589737379272314,-0.1246652676939922,0.9799674980356022,-1.6798724354809482,-1.5960180988968944,0.5148862434941311,-0.538716798784271,-0.42299594574914157,1.5245807008579901,0.0520868314135777,-1.1910275725996429,0.24788603379927157,0.6057256899327703,1.4477570539210607,-0.31963441099979606,-0.19046584749282355,-0.5909542274586177,-0.056963277911161896,-1.2537560187494574,0.8549057502510412,0.7605216621972672,-0.7151584362998138,-0.1699925779116006,-0.6235876520084204,0.7213379300113267,-0.6206369607012122,-0.6744647712433163,1.6926027418887974,0.0873546778363186,-0.8046892079084718,1.1160903239393347,-0.4770932014240192,-0.2786368778532549,-0.9609038679119158,-0.14268002484260328,-0.5810064471605194,0.0017447701902141906,-0.10796005085567248,-0.4715566571330453,1.1810681351996695,0.9529668670647621,-0.21507435483411771,0.6919572036280945,0.7573842075164531,-0.44619990329134074,-0.486580144296934,0.3434479836254837,-1.2047898705071771,-0.4887325183454049,-0.12144024336459174,-0.20453865352493247,1.8574554743721146,-0.21424535637702277,0.4260677906475163,0.09173515997085528,-0.037626761653566175,-1.2372181929331598,2.211168884395589,-0.2750660483850318,0.9441457086322345,-0.6322446782442988,-0.9380846720352473,1.7996252361418625,-1.120485150243795,0.16941748718774882,0.326884015017118,0.16884041253779153,-0.005321199980192991,-0.2451892670613324,-0.45987505516740607,-1.1475457251602934,-0.9009897729350834,-0.25857664839809086,0.10494726488452757,0.2354439968294816,0.31340152858413894,-0.7611647041381817,0.5184280401989629,-0.48068097313089564,0.16466458374852538,0.6826988935788835,-0.23176816790573296,-0.6604921487676565,-0.9073022616476522,0.6147031430893861,-1.6743624636825285,0.3462825920924338,-1.0007555215329436,0.8936783598838579,2.035942845918511,1.9550323349065069,1.197048697371704,-1.825008377734535,-1.7549567381245108,-1.6090821793888888,0.272503403092685,-0.34318662443413267,1.3006382740935742,0.7759033371558293,0.629870618353463,0.3952585129350366,1.5912333508636636,-0.5491314166700758,-0.7259881006189143,-0.17490450234800523,0.2649505594182607,-1.063718855092276,1.0978765412810436,0.6490167452296599,0.36061407529889666,0.13849875270848985,0.9703880512900724,0.7348751204908731,-0.23021715759926728,-1.5514963974729348,-1.180672394704416,-1.0946361694224402,0.06373380836829726,0.5885912534587363],[0.10977374198736836,-1.3679484347245732,-0.2674048041762882,0.9037174708765867,0.24450940386838324,-0.7765929417456869,-0.9417401041628946,0.33620784577799234,-0.3396399370681955,0.3515493257982662,-0.46232837292864964,-0.981335280675044,-1.1104311205951183,1.5984467655838959,1.065039356896416,-0.22954297282534197,0.6249382126033552,0.15849121458491414,0.7592892561286766,3.0910716057844354,0.8419972236453849,0.49996680538715216,0.15128885956112623,-0.6824726258508076,-1.0014191561851749,0.904506750060664,0.9093761447518743,-0.6805738604600666,-1.8816949085795946,-0.507538991308967,1.6692567630084032,-0.16537929949740657,-0.699433900131164,0.34116915081043686,-0.629241775825731,0.4403903618955586,0.96738635048308,0.389675237592849,-0.2711753734047356,0.9788003147480312,0.05484181043664436,0.6425104184690903,1.0095532342971083,1.1517712823031732,0.5225303987909977,0.3074299255817696,-0.43743635338209724,-0.8799999274479272,-0.5671268869050513,0.3794574881653008,-0.4199034380919793,-1.4392028788893096,-1.232860662553029,-1.2361250322393211,-0.14020261082268146,0.6870496593864551,-0.6885508120111193,1.1735498391835373,-0.2529888315808139,1.0432161930916795,0.35237246922799614,0.9796759612877569,-0.9208804621947636,1.654894671399366,-0.5679938147032043,1.491733426022294,-1.2464926417058688,1.4430899723412545,-0.5585613423978449,0.7983835795943157,-1.1282044785383112,-0.045988738716438514,0.5672169330351959,1.4040733960681797,1.4902898605284036,-1.1967681321366024,1.8118971428552209,0.10516268457507039,1.4605394661760283,1.463554643810612,-1.354913706530463,0.9106420960228788,-1.6857930178948919,-0.829715828946389,0.6554290446879598,0.13939086278533372,-0.9014416418537584,-2.035229263069698,-1.1929774172827754,0.30822156817555596,-1.6910467318133426,1.1753301863910806,-0.45650878902478276,0.6741296360899597,-1.3250988040542946,-0.3550506070802116,-0.6771887611743344,2.9880755944880417,0.5127071162016991,-0.46850898776792527,-0.31227379717264586,0.8080678164649027,-0.5165247703288719,-1.5250849766654704,-0.7236985148079014,-0.5536433868356141,-0.7215038332899988,0.4417264304292496,0.39187535346279273,-1.4520135198971507,-0.886897036470335,-1.2829752155048382,-0.5639347937497768,0.5343373290828807,0.35784427535595303,0.9749991391148085,-1.080035020345535,-0.083679455520856,0.22805170772915667,-0.5232711881183181,0.3683473127902939,-0.9335959785882567,-0.47142489049781133,2.7316887600906847,0.7104862579676087,0.559902466242302,-1.0690209396207087,1.1016185970323735,-0.17569745917337826,1.4092702105109125,-0.6510336166461935,0.32501911726666693,-2.09786212546559,0.3894940089393088,-2.1455218622269334,-0.925495408545267,-0.7645265018011926,-0.8588014463485867,-0.6453499813492789,0.547137619994406,2.0096372228402566,0.42765604393278633,1.368393752537342,-1.1808628699210413,-1.0866421763547267,-0.4866249079629647,-0.968620141005554,1.0970481100343208,-0.2027352883825496,0.7678937498483545,0.24123041422029143,-0.2908287215818205,0.049610135812284246,-1.0743529812640287,0.35358725418513415,0.48068030477914264,-0.26658731006393444,0.476789590480587,0.3596757014841428,-0.8979362959689902,-0.8340065407000976,-1.8313468001239208,-0.30604313911426356,-0.14767660658968576,-0.2698971061881625,-0.95513195709563,-0.6015013126549565,-0.17031535860583913,-0.5188263810464376,-0.4803317052907691,0.20825799908934906,-0.24942587024855623,-1.5342552648259715,-0.48613999247960993,-1.0531963801642996,0.3732563369724556,0.040767963612922,0.6036451756543424,-1.2903036429399097,0.18050464992120976,-0.9379518395289764,0.7524156989058055,-0.6772048282157378,-0.8264741075042463,-1.154049041253981,-0.45309170938866133,0.7971594551262662,0.3321068367066048,0.6987842568091328,0.5057987558278781,-0.8765149863883662,0.9826548539876218,-1.5322727904751867,0.10990963837550549,0.6647017734983444,-2.470714797239296,-1.0758124207480821,-2.2829471736930107,0.7512713864423145,0.27588818487129474,0.3635914690230858,0.6221991280309285,0.2227280588773989,-0.6239939303715314,0.527518757971626,-0.09815014042573468,-0.8188839015558821,1.045902735154642,0.8759521507689163,1.6005481388646594,-0.15272194983717535,-0.009684682457219153,0.8408235217662674,1.7425845187506774,-0.3850890672920293,0.1642073271845628,-0.8534325409174836,1.0026876811549226,0.6455710491534922,1.5246163984249468,-0.2801709853363744,0.8238079592263438,1.3755856493984393,-1.4830828269086602,0.13698620688652421,-0.24836622543574507,0.021307899598432073,-0.0009439958090910262,-0.17554289493415381,-1.3763696122492561,0.1208972444966984,-2.0125559563701523,2.7508850278297072,0.036701695481586645,2.740886694443003,0.20830763355801807,-0.6184407398711442,-0.04698313395909991,-1.3827835099052828,-0.6048148246975725,-0.09160120771194392,3.571897370386955,-0.16259226823798287,-0.6984317131473122,1.2906987214283845,0.18099087718835793,1.22374725168371,0.39484055379070615,0.09898869650971244,0.3144702894533714,-2.017857505657312,1.3519863302499053,0.26809989597538697,1.4570203783382507,-0.30573473576313476,-1.2160815334938577,1.2766696520980971,0.6389136798451119,0.6530921213210584,-0.9260403741571127,-2.0915090328183847,-0.5644972249206844,-1.5058519843075449,0.3169733476550288,0.21607242708215532,0.46935721199770103,1.711677970055055,-0.1968223010379645,-2.9658020965559335,0.5211418030867256,0.2350805138808725,-0.8855087354329956,0.9281285660454522,1.8346971849772509,-0.481983750138428,-0.8691601375684581,-1.448122904740625,-0.30239231956416923,-2.2243776549026144,0.45703849163299326,-0.5966321477720958,0.2101554891729737,-2.0210029873082576,1.3062522427865053,0.5994151640186859,0.1073537475474429,2.1571032070045346,-0.6787203752102016,-0.6883463744894143,0.23164836626567034,1.1029730304652585,-1.3548655243630339,-0.19407827201369304,1.4967601771614556,0.6177246144293086,0.6129054478193138,0.912107152230515,0.30396819435986205,-0.4153321730082105,-1.3824099456169257,1.4142202565824529,0.4079730565060872,0.06309221056909543,0.13018493489694616,1.0094508229988066,0.7254273168101935,-0.34255585385786175,1.1921968859022583,0.5953783670754982,0.7311347715973997,0.5287564975899303,-2.4835320490410466,0.6195434215612033,-0.5721823227010231,0.18477684910914227,0.7237410717873617,0.5962599991379308,-1.5612433561697328,0.4214905043396999,0.671472034878586,0.4321235222046315,0.2011600862299603,0.02955443710441198,-0.8975093533789434,0.5180776258343367,0.24050670277915895,-0.9338698112681498,-0.4843172985693874,0.2248266627802987,-0.11413433702240712,-0.5439012075892808,0.30636661648325814,0.49030867184321847,-0.40433363182539883,-1.670944834024022,0.8965632289364921,0.7089777956680706,0.3686335115102149,-0.7303899100109673,1.5587159250076752,0.709325711715046,0.7159892885053643,1.0935379910754437,-0.383913302338373,0.974349799713735,0.47246483471698697,-1.1574639246589462,-1.1092778658416917,-0.20598040642704812,0.5455229882304617,0.7592219615007199,-0.48172328430112094,0.2972631643681327,0.7150125277983802,-1.012655422550347,0.2814327356569385,-0.30063697435615255,-0.55398651230193,0.2769199674813879,-1.1017220944724586,1.4186989437544404,1.3816692231614687,-0.9122009810256576,0.8342926169149214,0.11060416210455505,1.5670269116335107,-1.643211409250314,-0.5329468274512977,-0.8032789220070258,-0.3162116719134368,0.366918511610446,0.4391883265235188,0.0827917661980069,1.1514505270231525,-1.5681608548502133,-0.9233762766807744,0.3314199835926709,-0.8175417224452993,-0.2110977953946775,0.7362342625423375,0.489435081979245,-0.14368626835776396,0.5176810943427588,-0.44698386949430496,-0.2517359031499559,1.0324663453414173,-0.11627400065164724,0.6437045204501604,-0.23672862544752585,0.6771891907213708,1.0375423341968715,-0.197572274796207,-0.26160095848503145,1.397291440467482,0.9360403582722758,0.9911190415534252,-0.6730515409048726,0.0013425251314655592,0.7160336547593461,-0.5063472361355666,-1.1022588445032488,3.5372993091472718,-1.572820684400174,-0.20177256722239217,-1.9061283118426282,0.462911963859293,-0.017948631196940647,-0.4589214721917384,0.045537961575553704,-0.17849966340083384,0.09542488779288463,1.1531730310289043,0.46098909629455703,0.916380663408434,1.0211729304733224,0.29110096243518097,-0.4314461989737654,-0.7269169070374984,-1.4965061849270946,0.2969060375998288,-0.029420566883068898,1.3435277999961532,-1.4363349462030968,0.8086492988344232,0.28160922090849716,-0.4198675981388714,-0.8019438523597223,-0.4059003593690894,0.7586811767726197,2.006187090501459,-1.1050636678281651,-0.913350093639008,-0.5433784712967068,0.09971502700936188,2.0545039496534696,0.2785699045494281,-0.5210292758815002,-0.681970170267332,-0.9835180049206923,0.1985518629840911,1.0014528203791215,-0.7435259165279764,0.7385489960066114,3.049775617174963,-1.5793465036237864,0.8792646556555309,-0.6339493321982774,0.7993620248782738,1.3426052804875481,-0.6475519885593851,0.6742234813127215,0.7882556584134763,-0.3106968478947809,0.9757487964706734,-2.5011954575948216,0.49166989753082924,-0.999740868361737,-0.02980274645125547,0.15592503570243893,-0.26182353600005404,0.24413989727860824,-0.9707251316518802,1.0998462032264071,0.47770618210610416,1.1933375152452284,-0.06857040553323417,0.46171732005321925,0.11432096868058751,-1.31802169647269,0.09019735938364926,1.2022735351140534,0.676459893802473,-0.1273715900713243,-0.409935552789995,0.48436792163859516,-0.22572236006323493,-0.6529787605987738,0.8479061706475274,1.0541086185536148,0.04496650587067332,1.0639437137820773,-0.27583703540590043,1.019540037392453,-0.18340454927750519,-0.2192720928720457,0.7632226352184839,-0.741599774710966,1.2165829306172935,-0.13507019557408012,-0.8238233624152508,1.0580015932098403,0.5180206409038767,-1.646148104373618,-0.1566694833089145,-0.045315225597547325,0.31179598580467766,-1.2280329583083918,0.15436843714090584,0.4771261794200775,0.22044156454233754,-0.3641344785001828,0.35512849193853424,-1.3919770426284268,0.16625779883764205,-0.6545548074130877,-0.9395992881813019,0.3262843370391639,-0.8223879651363332,0.12683689487752853,0.10470110823134743,-1.9536083117701448,-0.022974014521195414,0.6120890410738504,-0.04745432006763911,0.2831262714629834,0.3448682426139793,-0.556669741990654,1.3739896729715404,-0.9741745120521427,-1.1610017070808638,2.3671140507651587,-0.35120612786689026,1.9391643813810937,0.6802602980138042,-1.8072369037857416,-1.0859346214643126,-1.7310140584326983,-0.7199199414475252,1.5882662747728422,0.3209237273682736,-1.826309434497985,-1.2943155745246055,-0.6656956851077869,-0.6761112316511949,1.5405477944683588,-1.3626936338839537,0.6841308110472469,-0.7748114155015896,-0.22097780715506332,0.6824648072131758,0.4157471151541941,-1.2604027345935165,-0.6016622824029615,-0.5195117309561091,0.23786561242970383,1.4128805570830212,-0.40365176535666775,1.8273267126673707,0.6798270418281989,-2.274392027296456,0.5116465505468909,0.09878783643873447,-1.551428458764235,-0.6252705328730201,0.34701124928346183,-3.0930285894769276,-0.061648242459731495,0.37438359053372094,-1.0806124219745756,-2.2449326732795374,-0.7092817026634971,2.223005883317993,1.5052562496154973,-1.398249957344404,-0.2510540671801605,0.7213176451842838,-0.10333726537114128,0.4492735430463502,2.064850733996841,0.014704326791594316,-0.12771658660809163,-0.9217991056646335,0.5108705892733931,-1.0321561451776748,-0.7988601591381617,0.43108615518486765,-0.551999571789218,0.5060564859854583,0.2523548019946646,-0.2045078832158196,-0.19148624681123003,0.6834023313921066,-0.0675276963081723,-2.054375575834313,0.13560748053316515,0.2884092599568896,-1.0276357184553953,0.30683312907318133,-0.7379498832542645,-0.5154398376263816,1.3314315505136505,-0.34739386300231223,1.2452079122137276,0.18182197225182906,0.18122583050236574,-1.4946894437507134,0.24731945640149033,-1.4838561818433222,1.6318117229054185,1.3887377082996704,2.288649338263639,0.660218747784596,-1.1224847957337245,0.2605740703160116,0.6501093016680958,-0.4080971700609891,0.41502856910592084,-0.5724659157892542,-0.6344037176188557,1.7305043890152885,0.11273581324520017,-0.8157386020316031,-1.767071258699674,-1.5253594312006231,0.4246028682391934,-0.7251836837821232,0.3604264246760688,-1.728574091011161,-1.7047267338756,1.8495510354956048,-0.3285151394920455,0.5787259067349627,-1.3258615809716912,0.41993307903745314,-0.9412600722362994,-0.20080212713434717,-0.6544916011120588,-0.6419935571700288,0.8399192774953071,-0.15645009291930337,-0.31169871667801413,-0.5893842031485665,0.9544331538236535,-0.7013236551973632,-0.15152161027541847,0.6670910987588832,-0.12022356893262953,0.6907514832517148,1.4888952996495954,-1.2724399401058284,2.263806611167155,0.08871431781677762,-0.4651157435707881,-0.4900956924010016,-0.7720865667224787,1.0081334072691948,-0.5076978851707701,-0.4928918058258499,-0.6952995803271089,1.6911345754335714,-1.2271791783306507,1.6383607142054424,1.1471428627345865,-1.7070701839509572,0.95524083741279,0.5182081171131733,2.0898945084125553,0.061468415591982024,-0.8478064927354574,-0.11417943280839041,0.7254080015894669,-1.3660396689205874,1.128839166308071,-1.4737977800230215,2.9278204331697686,0.5450303378123095,0.8296688038652766,0.46019910298901684,1.2973154176046364,1.2702840862143518,1.3429608845268142,-0.06964117280154446,-0.27026326506186543,-0.0066263267034919245,-0.6067200877280282,-0.5756004735982084,-0.8922680181575958,-0.4363084642870861,0.260037898171604,-2.0372869284309085,0.7894092489733212,-1.3150114558854467,-3.16801153147889,-0.0031031365196673767,-1.5543097933312504,-1.380281153053317,1.312968853251485,-0.012654174815481466,0.26536215097865123,-0.3959566579365558,-0.7698137321317817,0.6809552518627803,-0.8462065527974238,0.05369192401013193,-0.9538941636656638,0.3410222912965971,-0.31358961668891655,1.5332171506722747,-0.5219070001737885,-1.605932988947986,-0.7585496179764019,-0.6155404003844205,0.18595364286485355,0.7197087043906528,0.20187077805277995,0.11855002032918303,0.5087862000314716,-0.1661519404589487,-0.026727670562450633,-0.3194741718512776,-0.3914123660402464,0.2781276378770602,-0.8958349621636255,-0.7340123532564043,1.291324143236447,-0.27101054181020473,2.015396601639392,-1.936728432186541,-1.9296569021164542,-0.5632011722034186,-1.4106159201672464,1.0304328333650337,1.1482308939474695,-0.048967755063625655,2.5086696316296075,0.8567886595796883,-0.21314603681138944,-1.0203928379074512,0.8041017660926797,-0.9649592853446353,-0.1302901721222675,-1.063468243163069,0.14772865341375338,2.106566542097626,0.46989900697097176,0.7953263553301686,-1.7020623314969954,-0.17731091057972287,0.5617656896805558,-0.3530915096884459,-1.6295351814077472,-0.3588060705468278,-0.13975262716408388,-0.9281713884012038,0.5773575921326757,-1.0737074668606261,2.0764314801923867,1.078805338509269,0.2582804671404913,-2.1271013102915712,-0.6530205427403613,1.2924860457604401,-2.627538558495592,1.3306221149268591,-0.08499419776907631,1.2497628728545038,-1.9541587669823908,0.25157108702013653,1.9931626372753652,1.3010960141050885,0.22950342848935312,-0.11771694968931046,-0.43813262100688716,-0.9649494975509065,-1.6051270103836586,-0.7183800451869963,-1.4058654766340024,0.7429895837232737,1.0956854142433459,-1.9193304960349777,-1.886365024492054,0.04482682105242619,-1.329874322313224,0.17552434247477222,1.6666987075758677,-0.09627313241213274,-0.7227883683096588,-0.04161794993895268,-0.19395253058157147,0.16088683477141458,-0.3516591872074916,1.3032383369994525,0.8242301138729156,-0.06662326360939548],[0.9626655350094734,1.1737987916590065,-1.438257606836812,-1.7385945670542133,-0.4047165382151567,-0.2120051679652553,-1.1845087058763422,-0.22991051005467977,-0.46105295566202703,-0.2411349587913159,0.6577017516794588,1.0685671550551463,-0.4650925720736218,1.132822438942701,0.31202134279475996,-1.4478434504393147,0.3502308884628759,-1.0667843715901042,1.051191498574293,1.878268221810361,2.4300953495554647,1.7623041599816625,-0.04010488172956397,1.2453837963894998,-0.13035832217184418,0.17305487016595536,0.2095158492837009,0.6726656220358075,-1.2138129136083695,-0.2139084110992845,0.16628501144405716,-0.9687917255408838,-0.6125028100038656,-1.0262818307359385,0.055831566344863026,0.2323408434141925,-0.7385271296550184,-2.2091735085952258,0.07251102996935889,-0.16470002447795962,0.11914255895883887,-0.37108340390895156,1.4746155092143571,-0.477750107654042,-0.9740247875150448,0.4869112622442803,-1.9529291827951445,0.896554675358715,-0.5008267429885649,1.610132230205889,1.3177868296384354,0.05574560242786977,-1.3021458364910898,0.17579422360028518,0.5754128960008134,0.40568115507984825,-0.9821557936204486,0.9156346099442763,0.053533095947718726,-2.5271135915499436,-0.3836661682880834,0.8846642368770525,0.9458958435499479,1.0688848934551278,-0.08403031637890201,-0.3735468750474727,-0.2257498564766875,0.4439634416398224,-0.3204123915225569,-0.2660846378515837,-0.8515013974531164,1.0224127227988251,0.6991972075842054,1.130002065957585,0.6837682124635063,0.393151658073988,0.7815341255980085,0.08823446555070659,-0.09337730591699189,0.6658631877234643,-0.7573474269819098,2.0771166578923768,-0.9944103500060358,-0.7809393585527189,-0.9594154962064795,0.7691310005611711,-1.4687846769200412,-1.2701500619622481,0.4553243086079486,0.078946757224997,-0.1606165542636509,0.31199104251940274,0.09777007296607593,1.0653551256986848,-0.1366370923733487,0.06757559494194969,2.594596085894118,1.1330407324446894,-1.9738281516488914,-1.3749011106482476,1.4889950855381013,0.7054042301275807,-0.3663883871795431,0.21765741219013035,0.2818676771194743,1.0199870306536087,0.6929984515248337,-1.3368016965399216,0.5014490878708333,0.1392190327356729,0.07543041410930722,-0.7110324517058045,-0.09176638731024404,-1.001744897875561,0.11539617968029241,-0.5757668633174565,0.19718017345090294,0.8322320853324188,-1.290668624302295,1.6964088317680044,1.4641798812399485,0.3398296262715758,0.8536633290263189,0.7969118842682699,0.9520980999512291,-0.411536015652319,1.0060158531633825,1.117875703534244,0.8088797013711231,-0.8711229718630457,2.01752323814289,0.04332837145912551,-1.113102884782081,1.6254199298260807,-0.3865243648965463,-0.7352325121158118,0.6030114542745763,-0.9029276951886164,0.1490234842126153,-0.6747471254942115,-2.093771512219017,0.2086908068900839,-0.39720159648119185,0.2598981134840508,-1.1499705268378522,-0.4263372236581372,-0.11577143033507657,1.1480400048335158,0.3203421070403065,1.3780425571141663,0.30799530508300516,-0.026060158414995732,-1.9771908766669541,-0.43134021542630113,-0.5637542084301875,0.07717711675592567,1.044523698153629,-0.4170443277635223,0.055770770547357906,-0.5933670118865811,0.33976179490904096,-0.9333704890167982,-1.3872874396369321,2.0353281671495322,0.9071124677903781,-0.8896353231911452,2.492155786285986,-0.06956287377565672,-1.0791435262182298,-0.5492237219742503,0.7954699738919142,-0.12740549566667933,1.873433152243542,0.03958312153742232,0.3854369949586244,-0.2883803359063177,-1.1707510041513036,-2.420758426077042,-1.6600770584357447,-1.3935484696056706,1.2826679809161596,-0.5000435598672174,-0.45693890935631876,0.8142426454281635,-0.6918376240006767,1.3760288169803954,0.8971313899271983,0.9986078917863438,0.19997829919798674,0.2558161543465995,0.15616637434705474,-1.6074249498104087,-1.588471481696351,-0.01667392476792711,0.739882730644785,-1.8072569228056872,-1.2101410170219498,0.7362810728260137,0.7906308950064738,0.3015816826393646,-0.34959376411394133,-0.7733588894291114,-1.551310447259777,-1.06623713989393,-1.2181521094680754,0.602668087686082,-0.03962951196926395,-0.2921745910816282,-0.37619499912902105,0.4145129709266131,-0.9782707756286407,-0.2380498833252138,1.65155283930781,-1.5682326897953742,-2.6940685146680727,0.8326587839158399,0.9671122507680786,1.4581140581905705,0.4777545831574843,0.8007339153856342,-0.7529702381136598,-1.1201673805198897,1.582000311429859,0.7622082960381749,0.3080308888851846,0.3944378220151269,0.20407556863424206,-0.02492660041436626,1.0503346587643267,0.10285048161969972,-0.9325304546591794,-1.1797018627979483,-0.32535059477612327,0.718314693328645,-2.040989076133116,1.468893169075135,0.11782393215251516,0.688649875456142,0.025226565122400707,-0.9593220873596564,-0.877199286254767,0.2960232149391462,1.7093528580655497,0.42895693222732817,1.069496698775013,-0.018795874101369674,0.4427501271314327,-0.030098041196841167,-1.8784977757814534,0.6049017008368536,0.21482301865255796,1.7779320138634678,0.5420683128799754,-2.015822357487881,-0.8428281203870164,0.2531908595885415,1.1173398596805832,1.1060438718265366,-0.6832892216703627,0.3866553304903667,-0.02762000371616809,0.12300609820101822,-1.2311643982869143,-0.31929193853757853,0.2433307399369097,-1.2671675379288616,-1.8514387012190219,-0.407475751941577,-1.250750500143194,0.5560395423360738,1.1723954451715193,-0.8447023498453854,-0.4255592191284491,1.6720505178992604,-0.7486443169303594,-0.7446228676377634,0.25899914008110725,-0.4272402937226145,1.8535589464606832,-0.043703884560565155,0.4061626015208558,0.6521468650323174,0.06145704297898786,1.1612166150227923,-0.07208596717822234,0.739972038948455,-0.4036209971716766,1.1360723486074675,0.7375395418874772,0.4180757113609497,0.08424474484628668,0.5467541450454403,0.4029297828368764,0.8334899328482224,-1.825859950917915,-2.679800646010294,-0.3775596778847175,-0.2911072669482346,1.630376371435053,-1.131826664299043,2.9302288761591018,0.08158076285587472,-1.8713157362347945,0.07869322544601745,0.3355726523751931,2.0417688942829963,0.08625621332875955,0.7834896619717263,-0.9204485231892753,1.6418190819624767,-0.35838486549040655,0.16772236147537592,-0.3646675246211201,0.30749726695024565,0.5002482290070329,0.6439463390288056,0.21127234844160503,-0.18365028987019824,-1.3925907745129962,-0.7329597710528495,1.401632358548564,-0.9185258473793461,-0.41877197212181166,-0.4496959689595811,-0.3663033558626908,0.9343003067847402,1.1449249176514489,-0.594473549759703,0.03729788942154164,-0.3075803916892242,1.11315276201172,0.9170537206908321,1.0124675735088784,0.8551772694654479,0.7893424164720823,-0.2917633711582193,-0.6569092329790235,-0.7466289995360725,1.0622837475796947,0.24209839216723564,0.2667946309369318,0.4488074463755985,0.485228076717916,-1.735332668966355,-1.2632750333523803,-0.24782784489586124,0.6324165682795405,-0.8595133840624863,0.3204898168881809,-0.616487531342876,-0.9324780971491752,-0.25747626505086396,-2.4011701863237667,-0.21429473656869164,-0.6026496360561924,1.4156019873121284,0.31365382065504843,1.590056526956423,0.6384775447959856,-2.3623000702485113,-0.23476123083559464,0.5126260874327633,0.18345180044095408,0.8575983769444169,-0.8497794660649565,0.6460781762617602,1.750119619140759,1.2950691060950206,-0.12827934543322903,-1.4145736824106885,-1.3221432642039226,1.3427062655622857,0.9546038625302985,-1.8041235778346014,-1.3410048886050916,0.5444660354482079,-2.0709761945348713,-0.5025869090169113,-0.4828017450175087,0.8402499960324221,-1.9069242804146138,-0.11143426067853299,0.05718419966491536,0.23220278786287346,2.0758404967775212,-0.6473625684975689,0.15846039481613386,0.7933396812192083,-0.6976871082065639,-1.8222198206839748,0.3473453040394505,1.342850762390738,-0.8196161198154878,0.01436877479501776,0.6755056696201851,-0.33976867116,-0.4005837254052366,0.11108881222318552,-0.3423119451978968,0.3457943735128542,-1.5957596960411708,-1.5185757948805831,-2.111253979059254,0.37593369977747654,-0.7840822177276577,-0.4096026147575193,-0.7136412581106953,1.3032496653316972,-1.1741294794868808,-1.2707221097631263,0.2912896320004252,-0.67432312896055,-0.07938758766649288,-0.00588389029613911,-0.5269048643013026,0.7029643525970918,0.17777003957552395,-0.8068027056215785,0.5387239661358485,-0.06549620832755038,-1.6427706441954224,-0.4773726176257411,0.044220120634322846,0.6150197201977957,1.414737481388342,-0.024701568470272776,-0.9786579599008852,0.6916438531135438,-0.2077345977254693,0.485084288666837,0.16375634153998886,-1.668621657913264,0.12064693246159212,0.6966638814814334,-0.6863203277025045,0.36168372898162504,0.7232670248764672,0.37718846070227274,-0.043945458629937276,0.9640346779874152,0.06164743521498144,0.7028410389576992,0.4998675655513466,-1.1586658890822277,-0.8488856181890064,-1.0518346515818964,1.504503802442898,1.3334713386005663,0.06799636270198618,-0.5816648351776454,-0.10673045123608604,-0.7291307226727065,0.4977893429349093,0.18841422426886945,-0.12900776242047554,0.1887377726616687,0.5649738337644976,1.0930595868370363,-0.8206393328051739,-1.3290026694911568,-0.37541687603262036,1.9052432607569392,-0.7391896299313586,-0.9926930920829424,0.22601406668342627,-1.1067046425480116,-0.8675369489241697,0.3400440829514726,-1.0316112045813668,-0.9990041880802929,-0.5449218985434212,0.173754189007146,-0.09564435299675099,0.048168748355283425,1.0509688729059885,0.03951724906047022,0.8115441811283935,-1.6077326137277392,1.070159442881075,0.7435173386913804,-0.6462862090681871,-1.012883976863127,0.003730164851380654,0.477728996966898,1.2314983952041023,1.8266618733708162,-0.28811843554136857,0.6629484744536359,1.2418375440730527,0.6790170575732511,0.6339656697177378,-1.574179791646479,1.258576402995126,1.6324768276696424,-0.2674982389689538,3.0897194336438023,0.03479655179664817,-1.223464891582064,-0.6626196193041469,0.0454112240121455,-0.004179296284033617,-0.9705619692576405,-1.4908830494060334,-0.09251272372374782,-0.11295080344880296,1.2018015540186056,-0.9058849433337732,1.7432952292819879,0.2801101328970929,-0.3608477886523735,1.2997696852983693,0.021304988481981903,-0.7485949054121461,1.070382607237037,1.764658245229557,-0.6503584542308526,0.7100608587143338,-0.5623976323112503,-1.3425802764043302,-0.037307531098029346,0.22055390178945028,-0.3275606580957404,-0.4778292085979058,0.4269066021898485,1.2188522837042577,-0.11802110119045742,0.27317378809525594,2.9448704873087617,-0.8379169072645383,-1.0554488163154347,0.9494837096704886,1.770706790241346,-1.3865441332814699,0.2857796924553552,0.8436463957724922,-1.1931827422238337,-0.04783099549053745,-0.2679152082584167,0.34871256108867693,-0.8716705655081718,-2.4472503824631215,0.30436881955273265,-0.7219240262754938,0.09475742657579396,-0.590484029298497,-0.5308777361605352,0.8788758329838549,1.3978910723030729,2.0943836864642997,0.4363814048982381,-0.8742928167903343,0.6064814657912675,0.18326433397431757,-0.26783268194461896,-0.5521317985059653,0.5093206193355472,1.2409130613775567,1.522210615215395,0.7900600868426768,1.1084873031134774,1.2784354286902495,-1.2786156798937907,-1.3812625315284697,-0.09709918565531912,-3.212640255827922,0.6483892980288154,-0.002966092069383314,-0.416743262968936,1.718470220695407,-1.151465430553561,-1.5870891141569687,-0.8200391844125046,-1.18297524785151,-0.6849066962310082,-0.39747443810210104,0.4979947414546901,-1.1727645297211973,-2.1268074839508504,-0.25879581372365007,-0.6832559932830137,-0.8733480336846031,0.5895032951805692,1.1549270635194369,-0.9233652102658507,-0.7611921100667095,-0.041348648902417566,1.1610806576852832,1.5750653285921719,0.022661422485316274,-0.5093769801365163,0.1070436381076114,-2.4372439003043147,0.9732088382162334,-2.407192462023368,0.48617206361793425,-1.222516377726811,-0.3088204126554878,-0.7764474478545995,0.0729667563618365,-0.7247379002043685,1.5660824891462697,-0.9287352893276601,-0.2890521001840533,-1.5098454415931994,0.04178131017717793,0.10873307975421234,0.3809699142280915,-1.2332494029881709,-1.4048253347021722,-0.6646764400275977,1.3592615349246417,-0.42427978808468303,0.5503412169343834,1.4566567329254467,-0.7288508712733595,0.8245094029807665,-1.306764044349286,0.17182921266495657,0.31201045836685,-0.27923547156252776,-0.7507577706148006,-0.23759507347434644,0.5859903415475974,1.2749363063116195,0.8719165587816946,-0.5755802450240071,0.2409758256377589,-0.21474312901693357,0.6226669267403855,-0.48967438397436586,1.3295281401314551,-0.6215434772303238,1.4373140363570984,-1.7581180423961682,0.567675177905291,-0.5426588851329939,-0.6364163157606325,0.24892543139833076,-0.3358864103422579,0.49437314035494495,-1.3405543247103284,0.5319774757723523,-0.2887771673597418,1.5055176150484662,-0.7642900953614042,-0.5694717198788171,-1.3357713977086538,1.7460117763642675,-0.6942921870702077,0.26321150533008564,0.023558253572580682,-1.191247530176813,-1.833872999507458,1.1719205188755426,-0.5329113966288063,-1.447478406526978,1.301961679642386,-0.1532972091823278,-0.20776065363899118,0.8471291888842479,-0.8350542613395721,-0.32219907764886085,2.064721397980627,0.10101083081728611,0.9747827152463536,0.24504472399111912,-0.9499141374561665,-0.26930036717944955,0.974039192587929,-1.3045421760663454,1.3108829320322428,-0.10181499224128401,-0.5550939780881293,0.0658207773308921,0.48724100149490324,0.3930296786365588,0.2497058294166871,-0.7688649216919282,0.9262161297328116,-0.24452755179336946,0.7234130510373004,0.19563024529725478,0.34704106285308156,1.742409521090207,0.04011102038802533,-0.5853356290727552,-0.04639482341369686,-0.06586260458882717,-0.1878760050694479,-1.1425663046986407,-1.1468026959518431,-0.004151114999847356,-1.0011021850093433,0.0009823711980362243,-1.5213280865439993,-0.08305193181619538,-0.5574574883145881,1.1661707592931774,-1.2412112425286292,-0.2833475650573207,-1.8191586512612925,0.3183509983771814,0.3712506886741543,-0.13220626798866372,-1.2410030167249224,0.9191839511570031,-1.0295371219095082,-0.9658896293862431,0.12396384333696633,0.3514382320611109,-0.27095945325690374,1.3909024372014083,-0.7362881343800001,-1.4917177366575287,1.59060499018022,-0.1254004761446978,0.5673664728662292,-0.21255849340380675,0.7452058954416949,0.9683326153033756,1.0674599676374834,1.5780404594696698,1.6677570919794662,-0.02396007746077633,-1.269143034026877,-0.8995180909284493,0.11436561536919078,0.23469431015811712,2.1612664712568876,0.2864788484886516,-0.7533190505909405,0.8566153622251661,1.005643223877528,-2.647947552435675,-1.0826379492653315,1.5526691484179553,-0.7076964900602309,-2.064666561996892,-0.3841720093715644,-0.17945849008104037,0.48217550945463145,1.5819863986729668,-0.3794782473091618,-0.4511458015679216,-0.37946922076921014,0.19686073880338517,-0.19498638214395092,0.7820854126391756,-1.969733463838202,-2.0628306213473406,-0.7967689631549749,0.6328933087608732,2.547098995818826,-0.09615641361507461,0.3027511853863191,0.7041042242081335,0.15767547582831373,0.4246455680907634,1.0590946971251811,0.30956206896606114,0.3358967373329611,-0.3584136039443624,1.1999222102351672,-0.7557554614481069,0.45006951052667654,-0.27163956806002937,-0.015815020940258932,0.1713727533146758,-1.4205810303036748,-0.1110922873295516,-0.44867892308336654,-0.48314606184360304,-0.6885369684571306,0.3679233293461986,-0.34932837870612726,1.110102371916336,1.659769175376447,1.8641618189823796,1.119143681047239,-0.6951420622909189,-0.17458803583575402,1.3289325302882748,0.9650199240274296,1.218321916459381],[-0.45570318594487036,-0.2546898697756354,-0.511729021917617,-0.7128459340829175,0.220457854997411,-0.3887832401625269,0.817369592272402,-0.40468982461232494,0.3246516088739214,1.2655026429909717,-1.9480227444093654,-0.10542633087616615,0.24384714180563563,-0.544751804305418,0.010595491889582757,0.9705907595759308,-1.6347750288524971,0.23437071021300082,0.4484129720281349,-1.5562480233589804,-1.2516635004081196,0.46771602276768737,-1.923769537916532,0.4836734235069028,0.08679908812218347,-0.9276205598084335,-0.008884773495927584,-1.0018914020863334,0.36913584263984117,-1.397905407067521,0.5836362710117301,1.1755574991410092,-1.0881080085011965,1.0515274205278722,-0.4493078685784898,0.6112182555079706,-3.8105733848687424,1.2536653295700662,-0.872234032744404,-1.3484796809889628,1.2288982873089005,0.00039076227424328255,0.6432128505081453,-0.2976002523637413,0.4980087519581052,-0.14546830936184046,0.23806167767896344,-1.8952361068110697,0.1095386516184751,0.541107286268401,1.4588236969490114,-1.1759626922623139,-1.7539117554090713,-0.6371645256856364,-2.539343676758258,-0.76086716374907,0.881626942625782,-0.1920463940806424,-0.24385863851574693,-1.0226325592349446,0.018390771475581817,1.8444812560466413,-0.8764998992564562,1.0044800757759202,-0.15963783105232468,-1.221082866065934,-2.838229922111034,2.449253640464867,-0.027087174110932564,-0.055983749449269274,-0.12538887383565545,-0.5875171756963389,0.36162536913319293,1.0983276769345773,1.2075620209772608,1.2882921378184728,-0.08213210957503546,0.31558580104764594,-0.14002224755109952,-0.890302328090577,-0.8965733806194949,1.1323961119165928,0.7558269960961806,0.3231011404669102,-0.888464847043071,-2.123742734322135,0.3218476193466964,-1.5792814813700082,-0.3873812364249875,-0.7216825594583147,-0.17181531333957797,-0.058058167502224554,0.2898929403519467,-0.7395846426868989,-1.4412004468468362,0.975767182474682,-0.25239535584619455,0.5633286190933132,0.4244902105320284,1.2685905090045542,-2.0617960430838007,-0.9729484799052698,0.2905702885691368,0.2643982995513352,1.9374255845542279,0.6816445588146977,-1.3263779877240376,2.4557304791830705,0.11438098327449642,2.4844127650288015,0.022522289947174378,-0.010080609377572597,2.1516919746297134,-0.3069987684625454,0.5562280348062645,0.32050721373418956,1.2069292167104946,-0.38191289109200444,-0.055976241292159695,0.35681983901959646,-0.42638408547586343,0.6969202590053809,-0.8039592841496089,-1.6532724763941327,-1.275129377565217,1.4326595557551358,1.928221130586595,-0.34143911639514596,-0.5806264736446697,-1.2395534539650663,-0.48413885834365306,-0.030425214363460164,-1.2971418384642912,-0.006697583334051244,0.37845638536909915,0.07737438374741733,-0.6731047424661625,0.6580571553176854,0.2587897162828628,1.3152180277387902,0.36153946011349897,1.3612504937150647,-0.9650996406803364,0.34800314780450115,1.0083828909847525,0.6453524821111298,-0.772163338946398,-0.22169981576953904,-0.4062935262106864,-0.7862653918370791,-2.363476939354351,-1.1702479919897384,0.9947796535968835,-1.7512349095750304,1.223406693095338,1.7769089972021328,-0.5973655234257301,0.10179371712214567,0.18471257263348997,-1.7362443641842888,0.22269837431088058,-0.4566219119366186,2.5712789136282335,-0.7379924821875814,-1.6788919691411248,-0.6835351571007312,0.3401634496350501,1.7642197108581876,-0.33276175542100056,0.18004643076559756,1.5099382024086965,0.7011372668877284,1.8860312148946066,-0.6484942066704776,-1.645689596838647,1.002383749710137,1.5053179151595903,0.3072503705133991,-1.3634276201823268,-0.9762014206203674,0.6554741909540363,0.9846495090237529,0.8152993932141127,-0.8485513348754841,-1.0179935502866002,-0.5356776002818656,-0.12756192108761988,-0.08543082524589314,-1.9135451515159676,-0.742598847537339,0.08532313750860542,-1.27219626434287,-0.3389088728046763,-0.19097842527126072,-1.15584953938626,0.540560240646714,-0.061357069158346024,1.446592656189729,-0.18600850072562494,0.26108098600646457,-1.7673328461486073,-1.7468256687557615,0.3590837348723336,1.3496867010855467,1.3164902485916519,-0.19248943972992338,-1.6059439583718764,-0.2394031895649644,0.42764927491345467,0.39545205351273,0.3548333512840851,-0.9840488336910628,1.6465139979593988,-0.7683732713872226,1.9013119443468771,-0.39271527249585925,0.06449818740471334,-1.053641252783225,0.5992435091394158,1.1803055143977452,-1.8492088075577977,0.2201652404123364,0.7388573548701546,0.9005804436765414,-0.9023063852346014,1.1232539964347323,-0.6857351361776648,0.29173689962545263,-1.2106929497653733,0.9970643356657214,-1.056639940851698,0.9394020517624246,-0.687038545248143,-0.23927337935421847,-0.25114906333236947,-1.6001604004646421,-0.9985924033808454,1.4365408516654872,-0.2721355208998073,2.0354144637986886,-0.06836848020653313,0.6811874050215573,1.422429299681553,-0.5732602191936846,-0.5213454875581985,3.132263972550336,0.07029120403518473,-0.14621040815315767,1.7847206425953186,0.40456171664364715,-1.4018419827308612,-0.885021625893559,0.7322312211614215,-0.1377657950135552,-2.927155432263385,1.024298334610949,0.5310669295830759,1.0080213267220397,-0.7125747982132903,0.8942316266451588,0.23415684583623297,-0.2664855867655531,0.7080698182154729,-0.8439189837376992,-1.644602564131923,-0.7802973316721481,-0.62769859309521,-0.5849474133664877,-1.0266717373739835,0.09752428305032161,-0.4738325247930968,1.1249519505976868,0.22145902877638676,0.127661472786826,-0.35552118235253927,1.4992049926638,-0.6800430305719634,1.081997106158416,0.691842106314797,-0.909197093203106,3.4385724595697673,0.3176623615072872,-0.3997094102709428,0.3179126744050356,0.3728907543849945,-0.007206739003148155,-0.6211467642250346,0.45073057322365695,1.2385218906369362,-1.6952782991082536,-1.1573404332504873,-0.508127220761496,-0.6818844395887926,0.7402935185372692,0.7155513163169026,0.6403904786879099,0.7165599609390823,-0.8485541665837028,0.07371854286254247,1.2336729824437396,-1.1908020171827753,0.2875933707670102,0.27943417597691983,0.6391460005526783,1.3282816904158192,1.3332033899073812,-1.0797938556441355,1.045721567038403,-0.7529320625756791,-1.1385025210935302,0.5343859730461008,-0.15427628849875016,-0.2816293566457829,2.30898862813746,0.3900675630519808,-0.06141364126023751,-0.08483197087599843,1.2556340091653238,0.8260294912236855,-0.212044144635353,-0.10144459879328904,0.19111337766288766,0.41694812747488064,-1.0888368237535462,-0.797902774249288,0.3450683539781333,-0.28831552110629033,1.3950970332039287,0.2679431000131537,1.3565907129799906,1.1265213483304646,-0.11111543576373163,0.06891942232687084,-0.00590787148244145,0.08539614775501145,-0.7816553557985413,-0.5060466804539165,-1.4652674617377723,