{"snapshots":{"0":{"biases":[[[-0.9503144943665592],[1.384381630751252],[0.14609496005058473],[0.5343811072327823],[1.8396221954991525],[1.0556580838887337],[-0.37792481429311353],[-0.41843554263246624],[0.5787426666072273],[0.12462424067404183]],[[1.4378104691625726],[-0.8226423916010166],[0.8661303855318488],[1.4716727562219254],[1.419952725606747],[-0.08680448593347667],[-0.5911018004562592],[1.736131625068502],[0.7357565031918496],[-0.37612152667400917]]],"weights":[[[1.5456311469760666,-1.1575953400458514,1.7182554182730143,0.5703531556796039,0.5732320129427134,-0.9178847328196571,-1.6606483286293543,0.6229305161460595,0.8305232558197618,1.7564802422889552,1.781988261556951,-0.5834544585248294,-1.7881989538571323,1.0321756472976409,-1.9002423158523145,0.21280118643184276,1.0056941236148218,-0.11910433916072927,0.2765445787407253,-1.243667310289395,1.1139974662415892,-0.9163239354129641,0.7302881982512499,0.2110158875018182,0.4285252378943699,-1.5665474230987761,-0.930238674775661,0.20436304298931995,1.38120118791604,0.4513896935487453,-0.18981699367240476,-0.030691194713874808,-0.8116903017499622,0.04916618776923717,-0.5051823338313437,1.0347556555231079,-0.09152371432993112,2.405731089145193,-0.8032620923551927,0.7429791884589368,0.830633566911525,0.10798242020338661,0.5119859345627467,-0.2566654739879577,0.4273466217290641,0.1775020184301814,0.23430679625071146,0.027987386928947942,0.017526977509462357,-0.4951021332782087,1.9663559796606989,1.0272928991658448,-0.076293565689871,-1.5827081509786836,-1.922897845547193,0.2887543043009666,-0.2981838713674427,-0.1304299173985205,0.5505504015117828,1.8433709927820725,-0.4031503135222223,-0.5756331108899881,-0.015656171517040365,0.8049966843187014,0.22064163887786167,0.5724332078378047,-1.6856247295429048,-1.4054712050795939,-0.4055580651807414,-0.5810810119767297,0.08117005814074592,0.7769801971588265,-2.1303750682238487,0.29995261653021993,-1.1903419829113735,0.24295057730866906,-0.3303457550175568,-0.7123363513969877,0.3935646172212274,0.3313205193089313,-0.22930482257147625,-0.5584311040842262,-1.0485039153544948,-0.6837866970086406,-0.45125183433060395,1.5959391582481786,-1.6736026289095205,0.22434379063614188,-1.2724536859165287,-0.09701662754828867,0.6396416510022112,0.4060150514901132,0.08646426776304907,-0.514725389851864,0.5599819159665131,-0.07101509939833217,0.9478936853016315,-0.08503814302708307,-0.9663234461604586,0.35291328269113315,-0.10305226508939964,1.0649476334141352,0.5862612937382624,0.2400196724698197,1.3985870775499425,-0.10201031029997243,-0.36858401928096535,0.411587826883035,-0.2907435187596296,0.767625533232813,1.1529855115002576,-1.1957846800432055,-0.11795754154834007,1.1432405136320765,0.09471638960188462,1.0734615842354622,-0.6254183776948434,-1.3429268423863627,0.08699877215196758,-0.6134070996335513,0.3118632595768658,-1.085752491624982,-1.4210313923843414,-0.29012005320401185,1.5822183264907883,-1.0962326574680583,2.006449580192465,0.7929968996059468,0.8408740290660334,0.2858519874812744,-0.14843741193216847,1.5402318471636618,0.5943013951506593,1.6003194469706408,-0.05594027919128352,-1.0480753322474603,0.988538976804076,0.23486948381579079,-0.885294832339796,-0.982095853372013,0.7469077934837113,-0.9907132798315548,-0.4321452167422497,-0.4927508227712625,-1.3156863620967818,-0.949060371939202,-0.22980026179067706,1.4346658301677508,-0.43377573300375993,-0.6543116081283984,-0.6856389085468432,-0.6807517760786684,-2.4620437878106882,0.021871502004312628,-0.3165222845693576,1.4632675967786954,-0.2324638891856936,1.283341039794951,-0.15352543195629173,-0.8254237947404409,0.5477524916681716,-0.07367548888052776,-0.16270879969425306,-0.6685267190316634,-0.3988450166873665,-1.7966795457080966,-0.4414849492188282,1.0455713160737634,-0.5141289628460092,0.7182638787999343,-1.370775457628113,2.0474207525230814,-0.2171191047067198,-0.40813366565452447,0.6839468688126137,-0.7015571679054361,-1.6838818088628749,-1.5220938627472216,1.5719955973894721,1.335409751646687,0.586969079262632,-0.3065293380176742,-1.738501864260004,-0.8194038604662235,-0.5046278705071512,2.21961976524088,1.0849740836925006,0.3510521572313542,0.6390862828869778,-0.9407141455667246,-0.9030856418433046,0.8149907333294731,0.6302193897660675,-0.20707237741098736,0.4076960458528085,0.5714555977654387,-1.3005794268964395,0.8326610928052988,1.1444749516893373,-0.6727195296306019,-0.9116653306711158,-2.5703117007155964,0.00793820857521907,-0.08307892910857412,1.9381030607456669,2.0104022742592016,-0.18491975496713745,-0.6120511456718517,2.306562850049096,-1.8802774310522024,0.28696291396101015,1.3820821008982904,1.2634546401559748,-0.3337721675600945,0.03686714393541489,0.4284905158044189,-0.7573642744473872,-0.2863528696224869,0.8981520873355545,1.0004127840239114,-1.3530230798046938,-2.132272997050946,0.24293961300180064,-2.023478316402039,-0.5048105560656246,0.47701148566607,-1.0097357240837188,-0.3085716514363797,-0.5535102342766121,-0.370397105508799,0.4757246580708388,-1.2175371701425342,-1.118401714605457,1.2568687125522686,0.8460390481936813,0.5822795053175769,-1.0697186226998665,-1.7137505286909163,-0.4322864254895496,0.4237660050184749,-0.8606271977684578,0.7393482353997286,-0.47999452915356644,-0.05766780885773334,1.2605041790423337,1.2824851533722854,0.1638281915904776,-0.38370855283383404,-0.3013219024843065,-0.5131958915593019,1.6100351193111682,0.3265440598200402,0.7307668006804922,0.7478467902250513,0.8280395671482745,-0.630228319238805,-0.046889388040731145,-0.9257468715254865,1.13046533948193,-0.5893974979413997,1.408145524832462,-1.3523171483773373,-0.3239700897347421,-0.19351814389399108,-0.3689370873889286,-2.004585531489441,0.21119108867374617,0.17162929652545866,-0.8955936201615106,0.8196949115993382,-1.369050716094574,-2.0856957086393426,-0.24955590518713913,-0.35638821651327046,1.268229294496306,-0.2979344772056788,-1.5771997360300287,-1.0588383167157078,-0.07580521980727548,1.336631948158438,-0.604662244173161,0.8275174288194788,0.3601201044806115,0.3071196259978826,-1.1626769530679164,0.3433517274325329,0.6777880067844521,-0.08584314203236483,-1.1176044355996448,0.7406737603243922,-1.9376800604695015,-0.30741082308483614,-1.8753110674008406,0.4499878269517923,1.5245542332638249,0.049452219612559085,-0.17921800965131243,0.5523933050287269,0.6690493855782984,-1.3826413569673741,0.7088340732963365,-0.17835787371938813,-1.7508373053260784,-0.046221121702343014,-0.3751803230869892,2.234902670729322,-0.8844913333268866,-1.798357699609739,-0.5353906103825118,0.8426686037922653,0.38771998295878174,0.556049218868419,-1.056951647022895,0.883893434897968,0.7975684060695671,-0.7743391830066807,-1.544691667696218,0.6083088121804436,-0.5182707849706698,-2.293795005795664,-0.37772830861967255,1.417164480396332,0.9430299246283709,2.01704021940581,0.0028641731757066556,1.0400272106354627,1.068709680990665,-0.2318785502149952,0.09650410038773395,-0.6604166777962412,-0.2784934249077816,-0.6912984874609024,-0.7272448670114025,0.5449571892972996,0.028058714466612743,-2.3009957259633764,-0.48707889472850896,0.34507222503393203,-1.2792777139009608,0.7120178425476066,-1.5803785106545838,-0.3755952711960454,-0.10657924340048598,0.697235537696699,-1.5622710110635927,-0.5387494501204242,0.07425556008569882,0.00875498365458272,-0.7190479842008337,0.7764985939252861,-0.7533584508238725,0.6318436231821073,-1.0018442893487276,1.470375527503356,-1.5690535455262433,1.0218110851229842,0.9177070466286246,-0.7290056646093145,0.6835096617134292,-1.640409795067825,-0.43254961914438816,-1.711390742230403,-0.0396810774932726,0.882721693053164,-0.18670370660572808,-0.012454178430138584,-0.1077564941144871,-0.14247489675705705,1.1342428076265358,0.25039995597154874,-0.03702410567505472,-0.38335854728371344,0.01262340986837131,0.9741400288874472,-0.586101756027659,-0.6891408559325065,-0.28842096432212994,-0.9163902943019695,0.9864254191920011,0.5071428237863719,0.9607453372196647,1.4484198272423197,-0.7597639089034582,-0.588633242254323,-0.9963112934104126,-0.5292657451277074,-1.0281393552626628,-0.3772820378777436,0.9219503835956439,0.12333059135992405,1.3314078452661768,0.4018414205429286,-0.9551219616390338,-1.3013364463531762,-0.0759098541679483,1.061981473991401,-0.5249893859491105,-0.0856508206540695,0.18761494503391316,1.3886386982847512,-0.6102997440239512,1.1883205396684984,0.22031488773599509,0.11564760529536909,0.06240285030685839,-0.24508774530699187,-0.5660206156282145,-0.7112886188626732,0.030139634312001975,0.5685328576973828,1.0370209875834697,-0.752038432794556,1.3110392284338344,-1.434262678030775,0.5294235740569585,-0.23442039721126637,2.2773749651913113,1.5283947803094409,-0.1627599924999651,-0.09997288907532483,-0.3908887340769421,1.4462292292422159,1.9559827658378062,-0.31199355704167875,0.6071895630232529,1.8093979437701349,-0.5304247855064186,2.193288661010403,-1.8996140667011059,0.7664393194841446,-0.3908175593685418,-1.612650785592842,-1.5482354150907944,0.5986148908654952,-0.06564430311098209,0.18719731830099995,0.11040590031058177,-1.0169932957594616,1.1849543460771153,0.5792700503664191,-0.46737025982819014,0.204827390368337,0.2128698998779111,1.3520127401652007,-1.3941598569962077,1.464973331563809,-0.44070660890359364,0.12503648956724595,0.3822087009066819,0.937554013170193,1.0474690094112433,0.9437250450075214,-0.749494266246903,0.11612125493037491,-0.7675846359702712,-0.367024379308963,0.7723698719747165,1.4002217268009869,-0.8411663333164371,0.6475970427139394,-0.5708857896037708,-0.2335399291655947,-0.07760303661392501,-0.08475651171408374,1.0508416747108138,-0.7130771589367298,1.0176341295881655,-1.2614060711165453,-0.00785255032727607,-1.5282461740624877,0.0030983399757139487,-1.0448866854954248,-0.1544789755255125,1.489354902960568,-0.5808862988405861,0.6129775210939838,0.9049176347663324,-0.36183400610144467,0.03381771054646865,3.01255928393226,0.4235502208753332,0.12877758128954023,-1.435502428922038,-0.315027151689167,0.5416087793289278,0.756292428197158,0.15758519775346985,0.4994414031701799,0.07050450655004357,-1.711406903120759,-0.5803200035759158,-0.6264220135270846,1.632435808581398,1.0688027537800988,-0.14836228771286555,-1.2530987452932578,-0.5709707637733908,-2.234446874614735,-0.7388496972817966,-0.4791750047780009,-1.260217595385211,-0.1561643851711177,-1.0866072787151682,-0.36693032634481304,-0.3235737855528553,0.048886228561136114,0.22090192464434458,-1.4792257332626637,-0.3303095761549209,0.024859389265438465,-0.3613884891117811,-0.2013149392405922,0.06359998771557644,0.9767856360245891,0.39920919954989265,0.7231328201163215,0.45508823919455715,-0.8053204186221049,0.12566815208370524,-0.0953113631790452,-0.6319258308634813,0.7252486973729161,-1.0341326368949193,0.43818322300420426,1.018319364925081,-0.7203387222212153,1.2911024180770998,-1.8883740806620828,0.012741546850465977,-0.5561948756834114,-0.37213372852228455,0.8998951482211716,-1.118271446079257,1.28681231033514,-0.2780108464142861,-0.35284371859721986,-0.864426529724626,-0.4223784159829856,0.646873252595712,-0.40655775234398644,-0.5253567607274868,0.6637558963952255,-0.6283276697693555,-0.8759238665458569,-0.6588714582822215,1.671890073377981,0.29853260200257986,-0.06177690156314385,-1.9898404757964263,0.19336811232093112,0.34254083209781777,0.2735575055929979,-0.07785824456757602,-0.21974686695061782,-1.7846208246051034,-0.6436887210757147,-0.215731590482599,0.19541406482165533,-0.40021760814421,-0.48169651417143544,0.40149232166145615,-0.9080481793128177,0.4176899261467854,-0.33177486383877947,0.6226524522133722,0.3715748309220133,1.3075089879505195,-0.5834205553466245,0.21405667836317382,-1.2044135529192481,-0.6006742975861907,-0.67935101597222,-1.7356691272387919,-0.824343501202775,-0.47673398608249185,0.7871468438691233,1.303558926412994,0.9547721041819667,-0.05152715458509656,-0.18095708320758405,-0.4742358203442441,0.016635919250317634,0.0037706689538657286,-0.22076328491467298,-0.40894760240590566,1.9397328097772848,2.210815904122242,0.785243999203268,0.2429010318010248,-0.08133613690292057,-1.3016952339470298,-0.187574244251127,0.5151682331674902,-1.2384396558413744,0.039119197523631154,-0.5401446018561625,-1.5099353175732295,-1.0559984341321005,-0.34202337255387005,-0.2617393407750015,0.02705026102601245,0.4499701292381933,1.4510004003449493,0.4505943252381418,-0.19568369649757295,-0.31334001647484994,0.23198120188679375,0.161722152938936,0.5321817349618103,1.59325985439169,-0.4922574729623757,0.4982858208970272,0.4667225060154995,-0.16535132465060534,-0.08717399373109888,-1.9108088970135428,0.8324713260524744,0.48887936798988857,-0.5640689461880319,1.1601537613300996,0.6624929313831245,0.2750782357564025,0.8856414555318248,-0.9208238015729124,0.4062967996910586,-0.5107759928889294,1.959538752104181,-0.075006071078983,-0.26971148880532697,-0.23437735017408023,-0.25927790878892293,-0.956569915936854,-0.10194622341432455,1.0858312382654465,0.4547940582486648,-0.6707922941288493,-0.19716326323074276,0.8676623401163414,-1.674687561135667,-0.5091251085796366,-0.38767141590294113,0.1082444184108407,-0.1661700753197304,0.06867772203602651,1.8710475776932338,1.6846282297544768,0.02301497151153813,0.37371267855613305,1.7075565642105761,1.3257190864564459,1.0589753935280997,0.5005834670416327,-0.34452870446997197,0.14133929971960896,0.6921983222387228,-2.0976214103366093,-0.8080970873740024,-0.2951193831800735,0.3550494832497304,-1.0265225442351127,0.2602605961505474,1.512178581788355,0.05745680711640714,0.264496543809372,1.2781235764190977,-0.33838411392598744,1.0715735446976886,1.5758120423116346,-1.3571033406425521,0.1040886207074841,0.5703356316089307,-1.2231780116538655,0.6340867595215053,0.7055661985149282,0.08816205651816623,-1.4494509957257495,-0.21475661938117235,1.931898739561579,-0.8790275228539788,1.408070830175685,-0.9995456412478497,0.48519375410662124,-0.5977554444480486,0.7100013755024114,-1.2394107570472417,0.043450652337298605,-0.3298621609525806,0.41493871437476954,1.6753919195742935,-0.33535586909481097,-1.9697631535706326,0.7133651395815063,0.4707189849083169,-1.1649215812223026,-0.33201911208850104,0.345502571070201,-0.3637085525573973,0.8214009859631348,0.05001157539816118,-0.6138511507917435,0.22757904979362242,-1.3391241834356347,0.13399690877584958,-0.6521477992002936,0.15259013897141976,-0.19293953791750784,-0.5091822828813551,1.2852384787667988,1.827328653175436,1.4854424501105459,-0.44733465544855505,-1.4169336756989266,1.6964523539855383,-0.8889668660815601,-0.3730993823734643,2.3569837782551284,-1.3533744592897667,1.552450485571977,-1.0852568437352321,-0.4511483696435,-0.26017942394368754,0.3784059202853452,1.0128013790356654,0.10124192953581948,-0.7102977846729043,-0.4949315006221455,0.12738465324013346,-0.3444617147716171,-0.9635656403301542,0.1731297377121397,1.1106190909963989,2.0661014482063442,0.08317642998400848,0.5132810757753322,-0.5501986023058006,-0.5303563329009553,-0.0632096970732726,-0.9367341580634602,-1.842965233075987,1.330206361959117,-0.3787527500740703,-0.5417496869419851,-0.43097527691794046,0.2634669827422788,0.029183581233643674,0.9655094087488834,-0.7297456069090132,-0.27788578737159186,-0.5242926376801467,0.8332212653853058,-0.3067410767405482,-0.4857611239751116,-0.16930895999350148,0.8294860509412304,0.6208572287468563,-0.05456901577336191,1.1045184709169953,0.19039341612930483,1.0922027083294643,0.23218649224283935,0.3286231654940369,-0.4145284640241649,0.42542253630403587,1.7416816224232394,1.2529375414458344,0.20469549992005442,0.5402708089080153,1.0435010217742313,0.3051752047400505,-0.7037653458678634,0.77288734549108,1.2657852075673863,0.8750652320946706,0.9412923795740751,1.0011737640746665,-0.5511899457437044,0.5353670530453366,-1.229374968095491,-1.7825258525649519,0.5516351385668105,0.5420368090451613,0.11546786681345533,0.3923832634498539,1.804502111651606],[-0.04333198348856117,0.9923815274872411,1.876439850314369,-1.425904725884991,-0.38403143077323015,1.607476447640752,-0.061561927026219876,-1.5087414789552052,-0.3061875508369293,-0.1875427027537701,0.09256111606234761,1.1926016045828445,-0.4149479663274563,0.40116571035100523,-0.27861525239622476,-0.8730037080428086,-0.3625678461650037,0.03822391663465774,1.4499520372429358,-1.2097915244747932,1.6029767049851953,-0.7457793771106386,-1.467924972677366,-0.6559967929814725,2.4488546358941816,-0.25315814960823624,-1.1146889108208735,1.0972104492378156,0.03433071943937778,1.6376467008981928,0.2374092700086265,0.8750823225089903,-0.6137701199670316,-0.3831966880756115,-1.9232917317190046,1.323824308689858,-1.53585015646408,-0.30327885927422726,0.04753076547529749,-0.13471786308899045,0.1328291570757384,1.4531283281414382,1.0142780538901535,1.0964116335383554,1.0922638453333011,0.5206063290309207,-0.3478743575509241,0.09329388067052898,0.3551729872707086,-0.9424338671526038,1.166200088833895,0.5916658180640253,1.040010166989797,-0.8903371701706244,0.9557419924066156,1.0365623307537508,-0.2807913021502196,0.053527093322307574,0.6055504464258736,-0.8266743924639086,1.332777591697217,2.3096144986199945,1.2330724732641518,0.2875817344034975,-0.09432684439915615,0.4614627137608352,0.7537131044928895,0.018423363263456033,-0.7767248132150657,0.5942534110193209,0.13463883347930114,-0.49026415282388225,0.3390272856731576,0.10779169647151925,0.17725986256311244,-0.7150144734064697,0.6437108179723874,0.22195102609890668,-0.9351453458368937,0.4528794595305264,1.5635394677336765,-0.40725733001086495,0.2052516390839045,0.11183324172001044,2.025913475796649,0.6784826738182808,2.0811071555209195,-0.27614763409259424,0.5304135179662801,0.16610719345616018,-0.12073148618008911,1.698971423094614,0.9018596873007456,-0.5604418659964641,3.702034078158521,0.9507353824034255,-1.274916169710634,-0.36635431467209545,-0.2777475598720331,1.0255128568320775,0.8205180935979954,0.2309166838814196,0.9195386811148,-1.2822344245056922,-0.012562774987226511,-1.7357265268148325,-0.715699987979288,-1.3715672007376218,0.08196337287138322,3.4620981373729776,-0.6721774794269346,1.546414113382633,-1.6190162897610352,1.3416227409677677,-1.374098225196192,-2.2660740616833324,-0.6884709063442385,0.9369585111865316,-1.9123477343919533,0.7561497851946798,0.49065712914306964,0.7343698650907098,0.8002960941852891,0.8251808285165524,1.4373036172556368,-0.4835513067002663,-1.125103903619455,-0.833639750717725,1.4661877729302084,-0.861716886268134,0.5365966592438121,-1.530040685326609,-1.0828036242258743,0.32904058341732767,0.5608931801927111,0.7381262633662364,-0.401409006678728,-0.01718344369992388,-0.17826479898044206,-0.926333816259167,-0.8626073600395657,0.47240665127027925,0.8890633293260739,-0.10642707538738688,-0.5689000148554567,0.5138121440240976,0.4389972077970766,0.4925565810059653,-0.3554289974034232,0.514302922979108,-0.6965723235050801,0.4315295675207003,0.4076094829674462,-0.25072207008481623,1.3005249990360561,-0.45923291047707143,-0.3290324891809582,1.0009184059992753,0.29689397601405615,0.9984633028957519,-0.02860907458250713,0.8310846703428063,-0.9847483359219701,-1.084013866266206,0.8924004833973905,-0.8894857553069923,0.15838188407129036,0.23460824305911762,0.15227004340954936,-1.597637807262359,-0.30588331849317707,-0.6320510964496792,-2.7744752964358836,0.6378016814572102,-1.1201453115465119,1.1717987681195527,-1.472227895129891,-0.4647562879617077,-1.5438278551870828,-0.5536606827439445,-1.0941019022405307,3.2523913408711644,-0.7291986001060679,2.7088832127703752,-0.02853648687862055,0.10834042521227397,-0.3719483760835136,0.4138421170771161,-1.5096657728910234,-0.8418197383051831,0.21307992236621143,-0.5908426950073024,-0.8521486922119694,0.6094255208407052,0.6540613593497203,-1.1605739712733103,0.8155841630564228,-1.5609685519668097,-0.06691354148451907,1.7272821843126438,0.9333256462843904,-0.5183063513092795,-0.19116820841588056,-1.5232942715164746,0.9365783533557397,-0.3676263919741999,0.5678758930432964,0.694069919771923,-0.3212992834777541,1.0323420681960254,1.9113317642391365,2.169231431607529,0.9960164317694374,0.7256417157215548,-0.11556802077139648,1.2570065355475981,-0.7457710165118097,1.3688507363869356,-0.5493718798442712,0.7754519071506502,-0.3645012695223944,-0.2784282594665871,-1.2061523005283463,-0.50012437456222,-1.0698291269766977,-0.6166740917276355,0.3234750505304969,-0.3698494593490475,1.1317036885602112,0.7885441554959335,-0.7279119800497977,-0.3145481366751701,-0.8703420358359726,0.979772085416735,-0.5749500256659623,0.22698431526260046,1.0538066073283847,-1.1211243831999078,1.160354393505461,1.4450599638421917,2.389472312094121,1.1177868716283745,0.819290094103844,-1.4893012947438398,-0.48158799660478996,0.5937170872603603,0.46152905736106425,1.4271099052625478,-0.1896567512964719,0.7409506955890837,-1.1986264733941359,0.24949937203237385,1.2409936884024106,0.26153392523338487,-0.031695691301211054,0.6162937206808208,-0.6054422763484623,-1.348257109291217,0.8649826458258209,0.8493289128738989,-1.5934000234846397,-0.6084508105540605,0.7801472871656954,0.027389618970207252,0.10405515955641113,-0.6714152957647221,1.127360972543324,-3.140084305405248,0.16297144723712667,-0.08100387391189354,2.009419062181454,1.3626040515950024,-1.2739317653203497,0.616451522086572,1.0071048884215692,0.5505168751138301,0.7371848551345643,1.0722394104824844,-0.4004549893696126,1.2210503030074826,1.0634203124450132,0.11088561007731272,0.12160085396097918,-0.4964987250784729,2.6152634496091545,0.41004735608926235,-0.10434930418436345,-0.19108485304219866,0.48692469205386296,-0.5586715181911927,-1.5520834333369193,-0.6053490552063133,-0.9624496898991295,-0.322234541235623,0.08457138212218346,0.6876984018902926,0.1191943434434351,-0.5522874522367959,-1.2818082038553031,-1.178523204846409,0.21831747780603655,0.2634047344630897,0.16675135359160967,-0.17578201019893638,-0.854300187861735,-0.12192021791549552,-0.46559288134957055,2.403065077151314,-0.34178907072534437,0.11404636778709114,0.6194576390154909,1.586450717931651,2.0532467005383515,0.6298251458876398,2.373355863973749,0.6569809974838595,0.959077735825826,-1.5192166915736185,0.8219973960887452,-1.3663242066210457,0.5630704099964601,-0.6397573535782612,-0.04193049935532131,1.0305110287264272,-0.6810876408149873,-0.5175375373618809,0.8558188967825378,-1.577127549904585,-0.4458236803536828,-0.5532475991825465,0.16535609201095178,-0.3545672539246283,0.8883209780959312,2.090461466367458,-2.2430492168600424,1.6204786004881488,-0.16633057656441566,-0.8814526119492829,-0.12895736996211013,1.9857491032844525,0.0582676605999541,0.6123096697538459,-0.018647005910258658,0.8488317829451216,-0.11163665620233858,-1.6326569790380494,0.10789086347387855,-1.6354031289490512,0.8811187490951792,-0.30544262383328713,-0.6182752068672003,1.1257354767390908,-1.9562449811193656,1.627102855081437,-1.0906669935059707,1.663893210236109,0.824271858409774,-0.9702468835052815,1.02401670972223,-1.1147399014909645,-0.8223659112321191,-0.4066543702865377,0.8001344855222623,0.0069945276019406566,-1.2103085176006485,1.5506515612268525,0.7887030004536776,0.17964536468386771,-0.4377867628136574,0.4709494221469704,-0.1365414672215227,-0.5461010295497774,-0.23185675558487837,-0.33316855320916106,0.3854076615259517,-0.013439062816127568,-0.1867268960211088,-0.5744776043016802,0.5051030858502452,-0.34783717613930865,1.2489198881088732,-0.22776878117560342,0.5214626678869078,-0.596695735411204,-0.6782761019290158,-0.9539732870243054,1.3448931855051007,-1.606484936332543,-0.4419121116466938,-0.4478793475759269,-0.7437387840992046,-1.5742930611425394,0.374942197052882,-0.33560708284998875,0.0030645096306812798,0.31012327683779506,-0.3796118611187886,0.6261686742296371,-0.20512435642611718,0.06356393995089996,0.46099560685540364,-1.9137217585301523,-0.52203753537075,1.8688460386312578,-0.7281429545359691,1.2502928636747892,-0.8211432262743084,0.8465169357650795,-0.7713858612086208,-1.0057043937137986,1.1010832404088946,-0.6379589286661205,-0.09621456633722014,0.75793084680123,0.41449211938497504,0.12900581431110528,0.6519216684246848,0.560801725268033,0.5843444453283673,0.48238006919150084,0.4283338760872545,-0.3682219298724602,0.5021557376957249,-0.41517451773372416,0.7235996612232868,1.3464233666795555,-0.6598636549274566,0.05325183738234826,0.8584981542634273,0.4960968448546029,1.5334138608613601,-0.28458508283960016,-0.26635982047289836,1.2803798316086592,-1.0444621259910305,0.9263230706104829,0.05216580414016086,-0.9118533488275248,0.921512262991465,-0.21535566746099943,-1.0615451484368053,-0.8215839598517184,-1.3209116123329034,0.7793610715698114,-0.7370180464926215,-1.2189212284230249,1.214225069868831,0.7185343953875497,1.093521452732298,0.13439158156460065,0.8959874793655359,1.4809180852358117,-1.2673960365300372,0.6997317678149527,-0.39000461544731935,-0.2553211531260653,-0.4846958943254588,-0.9645949894544219,2.9572308878294153,0.3535274838872068,1.904649421845337,-2.4784671617104927,2.1175781972476457,-0.29691825751961554,-0.5519943593563041,-0.4835835667852295,0.4578049090752758,-0.5446392887036993,0.3684541538577622,-1.1746539195225616,-0.5017346363892947,-0.05246071713666357,-1.0283834301493806,-0.5599659814623235,0.7328441655751495,-0.022930625266305068,-0.2044493808141277,-0.5064792716106399,0.24983752486838617,-0.038001604510428756,-0.6876308067046562,0.5667564997332655,-0.5321811754767956,0.6429697358406468,0.1035352301477835,1.8002320928954914,-0.2803245261960748,0.7413519746967724,0.4849721914884602,0.6349596662987333,0.04785273803204272,1.5823634239661373,0.9875319998921571,1.922901515574889,0.07598930032822422,0.9230163905365083,0.047237666834042395,0.42434555762763015,-0.2943142488273726,0.9557457991313444,0.8945527449879688,0.0018959424458003938,0.7566828166818742,1.2240240180000777,-1.2645402339505425,1.0635538875512305,-0.41593473996310815,-0.6577970199390747,0.189654598968039,-0.09838828048755043,1.0622154216912114,1.2183930731045414,-1.3952962674187792,0.6551285714257369,-0.553990456910467,1.7552471834289132,1.7347043204456505,1.793616229050334,-1.9173075551883054,1.2160001544708492,0.8246649806726062,0.49016713981541365,0.05953788216705833,-0.5586415771013234,1.1497810875164216,-0.032531842466854026,0.9936284427338119,-1.2299574287284472,0.051395264959815654,-2.681596264884994,0.912503008787818,1.4120018050101228,0.7369107031846137,-1.0936725664305684,-0.9360445984643722,2.4464940804480433,1.0678169477782078,-1.384985456152827,0.0013466752580058104,0.8530768909157105,-0.1912263634868807,-1.9247391426125002,-1.171261286488146,-0.5267896083939956,0.22003788228298435,1.9197264583163414,2.313153496519653,0.26574839673192635,-0.3808688769633499,-1.1074701631349837,0.6488510149784331,-1.0161588241012218,1.345887395072267,-0.6094855013592314,-0.4370171695254461,-0.5545826291165376,1.0585617034385908,-0.041031933276476314,-0.7141195683364702,-1.598193392779961,-1.0017080636016644,1.6275458586655789,0.933115941581064,0.39012227835708313,0.9675600423285744,-0.6487641876397817,-1.285057643599528,1.199243572303548,0.6870964383022846,0.10030276451248014,-1.1548947251746906,1.4608717343790145,0.9904326800458747,1.4577530719824725,-2.0106897517324542,-0.12010905549620825,-0.2671308369645712,0.08059174208014891,2.086464501358364,0.7890143424437966,-0.6330735340887849,-0.1481073221255641,-0.15874153268938254,-0.436849569413111,-0.03569127987236653,-0.9178171364533392,-0.09795941002230336,0.31856181003893297,0.3404894102088087,-0.725878980289851,0.6612976513763309,-0.16124898145570818,-0.7119677717919862,-0.3064523619353145,1.0223095042586767,-0.7888374110367664,-0.6682703368084982,-0.04685945232860435,-0.5478228367327451,-0.8969987132640623,0.49225230367406797,-0.5882721142750885,-0.9768875742051542,-0.24102458074603414,-1.6519087954222507,2.4083053756985504,0.14211575627587697,-0.6258344946166354,-0.5481450021656802,0.352860329712744,0.6343079272935849,-1.6425188775575166,0.41962945057770223,0.027452059346893157,-1.1259423309082053,-0.30176678392924194,-1.3873656174630864,1.2360290656877446,1.395057645792635,-0.3847519890092435,-0.717446162656686,0.6409073911631503,-0.11777497046796816,-0.33611336294055655,0.37327422382546194,1.0720594732787982,0.9592715622177329,-0.5456154306914035,-1.26054600167183,0.2005007206434228,-0.6950364731440692,1.0729696796343975,-1.1767683090118635,-1.547672304667561,1.8120943920554935,0.42981048137674827,-0.24778644054912186,-0.37366713579658506,-1.61233590262224,0.4596944479651774,-0.7014921137605722,0.09604505825298532,-0.35904377356321043,-2.2691512424257185,-0.8899456805566958,0.19852702437700095,-0.6471056461092679,-1.072581903104662,-0.7663545219314657,-0.9943983515201561,0.5234440400690713,0.7705177496655455,-0.34791265463271803,-1.5630481883061274,0.6004960525145844,0.9580966922725546,-0.6513581080301909,-1.3295911607513284,0.9457859946039834,-0.5100202863754341,1.4005714029314544,-0.6910723252573684,-0.9999607100389284,1.02446026962814,0.873601326705783,1.4001101704427341,-1.1128444268191158,-1.228876048157004,0.22779955581974237,0.421999727729025,0.8322189780416405,-1.1300132411298263,1.1943593950923848,-0.6885648265296485,-0.22061666164037189,-0.6471658907148092,-1.6444062096273082,0.5160564426291144,1.8192740076922358,1.5469448986966883,0.07224126785497448,-0.9705376534179486,-0.19261451494658993,1.3411024617488159,-0.5942811419396091,2.003547545358002,-0.12334851143054847,-0.5403197443191544,-0.1496202235909,-0.38821188898839665,-1.422733263789498,1.8266071441892247,0.8830295206340053,-1.9055743467326878,0.3867913111591143,0.5363501930436553,-2.0340282610777662,1.9414151729205928,-0.17985467161475127,0.48444054075353676,0.10260275425142439,0.8476679660986475,0.13163234234403648,1.0771547330796862,-0.09982744477412815,-1.6601687100933666,-0.3669284573451805,1.8286712889742505,-1.0916800562243991,-1.0036435045428802,0.9544543806547915,0.3089927043405905,-0.40826006833117406,0.20154885466531658,-0.7979348027008648,-0.24523876129404,0.8786337547338388,-0.257177413507321,0.017410669743761216,1.3777631088533968,0.35148803392351863,0.36092730838868625,1.9291573407998641,-1.569783636080086,1.4830919353795535,0.6991914844150037,-0.28064953977446216,0.27064484092382507,0.0711339979669788,-0.9092398034784561,-0.4915793645500729,0.5192227597909743,0.7104616105716729,-0.18382228086257085,1.7529793224053525,0.5888188791471798,0.9577289506454003,0.2217821423439084,-1.4640435809401893,0.864496616344143,-1.5050803362679732,-0.11628343548967925,-1.3523236759160215,0.25995018456176755,-1.6020662876220813,0.3412223786652821,-1.5393060350441496,0.0037247736970195473,0.40522402683032793,-0.2713491511550474,1.1987313229873264,0.771600707593405,0.2523628993818466,-0.5376858300643831,-0.1714690200972686,0.07040503894151569,1.9101833001451978,0.6943912377763669,2.917456306554432,-1.8788611485036557,-0.9930352340757009,1.8068674449427644,1.1573549993722463,0.4600144644490144,-0.742911261576657,-2.565206695318917,-0.766887084848049,-0.6981315066286711,0.9454116215975051,0.25575458070908175,-1.691976039671848,0.8914943730322256,-0.5206787933780105,-0.21652676958612957,0.23668189683018365,0.16996119654869773,0.5019305121088754,0.16892433791901412,0.4053876164865324,0.809889621601739,-0.3450158653757728,0.17524997601637243,0.24944114015804283,1.8727181580399697],[-0.9916895460469116,-0.11938369123158768,0.5243168745256696,0.6499429963127822,-1.7073324910547516,-0.9603393374589491,-1.0432957915272865,-2.69774996856413,0.19668295932085744,1.0555992322861245,-0.7777176517830425,0.29422541528072776,0.18033708278341073,2.2921371215103106,0.3634947684732362,2.9619875040881154,0.03477004113371987,0.7168810187399662,-1.1400693202023324,-1.221459213617887,-2.709959620223962,-0.7557025323683373,0.3225695125426947,1.022157587452593,-1.493018801613152,0.38291675553482,-0.9235258666132339,1.971410329675632,-0.9408927373250262,-0.8293601976223185,-1.1015763508032013,1.4922793330422721,0.3897189781756488,-0.580919828078046,0.8661622831469282,1.1070398842239801,0.11579447826332347,0.2372550659661074,0.9635511133242737,-1.224769944177144,-0.39703744373018196,0.46989894040802094,-0.23112638198341556,1.3519613252202762,-1.2700159550743728,-0.6843644176944199,-0.4424244570501957,-0.6815401103196463,-0.49091350840001446,0.1294001679660607,-1.0537093467205603,0.4607214368148285,1.5745322835445361,-1.0803699380727405,-0.4333405167908624,-0.7550608696986455,0.3611638534643347,0.5975773259639735,0.454135190130472,-1.0323635991948688,-0.540488287643671,-0.11558154861397495,-0.36807263160697545,0.7023151113980327,0.02896116270448752,1.138165286071078,0.8616258993352618,-1.3757590254684076,-0.9260327202243241,-0.6736190500021216,0.4381820086285449,0.059891325632373246,1.7716361637258353,-1.1953765714863578,-0.04844952430989973,0.7181827733483007,-0.3986587134129504,2.1052540368109485,0.29453587274338583,-0.0007196652948938738,0.15224022360249562,-1.2980135351827324,0.10265256882215804,1.1578586900696908,0.3997551345601628,-0.8474702661103969,0.08744399767507226,-1.2044232458625084,2.7819777132980814,0.6889630307241197,1.3119865096476921,0.5493094801389291,0.10650735393853936,-0.39757520687718706,-0.8980720875617003,1.0164245954058704,-0.35425346229828475,-0.4238145392817219,0.42649460440622206,0.01732212589143628,0.344639124018567,0.7895135954370326,0.3373156779068973,0.22892520915478248,0.1595248112051698,-0.7239049814394043,-0.5866516961686099,-1.1686467247126302,-0.28792559775404697,0.3049867532262515,-1.1646155594515524,0.7583240639377246,-0.9877875083335278,-0.3716820474502165,0.41256597246284255,-1.0842191167395445,-0.2245394156373775,1.5378581278774057,0.9056866268232746,0.5110208285363351,0.03263460116112671,0.20212426824693241,0.7202273905205505,-0.2997821866257163,-2.26805841755441,1.3960967891385276,-1.8495966328410327,1.0138484941854955,0.7948180844562881,-0.08873169789656575,1.754350792738186,-0.8881256059586033,-1.0573344127901931,0.9774245541955348,-0.2924737697297285,0.4893314799244676,-0.9362606226467681,-0.1385514372602234,-2.284026679801616,-1.0102687675364437,-0.46756616697994935,0.7118932900584358,-0.5919757105418407,-1.2898026360747015,-0.3300942640178058,1.6869329614245165,1.7194123016718943,0.2719312918094974,-1.3665654537872671,-0.3400050822221696,-1.770019775466472,-0.09667181408410455,1.080498976341321,-0.27256866718768724,0.5997263933121157,-1.1391009029292796,0.4702269278012849,-0.11525633008227236,0.40754460487258953,0.38466228122975327,1.772323462673378,0.35973400205626194,-0.1069234023153988,0.5033919020665697,0.5551219606514216,0.6064176185168499,0.9963674195354716,0.15558743682720083,0.6130590213349394,0.9474966423730093,-0.25399376452546185,0.8665194563865973,1.6793758476406424,-0.4104659547367132,0.861452303626673,-0.06817045908683106,-0.9269181050912771,-0.3157086386196391,-0.48685278888434547,0.0520875068509702,-1.23870413181579,0.5689343707895607,-0.8036032388760562,-1.6495117823675733,-2.599270197641667,1.4005086727230263,1.5164522147301938,0.16730038563302096,1.0579474039674175,-1.3559085880071402,-1.1744070737484344,-0.36412455225249174,0.032785838305115236,0.572361189631162,-1.2845051271589958,0.5264027411297548,0.12254190002790058,0.7155445156555542,1.9601551694883304,0.07574759751662642,0.5437347409592044,0.14387010429671473,1.2794007495430189,-0.6958439128050832,0.36061146473277456,1.4909169669000317,0.6231698718753652,0.4302485702037647,0.6193880076543343,0.09544826017951324,0.0859156755594492,0.3659440177207339,0.2060570752551254,-0.2447858698305959,-0.10180916222842118,-1.9636924536931626,-0.003819879482485296,0.216685520657398,-0.782932926165183,1.5228373275250493,0.9769403373284657,-2.2494427441281144,0.41521637115719073,1.7733487014608311,-1.516064436222981,0.9911655923665902,-0.961602441803795,-0.2863953720616335,-0.08909344327149753,0.0739874530599303,-0.3918832431760654,0.14626674604588408,-1.4780048012196338,-0.06549317484946342,0.2761443377271228,-0.09901933735611321,-1.271281706068456,-0.10940568107830985,-1.653164201538368,0.7840137179718538,0.9115068814994826,-0.6849302776371767,-1.5064938732733046,-0.4580935537557661,0.8342171894099647,0.9474280675001621,0.37070806868260053,0.9595141781056982,1.1080994600273713,1.2153994987542245,0.586985004847728,-0.970586928030348,0.6217961165256585,-1.2793679381262182,0.6774710453416893,0.5751928518285115,-0.6598689492813274,0.5091870513539285,-0.955506001726058,-0.3998520834407542,0.23356104564956648,1.1691189798084416,1.460002722585169,-1.695135370513341,-0.4458349975275659,-2.0436066414817686,1.4941698211243601,-0.1224396812750276,-0.673715275923562,-1.4496861910980208,-0.13345875744311933,0.4414178841489047,-1.1986947982712002,1.1767470541385998,-0.7222613541431663,0.18673396287983704,-1.3064852138183192,-0.7215316324029383,0.7003329889474301,1.857918103861049,-1.3295570651051847,-1.0449593571390097,0.016045457178740077,-0.6666102810057984,1.047085949154901,-1.2443513712519683,1.271847285778393,0.06390884847886538,0.49970971391382135,-0.6540690294895447,0.6846712405691485,1.3658825141545679,-0.6183667167851292,-1.262022398917773,1.9486379792842181,-0.7308230013877952,-1.9850059636495099,0.1757791986922231,0.603331282244032,0.7937597871803769,1.1270383320289643,-0.39837018723271644,-0.6451361916585726,1.1536156831614666,-0.017764304347487,-0.1491751603873698,-0.01448595704873421,0.23135546038426297,-1.7014143576692269,-0.6479076586444841,-1.1567257864837381,-0.4971431883426684,0.7430555599158485,-0.30795987558450044,1.3361915501906123,-0.3112517564224666,0.07211471272018036,0.41114404743653293,-0.07326921007433872,-0.2586804859280479,-0.6248452082385212,-1.5741414347869236,0.7537626809977958,-1.065660660927983,0.8856371361370127,0.5747704963056495,-1.8466174593631708,-0.2077257455539865,-0.13282773924298433,-0.31737666047692875,-0.9508753047697687,0.8753811555271745,-0.08132201460283738,-0.6195925610696639,-0.3440201217748587,-1.7784825907895463,-0.3520826507797738,-0.24561232557233165,-2.216227482330988,-0.00972406197873698,-0.13419105911316323,-0.24872114842724807,1.265606240460984,-0.28489122904029174,-0.43776556737575667,-0.7913678304040687,-0.32071672358671477,0.8113184128405289,0.2044549196397355,-0.5027247506521244,0.597629609174023,-0.249601504403358,1.4728196101486009,-1.370475839528115,-1.1233024623326382,1.2383760297921773,0.6009500922260116,1.2103317386966579,-1.0552627793956788,0.2052547299278542,-1.3142616122816122,0.4864345863346706,-1.1485528458938747,-0.041055588822842624,-1.3234450303962901,1.5965486874554213,0.8884410776403274,1.7987783859886048,-0.33096795637256765,-0.35849497938455205,0.773482723314078,0.7489894023333608,-0.7846870405328726,1.7174564794161593,0.4722125177090868,1.4949554332312396,0.9692173525821237,-0.03720721652930016,0.9673616881712876,-0.7112035914061097,-3.068020717504306,0.6153076793587553,-0.8612278587356654,1.3927235143360808,-1.1925726537073105,0.14126061197094578,-0.9808396632848669,0.9692732705374003,-0.6224573975705014,-0.557297345645133,-0.6800865834839244,-2.4299832162013333,0.8949584654293514,-0.7006264523435858,1.1152773251760248,1.3682056104727363,0.5978372989932069,-1.137007450414895,-1.2347203504068445,0.6523602031936029,-0.0026813637482187114,-0.018442814124443874,-0.13192584134209112,-1.7481734215487577,-0.252296065399338,1.3866048482730098,0.15639064583281723,-0.392911895313552,-0.14797495619263407,1.2412575116356932,1.2919126670059222,-0.38674385373061626,-0.27280485746820066,0.26554886906253977,0.5515194615345919,0.8954363173463853,0.8036118921080796,1.3028340018785558,-0.6191335615201018,0.41499024127027273,-1.1358194947040574,1.2173881629624583,-0.6430572018337808,-0.7848583172783836,-1.289334483107183,-0.1240524219492752,-1.4463107531710475,0.17856301783861042,2.425205090076082,-0.4903747511756243,-0.1289727506715544,-0.4013815716225136,1.3696043592663565,-0.21383546839569015,-2.071508483528399,-0.5265439567572531,-1.030557607080041,0.12927047685165113,1.6901403132121482,0.05815204184637081,1.377471188434036,0.33765883548816455,-1.1571067701494633,-0.6301524750488443,-0.9219844022956809,-0.8699480464862599,-0.08453687275416003,1.7844266650636207,-0.7651421168557595,0.040244175975779034,-1.1458272470023094,2.353885334156533,0.23260994846789662,0.013066945813090411,0.5891919566834679,1.2275255407617587,0.4372812980527196,0.9691559074978942,-0.05541914549980426,-0.31737845354178834,0.5152176941694526,0.30846306316003286,0.8933839136613215,0.6260874009000187,-0.08877889097692787,-1.9178791780099906,1.445607000265713,0.6054353570208072,-0.13263700167963732,1.5128414344796808,-0.03092789860916546,0.7640256315263662,1.1299728097994748,-1.5801590485382377,-1.7856733248397456,-0.42255009057645687,-2.3654162286155365,0.8449011848920177,-1.4928859517623936,0.7296553721607086,-0.4027859629421829,0.9367077529140274,-1.3169243711471321,-1.814612765556035,0.273096126968815,-0.3108838827886304,1.5225772493192151,-0.6619021972655731,0.5367807532231201,-0.8204485092871565,0.3585223996937366,-1.2048046885819275,-1.2913240768557348,-0.794907768369147,-0.4497415173037215,0.6316321058026378,1.7090445388938167,-1.0377304589098677,0.8238254292059203,-1.1343032146366372,-0.319766676461206,-0.506056529233169,-0.612034467691696,0.9613463099374754,-0.34457824276015886,-0.18468074476891266,-0.6084421417325685,-0.18687364512327173,-0.619952803558507,1.1907008896293976,-0.45340677606640456,1.088079445418537,-0.9254155669457675,1.201767054581076,-0.30245992411873557,1.370591365867892,-0.1723827149115452,1.382944725602288,0.7868546491896559,1.2888001223020342,-0.47704863966681443,0.32532741614524363,-0.9680665664103856,-0.836872217507489,0.09277957137436212,-1.1439627623864235,1.1310052525862562,0.8336784443274231,-1.6668946710302688,-0.5622572319548453,0.2291790586981189,0.44025413616381337,-0.30930783235111703,-0.7176439822600585,-0.38857932004971474,0.7064714358839848,0.9253283316264856,-2.4519508992906425,-2.2213305844783995,-0.25916489811402427,0.8015835070288981,0.742165877642342,0.9028424653883831,0.4231282897475394,1.0074370568856954,0.2741691786417468,0.2096414364878273,0.2691397909413064,-0.5360302792772628,0.30930053448192024,-1.5373070169708694,1.1121231261557634,-0.37435679733310984,0.43087792565236027,-0.6786986597797262,0.08677349980316763,0.9090177426749393,0.4572819668239661,-0.19168923155926873,-1.769519357317068,0.06672127974324807,-1.1893007914388094,-0.6013600001249314,-0.13782325480494426,0.44403266414677495,-0.3910896101308153,-0.5764141643569285,-0.3147203137626708,-0.10682455919564361,-0.8054188299271189,-0.7181879925382646,0.1088838141585559,-0.5899420864193552,-0.34938454394690516,-0.8450603201722817,1.5174558035342955,0.39572418835872386,0.4153067693649797,-0.19121709817458948,0.29113437310133516,0.9595272299166104,0.07294849732487707,-0.9861317168148028,0.7328194894366573,0.8775925517395278,-0.24746837771957322,1.0992187079106475,-2.4786606254264463,0.4329282125393432,-0.9012962941344876,-1.0672609476232708,0.26341917405919724,1.358911959123564,0.14061101242755508,-0.40521172778270964,-0.24128436610884524,0.5165153128720552,-0.07895143070993607,1.1789278889456518,0.008464987871019023,1.0036230920600475,1.4356400254669028,-0.4985185049619739,-0.39398764794342517,0.5291980214324371,0.833953771110462,-1.3706183777227605,-1.9927623200841271,-1.2086010245154195,-0.881500815715713,0.3661618711434534,0.23789452076121503,-1.0784965609243484,0.4473342584831891,-0.7283320732655079,-0.930134946628582,0.3631183327991458,-0.7176705413602306,-0.1279496569855692,0.1965510904798667,0.8802029851317381,0.4249897475980956,-0.6639333447368564,1.505705754195547,0.000634075950913053,-0.28235234575369633,-1.262222457514804,-1.573893635782974,0.7183555091848111,-0.765319032094524,0.7668368722539481,-1.5469419110256264,0.3928843969768309,-0.72608954255347,-0.054747270400333024,-3.0942061318546377,0.06938552392919256,0.7408405182445742,0.9495647956924169,-1.364662182712531,-1.005681779348056,0.45431594058937713,-1.234032945085475,0.28581274781099175,0.6070412050050609,0.3827052726170739,0.7188604359176213,0.19119323605925434,0.5130925004282997,-0.12176274105557308,-0.07871188019147736,-2.1132950626480014,0.7982740580652505,-1.7437452874608952,0.45296258876057427,-0.5428310721343702,1.7622449669046714,2.242866072637395,-1.4619478079039416,-0.8561686542318386,-1.0246695097558935,0.32279956318165076,1.216621358862457,0.0503156706086523,0.6780548178610951,0.04384201396720363,-0.8315212013209995,-1.0566226297110397,0.26387077170092404,-0.40374873780656667,-0.9861476860038697,-0.6581721278168997,-0.4775329213384252,0.8141988692074199,-0.021464060156572196,-0.5064758802190362,0.031698778289383986,0.6552870997908675,0.682234560375626,-0.6116994467379288,-0.1257134233924722,0.30402047368100343,-0.45159907928905707,-0.812000966308844,1.7791115744263226,0.7418392346880334,0.34766288264619893,-1.8099778076629494,0.7547520048800719,-0.7767866257438589,0.49297487859735756,0.3539363647923695,-0.524772541947104,0.648361943405778,0.39101865060069524,-0.9460161085050436,0.07762866264268047,-0.36523784859309744,1.6830925979674132,0.07119157360851991,0.2984549487158997,-1.439562736221206,0.8255214229698885,1.1040675859885625,0.1184363322012541,-1.265156097086717,-0.693017495913114,1.335378585409842,0.7138241177844546,-0.21387611100270654,-1.1154293605184162,0.29099121414488244,-0.31898137347917943,-0.6445067692094422,-0.9164566055644938,-0.5017961678955211,-0.13282058791804405,0.8092282221680487,-0.9724143498371381,-1.131557367210384,1.4785873266101373,-0.19805542486434702,-0.9595638364268584,-0.32577024378534236,0.5637909963735088,-0.45387343410190817,-0.4888292061358821,-0.2872768848330456,0.42894902521454137,-0.028057232040868796,-0.38739965047781183,0.46211767852517366,-1.207147262416988,-0.4516649332353661,-2.090029891447497,1.198516930585001,0.3674662483786566,0.47982832827467264,0.5983901207663391,0.46357108504428535,-0.5811684775967909,0.6466796235468407,0.07155714696030728,-1.042418025746261,-0.9030234241588303,-1.953924354420161,-0.8738938191928662,-0.8843077403055966,-0.7570870672488376,-1.1506412143864229,-1.4888586323241373,0.12640890650353928,-1.825358488352727,1.3873867966084605,2.1861388509220494,0.09570602370756746,-1.5730134432522913,1.1335812839332098,-1.174727118821136,-0.7633953058568863,-0.29601432945858375,3.917256758281467,0.12249367710478515,-0.2858458846744067,0.5098036617264459,0.5893850892358069,0.29000063940797177,0.20939471311852542,-2.0330136528885308,0.6842798133543033,-0.6486806092469373,0.5445187638077331,0.021866327287568564,0.16171533589194798,0.18365040117609738,-0.9822124770884852,0.7725599318498094,0.44867612349159625,0.1890558602114456,1.7975643251228832,0.14627681202000933,-1.2570510312375343,0.9458030017193909,0.3209190169621854],[0.9346328547201611,0.35767365137902396,-0.23043845829911053,-1.7452247491839574,-0.6941184659490599,-1.3294761722990778,1.086015772645053,0.8518252197066236,0.9390979932106739,1.2591351545769247,0.16136760668291492,-0.40702226959216325,0.6505999613844053,0.22929506391559967,0.6652755451002432,-1.3583201032759538,-1.445040207762976,0.3501078465940042,-1.4111945965925965,-0.9598643007812644,0.904715001039164,-0.19399416380586446,-0.25396878819383434,-0.28295280580007653,-0.6122985239733618,-0.04648233771159189,0.30098744975794445,0.3648290227259089,-0.5236482164032449,0.0175674938895648,0.7743562952615115,-0.01741550302301306,0.10958462301164153,0.8039290531665494,0.5090246782134719,-0.41714154985243945,-0.16631991721188208,0.48002520621399786,0.7477612388307181,0.3322398128645738,-1.1903648966984426,1.6731232342871967,-0.6309371831888705,1.438007445909691,-0.21624738637972316,1.169365881257313,0.22153745163933236,0.7647555220498796,-0.6544324569378687,0.12323845495906874,-0.6449660195864664,0.18674786848289082,0.09024498554655219,-0.8296699392966848,-1.407958896152094,0.46561769773079154,-0.12913865191421492,-0.7425818280931297,-1.0153603484803877,-0.13728081167240466,0.5137116453295233,0.044719910889107754,1.4257226427555079,0.10545387378168396,-0.7379223599248219,-0.42309504630258393,-0.9157798439511619,-0.08766077021043148,0.8461464638393194,0.6111310861127469,-2.2677328710983224,0.14010588816620767,1.0231091544619009,-0.6639813635074132,0.10562506505985396,0.6998336542888762,0.9659983178564232,-0.022870201850769673,-0.023156159154708703,-0.6803667452327651,1.1997346110235265,0.3409100993733329,-1.0380438756917323,-0.5215426684145833,0.7940769745116935,1.5463828797374497,2.3627994614467744,-0.6981621755802568,-0.3698338871261153,0.08645904680290335,-0.2970377249038,-1.8646817762595354,0.2017493177113367,1.063900779298551,0.6702734020643165,0.6407951332273095,1.4259291154327771,1.199266747070215,-1.764845265839032,0.9054118480809665,1.342285870488714,0.14024294511793686,-1.31075795630927,0.3897167482276079,0.09029794039099256,-0.14800535603605539,-1.3210594821264985,0.46071020672433693,0.27991973549090227,-0.6484246725729669,0.6285923753582673,1.1512560633726086,-0.0026262245560712437,1.8436338801938659,-0.3315676552627463,-0.47549914534834065,-0.7744796906615758,0.3684617811331346,-0.21476157205586566,-0.2625452735046794,1.1835452691322048,-0.4048085190713096,-0.7009726898182693,-0.26618907334442593,-0.5179180504967567,-0.310709879011264,-0.16628970003502583,0.3090483450244875,2.25014310433371,-0.10101838702540542,0.5303567811603586,0.46367837609959545,-1.3835647118494045,2.3995264274925163,-1.1227773755884216,1.405527145055023,-0.08444943054474817,0.49674748002656305,1.3676208577359819,0.20299444297695815,0.584909600070798,-0.31897836797794377,-1.8154333346644167,0.926524063293504,0.05395776535670019,-1.9232893073225263,-0.3071615470659824,-0.6374854148810816,-0.7236741628132556,-0.4277933559365616,-0.21969591759988738,-0.44693877936583487,0.9226521853304985,1.2560311152910895,-2.1897819993860113,0.18310916991025256,0.49208248917424396,-1.435286102865426,2.663064665590426,-0.7921094015799974,0.8107237929528532,0.5542478275258579,0.43582304217750395,-0.18064658931809036,-0.6595910283719157,0.5525125559275792,0.7741219601586335,0.906082730195668,0.26171282634000315,0.7061114359751456,1.0603941556795922,-0.15605028743943683,0.3231293423946509,0.3999669087714855,-0.584105405083321,-0.9463189216052935,1.576661111107958,-0.5438735617061617,1.773253114303784,1.9503048712161095,-0.7322743919548275,1.2409587382683291,-1.0061957470936047,0.15222583255383282,0.5607345458788426,0.5773452638601916,-0.5141760910162879,-0.18171508476132198,-0.4436787386336346,0.4140472022349289,0.07222960620666867,0.21034835577908925,-0.07469507648217556,-1.3072107321931192,0.34493141504804753,-0.29489524054877736,1.2923014240655448,2.0798380932867335,-1.6398129487819288,-0.5404630494765178,2.1716359992880196,-2.1169925669704184,0.6382442209486392,-0.07026921426036732,-1.079598690096797,-0.8770909468797257,-0.2199341923213016,0.7020289778691369,-0.4944042965535575,0.20176763107652826,0.49541359163054394,0.46101171108662925,0.4109114386242069,-0.11231161429097053,0.43431817833329645,1.0863562551928023,-0.3567858588894874,-0.3314074444891761,0.5536677129916945,1.3977195062289787,0.18244075254708875,-1.7419997033754493,-0.014490977842530726,-0.13164683685288253,-1.9913057759332677,1.175509430178265,1.647654344097628,-0.3747311835950006,0.3038472794853219,-0.38743719326025433,-0.21193915089223503,1.0720904743197635,-0.6658878156922238,0.2332907727133315,0.8843494619525877,-0.711603347819267,-0.6303794580227193,0.5470363970697586,-1.2832401253195291,-0.005702034984316326,-0.05888301391849922,0.1997828794182438,1.1590110403048732,-0.22862370603487384,-1.3934339769338537,1.3782800065974476,0.5505867707365011,1.2715187109333077,-0.5554887703865024,0.7283782761362936,1.8033431955027597,1.2841540559902256,0.6778034987885926,-0.40334764454610555,0.18923361047164206,0.12608834299128874,1.2256403902206,0.8765435591348589,0.4569882086750218,0.5376975406427216,-0.25479662080296134,-0.7257566125990114,0.39316057608793226,-1.3899297661775398,-0.027106385030094465,-0.7101161177734784,1.0300941165065076,0.23279027597521176,1.4896027086134163,0.5651176430915742,-0.04923028634137626,-0.7251696309453158,1.9756255811259753,-1.2562702870083253,-0.1683111362584,-0.2461897315811028,0.2681346961129956,1.0394829068961349,-0.2828871248917122,0.1533863935736768,-0.2692614208329608,0.013460941697598993,0.45073282101320794,-0.4059237032191133,-0.33096024187059236,0.8916926715271773,1.2780056661647632,-0.019683089017563608,0.19517426462257262,0.8473870388691552,0.6420561402958502,0.7555352725270579,-0.6920706234817625,-0.5649152724677119,1.2205986759682128,3.362156267782097,-0.23647140591731675,-0.036414775946112594,-1.6333473820357836,0.37250398307435617,1.2247520970479828,0.5542363152821825,0.8928645800638448,-1.2324267237772595,0.2903181914054658,-0.7309183104244422,-0.9575664519194194,0.3079032062487913,-0.5339833899136073,-0.6684265444119883,-0.27895745584315534,-0.6243169590147971,-0.6891394152009939,1.1007274507271125,-0.20537215910621506,1.3519889534732423,-0.06654461120498871,-0.4380367063462156,0.9204033947585615,-1.3528751135187536,-0.17643530236934132,-2.560395554610148,0.5184433667658925,0.27531101846005224,-1.6805594555364232,1.0479300863987109,-1.302620022311845,0.015444707193575293,0.2429756243933922,-0.13715585617372178,0.31874349777853017,0.6385485484098923,-0.10443770238685632,-1.6919273078895227,0.45919452320557896,-0.9444846818227186,-0.11360497062282893,-0.09238900068293128,0.39392772417884514,-0.10497483926333136,-0.922822907212045,0.6443284760366794,-0.6875003853406969,0.675404521818128,0.4662273117243179,-1.8974611530890853,-0.5833722540162499,-0.4497709964382656,-1.9954971839793976,1.2227727253805698,1.228611453089634,-1.1067088367324078,2.88213994003386,-0.841578075553494,0.45750112915420454,-0.9490552338780688,-1.3274079912525871,-0.4796807569076091,-0.7964514989014505,0.04125498776031528,0.19816070947508874,0.4703138404007565,1.649098234751768,-1.5087593020063854,1.1037815489993215,-0.41270714531621233,0.806770805921369,-0.8179324853056688,1.125829749247517,1.1295334777133241,-1.0594618118512944,0.04541947839563082,-2.366868476036647,0.34438600484437015,-2.2149736988501814,-1.5762051410217304,-0.5414812279594485,0.4171534084939943,-0.9742572451411303,-0.5385653383298169,-1.68956997089473,-2.1227998209809082,1.3113367955660546,-0.1350806716086321,1.194932854556808,-0.06725993877622673,-2.380755875692172,1.8237680204893583,0.6401752828729632,-0.976696401344898,-1.951924369464657,2.094866920261768,-0.6206934709090874,1.5585873183059424,0.8951868257229185,0.02104100405660221,0.09224865536148394,-0.5723204634168081,0.7407716570717159,-0.41025020290797964,-1.6543328339142174,-0.09663812543258873,-0.20246191013130413,-0.8679781946900369,0.4070668849158374,-0.03504650592139197,0.16149254935017252,-1.0617530567196456,0.01853638340386703,0.1840067191189501,-1.2459061547651273,0.896755482810044,1.3702629747637622,0.18588434904958934,-1.84560701439879,0.1551050912095627,-1.4462629973186514,1.0272888782295244,1.2455855141747152,-0.3773241312301423,0.6850417478264685,0.8712471898083287,1.3242770521923934,-0.034278280911695845,1.6792006586708776,0.3000429625141536,-0.5183672831958486,0.3539848764004043,0.5468919530672558,-0.4216275294483271,-0.08668758529576785,0.7451031090515471,0.5582235131962598,-1.6223603612160955,-0.8238114487603078,1.2218682158121361,-0.15549666718166624,-0.45876256319293474,0.18524866657410302,-1.2098602801110634,-0.024744066670387508,1.321466321587961,-0.38893820979348714,-0.41346300739671543,0.7142976915962866,0.9061200849302922,1.263873115644639,-2.3836735368187605,-0.12115928134567214,-0.2765581427786155,1.528454604749426,0.6460262443593608,-2.156730743186959,1.3965978262610907,-0.3274108408718596,1.8093437664743943,0.9123924913380599,1.2725436238404082,-1.2286039133624522,1.4734940199858912,1.1984382239602338,-1.0990664550418052,0.4938634519272063,0.3903054912995079,0.17446138362401722,-0.5314714780666014,-0.5305318552569398,-0.9277026472192326,-0.6783894662695055,0.31910011070002847,-0.48004823793849843,-0.4193163787560923,0.8985749015193079,1.166702557992861,-0.377594888016544,-0.01541837395515204,-0.3209588753114747,1.9814045958693947,-1.0325954319768185,0.27650090853178605,-0.7373205274267702,0.8124239906919272,0.9150383351823768,-0.30020435621904484,0.35969777278837084,2.108930390584683,-0.8500619374087143,-1.3073761998856182,-0.6783763180547338,0.7033672227489045,0.7637769827257729,-1.4668870447059903,-0.018331123208388683,1.0644283223454716,1.702714629219209,0.44872955538058285,-0.12213966812813237,0.2645711325602718,0.9568279358246087,0.4887856014464396,0.021771149319905373,-0.0008196193428687799,-0.14692867052989464,-1.1468885953369528,-0.8147782122810334,-0.7674027118764006,0.1367772812322152,0.5502371014866579,-0.18561283051826974,-0.20537190217725776,0.2054541520718751,1.6426833208495975,-0.24865291219529148,-1.8348007079860413,0.4625321677049127,-0.6224725011364324,-0.639464005817666,-0.1250639480853327,0.5478829184548972,0.94915543217865,0.17229739857163537,-0.9029313911584549,0.8744797739613567,0.06419093096268652,0.9227397604416648,1.0373026769402813,-0.7349352279456326,0.708369642644258,-0.060714854138716426,0.8145795952026392,1.6048415288740894,0.4946941203768041,-0.28688398331910836,0.40962954811867713,0.4404363184042876,-1.6488360650191538,1.2215391259438249,0.10208471293585149,1.3062765621021315,0.40639954381752263,-2.0583930942595545,-0.041955805336352105,-0.7977087805399963,0.87601615562814,-1.5936949353351388,-1.3555663218842917,0.34442215861498954,1.33007357963214,-0.79900184765817,0.7656551150144759,-0.8837184346348917,1.055519972434062,0.8966812063756332,-0.9602578834297313,-0.017835325874536123,1.1659721297337626,0.7060758385042513,0.5654674620439215,0.7404589434391875,-0.8620791708533209,-0.5294206133442634,1.336630335019786,-1.5905215213788795,0.21079692942747943,-2.10736226940207,-0.9252487841092734,1.056440951913052,-0.49288998750919505,-0.04569613092836612,1.0069260260296282,0.5795306562357313,-1.4398520026496258,0.08377148134930482,0.45752247509507693,0.120273707869434,-0.5725949516197244,-1.0258215728787679,-1.0673785029468328,-0.10261649478062895,0.16950192190985536,-0.11582231225937818,-1.0903088551860454,-0.400155234937329,1.2725753346235378,0.04938932283477577,-1.5075437512650873,-0.28897007393687085,0.9707814132337748,1.6634834516172552,-0.7329320045460277,0.4153144506946296,-0.4501078535378907,-0.4278819401119755,0.6213179514736404,1.0817237663132606,0.014295260503132788,-0.6331999037391042,-0.38966463199119133,0.9792443589335218,0.39496799425330803,0.6674093796325629,-0.14581558603671305,0.2796056609032808,0.14141175111341667,-0.9989630465196285,0.5371030278574033,-0.07166636498718736,0.821546728568138,0.3964352401309763,-0.4083459802905605,0.134557240160407,-0.9999489547860343,-0.16288305407403172,0.019467677737264016,-0.038521239655375086,-3.5042798167264704,1.8680588340911979,-0.546969506698507,-0.28441217068723007,1.9974794150641049,0.7301615243175429,-1.6459631154926415,-1.256674994181598,-0.15985953893821636,-0.8108564240987659,-1.059606049344808,0.06382162106294229,-0.9873764249169399,0.9353590502719319,-0.058582965644556784,0.984327310479892,1.1567964692202746,1.6017261859633638,-0.01784659755612086,-0.3308481908752543,-0.2412823280232849,-0.739018404844272,-1.2279445163865104,0.6673317860443972,0.39012551152685604,-0.053999044415209155,-0.43592389569499834,0.10492249860199435,-0.8286998318729023,-1.1265162518450722,-0.7549959090804579,0.9853941478470234,-0.9314247629150402,-0.38491920241276295,1.4530844451632203,-1.5290517396938466,-0.9106942186278727,-1.8046309008498285,0.5451103020505119,0.0813835431573394,1.307032529197153,-1.1600110089107034,1.5915506308226923,0.06995529643738034,-0.6711529244689314,-0.206518028055302,-0.8493190479344614,-1.3672298152790547,2.9136696713938774,0.1071987795277975,1.001263176976818,-0.36356338694923873,-1.7797552399062648,-1.8733815317752436,-1.2324966078502024,-0.09164270010593824,-0.4749821052277188,-0.661380258675283,-0.514048513254848,0.044548180320228,0.08136334172655836,0.0872593668556819,-1.0946739531993357,0.17911321676985126,-1.912108980786993,0.06464892333276553,-1.4583008656976213,-0.2879548788318638,0.425369139347569,0.9190377309219846,2.011812471400043,0.12970224766708618,-0.22355250087773923,2.1758395993166477,-0.7917992176693435,1.0243573963389259,-0.5353068742442308,-1.7354167957810558,0.017214407181639014,-0.9269089286634474,-0.495793805042704,-0.6273033957457723,-0.9928827558473658,-0.15514516453287241,1.955981463158132,-0.04263068194686091,-0.884069841694379,-0.5268927503508715,-0.6901268827563227,-0.5491959577780541,-0.7663760921370996,-0.10112893628419636,-0.46703480760011573,0.6092155722498104,-1.3973606429854013,-0.5471147866369109,1.3867321879022299,-0.8724436123123243,-1.2323801018945284,1.7311489540183826,0.749392579486071,-0.3681275014720702,0.5089441989428632,-1.4572430544120845,-0.6198970299365396,0.28094537716861995,0.5688529963144522,-1.4216032235502885,0.036868055946665985,0.5581388598136283,-0.2548048126742846,-0.5353195588125533,-1.3413903884248306,0.7334962356500272,1.6734278262057893,1.1602099938818942,0.4148598518486546,1.7168372322581744,-0.9644507233228747,-0.35126302377754853,-0.6026318559422649,-0.02733724418149846,-0.4229453164953047,0.8510884259830748,0.6552309469259249,0.6055321323453028,0.8110240690900725,0.5815598488602143,1.1026694963795678,0.8384099720578398,0.7943121802740752,0.38390744480628985,0.1251533582165847,1.7120921666680093,1.1460170693536997,-1.4884698475947358,-1.1289021130992096,-0.7799689890071321,-0.753531353222911,0.10264084603572601,0.07817918856586444,-1.890509628106783,-0.6006401595858565,-0.8484207225602626,-0.3836208208741917,0.19107457745366493,-1.720772034601581,-0.9312369040326849,-0.1785189213874702,-0.6258677364417005,0.7865511453183903,0.08227852282088392,0.6565660382385925,1.351725535851336,1.820845448295543,-2.0894963816581558,-0.6191642780904291,0.9667473673731535,0.7656803745538049,0.6882623244453844,0.621610257006501,-1.215475976486665,1.3227300051978095,0.1797145968868881,1.296237852041753,0.5999740258494808,1.0232592925717876,0.4755529810633626,1.4058073262373159],[2.1191125217072724,0.3183209925341244,0.2952734693280632,0.10482867740831929,-0.5145672910177495,-0.48664721772933456,0.5617128705992185,-0.4638915527732042,1.4353234385803157,0.5297307817745196,0.46474593151263,-0.9450035923214813,-0.41327312608637984,-0.5271461391605573,-0.6511454043179927,-0.2565782119581004,1.219690156445263,-0.3853121676721477,0.40756927764284345,1.8492161117719281,-0.7320083083822071,0.044340056856776076,0.05994476653882835,1.0076824433208733,-0.9102841974403036,0.4731382090753655,1.1446824179472406,-0.6045540807648008,0.8262625555576995,-0.23306460774742707,1.2196812805874495,-1.2396532041259933,-1.3682742581966882,-0.5821956441700242,-0.6132460496135529,0.47142474424924447,-1.4927998484169527,0.8659654365517732,-0.004737966335878941,0.5714986182822471,0.6571691750259079,0.5677093972730782,0.8063232431088637,0.710688122409039,0.11711910168301579,0.43998356465483857,1.5429393239890103,-0.08847671509616364,0.8695072602682508,-0.7127027238762698,0.029312555825845854,-0.17108726214482456,-0.5385545365036579,0.09571622559745582,0.9968201944301316,1.461607782242095,1.1216645977424071,2.0838796014658034,-0.1895893587831247,-0.4813595267762489,1.0294586933931968,0.019947556894678833,-1.528708857606308,-0.16060072033080236,-0.23680584197584764,-0.25078084564434994,-0.3835489478952859,1.5781373961837055,-0.31935512842465374,-0.34796999068749856,-0.5209140112616975,0.9764329508611808,0.46425666292479695,-0.1934871653255312,0.16102834628838664,-1.407700324957541,0.8485148331267682,-0.2927498389678107,-1.4751612779471321,-0.7861434061288756,-0.6733607808712052,1.0329821383756927,-0.20507063878885431,-0.03610695362975367,0.2525293130106055,1.1419536384348077,-1.0859182317835836,0.8032362242611041,-0.021535073006256397,-0.4053674564991882,0.7057188379711049,0.0673127184922596,0.7954063423653251,0.24729489126100346,-1.7891905441899505,-1.7061429903287728,-0.765854453304562,-0.24859614819844023,0.5263457003452808,0.22919604014371495,0.2221103174039622,1.0667175033208844,-0.10894307321920557,0.14206446814104146,-1.118253857716383,1.6472744824540628,1.839996236406495,-1.437232062829271,1.6925618305596632,-0.16287355040763976,-0.8261472828342804,-0.7785134338322441,-0.7669581517428039,-0.1332055748473595,-1.2118977571943286,-0.7136436225570957,0.7408265643776141,0.6088130392922365,-0.6279834368128809,-1.8622814567182395,-0.3734616845567644,-1.4096158457928571,-0.5263185286971006,0.31182719749292714,0.26842078932473873,1.587092916707089,0.31513435278003477,0.10262237856666499,0.6232146265310176,-0.17029937361355782,-0.6487348195688287,0.9801987218063889,0.8258238995975258,0.294527243567936,0.8369108430557127,0.464530961813206,0.2192127926600221,0.7276667774337021,-1.3820677362270868,-0.4617772150846163,1.5225311329616251,1.2069005382146438,0.26953782902192885,-0.7328407388795058,-0.013289698592926055,0.19383896996993247,-0.06546996322423504,-1.306975544911193,0.6549431356868516,-0.2635609208529827,1.585176073885263,0.5502326060911561,-0.12650120523733657,0.897781503628991,-0.32091783488499276,-1.1876426843838785,2.1045596642951385,-0.886696810144494,0.18677963587987276,0.5552250610087514,-0.7462373379988243,-0.19628620089787385,0.4546748256534763,0.3499114335468169,-0.16461958616015282,0.04663972812840596,-0.0817327464647779,0.8395684509230181,-1.4893602036518228,-0.4807119760719916,1.602618237812877,0.1933038819889249,0.37907499123367006,0.39564858224993643,1.3515031126916741,-1.1236026626730278,0.317893560395454,-1.0057520251398233,-1.2742950235897708,2.6588921126661775,-0.1397684247089404,0.29852945007987136,0.9867363547731034,1.0439897887368104,-0.5021405536815602,-0.6523506483451119,0.012698187385705419,-0.252169435410581,0.24918835746628976,-0.6480400021329433,0.9157208920989928,-1.2526575781841882,-0.12966286367962054,-1.5291344330046022,-0.5461710757144281,-2.509635553555245,1.1862009752659657,0.565117749106767,-1.8502783498695046,-1.0019826417822577,1.376582874327547,0.5044850361444787,-0.34714890217798333,-1.1692625647126274,0.38811950183179345,-0.4865000092060402,0.23772928945379435,-0.020259188943861178,-0.19915901765373625,-0.588543775472319,-0.28035929486101974,0.3989729869114485,-0.4749733425334754,-0.8909208610769326,-1.0368946307289855,-2.3890931530922757,0.33162812387066504,-0.01950611339841194,-1.6552980863214704,0.23846258000811635,0.6336716565087593,0.3336665634986397,0.8961702977235906,-0.7325744587630312,-0.7864954854260212,-1.1106920488859224,0.5986489342988097,1.3959164413909804,-0.4196528642257758,0.07517583674266334,0.6265295525826106,-0.21648735607026934,-0.5246200658671321,0.45978122734820637,-0.4072914205639173,-0.23163149225788374,-1.2133078329136413,-1.64949512383591,-1.3417311741253934,-0.1667387966774464,-0.4660061297297189,-0.04956157611331199,-0.6619068353065798,-1.2193939034080612,0.07716119763228475,0.4357166489638506,0.7066116201026564,-0.5485144313654761,-1.2004071152504066,-1.0128429651781963,-1.2240875441256862,-1.5506113157929342,0.43925893126190363,1.7289929742561787,-1.5123014891986917,1.5341850834898638,-0.9914725527813323,1.0948075862506668,0.4356864750908816,-0.955460750691763,2.985814072690349,-1.7026286790808667,-0.03325772674328406,0.02850952780549766,-0.683063468103123,-1.5777256652244938,2.1005369076788027,-0.9477096394687494,-1.3330741028355206,0.11102170759632382,-1.4363075596881005,0.004627190650214505,-0.3756100631643891,1.1193011408113576,0.7417078041578147,0.8123836643728473,1.2295873270232653,0.25773772095646524,0.05793156980514316,-2.24953441923404,0.9385239830831058,-0.16565288501534683,-0.027705059557836243,-1.423584563354462,-1.5623506670112202,-2.1146320468524635,-1.0035421899464205,1.0940905560540015,1.002293415377645,1.3655186368376462,1.50236082563588,-1.3038985716072957,-0.789070804284958,-0.26632092889764786,0.23597151438422395,0.060000403784568036,-0.822577639390694,0.18459054958049315,-2.013080993464225,-0.9806954712897591,-1.6461563024223453,-0.922114194381354,1.1209404522111321,1.3340891672841328,-0.7199857369012385,0.9993748976700833,0.048645663315898896,-0.5317040748717651,-0.16140161288422736,0.6231157472153421,-0.9002928868789031,-0.42896409295131754,0.6560183778453609,1.0039473400638854,1.5811286195135767,2.0085731910895546,-1.9712365081205254,-1.3208572564878653,0.9690479305010162,-1.2786218161706022,1.5295707201647764,-0.33251504585272473,-1.3808215205644887,0.23068131799482364,0.4467385791964252,0.3504359784959745,-1.419720215793472,1.280418482379581,-0.9611173108011327,-0.2147614388681372,-0.6151850203438796,-0.5391018427130548,0.8771652332240366,-1.1421870371742013,0.7395886004444829,-0.03511931102023451,-0.6552158484452607,-1.4455973482089581,1.136285721896291,0.7455839473075454,1.4752083816850494,-0.7571478557760492,0.28007070043139437,0.11598711407293498,-0.616739232667744,-0.9198445833071168,0.03561861374800767,1.3490561934648961,-1.2445704716033488,-0.7291289551342403,2.2858317244641575,-1.1682470597439538,-0.09802594307846922,-0.03346473996819857,0.8270736311072154,0.7253002625775453,-0.6506232598002483,-1.89399691938023,1.1895733443442238,-0.6481479739989974,1.3411992459356739,0.15947861184706688,0.055268009114671,0.07027269406899797,-0.5063829484225392,0.2291999401389866,0.031708892373337426,-1.8741930062806678,-1.7123597094547154,0.04473865678820179,0.9319673550342402,-0.33040733323397775,0.24273376787485657,0.41723830869189826,-0.5120279286681163,-0.862187188880925,0.2308761713118179,0.39017075476721325,-0.262376474941336,-0.023795012462328798,0.11094121289095264,-0.262742637407995,-0.687078694571756,-0.8233960894472643,0.9409691892653193,0.6040780800644804,0.3331114203301767,-0.07427860405238271,0.11997794768039007,-1.1043473144481593,0.06474809308639656,-1.5536737482623164,-0.7322625732552278,-0.4348889871967838,2.0624459995642277,-0.5032490246131962,-0.4213229010888445,1.6354952256957647,1.0984905608209266,-0.9449766867059036,0.096664575343956,0.06772076855187065,0.385787012307261,-0.39735728391338165,1.4272099303758163,1.8691694423856315,0.28438483818364396,-0.4131160551684158,-0.39622014281214984,0.29271279565978126,0.16526387294832798,-0.7981754514859289,-0.17152332466778272,0.457252743028293,-0.2485559578580037,-0.0993157650708912,-0.5150650694704424,0.8675602362405801,-0.10463998730060746,0.3411163825436096,-0.1300992634069821,2.297982557708108,2.2653060035612724,-0.5080754538950821,-0.511242110926151,1.1115206833710054,-0.4513146288906256,-1.1337150597872143,1.3716518198225665,1.5061837363069102,-0.5994825606588845,1.6773770111943371,-1.0704879212104967,0.5245919964685721,1.341662292872053,-1.313143743617342,-0.4281088209500073,-1.2989363142342158,0.6524241173286227,-0.29954744550633544,-0.7422772143664468,-1.2723338739518626,-0.6002057078314427,1.1043376977647676,0.5979844549354886,-1.571968167567038,0.8451680837868597,-1.3813798659578191,-0.2774602989127914,0.4217346668884763,-0.8786833043021576,1.8061501793129076,0.7498480465461638,-0.3536706737806609,0.9507567919412571,-1.8530358679292505,-0.7320546586366453,0.07517182611336005,-0.7862652694962248,0.5763491686792741,-0.2173879180892198,1.2983423632228674,-0.5121703992372997,0.48116604440704486,0.40969376912253036,-1.2683619563845094,1.210960067621922,-0.07661816799907915,-0.8968542799046167,1.2613871658723965,0.6063851415380866,-0.38696714919770125,-0.3120635699910582,-0.33677456091173397,0.35183167089813655,-0.3108907549503509,1.3430679943856385,-0.5234501021740833,1.2777904674446674,1.207097712219159,-0.5971699900152979,2.1945454976515224,-1.089261881080455,0.6714653308487168,-0.8961803308098447,-1.2242618104091947,0.6552636792041929,1.8120367957139232,0.23810849957421332,-0.3096107171656605,-2.018552183474056,3.2965491945916536,-0.7188759413319209,-1.3142171044387683,2.737543676075525,-1.24788663145299,0.9689854483146567,0.34545473049953673,0.04904745740923187,-0.2592285396632483,1.7817732494229885,1.8175613859242825,-0.013528487929410488,0.8922533696885959,1.2766757169315317,0.8868987716380126,-0.07626072034797299,-0.7091334407050619,-1.2679890426256983,0.4312686634541711,1.4715627967250817,0.19393774721865567,-0.8769365385976022,-0.3991539238083909,0.33470115092903885,-0.684299902681881,-1.3170721565547472,2.384920693171545,0.6750781056395272,-0.7929110048091107,1.1829645849968415,0.12316367563281215,0.20044501234557183,-1.1642245619502605,-0.09091614747548618,-0.9500559641889922,-0.08822176578500464,0.6504934131646573,0.6771903139985278,0.37369025008731843,0.14335635448488238,0.5257375692056688,-0.059670941268994054,-1.466057297527898,0.4328682900506989,1.5781825674338084,0.4675935993051726,2.258490801472265,-0.1781233415950802,-0.08603587956667087,-0.3513263560814262,-0.08029512260243496,-0.0751648926807146,-1.6253306079522205,-0.909106438006055,0.09798092258572014,1.2143791955492316,0.2651388748852057,0.8074043619555641,0.6705104849301411,-0.41846599621575153,-0.44097988839925994,0.7444988801463632,1.7126917852756316,-0.28005912229580004,-0.4823400213382178,-0.23497426410810635,0.4657897458249855,-0.8886757611615308,-0.941008566306274,-0.46247687633285245,1.9543249956139375,0.4299396843920224,-1.7900906630047788,-0.6433891503371502,1.917474119320507,0.7932387919198849,0.9546880838525541,-1.09123640171784,-1.255254619866502,-0.37030686645001376,-1.0544603424939802,1.3093857240018076,-1.6260994284489352,0.21850097557058057,-1.1001691442714296,-0.2478678955008968,-0.027571386685932956,1.0096942287132522,-1.2525582913195907,-0.01671081252377741,0.2000247514789461,0.05288411652266084,-0.873438027357092,-0.6739498144451622,0.8262874982259314,0.4970946467345758,2.05853150366731,0.6431556526858594,-0.4481356954204652,-0.9916918279440291,0.7164808971332108,-1.3477196288709705,1.0896090965978962,1.5299357787445502,0.1676428764070391,-1.1144606831736497,1.0228424755419572,-0.8284164426216684,-0.3785572007458973,1.1061532537753582,0.690618803143799,-2.061123836064826,-0.10040018714617018,1.0444662566229157,-0.7151564391231299,-1.3221006357612435,0.254072415733769,-1.3382173978183323,0.7477442242019194,1.022427916492164,1.329700736278557,-0.48320342126601784,-0.5027452874730414,-0.9940085647074594,1.3431792571594887,-0.10138154681612793,-2.0655511557267374,0.401736313565518,-0.18553918928811566,0.8639938457675149,-0.03936217362457319,0.7518299716486959,-0.0455973548887851,0.19922897707503862,-2.59695657114732,-0.1304842642868238,-0.4544115247303883,-0.010087692960649906,0.23062017948186653,-1.177011461259217,0.5485613502013058,-0.779605849576887,0.30299620754002965,0.5014040788419318,-1.745533101782933,-2.2023603518725094,0.1782999310095173,1.6820196319464416,0.8176923770035018,0.4888084398864759,-0.1413245762759099,-1.1668532892010706,-0.7856965050551473,1.5517986773391217,-0.01982735433796217,0.1319907543529959,0.6114907369400542,0.7579317392334463,0.2393960234969267,1.0128846310882071,-1.323090271342541,-0.01279314466965403,1.3781678619330948,1.3847391602280525,0.8207316102741238,2.273553077661835,-0.7129440109769747,0.08348647663874009,0.4152619753608169,0.24111959562690624,-0.7773713630309295,0.787905841523286,-0.5638892019837127,0.25844895539053014,0.1567833447160617,-0.6049814345824558,-0.5997614311815472,-0.6899402067333681,-0.4260209746103093,-2.373808370318543,1.122024417184848,-2.0775772429454684,0.6646469447098428,0.33779002685707127,0.22391099821866026,1.6470837669973226,-1.0484447166810504,0.025368737655064682,-0.5703985039561401,-0.08422838988097396,-1.2701405386125335,0.6166651364095976,-0.052253914199739335,-2.1345475391215922,-0.3123697938827237,-0.22285898623148606,-1.4184549634019632,-0.33603949262993144,0.09342956420152863,-2.1475813929303063,-0.2739332173365673,0.12915339560672334,0.7678384608623597,1.05670481014162,0.3226428807873614,-1.1073129556297774,-1.3517989487636826,0.23720125029372147,-0.9054542567121584,0.3721917269815111,1.111637900352857,0.8317556553124731,0.23565213885403463,1.3379632384509168,-1.8310111945361682,0.45511115533293917,-0.8514699767861209,-0.6372199948914413,0.7107108737488357,0.48294125532585835,-0.545612556528525,0.12449626446655909,-0.16274573463317912,0.17083170338759548,0.6756684661604364,0.3516204107674019,-1.596470631800795,-0.3999648751126225,0.8325570086688163,-0.2102548172906208,0.24371938418604094,-1.194904867557058,0.8070620451522655,-0.1956197620905884,2.089594170709344,-0.41618464857305365,0.8174615567662875,-0.9458009676024008,-0.06903764929885643,0.04211873395434627,0.12676259663807876,-0.8164379208465904,0.718856513722573,1.31993581679281,-1.4498187179591373,-2.428276661696808,0.5944849649871908,-0.3410257389522631,0.9770467193514443,-0.91411414217671,-0.10189408811878607,-0.37407050345724463,-1.8805136893436962,0.024947166832922894,0.07092792776335675,-0.25912897662965456,-1.6762660214788578,-0.6473514622985874,-0.5231437072521922,1.5811850796587823,-0.17614931877520484,-0.6728575668708313,-0.11769416337493613,0.15389524448805716,-0.9958235784137066,-0.6926804870942792,0.4302320081323759,-0.35683236203089036,-0.8459215987144761,0.22506732097746807,0.20860886757860903,0.09763087055757362,-0.28374350328418924,-0.3833399608150619,0.6148363514503355,0.04671396745444373,2.2735916975614328,-0.39562757782563646,-1.7423950157167405,-1.1148422023414963,0.2968977260904636,-0.9646906945190895,0.21937156299625174,0.8013214105787011,0.28970573373361985,-2.052289469785253,0.6137749910605822,-0.4279586182960085,0.5202079140192015,-1.0001514851541036,-0.6416657747734442,0.6355764412648066,0.5570631206879822],[-0.42365197404972454,2.1112736036307975,-0.14779587729792917,0.6203630520881855,1.1278509282820064,-0.5775583939095859,0.5146357209885785,1.3191884725350593,0.4867934984759566,1.2726390834946875,-0.4844324120525635,1.3546975942462731,-0.04405549476181256,-1.5843540442546589,-0.40016106334511414,0.26890658631530684,-0.17464229858657776,1.0574973300094015,-1.1159835901256414,-0.335263588498954,1.9000807372725002,0.997133821145182,0.4313631975211072,-0.4771962827200547,0.7943289744401011,1.1286392908552734,-1.427037062757889,-0.34948385770620916,0.2466947423167684,-0.8985661820021907,0.6658800989673203,0.4038366284061487,-1.0757420893504035,0.6271770219985221,-0.10357476577737075,0.33248814650800773,0.8412479001137293,-0.38334237476338195,0.47633219466453586,-0.8649168168493176,-0.46359959841445003,1.9223416464886534,-1.0218741748988933,-0.031652701565139905,0.6222395642562271,0.32751971418588954,0.3672555686845226,-0.5900017849149066,-1.0469762720010873,-0.6882742020903029,0.7546943842973607,0.2984176159486585,0.30510311805842766,0.7659220953266563,-0.6840878613347501,0.8194062154747028,0.7838589181248732,1.3212394876136426,1.5496667821752939,0.3047094160765771,-1.8276766903521868,0.4915839670631792,-0.9518921774641231,0.1784997583168137,-1.5982622618343907,-0.4623814118777653,1.2545112640813159,0.328023727607804,0.06539798716883606,-0.19533130181088454,0.22637178472800706,0.3864219341386396,-0.39130217100588827,-1.8576569944280292,0.6457737908861036,0.42329823864624644,0.2594900663764652,0.13890269711683728,-0.5031543009393553,-0.8921624092022523,-0.4665801299257962,-0.9346809309237678,-0.6550122659373193,1.9665538983361337,1.1462113036632133,0.16026801463575466,1.1536077933833169,-1.8376533121666088,0.8359506103113113,0.5763335887146439,-0.4860414264066612,2.141724815114983,0.9629286137092326,1.0049601401998287,1.1711624499747588,-2.049010487437544,-0.6965390378963544,-1.2816846343808999,0.5891953323336417,0.618057963779151,0.09526796642847635,0.21076188274409524,0.687043019836504,-1.168533970983552,-0.3019586790292478,0.019197597676503992,-0.43216756885986596,0.11026891676845925,0.20175198564465244,-0.7910667642037938,-2.035464316274094,0.16370636174013167,1.1730889439919745,0.47603840465974717,0.19612211290615514,0.31550828902683953,0.951452642374057,1.0630006024944039,2.0138643831648224,-1.0737371272293537,0.1322841656530046,-0.543584195908573,-0.6816178815601447,-0.6349417863229511,-0.31491327912603034,-1.984992602879054,0.3985795170637185,2.644594778978431,-0.9656954296067405,-0.8998447471703573,-0.6982103315005734,-1.3533941493752173,-0.15706921875056723,0.24517701916667933,-0.01291893933961959,-1.457926320845782,-0.16959798055309283,0.7402011989971299,1.0508203250152677,1.5436732779373383,1.5222833285097834,-0.9913576143391039,-0.9090961460969192,-0.17954305787309346,0.7339083569155356,1.498928277478158,-1.7272271112710935,-0.5829105283340925,0.7905838740856321,-0.8065947388240042,-0.18710424652515,0.4506740578588094,-0.2595464897040014,0.00640835310274744,0.7770547982258467,-0.9404206846495891,1.3722773727100748,-1.6289328856613214,0.42032278366583714,-1.165569874578738,0.7272566179324188,0.8640974513282405,-1.063109274882362,0.554084301921439,0.4472775690317159,0.37140433614222007,0.6791475855022274,-1.2684146433097467,0.004373270808231173,0.44662576094945355,-1.246856742209549,0.12162078029017777,0.028088278875745023,0.2990988275599268,-1.4057938222952833,0.6374383722029852,1.0125934188595915,-0.11216530150960771,-0.3437263611303643,0.7344112346000381,-0.8724501255107936,-0.7709381476499975,-0.32086890156053605,-0.42853392680970115,0.09690884727580203,-0.7639455229883864,0.4728227580000832,0.21086855666162319,-1.9440944280000607,-1.4520310259890739,-0.26606227950001743,0.6190018695113085,-1.358725251598862,-0.2863072617683683,1.1503791216374026,0.6767395172129743,-1.5099209133279414,0.6978448773925774,0.6255898163235749,-0.9531736685986598,0.09392057927079656,-0.8376341754369911,-0.9750079821224467,-0.16113912515077183,-1.1688099234128329,-1.648472089701235,-0.30100245585608554,-1.8578026029326073,-0.5583869624995936,-0.7369146383297326,-1.2441790661808534,1.1710296172630357,0.342589543141276,-0.14559340780008947,-0.22309299542974484,0.538377846903836,-0.11351395476603562,0.1824170874874394,-0.49273930120880804,-0.020645910125507285,0.9954655548561245,-0.47210672171381535,-0.8235429005775827,0.24806910694584133,-1.9961774242326449,0.9845147286808154,0.2913267282820996,-1.1295743106873783,-2.0151113467479576,0.46869305001510514,1.6260010813238712,2.3514264770371285,-0.7284069998836887,0.3878894733135472,0.46059003585741837,0.5258497471304079,1.5192311080455656,-1.6394548766229171,0.2879018285438838,2.3529130995553977,1.142494158394339,0.9956788731173646,0.20456865973210994,-0.43239085328906474,1.3495540515929922,1.29288760881588,-0.1694356655877973,0.9159553022365956,1.3507486754717157,-0.3230232805967664,0.2371379797433177,-1.9093969060256404,-0.046261374238157356,-0.43588922399101454,0.7762875352952916,1.6872975515526107,-1.1080045091528359,-0.9108433176398707,-0.7937190729272259,-0.13802727204430348,0.6387332088429145,-1.3740867327382145,0.6986845919178731,1.9924564921034587,0.4773356333487777,-0.2065880778385334,-0.509728036494183,2.228305049012971,1.7535221720991163,0.3744017680111368,0.7810469146088758,1.5728211700796482,-1.2230235747738119,-0.7058902817019649,1.5190771896088422,1.146805317728698,-0.010025986783096338,0.30123496566033725,1.8941627192780737,0.3269181001217511,1.129021714919971,0.8236038949142563,1.2649191470574932,1.635285689962375,0.19752128326980486,-1.8030881665549157,-0.5831404253594732,0.6830917012738549,-0.8318927783047285,0.5576622319668778,-0.2847275136451664,-1.1924739152801431,0.40892655825153584,1.793945584028345,-0.36335799581978406,-0.843864008828024,-1.1448184467011564,-0.7703714897977133,-0.7068372405911375,-0.2835002833161784,0.44416670285737425,1.5521491977870348,-0.8089884548743075,0.9753407541312319,0.214963855736802,-0.9540474202114386,0.852931085190876,0.7668968988951833,-1.5634243936879972,0.3046792445005177,-1.762379082824597,1.3288609376647995,0.9587950526245149,1.1548851582059265,-0.6129332357457634,-0.5983453733483959,-1.6924836422165546,-1.1893060054676365,1.6676311338219887,0.0356161053643563,0.6106434182473665,0.11273465016109126,-2.2290547784502115,-1.579353712888167,-0.3100955780599345,-0.3852101867776167,1.0772511368041662,0.023342341195824363,-0.44099252429429525,-0.8921049734661887,0.8088764783911047,0.43932055722106367,-0.8380713317452475,0.946406403976186,-1.4826833680719422,0.8047667060909518,0.4800598270602356,0.2876406567999174,0.2900098650281489,-0.5003755458587446,0.9873668839067489,0.7079617363332108,-0.3993482139675014,-0.7886313060147726,0.8139257784111267,1.29687204380039,-0.7934562533117555,1.2460316719813103,0.7613084999043295,-0.26089381390363076,0.29111963361479815,1.2467326177486453,-0.581822240680184,1.3833752546261429,-0.24519866574174295,0.17457504061104626,-0.7015909425557517,-1.6094613935287487,-1.4919764135084164,0.17710335852966638,0.48827690922322287,-0.39937326004101326,0.8369767340333626,2.173655088913426,-0.17910518206931875,0.28121273918395473,-0.6891644743738483,-0.5646784961171611,-0.0020531916729308276,-0.7618774029865888,0.38029579027648247,-0.4398628497328188,-0.39315129811756355,0.9521211604007404,-0.08195351415562478,1.6072666142908019,2.043272038148766,0.7364407030134156,-1.2475344330758311,-1.1464198199523972,1.0289419972842577,0.020221232381977816,-1.1004004567763783,-0.2911723775619757,0.012599168951621916,-0.8142092444687615,-0.2602466332660303,-0.31610564225956694,1.2226569412977364,0.8261898541366955,0.215422418623165,1.536607081444416,-1.7713677736214113,0.45101880739284916,0.6650955107756089,1.2841671239162773,0.5751612074559611,-1.1371948308232929,1.0152335251413878,-0.5294640876335776,0.019795847779481023,0.8766141159990559,0.8414632353043306,0.644255261581794,0.7874674471522899,-0.6770440402811952,0.40952270797302076,0.7479125495061448,-0.7063052794632921,-0.17738258002431528,1.2737706913784237,-1.1080421524859276,3.173049133332706,-0.0076404716505927735,0.5864543059616766,-0.2590367129573242,-0.15071382256604118,0.9810996940527006,0.5966009787027362,0.022538919515872367,-0.3462758368509473,1.3118734522362334,-0.2574033406514436,0.6396994192748187,-0.20971910785745468,1.5906567703133574,-0.5395980002710264,-0.24367485420229099,0.1380713538965245,-0.31246209113387163,-1.6918052909966603,-0.611844907013509,-0.8308037238933735,-0.5380536006545124,-0.5789748264788782,-0.7439320977453137,0.37037673017475087,-0.09020021122685677,-0.364861795399775,-0.4814991447031039,-0.9260887790917074,-1.0485453716878503,-1.6022718720896623,1.4572001484177624,-0.06273666868875485,-2.5089063789799178,0.5988045969286113,0.7421295363111418,-0.22479730083182034,-1.5726879076332063,0.44805127858520577,1.1404096681053575,-0.09426856527188138,2.0930956338087854,-1.3342910856177888,-0.5622448313917374,-0.656148683973556,1.1432824407494322,1.2758391979852945,0.2762046992650603,-0.9500154293254335,0.16517720791373455,0.8333090382081848,0.8486713727911717,0.030331242569298852,-1.1902645413696644,-0.6665995495526055,0.13160117803522822,2.9158677859209496,-1.783533365891091,-0.02838255672660097,0.8918639244694204,0.39322775868897886,-0.0769218292101231,-0.1651548081837381,-1.4407508121579693,1.0009663017981676,-0.637170824372341,-0.39993423292703356,1.1327778367299488,0.9221884744140575,-0.8132631666881189,0.35077488880523106,0.21112774075657267,-1.5552231386792497,0.150964247940316,1.2497708505758527,-0.4891186034947476,0.9934132923385328,-0.7910542469267313,0.06404345317598038,0.23854511578392035,0.514568002199657,1.5356310780458275,0.531768024281064,0.10684629190039786,-1.0531856116012395,0.2177972289683954,-0.7700098311661575,0.24651638561810085,-0.4031177780178245,-0.2736713283605607,1.629540852346019,0.8441987930201506,1.2545504515041468,0.5072417170260344,0.29242746909058887,2.655822601676629,0.48636571094493336,0.0021138215101111613,-0.898652824674903,0.35981730470387446,-0.9140538434607143,-0.7001549703972388,0.5750309183963443,-2.403921573850233,0.24254074259281733,0.8255344897838358,-0.9601196985509769,-0.2699681202836446,-0.6355338845388302,-0.11792117086591758,-1.6225117950892958,-0.01588565096090035,-1.1105763717948915,-0.6427552872353071,0.9568123429555794,-0.03069089255975219,-1.6393538201816176,0.22028143152271804,0.2098806985862885,-0.8496918747544074,-0.019578485309715343,-0.11820619490691253,-1.298330309264519,0.11738378361405036,1.1769620925398188,0.8129026991660593,0.5883130720538723,0.36977351305098594,0.44977207567808475,-0.30818588772007605,-0.4394639195214993,0.9901937471554448,0.1048336893138111,-1.0809563406082094,-2.58210711719854,-0.11267993936453657,-0.2533505895546491,-0.7075391944393653,-1.4033573905158645,0.9053049378031542,-0.7149537960060053,-2.6660854465510706,1.0406035636930868,-0.6737227299659538,0.7490578652609197,1.5061627562292932,0.8255512309224257,-0.26316234256741605,-0.10022904839789369,2.0255255201430438,-1.3022777747219754,-1.4275806766234387,-0.5210635495009153,-0.7630206428370895,-0.3479109051304367,0.11244020658225304,-0.21039940932109652,0.04367974832370538,-0.10513558842644513,-0.3690076975344452,-1.3254620961963963,0.07239195715883015,-0.06368091101972156,-0.4440542969178922,-0.8050630715358967,-0.5976634747626385,-0.12120731886381056,2.0613587167618825,-0.049563609300892736,-0.12469145889933761,-1.0209777817718217,0.7119081365016461,-0.10743627730433386,-0.3584718588465698,0.24189126116401224,0.8678030266950226,-1.6754522346262886,1.1720378895769654,-0.4413890561844546,-1.8493789844990434,-0.43202702591060926,-1.1381294274571072,-1.0774399825874263,0.01919026417257848,-1.215646592913475,-1.184276075508918,-0.6055421448246943,0.0837634371633921,0.4487090976445772,-0.10114381428161638,-0.19938883994154527,0.5919745329494326,-1.0525278720968125,1.0152317384567757,1.0804272686395198,0.46401926749932954,1.3628089028603387,-0.08079721922277816,-0.7754522643845093,0.3993676896174752,2.3289565884099357,-1.281188261858339,-0.345881096680196,-0.10697149127819908,0.05525527287308654,-0.014581579274600761,0.5898358308257771,-1.0216105581416073,0.895620998950023,0.38524156336810444,0.7851922983427809,0.2788663517782503,2.265179987969416,1.9496306850181597,-0.723708929282389,1.931160929155339,0.20961748030935623,-1.548918992659194,1.1146364373634967,1.873023627842072,-1.12089937566081,1.086069834923722,1.064700432469019,0.6139111497727355,0.7368123423861017,0.3716914269728573,-0.6166797626783543,-1.289484852838825,-0.8846113616177402,0.13001885604572144,-1.2427744426024754,0.7839386202329914,0.0018514938516842885,-0.5867254472109761,0.03154156282062285,-2.507497269702253,0.6562461248897937,2.497519239980364,-0.9267681735008902,0.4848864799349537,-0.2577884753828033,0.516068939955358,-0.298953970406227,0.899258848120303,-0.23839639362986098,0.40221281263459874,1.4983362524069854,1.3002219769388028,-0.8247569761195914,-0.10235453261931146,1.576993318336507,0.6041484217470766,0.18360168797811183,0.22756547647758157,-1.8010810869357348,0.12418309437274408,-1.2018903876158906,1.4425242576987305,0.19369188650472444,0.3451970787884732,-0.5566572847835941,-0.3334675008676717,-0.8828856498833841,-0.16817904953200863,-0.19913173619218863,-0.9675711541838827,-0.000693048484003681,0.6272802347954979,0.12619264592636809,-1.303106293383474,-1.426960309214319,0.2274040049045101,1.3591580967612913,1.3844586019239493,-1.8798955259185954,-0.7501031449334791,-1.798996372109463,-0.6430093141854153,1.0593682044537045,1.7004457550818894,-1.4331212205143187,0.5917160288073183,-1.5570476845025896,-0.5618465601203311,-0.010406436536899535,1.2325019331684999,-0.28330969322218025,0.09381240666250912,-1.1668901913158296,-0.8150118642113044,-0.5470460697655896,1.859055844711167,-0.3092853059780258,0.24485940698745048,-1.069476827411709,0.11043699640822316,0.6888704504630505,1.5233342157701082,0.5577430249717292,1.027321445163313,1.728980140013477,1.3807793285804866,-1.2653937918366642,-0.086937896597051,0.14554928691538685,1.125441133430436,-0.4729699347801117,1.3933998282487428,-0.8122718090096004,-0.8787820217867018,0.022968736261785177,1.3764233440084135,0.005998298929936951,0.585381424843493,-1.6151173045057656,0.32845791981993133,0.4047939118766361,-0.033432558581953625,0.20425666092952277,0.012437692691570265,-1.6689778457591256,-0.10023509738669517,-1.5278379987789734,-0.7395383485481064,1.407110400168633,-1.9212135154110916,-0.3423517608198635,0.620650467524487,0.6646451431355125,0.33581314598153067,-1.4756493759044862,-1.154245636000849,-0.5456665499359976,0.6123604531077098,0.11414286366337986,0.39502589498572416,-0.17669071698880193,0.5128761170674889,0.7269148605062047,-0.7719213007466799,-0.6029827070338535,-0.28362276901098155,0.11345251263288737,0.49263880783844777,-1.6175137766592318,-0.48579592727876164,0.6840202912051044,0.22201896075825983,0.49299905157720675,-0.6424957456287018,-0.0011849588252409136,1.3467137473655184,1.8750893577550194,1.3977554977816657,1.7965458430178032,-0.20909646834975634,0.26002856552367853,-0.14262243788166679,-0.6956884038152615,-0.13989891678576075,0.37967606562980716,0.12033827976572851,1.0773695859397598,-0.5934459946577918,-0.4691962664448727,-1.7022864842547312,1.104890177396288,0.36369241596703733,0.18886893001248212,-0.2219721512282358,-0.4834144295006395,0.894491345256201],[-0.1838985007998974,1.147826196180224,1.6522755151434076,2.6411034903671453,-0.10950676112518279,0.21764587163192456,-0.1617458253800911,0.8387705573000273,1.5057226947051632,0.8934973223778371,-0.05564730823755592,0.15793083611295308,-0.20457212235759809,0.23227839787564092,-0.1917086030630158,0.06710477388501039,2.397697184918264,0.6861475922168555,0.3172778846638037,-0.7392991086453645,-0.48395474799735066,1.1201931713382005,-1.027745591994129,0.8541682723946997,-0.36929253006667506,-0.37779360242220567,0.8358157056297973,1.220069302023479,0.42010900707051446,0.9864835232810997,-0.05746109584698886,0.9466403437901515,-0.8657143716930504,-1.9508858261949997,-0.15033028594887313,1.832960226512014,-1.1039435782691593,-0.8615901517488279,0.7138668885325926,-0.043118218123425554,1.1110360625946663,-2.7498489443635834,-0.8784147320575971,-0.5087261483671673,0.10596703130837828,-0.0003220647072768517,0.7686161342428451,-0.768619820450639,-2.808436872726856,-1.1255043568269871,-0.29159732677270933,-0.06015638816226621,-0.455582788855862,1.0407057136262585,0.7943952935736931,-0.4851456304267701,2.164704704790087,-1.652997966780926,1.7795197039603048,0.29533501360773434,-2.0302868888579377,-1.5661035817763123,0.7781045017550045,1.056338973442341,0.7911591157031616,0.9948227276538348,-0.7061025093660074,-0.9121640178768716,-0.054671278215370114,-0.3382317922359686,0.4872002053686978,0.28536205099412687,0.035019334849304036,1.1261099783905144,0.11440561012396849,0.8441717289148922,-0.13487862672862894,-1.3203304577839279,-0.55266990311601,0.7792642053671326,-1.067300423141218,-0.42711495574067965,0.8480525897871121,0.7148702966720617,-0.25426151660992874,-0.032938357990266856,-0.22736240786990985,1.81392760056197,0.26965413518206255,-0.0154983821139481,-2.101855698458498,-0.3709312459483642,-1.4555199926608726,-0.816588035210988,0.27906036341123186,-0.8585182569198632,1.2375153673542567,-0.9044151975481622,0.381629478629406,2.114607879077628,0.36689884034897946,-0.07048604928982856,0.17202612947536372,1.179696115429348,0.20582619649660985,0.036046690021118245,-2.220432019585064,1.7193745500112592,0.10875187227288848,-1.4739331943587122,-0.32076937875561545,-2.040686642422783,1.8715897029124695,1.2867618264256713,2.593386587680961,1.1391712513635888,0.5743567979623734,1.1880458231514333,1.2731014250493735,-1.7618625603706235,-0.1781082422904615,-0.8641501257869151,-0.6945490470540766,0.2959005779832244,-1.2757463709501036,1.1150987568810073,-0.7851763829668854,-1.0583097568207056,0.3725076000962322,-0.9942050710066678,-0.7610024543774949,-0.7756521884544626,0.7789617841964614,0.833262746319728,0.4421456063575197,-0.11074422003806877,1.8905349326986067,0.777836439156257,0.4688492403644664,1.646460902488137,1.3665572531526184,0.17906794317375968,1.7518974543912171,0.9496872631822247,0.5998356128130882,-0.5595916237609511,0.43736551190304046,-1.903125367497307,-0.9206607356103111,0.6262720051944171,0.1745558172025451,-2.21412502144293,1.9545455667275178,-1.5003992620498827,1.2161162914514547,-0.47433614179506867,0.750625909605594,-1.2883001766948794,-1.2638021164111262,0.9542807786429817,0.7006846297022413,-0.06236435302420842,0.8828459466077823,-0.947802212544405,-0.7139668247307647,0.8784726169827152,-0.8734540225491478,0.5077717139596705,-0.7976271076930755,-0.8253766034606881,0.02553196499932852,-0.16047182028977985,-0.3213146973326021,-1.6960379069825724,0.8982204146434116,-1.0450088519067648,-1.105317797405144,0.9594067127608249,0.885966553596854,-0.5060557417917971,-1.6231304539806648,-0.7960001295265876,-0.06446503513833461,1.9719423850161348,0.08608031715249646,0.19928306047289177,-0.26342733930327134,-0.2020348759558413,1.3626890880222582,0.4664641350765092,-1.0307046055353353,-0.14813030233890817,0.226041501154789,0.5915536353153251,0.8160919691146469,0.38886313220045443,-0.621461608677747,-1.0351876532694888,-0.935238878451889,2.612244921775273,0.5526341666109985,0.8805185388692164,0.2968656650036294,-0.07151163836663589,-0.1266819086702545,0.9656566626797842,-2.0024916315702614,-0.6856208130020185,-1.4492556374128696,0.03893666015150297,-1.0243371698192067,-0.0654348759411864,-0.9631954870720082,0.6143821157263617,-0.953094751580402,0.4307301510093795,0.1727673779625807,0.41690097100167917,1.7764166124438276,1.127011009092846,-1.3226807248210937,0.5537409123676879,-0.7576795408552951,0.42642083274626613,0.3509833298832984,0.2197023351071329,0.11091204417072473,0.6128946281915783,0.3497355620404118,-0.26755789004511704,1.1456164743712616,1.9888173663023603,-0.9436844594714393,-0.7931593755199178,2.2677643184111727,0.27314677829405243,1.2267691531414897,1.5064852503558426,0.9407594342841107,0.6643157914993794,0.2568522232733663,-0.4862508650413985,-1.4465123467226815,-0.1451876996151961,-0.5394905707945724,-0.24511605044332602,-1.3138885910817573,0.2123822429424501,0.23192234345247487,-0.813436364665401,-0.08633185457940491,0.21106196542612551,-0.8469723304292848,-0.7679226511947554,2.507032081849515,0.41802256368837487,0.5377700492036183,0.5167015124372966,-1.1085838372157393,0.17810753696102846,-0.15498470406877002,-0.3020223558621747,-0.3765705022623286,-0.3202249673318302,-0.5228213956741318,1.0933069249203902,0.5042957746179818,-1.0915582737097214,1.9416198717358213,-0.5407680338938704,-0.4752799238410813,-1.3164572981771416,-0.6074381364064769,0.590512798544296,0.539398611799473,1.337365157179167,-0.23930978637524494,-0.36491002294362584,0.6624652820317248,0.5009084643049792,0.3810900678504088,0.11890733111776461,-0.18168099380045355,-0.3962441734447157,-0.6587487562500537,1.6331754374494583,0.4981564829379081,1.1345940706024216,-1.2792510276083182,0.8575966158363236,-0.26494549967433817,-0.6906912462525945,-0.771063650591809,0.5518537939298536,1.668995807985176,1.4202507054150657,-0.5619191666463692,-1.7601189362255145,0.20832394862443385,-0.14616175015164257,1.7300299860714188,-1.072135190102326,-1.1682156359872102,0.8919622865254774,0.7083227412004711,-0.48687563484076274,0.3242439030347333,0.8629416510303825,0.9844333083119406,-0.22293234327240677,0.17001024608564003,0.17719537074339475,0.8165156747635122,0.5611615621728773,-1.4826450754186642,-1.818321254024129,0.01996414312940926,0.43612384288503453,0.057828567637780944,-1.3865898074567287,1.1002852872098465,-0.4769536321904826,-0.91568634234541,3.5546854593018513,0.13819527282229274,-0.8861507041355096,-2.1764854568178893,0.48522435658921126,1.2879326465538792,0.810132817117912,0.29578724652026295,0.2981135608282132,-0.10654720947977837,1.7715653480821192,-1.6950417523127959,-1.6305893794196513,-0.47168113742802953,-0.5831186152813003,-1.8080747746060946,1.1894176693942025,1.026828768295442,-0.0336574156454361,-0.35802394828882905,0.5978678720306702,-0.8026790586517876,1.0541471978658474,0.07445407538226521,-1.8846157058222575,-0.1422003127900909,1.1238128653270436,-1.4201154998326295,0.8603329735899348,1.292453724312136,-1.5418378514436146,2.257467544269732,-0.28266612875629393,-1.3078423497083647,0.7291707169260516,-0.9447490748071485,0.03086918965359446,0.8090073041419108,-0.8184010300773594,0.7475334542673288,-0.40772503812554234,