{"snapshots":{"0":{"biases":[[[0.6160051354504503],[-0.8108049804685081],[-0.20184581277134137],[0.04446713423756602],[0.3125422719436107]],[[-0.7486699733606069],[-0.7462781206215479],[0.5753503194798563],[0.06538673358556885],[-1.7592451598682195],[-0.02016538080835819],[-0.2005042042733094],[1.5860612323604868],[0.3000679563197531],[0.5282392896147546]]],"weights":[[[0.8664221502573461,-0.3593696515585702,1.1845784868044305,-1.224164562309123,-0.8503221359268889,1.0508249566562158,-1.4693804816319653,1.1583067389773214,0.3579517840461128,-1.0468403399774262,0.7451957221171351,1.3519891993287423,1.0347300453648067,0.07343311750089698,-1.7793664542606866,1.36692745179637,0.6996491735459697,-0.21531499396100454,-0.1636865002341977,-0.37883424888393313,0.32762560622321096,-2.1037133402985897,1.1947067661941675,-1.606766453166289,1.7668450126829185,0.44111959995239186,0.9236483205979065,-2.7658453431724346,-1.0325172350240732,-0.5240946469952069,-0.8579952594168913,0.14383909578041382,-0.910629421523036,-0.031725944436149726,0.0849035858078144,-0.5277814857614305,1.8020021071677048,-0.3505267754219119,-0.484288221045469,-0.1742376445590883,-0.5064444186306555,-1.3399490765258226,-0.3564981862601102,0.28594850284460305,0.6217056226223014,0.057488798494537384,0.7254795326516732,-0.6050258395332556,0.9969016863159342,0.22497719091943094,-0.746081113415246,0.7813215547378044,-1.0436819741095038,2.030112626367417,-0.11895739095081427,0.2552637238222438,-1.3581262976647803,0.13117814894633986,0.5303412093064713,-0.9643964907079712,-0.36628397665789897,1.0097201388620198,0.48219240028349386,1.0974952904950597,-0.5802852739204296,0.9885124258956748,1.6066308526420405,-0.8561409037825595,-1.4298027445090786,-1.3040927631525419,0.3935276611818547,0.07988415317053896,0.7626062867045382,-1.3922886907093164,0.7380522393630787,0.021728972321395045,-1.5522494028944913,-0.986807067774749,-0.0350612601144269,-0.0965378515431082,0.08385137121087187,0.10317311560040565,-1.6476746346220865,-0.7430843507537932,-0.13262193469689645,-0.9576694732048929,1.4222968613430558,1.2550442274566231,1.101770723314605,1.34819465161331,2.391635471216337,-0.136895047378917,0.0443748360520362,-0.6518212678718355,2.4227755461276357,-0.36504906098968587,-0.8498478674208283,1.3396722862329493,0.7052102605418761,0.2343921310767269,-0.2213513262037689,-0.7985586049449829,-0.4344854263650892,0.20465509316728253,-0.7558747026451668,-0.7739360253780905,0.5398881832074565,-0.33586067091849336,-1.4761211456785055,-0.7082868963500478,-1.2673467354740724,-0.4536924602889969,-0.059834397016957454,-0.7063244909603338,1.4560713901250844,-1.5351385921476435,-1.0955262029108759,0.3428627918207274,0.29636974903159463,-0.10791921840372574,2.7482265328216258,-0.09018823541202664,1.5784537896271251,0.5768837902825646,0.16635184329469746,0.388242355385449,1.0878078752149878,0.08696159403350905,0.18595632724125394,0.38040523214098537,1.0407781084395937,-0.7806024508675914,-0.07020804009890462,-1.020202562631503,-0.9646525772961432,-0.5477298727834214,0.3776961609770256,0.07539694923389685,0.7641348223966752,0.3697456474210277,0.21577104125906935,-0.06887731329742178,-1.2176067070281906,-1.5820845864016773,-1.1262587399293416,-1.2600327724827796,1.7655889219914085,-0.4272464417810141,0.5207180472996364,0.16795298438034037,-0.36389969187895826,0.24229560824524832,-0.2753771856760742,1.5165889469775633,-0.33891869472910224,-0.6625482647320747,-0.09723162980549029,1.6983346368130467,-0.9234991117565904,-0.8106163264718953,0.7217941563234277,-0.19424433021419013,-1.594503881584873,0.6493935750730769,0.9364786197045597,0.003846208220696789,1.1802166068642572,0.28817177748347533,0.2786328882164198,1.5630710505901588,-0.11219639118940847,1.170225553090187,1.1000365560664984,0.45589207191452424,0.12583698139547572,-0.6029557290603689,-1.0114559812432138,-0.41746985952030874,-0.8968491026178586,1.6452575484619032,-1.3913147895314402,-0.5259170563659227,1.634609537806731,-1.0858159237374427,-0.7003488062099116,0.7797586789133675,0.0044215221736065465,-0.6790478285898437,0.5718744961472703,0.27521482885147874,0.7990070290941732,0.6902236446933253,0.6027350073753382,-0.6334503230549771,-0.0020352621670056935,0.024105158237953353,-0.11526605998549547,-0.4845662539422687,-1.0963430012778763,1.559670076511329,-0.467132602584685,1.655107429784891,0.5830246131571193,-0.9927635340226717,-1.2028449302175659,-0.44731768344923345,-0.4339310079158845,0.6481928300847092,0.6957640823202076,0.20273667001892062,1.6606795945045607,0.11781599006205754,0.07520814364466545,-0.8365625745651785,-0.5039398393435193,1.9223443940175267,-0.0904000087091223,-0.8980447639271856,1.4402340712057535,-0.47852313128745305,-0.2800916273830365,1.1510310942953716,0.6820146146791194,0.9646334257326269,1.471768399917981,1.788956695401217,-2.2822743493386106,-2.701303244396551,-0.6476255490206237,1.5923726452767988,-0.4835888943830117,-1.4910872100382409,-0.7390800786782323,0.07230565869395815,0.1836171102926007,1.0005885134622468,-0.7793422432001335,1.3528118308096109,1.1501272789252692,1.428958357514624,-0.385580245151996,-0.9143512452025858,-2.667342815914689,0.8223907543875237,-0.9780505727236709,0.8754397401723728,0.009942641105969274,1.4401894396700612,-0.8646315872745932,-1.450217994419299,0.04012441944131768,-1.0795711172618354,0.7960446813911579,-0.9494008568453053,0.49610776383219574,0.009602975879741269,-0.007601935746845959,2.1617670091074688,-0.2063532984403892,0.15792523168760317,-0.5863164967584336,0.8487480385625403,-1.0513886112792714,0.5036186661579886,-0.017335222384812887,-0.7263254735493953,0.6088133447000545,0.08562011888555075,-1.0713884815289227,1.5072271840408717,0.05434747695444119,-0.01647803836027715,0.029675397860705856,0.9540640817851093,-1.080522002507647,-1.0353763332717907,0.598346938997358,0.0765671428726752,-0.09677840768480897,-0.23378660588998268,0.5106842761096643,-1.1808512488452347,-1.4841935188425681,1.3427635623606038,-0.06659963865366263,0.8157023762613538,-0.809566510167094,-0.4455820662952199,2.540355733211576,-1.6410653569178293,-0.7004591664011292,-1.6246002875095578,0.8390718368062604,-0.9632409781377755,1.0214609989244046,0.742144740067997,-0.39871844937735124,-0.8335290326568446,1.0791178152475165,-1.0122623194120688,-0.9465959428614723,0.2766104247395566,-1.5913206784272533,0.09624560604181052,1.285891792159916,-1.1422476611814067,-0.5295395014899401,0.6229550760248317,-0.288637950129384,-0.316679169105228,-1.6502074122480896,-0.8479254575993407,-0.007798186440093082,0.7505588323437171,-1.0423700350121317,1.1926287512837144,-0.6640261614561415,1.3596790894980502,1.1195108726370178,0.13885356607427876,1.063177176137231,-0.406948738128155,0.49280957109971074,-0.9344767502381535,0.96741614633108,-1.086534528579661,2.4356968837925033,1.0350962874697176,0.41921271140283967,0.36549784667641,0.8924506771213069,0.6554818387391148,-0.7192822811525846,0.02991581613452911,0.09911488209942328,-0.3335034906053924,1.7122387124122231,1.195223230426368,0.8392858483221978,0.3388691135397279,-0.7088702772292887,0.8635507816395481,-0.44815555314100497,0.03515988208227144,-2.22442087739617,0.4958781746302952,1.2940420716590495,-2.3275967453289015,-0.6541487911360808,-0.9278585152636706,-0.6111161489007579,-0.5691606720615152,-1.1800329970339232,0.9754663767686665,-2.3886606492890463,0.6480598902278555,0.3590000363750858,1.5667959621880923,-1.3482818383380886,-2.6705358349091273,-1.20311049974397,0.12196339825923465,-1.1079437091306328,1.5272098105528555,0.44601359065231383,-1.0233517833075279,-0.7192813551886259,-0.36633739458131465,-0.5692139897637124,1.0015654072868216,1.3527593717428368,-0.2618763378206091,-1.2515317850845464,2.115900423942049,-1.5498758079378467,0.9152465434742556,-0.21695115173409907,-0.7046267310790649,-1.0683447185819368,0.7464570956873936,0.3541890041067976,-0.863706772737371,-2.014663565600754,-1.7904131302387796,-0.4806064222998985,-0.4981546082610834,-0.5676913733789338,-2.537377535280901,0.47766744480272894,-0.4665390414095651,0.33135918421390365,0.8073913560184522,0.3122748493688451,-0.43281235058581635,1.1571963840001116,-0.12710425696893562,-0.1346737586265631,0.07891631774666544,-0.35861891378326577,0.05519755791785782,0.8299913301856736,-2.160374148552389,-0.926312183717252,-1.2519117698113065,-1.3510930185144914,-0.6454302668475185,1.0214460298929393,2.156037044936114,1.5946961768368944,0.6113176149173639,-0.020398382970743256,-0.3045717890615515,-0.46696003367312644,-0.008322419669079761,1.3542189031390959,-0.2580528820507498,-1.324977268667659,-0.8757153780250199,0.06347018412995024,-0.6162369033231242,1.052786210611755,-1.0733003068928382,0.5969980091072282,-1.6384379136979477,-1.7833299902720599,0.689654758805919,-0.9014973010078916,0.03541173480709955,-1.154060847346003,-0.48557899548878386,-0.44397379557769084,0.16699123894682566,-0.5085167537905549,-0.3866132305876377,-0.12010906042896671,1.621122281947658,1.3260535341184039,-0.5324563973235533,-1.9366710188654532,-0.7235877873090514,1.6664003947961537,-0.670258798404947,1.4617828960223598,-2.168643521503853,0.3777427478617045,0.8158471035309791,-1.3352780521511372,-1.5626976692094172,-0.25182277623731314,-0.8538712421348127,-1.1267483174613573,1.0986344588668588,1.683178247161807,-1.0207122155805461,-1.6611352698090331,0.07467667375243961,1.897660108670193,-0.8982092607496109,0.46351701298312875,-1.0354167257877191,0.014006541802543095,-0.12990248744089275,0.28340468364756966,-1.1237106503339418,0.8295078633724744,-0.2820812449398708,-1.283424928435134,-0.9824896721940977,0.05531731534642644,0.13800256995281765,0.7979744538660252,-1.0984883497675046,1.958507042901131,1.0170839957107856,0.46351410813974464,0.1558794670898417,0.5140598222054598,-1.2170887075504957,0.04149396695863008,-0.3654471056617453,-1.220708194670954,0.9574484624500669,1.3940370014097134,-0.3558466528403545,-0.6259015211333064,0.3069682128450086,-1.277326892532482,-0.9793580512671186,1.3789074588524914,1.55738751105699,0.6563389257391151,-0.3682306120548093,-1.6568666272293342,-0.3679459391634015,1.1404708116364304,0.0912057254068665,-0.5029062529629262,0.26469755584384524,1.375001529071767,-0.465366372931093,1.446822323103972,-1.0121912413657868,-0.15082870570977217,-0.543380833160457,0.4284771085808221,-0.5322929683948469,-0.3667897305341142,-0.6210242323858842,0.4293827377076031,0.32908839222692005,0.19708930573230632,-1.391753634037918,-1.2396240521680086,0.8593231172097257,-0.2995883130404321,-1.4390986074762984,2.6676148629360243,1.0105281204420562,-0.35344890661655837,-1.0417394732985221,0.5758858948088508,0.8234700008678021,1.2356173721443116,1.16622663942278,0.5211917371208427,-0.5302533329484842,0.7877101241822141,-0.6035608999782227,0.8058718246054667,-0.8467984811920402,-1.2118622660768468,-1.1203026166367656,-0.5090651792150352,-0.18411466101881127,-0.7586071465177424,-0.6909244088238552,1.1646870098438238,-0.7705794444269966,1.0293772421850074,-1.7354848527135203,-1.033129141439729,1.3161843557949633,0.7556752918336747,1.0789774711056184,-0.35889750466817616,1.1580904438287336,0.9839895998290423,-0.9278068301613527,-0.13330533770714403,0.2301143239750158,1.4725041023890506,0.1083005808085394,-1.2459767837864801,0.3376633082825025,1.2557704334207236,-0.051476765502958335,0.2931542804568868,0.6913229923200361,-0.9849195139493118,-1.0249772593013726,-1.6863330648087447,-0.16517242917630245,0.49258487325325495,-0.36939441878269536,-1.9327842825310406,0.40187690160371503,1.6204997404450874,-0.05957646057204785,1.0943776456833139,-0.1220357842590175,-1.2447454265110938,0.6143271671030934,0.312927772240074,-0.26684311874551236,-1.221816213081006,0.45803760134110777,0.6186341951255155,-1.0179484898856255,-1.235766283140344,0.5606351473325786,-3.2486007246602533,-0.37782272726942534,0.1194955379083113,0.25986991942239,0.889431901150185,0.3762984845438991,2.663892440389269,0.3257091382329669,1.5266855304726692,-0.8160265425782961,1.1500624524860912,-1.3966201934387439,0.9047254308012461,1.6290347559130272,-0.42004816930260575,0.19159036555670708,-0.5186223746863543,0.28418240586369925,-0.561961467824933,2.7710123360375625,0.16018627601150784,0.811652403121032,0.5898988399986178,0.45052549170135703,0.24566328629012912,1.0534772146342521,0.009248414784031768,0.4083238172073945,-0.1642615066018133,1.9962800844551685,-1.2276350231609885,0.3070600371329086,0.649265914965492,0.29543079826992275,-0.737515771391177,-1.4549938488859895,-0.30866961819217165,0.8801237796731295,-0.2783609698590111,-0.19977555079826287,0.3798851936752451,0.5907768543053589,0.9707214650620212,-0.460993990652478,0.6106382444613662,-0.32723361397321366,-0.4139357499783223,-0.5207163412080525,0.9790216390149353,0.822352125164668,0.19385028580583394,-2.9748803198761213,-0.7488153772165028,-0.014762068697688974,-0.003862870286745161,0.7121554307911846,-0.21140363460981032,1.845049725475292,0.144109677051412,-1.0581093375751007,0.31330914051900766,0.035422268011612634,0.1546708859127312,-0.05703046130511724,0.17810662200337105,1.1484755528632198,0.5072544427794002,-0.2410231689380612,0.6242603347364047,-0.3432498760995799,-0.6240704843618656,0.5995371880041092,0.4537573968547227,-0.9812676745164589,-1.8689113712973147,0.6690324577900364,-2.48085771664419,-0.23435829256081903,0.7166208673564708,-0.8076519186523372,-0.5830114606455749,1.3522546269205715,-1.2013314222768177,1.0507340191519112,-1.097861655800715,0.9000563132957256,0.15729935435933315,1.3336584306252102,0.8336783579883014,0.8093860413459965,-0.884621858602477,-0.19230528488954693,0.2749645870431667,0.2532904353821136,2.340805746973676,0.022032634959023047,-0.8374544222003106,-1.9090409754075908,-0.23303783197847394,0.7988003808787081,0.7287796929485613,-0.30351587350432285,-0.052188536529128485,-0.6577478063945865,0.0065304429628278765,-0.7773976782788613,0.0771823394041587,0.6566092855009751,1.811861030497916,-0.9998429547326976,0.3454052760408547,0.9195426840288129,0.8250458405913187,0.6984010613640422,0.9258397086875826,0.9137912718041039,0.5793530975306641,0.4101397867603157,1.3143374798153509,-0.008145835545683123,-0.8963858940242805,0.09076358158470274,-0.5447164595219506,-2.6998572784526162,0.8403056428557041,0.3597938534277578,0.9503047395557281,-0.7657873236185323,1.7260816210128227,-0.7767878013158651,-0.20728205380598175,-0.028569830120406002,-1.13698106834352,0.8804401804231426,0.6007295661559883,0.740554520431474,-0.338608885488377,-0.8569553605346029,-0.24753213267168697,-1.0526609163585234,-1.1432641764703404,-0.2906597428403733,-0.13108130346775806,0.3001573501869206,0.8192324630816801,0.43489548593431826,0.6127755977660998,0.13722664513906158,-0.002338904613479435,-0.4843908970213547,0.8691914739238608,-0.7347212642254459,0.37239687890817524,0.5069012033289463,-0.5120657394403881,0.21449970449291308,-0.44165399657367616,-0.4445048704821724,-0.4355893321149733,1.0581350946888615,1.1482891510133952,-0.0033459426255138913,-0.5970134872434488,-0.7427526358163415,0.9580395731710103,0.1145167253325114,-1.279162585025115,0.09965985219720538,-1.1107663042563352,-0.012934384712573604,-0.2367336774101285,0.6663646476696327,-0.679460162616698,0.21515347835876175,0.12465290790792154,-0.4799322755020063,-1.3411914979577422,0.8449495527233042,1.3804656339348558,-1.235813679367729,1.082591955308094,-1.0309821493767704,0.8831180147256269,0.5248600640476933,1.8256472456187256,-0.1705153739019897,-0.06269650319783694,-0.4967914089700457,-0.8769854531232276,-1.5474886051116963,1.175630754084427,-0.3892249602038457,-0.5419486319019985,-2.2956613437205298,0.5439558543726208,-0.6218594540599516,0.03970903348607345,-0.7144171504662226,0.21116264544285204,-0.7162667511359803,0.006496098623613443,1.1760303344985648,0.4001684707345004,-0.3212592924225979],[1.7362095362424046,0.65424872359374,-1.5111785366398938,1.5088690159316387,-0.4973500599688694,0.2323567310916871,0.7635802577802272,1.0108117112111856,0.3954821751533645,-2.7124152397648986,2.6986439155862634,1.1541416844777237,-2.1427138144789946,0.3279839979160188,0.31679743166478974,1.5926075057926206,0.14736065131199327,-1.0385202835063763,0.5842275772943343,-1.5923190332163755,-0.031885925410825224,-1.3390610586275111,-1.1398962748839223,0.14727146771727795,-0.7965387844989982,0.2902250103468817,1.3816108917476706,-0.9720037234177816,-0.7952109083971924,-2.963768234842642,1.3745215975094636,1.1968869256850434,1.0649148192461864,0.5603932234994065,-1.0212224515511066,-0.33290665231953037,2.5059543483587516,-0.42797352340997624,2.16120508224567,0.7409336495739592,0.7641041300672146,-1.043038080803634,-1.2270953963975393,-0.12755646135244827,-1.0152930207321078,-1.170571816017501,1.3178989372889802,0.0771028898314234,-0.6592527924340915,-0.053692444341648125,-1.468496532932774,-1.2713418261195963,-0.8660130462274547,-0.733826421532534,-0.43217876302135577,0.543334637295657,1.221378608795106,-1.3731329019299892,0.20075178293494125,0.052350701698438896,0.27111957989922847,-0.12784359198848716,1.4393695840113108,0.45615467274236793,-0.6330549207404188,1.3743721464573917,-0.6153964979955794,-1.1561151028321255,0.22220826948312788,-1.0684817118862013,-0.0016465290021622407,0.18615096457329783,0.9184452454572345,-1.4478913895987182,0.43469262162508854,0.5515205753094135,-0.09764299273251362,-0.7983388242196371,0.25423305136240987,-0.6055526786333163,0.44823892455952724,-0.43259414335483776,-1.0855914366010422,1.24166544532766,-1.0765673363399222,0.11951654586795125,0.23446141197230283,0.5602209847080443,0.49382368922324565,2.1537506927365038,0.9692645356810901,-2.5713507340514554,0.18346077053563936,0.22684915349360826,-0.44636859665742196,1.837054077156425,-1.8526244658730417,0.1442856535632895,0.9128134996496445,0.25630096045109957,2.438930437346294,-2.19185791212165,0.35024078057132585,0.32892144729681405,0.0779982154284324,0.11836467094475901,1.014592109092631,-0.26065232540699396,1.0307115512834442,-0.3719693944044034,0.7523841744619006,-0.21682374917981395,1.6588964223219607,0.06792256222463676,-1.2053799154981735,0.3238711282363918,-0.2863806967518921,0.5665847341034121,0.19006989818081038,-1.6953749406241332,1.4197499671917437,-0.06233033662742295,0.5698000999660755,0.01927756010086328,0.2613185402385365,1.1973622683314098,1.0591299865852168,-0.16200833147404117,-0.04407491515437968,-0.27521594180891906,-1.054884731331989,-0.3993359695257409,0.4684123444610198,-1.352973848442698,-0.6069584944984544,-2.296932596383214,0.8006179547575356,0.7228077681426981,0.807459496812034,0.22275641030138096,-0.19649751576398836,2.0166500926348303,0.14353329344838534,-0.09174626210267364,0.9051302817363973,1.9006408413693172,1.1437545273886778,-0.35001998081904645,-1.3193319060043998,-0.662953802743528,0.24125739715503977,-1.694687291177686,0.8844590158092582,0.004810732165873056,-0.27277632960175846,1.1232353645558038,1.1368322335945964,2.429769949419817,0.8298218318692231,0.25073648886673533,-1.1644251972095974,0.21615301617920268,-1.0357390646128144,-0.3109632397096675,1.2654366507982038,-0.3243242059154275,-0.9809725829356299,-2.165697673870143,2.1762731086376452,-1.2959771026782538,-1.5431768359876996,-0.8153770806971934,0.8771447582846066,-1.0055254946277108,-0.6939436304043946,-1.4317185828643595,0.6394751747630739,-0.21017957311645724,-0.5383603516163723,-1.2118482754247792,0.1940445663583921,-0.8374224908083959,-0.05469836237167126,-1.1039189968326473,-1.0126717743884197,2.159272640416632,0.9492904175065292,1.2576763421149226,0.2580056423085848,-0.45112528343013625,-1.0967122692228521,-0.0695083929111633,0.6888851536974676,-2.137168696907324,2.525092075267967,-0.9858573888702294,0.12215702313206386,0.8859802822537538,0.06875814055098031,0.7045425842973478,-0.7369028223277876,-1.026967499507265,0.693543107313623,0.9661543337623567,-0.5950522159899152,0.14064535621342017,-0.4146877347415277,-0.7663876048877756,-0.8145460962776436,-0.5871447915872615,-1.2567756307543312,-1.1245601493228619,-0.42034969277387796,0.1682558203309549,-0.9438868758008897,-0.6285377309091,0.23784269868454688,-0.5937530344709974,0.41523319755915894,0.7242213869988953,0.1719696297522984,0.1262891833038383,1.0768125881510648,0.677105139420871,0.24655239439517412,-0.2538314502846808,-0.6851040347356457,0.008179274278547227,-1.164154075981106,0.6626954025064894,0.27768021812193866,-1.3939560610538428,0.9050227532039735,0.17173872768761178,0.022536070166372397,-0.45865060085254433,-0.7625985934464192,-1.4479667040154391,0.46409896910972864,0.7058108033822605,0.8336792160944616,1.400564546282993,0.06030378184787758,-0.11603496684694808,-0.4154378939019531,0.8459207495143809,2.5087544669957116,-0.8590257895609155,0.16471496340724512,-0.3536294583736638,0.027589655753416494,-1.0846333737789229,0.9007440533990679,1.1287286364245297,0.444963191787744,-0.6193502988311593,-1.2621506427041658,0.33910288136795735,1.183131926571177,-1.0985475740922286,0.19971469734228872,0.22929267886223303,-1.2402709058912544,-1.1115129955700938,-0.40438773532829936,-0.5719065358053075,-2.0337454507937918,0.10916837945360537,1.3159823788700242,0.30407109204381627,-0.4312130079687972,0.5375143570687093,-0.5141226836712247,1.1691385342398513,-0.2972459929638089,-0.7903822906676298,0.9404388424174804,-2.1126898300593706,-0.42766218487181235,-1.282124801628962,0.6523739488118654,0.9138046673122148,0.7739220401619304,-0.8636318263667884,0.2142364244090439,2.3744529119567517,-1.1571061985138116,0.9027854544808971,0.2074802502928059,-0.21109653983152188,-2.057485696967141,-1.1026809145473413,0.13264668699573062,0.4019576129137631,1.579398606611137,-3.441260314949065,-0.471309253082986,-1.2207655871379237,-0.02068777565093698,0.9358919252035065,-1.1945760054038759,0.5947498686561854,1.279230753280811,-0.5480122644992899,-1.5736449757631428,0.5824736686616032,1.1587648291108865,1.6942886818602823,-2.0040886335846104,-1.1005605416727993,-0.9877185901175467,-0.7855762281931845,1.3244100906514626,-0.8647604467505994,-0.36494757038080017,0.04190043686294074,-0.723496141450985,0.8284662483865901,1.488655872907716,0.5666987675323761,0.8010196427615021,0.6979632031067982,0.6965943922986769,-1.0317657960775743,-0.08767317158108108,1.2565427160321252,-0.5301245166144809,-0.2984799281116267,0.9984656824302004,0.6519186392895675,-0.9975187940526795,0.939244242128972,-0.22617327540334806,0.3939005081376657,0.22182272446694123,-0.5961369714407216,-0.5785912540946528,-1.3118756607014024,0.11741083425048929,1.1678006113088975,-0.2401345432255597,-0.956852694835943,0.930695127102496,0.3791122220815285,0.25201165471198406,0.6620119914868817,0.47617071090433394,0.6950027559276386,0.11177104159075538,0.8470287256631133,-1.0900261859073164,-1.3666265282225083,1.3024203538560761,0.043872983675123885,0.8306859154704429,-1.1497512619668304,2.0154871213640586,0.5348748363563375,-0.2816713803121435,-1.4860622699259665,0.39605261719018886,-0.7340168483537576,0.39763801063931004,-0.8428348932171303,1.3329302397022555,0.11996672989439176,0.4474127099798278,0.08507929569621021,-0.7382709260364175,-0.5234109833081312,0.6545892094618436,1.3936107608487351,-0.1240482948069958,-1.5170763643416825,-0.4134944492898711,-0.17225986845517552,-0.17294180399906658,-0.5996491124087363,0.9888139856121608,0.9039631404568412,-0.5922919530997439,-2.2346799399188306,0.49286160397110007,-1.4018873228287059,-0.14256433809740077,0.1591229432210423,0.7141802773427374,0.1815267893357331,-1.3551178199613891,-0.4168756889014505,-1.6261999714523434,-0.21078364304733782,0.39485373345260777,-0.9592251741757358,-0.19446197276088686,0.05882139854461132,-0.527121827652095,-1.5245348722755883,-0.738829206513361,-0.39027787706077605,1.3779048730040573,-0.8586053271587745,-1.0701671355265057,1.1169807684774637,0.19252315007535606,0.8542245319039729,1.5965899240417227,-0.5682203682413326,0.3449233944022758,0.9656964426736862,1.2018570396713286,-1.5650054352130505,-1.1555162967396317,-0.6006911339422571,0.012327351489697918,1.9943014495225277,-0.1016778433921351,0.8750905088854222,-0.9777289651280159,-1.3406433615697857,-0.014661755133192402,-2.075428507283657,0.9614669260537958,0.563310139669233,-1.2072175218817423,0.9435155069097363,0.4648611127557375,0.1010631790647087,0.7839908476838396,0.6416695760836483,-0.5239357936576368,-1.3095708788196607,-0.7401086551651452,0.029351138403713443,-0.24942223204114014,1.0385130919709733,-0.5474283363502531,0.06430328297593296,0.6630130096379316,0.6103449236909054,0.6377551999322377,-0.45750343708488367,0.8034780105577634,-0.7788772854871745,1.4139038922618186,-0.760456517865936,-0.3268396354339375,-1.236379903618409,2.0896323688201055,-0.6785465019092847,0.2780592836850391,-1.7647583919319727,0.9254664778292485,-3.2823138576829023,-0.750169842061651,1.2893000558204244,-0.030282874887234468,-0.02670781713282832,0.41678168777031827,1.7577539190329554,1.1879488605317963,-0.036641116669787956,-1.2527454879689006,-0.08010058267337437,0.3599297874008082,0.1286265860902629,-0.6083736803236531,0.7875502756099659,-1.3424636824979836,0.02504715467250763,0.8781422762119493,-1.111819685883069,0.5642162848547658,1.3685704559045675,0.3396262013144332,0.90094361500201,0.7386162338922636,-0.7433781078530566,-0.29645053229491897,-1.0866454192527004,-0.8746205105747187,0.9021774226495579,-0.6144999718852314,0.5652621088772881,3.013384644228647,-0.1280729307612175,0.036329662138447016,-0.3013850474473308,-0.18677928148303038,0.1252877999893617,-1.807964286729241,-0.13347420745403266,-0.7475599082393188,1.666506159199886,0.9120998531074804,0.6519039836317717,0.9563052076812015,-1.3747591761758597,-0.0786637566744195,-1.3412182622846123,-0.8013925183789569,-1.633432993792184,-0.4480037551974419,-0.6511359949046593,-0.10424642557130522,1.2773534213685511,-2.1720336684246115,-0.5360560124864928,-0.24185390997777326,1.695586515995462,-1.6419932382210236,-0.9965072518742654,2.250812644589394,-0.6109148544437388,0.9960765782797087,0.1601296923662797,2.0292555706722033,0.38076415857071166,-1.5767266857684628,0.7319112991289605,-0.8400041682578943,-0.17934615765271317,1.798436375427792,-0.5767467674936575,-0.8244731042667272,0.2854928635123159,-0.48631142896101703,0.12027466482734225,-0.93699045379233,-0.5621260162101703,0.9450954451497455,2.3159823356450135,0.3821250094306133,-0.20822934033262344,0.2691392445685307,0.445779330222039,-1.001967905787424,-2.62510666257144,2.1512819571268267,0.5245698043301585,-1.1805109172711643,-1.1739353947789053,-3.0222710962230472,-1.3444810087969636,-0.5582261689528588,0.5646557982598771,0.7051621143462732,1.5974083758661701,-1.444724651921264,0.6854934333526008,-0.633994115521398,0.9852532413309111,-0.4269143094656662,-0.08034912454041462,0.699949045553227,1.2999989547451944,-1.1193461225523984,1.5743927436551477,-1.3900519073236528,0.9468848427411306,0.29525554825931544,3.0336084732261464,-0.1583541764918829,-0.9742744213791296,0.05071545672638736,-0.9327818246771421,-0.779749873021732,-0.7677610086260616,-0.9366504666198834,-1.338922453718954,0.4743086978092226,1.285569567411668,0.737391440105789,-1.1534558513439455,0.17416119806169,1.5768197241042936,0.6818434432183491,0.7131012689374023,-0.3998534038337224,-0.21599393528145924,0.8071659570435951,0.8495292003419619,0.679142818291946,-0.08839126531773965,-0.03306342906436006,1.0464532062760685,2.108778810021061,-0.2839461169785738,-0.671128284277302,2.383771213449688,-0.7323765084185541,0.9171107839610706,1.8217965082566239,-0.8773806236904476,0.7755277962670699,0.6570320218334438,1.0735908513237566,0.5880004984278867,1.7601407371680593,0.4578341260329197,-0.262314384125915,0.39144850018287775,0.3226847489000305,-0.11195744159899275,0.42087574675771516,0.5392043666296077,1.373397288772503,-1.048201278576802,-2.1069449222170538,0.554669647291971,1.6962643002822952,0.6356658327967935,-0.9083967439575457,0.44126773863642366,-1.0110577528732128,0.47057029765194747,0.8000834573020156,1.0457281304823238,1.4554001646025558,-0.9731644710726826,0.04620412828385018,0.2862276630688828,-0.41233373377576515,1.7560188734308917,-1.0117420032398263,-1.6957451338862135,0.4459230844823812,0.09485092735200097,0.09652326116333584,0.6159310855839909,-0.5736839731362656,-1.4768627347098116,1.483618700905282,-0.34088039093884,0.23478011238977695,-0.5937411095745899,0.08682427839557762,-0.6811994943949685,-0.2585940855295834,0.10091350971044881,1.2957256056756457,0.29016010558927263,0.517293884044609,0.09148129306623862,1.0219189757252376,-0.25433186918479356,-1.2222703388106864,-0.82229091110838,-1.6047200366319017,0.7353034729966124,-0.06740661136264614,0.30597912964248863,-0.177199442744338,-1.4479888878374536,0.4572310942015066,-0.27436463674627143,-0.5789777805059347,-0.9320889063962043,-0.9417584534997517,0.6218944982728463,0.17409813396450285,1.2110407706470794,-1.7308846570611724,-1.1825989566878932,1.8376750595390048,-0.5755943523045903,1.0560248231241902,-0.9701190298957029,1.7917376307724227,0.29155971833466227,-0.1804890461381633,0.342454075158038,1.0847182234646413,0.17764575906842975,-0.21244506000964308,2.3619293678192737,-0.9935425803428061,0.8481262267619675,0.5436779713255795,-0.9072255268528534,-0.041535751949314505,-1.4353095422261615,-1.5152016622576119,-1.1748636933515355,0.8079201021225277,0.2505007876866329,1.2604900957294713,-0.5201582585423218,0.12120863127138257,0.30523333325636454,-0.18253687909186098,-0.44835974999209693,0.592730911835593,-0.2834508901294104,-1.390890627391794,0.5096287436231521,-0.07803520225295017,-0.19106507944752424,-1.282260274189503,0.29647810480339176,-1.2530337209477056,0.5678885211045642,-0.5662768299015435,-0.5635026956413384,0.46047673646350495,-0.08477140548642337,1.5665508953518799,-0.3026507996519263,0.5575505202029599,2.0323239962858266,-0.7094401261378357,-1.6983941850842528,-0.1771136392269627,1.1456812128932574,1.016628316908108,-1.132138175259632,0.9228175476670182,-1.5790176648667995,-1.254805275485924,-0.6007166657889133,-1.4271145340821816,1.1535687517355753,-0.9688642683866299,2.5425116339992093,1.2253661925363497,-0.46965112742319975,0.4015401098787602,0.8569313627272742,-0.10320566046477694,-0.8087936680080886,-1.0291284477952196,-0.21114199272208917,1.144273876459667,0.6961370598172193,-2.312925984590472,-1.0238887930132419,1.3373746548655947,1.0196145793239435,-0.5905454176419248,0.4696586644839819,-0.141951724911339,-1.8632531460279165,0.37482040278253825,1.159361863104372,-1.5921202158375731,1.2834008994050656,1.459788443409789,0.4056800337781911,0.5672527469088999,-0.08286680342461412,0.1218468970802733,-0.5188841920242763,-0.2923272193928425,-0.1734164720629609,0.42515282224834455,0.3247580004730467,-0.49530771401692925,0.2946677388395495,0.08423844761054282,-0.19063110813398723,-1.4516501729934204,0.5117582909798231,0.2938622867934745,0.28410227640113234,0.2221346512452183,-1.0318814501071705,-0.5338057432196213,-0.4996056411122834,0.5426982856798798,1.5607832911461959,0.07282200772769869,-1.827930176259514,-0.04795434547063228,-0.32241447101141535,-1.7627151166764528,-2.0540019939679186,0.6618527925746144,-0.9527482118662431,0.34053061215776564,0.403518027131369,-0.04097271976186857,-0.7588390813192513,-0.7249128409217396,1.0743315530559905],[1.3742481901554762,-1.196446567882646,-0.36192402668873086,1.319254051581074,-0.34433333806342725,1.131222068995979,-1.5446439515049855,-0.18004755992886248,0.1246795045068633,0.5155487554915629,0.06791425844192996,-1.8419911789544143,2.1105644378795403,-3.6586742416737743,0.6659999968150634,-0.355884291141126,1.3424383006754175,-0.19838753907986487,-0.38946693429305956,0.44367779808223,0.8871718248747185,0.6655081184459151,-0.802784867347608,1.8796301061995717,0.9202521674874061,-1.3870723296789642,-0.5800310081668114,-1.9052965583405936,0.9631570099674903,-0.6904585573764205,-1.5186943034118334,-0.15651394582297448,-1.9246758624634461,2.044379725196355,0.16700333072818566,0.9200150589577866,-0.3892455443028317,-0.9459106547981057,0.15159032596797933,-0.6696500226413127,-0.0869982441060533,1.7377290513271295,1.039098684468705,0.19813404548235264,-1.617592697109413,-1.3023481628266687,-1.1830419456967163,-1.867441779077494,-1.0547391652347244,-0.40875195405509956,0.4263053810189155,1.035579631804183,-0.8845432031866587,0.006240994333872779,-1.612644534168408,0.33928568975561946,1.583904604036117,0.3384455083768845,3.0050828776002043,-0.034693397570097144,-2.256768014209633,-0.16709901483251746,-0.5141345502331418,0.026123502125171793,0.32730774650328315,-2.786702011988824,1.3891119072580422,-0.6990298619624884,0.38573559215698905,1.0549891648858316,1.873441307207972,-1.31696707958905,-0.04232688924459105,-0.6997660035571347,1.7104484001137772,0.43603497365972615,-0.8253172150000261,-1.239671304590789,-0.11026602206744857,0.1513961062079717,1.9069764362301302,0.39455848271772215,0.5517862568102179,-0.8053252838789908,1.7204983460209922,-1.5818813811325696,0.14459110506054126,0.6456974388399492,1.0752937188042841,0.17659521169965056,1.0926671890362065,0.7358410918433502,-0.751318570753054,-1.048638420102879,0.8397839841431196,0.8188289801301134,1.1225435088255211,0.5761245064798386,-0.7050983940093187,0.33925422863583676,0.2817880525025903,0.6076173933294134,0.3706303344676256,0.09931513501092394,0.06009794820319195,0.54833692460333,-1.1660207282633834,-1.1840023506311828,1.727507867259868,0.7761391626241857,-0.43250690685419313,-1.7372570012519937,0.40588837901050234,0.07475688719829342,-0.5143426283364373,-2.46114376838727,0.17337376996505513,-0.19109793010471848,-0.26575557716242265,-1.2490983800133248,-0.9270168998262387,0.8344601236329862,1.2092157909419718,0.7100592785016006,1.973891780730639,-0.7475195377751287,1.5257971952875191,0.41001485942114885,0.6938815065914395,-0.7306796696269012,-1.092065396327447,-0.5018807914859399,-0.7610224413721284,0.0713997385101792,-0.053703879206778236,-1.8360919938954687,-1.2949793371172695,-0.3364065308674199,0.15397720318092803,-0.005293891234501351,-0.48891287401383676,-0.4708001088576589,-1.3928203374411234,-1.0307192131299368,-0.5662094344244548,-0.9735553669863081,0.07816299097995,-1.0876164257767922,-0.25783304900659987,-0.2515717559237747,0.7949077006206575,0.7139662687375593,0.552281149241207,-0.15111466676235746,-1.5311819878347521,0.6951621132277824,0.09910301462201553,0.48356643526875337,-0.8688066972155719,-0.5691623297053989,-0.09727274412237238,1.596053849381107,0.8201926038684233,-0.8852457659895928,0.11406290200164182,-0.16715303025345998,1.3115939889555777,-0.20695229583407324,1.4940030568699854,-0.4970485958429125,2.5823241229912215,-0.8339525146651429,1.1375643603386156,-1.3235448383738444,-0.38709680371764543,0.15934227071638474,-0.08080141637843524,-1.413035299924157,0.484121945714628,1.5787562369056953,0.005029535410500668,-0.0754608399057765,0.22416938062060995,-0.1589123815198239,-0.2605522666440369,2.2802249644141828,0.9877306398132049,-0.5148777770105564,-0.7236971862254888,0.37382899943307674,0.05607234007272075,1.174407036831278,2.036817249027378,0.6269722847630408,0.27825524192797035,-0.7261814856159163,0.9797340846086178,-0.1436487584454133,0.8989814876381171,-1.0421675106577717,-0.41533618598189026,-0.010010282754657374,-0.03008007209682287,-0.5973578577394922,-1.3957335816687242,-0.2309224255195556,-0.18556513369216132,-1.9274631943911376,1.7107373527986935,-0.19956182387169077,1.2530118658342155,-0.5149740988678291,-0.2412169207390551,-0.5364410211525086,0.03709291061918634,-0.08153785780580497,0.18859370929362634,0.6184768628810287,-0.564783691132944,-0.3231347542708537,-0.06361065890979273,1.6618331577188115,1.3295948092646022,-1.6083731822783032,-0.16628088225074383,1.0532091177189131,-0.6593417243990937,-0.8232214996196309,-0.32831756892663083,0.2467941973313132,0.39530833352488987,0.39435799195400456,-0.2309887421146009,0.32884584209001183,-0.6350050945535897,0.36661737447413545,-1.4122267515074465,-0.6222912589728549,-0.9339181405367911,-1.2323189597261646,-0.2872508362440654,0.4396374431124865,-1.3408915361772644,0.5893824050214744,0.16777235254690537,-0.2848680394107904,0.23919555857370936,1.1843493592776508,0.8125127496780181,-0.5253880630867631,-0.516807840677675,0.658626014403945,1.0756385610755117,-0.17486564861634357,-2.189582517051443,0.06324148000446822,0.11584270469701971,-0.1620214813288113,0.8637804826720292,1.4485037822371536,-1.3179327076558736,-0.48606351033554285,-0.20721580019582084,0.5568112116822026,-0.9106224705767372,-0.6941276159520187,0.5541416534204909,0.3760370819253103,-1.2376072825360143,0.9238914861042017,-0.32661485876491253,0.2531722146052177,0.4760751627622865,0.810593584478548,1.3266448931392603,0.6453339396032213,0.05311133754609923,0.5488821985101459,-0.99747687480797,-0.9393500601557808,0.9730610132290322,-2.0141542439387345,-0.8139890304593744,0.09349027330828348,-0.573076499371966,0.5673853236750903,0.6121202141198746,-0.3212351095059937,-2.487745062824624,1.1229258518907514,-1.8813972454075454,0.9836458385866754,-0.5122341521672861,2.5491160574548846,-0.05571666428805693,-0.9192737384947801,-1.4591178918487966,0.06333859199686209,-1.0154580848082135,0.5924046222836126,-0.24426196923961144,0.8725966431377206,0.35943058610868694,-0.8620742837028557,1.4383804882606412,-1.25249823616569,-1.2681649239584802,-0.7952657380353688,0.6297827015282832,-0.2194875406561894,-0.13156505108973804,-1.1989953444324006,0.7839571553419507,-0.41471792075856634,1.621901304224578,-1.8935147234141652,0.14297861477131157,-0.42976153044617005,-2.205861568827829,0.015944014322264645,0.1050472828256105,1.5112872134523017,-0.15210583906831404,0.4088698651238569,0.25444574574168494,0.6981766326535704,-0.5662191379802598,-0.4815221469791659,-1.31057461523519,-2.13708275166897,-0.1913623341530082,1.4814291755922515,-1.5298241565835402,0.30753288002940166,0.9957424381052574,0.11241175615173259,1.1285139354461236,-1.3344759184046515,0.31791438374996783,1.6788738370450451,0.5731753793391631,-0.12864305980811236,0.2248010958599474,-0.7959449319367154,-0.7815232586708194,-1.3200179202519757,1.2430092422835062,1.0786446361206132,0.2019164632249532,0.05146468976645385,0.7455106043178155,-0.5456499292739577,1.2503243101948236,0.02682804395613546,0.7696587653510196,-0.5845143625607344,-0.00929184985147507,-0.483863802610315,-0.6036396520889143,-0.07016382383005533,-0.29120609352066545,-1.4085779461355525,0.5978471871613977,-0.26991344882011864,0.8125046032634958,0.9842497976916775,0.37631025437580146,-0.4834065210833243,-0.36967945257981144,1.2070351539397448,0.6036714268849116,0.46396973991171087,0.8338564936808037,-1.5849420222529789,-0.09266725980628969,1.1371489128366272,-0.9518409272238143,-0.15535885918655884,-0.9958869175103152,1.4003683704739684,-1.8003589863242022,0.31851351637788555,-0.08898473855840082,1.0521890570610517,0.7352383693115803,-0.8815693076899874,2.1941806947646896,-0.48770288404000167,-0.11755109380998847,-0.7334200734974003,-1.792450778343719,-1.0083991566916441,-0.09925105274353328,0.08376904892569162,0.2732351828957069,0.4294319457311994,0.34428350865187135,0.7600770016180788,-0.9508517023738113,-0.8970731117009837,-1.2982735030531918,0.16575174283911503,1.2667196375365246,-1.922046929215625,0.2388272848584292,-0.5931098075481394,0.021815193291502624,-0.7681067344379843,-0.6007250543585445,-1.6159024098745132,-0.8400627502050537,-1.4287338440652033,-1.823429807398123,1.325096048455959,-0.8107631249554792,-0.6578691683123846,-3.119828086420619,-0.09535822888481987,-1.0860445265115994,-0.7661202484666096,-0.919457206612824,1.6718979407098067,1.6938834969952306,-1.7579332555247085,1.9214828740855499,0.13642375426549766,-1.2814310764224937,0.267016303602534,-1.17209809120186,0.25820949150286565,-1.8912105624295557,0.5078142843528678,0.9309636583730603,0.8660993297406232,-1.588373904199192,-0.5820008665818116,-0.35411040573597324,-1.3224873560713413,-1.2998837819526228,0.8264371102631709,0.38428294737515445,-0.38826470877896185,1.3501024042609455,0.6664710819857043,0.7131746222848342,0.2840242107248779,1.5360574439239094,0.11732520880209939,-0.5024612396672516,0.2688088413095659,1.1559467769072744,1.5897791626804905,1.7101691262210854,1.5401550290247372,1.2245723206008934,-0.2921213196998477,-0.4081103090767271,0.4112204783836015,0.908072815970391,1.044836346984327,-0.5554549859761758,-1.5102797649840496,0.4378381566634583,1.3671494844995722,-0.10529444712595395,-1.0586491630271402,-2.436235730198625,-0.9560375915440228,-0.9775549553393905,-1.6680774091716353,-1.3316264648839597,-0.5980877026396861,-0.5676349570871286,-1.3427861560877474,-0.4537153706609868,0.8668147102661389,-1.4706329889820458,-0.1338512223964754,0.6697606318597916,1.0574601968367854,-0.012955536532095836,1.6803182638641327,1.4874527046210908,1.036442375228248,0.5785637759553186,-0.019362887583064477,2.509489700548743,-0.7587066376860749,-0.12373376124963273,-1.6278044930012765,-0.07204860187612934,0.5853136747954085,1.895269176738892,0.7404200802755702,0.03460630314608299,1.8718037417049367,-0.8505915448345388,0.903039930675187,0.5020512811311831,-0.19892690786763748,-1.1997593788455672,-0.6972549267658071,-1.6014042809386253,0.5974621619960182,-1.2305293088615705,-0.8099779943935238,-0.49297051333009445,0.6200580600518056,2.1314671830713485,-0.3462811491847318,-1.5048610983723263,1.009400423567349,-0.927118526027517,-0.7335558337275907,0.254018525046402,0.24147364565332202,-0.6087464806605991,-0.3422664022313699,-0.37684968538236646,-1.2777047020261822,-0.9625497712951223,0.3625270769709195,-0.2834886082359698,1.036495823755253,-1.4085819238511872,1.840534887401183,-1.0768949755742685,-0.3139409738080952,0.652550681231327,0.24217848542039977,1.011852787260282,0.19016134115251798,-0.2683615071919184,1.0862703032216803,1.1900239623547788,-1.390659438682757,0.9845747696857197,0.5825833250225468,0.9329521536513342,1.186911762627473,-0.5358596017691541,-1.008246168654738,-1.1751293845835955,0.20809318884787076,0.22741870017863405,0.7388102157003879,-0.31726586371347737,-0.6510218797319532,-0.002311330253970469,-0.9809509051773928,0.2618218988848475,0.20997518215742286,-1.4464136246596966,0.8186934464465733,0.08959015181139536,1.2605608320088382,-0.4436996502263087,0.5247847805190243,1.230945189408487,0.9926837708032868,-0.7954991947046237,-1.6620191856124051,-0.4886025571152074,-1.4010566782518483,-0.02804305828140016,-2.0636699753489043,-2.041545611753141,0.38120744793452555,0.7119881969587523,0.73158121850385,-0.5847954719253173,0.24726281062632255,2.129004709076043,0.9658585306107274,-0.14440239697965127,0.5154677458761089,-0.4078140088354047,-0.09304664775896147,-0.3293998407922338,0.7026297069510561,3.066315189420097,-0.6358147058284359,0.6076884247236057,-0.05688110483824218,0.47932421265083125,0.3275623510959794,0.9195761142362182,-0.8074243450696449,0.2178864363790527,0.24324382680894785,0.33377753966012536,0.1718610581520626,-1.0837198492551268,0.15018814419836313,0.8186133466876058,-0.35897972485459834,0.3519494477518816,2.06298214500304,-0.27910668804600874,-0.23634835760954773,-0.5940439980502659,-1.1929214130756316,0.13920950877961327,0.16318961135781088,-1.1608237993584,-1.0938047156238746,1.3813657286406653,-0.6986801469201004,-0.7718492371045187,0.6565394552542617,-0.7562325348332067,-0.40649620115903734,-0.74354998416575,1.0230856164222322,0.22576910710958786,0.011499087735337315,-0.45750852640502243,1.1722089451677107,-1.5979369357184972,-0.628909626981729,0.18942731071233437,-0.34572611466323133,-0.23328833885559258,-1.4854091586330658,0.850735454174067,0.11629337884169892,-0.27909727390266353,0.8440471112214909,1.237221941686639,-0.25497423485436777,-1.4322513416242357,-0.09396782592040459,-0.339697975878129,0.9562502824528097,-0.26661841043808016,1.6872732387873426,0.5283900404904908,-1.0083380985972048,-0.9165165449456598,-0.46986769241470455,-0.3246912736538331,-1.5329499216663263,0.8143387142469878,-1.3262255897188497,-1.816121992873515,0.1024592709589632,0.38745520770150693,0.00048125883401320505,0.5097389071374194,-0.2687443434994825,0.21870868895515833,0.6111169650974317,-0.34014831410723717,0.5321321151775019,1.8023825860565827,-1.8860311059961472,-1.6326857412483293,0.6957150377656584,-1.1456679293858723,-1.7256937701677304,-2.902233608021318,0.4759076349358293,0.05014287814263469,-1.2796365180553777,0.37779017509550084,2.1940175287075117,-0.8407459717041564,0.19625058626561276,-0.9687394313154477,-0.5884739574940104,-0.186105380665721,-0.6340681626322927,1.3395391426600567,-2.5868513334456207,0.44398124291843577,-0.05114019347273664,0.9373466729915881,2.0780121247828514,0.5779721557911968,-0.7599658769698967,-0.2590744144942183,-0.1998706015412691,-0.7650699202685213,-0.5208491132260356,0.1843087587673947,1.0570227820855542,-0.6883335406709195,-1.620863621220344,-0.23388202878736128,-1.2530033576720638,2.0725729708151652,-1.0404939472833252,0.10331849598005263,0.08702831275482482,0.2824876662688613,-1.2876761464789273,0.24318402098126318,0.7082491976931979,-0.16545551144735524,-0.06362427498386118,0.9301159037233067,-0.5504371763025311,-1.0215715259147709,-0.3468107286459329,-0.3189122359294601,-1.208023964313038,-0.9563112868605673,0.3646093449420534,0.2821267455370805,0.06795285536535325,-0.4504192772062886,-0.19122369091796543,2.3227341229263994,0.19586209449671754,0.21046710277360606,0.21537198204966013,0.6969998671719423,-1.0503175109249319,0.9546661036855922,-0.9826177094377695,-1.3046901810322569,0.8093263709170556,0.17251892687916107,0.8389025572821174,-0.5750769520620461,-0.09310988635366459,-0.5105928100125748,-0.9041437370939099,1.8956931453579773,-0.1747410742943315,-0.329452261338602,-2.7100528893345426,0.4595746675258117,0.8655905812127083,0.06338624918256294,0.23147263812785024,1.7281423592515428,2.3399072297205907,-0.708178099061008,0.9708554042918806,0.013314551851193299,0.22385378307862563,-0.6811985637568245,0.2849550600557272,-1.0270784362861278,1.443213036777684,-0.4764080761012422,0.6541337859064391,0.32380823407207093,0.612087827229659,0.7037440320430094,1.3445943567869652,-0.08418889431944117,-0.31059501360732117,-0.6121206134428129,-1.0174336357883562,-1.065774860566338,-0.6885068657187363,-1.2777137948916266,0.2588233104587987,0.11433003966390709,-2.468940752079447,-1.3771695309402325,-0.4730102490414835,-3.2557525577218174,0.24175329959493405,0.09141799906520452,-0.8593135077972762,-1.335735478285109,0.2764852577833625,-0.7967568530522515,0.10763503716871219,0.9463408456855487,0.8284682768353884,1.1135367404958003,2.190142890046506,-0.7819721885034232,1.2297891827061638,0.3819280658199966,-0.5792525838235529,-2.2740662677283714,-0.8031955733325006,-0.009076985937926227,-0.68562516753384],[1.5504356608015792,-0.45983891738445204,-0.7328031449121573,-0.3340329708694873,-0.81965256869266,0.042105978024864134,-2.506045525823451,1.3280755869751337,-0.5674711247758201,-1.4501512425938805,-0.39952945974042214,0.5755934660168472,0.32906222574044774,0.45591853442867486,0.8624877090133609,-0.16493748902831967,1.3408463403730921,-0.12716531298167857,0.8836527745317105,-0.2835293247625271,-0.12477099058179068,0.8006293792681575,-0.38352084806122394,0.6361919674184313,0.7422503287134578,-1.07518697951086,0.9692840596721021,1.1573122166779026,-1.2827558731931132,-0.3582109934877129,-0.3580662534333702,0.8422718345508055,1.6086173209948202,1.729754809205011,-0.9383860596686932,-0.05966414508633582,0.2189324605613063,-0.27041103720392246,-1.8812804172289188,-1.140041953146159,0.4468853870710243,0.0030461537921390156,0.5137838715786927,1.3219250719862956,0.9289127830121708,1.3889665944182328,-0.0016835103247396649,-0.5548419701762104,1.093159405785501,1.3715460320825923,0.19254584040737757,-0.21164320632877545,0.26742689158937544,-0.2631941276142961,0.9744543844426585,-1.298916023853249,0.6027957816487466,0.4002646334264263,0.46744060306026436,-1.0446371783652009,-0.024466324704446294,-0.1802057445330985,0.5817990153554619,0.7287064565737392,-0.24240792783937357,0.2858957962809676,-1.3420298088009468,-1.2359194004956486,0.04740938654564962,0.26726993709171887,-1.5936482518688495,0.616176109048312,1.5005442036533616,-0.0076349067669995545,0.25543142004606634,0.702651622779159,0.285386255821231,-1.4575113883030684,0.19455863619486063,0.13223191651424615,-0.25433239040322797,-0.4744414580836123,0.20763853417489261,-1.760716247345887,-0.7738786486362463,-0.8261354911051022,0.7586538436763485,0.2763698280039968,-0.010956265328562531,0.6885646466995269,-0.7029258153386458,1.8136683260999347,0.6919010186923523,1.403614583954882,0.31681033287069355,0.5836767799305755,-0.15534118840558284,1.3215363434766663,0.44231192173833056,-0.8587572712260738,-0.6006718450782425,-1.3224975792516234,-1.130660065184588,1.4208338827837084,-1.0770006906012466,-0.3484137139482176,0.9229746545061182,1.3158389174726695,3.0878171257665583,-1.1455729788053493,-2.2414499824940237,-0.35960554392171773,-0.6235028552368219,-1.1437233674311873,0.7359522105309242,-0.49037081679109296,1.385666092631692,0.6705322490475013,0.20387270534167404,-0.8835667618236559,2.767547299003171,-1.15955840496489,0.3714190640466088,-0.5506399177244449,1.1031488072122093,-2.177037787109642,-0.1639656119806007,0.13446703389795517,0.14420244584876465,2.086986389999017,-1.7845151785978852,0.6390160794419129,-0.7779447779964068,-0.5689524918635737,-0.2234755054555784,-1.585822721925737,0.3818686970699777,-0.24376891737855702,0.20405911485352765,-0.8486423329845192,0.289515175246159,0.11760606947788504,0.4898876661988704,0.2772732982226148,-0.8175852263309155,1.1858876036225523,-0.6861164667610944,-0.06271150524397211,-0.3808791534090445,-0.587284214414862,0.41596985408576237,0.09603003125946613,0.22480573529785314,-1.726029613079677,-0.47168679358777155,0.18585650232798887,-0.6256007771364316,-0.14711466785199767,-0.7294932820146908,-0.22095668004508426,-0.8446047163625318,0.9870521858150294,2.7428779123520894,0.9012658695998452,-1.2033818563738121,-0.11633226714797436,0.26912068545352813,1.078910500952217,-1.907781192787961,0.6066410108975816,0.4800972122330317,-0.7360087292984191,-0.7557867946186244,-0.8385991711863254,-0.46961381142153313,0.33350873554618915,-1.1793696227710542,-0.8025504187730663,-0.46628046640498394,-0.0009605858501319878,0.5687381827971777,1.7495627375962142,-0.6902556762787491,0.4353458055205135,0.8184978566159802,-1.835272195054981,-0.3685112789067073,0.9885423581920068,0.4204839176101322,-1.0487864918980927,1.4732217180824705,-1.6877932383328444,-1.0668725620755426,0.13025484135729606,0.03223507651533765,0.5331606808811848,2.6283932600270496,-1.3885042552341338,0.34173102423519186,-0.10039287316312974,-0.005525448993490266,2.3108221949517183,-0.5835686337230079,-0.060312731139669055,-0.5082728495524313,-1.4984618576733557,-1.7435796199391655,0.6259607339973692,1.503412618359689,-0.5166772181546242,1.3745073537787509,-0.38518503956254774,0.46559445406637495,-0.40762858978562444,0.26524240504063573,-0.33619378426672303,0.8813716496002427,-1.0887473611333234,0.16642689078319084,-1.362363784810239,0.2662655264931783,0.7930875900012533,0.3133456334763248,-1.1105056994017743,0.056349178151920344,-0.9655859032670997,-1.6842324478624426,1.1672287054171862,-0.3815362095442729,1.2623238819720808,-0.31871152663953717,0.5656574017916395,-1.5153257284558341,-0.7767736130872295,0.24056567002459858,-1.0381953206299948,1.518998932149924,0.862318612018214,0.5480773743247811,0.5574608500506717,-1.8462720826281396,-0.07255306854862877,-1.9389278952539672,0.41574559554289414,-0.0016791603419389037,-0.2693852721110255,-0.6453935318124482,-0.030712535881537845,-1.5239049283245631,0.12368523494927341,-1.203329338800869,1.063799466453112,0.7145193116489935,-0.7361417724138692,0.10168229379842296,-1.2412934007944503,-1.304157158608828,-0.48295859580208406,0.6484232645716784,1.274053910943321,-0.11446289246325578,-0.13060021919137868,-0.29478644291672806,-1.0265431115091161,0.4880808854459157,-0.6314467280927356,1.3527226504147472,0.4770968794506751,-1.8284538513110866,-0.0038339469740981827,0.43974415594344746,-0.47090722142147506,0.6700528021185559,-0.14438146333290264,-0.9062640735573513,-0.4207028525082471,-1.3097857130402213,-2.475256836871881,0.6809355128374224,-0.17031349637909265,-0.6221852564687063,0.8936027585483081,-0.4308405677248857,1.2941392269408658,0.7687813035833748,1.1979709016000806,1.3564174002030054,0.20822296409389518,0.48594754104989185,0.629117958229225,-0.82692887872405,1.0640546017631096,1.3839753505920394,0.34224469806562213,0.5796338100916358,-0.41547165607667547,-2.1565048754530385,0.20322781733828332,-0.04842547313630062,-1.7098229556143374,0.8803610850696325,-0.8348830372171907,0.7957846858642231,-0.3018095732589224,-0.38520562707670936,-0.6323575733338906,0.3473562018454829,0.45655598577287004,-0.9550405043612895,0.17820150376859972,0.2109421692265965,0.07046943321715661,1.130749850158345,0.512922753188049,-0.4861283517848554,0.0652734660024077,1.219469405404689,-0.14359759672552924,0.8530980719297393,1.0465416382153638,-0.028634916953885335,1.2413514821856593,1.576697229821703,-1.2892595714656154,-0.2879125081934701,1.1648117033869951,0.27312907696953537,-0.33092116891345547,-0.19986670822885427,0.2062446608791814,0.5092654959371318,-1.0355508389657424,0.9560176117991328,0.3135673812285476,-1.3526577991025541,0.04409043466753194,0.8808827384455223,1.793837084073813,1.55121505946485,-1.0138328484273573,1.3177384393282416,0.6179866536363523,0.6537183548242754,1.0094300069999043,-1.1658380772622434,-0.0005252579082236423,-0.9666668425987619,-0.8872815396865676,2.6525079941990684,-0.18308031796282406,-0.3302403091170131,-0.4324275421710641,-2.059059124435004,0.7516033747591763,-0.15500953926868632,0.08424016950628944,-1.4834360798343382,-0.8127290991975922,-0.7612500088532648,-2.2576262014773074,-1.0079044751609763,-0.6879679753922375,0.7615806464644134,0.0831192742378607,-0.06897658575202081,0.19161790059313924,0.08896956994680855,-0.0915480018906608,-2.160153060289836,1.0068725763848998,1.067989679034978,0.785340290633327,0.3441684129571368,-0.7056167518737143,0.18759611750323843,0.3342530608392955,1.130596118382765,-0.17900045457272415,-1.4575973666449702,-1.0897161979412995,-0.47409755737384035,-0.683862271891559,1.4233408618243686,-0.6508388812755439,0.928216786533698,-0.3229325875250557,-0.9135875180452416,-0.08526921998470552,-1.0213640998921505,-0.676001363003383,0.23712436004520918,1.1631006431667845,1.4645269304868624,-0.7709959235078685,0.18499010058811013,-0.38672253432350534,-0.9538847247673033,-0.08234307482252234,0.2489348355682646,-0.8827397542021137,0.40646614666422104,-0.5650452924857307,-1.0987842528665703,-1.6616180819651942,1.441461309035746,-1.2203920638933343,0.6387600230973254,-0.7216739446576192,0.9298440985307426,0.9262681054259688,0.08576891783964176,0.5324577127253514,1.3736343922462086,1.938206617403916,0.5296036242404544,-0.8668545955135967,-0.8417365060670767,-1.2431081798802748,1.346467909035828,0.9937801291305088,0.9449333607468883,-0.1474699012019537,-0.09748139014955026,-0.41141249039675665,2.102906062083788,-1.4061683165335395,-1.7624030403412458,0.1921125760220204,0.9367848510450553,-1.3223856387109811,-1.281735849963457,-0.12100445051735226,-1.9113431251653623,0.18201047835258852,-1.332568107117314,-2.1386012137479073,-0.4956082809918621,2.1537025339823153,-0.15074003036728417,1.2249299057597423,-0.7873519698424669,-1.5759687089565533,-0.8041045834467183,0.5717267247046788,2.0736429586429597,-0.2698573506866084,-1.2128618103454114,1.1865158881526277,1.5646166703407112,-0.0020821088079830243,0.8279881437866169,0.46617490666050554,-0.7524352897764638,1.5638914389930254,-0.20116150410077427,-0.6872203736947269,0.9843445161603193,-0.13230198688632783,1.6814896766260172,-0.038376722442529175,-0.6509678289164726,-1.035191318136549,0.32349654013743523,1.2784631627494059,0.969620966564463,2.1719723210491986,-0.622704277886761,0.36351485347664003,-1.133710022139472,-0.648051766624843,0.07206136469157723,1.247402471529947,0.5207047316864045,-0.06813801114575224,2.145288163755286,0.25784039409728854,-0.619488819064909,0.2423016751403291,2.057383229479234,-1.235893037232499,-0.36786989854339913,0.8513109848629267,0.41085705699341646,-0.6162012035961998,0.24098610069803772,1.447417297497513,1.7186508500400373,0.32349568166637244,-1.4795814476991949,0.6678847913782693,2.9189669040952735,-0.5250290711047373,-0.44083488749866856,0.34097058420824494,0.5266825025363243,-0.4376901741948403,-0.7671322621523562,-0.4683064628269096,0.3689676439594153,0.5466785426449001,-2.0741726812699217,-0.09631377126821154,0.9589834591429093,-0.6336482967362567,-0.04385533202483666,-0.8623370967164107,0.03788581075484229,-0.6931750751295633,-0.7441259323388929,-1.521185649408558,-0.8315172582999166,-1.7445427010083787,-0.7068728192817026,0.6039707011205292,-0.3833636648128854,-1.066153288274352,-0.3142793177344321,0.4040823387975587,-2.038810893901687,1.343130901258666,-0.3431426083911097,0.6498926031410396,0.053424970961217476,-0.49989676596089405,-0.3230637481891679,-2.583946114931071,-0.6841853125458479,-0.22682895064723035,-0.48343670244938275,-1.4482040779822365,0.8029402716862191,-0.16167139286311907,-0.5926469619423718,0.2992091344775252,0.31941119976082827,0.4895795868156599,-0.6037198993855537,2.691969362410027,-0.5486316519465557,-0.8456716850509748,-0.8069610280844995,-0.19398971493382106,-0.4230185598636452,-2.4359872993933642,-0.8603685360240015,0.17233737005754923,0.10339602714526774,-0.44330359438155803,-1.2310504553594308,-0.28384416374734306,-0.8836918251499423,-1.2644656350420134,-0.06494961889159727,-0.8260112967198456,-0.8909668883184483,-0.38238655837229624,0.042482095718476685,0.3115478491201069,0.5257585883695579,-1.7889562038403612,1.0603271572381576,-0.8141567756040129,-0.5684790872786087,-0.30127055344846704,0.5986778396296625,-2.3488190782212643,-0.6553965107096256,-1.4813232156390015,-0.986181813470769,-0.16374079930154065,-0.938587885975249,-1.381525649262826,0.36881707724023444,0.5706817536655833,1.3047872779040053,0.25303534142602085,-1.5655163911609744,-0.6885829902650883,0.37589087569519647,-0.9740837358145795,-1.4505211145833798,-0.7502612623118988,0.18054860762398484,-0.38225740040802747,-1.5696849620247462,0.7415619653080784,1.0186314728037542,0.3075875293198604,0.3151387922523418,-0.611656773614739,-0.005666141757663623,0.4862600774409628,-0.5089272404351123,-0.19940616410755366,2.699797302028305,-1.5335117579992388,0.055899237416241254,-0.15882161782491297,-0.19382118446633737,1.2361695500064767,-1.4340147848069786,0.5251275747606338,-1.777512614471678,-1.608947002368992,-0.44717050067821856,1.3578902038672689,-0.058312597662245357,-1.0976549794629227,2.5543180523983016,-0.8093865597793024,-1.3416663338363926,1.4409574713552524,-1.3490737865823617,0.4570924987819937,-0.5148574316505088,1.30504220455561,0.1801531087050125,0.5912809341481668,0.3352726047434511,1.0903886192297259,1.4053154362191944,-0.06688932247730721,1.4824056393397032,-0.6537574587346517,-0.6812342884979289,1.0851008029520433,0.1454016295333399,-0.06171644292601545,-1.458158213244401,0.31575026608048273,-0.28453391298913205,1.245727056724194,1.6487021041019712,-0.2125625968515701,1.4669919567631593,0.10800737967328992,0.11057762856868854,0.7043617575798572,0.9486870643742792,0.09900077335880068,1.372738022259568,1.1286372381840324,0.2044053756164562,0.12475323418170373,-0.3905860646938811,0.491149519572824,-0.47805796911336984,1.2978348683461922,0.25931551067849884,-2.1375036439695103,-0.34704768076367,-1.5777347267449682,-2.8126242182977492,-0.5714073617734381,-0.16940411127877683,-0.6116022592664535,0.20650642416384896,-0.2559967810170367,-2.5556339236041983,0.14887807612594575,-0.0359849013934895,0.29640116321039695,1.8502696032115846,-0.7354372788322401,0.5683992519185823,1.4192645843731033,0.18410689710876235,-0.3946880287421406,-0.37261058453734636,-0.9615915022625868,0.061127412770064525,-1.5878532486337895,-1.7807835072974627,0.7489653081948526,-1.727368294831719,1.203259022414518,-1.3433646865323754,-1.4054387986005623,-0.6826025288209107,-0.10015625421882426,-2.223768185015878,2.017373240755254,0.5633439329249351,-0.98569784279938,0.43546867507752074,-0.6882405557090545,0.14138822615340244,-1.9963999030568367,-1.2520388143650252,0.41637044732467515,-0.6257508562310395,-1.1126124692570742,-0.8503979585096259,0.33119799059532573,0.11678104369782152,1.1074368740535967,0.1361867401888327,1.3396047471122454,-0.6074591626735507,-0.5792298213891559,-0.8995718384724654,0.13654948930562494,-0.9478224804861419,-1.1802938327127321,-0.45627790016074343,0.30465857166776594,0.6608866592467557,0.2102962625384181,0.1384893145882812,-1.6534475184374247,0.30792183445375526,0.11335061763617892,-0.5747359613124626,1.5377174125037136,1.6989826828101475,0.7303206409898446,-1.60268741651603,0.09290971033455458,-0.8331537170124839,-0.6515011117848031,-0.7972140671895196,-0.2447995123643458,-0.8619715455348771,-1.7579806727077811,1.6414253342564795,0.1950436676165444,-0.8033292578957182,-0.6165551596631185,-0.6770874259616669,1.0297186184400795,1.888819071470699,1.1204782225334717,-1.4530523827455393,-1.6228725648730882,-0.5879195579143738,-1.9557098937861939,-0.6766204543354619,1.3148370570556405,1.7376912932397324,-0.6976032654738991,-1.4558137141104497,-1.4855317089685396,0.24710106976820323,0.6235865794803995,0.333249473610374,1.3914807129275166,-0.2284606279106637,0.20511563233126884,0.8589408662900876,-0.3288823446122536,-0.8584588789958719,0.7699368778070099,0.11499322748858576,-0.020956436738933847,0.2684075404514529,-1.0060409092450786,-0.19399819767391926,1.2952217345306707,0.29773603274377725,1.4427665824707938,-0.43703452557609146,-0.2241131102434154,-0.38947453160074014,0.5450474845058358,-0.41865234926659534,-1.5568783009810208,-0.0460363243824209,0.042109758675208775,-0.7068007552311243,-1.0642637841590712,0.010380108860717973,-0.7163953765548297,0.053774215808100996,-0.9879023533191633,-0.33993522362811696,-1.3842392097012814,-0.21314298000214324,0.9680967392791603,-0.03467834205742695,0.9163566786680822,-1.2836562533651095,-0.29940753933078446,-0.45482344716426776,-1.0315715431982104],[-1.9518725174029399,-0.35815053313882855,-0.42147848235293955,0.23554433370326522,-0.19084537780690358,0.24322863241174872,-0.16600414382325052,-1.6569853224313678,-1.0112510506584431,-1.1694521225832921,-0.5107640232343419,-1.8621990254057699,0.12926405136026714,-0.7580871911926368,-0.5164950205483656,0.556642946730159,-0.45183169181971927,0.31491747151689103,0.2915109183369719,0.7099653348249346,1.2397178365319979,1.3497829348479347,-1.0901972646553393,-1.3757328529534782,-0.9053604230586362,-2.617391904554357,-0.5728422987863805,1.683546577691443,-1.4962867016924253,-0.1975319318834508,-0.591510114893742,-0.5398168756293636,0.7968225037870061,1.3786619428122158,-1.9220953088750776,-0.6026382836048082,0.814328732124443,-0.32227395149994525,-1.0236060485426624,-1.4908214421506825,-0.062180570592709004,0.07329094672106236,0.24137166155539022,-1.602698910362004,0.3822584789378448,0.11641171912397247,0.07588227342695253,0.9313411870153055,0.36507468370698304,0.3547522625963026,-0.33587038480468995,-0.9164950187879671,0.06846098156969525,1.1804890307677667,-1.2990945942272702,1.769501062483585,0.01756271710868756,0.19197274715370136,-0.12097908346994575,-1.678854066342575,-0.9422012689751093,-0.42569893280439214,-0.26983566921130137,0.01113035899922569,0.2831948795771156,0.4715248085122212,-1.614376719619978,-0.9335101493180634,-1.5279506470312754,0.006044895937651122,-2.1253733927092644,1.2683353653638654,0.03164845664659239,-0.4476434920023511,-1.720026431046084,-0.1420044598385765,0.2768396589633509,-0.25979787464432486,-0.6167071807881123,0.5523337114384543,0.0727324173536521,-0.7293168648476661,0.5394351568080987,0.8317921323599754,0.058022006021997176,-0.6008428909383104,1.3043953370618564,-0.36250820339628426,1.917347029345538,-0.5205115481263781,0.7513058645727255,0.049975578588975944,0.40472933505443526,0.23195941043363924,0.570076239808754,-2.3081451642906985,-0.19297194928421219,1.618761293828541,-1.0236323131833267,-0.40480299105391715,1.0688713420577711,0.3374072219265597,1.7823236117611003,1.1377830360724173,0.3248297098077236,-1.2744745033597478,0.37027944423450543,-0.35760823388108853,-0.859344344053329,1.341341482247603,-0.8792275444734957,1.215381479735343,-0.3357285866809478,1.0036887170960713,-2.887054083894653,-1.6641894914551758,1.7280557483044734,-1.0337410757343635,-0.6754736017675977,1.1669435175876202,0.45859425869361387,0.48740084415318385,0.6342559115043033,1.091958092700227,-2.167402183924732,0.22498257211583927,-1.0972632074677424,-0.06262486028134169,1.4581419371094817,-0.6162582250360251,0.41314819616589854,1.143464436122848,-1.2947212759886406,-0.24805929662465515,0.7014689087355607,0.37719353759573554,0.6524357586017463,1.0922553249876992,-1.485627682421694,1.5036993055163772,0.3997732718315075,2.168277641343694,-0.4620195724143345,-1.0850050796452018,0.6861585250683219,-0.6359109447450787,0.3945561170940954,1.7189983108406734,-0.34163594881230375,1.5793584317993534,-0.3144836920815426,-0.5200347699696254,-1.360539366504952,-0.3212521291815233,0.544539766518827,0.9283960843509099,-1.1383600559380163,0.2966204529906953,1.6133026326146565,0.3685765811577065,-0.01991738542951682,-0.3613495298943472,-0.23004131357892607,0.17987421048399632,0.7383320419987963,-1.4393628583806801,0.688454198278805,-0.08942220811601496,1.8362874783008107,1.196615855458405,0.7237679502953985,-0.3350866032959008,1.258400203604181,-0.2896497463923918,0.6500286755642228,0.24570768473892052,0.804608251437992,0.5742646534379015,-1.3382786997462872,0.675115069781887,1.8575732615377323,1.7599405716243977,-0.8334703383495657,-0.228331878771734,-0.7130603085314468,-0.434864307701592,0.07281046411086367,0.07107682995116169,1.5904054277160304,-1.2727491990273945,-0.27658592396890747,-0.11783134102331043,0.13331422125057127,-0.5730859626309401,1.0011162620473004,1.0278830815400115,-1.05371793070743,-0.5902695773618921,0.15317266644196792,-0.3976991043619993,-0.6314405276418882,-0.5164996994927751,0.4791225262432484,-0.15881021657852393,0.9157780227215474,0.22414377707521205,-0.041306216057505285,-0.7829889748872473,-0.8844757536913589,0.9454011550908299,0.5695502058827284,0.6040815286621465,0.2313438682136378,-0.5554338903398486,-0.3013737564494493,-0.3912691716771444,-0.1726918074585318,0.14256737714374856,1.0404900376503614,-1.4502488435188556,-0.8312304035466591,1.295723066559013,2.3749398613308985,0.2179037557212013,0.2650591334161128,-1.9162007160828718,0.9382680564921163,-0.8298035222054665,-1.0799364663659563,0.7849894979702577,0.4087703900766293,-0.47347783903551216,0.23372851261139743,1.398559400652983,-0.3203611409892772,0.3070145564625594,-0.26941447444482336,1.2241456663038786,-0.44402152983687526,-0.6542506136411177,-0.9602496785529251,-2.11866485988182,-2.272066259304837,-0.16285021462155522,1.2275343957783569,-0.3448421979223526,0.6216319130986949,0.21001343806041478,-0.973826869386135,-0.9568469193712866,-0.14991327807284913,-1.729585514077696,-0.1234831209088685,-0.603762670522974,-0.501204992637021,-1.2223291256227302,-1.4302114910309502,-0.252084639336297,-0.7250599761143698,-1.1260494868799562,0.5722621198545168,0.7609797192130262,-0.7761524260433078,-0.24548649911258574,0.5232575197395967,-0.18291802200015705,-1.206005624820384,1.8451679856429912,0.6253581604308988,-0.5439438459879243,2.0806561656426825,-0.2120279557388296,-0.9069885101055253,-1.4673036518538118,-0.05328429635998708,-0.6391586431288383,0.38357231386959695,-0.8693587765403903,-0.037266325196868975,-2.1154470001598,-0.20269713909738973,0.07416522600266964,-0.035159723438438664,1.2760448824708621,-0.5300064903685859,0.6546251350883563,1.6232422007141496,-0.6947606238092462,0.8848434852195369,-1.6120007069999405,-0.8235054600340549,-0.19005065329948534,-0.050517706597779634,-1.4254869990815395,-1.3682316864484967,0.16320327942739418,-0.8080044276473123,-0.5873865427653318,-0.5971398187716399,0.5538907074992789,-0.07439946524831945,0.6170258276271479,-1.3539592700144536,1.365832625453249,-1.8201501760647723,-0.6819033048420995,0.8876486713918316,-0.2860164142837538,-1.5962682467228257,-0.8959834303804253,-0.24854341521503007,0.11913739851967635,-1.1405696700842336,0.6454385494417377,0.8147969762647137,0.9125551357511481,0.4273866887446169,0.04603148341152781,-0.6056698682977032,-0.9254953691214622,0.29407030873560447,-0.9431963436881928,1.6009312501470858,-0.44224515215349414,2.036209188733067,0.004909280440751232,0.34669767683473696,-0.7552066530393701,-0.5548692665632323,-0.8030667591869679,-0.9980543660554779,0.818125423165592,-0.2869513647062309,0.023021145727849503,1.8060797632870291,0.4100361767473655,0.8700226124612621,0.24687417043828824,0.15869918427771618,-1.7243609196431293,-0.46944601898272276,-1.3670182435192333,0.8543398464250163,-0.47419772153248535,-0.2857602696806922,-0.5633854740705995,-0.17269180387076946,1.961395758322121,1.1241798470305941,-1.289772587712578,-0.40018528474886383,-0.33979026438267634,-1.5185186555854968,-0.5874266027065385,1.6463988930640878,-1.2537549571058866,-0.3368612129462756,0.8802923075987074,-0.1546971822408933,-0.8461832709286339,-1.215190628536947,0.36771293924833354,0.10177728323742717,-0.8870708666080306,-0.49147933725200654,-0.7062787669226956,-1.208023920174952,-0.6262290908068923,0.40418080354843866,0.8962925030716745,-1.0325146195908446,-0.16800050311361567,-0.6540695736120039,-0.45319081857833454,-0.26695369670528196,-1.507596765470398,-0.28349215917650816,0.9380509493104217,-0.4336804726440637,0.28737296429388853,1.7454930663435264,0.16895016173182767,2.724960430411308,0.8733735394272621,-0.6348641076668556,0.752455023926986,1.2511858991373181,0.24743098474926145,-1.2355123739162253,0.24066372180843987,-1.4110063650209173,-0.9450948819666741,-0.9810853562713692,-2.144113533003776,0.5294847619515731,-0.8807569047038911,1.4092774305664806,-0.49178047290173516,-1.6264662239456176,-1.416618015251939,-1.28009448897344,-0.5696393102737419,0.8006981245412798,0.29574016480587634,0.7869496051039886,2.2085608815258877,-0.2741949975085604,-0.36394772860199026,0.005066876910771148,-1.347256110930652,-1.1758101219285875,1.3866860215167296,0.5426233785328988,-0.8651051112713978,-0.8473389254336287,-0.795711530742432,-1.1123946436864391,-3.1187117169433742,1.4346962848476288,0.3227775542302723,-0.09981177116117974,1.4072669426246296,0.9649010039755413,0.47740566141830215,0.03742556605090228,-0.012377125382484222,-1.4449786537801597,-0.45290837932572414,-0.9289643401459878,1.8379668542851224,-0.7160699035126112,1.8402946573572252,-0.017128697359637162,0.23651355880624164,0.05567459482559674,0.2812462522565463,1.2057923691575918,-0.022252929077925226,-0.5523982852239342,1.9241903179641264,-0.028177461721818075,1.3861427804720536,1.3198199434817863,0.6043063218426061,-0.6612689053852665,-1.0343091652695489,-0.05867405002964641,-1.4418745315624066,1.389471030442884,0.15969831988150734,-0.4203215290454582,-1.6965217756478226,-0.054757814332263184,-1.3455824771468075,-1.5519782674027078,-1.8913688791675702,0.11679750324748893,0.0009583955895568144,-0.22958703325984664,-1.1597617851810325,0.30836954824121127,-0.12049782472965916,-0.07396416797204158,-2.0116521857588134,0.9392312450679169,-1.0036423843720907,0.17436801145017952,-0.05666057177307235,0.6340698909295076,-0.7329190260599551,-0.3657623390738758,-0.8257491765401299,-1.3860644151252348,-0.42306430607093054,-0.9678443599806732,-0.6630910748979716,0.9137415440358378,0.2686678293457007,-2.7003418463988873,1.3808901167162664,-1.0369458466432362,-0.9158265071461084,-1.9348446518717195,0.6507746358421734,2.4334917806124152,0.3329576590444728,0.9909384005235409,0.01834343038976491,0.24500037410133513,-1.9298864314792559,0.1767469493725074,-2.484949457377145,0.9300282524945956,0.47097144258704166,-0.6657210208944243,0.3818755623085881,0.6257348077850317,0.7427953782291637,0.3351090429248198,-0.04850037445269737,0.2835044323562016,-1.6996065885010756,-0.8680942338823437,-1.3282566162000635,-0.5045661639028136,-0.5271652171307236,1.2067940769587735,0.5744094280530175,0.04115259973481205,-0.489886927657871,0.37441950294040993,-1.8336873726922973,-0.8074024975378419,-0.4356244611199994,0.631740711679768,0.8638664482765981,1.6676817996425768,-0.9210327552223164,0.6821890744979252,0.02357064243892405,-0.8548937926530686,-0.3676768025836822,-1.421150909452488,-1.5597291963342839,2.095615963422896,0.6507034825519246,-0.40503785342672005,-0.6202686587205885,-0.5141562016833386,-0.032837773348606346,0.923187366392423,-0.28020758229390463,0.654041488968698,-0.5505987076083335,-1.374054163188184,-1.3643796645626791,-1.4182416910633375,0.3110666348068579,-0.31859496620693684,0.15147034853172966,0.9092450142634174,-1.3251021983693025,0.870756600609148,1.9790056875009,-0.9037412595648876,0.28021366237910944,1.5231395997248822,0.5148110140923141,0.6013297388161674,-0.1156920185722494,0.179366518822508,0.5871937324751043,-0.5201349958532051,1.2927112191008532,-0.2817111924572405,-0.8447134533787011,0.03516730150548137,-0.34947049430844607,1.025283096005863,0.020880200545277575,0.27772330853616395,-1.2128705617308626,-0.9981068847582601,0.3512966335264099,-1.1473953017950194,0.7943397009468816,0.44146516743213765,-0.6133227981334505,-1.824389285918262,-1.006929309467732,-1.4456338451015573,-0.11693757846466972,0.2167425080156785,-0.436848894814934,2.087259301208865,1.4247051514487175,0.17095773445747556,0.7051408445026314,0.5224376380445982,0.8268092315867207,0.4779534687248197,-0.6760684447422324,-1.260482846496299,-0.04654309387399156,0.6139515571376138,-0.7858828594371534,-1.0249549278273549,-0.018899245809025553,-0.11629878759349069,2.0691647578898027,-1.5174842051967226,0.27145073868043246,0.5845954510090902,0.3958101561312848,1.2436336417887375,-0.14632135559684947,-0.8545055010349174,-0.6927663360264557,-1.3061386472916467,0.3188893307617459,0.2438168994804015,0.7760971901421273,-1.3587941233596497,0.047348677822072714,0.5351670678452978,0.8924313852967695,-0.3472619084182437,0.15800866633848587,-0.4166144521253637,-0.9193259157078046,0.5501280036583421,-1.3679732493917112,-0.4188226811467581,0.22586114735757276,-0.577940753167389,0.5962569694308005,-0.45908715118725524,-0.052000431148960115,0.31229816242895747,2.568082930629864,0.01263752305122999,1.32794039672135,1.0440270886157037,0.24482796675977547,0.21376351849094674,2.208930004322892,-0.05082964724073197,0.4081043529924783,0.4038569927245737,0.3152424721728769,1.4184675407111764,-0.3595555358743753,-0.1218609136889053,0.5229161265780092,0.9260878807455072,0.09044521658410158,0.6916971490457222,0.009061162968046555,-0.24807989051729154,0.8312826116868178,-0.8203668390038016,-0.2655484327804729,-0.8863675626813332,1.056664207237542,2.01762700488207,-0.0274206337875428,-0.5185043066493471,-0.5698906476225057,-1.051365411745362,-1.8092923921916728,1.0949453232907667,-0.24520824459766688,-0.5771914174317542,0.05736265326374363,1.1171257143378872,0.7102667817333839,0.7326868290377974,-0.444588403343573,1.6744332319464366,-0.6160405041981013,-0.6084506011908838,1.2051135821702401,-0.39730276215032767,0.6964092865246977,0.15724934624081058,-0.6183517514008886,0.18093585557811953,0.14256875915200806,-1.498944295066834,-1.355476617878068,-0.9798207618156075,1.237455943048624,0.7628424088036413,-0.49591706702176325,0.9765858396739548,-0.29753482427163586,0.468052706238302,0.7047971489686388,1.041671632196473,0.5230097310953004,0.1938199889237098,-1.6395894626021728,0.98656416997086,0.6976193557066593,0.9897782945430008,-0.9008634275753211,-0.5223624615311289,1.669938297395901,0.23274821316915917,0.3725797295624596,-2.6223627343412534,-0.12523580342696233,1.5489900206612153,0.27034072127540276,-0.2301701322874292,-1.1159691588781988,-0.8269312311479387,1.0209409730723116,-1.9134424665617171,1.0808657168268236,-0.32659253662447396,-1.557653774170183,-0.14817431813226384,-0.48815537638704587,0.11563813843785276,-1.1037481409356915,-0.11180271576094998,-0.6803455547258644,0.0355229701916235,-0.14737560801976857,-1.3675188270678773,-0.5055140864659061,1.8696678836307028,-0.28464040553832254,-0.6667190397436821,0.5321673313104538,1.4063183740138565,-0.26602563906648946,-1.0032286824936754,-1.0054705030488196,1.7055565521025833,0.9381245532703044,1.1122224430593501,0.4815646138153786,-0.4865812534345078,0.11059366215774627,0.035671545144102576,-0.423242992485864,0.07773550939636704,1.9568769108164605,0.2120228962143631,0.6179231230855485,1.7563554902619485,0.8586237975606709,-0.8832418672806365,0.49549318673498693,-1.2743222509077416,0.8934116812708655,-0.9482329976011313,0.07544738498654838,-0.5354913784522325,0.5449110736108344,1.0719334609261157,0.15887027476635096,1.941948642061667,0.9775608719192442,0.19178383396716414,1.7380401172497364,1.3194385765013492,0.9553807479339862,0.8654981458475922,0.8689575500804217,0.38285458296156855,-1.0828159487930697,-1.256390159583154,-1.0477652666920572,0.5847967576026358,-0.5758179590342388,-1.422361673905663,1.0637583736231686,-1.3155791488195878,0.1369994857506171,0.1932512601904009,-0.8560380798341392,0.6483856671860155,0.832674182804508,-0.8324515846300319,-0.43328295142546625,-0.6341076227403786,-1.4894910817953448,0.052339513183010146,1.1512925028295513,1.4287714548303305,-0.3919899342563899,-0.9322192745059232,0.2673469799957507,1.1178684805880459,1.532525612818349,0.927548029849159,0.4965280333343259,-0.7606959927413331,-1.5118440031866893,-0.6989250626728701,-0.49076321908311005]],[[-0.5333742907785118,-0.2928046819152829,-1.6016010385139186,-0.7946537551431597,-0.0042498639468675084],[0.9262026435704578,-0.5660657011247423,-1.135886550307996,-0.9278600336532029,-0.9692925000772606],[-0.8261761719812671,1.782373442174823,0.8107336005679676,-0.3130919808894317,-0.7587105905291086],[-1.542099340982116,0.08169501557043858,0.87642197381835,-0.6522765298908073,-0.15825336576886812],[0.5062801437660731,-0.17964495278729342,-0.010264441307091924,0.8720097184406764,1.2437640856473875],[-0.17654071773102953,0.42898199081193694,-0.006813537240052923,-1.0763416153635497,-0.29511192667151215],[-0.19018729352356112,-0.09966354458311869,-0.8877279086805138,-2.5732077542804643,-0.2611141311368799],[-1.2860011436150547,1.4394385081199013,0.5056593478813922,1.1101912688291373,-1.1347125158564733],[0.48360770506908146,1.019790299186877,-1.3726082825758812,-1.034762624645976,1.5504683445920808],[0.013954742383725193,0.8965213697363836,0.9583529993527398,1.0803402736801697,-0.3924437923150469]]],"testResults":{"0":{"correct":[],"wrong":{"7":[13,25,71,101,183,188,246,271,297,305,327,380,407,440,490,525,545,546,561,581,586,592,620,642,644,656,661,723,871,932,972,981,997,1009,1047,1061,1084,1218,1220,1231,1271,1288,1297,1333,1390,1404,1411,1445,1454,1457,1517,1526,1534,1589,1623,1638,1692,1700,1708,1748,1777,1796,1808,1826,1843,1870,1892,1898,1959,1972,2023,2033,2087,2096,2106,2127,2209,2217,2236,2294,2295,2304,2326,2328,2385,2435,2479,2485,2492,2531,2536,2568,2593,2627,2638,2641,2649,2657,2703,2707,2717,2733,2765,2779,2794,2811,2817,2824,2932,2942,2944,2954,2988,2996,3013,3020,3043,3044,3052,3087,3090,3170,3179,3210,3226,3265,3271,3297,3306,3310,3315,3346,3358,3412,3413,3439,3445,3446,3458,3512,3536,3581,3584,3608,3613,3624,3640,3650,3680,3695,3710,3724,3734,3735,3764,3768,3774,3790,3803,3804,3805,3849,3883,3895,3940,3989,4023,4033,4034,4043,4062,4070,4079,4150,4155,4157,4278,4282,4286,4320,4327,4329,4348,4351,4365,4392,4462,4527,4542,4554,4604,4611,4628,4650,4675,4720,4739,4741,4757,4776,4788,4804,4824,4862,4891,4923,4957,4992,4999,5008,5031,5033,5035,5043,5051,5079,5087,5108,5109,5139,5141,5147,5155,5165,5241,5243,5251,5270,5305,5320,5321,5405,5428,5430,5450,5463,5470,5513,5531,5584,5593,5603,5613,5652,5669,5673,5684,5685,5686,5695,5718,5731,5806,5827,5838,5899,5930,6062,6072,6097,6099,6114,6117,6127,6129,6131,6133,6140,6181,6201,6211,6241,6250,6280,6287,6288,6293,6319,6342,6489,6510,6526,6532,6546,6567,6590,6597,6651,6672,6711,6719,6750,6752,6753,6760,6766,6770,6779,6795,6841,6877,6921,6923,6927,6962,6968,6978,7031,7049,7052,7072,7084,7161,7162,7175,7190,7225,7289,7317,7330,7363,7385,7446,7449,7452,7465,7491,7505,7555,7558,7566,7607,7617,7688,7693,7699,7703,7723,7737,7747,7791,7810,7817,7820,7838,7846,7855,7868,7873,7882,7887,7889,7898,7907,7913,7953,7967,7987,7989,8007,8016,8023,8029,8067,8117,8127,8212,8221,8251,8260,8273,8278,8359,8373,8382,8388,8425,8448,8458,8468,8496,8513,8514,8528,8535,8548,8567,8587,8595,8611,8619,8621,8657,8730,8731,8764,8765,8772,8795,8845,8849,8851,8929,8983,8992,8999,9004,9016,9037,9038,9052,9060,9095,9105,9158,9167,9189,9199,9221,9223,9236,9239,9244,9273,9296,9297,9367,9396,9425,9436,9439,9440,9455,9457,9459,9488,9498,9508,9519,9585,9611,9621,9631,9633,9634,9666,9677,9704,9739,9753,9757,9763,9791,9800,9801,9818,9826,9850,9885,9902,9911,9983,9993],"8":[3,10,28,55,136,148,157,192,194,215,269,294,296,311,312,324,346,365,372,424,441,443,459,485,498,552,564,567,597,611,701,704,713,717,742,750,794,804,821,845,851,854,884,895,904,993,1001,1034,1094,1121,1148,1154,1176,1188,1191,1195,1197,1203,1223,1246,1261,1273,1294,1379,1399,1408,1416,1438,1487,1504,1533,1535,1558,1565,1570,1590,1610,1619,1621,1650,1713,1723,1739,1757,1762,1764,1768,1775,1794,1841,1907,1918,1987,1995,2042,2060,2061,2067,2081,2155,2178,2185,2188,2190,2204,2226,2318,2333,2376,2378,2384,2403,2410,2449,2455,2461,2506,2527,2557,2571,2592,2619,2631,2656,2660,2687,2713,2714,2747,2748,2761,2763,2764,2777,2821,2842,2873,2894,2899,2937,2962,2972,2999,3016,3032,3077,3140,3178,3185,3191,3215,3219,3251,3266,3305,3317,3322,3325,3347,3359,3368,3371,3417,3450,3479,3481,3496,3540,3574,3634,3646,3660,3677,3698,3706,3818,3830,3847,3864,3870,3903,3942,3959,3980,3982,4065,4080,4090,4146,4166,4186,4188,4227,4241,4281,4343,4353,4361,4403,4404,4432,4447,4448,4457,4470,4473,4477,4495,4515,4531,4614,4617,4631,4641,4642,4672,4718,4780,4819,4834,4857,4880,4887,4935,4958,4959,5133,5244,5253,5257,5280,5290,5301,5307,5337,5342,5353,5368,5369,5398,5415,5435,5443,5452,5459,5483,5505,5519,5526,5529,5554,5567,5592,5653,5659,5721,5737,5750,5756,5778,5791,5812,5818,5828,5830,5847,5865,5870,5890,5918,5929,5932,5952,5965,5974,5980,5987,5990,5993,6003,6015,6016,6040,6082,6163,6191,6259,6264,6286,6309,6328,6344,6351,6383,6398,6400,6424,6426,6428,6429,6437,6444,6454,6470,6473,6478,6557,6583,6588,6602,6621,6633,6643,6701,6786,6798,6808,6818,6833,6843,6892,6894,6925,6937,6947,6959,6970,6971,6979,7037,7062,7086,7112,7129,7133,7139,7168,7202,7203,7221,7231,7255,7261,7263,7269,7279,7337,7342,7354,7367,7368,7381,7440,7485,7506,7516,7526,7536,7537,7593,7599,7601,7625,7646,7655,7671,7702,7706,7727,7780,7782,7830,7835,7866,7933,8021,8055,8056,8057,8077,8085,8098,8111,8114,8137,8179,8195,8243,8325,8335,8338,8343,8481,8490,8501,8558,8576,8614,8629,8634,8671,8681,8691,8738,8748,8752,8763,8798,8808,8818,8858,8859,8865,8868,8881,8895,8913,8921,8951,8991,9070,9080,9134,9137,9162,9174,9179,9264,9281,9310,9311,9339,9352,9358,9377,9387,9405,9414,9528,9542,9552,9601,9647,9648,9687,9688,9714,9761,9809,9865,9897,9930,9948,9951,9952,9962,9964],"9":[69,126,608,721,763,896,1468,1712,1726,1807,1944,2329,2370,2417,3242,3243,3401,3867,3911,4048,4082,4091,4208,4370,4937,5006,5069,5124,5249,5255,5259,5942,6461,6580,6781,6835,7216,7410,7943,8152,8163,8172,8194,8199,8228,8283,8307,8342,8351,8389,8414,8978,9220,9230,9325,9527,9663,9724,9879,9939]}},"1":{"correct":[],"wrong":{"7":[145,189,523,964,1004,1900,2010,2013,2504,2676,2722,2946,3099,3351,3582,3598,3747,4170,4563,4778,4847,5457,5746,6748,7191,7247,7405,8229,8922,9641,9795,9955],"8":[2,5,14,31,37,39,40,57,74,89,94,107,135,137,143,154,168,178,180,190,196,202,203,204,224,228,239,265,267,272,276,279,288,302,314,329,330,332,342,345,348,350,354,357,377,378,385,388,393,409,416,419,427,430,455,473,476,480,489,504,506,529,537,584,615,619,640,647,652,663,672,675,682,695,696,716,725,735,745,749,754,755,767,768,772,777,783,790,798,818,824,826,831,835,836,840,848,850,889,900,907,920,929,948,956,963,967,977,979,984,994,1008,1011,1019,1025,1027,1030,1037,1038,1054,1075,1083,1097,1129,1136,1137,1139,1179,1180,1189,1193,1201,1211,1213,1214,1236,1238,1240,1254,1257,1280,1295,1302,1305,1316,1318,1329,1338,1350,1351,1358,1360,1368,1392,1403,1424,1434,1448,1483,1484,1515,1528,1548,1555,1582,1603,1630,1633,1643,1646,1657,1659,1667,1673,1674,1691,1704,1715,1728,1729,1736,1753,1760,1766,1773,1780,1785,1791,1820,1829,1830,1834,1835,1836,1838,1844,1861,1867,1868,1876,1884,1885,1897,1909,1922,1934,1939,1945,1986,1988,1993,1994,2015,2017,2018,2034,2041,2051,2136,2137,2154,2164,2166,2175,2182,2221,2228,2235,2239,2258,2261,2266,2273,2277,2283,2287,2302,2315,2316,2324,2335,2343,2355,2356,2357,2358,2359,2366,2379,2398,2409,2411,2416,2418,2421,2434,2444,2473,2510,2519,2524,2529,2541,2553,2576,2590,2599,2612,2626,2655,2661,2688,2693,2704,2705,2706,2719,2725,2734,2746,2753,2757,2786,2788,2789,2803,2816,2822,2825,2827,2867,2868,2878,2880,2885,2912,2928,2943,2950,2965,2974,2982,2984,2997,3003,3019,3026,3027,3050,3070,3073,3092,3097,3124,3126,3132,3143,3148,3152,3175,3203,3211,3214,3230,3231,3237,3244,3253,3255,3259,3264,3268,3272,3276,3281,3314,3320,3353,3354,3379,3380,3386,3419,3420,3421,3430,3433,3434,3438,3452,3454,3455,3457,3464,3471,3480,3532,3546,3562,3586,3593,3601,3605,3606,3625,3638,3639,3641,3648,3649,3651,3669,3673,3679,3689,3699,3733,3741,3745,3761,3765,3777,3779,3784,3786,3789,3809,3815,3843,3852,3858,3866,3894,3900,3906,3919,3922,3925,3930,3937,3974,3983,3990,4005,4006,4010,4014,4021,4025,4032,4035,4036,4039,4050,4057,4069,4074,4085,4104,4105,4110,4138,4144,4147,4153,4168,4169,4171,4178,4179,4181,4185,4190,4191,4195,4201,4212,4216,4232,4249,4262,4264,4267,4273,4292,4303,4304,4308,4318,4328,4331,4337,4349,4386,4409,4428,4507,4516,4524,4525,4533,4564,4574,4580,4588,4589,4595,4597,4602,4603,4606,4643,4651,4653,4655,4670,4674,4676,4685,4687,4691,4708,4717,4719,4729,4732,4733,4754,4759,4764,4774,4806,4853,4858,4859,4869,4871,4872,4877,4917,4924,4927,4931,4932,4949,4951,4953,4972,4977,5005,5013,5014,5025,5036,5044,5052,5072,5081,5091,5092,5093,5112,5113,5128,5132,5148,5156,5166,5186,5193,5203,5208,5211,5227,5232,5252,5254,5258,5271,5281,5291,5314,5316,5318,5323,5327,5350,5361,5370,5384,5399,5406,5416,5431,5442,5453,5460,5461,5477,5486,5490,5499,5506,5514,5520,5524,5534,5535,5544,5550,5552,5553,5566,5588,5590,5594,5604,5614,5630,5637,5646,5651,5661,5666,5679,5689,5699,5722,5732,5738,5759,5762,5776,5783,5786,5794,5809,5811,5831,5839,5848,5859,5872,5873,5880,5889,5893,5896,5902,5915,5917,5943,5991,6063,6073,6083,6092,6101,6108,6110,6115,6125,6135,6141,6159,6162,6182,6192,6202,6222,6224,6231,6232,6233,6239,6254,6276,6278,6308,6310,6320,6329,6338,6356,6374,6375,6397,6407,6408,6419,6430,6438,6445,6456,6468,6472,6482,6484,6502,6506,6515,6527,6533,6540,6545,6556,6572,6601,6604,6618,6622,6623,6634,6644,6652,6661,6670,6673,6678,6680,6683,6688,6694,6702,6712,6720,6726,6729,6733,6743,6751,6757,6758,6783,6789,6799,6809,6819,6829,6848,6868,6869,6883,6891,6901,6902,6913,6917,6928,6938,6948,6961,6969,6976,7000,7005,7014,7019,7023,7048,7053,7063,7073,7087,7091,7123,7138,7150,7165,7167,7173,7176,7183,7217,7223,7226,7228,7232,7253,7262,7270,7280,7290,7299,7303,7319,7323,7325,7340,7344,7353,7373,7395,7399,7411,7418,7422,7424,7442,7447,7453,7463,7468,7480,7507,7517,7527,7556,7561,7563,7567,7581,7582,7591,7600,7618,7626,7636,7638,7658,7661,7665,7686,7708,7717,7722,7725,7728,7738,7748,7783,7784,7790,7802,7806,7811,7812,7832,7839,7847,7856,7869,7881,7890,7896,7899,7900,7911,7916,7920,7928,7934,7954,7969,7973,7980,7990,8004,8005,8020,8022,8048,8058,8068,8078,8086,8088,8090,8099,8100,8113,8118,8128,8138,8159,8164,8166,8187,8219,8231,8233,8239,8244,8252,8261,8268,8286,8289,8305,8306,8324,8340,8344,8352,8360,8367,8376,8390,8396,8418,8420,8427,8432,8439,8443,8449,8459,8469,8488,8491,8493,8509,8526,8536,8538,8540,8543,8545,8549,8559,8568,8575,8586,8600,8604,8633,8636,8650,8658,8659,8666,8682,8692,8708,8715,8720,8724,8729,8740,8745,8758,8768,8776,8799,8809,8819,8850,8862,8873,8875,8887,8892,8905,8914,8930,8938,8971,8976,8979,8980,8986,8988,8995,9002,9003,9005,9017,9025,9030,9039,9049,9051,9061,9071,9081,9090,9096,9112,9120,9121,9124,9140,9143,9155,9171,9180,9190,9200,9222,9233,9241,9249,9258,9265,9282,9291,9295,9301,9313,9324,9335,9336,9345,9348,9356,9368,9378,9388,9395,9401,9407,9415,9434,9435,9438,9443,9464,9485,9489,9499,9509,9518,9520,9540,9549,9556,9570,9591,9593,9594,9599,9602,9612,9643,9645,9649,9653,9657,9661,9674,9682,9689,9699,9705,9715,9725,9737,9760,9772,9774,9796,9799,9802,9810,9819,9836,9838,9844,9845,9846,9848,9876,9878,9896,9898,9903,9912,9923,9931,9946,9950,9956,9969,9978,9984,9994],"9":[29,46,96,176,191,251,700,809,918,949,988,1040,1397,1430,1527,1707,2027,2071,2171,2245,2276,2674,2815,2902,3014,3039,3196,3227,3652,3851,4013,4077,4450,4491,4538,4646,4864,4903,4909,4930,4984,5090,5331,5642,5933,5953,5970,5978,5984,5998,6005,6008,6012,6044,6058,6060,6628,7171,7608,7822,7944,8045,8303,8672,9274,9444,9622]}},"2":{"correct":[1,624,945,1174,1245,1604,1817,2439,3047,3106,3250,3258,3435,3681,4038,4100,4103,4180,4189,4713,4889,4941,4997,5392,5595,5615,5629,5716,5895,6106,6217,9145,9309,9351,9359,9703],"wrong":{"7":[43,47,149,172,222,278,291,396,418,629,731,764,868,1053,1155,1207,1345,1352,1432,1451,1485,1609,1689,1722,1795,1811,1891,1965,2200,2254,2412,2488,2741,2752,2780,2784,2802,2918,3035,3048,3071,3105,3128,3274,3682,3696,3731,3817,3844,3876,3899,3912,3913,3921,3933,3963,4115,4206,4250,4279,4289,4367,4415,4517,4615,4625,4632,4876,4899,4950,4962,4985,5105,5250,5308,5367,5390,5605,5636,5641,5931,6311,6330,6340,6357,6423,6480,6554,6574,6607,6721,6732,6744,6785,6939,7184,7192,7212,7235,7249,7266,7469,7472,7497,7635,7678,7685,7857,7886,7894,7917,7945,7955,7994,8025,8036,8047,8129,8165,8198,8253,8450,8460,8560,8569,8714,8844,8889,9043,9266,9318,9510,9535,9547,9595,9597,9700,9798,9904,9971],"8":[35,38,72,77,82,106,119,147,186,199,221,225,236,244,256,258,285,293,303,318,321,331,362,363,371,387,390,400,404,421,423,444,452,456,467,477,492,503,513,536,539,583,609,612,613,632,633,635,643,653,659,690,715,728,738,741,744,775,796,799,816,823,828,830,837,858,867,875,888,892,905,919,922,924,926,939,974,975,985,990,1002,1016,1031,1036,1049,1050,1056,1064,1065,1076,1132,1177,1184,1187,1227,1237,1256,1262,1269,1303,1335,1336,1349,1356,1365,1372,1374,1375,1381,1395,1402,1409,1410,1431,1446,1459,1506,1514,1518,1546,1551,1574,1620,1642,1644,1654,1656,1658,1678,1682,1696,1711,1749,1771,1802,1824,1839,1842,1863,1871,1890,1915,1930,1932,1936,1947,1957,1991,2044,2055,2058,2082,2085,2092,2101,2108,2110,2122,2133,2138,2186,2191,2198,2242,2248,2253,2260,2269,2296,2299,2311,2327,2350,2353,2354,2374,2390,2391,2397,2415,2429,2433,2437,2459,2462,2475,2481,2495,2496,2500,2572,2610,2625,2635,2652,2662,2726,2787,2838,2848,2861,2864,2891,2910,2940,2959,2971,2977,2981,3021,3037,3057,3081,3089,3116,3134,3151,3176,3180,3201,3229,3239,3256,3257,3260,3280,3301,3318,3327,3330,3337,3367,3375,3396,3415,3436,3474,3482,3489,3508,3510,3511,3513,3514,3522,3547,3578,3599,3600,3611,3628,3655,3658,3694,3729,3772,3785,3796,3811,3823,3832,3839,3862,3904,3909,3932,3946,3958,3986,4055,4066,4098,4113,4114,4127,4133,4149,4156,4161,4167,4176,4187,4204,4205,4247,4248,4260,4274,4275,4296,4326,4339,4341,4345,4350,4354,4384,4385,4387,4402,4418,4427,4451,4456,4482,4503,4504,4506,4510,4521,4546,4549,4559,4562,4573,4594,4636,4656,4666,4710,4716,4723,4734,4805,4812,4816,4878,4905,4939,4943,4944,4954,4964,4969,4981,4995,5018,5024,5037,5045,5053,5086,5089,5095,5099,5119,5120,5125,5127,5157,5192,5217,5264,5338,5407,5417,5427,5455,5487,5502,5536,5541,5545,5557,5562,5643,5692,5717,5723,5739,5748,5799,5820,5823,5840,5849,5863,5879,5883,5907,5921,5924,5934,5944,5954,5983,6010,6014,6027,6035,6036,6051,6052,6057,6074,6084,6093,6109,6111,6118,6132,6156,6180,6183,6193,6203,6225,6234,6240,6246,6266,6274,6279,6281,6305,6321,6391,6418,6431,6439,6446,6462,6466,6469,6497,6499,6513,6519,6521,6534,6566,6581,6584,6594,6614,6616,6635,6677,6698,6703,6713,6754,6773,6796,6797,6810,6820,6828,6831,6844,6849,6912,6920,6929,6949,6989,6993,7001,7002,7007,7012,7015,7022,7054,7064,7074,7093,7100,7115,7120,7135,7147,7151,7154,7156,7163,7205,7229,7237,7245,7271,7291,7321,7345,7349,7359,7400,7406,7412,7420,7457,7482,7483,7486,7492,7508,7518,7528,7539,7564,7570,7572,7575,7587,7604,7609,7619,7627,7637,7683,7687,7710,7729,7739,7749,7762,7772,7773,7785,7789,7815,7840,7848,7876,7909,7922,7930,7935,7986,8019,8031,8059,8091,8094,8102,8108,8112,8119,8139,8161,8168,8225,8238,8245,8262,8292,8295,8310,8315,8318,8320,8323,8345,8353,8361,8365,8381,8394,8409,8424,8482,8492,8521,8550,8584,8592,8602,8615,8625,8639,8646,8648,8673,8693,8707,8712,8719,8746,8793,8800,8810,8830,8870,8880,8907,8908,8915,8923,8936,8943,8973,9006,9010,9018,9032,9046,9062,9072,9111,9118,9123,9129,9131,9135,9154,9168,9181,9191,9201,9209,9215,9225,9246,9259,9303,9304,9341,9346,9369,9379,9389,9417,9421,9442,9456,9470,9476,9477,9480,9487,9490,9500,9521,9569,9577,9578,9603,9613,9623,9664,9686,9696,9706,9716,9726,9751,9752,9768,9779,9803,9811,9820,9832,9839,9847,9849,9855,9867,9874,9880,9893,9913,9933,9937,9954,9980,9985,9995],"9":[174,208,237,249,280,298,306,326,512,516,547,549,646,863,873,891,921,980,995,996,1138,1210,1224,1251,1337,1341,1348,1407,1412,1462,1538,1585,1790,1895,1927,1984,2098,2112,2126,2157,2158,2176,2184,2396,2432,2446,2491,2503,2517,2596,2602,2621,2664,2669,2679,2699,2729,2904,3004,3142,3195,3207,3212,3223,3267,3293,3339,3355,3384,3566,3577,3661,3668,3675,3703,3773,3775,3802,3945,4135,4173,4342,4401,4442,4445,4476,4582,4668,4684,4705,4709,4725,4775,4801,4848,4870,4920,4961,4965,5149,5167,5189,5216,5266,5267,5272,5282,5292,5340,5366,5381,5385,5436,5449,5475,5494,5507,5515,5521,5626,5634,5667,5733,5761,5763,5767,5772,5785,5829,6041,6064,6123,6337,6345,6352,6384,6412,6528,6541,6562,6645,6800,6836,6878,6885,6906,7013,7281,7308,7327,7328,7348,7364,7386,7716,7724,7781,7794,7977,7992,8069,8079,8153,8174,8208,8438,8470,8495,8498,8532,8544,8594,8612,8683,8704,8721,8794,8820,8838,8902,8950,8966,8969,9048,9082,9097,9446,9635]}},"3":{"correct":[],"wrong":{"2":[63,819,4928,6821,6907,7024,9727,9889],"7":[195,231,369,453,683,815,927,1109,1150,1208,1310,1472,1503,1513,1591,1617,1681,1828,2174,2305,2424,2431,2634,2712,2989,3094,3108,3432,3448,3527,3528,3701,4109,4437,4586,4714,4740,4808,5067,5078,5140,5329,5330,5336,5346,5358,5359,5616,5892,5925,6299,6331,6563,6790,7211,7849,7875,8451,8461,8494,8533,8766,8785,8821,8867,9308,9332,9363,9365,9474,9655,9804,9812,9821,9965],"8":[18,30,32,44,51,68,76,87,90,93,112,142,158,173,200,205,213,216,245,270,309,310,313,334,335,343,349,381,382,402,408,437,442,449,450,451,464,493,500,505,507,515,524,526,528,548,569,573,574,576,577,578,590,595,614,628,637,648,657,669,677,686,687,699,727,734,747,753,780,782,792,795,801,807,808,811,847,849,855,865,883,887,890,894,912,923,925,933,938,944,957,958,976,982,991,1020,1028,1042,1062,1066,1067,1069,1072,1092,1095,1098,1114,1127,1128,1134,1166,1172,1204,1205,1215,1239,1265,1278,1284,1290,1291,1298,1315,1317,1354,1367,1384,1426,1442,1463,1479,1480,1489,1490,1495,1519,1531,1539,1586,1588,1600,1601,1605,1607,1608,1612,1615,1628,1661,1683,1690,1727,1730,1731,1738,1742,1746,1763,1765,1769,1779,1789,1797,1798,1803,1804,1832,1837,1840,1845,1856,1889,1913,1923,1926,1928,1953,1962,1976,1983,1997,2008,2011,2020,2025,2031,2032,2045,2069,2072,2075,2076,2080,2083,2086,2105,2128,2139,2151,2153,2222,2229,2230,2255,2280,2281,2284,2300,2303,2308,2312,2347,2348,2364,2392,2405,2408,2427,2441,2450,2453,2501,2502,2511,2522,2533,2534,2549,2551,2555,2560,2566,2575,2583,2587,2594,2618,2623,2624,2629,2632,2639,2647,2663,2684,2690,2716,2723,2731,2745,2756,2767,2770,2776,2785,2799,2807,2840,2853,2865,2871,2881,2884,2893,2906,2914,2921,2924,2927,2931,2952,2953,2955,2978,2991,2992,3010,3015,3045,3074,3078,3080,3082,3083,3085,3104,3110,3120,3129,3131,3138,3146,3150,3167,3177,3193,3217,3221,3248,3261,3283,3285,3290,3299,3300,3326,3363,3381,3390,3407,3409,3443,3449,3456,3469,3475,3476,3484,3486,3487,3493,3515,3531,3548,3549,3579,3620,3630,3642,3659,3670,3686,3715,3717,3739,3740,3742,3746,3766,3769,3787,3795,3812,3824,3825,3834,3896,3897,3910,3916,3943,3944,3947,3953,3965,3977,3995,4002,4004,4018,4026,4044,4084,4087,4097,4106,4120,4128,4162,4164,4220,4222,4234,4242,4244,4270,4276,4277,4288,4306,4311,4317,4334,4335,4352,4366,4393,4397,4406,4430,4435,4443,4469,4492,4494,4509,4526,4528,4532,4535,4537,4541,4552,4581,4600,4605,4621,4635,4638,4647,4657,4664,4688,4703,4727,4755,4758,4770,4782,4785,4796,4802,4818,4833,4836,4841,4854,4873,4885,4894,4904,4907,4925,4940,4973,4983,4990,4996,5000,5019,5028,5038,5046,5054,5062,5074,5143,5146,5150,5158,5168,5181,5185,5212,5214,5215,5224,5225,5237,5245,5248,5273,5283,5293,5309,5328,5356,5382,5418,5446,5454,5468,5472,5479,5492,5508,5516,5538,5542,5555,5573,5583,5585,5596,5606,5623,5625,5628,5635,5638,5674,5687,5700,5703,5708,5724,5740,5747,5760,5764,5766,5796,5804,5814,5815,5824,5841,5850,5860,5878,5882,5904,5935,5945,5955,5973,6009,6011,6023,6030,6034,6045,6046,6059,6061,6065,6075,6085,6096,6103,6107,6116,6139,6151,6160,6174,6177,6184,6194,6204,6213,6226,6255,6260,6272,6289,6290,6312,6349,6365,6370,6371,6379,6381,6382,6389,6413,6421,6432,6440,6447,6453,6455,6481,6494,6501,6504,6511,6517,6535,6542,6551,6564,6569,6570,6575,6593,6624,6636,6646,6664,6665,6676,6690,6704,6714,6722,6727,6736,6739,6745,6763,6767,6794,6801,6811,6840,6857,6862,6863,6873,6875,6876,6882,6918,6930,6940,6950,6957,6975,6982,6985,7006,7010,7026,7040,7055,7065,7075,7097,7103,7104,7117,7119,7130,7131,7140,7157,7170,7185,7193,7207,7214,7215,7222,7233,7248,7250,7252,7257,7272,7282,7292,7311,7312,7326,7329,7333,7350,7365,7374,7396,7398,7401,7407,7431,7435,7436,7458,7470,7476,7479,7484,7501,7509,7519,7529,7543,7551,7554,7568,7590,7595,7610,7620,7628,7639,7644,7656,7674,7675,7690,7692,7714,7719,7730,7740,7750,7763,7771,7798,7804,7829,7831,7841,7858,7893,7905,7932,7936,7946,7956,7968,7981,7983,7993,7995,8010,8014,8026,8032,8060,8070,8080,8087,8115,8120,8130,8140,8154,8156,8162,8167,8171,8186,8201,8206,8215,8226,8246,8254,8263,8271,8272,8277,8290,8293,8296,8308,8337,8346,8354,8362,8370,8379,8393,8397,8407,8411,8419,8429,8430,8435,8471,8483,8485,8489,8508,8518,8551,8561,8570,8581,8597,8598,8607,8624,8655,8660,8674,8684,8694,8701,8703,8706,8713,8716,8753,8777,8780,8801,8811,8840,8842,8854,8856,8860,8864,8876,8903,8910,8916,8924,8939,8946,8952,8957,8970,8972,8975,8981,9007,9011,9022,9056,9059,9063,9073,9083,9100,9106,9115,9125,9157,9163,9175,9177,9182,9192,9202,9217,9219,9227,9229,9231,9235,9238,9261,9275,9283,9305,9370,9380,9390,9409,9429,9430,9431,9445,9460,9468,9479,9491,9501,9511,9524,9536,9548,9558,9559,9561,9579,9581,9582,9604,9614,9624,9636,9654,9656,9662,9670,9680,9697,9707,9717,9750,9758,9762,9787,9790,9797,9828,9840,9860,9881,9882,9905,9914,9925,9942,9943,9944,9975,9986,9996],"9":[230,323,531,1383,1469,1611,2109,2288,2351,2681,2813,2945,2985,3049,3738,3962,3975,4256,4501,4613,4630,5408,5504,5734,5780,5912,6285,6322,6465,6681,6973,7800,7821,8050,8328,8603,9027,9156,9342,9742,9872]}},"4":{"correct":[],"wrong":{"7":[4,24,27,33,48,49,67,103,117,121,159,163,166,169,170,247,248,275,287,399,420,432,447,532,533,535,541,544,555,571,622,660,697,712,722,736,748,752,765,770,789,802,803,838,881,902,910,916,968,971,1057,1059,1077,1078,1111,1145,1158,1160,1178,1253,1263,1270,1279,1300,1314,1357,1382,1422,1427,1440,1461,1465,1488,1516,1529,1549,1552,1557,1561,1575,1625,1636,1652,1665,1679,1706,1724,1735,1751,1767,1778,1815,1849,1862,1920,1929,1956,1958,1985,2005,2124,2145,2148,2165,2183,2206,2249,2251,2256,2330,2336,2338,2340,2368,2373,2375,2394,2401,2404,2436,2440,2489,2499,2509,2530,2630,2675,2680,2709,2771,2806,2828,2835,2836,2847,2889,2900,2907,2936,2963,2998,3025,3066,3069,3123,3169,3174,3188,3228,3232,3234,3247,3278,3282,3288,3291,3341,3357,3377,3397,3410,3437,3444,3465,3495,3497,3500,3517,3523,3533,3541,3542,3543,3544,3561,3568,3596,3610,3653,3672,3676,3684,3685,3722,3752,3758,3770,3780,3793,3819,3865,3915,3938,3941,3996,3998,4001,4042,4046,4060,4071,4197,4221,4229,4265,4291,4313,4332,4379,4414,4421,4458,4465,4475,4483,4490,4544,