{"snapshots":{"0":{"biases":[[[-0.46859319581265396],[2.088080250679302],[-0.36803544932771554],[1.4841861491327266],[-0.8154278287620967],[-0.49198597565998536],[1.5832759115322816],[1.3507209215491693],[0.24241317880273794],[-1.3122208566575462],[0.34668580173260444],[1.048065451124366],[-1.475036714724298],[-1.9695050572599004],[1.0365273813314522],[-1.0970286160632083],[-0.08693438355998594],[0.78789839332248],[-0.49392644602045954],[-0.6613002323427832]],[[-0.7190450120896842],[2.067080304156854],[-0.6395417609811103],[0.23695144122864553],[-0.3035919604104627],[-0.12131670474974049],[0.8231564018807639],[0.49804263049381914],[1.4081477756638816],[-0.6978152238205588]]],"weights":[[[-0.5727130814019156,1.2432452371252314,0.05057105197754445,-1.3425243240814517,0.15099347262559684,-0.07692344479922651,-0.11204908103906325,-0.8508976782803948,-0.27456820116831054,0.9340764577803282,-0.8486944421860909,-0.050233913346946386,-1.1766460070153146,-0.2600858197202015,-0.5318751131697091,2.3363679627815874,-2.4215062075806726,0.26322400223215825,-0.4257142092809357,-0.04189709288915861,0.003737552691664373,-1.1168830307101436,-0.3367393614608635,1.0105359536687741,-1.7027453301630335,-0.6316295965062446,-1.1736894945322223,-1.1965565862495946,-0.011478586139547796,1.0386045633734404,0.07441583171067202,-0.8244159689936232,-0.24294875587923562,0.02053340291222768,0.6847906585911226,0.7251670444293254,0.009701652331878502,-0.7465795405090565,0.022140270512881935,-0.9916247173056613,-0.006795223257229044,-0.5478729167876383,-0.2956801948613154,1.3755653022616559,-0.5038900970771031,0.37062841494414733,0.3909343400568761,1.2936023776639913,-1.5064051614075553,2.05779225101337,-0.7353334120298429,1.4591501401411273,1.0640752891939336,0.14166660594418443,-1.2498285226337238,-0.14653216599208232,-1.7057001458212973,-0.3818610044925898,-1.6368816271558937,-0.6685391912718462,0.15305886282216874,-0.11458402416067223,-0.010505129248662735,-0.49267854674136546,-0.17748341610345544,0.06471442055449986,0.1764570193682006,-0.4435301687629274,0.2668192682184282,-1.1914249748092156,0.8070462751131662,0.22700114742287614,0.7934928642880229,1.2141714673038575,0.7361023296488489,0.5915738458604963,0.9983174429186183,0.9378296221786084,-0.7258793183735194,-2.1059009604547305,1.496741123735904,-2.4093675476642837,-2.1195809589314427,-0.224242693845278,-0.9376391058211491,-0.9068686132507706,-2.455728537119041,-1.248344149277308,-0.7761433437583821,-1.914448219910346,-1.2142812433126575,1.9897194522303996,0.34152530370123774,-0.43361867008905014,-1.8976953584336764,0.6263994141497005,-0.46237672011945674,-0.338261487247324,-0.7542649600175982,-1.3647213490794967,0.8672623826320405,-1.5197270821650912,-1.0996032067854833,-0.500783335348368,1.3143590330274653,0.9714633295004709,-0.35677805116426503,0.1426390832426226,-0.2545755461811252,0.3159377000557097,0.7554369001744754,2.1643841158547645,1.116938197175558,-0.8699042729077866,0.48128586266424644,0.6459370619584054,0.3556609938280006,1.3981993227424492,-1.248075153624353,-2.1325407705790718,0.3486491479222729,0.014198298696116005,0.4687490818777607,0.781064255583559,1.0891453358027299,-1.3812884039511164,0.8251050978545108,1.1000096253206304,-1.874413978816583,-0.4620739627036616,0.22000246902782625,-0.059178540355034996,0.8740833467955147,-0.8616439267281443,-0.008224411680960981,-1.9969487454581714,-2.500772047029682,-1.2190510920857651,0.0991816336424,-1.1872765869707602,-0.4447109255672853,0.7753526541606774,-1.153822765326758,0.7105834056258727,2.822065277580689,-0.06088535163144832,-0.465852976728208,-2.1852893821510997,-0.6433921387166627,0.14464154386067898,-0.018116823788305706,0.10432322668704684,-1.1994977025119486,-0.5005291201134645,1.3031922241119032,0.9533150722716388,0.7717153011497188,1.326882248406017,0.6270109849771001,-0.3040763305619094,-0.6534560702660697,0.5419282011398634,-0.3840142686274818,0.1411769306570526,-0.9532942731585765,0.03807145414303838,-0.36996751281895895,-1.394527505301371,0.42900687255560777,1.2229350206820244,0.16659552059587854,0.05198517945825585,-0.45476435631428597,0.114725489610123,1.0251345475140172,-1.6100967819112388,1.2447101355996582,-1.016424548333264,-0.7633843129761263,0.7535092058971392,0.6699519041236983,0.09683086260225886,1.2448897011613507,-0.11476048742233828,1.9226008352482105,-0.3840637667696251,0.03106001581267627,-1.7138356667259376,1.1692230327590616,0.8610758169054304,0.35784375607354063,0.45763079119951466,-0.6548441209530703,-0.1609742015032971,-1.2341415770610686,-0.03991969386215248,0.2148281724311379,-0.1982491102381811,0.39757645491263827,-0.996824328940926,-3.263872207601146,1.3257314848048627,0.3798665408331656,1.7725698488335626,-1.4531839336783723,-0.6592631241258903,-2.0616199523510694,-1.4395793922586226,0.2011310862407444,-0.7226142079939973,1.4675845094686886,0.2621633212811329,-1.3784874891321361,2.6091929172107373,0.7160236165415844,-1.4777958550649049,1.7463645621382213,0.28900424535451325,0.43969029692988404,-1.4386950775488594,-0.31509470909948745,-0.08081029115706792,0.6962385456863958,0.2695062873989683,-1.5151832374986463,0.6884834749485541,0.5105454575988749,-0.2575365860718727,0.607386028166957,1.048692924178434,1.7117779870621028,-0.1520749465797409,0.8127501890371122,-0.28330911867075936,-0.36308974818138884,1.0566902267062868,1.6259187674231634,0.760632832958499,-0.14131706486072748,0.3895826547128141,-0.005262172218479515,-0.2509262605374646,-0.3755877789581993,-0.09571646356172499,1.3680507488059146,0.6446002618444707,-0.6415891043471101,-0.6731079104132174,1.4037336129196312,-0.6281968209517539,-0.47158717213549906,-0.9081267586844546,1.040017731056723,1.0973885246933799,-1.3047439826582352,-0.8518911244456352,-0.9650335847757594,-0.21365751028939764,-0.3566225856105418,1.281379228410318,0.5845219612425077,-1.7662272135957304,0.1772321837036818,-2.184421044183808,1.2426832484231711,0.7599825823051476,-1.8815739951910644,0.6320209432492633,-1.9926084846587013,-1.2179445027059455,0.21365742789779504,1.0424340463613406,0.5244051323210613,-0.4327717112885718,-1.5122235727985223,-0.9028034955515889,0.1706054131373274,0.020072651797238276,1.4285038386807956,0.8595286775723797,-0.8004518263531002,1.2411936274102398,-0.012631117745756634,-1.045217292434741,-0.3605351701252355,1.1417501034718127,-1.3983209071085523,-0.7534009365403398,-1.7081841646994778,-0.7989838045994698,-1.8584661799157451,0.7491006870907511,-0.5658952918124598,-0.2561485237289361,-0.47545521611420294,1.043936684226222,-0.36688605967803817,-0.24460583978981965,-0.3687754538397496,-1.1612132711975345,2.248154282042211,0.3670169483417171,0.7226985526287838,0.31696469254917925,0.9583331151092185,-0.2641972958720832,0.6863002228607515,1.3530261319559977,-0.9804686835173985,-0.8573172227207948,-0.15313165467455084,0.018543661770303106,1.29059984753125,-0.41843450507074065,-0.9333487187154185,0.8651323030482393,1.2779796747685943,0.7821869403537258,1.0886650278698295,-0.6553443595058068,0.08647684000378762,-1.0568162231836566,0.5190685411206438,1.3132074199097274,-0.7789763843034583,0.29022686972640943,0.3746451439174614,0.657825520005131,-0.7435815098773844,-0.40440966895897706,-1.7981402666218471,-1.581770364838215,0.1401689999661288,-1.9139222169183094,0.04419018375414337,1.6019083626791528,-0.5081593462136398,0.0840397066994756,-0.7438293371991274,1.7041412694348912,-1.0032069468626574,-0.4192015337629901,-0.9894610673214016,-1.6871532532957307,1.0606577610880998,-0.5954986924050901,-2.4222455776168355,-0.12489333302730751,-0.4500837392038829,1.0668598439298451,-0.7191783232167457,-0.9258657676833769,0.18973021388729233,-0.7885165160395828,-0.07512684358783991,-0.20569521273295815,-0.7575519845461938,-0.5617128208679287,0.41454393347721674,-0.44234369714646204,0.7143137103841707,-1.139273364073694,0.34432898045209837,0.0016243817003987293,0.030400431233604627,0.379588411869572,-0.4337231750929358,0.7807611343510752,1.3152790678223116,-1.1290559712003219,1.362787148420753,-0.5583808212335029,1.2135719186024119,-1.9720865663710323,1.8478389729222482,0.20561728684864317,-1.6132877888722525,-0.7718012380623662,-1.278867522309322,-0.09822212088666975,-0.051971545012874557,0.09147046341571058,-0.31705686569836156,-1.027091800983178,-0.6175119976975899,0.7958403315569187,0.11428418667979351,-0.5120818023017496,2.3102470819282597,-1.2500770459503279,2.173267906294632,-0.9556865112329498,1.3374374711991779,0.006128224800217372,0.5303996108696464,1.1700778246981485,0.5227205804172436,0.4647162001175344,-1.8988575049112921,-0.7680889760757743,0.8685194744944388,-0.9685102215061212,1.2049698965718028,-0.12547271594731052,-1.1885354083426627,0.22902989208144978,-0.0438644987140277,1.5581110819074493,-0.49278620558569536,-0.0129162120075886,1.5008764255626528,0.7975439762283258,1.2729526087119942,0.6766162388746635,0.6795833300605523,0.9976621470629393,-0.28818933991019435,0.21870693889233228,-0.2674118884236501,-0.4931877773120274,0.3156902926608163,1.4180212626752016,-0.2257685348455321,0.17193366645611088,-0.9456513820547338,0.7211881111903234,-0.5924548211903311,-2.5243231911874537,2.0166288071297336,-0.45158380031845297,-0.10373425476239047,0.8145762180789129,-0.654845552227871,1.2420771417077459,-0.8527472165639982,-1.0554093475525217,0.023770083317967924,-0.1729568985717143,0.217621472732035,-0.36444281545789653,0.3202147073985336,0.10667073254762131,-0.250516547496539,-0.5376526501219413,-0.5224041048051393,-1.2606451531632397,0.6074210070515081,2.4230628931913873,-0.9141292895554046,-1.4304409724806026,1.2244928602531695,-0.1615529269672397,0.734099917642922,-1.04518989565078,-0.04021930298345744,2.111519881777966,-1.596998846989735,-1.9159809503205143,-1.2005384639288168,-0.08345712658494106,0.07182760428806229,0.8806157798145535,-0.5574216493015236,-0.6766560135957691,-0.9242861896242767,-0.27426005898553696,-1.0087957348302945,0.6252280513971099,-1.2636118476726483,-1.7879325071295042,1.3753643710986363,1.2605584639892577,0.998023700113418,-1.6243301182267398,-0.3736273987262634,1.4996644100402396,-1.073365522482346,-1.4856192049111512,1.3591414810241091,-0.33197488617756304,0.3810296896412768,-0.5847695793305732,0.6805332770224117,0.8417643508304116,-0.12084082148500179,-0.7549466992301894,1.90528938741938,0.028692643855885793,0.6973602758186911,-0.05394619985582975,0.7283424041296994,0.5483741514436653,-0.7714770454330293,0.30525861317343433,-2.536140700870851,1.6366905718770084,-0.639866658856811,-0.3371716608577618,-0.4519816273944642,1.1574446847386628,-0.058102090250560345,1.2693569260947215,-2.64256625284952,-1.1739118877961883,0.2728975808373408,-1.4161404356669538,-0.24813615486834809,-0.28706741321475276,1.6147291896746028,-1.1089510371177116,-0.5100910318710316,-1.2588026206776133,0.606032215172989,-0.26930701058384626,-1.4818195647148553,1.026657798893349,-1.1868411451746894,-1.172900699618811,0.6213110293248322,-0.1818418175162138,0.233393718163336,-0.2651742913837152,-0.4773617033589999,-0.4813801855624339,0.4726511299582589,1.3749092348511385,0.35011789391155285,-2.2397816606670746,-0.6054196491337465,-1.3361142194905598,0.27858155603181955,0.2893146284706103,-1.6937792059921672,1.387077632159042,-2.8173215002012992,-0.16766646487360648,0.725904839112444,0.02471290288095671,-0.337427047206291,0.12560539431535966,-0.12255421361931781,-0.9111175339183675,-0.5448243754137472,-0.12281865070672766,-0.24822607035857805,0.03875307289970579,-0.9422958247112865,0.39439882714369995,-0.2654272792350282,0.6054120995407787,1.375293076787866,-0.1505116735753619,-1.1024976243800457,0.6596403598074986,-0.1147457048646647,-1.418751657084999,-1.9061088690220898,-0.019775707705599714,-0.3610770041330716,-0.2640528711169446,-0.4794398949541369,0.7840241595219991,0.3703832455604764,-0.39843911260875636,-1.253987723460726,-0.10814495638787845,0.851389279199441,-1.0447829503666146,-1.0812377882654516,-1.0518008630111035,0.7748778736186908,0.23328696066512758,-0.17321111031454625,0.7585144889901504,0.0778564063991005,1.2648126391470518,1.709380703183916,-0.608418141910935,1.5508168230621306,-0.3419836216818723,0.43762396888009436,1.3096290810397453,2.387550855858638,-2.176192282656702,0.7662011896283265,-0.22720218495545574,0.13977091105549427,-0.9944512629654516,-0.2685210826406261,-0.490595193317006,0.8323549102424967,-1.1920912872324525,0.19445906764834828,0.6758292705605926,0.5575180884293349,0.18367303769691437,-0.8743285397780438,0.26983277163080593,-1.1131235310519356,1.6025064643930276,-1.512010725849039,-0.7979039030582257,0.5970112487138525,-0.4425515047193329,1.1441081925104517,-0.48667914099770765,-1.0437827313120174,1.1328866194867233,-1.5053726330965862,-0.5684616662081744,0.802090494388298,-0.003638816988074258,-1.9539390825827256,0.3229109101724441,-1.25184430919488,-1.8455884853636395,-0.5903604574036361,-0.46296631418517986,-0.8006504746365364,-0.13017911987870523,-1.3818914366855573,-2.261056030392879,-0.032509376835506365,-1.1396945406609662,0.4319149682991528,-0.09451845490974872,0.37839969064428297,-0.09480162772302067,0.36996735204672265,0.1348667937511051,-1.1249375767359946,0.11602797166831112,0.8034367639110133,-1.634576711130228,0.9500874504630702,-0.27578114283904415,0.0873482069549792,-0.36740014294764944,0.5333051699003334,-0.6202059169731852,0.12816428461086166,-0.9781478247009572,0.12608499828332834,-0.1284473775066816,2.082828809368625,-0.6793023607792199,0.6089240774970229,-0.6874825014797163,-0.10037245662113932,1.5581436514395772,0.7140230489571071,-0.39889237383574383,-0.1887013090198682,0.7572172486940594,0.33653141872640974,-0.07711504213206821,0.35331750991449173,1.4399660460360846,-0.605073142728708,2.8050825410747144,0.22590230528337385,-0.8328728230424474,-1.2962930249959785,0.8621605025127389,0.6431177404956393,-0.8649700716544921,-1.4466632866644722,0.32143069138788477,-0.2758069613762656,-0.9128819655550899,-1.5838408320486563,0.019242538061338448,-0.24637878268172822,0.8684129912317858,-0.5181598366208896,-0.1911875842291918,-0.5561470854796139,-0.7970208784806688,1.2098974635953879,0.1902438298268641,1.9836439055295894,-1.4807167217265436,-0.20575367046426718,-2.8152175168503737,-2.2905981435929776,0.8416220424071644,0.2681496269699188,-0.7052268874384054,-0.12669521205477727,0.9723843501419882,-1.3130176897866954,1.2236665772115674,0.9072257918757323,0.4334428882681369,0.05627564968063869,-0.7731711872423003,-0.7078273756001472,-0.041640644792802536,-0.6248992504500712,-0.36085546520503514,0.49338432141359895,-0.17642295272888273,1.8819751752519636,-0.8965342968432737,1.7556877963053739,0.19095656337228573,0.02313862157017327,-0.19973021588869935,-0.8986946332171759,-0.0062242149390042524,0.41108528322504473,0.4891749066306612,0.4115879233216181,-0.31915600217763374,0.4028241114432069,-0.10558840211449365,-1.8748510389400006,-1.9208780924387476,0.6495098078061613,-0.38594876486897467,-1.26894926263612,2.846926002340017,0.9518893928778807,-0.18010861832316974,0.31050804594752224,-0.5153223276659017,0.12678475593762406,2.646535723809719,-0.40488542938981514,-0.17633356414681955,2.4597623690013055,-2.2720458757495887,-0.34892679137360444,-0.6304723550735074,2.0450734027169055,0.21157734471706524,0.21825025669619727,-0.7443619732587797,-0.6631370706799415,2.152811411724813,1.1902262916562807,0.5382933391413641,1.2842659153364604,-0.288141305887867,-0.9481863006547183,-0.1725178236452303,-0.20049662326138312,-1.565053734907313,-1.4538648762193374,-1.0586863009270981,0.7579648913926722,-1.349919186152797,0.05647709538156701,-2.0839005747098747,-0.11677316765125884,-0.23596032042595533,-0.42924231260451234,0.32729833133431296,-1.1804824799766263,-1.7825459828977108,-0.20013864563256523,-0.06646852603230317,0.5481970153633765,-2.01943129811901,0.1355572235451213,-0.6156814730411918,-0.33063591990394436,1.5373700777438892,0.5973549613312356,-0.8331457432172329,-0.3746068345506053,1.0357476113566837,1.04302233303141,-0.5299264869180972,0.40284412695558286,0.04988438352997975,-1.4000586997790292,-1.0665735325930943,1.0926588719560293,-1.192874162436853,-0.3278693071682326,0.35330952279479666,-0.5147723651597795,1.2435832232711246],[0.9780368650393086,0.5796851970036002,-0.11782916767456174,-1.4373026562421507,0.781805363024422,-0.01516631404680993,-0.2440365241338209,0.24294900738529443,-0.20465654385011278,-1.6825020552748768,1.166039326962464,-0.21675000075343837,0.1553193236689368,-1.7635399779589194,0.7114199362361746,0.3301665230207961,-0.42030406341734844,-0.8225714370386169,-0.6053360110202176,-0.6746274615046495,-0.7674728075973508,0.9305161938455675,-0.05023031851824736,0.04811664629517648,-2.2875938505895173,0.7551223207057493,-1.269480881659876,1.0869763069255192,0.6717962533992232,1.6102628682606497,-2.2747525007022262,-0.5993283106746822,1.075612865249832,1.2604464507446653,-0.6113082062928566,0.16135628911011118,0.9891569949152357,0.5388676255937386,-0.1354503444479662,0.5964403962199526,-1.453568466271276,-0.22010938295180169,0.0022064934971286663,-0.5699700988249198,-0.9170653354817374,-1.2320881620798432,-1.1607985881659664,0.9362806983610592,1.5880423426690449,-1.4253067684848102,0.40980842982408855,0.8628261596532968,-0.05309233055371944,-0.7062791269106627,0.5827725423493696,-0.2653006092292181,1.0287326962194343,-1.6381252582019679,-1.1718786178939953,0.19457239607101842,0.047575820794936524,-1.980429745457598,-0.32050776648913804,0.3211104037698154,-0.35313728825606566,0.6758178769574558,-0.770399671700488,0.04109623261644007,1.1486744077914564,0.587566058153831,0.8921448328147609,-0.016668685260392477,-0.3525749599420579,-0.3053429943857324,0.013279849612465604,0.727624033729698,0.9468447421711343,1.0988404086868588,-0.8488260098120395,0.41990718604308996,-1.2072305634438683,1.7694245196971607,0.5762216047128481,-0.7806136610098925,0.2340165387261563,-0.2058108754073362,-0.5726844640685786,0.690341051050519,-0.6966263982419308,-0.022785607748325977,0.6485264354656122,-0.17735782495721025,0.6328218139531729,-0.3104387658070863,-1.8959487163194637,0.8339442906698203,0.33377943785201913,0.7814739092056951,-0.14194979757803908,0.27344510654032583,-1.0096831609605155,-1.4501739764747346,1.1802207684414823,-1.1990343885924644,0.7643438331928417,-0.37133510777891854,0.08915659465629885,2.371889965874061,-0.8960273572577664,1.061252960579551,1.6328922222808497,-2.1296381293741176,-1.6732227695624724,0.15136852769690237,-1.3887495407322898,0.10618667331428569,-0.43765398118904436,0.44391153797271754,-0.1379415386294843,0.43161825912290364,-0.14008276578267892,-0.28695920160879856,0.684740425358562,-1.5404769181605917,-0.4333745902426263,-0.310622415454848,-0.2755518838131537,1.9020353261849994,-0.45240422982300865,-1.0037235492784295,0.32483604583554143,-0.15454517857285305,-0.3892713411970102,-1.4598019944507798,0.49246869822644407,0.13787117214361708,0.40710377440560286,1.5045691496097557,0.5956057593566075,1.0088894005920017,-1.6529119751325392,0.6083435846491916,0.5992726700363744,0.897895407778948,-1.4049783462462981,-0.27930164102734506,-0.7208211358540326,2.2654986779228956,0.6800255194952334,-0.7313415928176216,-0.6875537317014878,-0.8998878130432513,-0.05747887744427823,-1.3057426666568208,-1.3601671967052682,-0.3734774690606534,-0.2136834177317192,0.3871853520351228,0.5195018630359538,0.004525433725290661,-0.13250439353534946,-0.973002484861333,-0.9075709104916733,-0.5125549064568421,-0.7786465846791935,0.05986688860545903,-2.5369410603774183,0.13185158899262553,0.6791715609341769,-0.05462097178615801,0.5488653694621565,-0.6677080030300612,-0.0009638886251656856,0.963780516554867,0.853806448126557,-0.549518793446944,0.23468829401809857,-0.3566211168778945,1.28471572331704,-0.15117676822908274,0.2357663002842382,0.6166874184457475,-1.6772653663497383,0.6237019844035105,0.726854918568132,-0.38063362862024247,0.8517705167351663,0.5466611387954937,-0.23312809601911005,0.533079781956383,-1.401808550044418,2.0066114014169654,-0.07355344196779172,0.8932742580312336,0.9401671349362442,-0.4145624315155765,0.5807491678968769,0.887362390243674,-1.0696320160334962,0.9202551061568094,-0.782419599047235,0.28830156100370863,-0.3877183704109065,1.2870029668586034,0.3498561012409517,0.5852795493083199,1.1554089228918463,-0.3735362369517615,1.1533707487271188,0.25488097405466204,0.028607971665972533,-1.0226282172497496,-0.3605215632290027,-0.21929385674282995,0.6966234428718082,0.5007563924598691,0.912678617926294,-1.6411973695804047,-1.8240351329891602,-0.2969303330390801,-1.3983473282930179,0.7786295338453355,0.29946395777768847,-1.0730016955032002,0.5709037279189583,0.35088446473712553,-0.33878025714587506,-0.30226111775976305,2.0387927553309177,-0.838048910455417,1.1414241772555873,-0.5769286550953254,-0.014140596994734207,1.57685319670294,-0.6842292847597266,1.2338001977643929,-0.9207504139241292,0.5055164479997987,0.30737282314971603,0.8735251421366367,0.4138867487514626,-0.8461855343504845,-0.33575476263489484,2.1709374900105693,-0.6693095625150606,-0.8920181688853801,1.17185318678422,0.19456325749649764,0.9812799057260655,0.019221872762613324,0.08360777015685165,0.04195207443099627,-1.4209703370827846,-0.8617075893384369,-0.02105255099953038,0.07535145569685664,-1.2937340772803598,-0.9022811763058622,-1.7621404818189417,-0.6907222410143538,-0.8235779682132625,-1.7721099125454873,-0.6857169676320669,-0.12007481906141287,-0.5662212654812605,0.6794646298140409,-0.5453227298649082,1.8993413359723883,-0.352583797324722,0.9984371642703175,0.0881496777009265,-0.2175638897701352,-0.5637362908795882,0.2661667325879569,-0.5758287775667869,-1.1228331765603425,-0.014189710826090367,2.5297413725552174,-0.7777625923667598,-0.47804647885098345,-1.0703579971447479,-0.09344919479617105,-1.2209842295003248,1.5800029193945313,1.5152219660345763,-0.9447450624584696,1.0396740263835016,-1.0243397823799998,-1.9244225086551687,0.17368778062348542,1.5374822607192562,1.0890843498475458,-0.8141223162177033,-0.8800869582187746,1.2734965615093186,0.6047475915471265,-0.19435423744717065,-0.005615203376987723,0.6130630947291276,0.13452827862527456,-1.4600243966181,-0.6912699725534956,0.29798239192967096,-0.20165474988480128,-2.0527513943612203,1.3890091081911629,1.9990862004089598,-0.7905610481258638,1.1060955610322598,0.3689393049911899,0.8627343970306143,1.7419153600829498,0.4725979192140074,0.03420813698280125,-0.038611544935790276,-0.2556679423121641,0.11090056406055492,1.1345956423182306,-1.5614230344986821,-0.48247559300666004,0.5335962974597672,-0.15408896744261918,0.12167548985432682,0.5078494887405111,-1.0271141709943041,0.7936831065016473,-0.5605034578190592,-0.8624253192253755,0.9783384332966796,0.17702316752321345,1.5684214223997925,-1.0421289421161457,-1.298883791101178,1.493634190213811,-0.7130355404938798,0.9143628622650117,0.07507700414020073,-0.750008652272938,1.3138323372775247,1.18969339214997,-0.012626609851588307,0.005894690029200415,-1.013311591298229,0.15832127095440224,1.1824356423427949,1.136819903235999,1.478719849381517,-0.23048800491207397,-0.4005972179592822,-0.157836631990914,0.31391225735837336,-0.4139001524943137,1.684510095518662,0.3288599276503084,-1.2904742819261568,-0.42619109355398765,-2.5170525580907017,-0.45842017915118227,2.0182146854098297,0.6638825768796599,-1.6120781769869774,-1.2774871793709213,0.37050528332987576,1.3555479352780428,1.6636466630303406,0.7612027118945534,-1.0875753265999566,2.6703187279595477,1.6274114620867,-0.3235180272233662,0.5967704696966298,0.5612226533308673,-0.305644618748609,0.7882428667485308,0.9863633499491576,-0.3454531617634618,-1.2597373644249197,-0.3016324919105082,1.0311330950571305,-0.6452013987557422,0.8758708011878129,-1.453666822907805,1.0343261501024068,-0.5517023444865201,-0.05022059893262666,0.08558998915987799,-0.49084882122037565,-0.37173051831408865,-1.401858838935515,1.1242062410669595,0.13053324299327052,-0.0005404664834268564,1.0210839777959027,-0.3173941059685119,-0.4463901065321955,-1.418585098586446,0.06188921481924343,-1.0255563887195924,1.0786343228016964,-1.166472098566485,-1.5120120129195056,-1.889675674530311,-0.5944805848270185,0.7620415351463742,0.13717671591365227,-0.8359128194706424,0.1806751845622935,-0.1569879606055767,-2.025409047457158,-0.8004970196751784,0.7548261128480511,-1.5766728857662942,-0.8766067453013049,-0.12900536097481044,-0.28368665072615207,-0.5621955785559065,-0.94393640904808,-0.7114936254232926,-0.10609780983898329,-1.266045998399813,-1.885635822017366,0.2754670541413008,0.3632806826639546,-1.6302276497180843,-1.3999087287080019,0.2843638525195524,-0.6257021013051908,1.5814548132939688,-0.057150689745660725,-0.37557773855605797,-1.8407150217220285,-0.31436606332076744,0.3173449454938748,0.24279941418734313,1.2225304507232289,0.716056485604453,1.2656220521025803,2.7232948262859153,1.3038749141671708,-1.1265292736875974,0.3696044623058504,-1.636743821346268,-0.9240439693337783,1.0340313523088918,-0.18406858373926438,1.6663920732530917,0.9994760926885695,0.8371143245549607,1.9049444875573993,0.03308449139837588,-0.9585840300645746,0.4450735013617346,-2.37973776296434,1.2714294449905195,-1.2282706867994153,2.3171230098736957,-0.5193953901032268,-0.42074127397297567,-0.9103574895750941,0.8534161697829689,-0.18612870940064907,-1.0100728777377295,-0.2153813503288248,-0.6005462351400135,-0.16172867514786457,0.5297551656857912,0.3624791634370272,1.0712975594071437,-1.905303928720354,-1.23057714837229,-0.31515915988165955,1.7690029132485274,-0.7695228013884285,1.1158171450710794,-0.23296900430307446,-0.1215507639049781,-1.6054115945680563,-0.412283284919027,0.13602819073875766,-1.1047195353231742,0.5490091258939784,0.9111966533836398,0.6865374136525725,-0.3160288837594782,0.7147143255916779,1.0476172031195565,-0.329186450972601,-1.4824631813632687,-0.35064249824685245,-0.38703530814613296,-0.46133182963097125,-0.8886425362960235,1.680995144373444,1.9380203131579816,1.1368347263679952,-0.36262987071529384,-0.23946684749769892,-0.055867669568737156,-0.11365466926458966,-0.26211559719050387,-0.03471039837203128,-0.029438084469742994,0.3008584846867684,-0.0684644696849862,0.44606779286109965,-0.15936172022518275,1.2481695461999973,-0.8895612867344346,0.0213028115461404,-0.010437418888923427,-0.05217426657351564,0.06559316661339086,0.4993066347881918,-0.6862424706539932,0.16743336427176095,0.6386424337478097,-0.5491866306036838,-0.18766900273327344,-0.6024927596494198,-0.3388511576513278,-1.467444985257549,0.5997102745975507,-2.620434704183363,-0.2156085351719876,0.7415096780306284,-1.5160281328740772,1.9577234783130872,-0.603868224880953,-0.12022995438454809,1.218981272957782,-0.010978477114607909,-0.2359596706880344,-0.23302395087547753,0.8305342792360385,-0.012907379436110642,0.9211358354308465,1.852905601276112,-1.8296620950997444,-0.6153925768538167,-0.7197549628269251,-0.5787706806719769,-0.4582599646101412,-0.48398055106914856,-2.012279115228531,-0.650591594942695,-0.41048717743646546,-0.3747669940313015,-0.4860929295556247,-0.8348504846600194,0.2099262688904101,0.1648191187714444,1.7514370146714198,-1.0442084935697327,-1.4195153593421692,0.669172655983878,1.6383445190285875,-0.9367548355514252,1.436550543689628,0.605849599678938,0.5818261279451701,1.195112224088014,-1.884497220430558,0.6381168713413415,-0.7317359954216398,-0.5539732048769459,0.4182529827433864,-0.29419169455326144,1.0169107160997242,-0.35049242486661625,0.03045180140172007,-1.1055193977343285,1.0562119227357127,-1.5221758214090861,-0.05712020565908328,0.1267860146683654,-0.1833932988804628,-2.2081721831797005,0.09039061611111157,-1.6339160333528608,-0.03469585038387986,0.6266377002450927,0.4481469381311206,-0.48495555845762284,-0.18411272687384797,-1.501932321087835,1.6794115036278925,1.4796970466819448,0.21593602965203124,-2.565086560834129,-0.13796407223886978,0.4568496367757551,0.3913980598006985,-0.8308998235188763,-0.3159475896522495,0.05651021430306611,0.12079676840533622,0.25534394946041705,-0.9819733067280231,1.2045583959765545,1.1018115528315016,-0.7096211113617702,-0.7331821420307708,1.5828575118344248,0.7562617706905626,0.4475083611912501,-0.01657948567065449,0.2716490631418528,-0.3631600838482959,-0.20299966303470005,-1.4370174777187807,1.225463687485896,0.467923060238721,2.119923535664266,0.4173056448375127,-0.6455944234519062,-0.4780179189627234,-0.008922592685771731,0.6670436542793845,-1.0806031836869192,-0.3815135540215594,-0.42106855102072444,-0.512783712003324,-0.4646913297343346,-0.1560977428117493,1.3846081659055154,0.8194731452073202,-1.0402515021365215,-1.1358489181140534,-0.3418054595086417,-0.18198719180101974,-1.3384848764336714,0.02455979810737288,0.5751244486510904,0.9333602559062367,0.1574137096445526,0.7789568046733412,-1.7066679895471912,0.13637436458439342,-0.7341666984383997,0.08923480685782467,0.29743018111298963,-0.9398907215165327,-0.26008614507572914,-0.8555925686966721,0.5567130898205255,1.4140784681867495,-0.26440988869628823,0.11470379387483189,1.2554018253382828,-0.4946378409471529,1.090184753387255,-0.39992552501239675,-0.6001938624054459,-0.38465075315397884,-0.6259968136683114,-2.06653421927017,-0.8203657716505895,-1.114266145273451,1.0567069827119817,-1.2464305600985357,0.2003574402904397,-0.5886325808221726,-0.8276236870653673,-0.14182928625743782,-1.1820324909846072,0.589281609102697,-0.08768764396007679,-0.8055261925646501,0.3250629843585684,1.7059988567213462,-1.5730280062708357,0.02795762545427091,-0.9433357436596139,-0.530356619980101,-0.5833001969338907,-1.0630203437776602,-0.09310125220842073,-1.6100590563615682,0.5533240361654782,-0.5532259750134859,0.1355586208018896,-0.4372610425867016,0.588904927198718,0.04529671115444113,1.1688092265473446,-0.007795858128665867,-1.9833790052572435,0.24683744550285516,-0.23630039480792792,-0.0264069636195717,2.446634451595522,-0.10263547180717865,0.2468154960664063,0.4925205623249457,1.9198123700821197,-0.2659863806466145,-0.35096259153346215,-0.5597499612619179,0.8343978329561837,-1.5424626108632864,-0.5821839338617882,0.7538221558059585,-0.08879252472771242,0.0800146571691409,-0.14273707259036414,0.23514044845047835,1.2553683956831347,2.042748054872954,0.7044518343366573,0.8997098455476417,-1.4624937344501705,-0.042643095910735916,-1.3665845314746203,-0.503135942577877,-1.9117087952832363,0.8566495007071312,1.3109941848618523,-1.069689381877729,-0.8118221041896568,-0.1862619727978852,-0.5113300002768819,0.06096764948517448,0.6123029280883984,1.0198288245211173,-1.3519240448569583,0.9865120052159595,-0.6544246306666208,-0.5143335604395044,-0.8389131571968428,-0.20437508171184313,1.1806028293629438,0.33545549081613063,-0.1029738276556897,-1.069861098356442,-1.9396021772135923,-1.3022122685008906,0.5408436237918438,0.37932243534079524,-2.90601868064843,-0.552977868044486,0.8751141983035281,-0.4764671979967411,0.5765213383820478,-0.16603664405549207,0.5191598118381473,0.4848226745149418,0.3613984590913457,0.39317861741407784,-1.1517092131412037,1.9484016029851252,1.9133770543577284,-0.18472456490208763,-0.23772208764683958,0.6130840474911675,-1.3197900922034942,-1.130323582972186,-0.07895077114686952,-0.49752830414635535,1.6237077159142257,-0.3535255164531114,-2.493454307788515,-0.390977071673545,0.629194525430896,0.24719479759678323,1.2760364463466638,1.071786210897113,1.4587638313098559,-0.2394088144634243,0.5998589793865567,2.9866367650280514,1.3610926911084298,-1.0970732407468782,0.8626193953267787,-0.4429687249738921,1.4105257161455877,0.3412638093121436,-1.5347964481339453,-0.6436130469266037,0.46039433955917064,-1.6587754197060018,-0.9121222359347936,-0.21721157239096317,-0.0811308485116382,-1.1147248385978326],[-0.0930647213529813,0.8804494814290921,-0.3441698790714304,0.9743436416439013,0.6248979303169149,-0.6090243048135789,2.456782209666124,-0.5110794386540743,0.7084909865039142,1.0830007242574609,-0.25407798217088706,0.47129060844309545,-1.4661437044802361,1.5530477498169377,1.5223311129657695,-1.1145555440237067,1.0951881075073768,1.055866581017583,-0.09678297472110388,-1.196418655238322,-1.1935779373920101,-0.2519273302056833,0.2482279996555152,-0.7772738544223492,-0.2851711485795337,0.7420407188376982,-1.30683083438965,-1.0051664218565528,0.5895831231423108,0.8024514981424636,-0.747855986870158,-0.04097358884732792,-0.8272876872282092,-0.29855207132601386,0.9511645740138952,-0.7679581123850905,-1.4489224104959482,1.3892650882090776,-0.7046027518056267,-1.1620256354037426,0.085716162922939,-0.10226716063580576,1.5231993840833717,0.17170837412537787,-0.30416905145667794,-1.5740227748274636,0.5889619100637656,-1.3824431054793087,0.4770627948096132,-0.3827018445112697,1.7517373417424937,-0.3669259319126172,-1.200478325946105,0.33296624063299973,0.010883543123478405,0.4467080769723582,2.2156484710074205,1.3461624591477637,-1.0349470855644087,0.9591740300359356,1.0060392516530907,0.24715262166135152,1.6994610584419274,-1.4625137220559026,2.2186687077941167,0.4324740248889645,0.8372103834628302,-0.6331229518756287,2.9581074952637865,-0.17682828374275522,-1.1621892960884017,-0.4107470071597445,-0.9326392723968666,0.6688650165165871,0.6131616627364243,-1.4835338743985103,0.7884751095129189,-1.0824471225302483,1.080780658726427,-1.6708107433873602,-0.5714125194057742,-0.3005962915377079,-1.133044086181619,0.9779173846612225,-0.3174887466343704,-1.9847620082045778,0.07890333119722741,-0.06372504170359937,-0.4005053857966718,-1.9528243125090536,1.1946907592386975,0.3641176165240811,0.9606891900041976,-1.181220086518777,0.6752821202557527,2.2748081791289807,0.03582519156132921,-2.036539638763794,-0.5526014277952338,-1.2175635465734893,0.7739155424959466,-0.6799214458829667,1.0696344116492442,1.7326163546368845,0.7712050363776175,-0.690434890933797,2.6220270166878805,-0.9833355024521846,-0.06845701470650008,0.8748179175693138,1.0966579668334757,-1.1760429598283313,0.8605377148858128,-0.5267354879090227,-0.24060870566850737,0.1576407272387021,-0.6324925318035808,-1.0134047143422078,0.2471806986376853,-0.1986019766277837,0.36536527979392813,0.4362793417652223,-0.39068681548177714,-0.2593655329253032,-1.31127185557478,1.7989633443684638,0.10557052229135637,1.2434058843249698,0.3342608616985415,-0.40268050600019956,2.2175197225293384,-0.8472689799673032,0.2231313222954547,0.8035643822166929,-0.38135667638870224,0.23573605932767444,0.9367957525819289,-0.631245170368391,-0.16543451718303126,-0.9025781857173163,-0.2823099307485564,-0.037180825400125704,-0.32905640795111496,-1.5256048573514929,1.4031242794905496,0.4531023877246696,0.4623536327753256,0.46496499259622215,-0.27216246007873146,0.2048304730678468,0.2669662017643289,-1.4738447308275036,-0.6604983231393529,2.310107307294199,-0.3773829415307925,-1.3205524339319392,1.0327516385240145,-1.0843450668260508,-0.04634268051088918,-0.7007324792270896,-1.0855899422672004,0.47549407620247547,0.9343793403153479,-1.077957094647728,-0.4046582654468752,0.6302875510185177,-0.6573624096026995,0.6963973237001188,-0.2302382956228613,0.9673723504441422,-0.1127864433330797,-1.3751833609878759,1.4392464811701209,-0.5912603745280991,-0.0429943914677453,0.7770524131819748,-0.03546318898975011,0.15919008460129092,1.0543310466613975,0.5210187267426046,-0.18927658192209248,2.4260457633574664,-0.5841770259712479,-2.237220330754676,-1.0359931875827673,0.2743859823788645,-1.0391769421917603,-0.9193411328909691,-0.27672666050247835,0.5419652751748756,0.27541094485122636,0.001506402800207084,-1.1048168348038605,-1.8325986360850142,0.2800704464146956,-3.0963584512641114,0.3471594960451223,-0.589088747179542,-0.9739859563173471,0.1455338964741869,-1.1050164283148358,-0.5612551787882744,-1.153520340463816,-0.4459900696883289,-0.5058962016996287,0.48546495458177524,0.08535491166181967,1.097844325209061,0.39805295946740815,-1.2918842209377812,-0.493025237943201,-0.18539720642743818,-0.007965606869970433,-0.6532947195312192,-0.19381959291032463,-0.8474374105506469,0.6132396352796419,1.0678948046528702,0.6582852652546904,-0.24241227427390188,0.04006288605370615,1.0023764411770408,-0.3075153873055471,-0.11495505648644028,-1.6260200743596216,0.02578594081411527,0.8655017565213214,-0.6525048074224274,-2.2566153630175645,0.2895902277733618,0.8036396242477458,-2.007814145829342,1.493260473435116,-1.7866582278439491,0.5760934890387467,-1.5885842869440254,-0.4477340115966503,-2.634403634600914,0.7268502786639206,-0.5032641199290377,-0.3624358593620441,-0.2831917958326103,-1.387736000274756,-1.7954874991191059,-0.4911948211822741,-1.2563860598084036,1.1700178342501721,-0.747647908429754,-0.8303522880529982,-0.9143714580411867,-0.4346753399372011,-0.5562118428949,1.4485307876995652,-0.10520556307126222,1.5170116439437589,-0.03958515596292839,0.8298075632145718,-0.31401526043367595,-0.05843293991139853,-1.475585880948368,0.7690090923795758,0.3403631537155732,-1.9797344596443014,-0.5387730461476233,0.693364722374477,1.2648726686636824,-0.7442686940527052,0.19492205744595154,0.6045009858963076,-1.6638573683024978,-0.4243891013593681,0.6889892074783039,-0.047021003659167886,0.7555047525945768,0.12394732912545645,0.4003213951673487,-0.4247136641735582,0.8004950202686449,-0.13611406820217029,-0.5715129765851955,0.2414085053589609,-0.7695643494919956,-1.581909682186459,-0.2659423190117037,-0.35091185015710685,-0.8042701640832164,-0.6485386037648919,0.2776010284396855,-0.9333130321651143,0.7235930274727742,1.258094651674336,-1.4615140433307134,-3.213396720494211,-1.8640245112023643,0.07209702161799537,-1.125743272202708,1.0875629317270654,0.22224889287301844,0.3622791383883999,-1.436073576063104,0.611216663904467,0.7406028952643131,0.010273229237256057,0.5104601486933987,0.0749712424909733,0.6699308727951225,-0.819764573038875,-1.4520163219561029,-2.1728345735420818,1.8881853474593087,-1.16766764092388,-0.44360569229660224,-0.9751336279128265,1.7589026831355268,-1.0542062945337773,-0.5908496891038594,-0.8356527788838504,-3.0731195341752593,0.10874450074457843,0.038914979915314424,-0.8302412494862099,-1.3946521757746837,2.3151786868379647,1.5265831423425924,0.3841521631226842,0.9968870601923946,-1.530624008790148,0.11281291301339941,0.23370452635574868,0.808264874394836,0.044699857658925236,-0.706721426181319,-0.1786195387953098,0.09128430565495085,-0.5032879387806158,0.7685525193821554,-1.2854218337563559,0.09700740299374945,1.6071034797376615,-1.0937453166604014,-0.13287523454639513,0.1335953427136774,-0.19342612797660866,0.7207686583053455,-0.9150615839750821,0.43017443243775905,0.12494981163521673,-1.9484916593585015,-0.41343208839703943,-0.47737720888954627,1.2063528525638891,-0.09471120282362391,1.2664396108088274,-0.43995616979497115,0.5557204364062521,-1.122742938812077,0.8349610036930228,-1.027920625864857,-0.06643522780158209,0.23470131388883705,-0.4581712779083342,-0.04361104263722314,1.2791454517183065,0.4962597272218274,1.4322666857791146,1.4376589104305788,-0.9817332965699228,0.4416550647807395,-0.7765441437205898,-0.8602410104527038,1.5010421049613825,-1.3786241889396205,-0.28326838147074196,0.7042030067174541,1.6646478424652356,-0.771208820731285,0.226335548267584,-1.336197287229634,-1.4287317549727014,-0.2627061861402748,0.9307293177112507,-0.2352953441315668,-1.4518791893545646,-0.7936358091214717,1.0299437719660822,-0.3672651433920452,-0.06371345745130173,-0.730489498092746,0.8753907239935295,-1.6936463245649749,-1.410695315343779,0.4725990869990307,0.10929669608450031,-0.383752685577579,-1.7349889892251216,-0.4926421833455467,-0.5612623900984325,-0.41375373356855416,0.8899277869449459,0.5730763388394882,0.4610557691093816,-0.7890639124235774,-1.102779218581765,0.8503802659768388,2.146201694660999,-1.1387888178267247,-1.5755991293047444,-0.9338235284568481,0.6683556004453595,0.20166531872705282,-2.6193617571762235,-1.3865396254841584,0.8854178386550832,0.7353707124447201,-0.2796497872107819,0.08531167227040197,1.2151110894143036,-0.3734197543609608,-1.3289869814556408,-1.5303447447135017,1.1447327899442576,-1.8926036908777117,0.8515277743450987,1.4398347964782767,-0.18367267391733164,0.13023121065755427,0.30777636572708134,1.6249330641296613,0.024172590820219074,-0.9718620227106917,0.27657048688881614,-0.016343337337060036,-1.4081467882969032,-1.4702465765142354,0.39013879722451406,-0.6527973353487004,0.36298058273993666,1.1766578275532897,-0.5578647804897461,-1.948349116908031,0.2709956290688554,0.010099456982369071,0.31177920905927936,0.2712791726474457,-1.5262402764430008,1.4245958723233745,1.9096844857620632,-0.054025666049402406,2.548351672792936,0.9320993751040219,0.3340976938342402,2.428051458380724,-0.3419271157870578,0.6407172264474629,1.5149500723561253,0.9255891825969077,0.6380550054075976,-0.6186542420452419,-1.0937650130896983,-0.6936060133064749,-0.1502879197211199,-0.019388755909500104,-0.4519442844332284,-0.12352188092737225,-0.28833917320305774,0.21742147734504466,-2.3170009321301688,0.16890906340308132,0.1103779259143741,-0.14916903703293222,-0.8725524992726074,-1.0076978909155274,-0.08169218408649134,-0.6559231067338283,1.4576810933814122,1.1451621709939028,-0.09682656660037435,0.12420664892158764,0.9113506684557756,0.4024402727422445,0.1920510750257244,-0.6188042766994865,0.8186649415866417,0.18192384379129947,-0.07960842337916399,-1.9044328834604354,-1.9948435185812716,-0.46418533990068084,0.5251469005474156,-0.05539209240420281,-1.1462119140376783,0.7750406880206969,0.5215219761013734,0.11292213882013667,0.900258252872638,1.1218661789700575,0.15728419109860833,0.8081345544372869,0.126453713697463,-0.8814248258530054,2.0972945976110346,0.9285599666224544,1.7108317187051372,-1.6861740264723049,1.6284113402004665,1.3133003283799547,0.3537712704091566,-0.23685339114731774,0.817957777489746,0.23305519176726908,-1.078493553650307,-1.0598310807324949,-0.6385431916266272,1.3545598921314161,0.29871280741160716,0.3806734992930709,0.10544415347217526,-0.5389577481971252,-1.3094676908906637,1.5044370454153462,-0.5202071663068928,-0.5832287493206758,0.9422658424773728,-0.533359913192727,0.5657730319467055,1.873188644230711,0.14359376674413024,-0.4326539704480083,0.4025542591994394,-1.9520090598996163,-0.09946151257629225,0.21638731153376892,0.284744749695645,-0.29178820046121356,0.7338370973683032,1.1410919433482434,1.2791891324509528,0.17182341497697234,-0.9337140493341688,-2.321114603560512,0.20732808425155982,-0.10564026057073593,-0.35230219623413955,-1.0406151945552298,-0.6483587849361762,1.298898173104464,-0.5106225260963295,1.1236920590490873,1.0084997054633187,-0.6755280128376799,1.0684126598967396,0.581517687471949,-1.3053496966567149,0.7320938812550774,-0.2961543358982953,0.08530444907897905,-0.5352083993051572,1.7364143268554548,0.5199653526856841,-0.5603948440989143,0.8619502175587473,-0.10056803614837102,1.5710406471723963,-0.551444799749042,-1.0544780980267048,-0.3285512598784315,0.29764426260700355,-0.6694930368015085,-0.04317716521213985,-0.2742999563617494,0.6177820600109255,-1.2607375062898587,-0.3421407809206485,1.2630728856378999,-0.619977060983305,-0.0626703401179367,-0.6927767584429139,-0.43408837475767126,1.4556577352743563,-0.3029603026314578,-1.1311566667124149,0.6638879771077607,-0.5422868114451739,-0.052351062874192826,0.5897869004979337,-1.7161837838523484,-0.19366759153865865,1.8982520451618305,-0.9546311567283224,0.06448468968766417,-1.078974633097458,-0.1516725283460254,-0.9019948452406845,-1.5914424942381662,-2.763243845028822,-0.06891010623064517,0.5805877815733446,0.49719990434372163,-0.44057016153539197,-0.7232832667288986,0.2005660613225024,1.1060077922604141,1.005107545700663,0.34432580478987485,-1.5951744032420518,-1.290879672774771,-0.16427394276540883,-1.3010735320895954,-1.0954556302008744,-1.887067754135419,0.11222695753099783,-0.4416395869836249,2.4021094022830805,0.7501844541583781,1.2527158128552451,0.6369103159580448,0.63159688828662,-0.4112825191405847,-0.4294609174023953,0.23963898478109985,-1.0308821414106368,0.9156268985307022,0.4747528569503791,0.4112690743288705,-0.419543701813283,-2.609233154747725,-0.3412449662042518,-0.23264620552430929,-0.2916341153346173,-0.06974718418254222,0.17631221287196752,-0.9963989895329888,1.6042222406780917,0.17373538209984263,-1.8500194097060778,-1.6793971705726354,0.8954210405468049,0.673101016686593,-0.34175301435120276,-0.6993092007556929,-2.315843677865436,2.1494221391122363,0.5993514607033833,2.6548890430893053,-0.5281001187176476,0.35250096643240714,1.0684114608968078,0.19336058198636832,0.3001054024796891,0.9516833709169543,-0.7799793257195018,-1.5831332007746932,0.4700122696397473,0.052232479412858676,1.5661380050982716,0.7388001665368178,0.14409356320392347,0.5699287271061183,-0.07887814501458626,-2.66942231275109,-0.5376084134930809,0.21553375101352548,0.8966857645361754,-1.4945810365766,-1.0149057812782762,0.38690066053447875,1.7402285867019947,-1.7834314936571571,0.3953102221370586,0.9046923608647061,-0.4217982565421263,0.13494321818782073,-1.5773632646016156,-0.5517987092892865,-0.007833914159809581,-1.222144780550013,-0.15068004665187365,0.4387394831923702,-1.1058622927444894,-1.9093402794974212,-0.36043141713271937,-0.5229902888920568,-0.9300155286682835,0.48477169798922126,-0.8612346919838137,0.5376002766840936,-0.5112106972812521,-1.1481108711581876,-0.5538412312572036,-0.8385810223817176,-0.22475238998832087,-0.11911398184511597,-0.37981250671991057,0.27156362171045295,-0.5718740220562866,0.11303828336070723,0.8924181204678974,1.717361366295562,-0.3363052054196451,0.10093869789087792,0.19766780895917588,-0.5909927550986381,0.2122082337824173,0.6773663326104649,0.4160835256144229,-1.5218595084463333,0.6669385389177992,-0.5665962717576302,-0.056215599537811,-0.74914540854102,-0.5548902253714184,0.4623308574843513,0.4409475110174744,-0.1992494542334998,1.1493083996429363,-0.14197595688954595,0.19475464359162178,-0.21690811494836282,-1.438214627533788,-0.22877493040443012,-0.18259736534962337,1.3229175235985333,1.0553892355990286,0.26536868347218995,-0.11659522073225707,-0.39179884757361577,-0.20128112705637663,0.09883232163250798,1.024043448497747,-0.9756430878358531,0.7204948993634804,-0.25068784536885463,2.063025795974328,-0.692093879682517,-0.8233828838997099,-0.9627754403414758,-0.7428993622775709,-0.09766523448204638,0.43765564017356695,0.5156756353311747,1.7985592170633429,-1.2291528254443813,-0.33681637238568063,2.7304241206599196,1.3922935762647721,-0.633996864854862,-0.07063340857641626,-0.28585278542925685,1.459495403582849,-0.6214222493109309,-1.764332898989182,0.7016357154167411,0.19328661120289103,-1.1899306900854647,0.030852124496198275,0.6939335427432805,2.2990186921300677,-0.11846521903615237,1.6586386137441305,1.1610125979920232,0.4287949396840771,1.8159144443785564,0.7957942941334981,1.6043844421266804,-0.12454113794238045,-0.39195485099074134,-0.4476305716356687,-0.048182378078148465,1.545478462052518,0.18498386916645315,1.0382553959549403,-0.44774342862332933,0.0855012779735898,-0.1813411609824714,-0.15679845625184236,1.4369466388442156,-1.4526733499267135,-1.3949539247825469,1.4167209406543315,-0.20125311170515908,0.5490056645845169,-0.22696822322237636,0.9483175578200823,-0.2850589953334646],[0.24488205560787274,-0.24788437550885245,-0.021572348696918514,-0.6054585648704339,-0.010983162018457105,-0.7246307869039882,-1.2865262551373904,0.6149719160527569,0.46995017029231495,1.862620129908851,1.0822914396060068,-1.7566560839238379,-0.4473768446509695,-0.4406125212465806,0.4433096329110358,1.1330100657196922,0.09142986988546078,1.5424815201928488,-0.6227119630606819,-0.4642100709840535,-1.2787981306284524,0.8248017016478709,1.0863936210363716,-0.2896854857398155,1.326333368186891,-0.622579739847785,-0.06351066034794903,1.7258708050299343,-0.7256966094381098,-0.00556027102543767,-0.8676246062944722,0.7059931906044611,-0.41132975816786627,-1.98405612769975,-0.012044799020164408,-0.055699873185643255,1.195060415661557,-0.11021101562100612,-0.05831596292340639,-1.542180488053815,-1.0389898772894235,2.43825768683887,-0.3229234655925608,0.991232666030386,-0.6585391683122287,-0.5583843256036944,-0.40988850431911966,-0.10124902149884817,-0.6905687645656609,-0.7479250021399012,-0.5173150350563288,0.3782367208086843,0.466957062149165,1.1022797723771953,-0.571544914013606,-0.7949926642108275,-0.9243010468050804,-0.8276570045328143,-1.1538643941066553,-0.35176310003848055,0.2904044503903121,-0.5129350746478734,0.41806073445016473,0.3771227517641942,-0.05517162753235002,-1.1689012441971238,0.05507710536496402,-0.2348017496929712,0.35396591514353626,-0.07871520667935046,-0.7631677681317182,-1.37461647691923,-0.009828857422594229,-0.3337917862006888,0.5041822546222695,1.462224416155871,0.6021326245214309,-0.4318531503302071,0.5221557360965652,0.46798641230752647,0.01678927659957102,0.04474788376588363,2.106195830367368,-1.5229611198931816,-1.1514721806190225,-1.173366751568388,0.7529993719286531,-0.032106716606122764,-0.7632739781810821,0.9020569635100916,0.5341049038802753,-0.14939701509702522,-1.3451197843637106,2.3852175673092932,1.21906196188232,1.8103528620894977,0.5974728414966476,-0.3171324881198543,-1.240579471508263,-0.6070030717220759,0.12746598286355867,1.497406565407808,-1.0121336702462953,0.17859735734725132,0.27515401847558024,-1.663129979201113,-0.340008287055053,-0.23540311741633588,0.2130974776062727,0.7608465833074114,0.3789421238541947,-0.915091314441926,-0.15776646300738598,0.7188065292860524,-1.5201545791165922,-1.8945829811898767,0.013886111741122203,0.4458231734486569,-0.5048292394034086,-0.8709437166677887,0.937389614396212,-0.24842133352955945,0.30887867559039756,-1.3084713107566852,-0.13474021856584975,-0.5190436002754985,0.3949206967667176,-2.9376241816235367,-1.2322249491772244,1.8626335167302857,0.2793704571888037,1.0090518476903532,-2.3315255031827884,1.2711979867876513,-0.9561754572138756,0.5436710739317849,-0.18038624883708412,-0.46763028282894276,0.5611570952522351,0.029008377447086814,-0.6366697576591758,0.8383011480782278,-0.15568110265227666,-0.4201804393245076,-0.11194635193282572,-0.4235269063211376,-1.8651263178630548,-1.7288593690583822,-1.2812283073263164,-0.9070911747799814,0.27604114130458074,-0.4562817418920614,-0.8846599473502195,-0.1821962255894588,1.0575157485751914,-0.04498751958838859,0.21373449118596685,1.4223009888845493,-0.9577692256675227,-0.20305576152248578,0.08774790812626854,0.1855836507251094,1.8383869013427085,-0.7776883886062834,-0.29833996419794356,0.023387578300779966,0.5857113465290392,-0.45614294042246123,1.946488511137767,-2.0284641923769406,-0.4145706445795958,0.8331742634758951,0.9301964936411747,1.049068787050347,-0.8026571106984329,-1.4799757164204357,0.18396184295258006,-0.4311156990313608,-2.224961964719483,1.1189888045140504,-0.2544486675972278,-0.06435842329410028,-1.1407716500242002,-0.08665936565930657,0.17355335057204077,-0.8639685663981196,-0.9980658740196582,-0.34036662029364817,0.5842804056263619,0.5290961249342104,0.4347235589819154,0.9493504113303307,-0.9288671060672696,-0.5845866640883909,0.3489566052627827,-0.8507732085941156,1.7135161080203536,-1.9806770345103475,1.1366648302519806,0.04909155949922406,1.109697729631386,1.164586827487865,1.84699873499892,0.6839182953708237,-0.36241955221819466,0.10556277026018011,1.227537675388279,-1.8044645509003805,-0.3676443528067493,-0.08818646931056191,0.5507281798452826,-1.4413903506417602,-0.6465449748817902,-0.6275504473613732,-1.5116232044467952,-1.387332168849734,-0.7984973946446928,0.12246470569519805,0.3655718017184081,0.5820036315673329,1.7209016399930537,0.12280999962992982,0.8707418167512544,0.343961465315519,-0.09794247857353866,0.276480220958966,0.27156734830450086,-1.2235406071634936,-0.8182875794928117,1.4538017320770287,1.398616337410239,0.6155660484752701,0.36633387219532665,0.13806948285483536,-0.22139791058761485,1.0995514843079102,0.6727705317722931,1.0285367409621233,0.7711597875075482,-2.1770828764241226,1.239392413584145,1.0038668541096443,-1.2986169422719924,0.2777228061744504,-0.5417523315336732,0.04623727247699358,-0.08739260219837094,0.056166185650278394,0.18819864318476043,-0.2800587179142616,3.1880178943317308,-1.4305375534637073,0.16183230934270124,0.3175105716212768,0.1562765126012984,-1.143283460567145,-0.479582442417641,-0.2839629674859457,-0.5448662951735926,0.030209264363681595,1.2177658885141067,0.09188827575956056,-1.4260256875623807,-1.4771357025619112,-1.0727849325219203,-0.6016850441950538,1.278801747517017,0.8452127329948365,0.39773969337676235,0.9873028960762033,0.6301481144039385,3.2148113489299206,-1.6387115222785589,1.8524459132050743,-0.2634071268061607,0.30237414355096,0.7598187054677088,1.2445561074517844,0.2540395445573834,-0.04032931561580474,0.975321319383401,0.47432836583841903,-0.050234269670677435,0.6984058609803268,0.5492822593822249,1.8415318069314761,1.5464533297502272,1.03646863004443,-0.054613931571252695,0.145237176583183,0.11987737534111358,0.9483129114465189,-1.0843574896027017,-1.68909446407033,-1.152196234958154,-0.07255617465857955,0.6390603291580321,1.265467125932179,0.5935786569230438,0.9166197065973992,-1.294938494043702,0.0691594689471613,2.2527901283790293,0.9195857944035131,-0.88647323641723,-2.05444966519994,-2.5303528765851233,-2.0915830242388647,-0.967800413418527,0.908434709179023,0.11678713022971558,-0.36448692144922457,0.6715419188159966,1.6155265097654068,0.9404359667574875,-1.0904330778583025,1.2780543758258154,0.4178149748815282,0.4999175851003297,0.8564904327687292,0.6232669873400738,0.8920780006766362,-1.0882488282754685,-0.5272465744688454,1.298456817590885,-0.07223481168018588,0.369753458891514,1.1295698552222115,0.5127427160740424,-1.3565111786408093,-0.3442113849139796,-0.8153275890175988,1.416391600770913,-0.8590335440256913,0.8920799214764145,0.8227184053676715,-0.6129067319929071,0.8976932961497801,0.4989825764691547,0.24512733849402749,-0.9878736874833988,-1.5029148825752272,-0.946440059606771,-0.797698578084432,0.43271139036909106,0.8904720638384377,-1.0806953992769532,0.9905302075586433,-0.6617100457594437,0.7891321780305974,0.3546939198078404,-0.4113855559273245,-0.7049334622825892,3.4431991292637165,0.48644314421139984,-1.1555647717352824,-0.550944507356684,-1.3189846985221196,0.4058503341461909,-0.13864305134433727,-0.7980958545348374,0.30347225542390016,-0.4907069013103982,-0.038915306732940205,0.7805600244641877,-0.3301300211161514,0.2852037081460196,1.1786946357984998,-1.1544733969105698,-2.4704355790903993,-0.9807914306652409,-0.48115779593927255,0.10117268052394782,-0.7932805928527247,0.9966287994032076,0.02386916752090387,-1.5258240798658032,-1.1568339067617028,0.7689412539292547,-1.5635801805129084,-0.004072804761896343,-1.0655370599370502,0.5153078888318182,-0.6818239749833456,-0.11306017824277469,0.9941413381371993,-2.0912364333882665,0.22545753213242858,1.433316040003094,-0.3980969663144484,0.05977254572445238,-0.8588042027659066,1.6503993700104072,0.5682448574588916,-1.5209442528622723,0.7085249493798852,-1.3525680723959963,-0.6583538566755003,-0.27356584700173625,1.2375862542608134,-0.014443447885750253,0.3416377281796526,-0.5202595397239059,1.8222831780594886,-1.3055849309340046,1.4931424486400016,-0.2650713636744383,1.0457069841902584,0.7646738240762778,0.851010298568162,-0.5089992737617106,0.7336448848365341,-1.028710832824862,1.0994619343355985,0.9839465166385106,-0.6977563714161169,0.419332438545643,-1.614566800402769,-0.16940852675352164,-0.5733835042676368,0.08001583507855357,0.7744784986474677,-0.5459777723012202,-0.41974393083100864,0.2240258650081291,0.3492898843907113,0.5416791055761244,0.6352725451101289,-0.7538921758757565,-0.030824684700034955,-0.9406957139003469,1.2320741084959812,2.114472402895046,1.5389509405796324,0.10846716367997077,0.17360721336789425,0.20110896551649243,-0.12134317938026828,-0.9667858249094664,-0.8459805472545424,-1.8683272429898687,0.5289865089346067,1.1720970284820234,1.2496580415360832,1.1980761033725704,1.7808928068757286,-0.13219634022101492,1.0704902616877217,0.8127274850219076,-0.9951635544092666,1.2957694961357928,-0.4349227447173418,0.8452634540209115,0.6952295595943861,0.2584905435116663,-0.517646334853655,0.2521611409728141,-0.9550785305156674,-0.26479283427334865,1.068836956244494,-1.4387902291357337,1.0167397499456252,-0.8609470755839966,1.798708913451771,0.8257555168982597,-1.4862753903277384,0.24907627040534872,0.5677419246704687,0.8781221089155878,-1.3790375301952378,0.4283794141397673,-0.57500244941089,0.5248518032799414,0.45058960394264597,-1.684880760785236,-1.3330211447390787,0.9836818696750023,0.6920026769880514,-0.554880847912772,0.04510427891997808,1.2870387257779503,1.043667056324692,-0.228607495022415,0.14365674026224567,1.2522068608383523,0.8495823354655101,-0.9513201626846227,1.355433628218134,-0.33212823683895115,-1.873356436019274,0.39509624718846503,-0.5398904700108187,-0.7752773598059549,0.23111951216234738,1.8033100004744904,-1.0333204288049844,-1.5087104996691194,0.7542168440789833,-0.5651252565598991,-0.7594245568276197,-0.21127121221051082,-0.5487442524570102,0.6085343083845429,1.2236017598596116,0.7830968894167101,1.223433247505579,-1.0266683831043357,-2.1107831585493937,-0.6744939243797764,0.5689235972593999,-1.7855661225422899,0.7321951484329166,0.6042312789533539,0.3572433808518055,0.9215948354673398,2.124570175627,0.6794203330369539,-0.10588958748810373,0.1301697727894496,-0.4281887846747354,0.03918699790962772,-0.2017445292660436,-0.015479328727388452,-1.5898352262115558,-0.34527004378589304,0.3453309694888136,-0.14703017665843926,-0.3074441858867645,-0.9219085502277443,-1.7988051093555129,-0.40781308415160566,-0.2999208836881702,-0.9026605171476605,0.5288764035638098,-0.8718191418629877,-0.7721965320325491,0.0316823774369363,0.34659626255500103,0.6953437034612915,0.7179741654905357,0.9369781066709826,0.8913600579969728,-0.02199175651279183,0.07099001517906695,-0.3956409952016546,-1.2122082152829454,0.32945689362938263,1.5789041538437814,-2.0123809406259165,0.02748170589689205,2.1123690744409,0.3602775386643062,1.2180751128676006,-0.4467868334557719,0.39420631521880756,-0.2728843055130455,-1.411642050116521,2.215936273676782,0.016124526177565338,-0.0380614732161856,0.75557633485897,-1.0435440947195855,-2.6754496402688983,0.31221253975810587,-1.0638526911999038,1.776603841600009,0.5527984396633765,-1.8760781474580517,0.83480819965031,0.8265530677935302,-0.6093250899300521,0.3346441779061566,1.9601244189984082,1.3305684660182207,0.7371764713818428,0.6650412575541828,0.968024515201567,-0.4926214433398659,0.5341416573964002,0.5643297056229291,-0.12487374917839021,0.8155024183423116,0.9973561632313934,1.8360575997840711,-1.7099025171921718,1.849752162927124,0.1913504562660818,-0.2590595390382113,-0.32241129302524846,-1.2167995473480187,1.1336112324057974,-0.698161337977165,-0.664853715607679,-1.4481289412939033,-0.30880094073962633,1.0935522767572001,-0.42454048528610694,0.2794353847105927,-0.17782770881649218,-1.4323661897694566,0.4796212256922458,0.7800329191492837,-0.4314132215783929,0.40874127227501494,1.3999963808923095,-1.9979384792190744,1.9746120086849461,0.40215963771155283,-1.1501324152691985,0.8471270718700804,-1.0591420481692548,0.08467379417230828,1.1705246145658685,-1.1149412758558668,0.5612099837914128,0.49603244346888314,-0.9924433189166423,0.5783342211585694,-0.024348255776713682,0.5109254878142128,0.9906061687408735,-1.4105885164167353,2.1593652734959283,-1.0776718638835272,-0.9804983755545015,-2.5138669785438172,-0.41163870074469316,-1.30555389790952,0.43877893100418747,0.2498922160085206,-0.737845392091373,0.4269861757585087,-1.0361944940241954,0.03321355795312616,1.0507205376743705,1.1941420609059703,1.990046185469736,0.37218420407368114,-1.5410473439082117,0.0710386511493225,-0.7072938544048076,0.5216366300421849,-1.1517642562068184,-0.8338642773157715,0.6648855728269616,0.3163798059237974,0.24287923504335915,2.004119779547158,-0.5082136313484192,-1.5776482459831458,-0.3132600140219388,1.5415605931023382,0.9169715927750552,-0.6249873783834375,-1.723171117650367,-0.33786025739088504,0.14602284857558184,0.9333203714219187,0.899734706462406,1.267999455214767,-0.3748266637763071,-0.9620593954589312,-0.6894464076227945,-0.41887519711328774,0.934224524311539,0.37197807103600167,-0.6825107145370325,0.549405138974425,1.6731527379145512,0.2689003592407901,0.09529774315217643,0.011399156871790574,-1.5823332375040635,-0.6212431640249189,1.5261216696018054,1.5761612596958814,-0.4879906011682438,0.3663836748347489,-0.47276181599216655,-2.9199083391600027,-0.40629061503708386,-1.986222615339774,-0.6056569950830474,0.04401832655458774,0.4691496354130747,0.24404579617006575,-1.077228427137133,-1.575474676288086,-1.4396285452391029,0.9039562674011349,1.1599296587638606,-0.3075587406269987,-0.026232508011968653,0.4032597118002229,0.05983675316367844,-2.282080133680505,-0.49018717448081106,-0.16314073483803251,1.0947479451405489,-0.19903118010649817,0.9278385785101171,-1.1199289087253108,0.5572017624932833,-0.16845473625091129,-0.8508501374988261,-0.5423680451449258,-0.5606886756281194,0.18194056150217583,-0.6216351155570373,-1.4689989984158032,0.33717459348906337,-0.19569977089555174,0.026750155319636107,-0.7438493570647019,-0.5039853117998747,0.06729229159982791,-1.378810034975397,-1.3294283511815672,-1.0150099132810813,1.4694012698116454,2.043943999805689,-0.4946924001653526,-0.26133948417916525,1.4058867329881362,-0.6352583831831621,-0.016139309129895214,0.6335062362748757,-0.44879281125710563,0.07064981878377427,0.10964784040587404,-0.8859438912829481,-0.09682108866017852,0.7031475903865233,-0.8208936531943632,-0.04406059664840247,-0.4134061205550681,-0.7213630643691559,0.127676229105029,1.5004041094990153,1.076969092460291,0.34508087853939806,-0.5758569430436956,-1.2415235190962362,0.5606709039183565,-0.592910811413446,-0.008758185969281029,1.0449343993476958,0.2826076298855413,-0.7478458546254496,-0.32568695919283713,0.8942138824346775,-2.8879052800613376,-2.0867911662934997,-0.5159174144522558,-0.26799145205682195,-0.7576659830171177,-0.7021013266186771,0.3802438014307828,-0.01710362400134208,-0.17723640549302863,0.8283287246118813,-1.3081953202133767,-1.3400666253081712,-1.3685092766696447,-1.2689675811369152,-0.1986411409972335,0.35513953623355493,0.846568423309468,0.2674695118755295,0.15962705524261184,-0.16712562840298592,0.7332278010002719,1.5630685212646103,-0.6342196268787786,-0.4208671043262734,0.03704187466622961,0.8343591800584658,0.8325949764933093,-0.7950403530732185,-2.142706487643676,-0.014300650644476358,1.1024785586577188,0.6571212875766215,-0.3308119859223236],[0.0005458093071945501,-0.11399463870395886,-0.4091993048835288,-0.7501319880663206,-0.8422646067962744,1.46734634528358,-1.3307934399929535,-0.942943655057414,0.8992855593026202,-1.4648710252279258,0.09828103033095627,-0.5928693236455368,-2.0918478719116216,-0.07852133192773524,0.2690979122649478,0.36756991874531253,-0.36083683364430924,-1.6943892131426335,0.39821549375966936,1.103346078805174,-0.8576189353927816,-2.194035915964309,-1.384091923543336,-0.07489101440662195,0.8522499607734325,2.5624938496139156,0.007287090401387931,-1.3011541550661008,0.6472598170948275,0.49317550964469825,-0.90863598622084,0.4646677186147309,-0.03153840347110416,0.6784213172050293,-0.050392340429563955,-0.3955071619692064,0.35364206652090174,-0.47582812917672207,-1.0773141719757584,-0.5141581561194857,1.2247128659800124,-0.4647386113294806,-1.054808507654795,-1.1613475353472702,-0.23890564717565058,0.2689826806038648,0.046578433744180574,0.8007621923726435,0.23260871708325126,-0.5621713105754829,-0.6935128897548538,-0.49150223460126663,0.34790598637528536,-1.915589930779402,-0.18286153096219843,-1.6570787234325555,-0.9889172430142248,-1.04249048131287,0.13044106951744033,-0.23824416253588168,-0.7027958718408429,0.813608231093038,-0.3613716249206436,-0.1874348455076079,1.3192298279869856,0.9086860048157575,-0.3072431804004496,-2.2739942827343955,0.23199757420933254,-0.4924009493160111,-0.6445180939302301,-0.20407938378546892,-0.05625981066261611,-0.2630194964980356,-1.304687069270854,-2.9483670391660333,0.7617606915675106,0.2715672846106093,0.6204853385874435,1.1441675549241288,0.080561734755119,0.4090798360880156,-0.6211037509762882,-0.13191891622027707,-0.8850507650737818,-1.653068361971646,-0.40227543022457185,-0.24213286795498945,-0.8767678431281027,-0.15693349110652846,-0.22359282649864282,0.637670940249079,-0.9667984193581591,2.1123636209788743,1.3642129884297471,-0.5560179215098736,-2.2590407943189583,1.0351442242971485,-0.2672189273081495,-0.14967798598523283,-0.28352565216887154,-0.908688876921852,-0.4169426132221604,-1.613970104149693,0.35162245476296955,-1.5529428607106979,-0.2488777364658686,-0.03354015941574864,0.25453766513027754,-0.3115745065572861,-1.6425206493605373,-1.3065377876267674,-0.7886122793171714,0.25468889378968934,-1.4229046991541416,-0.8613723297256464,0.6632210034996369,1.2736100135351864,1.315084559678309,1.153578938117125,0.39306781923710366,-0.20711380315848016,1.3606917551441515,1.3057061615789525,2.098539149191117,-0.7680322090543753,0.0021277770770158034,-0.5722121675669992,2.708017476500073,-0.9086441427973945,-0.5101943625695792,0.2800326234535363,-2.2158579439185435,-0.24936316732175953,-0.4509202146733224,-0.022500470546890715,1.1962515628515966,0.8428093666770068,0.476773760782342,0.10647929086318869,0.4738305512043174,-0.0818761914618655,-1.4923201585468584,-0.3528064374789231,0.46866308271185875,0.3278780394843215,-1.1811758630103704,-0.035317573867375926,1.0506533254808548,-1.5864060304574303,-0.6547280040929306,0.558146580238138,-1.1248238924022285,0.8110472088409489,0.7330979980455014,-0.19935037208958115,-1.474384911543773,-0.8446354550211022,2.8819239296850454,-1.3262683569201497,0.4099624193955316,1.3018278615532566,-0.534986634295697,-1.3310674888664502,1.4686774874391135,-1.6419718340383673,0.36751696812692514,0.3824955543342604,-0.2865563779903212,-0.3540491853989913,0.46337143146259324,1.0212718166754844,0.2868899354217363,0.6400259905931371,1.7443501994346937,2.4869144360294446,0.4022797066586523,-0.001663892549305575,-1.136924323139839,-0.7105463159393283,0.0050758392070420185,0.7176727890918189,1.217437587748718,1.1563059483121412,-1.8085178425679445,-0.09723970894669656,0.7185957348292352,-0.42283162231532656,1.2410648378132547,1.0757269067839799,-0.6383751080779952,-0.99012412980043,-0.863698344200836,-1.6482829587363577,-0.9583177765099405,0.23571059348510584,1.0966663950559847,0.05918315649862777,0.22627142414634902,-1.523241377353539,-1.1407689821160227,-0.3903302504244538,0.677964526168539,-0.6428381165742887,0.580421420596591,-0.3745181092537857,0.7360709289481622,-0.01945354513798981,-1.7569613134928557,-0.10633661576908734,-0.037221411965469256,0.11702910932392009,0.7049501903963686,1.0879423677716518,-0.7561282904677236,-0.4871041755913385,0.8102770387401638,-1.095469852790071,1.0560916984423208,0.9789954376837529,-1.2007493786445749,1.2455587204281888,0.5216063833882877,0.183995550730083,-0.34964438947324805,0.23606681763407739,0.5097110655335509,-0.7219667248306761,0.8302024311260633,-0.35863060543519204,-1.0000194128122064,-0.6757351756457486,-0.3996828276228553,-0.36150372139138087,-0.5410250410388537,-0.3513336745465278,-0.5975269003177489,-1.124127213565495,-0.20594608008149679,-1.4151021074206442,1.9553065643115122,-0.5673340483341826,0.8571871267389249,0.6107839544996357,1.1082044449126458,0.8155827696190652,1.4497858532688155,-2.052063288247553,0.6371132755150104,1.0025493221846262,0.43797981203409736,0.04459345627236111,-0.6211761854157242,0.5493747737403915,0.3409686724481749,0.23306190107067778,-1.7671787929559892,-0.7831703808675379,2.162735330257891,-2.186934070378564,0.9917114206772962,-0.34023430903989477,2.751319004011492,-0.18771059256606676,-0.1296084511001945,0.24328125670111975,-0.6576771659635693,-2.9875619597097867,-0.5063734405334431,-1.397479670525279,-1.180707509298439,0.5533631099075413,0.8806423151679119,0.40013400791846687,-0.265131034787939,1.0269013462959231,-0.662947146463351,-0.4233807983969821,-1.415319529770944,-1.0891301720306186,0.547651060604322,-0.15254757317210263,-0.420546767947367,-0.4321802977430435,-0.07374928553334234,0.8363626585404761,-1.280117977588675,-0.6046515443390907,-0.0324846922786805,0.1330816202283337,0.30731689821985475,-0.24000380014504416,-0.37881527086205574,-0.7655219371298402,-0.14991595494923485,-0.17013680318133512,-2.110308086728004,1.628968341518648,0.7143062833845382,0.07723586082318998,2.046400733275716,2.0504239855444943,0.8815458993993134,-0.4169268682048835,-1.9371991604594727,0.06301167646809921,0.085637655764211,1.0230707079232888,2.363566305061684,2.0959019163674504,-2.66627652822596,-0.7406656908120981,-0.3821283435291119,0.27861985851285404,-0.2875098024784385,0.5095041396867996,-1.1422214878384922,-0.9995494648567018,-1.6002134955267122,-1.3516521861340118,0.534491389446029,2.9981941074108875,-0.21794288833318226,0.6472512403970804,-1.4040887335243486,-0.24165107045594145,0.04554685738088798,-0.9919694886378435,-0.8961651798846857,0.3267664962708327,0.5298483460267787,-0.028172211208625637,-0.32507350424057213,0.07885277795804278,-0.7269836232338401,1.5933170539633523,0.32861059749782845,-0.8724592211263869,-0.16768173622269889,-0.8130380057913037,-0.20381524603173132,-0.10099395251306151,0.8194954434326798,0.6413114166606634,-1.6811002049627448,-1.3809264326118702,-1.87421709154405,-0.8411938481153816,0.7963162789384566,0.8169699934843758,1.8421467667064637,-1.4730219571105025,0.00021260017499747586,0.7573933960665592,1.183122304217663,-1.159161703309863,-0.17084714407353782,0.42369597351977495,1.3880224022144274,0.02401588849224471,0.05774666044521654,-1.3734499984694148,-0.804259668801535,0.6377326570438094,-0.41636077350470113,0.5819683772065943,0.35022953622977593,-0.6366176910168242,0.5263481530540867,-0.337926779540119,0.2083861796613278,-1.6630251213654748,0.6114030784418762,-0.08746361704402088,0.1544118849906451,1.1566152901325188,0.1529370427190963,1.462941864511953,-0.598627303114626,-0.5743624105102373,-0.713571627086574,0.09602516984571409,0.27378252309446904,-0.17142121339980385,0.930776880126607,-0.2897707004846823,0.7281702391078948,0.5466833790832374,-1.8285711224963543,0.006490863330741178,0.48529845576080427,-0.4375853875026379,-0.6725493888294194,1.4736735388714177,1.6391572524267828,-0.1088458308944001,0.7009541892053199,0.154857651771405,1.2213357595415752,-0.3065071513420647,0.38656192328273475,-0.12889503542327552,0.26324939376258316,2.5720496739188903,-0.24967062609980387,0.595976141713946,0.8216340015965864,0.4976321654982193,1.7397243521881467,-0.4033007989390914,-0.572356106183775,-0.17367276276452606,-0.3420081785394631,0.4780920508251366,-1.5227749640808972,-0.6929099512878016,-1.0980066716706063,0.7918726504372147,0.3069616871414851,1.0664213904324005,0.3466105864036268,-0.5920505577742167,1.3130820786852322,-0.5090148895748425,2.596669810881804,-1.9364377119354905,0.2750825485993764,0.14660250657466506,-1.6648772212974006,0.5027649807385924,1.0799963847693075,-2.8815008842447547,0.7131280357379237,-0.2522338866746624,0.8473576085819237,-1.4370511066994645,-0.7066164884703762,1.3180014089488368,-0.44578819111963364,-0.6717694569685727,-0.8029488514172345,-0.8066161571211371,-0.10067552799719989,0.4408553105254438,0.9986583998059854,-1.0522022857034348,-1.2936751365316048,-0.33040980908820755,-0.2302911965246398,-0.7541071542624933,-0.22877144806580307,0.46110690914883223,0.10086521154217198,0.592552880612389,0.5834423460622262,1.114316719641219,0.7454846232893676,1.5975765347996285,-0.49386140655049443,1.0126111582013928,-0.2629464641741927,-1.0193003535883713,-1.1207280473544912,-1.863386867605904,0.5276365208034437,-0.7506823249756818,0.7701241001611393,1.0993127410892882,0.8526626481785846,0.02090801236477764,-1.0997184094421573,-1.088994592627225,0.6141578998365432,-1.2276174728133604,-0.3172148640665646,0.9636856135173987,-0.9319311151318376,-0.7181935625100042,0.9491038707795398,0.1221812237929244,0.29051981737184995,1.4496122390388029,1.1217324621616158,-0.14075499634285407,1.2294208133115831,0.5319995897108951,-1.0992407268145068,-1.173918287406373,-0.3846148756882773,0.130165956116654,-0.2688137193269426,0.302925810440913,0.7956850761026787,-1.6194833137710112,0.9922315537304129,-0.37429737614791503,-0.9460593266402727,0.6238678579336623,0.42392975591699056,0.1539106054795532,-0.7548546030969187,0.6108194645857864,1.298874201004047,0.6350018789060211,-0.6431064121741609,0.04596959598941205,0.9869787599462907,1.511713094975839,0.919828127098373,0.9293676777441088,0.93275164992556,-1.254372594604635,0.9354558376417687,0.012706252345990767,-0.777586603194753,-2.3208025488702257,-0.4016523332100987,-0.9314854684804701,0.1915040119342422,-1.8249700847625074,-0.9003675082806599,-1.767249841253115,0.6075500638279538,-1.7175482045066717,-0.2770060845418574,0.4271959792491197,-0.8923927568385872,-0.8635879168727536,-0.30434393506336194,-0.6831745425994626,2.1100476350254502,-0.5800330367678027,-0.18599861249321448,-1.8399751637902504,0.8186791712586243,1.2937396066674065,0.7003111879194005,-0.9250984911095752,2.9238372127334045,-1.3879978862443159,1.1828443548764518,-0.041273651962812345,-0.07707294167831377,1.8332919684130295,0.8633249237739963,0.852505644181306,0.20904681615026033,-0.14620734517888861,0.07530184924203048,0.22631598519652119,-0.5305844731472344,-0.913817143142448,0.2602329833140059,-0.5370491192067405,-2.1100206877264402,1.0581364163727618,-0.3223436207678306,1.6843533088673797,0.4156679577081806,1.1670870709193206,-0.4083892296964033,-0.32171893967372134,1.5972181331807334,0.07063752800916462,-1.301887693581991,-1.6609187022780445,0.08294426219575125,-0.3812277328602366,0.2048339612419754,-0.024647437843224568,-0.07869224122214893,1.0934601538005682,-1.269790676756585,1.391951878955819,0.29067477963702704,-0.19143533759394865,0.06792104511743888,-0.447885106395959,0.6010071338801342,1.2269510011757128,0.8858048651240236,0.24334552012056607,0.9609268413852479,-0.515894748203623,1.2124928561382255,0.3888388151145417,0.08302468188025963,1.2156946510074058,-1.0379325253447667,0.3015673998238573,0.3421768280144295,0.0484255985576799,-1.1686795574802533,0.46081186007591124,1.4360393865643577,0.4929910508616612,-1.0730119998705219,0.125204310421078,-0.6099929253623232,0.7992169012979726,0.1332664438768192,-0.5898072785532096,0.33226930378298003,-0.4893343876367184,1.713954062098508,1.4999128419897625,-0.2506029837715869,-0.14336319988669402,1.5374195105574109,-0.18512721498300116,-1.0302327327117822,0.43462675316737326,-1.855330602937937,-0.3818768746011671,0.3619803312939076,-0.1983553922532078,-0.18258666585943187,-1.811527860343111,0.4005413434557642,0.502631581072353,1.6575297219193221,0.7835047436599973,0.42262387557764924,0.7053784117365977,0.3965346284068672,-1.0730077249576082,-0.6809339105166894,1.1009467141792484,0.37794450433333016,-0.09883821635777343,0.5721529597844359,-1.7658590454321557,0.23624223470277672,0.7118830428750486,0.09866857598214605,-1.0881298893531268,-0.08933199317350286,-1.7857580121400616,-1.2787820674885781,0.7598070835278428,-0.6104716101557303,-1.0959762576842162,-0.7685508922666758,0.7345298197100552,-0.2719714125814125,-1.7877337419054184,1.0973528000104245,-0.03950805770629737,0.9293740085576558,-1.2696947146237505,0.548088066564032,-0.5458385362292257,-0.1810940584177799,-0.6860181721388221,-0.6400788625957513,0.5779060804279997,-0.42593426370739557,0.5860438075044778,0.42137754250001963,0.8093635101653327,-0.12813186001460758,1.5098960086657516,0.03391097506360736,0.9779784481369991,0.5646322177098664,-2.275731839057417,1.5349533985058752,1.9909769078261308,0.1378792995674965,-0.4166463484921531,1.1924060628812245,0.42391592496837427,-0.21209051697076411,1.0644566013886219,0.45210283531174816,-0.3962156347857297,0.031737131653726984,-0.10532818178091705,0.25605726145587415,1.4625165568983782,0.995495335055,-1.8064185109867263,-0.03713328750907375,-0.09096331896657017,1.0076849340628893,-1.0640769654936542,2.938569043310723,2.2782165233167513,-0.999353652176769,1.0179261978336962,1.101847321353152,0.5526016387442617,-1.3325436774877872,-1.0677662140479935,0.13311754467850742,0.8484243100098954,0.48400316691275885,1.8296568289634072,-0.712593999771302,-1.1197370342696236,0.07755093395608995,0.47491807689836857,0.058566240654720644,-0.13511584758248477,-0.2686345888228419,0.9891649809516703,-0.48544869591125556,1.220248193188273,0.4483947951939814,-0.710489228993585,0.9464113789170768,-2.486374068243957,0.9726483104814749,0.4675308359510074,-1.3010596366206932,0.48461902878799573,-0.133519147744589,1.5673640670087112,0.21735426790673623,-0.18749312096250634,0.792310128731768,0.3334254283130855,-0.7758003403806347,-0.34413923733047,1.4283312530916124,0.17888278333217442,-0.5931703223263446,1.2979041084733562,0.30562553123881764,-0.05495788940111266,0.01812985129251278,0.1417291697463899,0.8464792243786678,-1.792620510325217,-1.1019716658629493,-1.0549282407952107,1.6036878429471437,0.4740723825992445,-0.6490361954532811,0.41981362532504923,1.073914718084519,-0.8723125339710001,-0.7570341013236489,0.16867767987319557,1.3395365978870464,-0.6525863843900501,0.7551275555375244,2.4584740367776403,-0.6123901684278086,0.5629913733297144,0.04995954401911293,-2.2865699567770283,1.2339225388582398,1.593418763785787,-1.0981197784163028,-0.07248593628780932,-0.5190396694708357,-0.6163774180405188,-0.6200135757232678,1.1287305220224224,2.118160837846923,1.2625243845257876,-1.7701437525931958,-0.4397791261210826,0.8359240530343017,1.134555598353702,-0.2453036867084899,1.4175080746506679,0.49464774610177126,0.15365937604945823,-0.5652265759344779,0.18320912820846932,0.7996711044489584,-0.4962685090287165,0.9343954095869643,1.0612496282167314,0.05353299134590933,0.1714793962776429,-0.26736464885870465,0.3336703962036011,0.3836849155386172,-0.06020529555368587,-0.19421976593644968,-0.8043963076490905],[0.1505691188581134,-0.2925606371802407,-0.06783224471775201,-0.740099155089602,0.008941566479128938,-0.7147785092352664,1.9352315759870091,-1.1617054040920742,0.9449343012247978,-0.0715833618658681,-0.5782519923576148,0.19285802218320527,-0.47295930792459484,-0.10272746351009247,-0.48883287334707803,-0.6644315510781573,-0.600122210566055,-1.0921234102812567,-1.490884462879493,0.85402474725991,-1.1132949356250883,0.027778901230089893,0.8201983824104495,-1.201862153835489,0.14871315755447823,-0.17871038806487716,2.0215260343469437,-1.377133042182847,0.7032417220957399,-0.514972699986304,-0.612389618898255,-1.157014650929987,0.6553130649727426,1.1623357017651375,1.988884845039907,-1.672410607448236,-0.021899002744229627,0.5092368874869059,0.502297264800945,1.433918624289378,0.0762514208912131,-0.6549956120929035,-1.1506749459389116,0.14642832236327444,1.6335713832317948,0.47734386955382807,0.5016431923408646,0.4231005567827928,0.4912569428993183,-0.9408593656066381,-0.38278293027774274,0.4296952524306245,-0.03508138344496842,-1.2308621567291254,0.2701311180693536,0.4083947578680068,0.19848028582132307,-0.4399004944375085,-2.7121403307571277,0.3161845643297198,0.9030607585137694,0.26444147621335,1.8486844883647808,-1.4477748546535953,0.28455238347035205,1.5363581125714607,0.19300412301741457,0.46321278946982014,1.038803507058466,-0.8087303014685314,-0.2134505665627396,0.8175605548491286,0.26467226430379664,0.4559881351499596,-1.7758679809015703,1.976412942468996,0.8779211949877573,0.1359432200856827,1.0170218283204695,-1.4799224331597935,1.9209168327524686,0.5298709766999534,0.08367853699405535,0.927851037617911,-0.12137169343095366,-0.13527218544500197,0.17599992308536552,0.02479512293516299,0.6134926219231323,0.21861062029057343,1.6445299337339945,-0.748090517755555,-0.0076676894946907095,-1.024709897725398,-0.9836068447380063,0.804310588400153,0.3187684718778788,-2.1348169685676024,-1.2581327231165245,-0.20477408133106925,0.06888849346919838,-1.0411039140502105,1.5907464553670774,-1.265836237060157,0.6162420667067838,1.876522658249175,1.5437282473463863,0.5552313408970305,0.7793388119089457,0.6046443445903648,-0.540389522966714,-0.52273643841379,0.34105534710228946,-0.03631934565554247,0.2540229931919907,0.9798511867270296,0.12941473326840022,1.2166585603712898,0.17603885587254278,-0.2626585097369543,-0.25020016167757547,-1.238510781116101,0.0358979700371478,0.11769825647089976,-1.153035809743642,1.6695005458517738,-1.1761227527441491,-1.0610284032662125,0.909755689343253,0.15331788249288072,-0.86470892129598,2.189668278960101,0.32751688517298283,-1.0564524213128879,0.31622773692434175,0.24358025712012768,0.6387191909776155,-1.5403239491818714,0.2542279850069709,-1.6642175614801522,-0.4379513912155678,0.872412807968054,-1.0761927141682384,-0.521016123989635,0.12801299808706637,-1.9017241724979381,1.2463404141183245,0.5777686363344909,0.3333004901955468,0.7867805849598714,-0.21190920941062502,-0.09199912651144634,-0.6530445366912453,1.171609193321305,-0.7252612004184706,0.013327656401659187,1.6032048344260115,-0.9625577103668199,-1.3960381770255967,-0.13627599372868898,-0.107287253454687,-0.5062453818124004,0.8234650515095722,-0.4225198046617192,-0.535389444998664,1.4340661961626415,-0.8671494849433523,-1.0168849862784377,0.6191440901023989,0.6552621668264547,0.5801505555112999,-0.23950209883296786,0.5609708383217145,1.1880987247899089,0.46875798186440626,-0.5557052088958764,-0.9779840464748799,-0.3535128562947149,-1.7005471271138723,-0.4621075626595187,-0.48771069599196426,-0.720197108801881,-0.6086539496015584,1.7972254943254136,0.16332487071945057,-0.0393659896422004,0.029411519856719595,-1.0205087424516834,0.8490198895309957,-1.2673067831870066,1.697985180372245,-0.15641663649340243,-1.197766194622484,-0.42377624776978107,-0.772003210140194,1.8477340249578944,0.4010548396904587,0.7588664661036947,1.3802514330324753,-1.2194126192331516,0.9047405418284451,0.6246652356788809,-0.10260564703612372,-0.35863295448622223,-0.7325373142702587,-0.4555835402781899,-0.3977456929349833,0.39990709484755793,0.8065013596807934,-0.870092335050692,0.833816020827808,1.332385298023164,0.8788415574003425,-0.3848676739524518,-0.5801322109133973,-0.5813436810373872,0.19590874671443428,-0.15809133041676562,1.2042040388254613,-0.6847699699768874,-0.8592744468088166,-1.3131771802883878,0.2826564083257318,1.907353824258182,-0.935520527991611,-0.8606074725391205,-0.14692461099391582,0.9515827656977087,-0.5163445663008889,-0.5398430771603331,-0.010928583890344885,0.5777480608797099,2.1624546745005397,-1.3961609133986468,0.4838698305443235,0.06931447785293368,-0.027380203156333764,0.25948755225821435,-0.4845829749404726,1.6285547045253315,-1.0190083486327046,-1.5810284523714957,-1.4885858234178861,0.04040547744418526,-0.2963841489064071,0.860957783166798,-1.694113968092374,-1.0819669146946689,-0.42542246374452014,0.048647484915125015,-1.6165384490603385,0.9379249802380342,-0.3498870377666535,-0.703574453761111,0.6856351541326988,1.8123597402641898,0.42652074992798095,0.06568960705690591,1.3380414588989515,0.03930599308944282,-1.1544696463055528,-0.1491373840212819,0.7473454738353519,-0.30491869066319294,-1.30298371413106,1.0170513413669215,0.22769731232020182,0.9736617064886414,1.2280882476079842,-1.0026670656311478,0.1041556345082313,-1.8294906898821583,-0.03470876921420257,-0.6779480091817831,-0.9697434618488596,-1.476032209980629,-0.256568179901738,-1.8606815054609427,-0.12953733342320278,-0.1098702693217863,-0.040387168172793954,1.5643486260950483,-0.8314759046453059,-2.1100294764080827,0.6794197273866717,-0.8915700361954332,2.8815758874562873,1.1900985392560866,-0.10489300709070427,-0.05074188739173726,-0.28555153836530744,-0.6234072075498476,1.2401531342812069,0.3724057171102451,-0.9215349010747628,0.26302370514233764,0.18018589796634735,-1.0757951654456241,0.45683183454063114,-1.8863767145261396,-0.26931709565157785,-2.30849791737414,0.8542004014498769,0.6234341268029437,0.30577523354674335,1.38287255821441,-0.32758852638375474,0.1813613071486631,0.39704586244936746,0.25401107346953095,1.2861897625000462,0.5345372708245018,-1.1684657815043833,-0.3013664529688173,-0.14357842568898216,1.2301274871500605,0.5608578358977607,-1.0432179255010063,0.4589393987659496,-0.7115921392579017,-0.45210523005564573,1.1026244841754465,-1.6207407793721107,0.05537610785877467,-0.43714843211132137,-1.0368718809300281,-0.23112241135463255,-1.6660314984315185,1.3652403668131272,-0.848782631380088,-0.098801435071028,0.7918444891714423,-0.8817339021917876,1.06488359228548,0.284965540626553,-0.7637488749687598,0.2608777364381481,0.8929943225677809,0.5379410225726645,0.9564106640774832,1.8301423181963603,-0.356502891485753,-0.2982606710488288,-0.34472609367500623,0.7758442593063437,0.3779935713932929,1.2013213348394638,-2.075620508475877,0.20355198887324474,1.8500522874469032,-1.1721575389616112,-0.7102240878509919,1.0104217377655391,-0.12888619871254156,-0.20100755873027812,0.1936432805175283,1.502432923789579,-0.5224288474138675,-0.9035599847656752,-0.05784613079833775,0.46817301818279344,-0.9022036179984743,1.5328945733929213,0.8256309745440961,0.4066836023409856,1.341206190781137,0.2354662330614913,-0.7076116767790814,0.6395905859617311,1.2577702176876386,0.10433554413563989,0.09979672976338634,1.0486185205714318,0.14480883031137204,-0.5506706680483808,-0.16220294388352433,-0.9291191335368161,0.12470749725048684,1.259609028164615,1.2660103773746412,-1.4917756048259496,0.696007296909465,0.40736470329136243,0.6558468049880414,0.7652648287819658,-0.7937421707212262,1.9862213821619565,-0.6866975123487451,0.04170239682630914,-0.8974338299105781,0.2117577975702736,0.5996701862492783,-1.3724087860488137,-0.7356035390201746,0.24527627627974902,0.008889628695292025,0.0964608634041574,-0.07990680174657883,0.547438938283022,0.6214814729957149,0.21172682098892615,-0.45199092644729044,-0.4756560395215524,-1.4172157997524932,-0.023038452056688318,-1.4905029467710336,-1.198309931072649,-0.046886195659596015,0.8696589783554292,-0.5942531077854215,0.19926615769757308,-0.1967065025534509,0.15047404735429837,0.23344334787045498,1.683605841025431,-0.15635849333270413,1.054548944404002,1.218289485405882,0.04734034730245709,0.37295330814630634,0.39550191210120644,0.5965312017380968,-0.8327202997160502,-1.7479447555894718,0.2148623774098663,0.27945337478025445,-0.7201807061112382,0.5917500951179335,0.7252077720994222,0.7370348145743305,-1.1614822017717858,-2.4563233915365066,0.5601632169036835,0.4021084811082776,0.3405294556813437,-0.4463116208078335,1.188743533073263,-0.38397252928478487,-1.3448669478998039,-0.4277307455023433,-0.8126791733670685,0.5799954532953545,0.8821916583620147,-0.11966731705652718,-1.6591376511228686,-0.24944665716557343,0.24053876611680908,0.35893563991613503,-0.4569117622669671,1.8037880960897756,-0.5280561799324052,-0.9681457513266418,-0.8096468847046242,-2.61940919752887,1.3626762866078732,0.27986009669663553,0.7163501686114603,-0.8979780449640508,0.1976982691797057,0.8301309958320483,-0.6675402758473873,-0.9636715494955056,-0.6885792332054805,-0.8438133715565186,0.0624056138277515,-0.07894726560298616,1.4297378537155518,-0.9520744024474637,3.169571462011077,-0.7017181941624706,-0.9083742497185067,-0.2455229395045246,0.9483580241609022,-1.2602450094414497,-1.5644044281214895,-1.032285564338757,1.4619305910924554,1.9477745267474762,0.7211037452550987,-1.0105127442700028,-0.11861923121712876,0.16633322738397657,-1.1374645214891888,1.643205475206328,0.5665891342625524,0.2677119583488053,-1.158262355677182,-0.5292395310829782,0.46073766298311186,-0.4136180149812301,0.02969460797239512,0.9299352717060342,0.968691132824846,-0.26397273133981064,0.521242227378992,-0.574414449048489,-0.5872120399374028,-1.1281859958787623,-0.26825982095511924,-0.21409635659799717,0.05518032216301858,-0.7572351470621442,-0.8135210807225025,2.3440500770314294,-0.28961301884223056,1.5139275777029588,0.5104978211007543,-0.19338309605578025,1.1287764325951795,0.061969391299999815,-0.4489778601150205,-0.6707486355861301,-0.9527648464561826,2.027026683174157,0.6656232345850379,-0.37317165579246997,-0.06429088520826887,-0.830549020938144,0.13233218415017842,-1.7140422453810107,2.0000180479457637,0.12647063280200527,-0.15411506509548142,-1.1222598415279728,0.2396215304407029,0.35465889810295215,1.910854897813232,1.197474599138007,0.3805940103244739,-0.599702950393508,-0.2248433818037717,0.8795720079987981,0.1729068627282061,0.3185390241625751,0.13483978944522454,0.9930354051710705,2.6632940003697163,0.36848072224893996,0.7211511880837582,-1.2676799389547904,0.08044476451663009,0.7556082909653167,-0.9265355579409086,-0.8246596153892622,1.478600429436925,1.0100342980006705,-0.5237489934566844,-0.4797682086017526,0.1489902216513599,0.27161356513285917,0.7392930353196343,1.2254333083293794,0.6016049065539483,-0.909573227688019,-0.1323018828893014,2.5828879546891654,-0.6177110120482101,-0.6283801390279218,-1.065772410192208,0.4812446507594593,0.38317525251585677,0.8759477852451727,0.5589662259203516,1.3494233951317052,0.3982895205293307,0.1354314464316185,0.47286569515594584,0.7053354479696822,1.3315017854757498,0.6340704637011411,-1.0917926027911504,-1.5526840949353244,0.21161818173326186,0.16575760060998523,0.3342516624111424,-0.8660098269195402,0.5272178207154408,1.0001227061783102,1.3657004402498816,1.880172535708639,1.4154076953616868,0.5966902193747456,0.47320230603920377,0.8144689802865396,-0.23878805012790721,0.3402103390320895,0.5556234592914852,1.3503955848389273,0.2691828523199294,-0.7537773682965143,0.051466453692177415,-0.45871747220967923,0.45543679442939533,0.15528551631764725,0.7904705222178637,0.1504182796580222,2.4823789031918584,-0.11287347383945348,0.11103725181238037,0.2802679207195645,0.7165542406122802,-0.41182077005224743,-0.8098439144464767,0.8945662795392751,-0.41331383230320107,0.08227675128953939,-0.37702989718856494,-1.618240084944477,-1.269711807638878,0.025653622127166414,0.12700040488710626,0.3941370720967685,2.191210639174151,-0.3801773831658074,0.3102890586133172,-1.4166131947477891,0.09808503033840033,-0.24035712293705275,0.08029984763912537,-0.24351906068880658,-0.4306724772072991,-0.7256212372149393,1.4485857320462965,-0.6433131017269457,-0.16994069436177875,-0.9623527244968155,1.411212497696626,0.4824199363801234,-0.5178236902110425,1.1782498618426782,0.9447744913441506,-0.5297940270490729,-1.419714421040622,-1.5040663574420878,-0.4546499132235766,0.9350904494226105,0.40957073423363766,-1.4845813287719198,0.6058554115039004,-0.27327300190232856,-0.3049306521027676,0.0840133864102216,-1.2889598316661284,0.3624750384506076,1.1404262016968174,0.07149839620141744,-0.590253436863362,-0.3934307084589915,-0.32877675467303746,-0.08073008999159455,-0.2405166811457264,-1.5114157974848375,0.45043357500589193,0.4706109788396013,-1.2371135328933116,-0.20285950235536668,-1.0154327308977282,0.2509685490225292,-0.06203188082720741,-0.0959685629249634,0.5181616772192148,1.1832648808615862,-0.8703137189202159,1.7782945928576173,-0.422216792230079,-0.13276993829382655,0.4571938936986614,0.20831685428393518,-0.07371137366554961,0.2467326286700792,1.2433994030505047,-1.1460738111587616,1.4861747911662906,-0.285769407700414,-2.3215348600880104,-1.5035542822941568,-0.3484160476541186,0.012656363375573142,-0.458449761788089,0.5357430117683956,0.8569347742982504,0.8038851510129519,2.005475009046972,0.3545284604775633,-0.508211724367578,-2.2324669266552655,-0.5430398991408834,-1.997050133675453,-0.8464653355261705,1.776732950698339,-0.04201448595623192,-1.5666133355974137,-1.0810676750823762,-0.34529271229128033,-0.27431971852591913,0.4778435467660137,0.2314323341549828,0.7332152116737412,0.6146498463202806,0.216251496991848,-1.702706432756049,-0.36066792042277634,0.8430754409239775,0.5309821649345412,-0.5543601565868729,1.4979896517724478,0.26616004843126007,0.4907205493503237,-2.1497278352643057,-0.9898375706192805,-0.003301899320085623,0.1625420191346655,0.09362878216863596,0.5580475481277923,1.105021588699268,-0.0498962879589154,1.2616943695439349,1.4017360514709045,-0.44844621795671086,0.9401046547880882,1.6843620533111752,0.8582146265911487,-0.1488127018818899,-1.3201304130604055,0.4257487011784781,-1.8047052117161102,0.4064020425337518,2.000054922848499,-0.1360062199451103,-0.32254122275604774,1.0418886403448444,0.25019505518729723,0.49863904065221165,-0.12566697067908483,1.3203978086682553,0.9897149371303506,-0.7133484349240976,-1.0955210605246415,-1.476549248536285,0.09708942018400243,-0.7170991377825988,-0.3036561572266819,-1.0165659254594093,0.8619397492839979,-0.11068700607692383,-0.8525361734146957,0.41885547091131853,-2.3946095670468996,-1.6384920529380826,-1.2588513829715153,-0.7431336284876722,-0.4772314408103127,1.0050480728080862,-1.6471016216725658,-0.779682078428425,-0.5930808184113414,-0.2286930323106557,-0.5264539443573198,-0.129096517294382,0.1311771564157697,-0.833291562195553,-0.5599872042452911,1.405974742041376,0.6346122510913401,-0.14866327025830173,0.6538755971196111,-0.36529314540019414,0.13097942731306053,-1.6896947922942207,0.42539431886699064,-0.29061318856181856,0.9420649990776537,-0.22991397025914156,0.19655811515321744,-0.1728024823624417,1.647861792145016,1.969505269324206,-0.30912500039312313,-0.3166805481874216,1.2558872045375344,1.8254597866089382,-1.1842205255449896,0.025103706188331954,-0.5024982405416317],[-0.16836127818487148,-0.38079119597674477,0.14322943394889268,1.3965490239337088,-0.717892083910663,-0.19905529760857749,-0.6789576975645232,0.24973238900924402,-0.6616687121422508,0.8687196509888729,0.5450476199705621,0.7259824896463006,-0.2765656274031723,-0.12183220438043206,0.8791572204561784,-0.9770182124158302,-0.75479326266335,-0.787924901336019,0.6630306183239818,-0.8532420263196668,1.130464261153275,0.12500347532394016,-1.3759211303481922,0.033898409967161626,-0.49675030812850723,-0.4287987440906374,-0.437329013294044,-1.221552641366245,-1.3520951377524393,-0.01413633881325688,-0.046920687380137556,0.14853771085204698,-1.4673459757838003,-1.4172679622661306,-0.8817266151814355,-1.2796165081964215,-0.38719187630690005,-0.09693906308478657,-0.30501018373951644,-0.06135750789282974,1.732466099709651,1.7819134074172605,0.4617991766649514,0.35402933077014587,1.419183666926205,0.4649521453400623,-0.1348374788149261,0.14652797980202925,-1.2464912320107757,0.12422525632621566,0.6071773869264745,-0.2158899207022015,0.6108231622038145,-0.9083788914737329,0.05430509533715584,1.7460227877756043,0.21242536590202973,-0.42655191598293735,1.4904662112113554,1.3739759975759898,-0.22140187291433702,0.6071815110221409,0.2272829644589674,-0.8220209898167496,0.40699286598441153,-0.4308361886458005,0.7373000032521903,0.8303249073719605,1.0828009868648016,0.36220222154270004,-0.5807165169962692,1.6896120502817005,-0.46113338892478156,0.6716853555223062,2.3953138685859336,-1.6383548948611173,-0.02723999308693787,0.7481035696243638,-0.19344021684244667,0.43784784280586225,0.5386483443322896,0.9407824916846514,1.190643379575937,-0.38493897730888715,0.25322660574278605,-0.7321384572465198,0.40249197248528285,0.9024530728955872,-1.2017753702209315,1.8392510274431173,1.7715446103378332,0.3566684491812634,-0.07877606774062716,-1.2451238037048236,-0.8466785479454195,0.9871955821602689,-0.8522482095345973,-1.4093402616966726,1.3133991950181338,-1.3020439703619069,0.7744697870301395,-0.9340589417067879,-1.235056446290072,0.6256520448991716,2.053772405684596,-1.4234887562657768,-0.9449680187613523,-0.8844524681456958,-2.075996208629959,-0.3734047667233002,-0.43992993772440286,0.11388858567358082,1.9888639339102334,-0.8758750441248792,-1.8687440205785975,0.4328699610393633,0.7467513081682321,0.46115243230592395,-1.0925770149987157,0.3405638758700946,0.3277707750632574,-1.5159385656324915,1.3170261072851552,0.6107772196858546,-0.10131045946787859,-0.39254982735446037,-0.4259863022815191,0.6772666754495438,-0.858885144533769,2.016196713822867,-1.5777456722049825,-0.381629436761776,-1.3112965884091174,0.19084768566328086,0.2723033919698027,-0.8271626368441106,0.7915289950955827,-0.8922040577384716,0.16589361510477754,-1.4249821095837676,-0.11905730982675998,-0.1695326544347636,-1.297364153288676,-0.6308941461145249,0.34159358915214166,0.9771128486461012,-1.5209154573803951,0.42052385452788577,0.35134762788108614,-0.006514497638614153,-0.751411161953152,0.7306194691356185,-1.0919587609268215,0.8260689355504858,0.8609472437791609,0.6297663166341347,0.6419235568438895,-0.5756426452126479,-1.0634734618777326,0.5558115586188725,-0.5410145248039203,-0.7223166054252531,0.8933402539264524,1.1082808630011285,0.4043010528714065,0.7673450026629437,-0.037314860713313636,-0.6938098647638729,-0.051407446905519,-1.7196320330614647,2.2012293261947984,-0.736832083151883,0.36939832465516326,0.015515143239749936,1.5422812083065027,1.4059834098728488,-0.3013717611794893,0.5532480979363563,0.4596396273315909,-0.5693945076298345,-0.5861571274041056,-0.9251556687983401,1.7059380860441988,0.3473047515728904,-0.6087367483415578,0.46267577051929615,-0.264349104227622,-0.6363943613431284,2.2632461339190373,-0.5700294730444713,-0.47664984987817377,-0.6145409133596796,-0.8971886402341778,0.8770899966010383,-0.4118260900543995,-1.6139636969770108,0.93072480137543,1.8170688522655363,-1.3543468495877031,0.8566024233812464,0.8145791417630942,-0.2842296392124987,-0.20030379017551883,0.7072885391565489,1.2785546321226617,1.4923288581287235,-0.08477474540344629,0.09607872206368961,-0.7920020132997133,-0.40458742529049185,0.21475877460201326,1.4398984489367699,-1.0304258381657023,-1.1931326598954672,-0.6423142568316464,-1.933024117149855,0.22236183915789323,-1.1595653799680803,1.0454828958104128,0.9626035866476471,0.4887417929778055,1.0437067660860697,-0.27112346906101675,-0.988828726618389,-0.5256043525159524,-1.051909558976551,0.4664990903344525,2.023751284436307,0.8689302577101442,-0.06299208194990329,-0.8084348460343438,-1.038704411602578,-0.7814554020602764,1.5069834557497803,0.14948491900786745,-0.1726758771793638,1.3863030809422696,2.3318874442419473,0.6359159901574718,-0.7899906884423299,0.29934461106786936,-0.6294074867693987,-0.06293683286168028,1.0928592318363424,-0.4756195111613646,-0.8941518083059135,-0.6191948685556651,0.17622671993993397,0.3200343104521371,1.0626044446623275,0.15428758494061906,0.5865394169866208,-0.2721626974701752,0.9786487700540106,-0.18223835942905964,-1.434052088323322,0.4322799391416028,-0.7024364842397355,-1.135720913759319,-0.15326142384728247,1.304745355602205,-0.5865732864404498,0.1490165795432607,-0.12571563085786555,-0.8235493118084389,1.1176240931537764,0.8565622830102889,-2.1079225664222148,0.6634008995581758,0.25327357178687954,0.1250412377286158,0.19066555421232065,-1.7546216676413735,0.23374288569150573,1.5972411367084194,0.7762612257339662,-0.8563295258015216,-0.6388669868720338,1.230348864430512,1.7083250988892305,1.0054558146127945,1.1569333889636901,1.1891654424016966,-2.071866880980847,1.4349901698467424,-0.5194065553140554,0.31913116119955065,1.1864064296431993,-0.3863448733204308,0.2032055790153381,-0.1815170457245276,-0.41137471738355086,1.7602725361102913,-0.10029002579043797,-0.7573132726452728,-1.8102207065424254,-1.7714053907128857,0.26804464018360336,0.018864212160045163,1.0963590243082366,2.2436747992099115,0.5622163905740439,-0.24493606296072312,-0.25590746174831813,-0.8502937590139338,1.216602346600557,0.11060033561936797,0.23070259859420128,-1.1121420439414995,0.8998436119434658,-0.5646662073960961,-1.4921140063773237,1.7396364285015178,-0.19910727626957012,1.3222505361303345,1.0023256542697567,-0.058423531452221164,2.1985411005164748,-1.105220782346467,1.6411009787647068,-0.8403100812750314,-0.4275535034810909,-0.038721786270957806,-0.2868969253868548,-0.2984852691154075,-1.0167145455006523,0.6377836232827635,0.1878915039805138,-1.597379538919647,0.23471979370540572,0.7725413447073567,-0.24488655313926094,-0.020526054271430453,0.19959498481819887,0.6881107926772156,-2.150411724786872,-0.013279620690545184,-0.4941067846550327,-0.2020823465362859,0.20984068861741678,-1.0444334120928516,0.34270985114845903,1.3977661767959053,-0.8629312928647912,-0.18635392794769406,0.25457117734217505,-1.8968399154776028,0.1772415928291832,