{"biases":[[[-0.29575489223632045],[-0.5096735405285122],[1.190639781958917],[-1.0719789467390113],[0.019392430960291886],[0.5537292377293566],[-1.4962598826117324],[0.03356894419042695],[-3.182820543451562],[2.1693872008180715],[-0.9843597059517386],[1.461550103809043],[-0.5763065903323967],[2.088195622905123],[1.2000122189172315],[1.6058883771275774],[-1.6051598173942778],[-0.26856599740808745],[-0.6240317566201455],[-0.48898971323383955],[-1.6414836313255576],[-0.44772869213767996],[0.25720787000944817],[-1.396766651106041],[0.21967376295080074],[0.5306034912976455],[-0.9723011929526738],[-0.6562733574437757],[0.8722905418535921],[-1.0756356556212783]],[[-0.5884935343799188],[-0.12695238440532422],[-1.672128236549928],[-1.2775286210886303],[-1.0995845584455457],[-1.3092668193273551],[-3.0391517441383176],[-0.8275788636847675],[-2.9008216925172348],[-1.2749765200434027]]],"weights":[[[0.3094646794983262,-0.3961439266259968,0.6174300218710749,-0.8891847736161993,0.9317643263631356,-1.7127759453904776,-1.069178198531425,-0.9370066018961655,0.0017043649244160154,0.5698937745382454,-0.7607469873441419,1.1090698263484666,0.07889860564166995,0.3515660286676548,-1.7935790903484823,0.22954989793794028,-0.7770224726754023,0.6042896711070594,1.6257590880076462,-1.734738718903425,-1.3816009274225374,-0.3606318722624559,-0.46019793735590386,0.45793254177372966,1.4974353521580062,0.6392117486645014,-0.028976088956378664,-1.8653983765658602,-1.2131218924757212,-0.2865473792231975,-0.10923161298623012,1.4978366218657753,0.4390702190691877,-0.6826292510197255,0.8572629371554524,-0.4127874581405643,-1.3954570939387816,0.6321218389579747,0.9259375502403252,0.47440387807212997,2.1376422041099516,-0.3298546315937688,0.46859094534448953,0.13052398725531858,1.253153151017013,1.911001908953749,2.365038622061825,1.7848233017441024,0.9843307709494706,0.7115788402391365,0.04379823421416846,-0.03488560318921753,0.6606043222004373,0.36563406216712696,1.1592841880618334,-0.3049062970463803,0.9775020102258576,0.3935476438256714,1.2648091102045687,0.06635345833780994,-1.563590539474108,-1.1128978547578385,-0.3397774238989272,-0.6281523031829477,1.3876682388345352,1.3396289215551818,-0.14297004179461587,-2.217971876838234,0.02442212817838983,-0.6030302662919861,0.11045630157057722,-0.6170139170874029,0.8221598431271351,0.0613755301301607,-1.1170407234755722,-0.7507307960406812,-2.29689217892469,-0.476628128309214,-1.4195972136088795,0.6844759190117771,-1.084096171513887,0.7425099333233278,-1.4730584769688648,-1.1363255300934407,-1.3404174886439275,0.6375372028456037,-0.8422206776699244,0.03642447861303519,-0.41878310814942116,0.09710998391544214,0.38208741069521707,0.48048745474998916,-0.6175283724587446,1.7170637480237747,0.553274152722405,-0.5259726957099888,0.9857200377714808,-0.36826337874596593,0.04244733276200181,-1.440449476969612,-0.26314650181213506,0.0164570379770308,0.453338574858925,0.6045283139764589,-1.006398669825422,0.5022222406387984,0.3498870605569286,1.3437073175106782,0.04679269604191181,-0.18602111668238394,-0.26247629161087255,0.16416447899379927,1.0432189772087788,0.5399044803724206,0.9832708574083081,-0.14862389531996317,0.8050702619497804,0.0018424523878812975,0.47319468334193715,0.7350526878589254,-0.7267689424011627,-1.8033134932619947,-1.0036529422678664,0.0650269298325276,1.0847643957355835,1.7979871940974692,-1.2205810049262111,-1.1242021547714733,-0.41263566107477617,-1.2581552170420462,-0.06001666642643917,-2.1506805031040686,-0.5336910968312092,-0.6433166604699703,1.4164605492188256,0.770498963019397,1.2314313661045162,0.5197538287711144,0.3039311034476344,0.7301398065491123,0.25257675283790737,0.048271563080086614,1.3064760653445104,0.8849386037255319,0.7778249673928778,1.1590092161686132,0.6803394248155084,0.32273006534913523,0.08612427579131525,-0.3407307443147082,-0.5796015368310969,0.6861217429558265,-0.43409394935582873,0.5389033209243335,-0.3204821623218442,-0.31267112978815564,-0.7670224846489022,-0.8831050074375401,-0.5822864007854018,-0.6989980840431419,0.942533627436338,1.5124969156387955,-1.3654212021997303,1.2346017886692595,-0.1233529423615838,-1.9702134918178278,0.6741304800479001,-0.03697060716859709,0.36149405664078643,1.0360533369194562,-1.1914704696612286,0.6609122997218048,1.5117171837513643,0.0035536938994657806,-0.09025023343103568,0.922435719604143,-0.7159428462087086,-1.495616928704022,1.7398794207133021,-0.9897318691914789,0.9955413371616609,0.9085257574029071,0.5846800846556919,-1.077733732161436,0.2961161811671506,2.037715041023029,0.7734629431121907,-0.3994243592980275,0.6826231814596074,0.8164164458415059,-1.235638562481099,-0.568801176789552,-0.48046003375344787,0.23269120902782545,1.383148854253098,1.293895943550714,1.4732702576240302,-1.084622239071693,0.24452140096712827,1.6858186332043588,-0.6738770590369291,-1.8188423871022181,-0.5806854722356714,0.4914804092732958,-1.2248085674394071,-0.4015439137258369,-2.645246546224247,1.0079394207381627,0.2662837102124977,1.7324848084166844,-1.509805625092898,2.1059060346443084,-0.6139671196117494,0.017838324168610323,0.696985216563779,0.6482550701036531,-0.4490861350075852,1.055240468399155,-1.2091050725801589,1.5236645976315522,2.052508492637218,0.5518674454655279,0.09108302170337587,-0.35870238617739053,1.82483554710937,0.03971082687110971,-0.04456776821503519,0.9962627807618674,-0.13132067846963583,-0.6223759172291626,1.4088495104392715,0.6682166656890608,0.7375003871237336,-0.87742377232233,-1.050820346163561,-0.15150703594406403,-1.095788059554712,0.5446037111821219,-0.17853202385216083,-0.3144304084869866,-0.6200500463926903,0.5337399171827547,-0.5769039754454556,0.21962918163319242,-0.571164266447449,-1.3736116035197308,0.2641762931328871,0.0942154139657809,0.2094770658736349,-1.731628083866242,-1.8484086768471109,0.27238981866285594,-0.4759973961840416,-1.7310696115042474,0.30890903564787187,0.5106289228586725,0.34118116774144325,0.4350404561862083,-0.868691647389884,0.6111827455103861,2.9771704076289853,-1.5182670985593543,0.6112347338912277,1.7513463467534276,0.16964260931584063,-1.1589566573452896,-0.9793633272166193,0.3975471712974668,-0.44668174618650713,-0.9214351399930272,0.2956148577979226,-0.6549119090133302,-0.15224509174094847,-1.0319262374765679,0.8068592319190705,-1.0231865998670873,-0.15370506133642703,1.0603471364925885,-0.6999986031549637,0.7427826954757296,1.3502749836427932,-0.454353622137238,1.502529251320771,0.9780207506357461,-0.31141470516409087,1.5193827002960878,-1.1169076777707239,-0.8829287018714983,-1.7555269277008996,-0.3587555949165724,-0.6297783319749017,0.2527027666521415,-0.06424761871350224,-0.4477953652847261,-0.2508609602232204,-0.9843050386247062,-0.14149459244905394,-0.6247051656657407,-0.86855981849348,-1.6649239293433618,0.23983269735536025,0.45835915235908614,1.0373613640008463,-0.3973292863475978,0.7132801905437139,-0.4683464880582597,-1.779882535141645,0.2225244116328999,1.3028730326367213,0.2373149095853896,-0.8366975260123766,-0.4746866606185524,-0.3867969396254513,-0.23979334722523865,-0.6497692696721379,0.4853491262487979,1.2717047666814194,-0.27156242035116057,1.7562375307870652,-0.1190089704060805,-0.3181495168391603,1.1607071496470482,0.4246117037544393,0.44681766731031763,-0.26997507803887427,0.10500641940046158,0.27813743829916077,0.3086970224792085,1.3924297118659852,-0.5628163137434463,1.0041267406815395,-0.1198686048793468,0.029689500523737075,-0.03765041353932728,2.116627743648149,-1.0412717453669673,-0.06441551996410913,0.42029127271964867,0.2494693877340296,0.16163855693494805,0.9069880964760565,-0.10760728003015738,1.3341329963221165,0.9874749975452343,1.629811656201801,-0.2693003938750998,1.0888724294007304,1.0076335870215705,0.14120147490122653,0.3824466163353929,1.6526396249870665,2.220923720892569,0.3745633060160629,0.22836307674509745,-0.15559600183893924,-0.03944225707169318,-1.0514725669181004,-0.125249352037562,-0.49861901201252096,-1.2987080499146266,0.2103602340663796,0.20921622143820845,-1.3146230207921026,-0.9220301991288222,-0.5255624867532946,-1.6471606922128545,-0.15804094041231367,0.6786753898080585,0.8140833512365797,0.0500351343262884,0.43308502172513713,1.362049788750592,-0.2417101764252908,0.546703117710616,-0.47078700131950285,1.239349341619319,-0.0015113921764178403,1.3291375096012388,1.819270114832563,0.06324118121619657,-1.562430454718253,0.45251636329991823,1.1668315349978506,-1.1180023093966578,0.427692596771898,0.18949594405066675,0.21919867465150675,0.5212902874354132,1.0401901048458693,-0.08197626375903573,-0.26200519129346045,-0.37814985615882335,0.0449616474670237,-1.051804782487239,0.3495252384869511,-0.6164320070799686,-1.5397376051288647,-1.0702003086097118,-1.4592089107818653,0.3217368120215428,0.8937386781998422,-0.3220349059848032,0.1291121834579713,0.6352387189607612,-0.4200507251223497,1.9078888245174674,1.1953383787338998,1.2192719439227628,0.8990744398730106,-0.9078085081797791,0.3852266473075091,-0.20060597254266407,0.5725186377857079,0.20317124393688418,-0.4817348045201603,-1.3981259319264476,-1.5023748704378075,0.9237644031232046,-1.013410369925675,-0.16245060875018297,0.8441551044161556,-0.2692558810148711,0.3510024574051101,0.07456842419505855,0.6914771310170073,1.0695952508781257,-0.2709230922316388,-1.6369897943107765,-1.6408809518036314,0.05475713570363381,-0.5071898810255934,0.570337071015267,0.6630929129184089,-0.9312261998524958,-0.5248935897106229,1.7294546802501451,1.2803058106206133,1.1558695918785298,-1.965097642787837,-0.09899405485683414,-1.9443834110202074,1.1625620825552194,-0.6517508069862131,0.9028887146982667,-1.8820759536168745,-0.38523890451083037,-0.28009801240516097,0.3949048826159872,-1.432479274977958,-1.2117391520035719,-1.039869830596826,0.16357687440878574,-0.14987027482295673,-1.5295330789412103,-0.12313214848811559,0.5492270395151272,-0.006443265222381607,0.23620867401801102,-0.16805015436871812,0.02664162801675235,1.3080646398948421,-0.06645169987527402,0.5253951960881331,0.32212927858134116,0.09696553094290394,0.1859000331870045,-0.3216683954455447,0.5124891077741031,-0.9568356596489037,0.6152490148345365,-1.4420525784827478,1.0221262506724313,-0.7118395035861997,-0.15433893502833032,-0.6342072216917782,1.1490886560335867,1.1956064665945076,2.2640900159495065,0.8539423656079516,-0.43217132060477964,0.18264927980059803,-1.8357343862859055,-0.45379670585087795,-3.172411492332658,-1.6287392220994528,-1.0467473330882322,-0.37702709637674364,0.01738466376430081,-0.47532402624146325,1.425091051540399,0.2674698807159565,-0.04053844629333673,-0.45790566903945107,-0.7546029864469386,1.2297789617062589,-0.23170131585069342,-2.324871910901359,-1.2954159357024824,0.37688427380656236,0.6053461471905892,0.38850800759161885,-0.15046479459094256,-1.16345447333419,-0.6541946391793081,0.08221163072758154,1.425431090475882,-1.0219966827214186,2.161383977303075,0.9343420030551508,-1.151911556692483,0.16851355629491624,0.24022700217394394,1.3590676301039042,0.810351640768383,0.2395293356347615,-1.0626746042715767,0.4179157360538377,-0.31853236166515564,-0.8222108806074104,-1.9880210668762097,0.6857220038778439,-1.1739278767443173,-2.546173988898241,0.6574135150214143,-0.49263182745049716,-0.24784235199816138,-0.18460610311550785,0.2552107464933839,-0.07971504732306729,-1.3096793779239644,-0.6577058270450062,-0.8157449251149463,-1.179525685496328,0.9255391744114134,-2.846757736360052,-0.4120483981987993,-0.511352265274123,-1.1025185067340373,-0.3107310923052254,-0.062206165703302334,1.1679002506459755,0.33991622366352175,-1.768866104684241,-0.7952091655044915,-0.261171617791293,-2.42721497026854,-0.11080025148550673,0.3990279814938942,0.9127193908633852,-0.010363569969991892,-0.5816111501190903,0.09732062372882416,-1.6129582937688258,0.16946781954023704,-0.08245448248274637,0.4865117544945202,1.4895630704048943,-0.028410737650477344,1.4318336633748676,-0.4628205459198758,0.572944203986175,-0.921298939937071,-1.4134452377609263,0.356196379292518,0.3942096502457982,-0.6289853546087963,-0.3955197925494466,-1.3874238490015527,-0.19937571559875347,-1.156332065619704,1.0847431026648722,0.3700789579915557,-1.655003535061292,-0.7219748434371381,-1.7211346041895892,-0.4187951067419967,-1.2810710663552716,-2.591967360085934,0.10566654667741689,-0.09215217975497507,1.760552104473576,-0.9385566758066298,0.8721302513595764,-0.80113723690918,-0.29435005954951265,-1.5662046318347802,0.54878893432351,-0.16206139596471242,0.2805833674922872,1.856804882785568,-0.5241100831861883,-1.2321290406509011,0.11162857302535382,-0.462540710957998,0.14641610879754027,1.9553476186950407,0.1938860989564979,0.39629627526811934,-0.9089930586921083,-0.15653982879257225,-0.3327493702951342,0.8299744455473846,-1.782620282847736,-1.214159723970321,-0.39317233741778296,0.08444227339775788,0.7981605324212221,-0.16317702755399333,0.28169239761721754,-0.2013783522687154,-0.21132203623800755,0.05662644905199058,0.799486585161731,1.3543524844800792,-2.5988825582818382,0.6731004637511032,1.030594080311344,-1.2944270179588981,1.9861739378752556,-0.6899874348261816,-0.5997497728011452,0.2756563840011808,1.0664270165108511,-0.7171191319453799,-0.9793221951397033,-1.2210659966297992,1.0559443879989896,-0.24217270849376454,1.0099545467768194,1.404787220000162,0.6457462968777103,0.2457621575217522,-0.5141917487432733,1.3161065676519645,0.7076682612881733,-0.06555217919254659,0.6813968426470679,0.42158937025387877,0.05596467038981363,-0.5675076962161076,-1.0046860630756353,-1.2576364164344804,0.3289977231162531,0.26726326868766354,0.16763056643950808,-0.6829375036770091,-0.5726814963247673,-0.8806244982813922,-0.672822225742715,-1.461451592126515,-0.359208798118109,-1.3015451008111016,0.1800738565195659,0.6220012550850227,0.714278529857345,0.9053096005360655,0.11099601725886347,1.4188822899025992,0.2324706325230436,0.0057118614715055815,-1.0037741147647572,0.3800175655963295,-2.536311949356081,0.5278824706973146,0.46893348786328154,0.7753424868520342,0.9345224071018132,0.7313815039784989,0.13720441626281218,1.3995793465147028,-0.16496417841625738,-0.5882731332376301,-1.1808546130097308,-0.9001583706638656,0.0835178082239744,-0.7703691119554442,1.5763710780437143,-1.1117410098918796,0.07551702835734665,-0.852695839868454,-0.69023984827154,1.0286052299813395,-0.4088460084541106,1.2895155839511276,-0.24276122196275696,0.45180984703844207,0.18963945503142934,-0.5148213212284035,0.9678776238591699,1.4217927150687242,0.21034072005829932,2.411871524261679,0.24401982223301955,-0.10758463651085856,1.2686188363532003,0.6890012983352943,-0.15880209746488563,-0.4128446662733089,2.1617116968953987,-0.9562332110375662,0.4576719768831826,-0.5319994722399024,0.22812968911402476,-1.1419265600033377,0.46715587844342277,-1.0595334033804515,1.1545918909199353,-0.4663831712875098,-0.753604017002099,0.8175187434442076,-0.5892285080432339,0.413596387658513,-0.4870780462683241,-0.725879955778671,1.726249605494567,1.0622844838901353,0.7574953038677067,0.23428936694579408,0.7882345972656102,0.47545574177416144,-0.021742566889237983,0.5943522880791301,1.105099722398476,-1.1033560291480802,0.889201191780065,-0.27809587532375046,-0.29451212324162646,-0.2768210645201086,0.13128652113245043,-0.35385263579936094,1.2581827402659214,0.2921110548661782,0.5072104650917041,-0.3088052042436497,-1.4340037137723383,0.13988091458042093,0.542166987080018,1.4323813428876542,-1.2095688712473618,0.4274968248305847,-0.9264717609548256,0.5513183322811015,-0.49350732910711653,0.40035142405501145,-1.3659377680028681,1.188469934656269,0.5111639546618297,0.31813215026385655,-0.38951636386843397,1.1201116227697296,0.21890311877651922,1.3751523302459994,0.7043834453706788,-0.15620015319852668,0.36243860590083293,1.578090829387412,1.1199435340928023,0.24746679869537772,-0.3449443389549309,0.06766601118766528,-0.3445303698539931,0.8189838420559697,0.7319675542487437,1.6108455437667748,0.2197845206785607,-0.8328570563246869,0.7567123324689297,1.1776261050034347,1.124059203403298,-0.4327873637826039,-0.25057984602645733,-0.6578732391312528,1.6291689940228553,0.37781104135283655,-0.17836585280342904,-0.26515896960414576,0.3113271937371287,-0.4208953556073302,-0.14857550710240822,-0.3596088713450373,-0.8052400120680446,-0.6139843410169813,1.0976848026536237,0.025115508150798202],[1.3620505716207694,-1.270813815654678,-0.5132537937468528,-0.3279735747444895,0.801317894044675,-1.4822087065831835,-0.08575448592429152,-0.08097037550512123,-1.9286939100558789,-0.9445703963946604,-0.24369896194201987,-0.5683109435479082,0.9389265023279092,0.19367955739772796,-1.8433770303652113,1.0092047738928451,-0.6431367623841535,-1.0746419150165811,0.11883963726637889,0.24829652494097837,-1.9713399936531475,0.10346687697981108,-0.22634628930534126,-0.6788249057379095,-2.4984065043799144,-0.47440252434625513,-1.0277773093248574,0.11890516296492083,0.075918751595985,-0.2513503808962131,0.4477767540737146,2.2532792051390973,-2.228935641803988,0.9033311059209723,-0.5539797284733856,1.3828960730508615,0.5776258469078668,1.6102820897257524,0.6283561708813341,-1.9872259368692753,-0.5174736183718112,0.5243572327211844,-0.22361675350574384,-0.19188369245470902,2.0004484128997526,-2.0262689444734345,-0.24208826608218426,3.0678938730786007,1.3448461939912006,0.8965202681588758,-0.8880108490840684,-1.5800416988706723,0.4668588384466217,0.7224037817963341,-0.7190106900477956,-0.09081535945266221,-0.7238088422817559,1.1164548614356242,-0.27698384250823027,-0.32096101528209814,-2.1693884311851153,0.5103667977840359,-1.1255934476001819,-0.9396136611681918,-1.0147466354361143,1.1907497507129314,-0.390137832614178,0.7413380490722105,-0.8656307977126732,-0.305812021974675,0.23083963180804556,0.1514494470810849,0.3077905417339672,0.9645551366218214,-1.4150735891785022,0.03597355837013289,-0.8797190224939369,0.14886736213583499,-0.419086896943497,1.5242352360269118,0.3288993864215353,0.05454783467358564,0.9670394240060035,-2.654699193924272,1.2728460076505272,-0.7203459463489064,0.5853126833254831,-0.6566950507113009,1.0046204845005786,-0.0316037846310551,0.19941168119686595,-0.4979941873549864,0.054816129117938026,-2.2300939378667715,0.37271703646785753,-1.6280138625506924,0.11326272762748703,-0.1320488263282155,-1.083399976060674,0.34940795525508433,2.7462971267144596,-0.9040588890595481,0.4933774773550161,1.1060814972677178,0.4664447129015281,0.8554981279872212,1.0955467543915065,-0.01135394258322079,1.1203373113303314,0.7581046127071089,-0.582009223548141,-1.7033342590166896,-0.8899598085641246,-0.516546178665851,0.8761861879923055,2.1635158102871332,0.9240526681283299,1.5170221832779471,0.0005873355676212062,1.8784420222939062,1.5435274588157766,-2.2532713857731137,-0.42216598233336605,0.6979783171321582,0.18772673394253625,0.1417601476122316,1.2358868447512552,-0.21620175654564305,0.05071613599485489,1.2893495187797372,0.5794010874847828,-2.2449348963085556,2.052751129082658,-0.20550251603421468,-0.6924462359564112,0.9787402336095158,-0.7656222328921387,0.9299309389925868,-2.2360139205616743,0.47937622634541094,-1.7333579382056796,0.1616676696632609,-0.7487019417393723,1.4992198605343225,-0.7265379354616175,-0.057890940731616845,0.18547131101242714,-0.3814486527211731,0.04268010596024632,0.8492417181054767,-0.2567235754489614,-0.5029279250158909,0.5755490563140122,1.5262459090184755,0.2553283044288737,-0.049716125849376756,-0.7399806509109896,1.7592882426528638,-0.6007354558066355,0.0005187629616508934,-3.5512687662616464,-1.5437405713543793,-0.882258895531477,-0.5827850437249648,-0.7989307122471943,-0.18837037212719815,-2.5856714896683664,0.253195296334713,0.6241600345322021,0.9213650247429594,-0.11581038314061896,-0.42377451589689075,0.13789081249586252,1.2477399940165814,-0.8450841336776391,-0.21338925340693352,0.31538429023959913,1.3592997854224242,0.3274775790692389,-0.4386283194643693,0.07337303883562019,1.81316971171594,-2.170794558513888,0.12300636750863103,0.05379897737002549,1.3427334046471526,0.47205842877907744,-0.17409320736667522,1.6205844483873368,0.03713492269031514,-0.9498684236060377,0.5349953466119766,1.1044957270644544,-0.7950543334088349,0.7490456472046128,-0.9413679980944094,0.37547642269716086,0.8859132409354388,-0.13508028201204086,-0.7523834280159257,-0.7997199470395147,1.0664762501061333,0.43730774101125147,-0.054253188303794594,-1.875813040897188,0.6442841490808607,-0.055043979422030764,1.031475163777354,0.23183647357246998,0.45106289369006036,2.0679859806184084,0.4218458359662163,0.14793268213419988,-0.1484079648810911,0.10811977463514671,-0.08567554676453404,1.7534754916379793,0.2112458557002542,0.16350100743558085,0.28627224675395624,-0.36161939126498116,-0.9323392462749777,0.4795886270177447,-2.609403718451699,-1.1675566638706427,0.126606353199179,0.45625859788744705,1.0212533982731642,-0.28735922128513885,-1.4454947142683852,-0.5262145764940568,0.9180943210876676,-0.5574598670191545,-0.2525254840017281,0.15607226434251523,-1.4266454372546755,-1.2444415139065088,-0.07457606575296533,1.7982953174450718,0.8869784222621355,1.3890235499387094,1.0265679165984565,1.3146804212910739,0.3525507511272409,0.08274145631573554,-2.047227741460181,-0.5134746552217183,-0.6331250930561769,-2.2918193001566194,-0.8320904274062044,0.95379946680346,-0.14862198880188668,-0.5018772677771597,0.45344833856067374,-0.62309331527626,1.171551330085276,0.9160168750220478,0.09069964501914657,-0.01245805887252231,1.8705717457985136,0.04974220536142336,0.3192494638365253,-2.253534414380434,0.6479637381905957,-0.3646599192820882,0.014056449798597478,1.413086346686841,-0.19191604056732833,0.04957221636255053,0.9374309397279423,2.244686798883326,0.2348380546660295,0.34048167815128577,0.009230572186616753,0.38567299848036857,0.3945079404869743,-0.08197005454532562,-0.9410635368764604,1.9294631033195697,1.1423113155683229,0.1292297381637843,-0.08470071283976945,1.5665091177614177,-0.5503143874083007,-0.7603797540165494,0.7431366403801889,0.0820927408925044,0.49942044208347547,1.5827209401037818,-1.514807096168108,-0.6281796442148659,-1.5580891842030373,-0.1126593460705963,-1.4820204719185393,0.3788992410499973,-0.09100806536229315,1.6138757017121559,0.8220737173367555,1.8054288895177837,1.2542997473111972,0.0008417801492122844,0.8079584326760904,-1.5795960866601941,0.08329899585166646,1.717117203729266,0.5231135707287674,0.04981061768899634,0.5738903296093735,1.4577584257855145,0.17125669715074265,-0.8460425243967865,-0.20594836528736815,0.1648508065544999,1.4282258188589843,0.042956444136493084,-1.641393022168656,0.11003207983707071,0.14931143555418164,-1.8350459944539173,0.3250183166608111,-0.6035232917475897,0.23106301598109538,0.866642296264918,1.0607575373253244,3.1116116624949766,1.1081625538138613,-0.6433990926070652,2.1245539541441536,0.8624783605378322,-1.461568228781833,1.0432774140421164,-0.5005460394315637,0.02820112748429571,-0.8436893066264108,2.685418225080553,-0.9143226279562329,-2.283786171848534,1.1951325460478608,0.20366249340649561,0.48855702152035213,0.07960241278895588,-0.18059778699316437,-0.5055390673506591,0.962417363168116,1.3138415975102127,0.6626666479880898,-0.10621210629216925,-1.6114144274561002,0.07757824783113967,-1.4699306350664973,-2.485752090229705,0.13576182906436765,-0.08743267822592536,2.7803513337788504,1.5942648813317493,0.6853611261161094,-1.2974956586323039,-0.43691151897052594,-0.3535252256446233,-1.3049557810353867,0.5063214830327254,0.3164645151635843,-0.9224809205541109,0.7995577058570648,0.507626629152305,-0.8790216388548374,-0.13205226108273999,1.6036500026282239,-0.7787823116270916,0.7988120798304503,-0.27289267238852494,-0.3374345968597115,0.3356256386529837,0.8969331754217322,-1.1323486998454693,-1.6923056081292656,-1.2375399712159634,0.4732415909471159,-1.036248844652781,-0.8831604350249573,0.759411853070175,-1.2106870596140156,0.8087618941767034,0.2942860478853313,0.7033573865481896,0.19617601254175754,-0.9265433457526155,1.7237177881822312,-0.39201383472568735,-0.5586306359613383,-1.6576370618761704,0.1112767155810745,-1.890426305823393,0.5854433672504534,-0.567882839946146,2.1446761759865085,1.028477887191458,-1.4834332041007112,-0.8169649509873371,-1.1665989477252385,1.5465775656739151,-0.06073480260629244,-1.4089909598045238,-0.37026842027282597,-1.6266494596085423,-0.4340033807327043,-0.0869854549792879,-0.6482916231226158,1.2883262686558288,-0.2620021400287394,0.8465488707945645,-0.5537285249091414,0.5314993587190394,1.6332035434932843,0.19734843793251372,-0.20354281172213198,-1.56947087997515,-0.605312148023358,-0.4771571232037054,0.18502758005650322,-0.8330503594816531,-0.019143771721798878,0.013785789201611373,-0.3821356606380659,-0.5170644014177006,0.14397008908397377,-0.385346294148749,0.19243858587733986,-0.259826169428379,-0.28908757354233994,-0.9872506168671706,0.8686570106364977,2.4628048437031635,0.47139674686283334,-0.9361636661202081,0.9193990358579772,0.8124571669857069,2.892491984247239,-1.0721818103190655,0.5531132767124467,0.8474233845630145,-0.9618617962605811,-0.36165035799640377,-0.8343379012204296,-1.7110822911408807,0.36229748962425257,-0.17589067209991377,0.8158710761328115,0.11486562050018465,0.3309317139795079,-2.777068755279618,0.7196134681210223,-1.5555860117859583,1.1398978993558795,0.10846030093782286,-1.8388408639643516,0.13031547568920024,1.0428874811180038,-0.46347394127336267,0.06649297244019803,-2.387181455658256,0.49629549963945085,-0.4897029424838209,-1.0012170300716092,0.4764321812636655,0.16837984141016832,0.8598378403225253,-0.41829491824201603,-0.5159313685950702,-0.8578246158481776,-0.07569126554691825,0.08960446869771169,-0.8961400325272423,-0.31563359147916203,1.557718844044137,-0.10066292034563887,-0.2932050561244856,1.5995525711900918,0.6408407884425217,-0.6062032284651707,-0.20767660280341316,-1.2992680907340137,-0.32271331225622224,-0.2326600689296916,0.9181847672062474,-0.36134385038693,-1.234445162255148,-0.5291415287281739,-0.1310641951147035,-0.48941228915615137,-1.3487382808375465,-0.46365979073988567,1.1387244705295723,-1.5808046749607254,0.7609213129426768,0.5810926464487292,1.0077388394749398,2.439318087900055,-0.2600640479540528,-1.5252363284799306,1.966767052548097,1.269291446205149,0.5603383822937786,2.306480204198698,0.2990550148884979,-0.2408280967482948,-0.907915848741637,-2.3875494582678454,-0.3375308589724223,-0.10791961918025857,-0.23644406408212973,-0.04811528934220494,-0.5630712154299619,-1.6770797787101348,-1.091285373237379,-0.4213868283764935,0.802990217449211,-1.1371872691916287,-0.5603404259302481,1.4796703406789642,0.8424370424547385,1.311026854141835,-2.6408800530094476,0.36608333087444545,2.2938255793014255,-1.2686336950613297,0.639860310978169,1.3533269354507123,2.0321647686631596,1.294546030067268,0.3352407109865826,0.8874056457327328,0.015458374282198652,0.5601390121063635,1.0909822640218436,-1.4814506689496243,2.037655468505521,-0.9177309569323745,2.0349804703338243,1.1031615796816368,1.1554179014960693,-0.6397484233072304,-0.25390257074934447,-0.9488094307120049,-2.251592459087918,0.17352612583921473,-1.7108987544255312,0.17677175935016218,-0.6770477485389874,-2.0162944152800883,0.02779197490140044,-0.44633217800863695,0.8929442603495824,-0.21665720770555522,0.5213956157849547,-0.13715446754385738,-1.2035646393582666,1.4668623574213693,-0.09749613815604335,2.173758920520997,-0.020837769743615377,1.5406532687808143,-0.6050689252840471,1.236391365051072,1.1764349330861337,0.5595865165365067,0.5829331613681611,0.13494579999954073,0.3636384264135326,-1.775688735687943,-1.5979423469243925,0.2705643670873333,1.339799880988892,-0.0597840071079769,0.6621896373270565,-1.8645706668165873,0.7216366714247231,1.203343225472276,-0.949297364940892,0.6923965925587839,0.606613294505152,1.555260377238132,-0.6461735246542566,-0.38773762518980476,0.8414203590681788,0.34426470234997664,1.435764103256512,-2.420981953045246,0.33648808161406507,0.14085206915615953,-0.19569963230669865,0.2155879522166094,-0.4878740215104729,0.8586057085449739,-0.8196990494577281,-0.47468151236682055,-1.3386647792909157,-0.48458628420597144,-1.0130773347969724,-0.6273270443298357,0.9310002798809276,-1.2944956873783764,1.258335933234804,-0.02445886178478323,-1.2841885057931703,-0.2835790735685459,-0.6383592122846179,-0.48781891285346257,0.04272947315761553,0.481654455983632,0.9220024084378922,0.47407992642147645,-0.7838128553244342,0.8257267520256357,-0.18583581629910256,1.080193310961256,-0.7186309409797649,-1.537080972330726,1.2239670328866858,0.7519591395558284,-1.7012322069299057,-0.48838355396602484,-0.86216528354861,-0.6180982033720374,-0.9482294706082901,-0.20652741902363345,2.2183278457328246,0.6950436257819151,-0.14903065151333167,0.1408240032748984,-1.1573655537692238,-0.39334911816052454,-1.627649548226382,-0.8262344796546225,-0.11642001681254133,0.8452994139096328,1.7465397482507272,0.7640057446803454,-0.6785729409689524,0.9024219786071482,0.35848983538541207,0.016811532116262604,0.62447105758268,0.6696118902801311,1.335331355474327,0.12955136330150632,-0.2956200774952033,0.25410999824138847,1.1927405174396524,1.2647343210064106,-0.5844715859403821,0.6384231466700226,-1.6511807568629866,1.217200719307758,1.1574800817648878,-1.0476127710637,-0.30809580647012125,-0.019879660825261235,-0.08646186627840528,0.7752859290868669,1.5640192717754573,-0.048121329782308694,0.7051151703737367,-0.08523925271248578,2.012215641561506,0.3141832789899054,-0.19319890278215618,-0.6974296426668813,-1.1283972855785591,-0.8260030416449986,-0.15941470394121326,-0.1148834417068528,-1.508297864665387,0.2581688255674699,-0.613885282243441,-1.171926923634638,-0.7627874352179517,2.096458763212227,-0.026462237067633305,1.371935399410651,0.34807068069368224,1.9533689508308993,-0.4981363701857882,0.6489662709644669,0.3544423598963678,-0.768307459459604,1.4598473544783543,-1.7283643742302506,-0.577586603773357,0.46761082223440625,1.0836244523780203,-1.4382674759818037,0.6420700731360682,-0.8043153823626491,0.001559014890854244,1.3179295668868882,1.2288417860640501,-0.9417899599663446,-0.17796520444756514,-0.5363848116134865,-0.7775649127638906,0.43644929450149883,0.9283199358506097,-0.8986259364750707,-0.48127667757270093,1.03110388092975,0.3302240878656875,-2.219750880959906,0.9346593786598327,-0.033129421089751775,-0.47711701308520094,-0.7532072204935105,0.6029690936952875,1.043065843514812,-0.807121153010585,1.7114077419422458,1.508332601832934,-0.309515985883276,-1.5703013422768317,-0.5493875828900551,-1.2929804066045731,-0.21470467866521922,-0.957977253659555,0.9915059658737722,0.06366102518466074,0.058544288305868525,-1.2721354464290986,0.4168400234081518,-0.699381442974434,-0.8296602814232449,1.2912774427843026,-0.6963087598352233,1.434054984344394,-0.3587310132736607,-1.547053693624859,0.6437886806925698,1.5493693286892942,-2.1824534539696336,1.1110986705586703,0.2999990927093473,-0.471896054814969,0.8688640812220619,1.4961235655218807,0.8190086351820774,-0.2268579182353627,1.0680058544774491,0.6717179893043155,-0.026942066113068673,-0.34469620788579086,1.5946219549434266,0.373821702887252,0.15542901425612832,-0.6109641724114929,-1.0682701245808008,1.0916529468574148,0.41830104313462846,-1.0179829290605877,0.7054875170572819,-1.073710798155956,0.8769646841468928,-0.4402243989359801,0.14759950150744924,-0.08310774229027354,-0.19400716794290634,0.7026447282924555,1.2009480962547416,-1.4916727770114488,-0.6463761474467977,-0.6758822835165738,-0.11287306298339277,-0.4402847121765266,0.7142413636924821,-1.4167797538157119,0.8613368118742685,2.241856935914755,-0.9848899326492436,2.073815352038858,-0.1373161269789296,-0.17651524892475906,-0.914995380555323,1.7721156101800581,-0.402973965860413,1.5174757036588018,0.17260563948941293],[0.40848876334236617,-0.29876578409839444,-1.4755095263224163,0.6600842836528229,1.7222682421764366,0.6088640495135959,-0.4208248262651473,-0.3195161948348519,0.9421848717515426,0.15995356616389664,0.29065195403101546,0.2709620103551437,-0.14063338155526214,1.053706169846466,1.3816110815084346,1.5487451164331685,0.2669370018287746,0.9269622516049859,0.7212573046082216,0.42574735139384945,0.03351921700192006,0.4804842478893182,-0.35146339554673617,0.9936222675879944,-0.6830073880661489,0.26168268217278623,-0.39675392472483817,0.8899795429808802,-1.664264330130479,2.1046746468979944,-0.3440376237353391,-0.21171967232466368,-1.321473236151423,-0.3475505109826148,-0.3933492385220882,-0.04925277853524226,0.7814233736521343,-0.06298615098731267,0.5710590873902485,-0.32246478837787973,0.18180673739224426,2.29402790714919,1.5558653461768517,-0.07496103835368881,-0.7266770524424546,0.2351205886171527,0.9213789217814374,-0.9903082474855565,1.1748158307576895,-0.1344187113079518,0.011433807989685086,1.0279697552181863,0.03274818241857682,-1.5005263829862343,-0.5096267203269883,-0.3515500169660289,0.41212944725869644,0.9654888676274395,1.082286141078801,-2.0999140099915845,1.840548800658904,1.0508063979958329,-0.9623990580313704,-0.4784035669258502,0.01378333065479667,-1.5319520343486754,1.6214471787000002,-0.04416798436635548,0.7034026911209093,0.31855493797597184,0.9289424972904523,-1.9596302290544019,-0.21346744319532454,-2.882186152775149,0.5438259328462551,-0.7389151774275656,0.13279059392110104,-0.7633625569688178,0.6594903209610017,-1.6753631324073597,-1.109952408106621,-0.14699406936490345,0.1618572158432916,0.2118925153687706,0.7074397013575594,-0.42909404560750625,-1.4120931052972607,-0.9624890792386103,-0.07787830000955033,-1.1732492324712867,0.9472005596290624,0.6607731134300558,-0.18577273904690222,0.22925057211827946,-0.6772763192147062,-0.3335022162431377,0.13759325085750576,-0.1329636041210048,0.8226361344559981,-0.08451532773775514,-0.19581235358471083,-0.10881856759471938,-0.9561382857707987,0.05610108566917143,0.7485463678509655,0.27891643113058145,0.8957370667157271,-0.5989161339562423,-0.2879583377927511,-1.228543213711871,-1.1825100945404112,-0.41514748223525333,-0.6849787565733233,-2.038431279841959,0.20572855964815523,-0.8997123379894428,-0.43464585355640484,-3.058491085779945,-0.7456594727933631,-0.7556078762584059,-1.3650400600987063,-0.007479087008090132,0.4809673370380782,0.1987459127532803,0.7052585981740103,0.8178480249811283,-0.36493649547048757,0.39136382784374457,0.3211726979405849,1.2250252270609978,-0.07670547124077684,0.01573582799565099,0.15103632851791146,0.6461800334117002,1.9681251030224267,-0.6776598694035079,1.730088292479526,1.6808798244117897,-1.5009575499455667,-1.0826632843835913,0.09873431350777145,0.6037824142325444,-0.19426952174927992,-0.08448428183283677,0.052493525420423626,0.9800055071493934,-1.3616975640157727,0.11851834356957026,1.244103319654892,0.6259384434536827,1.5168861284450812,0.0004884405864411622,0.0012925277372443935,-1.6107555741223827,0.82769462595261,-0.9702766927709138,-0.25141231744227416,-0.8867875972753679,2.0013864437817057,0.18579312003661203,-0.4929171418087581,0.6918134540599706,2.8028804848780693,-0.20037470216680134,1.5516806615692045,-0.3318323547567012,-1.459389156786064,-0.2986733606735241,-0.15131188809413212,-0.971290173479295,2.231974863751148,-0.484466375154793,-0.07890824612725514,0.33058429901691894,-0.9312726060746737,0.4442797935768745,-0.977399564635355,0.8822593806306103,0.7092769739445567,1.380643471875948,0.45001713753868694,2.392143287557353,-0.6652509842909411,-1.0629083275630276,0.8378151199760705,-0.48817417022211,0.8263864086822732,-0.20412526613809562,-0.790423128342778,-0.1296750344234358,-0.008217246638597867,-0.41107040702519704,0.6947365171422947,1.2652923832637897,1.5957177049193865,-0.8244661758640323,-0.6446848724794,1.0171535597099484,0.2635804874757719,-1.5385735350816785,-0.24536715232865802,0.18995805412843572,-0.14382022929522217,1.0487308867845357,-0.26068137433267496,1.3870562064059748,-0.11062296315944045,-0.41565553640683756,0.2240245016145516,0.9883227665489591,1.8572669020560735,-0.8315352319319328,1.0285109832534025,0.39871885576391963,0.7569672247522001,0.5736847816139474,1.4509145140752644,-0.13102289838481165,-0.24133430670427342,-0.45072084493256037,1.0574010225268708,-0.7421031488104347,0.6298657431634291,0.7029604662068875,-0.29788260576020764,-0.2094923931589321,0.9255357918997814,-0.39884261485642664,-1.2995013686599584,1.1532225827405986,1.5684496598687367,0.23641186784844595,-0.3923020328198784,-0.18290801148102823,-1.2140543110046897,0.0018946636255868072,-0.6684865905833748,1.053811845610984,-0.32445611069817315,0.9680721228687423,-0.9063602540844331,-1.5847000958720827,-0.6270930065732684,1.759715512774055,1.1418168579267807,0.030240829704718,0.19182038585892894,0.042246022880164706,0.3265724462328432,0.4678003833474302,0.24808198205657367,1.2103835959649825,1.1317816058909973,-0.36362663982658405,-1.438238502599089,-0.8491533052357969,-1.0655399489570667,-0.5609441428739623,-0.5421355313563436,-1.2679814325961596,-0.6073431811612535,0.12601912585333758,-0.01455390240352673,2.9299653622888333,0.9840255967108659,0.08305666700901529,1.1072513206898749,-0.5149305383378351,-0.1047336320058106,-0.36284087639242696,0.9865138007292841,0.9130837337616611,0.353261929551931,-0.8898265721995771,0.40557322820782715,-0.16651905785997745,1.99175758405629,-0.2904144672375635,-0.7031062224456588,-1.5771781687465842,0.35070038549329735,0.7159275726725921,1.0462818306182688,2.6058114964511265,-0.6441860448609145,1.06853160451586,0.2619324415980984,-1.7669110589870451,-2.9669606888290585,0.26228328490648034,0.6884237538249958,-0.2604102510045936,1.7786600531287864,-0.5333437043541762,0.673020383402069,0.9021626780132621,-2.105575916666786,0.5063102366649257,-0.20659180754083586,-0.08222922282823246,-2.1267239243812583,0.021881553389794306,0.14092865207715444,-0.07880137096440788,-0.721719437643123,-0.06778834487886706,0.8463412327916188,-0.15688080409646274,-0.2675425930543906,-0.9893101713242223,-0.48646522720273283,-0.25678168906202403,-0.6242049642382751,1.367948731195868,1.5597415448108127,-0.04429836301359898,-0.41410850583008324,0.010950765853985186,-1.5449777110625627,0.29987404754739955,-1.7367924160264494,-0.09357810830105322,2.1718400774905455,1.0438463094611001,-0.44362704726288976,-0.12535539170908502,0.21625392065350002,-0.6797445369753796,-1.8283806733056347,-0.06093779133391335,-1.3633995146045483,-1.3164948350200805,-0.5113655958601714,1.062058429168158,2.7343433810244493,2.0708936107951597,0.1440341523235909,-1.2404463088631392,-1.965659645966882,0.3148107372873445,0.7913933851441649,0.23835067404221283,0.3792636733352717,-1.0537330111440006,-0.8006445811904874,-1.6157520273947832,0.9685536978415006,-0.6197064736048357,-1.1334257821390057,0.2216558504123558,1.7184226568681316,1.7443247501975714,0.27467004290432934,-0.05312787754987925,-0.6472762165963916,0.26673574712238135,1.0178902822713023,-2.385603602647289,-1.3958358320957382,0.7152319616480075,-1.2929367646756167,0.0016167221382195447,-0.1902677453541464,-0.6967008358431438,-2.160270737718528,2.5627026405624624,2.726816631470476,-0.9991051970927686,0.9046163419426404,0.48601615858332636,-0.0850913025124669,-0.5229071709341321,-0.4795720419763535,0.14653521015711357,0.24026417826709634,-0.1588930126062179,0.18637648039775448,-0.08454798146764346,-0.5854300269601758,0.900061878967067,0.7212052754500567,0.5609934722875617,-0.3169722696785156,-0.4667716384768089,0.18411796430708027,-1.721160965884345,-0.29772426020849024,-0.24715016205736165,0.6329692581592362,-0.6698034561798758,-0.9132624903438047,0.9778196886624683,1.1292216932004386,0.4084704146634891,-0.18579383952812464,0.9793113431258665,-1.3030635438600793,-1.4462554702294261,1.3365268385770759,1.1167219467463283,2.650856483121672,0.21045583323778522,0.1654358008056625,1.489334169874577,-0.10384236892465698,0.5428582864757531,-0.7139128377448883,1.1814151996926248,-1.0168343968728653,-0.1134460076516893,1.414523549596118,0.9690838375284302,2.878702750520131,0.722237962210099,-1.5758782809310128,-0.803491973055091,0.01159466609766333,0.18664780002690531,-2.475675083549135,0.3373566963234525,0.38298039673414924,0.745511393095058,-0.4953174820992357,-0.9430493454475434,0.056531602365214345,0.9455104351295811,0.034629169381830784,-0.043963130700087893,-1.3270134177592439,1.5990585933324237,0.7663211584816068,0.47645628077040797,1.7029106496536095,-1.02777067132959,0.2849539867406332,-0.3682306954076252,1.0650186014402103,-0.19904555274091143,0.6171323721652192,-0.6752710903614252,-0.2064730688135092,-1.4874768874533242,0.35837420250815183,-0.2640472641041049,-0.42683644528336284,0.42539555629769293,1.4661164601630043,1.162822039760967,-0.783064221491915,1.544108949574334,-1.7962638029270779,0.31335978278674415,-0.13616193411872912,-0.41705464110088053,-0.6612278410224017,0.02710691917803581,1.011545028379097,1.058637890056487,1.1110811265379397,-0.37536185962764584,-0.9498319256182081,-0.18805784646762133,-0.04506013573644154,-0.975797567026911,1.1626422631739246,1.172760075624021,1.135648163311333,0.41990197793756207,0.8994369646243295,-0.8723138731452986,0.5655460042254256,0.36827463663358945,2.0842284726229616,1.0315707973080128,0.053672489272186166,-0.1292094586306386,0.0716821471399305,1.0808451941642367,-0.933034249835019,-1.0348546935879877,0.5238788506695972,1.1866848274948434,-0.08413861621612344,0.5544956317125463,1.4319898165736549,0.03985814724370397,-2.5573954673742847,0.2280511404287208,1.3844633426973676,-1.2566969611440197,1.111578509119006,0.002366698077602291,0.9383797940024389,-0.9714555367462611,0.40312927258484776,2.7704143381290476,2.398268500281172,-0.7430528247527858,-1.2535193790898678,-0.5771906890696116,-0.012504724307905439,0.36631235945725277,-0.09608819649805353,-0.8279273190484819,-0.0897676334727601,0.008733149688204284,0.007618563562014289,-0.28445063730591263,-0.9788497930429743,1.5086798483913604,-1.4523249934384657,-0.466157467057148,-0.4004579031083224,1.6995414743896058,-1.0263913930426203,-1.5605758516652393,-0.7315605517913739,0.7310471815936984,0.0241006814042371,-0.11142993862286349,-2.015569494874085,0.4135435469697078,-0.6450509560360803,-1.167074069551769,-0.7881146175763168,0.2511199033376134,-0.39923234899065213,-1.198377999525095,0.06581150827495585,-0.166254611800532,0.7703421078216751,1.5801806570422088,-2.20933952378406,0.5427119467823631,0.9063231101550046,-1.1244891949779172,-0.29203759444470784,-0.951773741330649,0.69004063373749,1.1062575871713254,-0.2675699037059615,1.0690577799040182,-1.005604912206943,-0.6905373222135949,-1.1264320409390383,0.9387041914797347,-0.24956422395301514,-0.009099700710490525,-0.12791754746083042,-0.7915501481108983,0.11503711776419376,1.1260272687992918,-1.8522674691698908,-2.0656407948536066,-0.7447407253658334,-0.6288182340479594,1.2788744593809287,0.33576074719135895,-0.5991232945943116,-0.5601916622454164,-0.14270102511019112,-1.2385059757818442,1.0134786541743348,0.8167978333759117,-0.6987785070722209,-0.3471586661308637,0.3221494895020394,0.04395280377512889,-1.2122097175859234,1.3557733481760668,0.7916208080605144,1.1082631855012914,-2.2269239235526026,0.8445740171194425,-0.5023053554217225,0.4161532951547991,1.9256784517398777,1.021365160812479,-0.4399854763272449,0.10109240240037447,0.738853191595171,-0.9129180956399459,0.917080860642199,0.2846508759585396,0.8583881745713817,1.7463519384913613,0.5263794766383403,-1.416096860730466,1.1518160024803266,0.23787571074228897,-1.3469916350175577,-0.7050417368438956,-1.3529355797908116,-2.9965495303634038,0.3697754520972964,1.5952833242006161,-1.0613185199149227,0.003507887295928163,0.5597524707041249,0.15281561465779342,-0.3397961732726883,0.46307607553392627,-0.08186394240317925,-1.138722132913577,-0.625347158898069,-0.7222053112363352,0.37364456055592443,1.2277133481072462,-0.8675171609194638,1.8374903554059132,1.4629748949411887,-0.4039409918125747,-0.985639268739881,-0.925749049594034,1.6575061875033987,0.1493881618006608,1.0393937627255934,1.4820713914978307,-0.31921125025229286,1.228464621169339,-1.110992825883721,-1.330215391129333,1.3492086095112545,1.0039163005375626,0.529749362358574,0.03922721659172855,0.6870169174978293,-1.028097653187486,-0.46889653141333115,-1.765768659167142,-0.027047316413296246,-0.7413195705574679,-0.5052989629736633,-0.6609337991137263,0.5265111846653553,-1.108975444987641,0.12203932282718645,0.4646454517170461,-1.654545442714637,0.6321662427760617,-0.5857313361252743,0.27706563253362015,-1.6739097899965014,1.131006172113429,0.11029165318054723,-1.0365293715271204,0.15306443973467568,0.09816702943781702,-0.3004546746474498,0.9721659319327022,1.6397022417082083,-1.8864755417720902,-0.8543043439076806,-0.6485623056660831,-1.2020335173163395,1.500952929235248,-0.23337377918035487,-2.0057670230046467,1.2378899984569685,-0.342542560143013,-0.7141164842821738,-1.6089640227136268,-0.9987140570195028,0.3991350891098418,-0.09886554115575118,0.23141920107426933,-1.0192061920794433,-0.7416227733177836,1.4091909454221856,0.9245178153550416,-0.39048689200982134,-0.03574427590212582,-0.52914060334428,0.09731432771628916,1.7225849740121437,-0.3538545574671475,0.3648572839855865,0.20656684758895702,-0.4184033344657824,-1.1969146981456669,-0.4239072214764277,1.475079668619496,-1.2949902247665996,-2.3412291286961007,-0.8864047762419786,-1.2581204905976757,-0.17699486658620942,0.707236521099611,-1.7836185797521125,-0.27903616655500046,-1.1107698933070185,-0.48511132075981894,-0.4271763520851582,-0.2082450738118282,-0.4535902675375927,-0.7705566241883771,-0.7763580973489685,-1.9921834892519048,-0.0047036887309372735,0.6544562137669452,-1.5646012221303813,-0.657202536435337,-0.3900322481011049,-1.3003452728689677,-0.8326803810381398,0.19593928390342058,-0.3760924861395051,-0.5599509691407317,-0.22157700510358308,0.3641529749676229,0.23012300622913875,0.3061740983459754,-0.5547037064738369,0.192244572949892,1.85253568878739,0.6992041035622107,0.922014117756047,-0.0708093012576032,-0.08373823585365747,0.2120578818114069,-0.6492104139593605,0.3552693959355729,-1.228798189368796,0.37807452825537874,0.6981923463815102,0.4192746668469552,-0.6840733908895189,1.0416869951190968,0.09319423240281545,-0.3092717442508799,1.5718412814780103,0.7951195500367495,-0.1846226867760472,0.18568359666518533,-0.9052054122604867,1.0771757434880596,-0.5938357968694916,1.8503820645402438,0.8597613171506034,-1.1961583141112053,0.47328427281528956,1.1548919240624744,1.21107158504635,2.0347018702843864,-1.255652156054513,0.15161486464270166,0.6702016813754625,0.9182166624669142,0.0528021972607882,-0.4573128981056918,1.4061461963952768,-0.8295784764346209,-0.8098043888758233,-1.0431528955242695,2.2337470934973616,-1.0073282303790376,0.31611661800135266,2.431039004800741,1.432508107312517,0.3690184644008006,0.13304347845584621,-1.947198647287138,0.17166600123079356,-0.9317483123983186,0.2677869478514786,0.03568072123779457,-1.3290021307073558,-1.5214241104596342,-1.1739360217988815,-0.17726369287601618,-1.0423172721803673,0.9672027235391101,0.5648828374426274,0.019640999024399797,1.0000227766745218,-0.9304081898543559,1.5278533497680178,1.992101952355996,0.8501901116827637,-1.1382111032361515,-0.31416913191260365,-0.2384626318080792,-0.2802230791830964,-1.200860455420749],[-0.3215515294257886,0.1924740484253052,2.195927190996871,0.5224911742731465,0.4809392044087251,0.0271386267599493,0.19611489186034817,1.9494842548099023,-1.6126723828070735,0.12402197853689018,-1.566790413223092,1.3323408029219435,-0.3079972374575029,0.49186518931462525,0.46821025812531875,3.137598380487819,-0.4079759531200775,-1.203518484380983,-1.2967781809303307,1.1868274194272324,-0.6725314314006082,-0.5419891384477606,0.7451762682950097,-0.8292542690185669,0.5132363559141252,2.167613277818245,-0.5805693985978795,-0.5950150017884545,-0.3914236210294868,2.050981365496335,-0.2465919829892837,1.2320733346944799,-1.0958811777960975,-0.5303952907359475,1.058573345223454,0.6754192214695413,-1.437877491661801,-0.7704806492780378,0.6481647916545524,0.8391701481683279,-0.901413044601707,0.5528148208199263,-0.5948588496509254,-0.8396138603653016,-0.9364983306126788,-0.2425949002661348,0.061329190481762184,-0.22434764452332898,0.5703192764431728,0.06884607344683175,-0.7211906040475057,-1.2847345784476827,0.05293950959277421,-0.8409875431327305,-0.8767827118305679,0.13456943022611378,-1.0206352908580327,-1.1923504945544359,-0.6492203434233453,1.0939254867299586,1.4590820187899165,-1.2938442275592925,-0.0801647480751028,-1.2482358654849894,1.0457196248222784,0.5131134421175856,0.8320349733444262,1.3316703848332754,-0.1784315659902375,-0.07006706623315713,1.1419722419577831,0.8490371305384042,-0.2896242881990923,-0.6654543564119033,-0.12491601311861944,1.4316240858524811,-0.8548748118860052,1.2642577056630349,-1.5876057094283806,-0.566040205941018,-2.0607559834740634,-1.5134492352897393,-0.398996577285313,-0.2050650313272568,0.3241633019478315,0.033117006521631874,-0.5863544377762734,-2.346106237214462,0.4188706325010239,0.47229598301301157,-0.3054084961111331,-0.6795223273183232,0.5769772718994886,-0.49823553408155574,0.8382853441837952,-0.9628042530965046,-0.16642317632449005,-1.343893147292347,-0.27261677914409677,1.3937955047625379,0.3289312525222151,-1.9810309343669528,-0.8563507569555948,-0.6419842640389658,-2.0429366372579607,-1.4793100720037275,1.6356319379705553,-0.7691443651107959,0.6223817454234893,0.47550918546772336,-0.11250859870712183,-0.16014913169899814,0.06913069943091653,0.9395601869401957,0.23509549952047612,1.0551917560186632,-1.2369905808111612,-0.9714941311334533,0.4555676689575225,0.5359274664251962,-0.9358013095140626,0.07646015357451998,0.5922381417885084,-1.4263066512054297,1.860980908633209,0.5415464908881601,-0.29189490068149987,-0.5942387615284882,0.16123419772113062,0.771545092458323,-0.15124237999559131,0.6134442908277531,-1.4116719731886533,-1.833757349929378,-0.9535155692755471,-0.005593955273906714,-3.1307971172024653,-1.1265973152560969,-0.3400162887667504,0.5770236737224039,-1.8737927044920182,-0.11713741546031517,0.0060991196902576705,-0.9567474380107813,-0.7175516350469211,0.19362802309996294,-0.205509105412462,0.34835473840930653,1.1530995121320222,0.6975457739074078,-0.4479747729748466,0.21907783510265177,-0.44592724904303255,0.08934478124597976,0.564081320875024,1.0528672321755488,-0.45246779033112977,0.5144132765201748,-1.0284466470237508,-0.2813613412636985,-1.4325947955158036,-0.030331325129111096,-0.5885908876217878,0.9568317726612389,0.8111548554043493,0.2666838224014948,0.034073746198919654,0.7036974791282072,-0.5205593444728717,-1.2027246268229494,0.5617527788333222,-0.8520040673717276,0.5726204912177044,1.3867866180345578,-0.28761382277812214,0.4038081816192635,0.3887846273443634,-0.524222508260356,-0.11552054186281555,2.04367671877041,0.07716198877797632,-0.014566615260166171,0.11992609189729471,0.9988903093504169,1.4660838221675279,-0.5419204267426204,0.3902712621610301,0.048614869796097346,-0.43627938825459417,-0.3076595601391347,0.6760500151120552,-0.6976943638111741,0.008908700072952401,-0.5780824870273745,0.7662948452360354,0.9737496987189163,-1.2555766523211425,0.46756325394011,-1.060920326198232,-0.09030474601703346,0.8532413917203294,-0.619574166780627,-0.3013396358630746,1.3600747628415317,0.9233141893860087,1.3840784627906517,-0.9463718141989014,0.5130892880774591,1.5959845024871633,2.1734713000587806,1.718438606618085,0.4701411532245989,0.7634170156776393,0.32854804749426403,-0.3967902695480515,0.3556231848922908,0.4346387187618141,-0.383046933822432,-0.15261964725247237,-2.3773022142635654,-0.2256507117877809,-1.015925517264333,-1.5433440923392123,0.1987362916971664,-0.8231465494150991,-0.9493360327942203,-0.2859530848818294,0.7238001582544246,0.06035556273794076,-0.4240078058860917,-0.792453802147954,-0.05119918484036625,-2.083267113862626,-0.40215694576237593,0.7995609459638222,-1.1732263472355344,1.049682429220726,-1.0544455812147695,-0.5111207871039604,1.4258457134792897,-0.46140649107027504,0.12439439048510059,-1.539695035091693,1.439919427164741,0.7007708241340663,-0.6105977143860686,-0.3349239622706065,0.6828921804783457,-1.632237660958186,-1.5574171927234695,0.8753027948390273,-0.5708253794233727,1.366853467880112,1.890197031732563,-1.639552320769017,-0.3464673714631596,0.9382922992478735,-0.020900916519680554,2.8309350986264192,0.4125248028821817,-0.8439127607423723,-1.4295410580896497,-0.5685767767251415,-1.9443627721653356,-0.6667978354988372,0.5019590184216189,1.1194710401599437,-0.18816889613536694,1.101671111435733,0.5131510192469647,-0.15620294351098427,-0.1908729645364688,0.9902091374597713,1.0047611696945082,-0.719005246181781,-1.6043598839869608,-1.9195486526269294,-1.0670352329410335,0.15414005994916066,1.13090012016111,0.33902854552739004,0.18872155900084164,-2.3000032545612545,0.7415627224981179,-1.51743593509752,-0.6090731883545486,-0.09556637648978762,-0.5340234783629478,0.07994212385119082,0.2613345402142792,-1.976146797628589,-0.21950969611063337,-1.056773212275894,-0.1463483626556787,-0.13877363495661993,0.7603586709879971,0.9408668208759311,2.2342327219924267,-0.236286761571986,-0.5039971402374706,0.41727947373238083,-1.4336892370743624,0.36435967141493925,0.3007283575203596,2.3065300121429178,-0.7531009208742605,1.7938741097882134,1.199109867092293,-0.43345939297480185,1.0162781664944034,0.6383859364153303,-0.1001548988446936,-0.821743727195215,-0.8833132422810324,-0.37117457230580736,0.3840221856795407,-0.3977566272012133,-1.9301208846002935,0.04434638888894248,0.914796054141182,-1.1807189849589534,2.62735843640365,1.4415192742325333,1.0132659234821073,0.021776699579265098,0.6408310306839097,1.688722973028312,1.698622126778751,0.4778149216682871,2.3183367458159947,-0.877207765144021,0.024628464587879425,-0.3118742030350808,-1.3972842800133147,0.5398290395422274,0.05891732188293698,0.8732998966786989,-0.44587196985533323,0.33429832627631545,0.950588230404044,-0.7718480315393189,-0.6638358505281406,-1.1995479407827299,0.8697677932605983,0.44945210367778593,0.08851791932262622,-0.08526128011081124,-0.9718466973382787,-1.7050205339318638,-1.1026723867009558,-0.17781367765939074,0.16834688503405723,0.3595996687741055,-1.220661500106251,1.1370798195027372,0.3799198341724166,1.2844573019870003,0.34280944138299396,0.9904055747545207,0.8935858046236886,-0.26065853820187734,1.3073520326674237,-1.0963221882558702,1.1806274939782488,1.1339346387156635,-2.083199960189265,0.2390400607077314,0.8208653278435942,-1.4114652215786507,-0.29694170605278125,-0.8961245092967335,-0.48937139430768606,-1.1861590392380212,-3.1976772373039988,0.8120575406001337,0.04470453392535254,-1.2871014248654875,-1.3560131742673056,-0.02258621571745559,-0.46426936855335665,-2.0203175044992943,0.7712552316940515,0.482789440784227,-0.4079730163315742,0.849914845520216,1.594568403411497,1.0863146444228722,-0.0690371286142574,0.7120565853250314,1.0587274913733387,-0.652529679476214,1.0386125718584966,1.54780058788849,0.48390293044815136,1.2993539461651968,0.8444750021927557,-0.2807681336446917,1.582085104356402,2.010020933709232,-0.580651014588591,0.4897034961278967,1.4623294487226992,-0.08251554672168458,-1.6753833413643575,-1.3031510252056269,0.7702481112585764,-1.4531415280019688,-0.4455978310526747,0.334803718499267,0.8758426994186261,-0.867140744186014,-1.1893295458577,0.7991963959439998,3.004762068256814,0.056701395629039655,0.17062510383153515,-0.25513499471676543,-0.4049313461945696,-0.06868306363034997,0.0343930867848855,-0.7647803301572696,-0.5981145746055413,1.1198289440361013,2.4325718119307527,-1.2733069371507915,-0.32328770959485703,-0.6324976704191808,-1.3024530152423377,-0.38033453661629907,0.1962840934009936,0.4872194728157771,1.3268120057744084,-0.14430081028223574,-0.38819843413459987,-1.0952917340316737,-0.4953181591449837,-1.8279576059682794,0.09812124658922157,-0.485167539033383,-0.6264922515595832,-0.7671095655929919,-1.9412092495550675,0.08945504901108413,0.9543916219742127,0.07304430842213573,-1.162329754219694,0.24063831053648108,-2.381112494959096,1.5937550345983948,-0.918300148343641,-0.6153022354989222,1.0092086616164149,0.12311492674281982,1.7296929895584403,1.2149749227865867,-0.6730591759171709,-1.0045848408617535,0.5809153140942,-3.1476204617221732,-1.2744476005328504,-1.477770033248009,0.7359323496264268,-2.806217777826081,1.157504917338881,-0.6511142274487749,-0.9283707867560068,1.9283805090662334,-0.22714581724335328,-0.0013546612709898526,1.0921285534392835,-0.028654447428428365,0.2838305323199339,-1.2554835576581833,-0.8445147588845844,-0.8053114967089363,-1.0707078266559809,-0.2391369729434342,-1.0846826371682292,0.8769237610570668,-0.23810058018616978,-0.8697491903788407,1.0594924794613565,1.0358636005364223,-0.5466111489203275,1.0510317503927316,0.22835811103745546,-0.3611915477144928,-2.0135580619089337,-0.3680848664187432,-1.211716091303299,-0.17533346818842604,0.6433104195220589,0.5442096165410285,-1.3889278576502955,1.1045144435664458,1.6091197228119747,-0.9634854222914555,0.07551285802790036,0.26533967205702585,-1.3877316378623337,0.4315231559874422,-0.4473381597226993,0.07444300521016586,0.43903746293350154,-0.13667687855526245,0.040166409426763264,0.2802597134844803,0.35514766713031737,0.5112903315122891,-0.18824998036650797,0.17439505463669075,0.6794544130303671,0.062247613559724926,-0.04253972529311562,-1.0343310960000318,-0.6755277374243729,-0.8204545787666898,0.4041966896485058,2.1514373715442905,-0.4096688325339202,-1.23915276135649,1.2446521995329154,-0.1894108641396201,1.9290687306029919,0.7852585067071283,0.5131376856856269,1.0750483338551362,-0.9247854569664502,1.5506369906031017,0.24945218943015138,0.7083216098524574,-1.4408574324417955,0.7908435346048741,-1.0022390502964102,0.20963019554492826,-0.7828628690545829,0.5098797577851493,0.7821466512683222,-0.18678807266853792,0.016375372756959102,-0.018738981735762716,-1.2680503992441325,-0.3379008753101225,1.5192762632782268,-2.045978985072819,0.03932184116176446,1.8596128404181873,-0.3037051537136312,0.9742793420181873,0.9470526603755257,1.1864575025813038,0.19139242639405957,0.5640023761043539,1.7229367266237554,0.2529593055007854,0.8070343536249683,2.3345685276521517,0.17243375996789104,-2.0478649495127614,-2.387102172811092,0.3581523191665983,1.0807246033910798,0.4375939662694888,-0.979380400788557,0.9549179351443209,1.0740427424485988,-0.550951929888604,-1.5739441277707,1.1277275960783362,-0.217748240172886,1.5989646803587054,-1.261815334568648,0.999577740273232,-0.7158596723999229,0.06153019655910095,0.5885278553530846,-1.106224281958979,-0.6403335269714869,-0.10010482513270635,-1.57453863245939,0.0033680673965265826,0.5890623797645863,-0.3195393816288001,-1.7951977353461144,-1.4717509279706396,-1.2428845547614897,1.4986193753644836,0.8629890248944025,-0.4087361414366582,0.8680158827283901,-0.41510524313294817,1.0125653010768287,0.1630959706827633,1.8053719911337631,0.5186943078132604,-0.30042942359041336,0.6656014532896993,0.1643303616934975,0.32990850601440236,0.976905555243928,-1.5580346074024565,1.9624911370887212,0.06625598007107487,3.1317458098732507,1.1569659445429854,0.09824308185891015,-0.18288195318929945,0.23617453446260792,0.6545004814880551,0.22896193129693726,0.08379076200548898,-0.7893655682862848,0.833367746749633,0.7174081644625548,0.2889835229320338,-0.9987589505590686,-1.344545540054455,0.6475577260439174,-0.22674661181394737,1.2259764724285551,-0.2306140839514446,0.5298325535503098,1.9589285839315573,-0.26608694419372314,-0.41603428860739783,1.223175823617539,-0.6127456177016977,-0.6166126811503183,-1.1862771022092657,-0.05836693604329189,0.09619435777616293,-0.5801027423926111,0.11562634904897695,1.5198493449611146,-1.4952468366071021,0.8329549563280473,-0.9929589761255193,-1.3894205940026487,0.6885171241393659,-0.21998650620749924,0.31713304705104034,-2.0268060254828066,0.7685121990734801,0.5098108712457392,0.6196233223857982,0.8830841548986381,1.2844931255710237,-0.21152214290457136,1.1903717471474071,0.19741590827450917,1.0174925040375056,1.6700290219513307,-0.6940740370130376,-0.13406987684441266,-1.9622990088930934,0.2565402172070411,0.4816007161198382,2.101407943364135,0.13019930309197073,0.7834332099002301,0.4667700071467102,-0.08665031280639764,0.4593102445194993,-0.3590766958418553,0.0823767520333851,-0.022478195150656792,0.5843420356214812,-0.11479632335652662,0.9527292048054843,-0.37505474361265617,0.7639322726350444,-0.6751071824154152,0.9571958506315572,-0.7362849188856117,-0.975800896790321,-0.06578296606158533,0.6453492718862099,-1.1794279784730752,-0.27713748294240553,0.864450407509382,1.2829440444258167,-0.7886495201569099,-1.7615078534058528,-0.5810167696960784,-0.9924563803729541,2.3988109425338533,-1.3146007458705349,-0.003409833836173323,0.4113384632828121,-0.004058165655685341,0.3364504539837762,1.3400440941548395,-0.8711739995944706,-0.12741504869201756,0.5559040629578367,-2.7536263634020934,-0.4725125450914111,-1.106965831630831,0.6455712892737717,-0.325175652927478,-1.0489310478746343,-1.308719379579393,-0.6613294263628618,-0.6987352395281871,-0.49931244716318046,0.11712872453283917,-1.286712146020691,0.6068721220711583,-0.7382829848376073,-0.4057962843125082,-0.5951009114335858,-0.3618531676769114,1.5047438384690932,1.1454468232131825,0.33498408478457453,-1.351757200996196,-0.5149933526172362,-1.7970508479211738,0.8548249274140965,1.6133175122156227,1.2318614727853112,0.16269407993375998,0.383501594603636,-1.3391577745469745,0.7493590916814216,-1.3962949563130558,0.2291299418833075,-0.275129219157804,-1.5950781527613065,0.2875558010046845,-0.15033324796274786,0.27421538513178345,-0.6635195835345647,1.084836108028003,-0.7073677712452853,-1.0878453227953417,0.66065111071954,0.5582178207938143,-1.187710129406864,0.14378121129442892,-0.13603039743727097,-0.0362040655231563,-2.127753282273051,0.21046920069038114,-0.053944629134883716,-0.9502450208363051,0.5747501469287783,0.36622935714168875,-0.5329014062128252,-1.6138809184240903,-1.2585671006729429,0.8120727188975834,0.24538434784722776,-0.3416629278824578,0.30631996492329006,-0.7463056202387243,-1.5512680926023652,-1.3526388266909077,-0.696792222331863,0.8304886144515885,-0.5723387893604666,-0.053000124655245076,-0.3582732193909595,0.16804666186824288,1.4926486202692333,-0.1753517473409547,0.9197763392634349,1.2420807633874833,2.3195483494979836,-0.06504191909477841,-1.2073443548265606,0.7885159280647998,-1.0241225428166285,0.2557327609820705,-0.9825482934466916,0.785793956644833,-1.0906108058048263,-0.9098025935685343,-0.8219739796717933,-0.4716595107873963,0.3861757123325779,-1.6406973288302484,0.136224035535087,0.451898981026143],[0.5187371511857746,0.03443190519456757,-1.4252682742030376,0.11356623586200153,0.0932526721247851,-1.8091116439865347,-0.011711655776665574,-0.5367473811449278,0.8154295262497522,0.7350939594128658,0.23507568291128722,-0.17143587270015773,-0.07222029826177351,-0.6935419173206291,0.45756482841330226,-0.7057383435321657,-0.7927411214400409,-0.11604636241793051,0.7338199316263264,0.8911563214648976,1.2964381415310928,3.872088278225723,-0.854833157956479,-0.31321457868402863,0.9056132891067441,-0.3430965895408818,1.1402482129957077,-0.230757484648498,-1.680013497960526,1.0914658782895594,-1.7045879135487334,-2.172810768875363,-0.14987766138040542,0.1543405792382182,0.4184134199042393,-0.23287864722848806,-0.3011922911562929,0.08602770027786297,1.3221133229073003,-0.3591977355458091,1.024383657165388,-0.8486300876120708,1.1744153066077032,0.17066139058087845,1.9041872853362878,-0.35340920443405255,0.9874558301562717,0.28096875458443055,-0.14588798568286815,-1.0297692947642716,-0.9546503261174267,0.6311578319379308,-0.09414777197991958,0.6918963235568125,0.030218525869537053,1.7107828703400847,-0.19788815539377588,0.9231354150503293,-0.7121131834857699,-0.23682797211114243,0.7887723907019597,1.2343746455843114,-0.36372657458612456,-2.2550493461797227,-1.0441981485709195,1.261122885812766,-1.7167842158101057,-0.21288005050849687,-0.17221079783616675,-1.1009681322016052,-2.2802045789246,-0.8886170987704822,0.42579920853725894,0.7505849437478003,0.6859044275645694,1.3676152916854183,-0.5568794397229171,-0.9961052558944307,-0.7127748859352674,1.4135910548649082,1.146471388496362,-1.0308166033237565,0.6643773709344745,0.10124924467127595,-0.6163093484307192,-0.73693255161197,-1.7051042752347685,0.7077581673426068,-1.1734931990273403,0.20681205618549042,0.7575265768282796,0.08177025605443758,-0.5834406113010526,0.8311991477397696,-0.18866115041742326,-0.1450587570759127,-1.2781427151288103,0.26600528920708,0.46656459609403345,0.5764448228836565,0.07756800374517205,-0.7795292219499576,1.7891563727916417,0.46138599897145927,0.9909716416510824,1.0361459953814813,-0.5177961738036493,-0.03502856957539366,1.0319511524708211,-0.46512899688265963,0.4968273217526804,-0.006725180699062867,3.054288887354808,-0.6009095915146899,1.0612452936981196,-2.43276021432293,-1.5693721745594928,-1.3646077956228178,-1.833058949470309,-0.47521690674109396,1.1090759043706535,1.7643193030381004,0.7312279686699324,2.383678771095921,-0.6661331103091322,0.2963280344805882,0.6544482121101313,-0.5102048270371321,0.5067229040420104,0.9450301298195798,-0.12971512821509862,1.2685665817997074,-0.36943401117039415,1.0524650405592566,-1.1830429339890658,-0.7130729429574667,-0.16124499312845592,-1.6145070424350403,-1.3437626462269796,0.57136157300622,-0.46172498121218386,0.09072221234246473,-0.16161019277775965,-0.5823151092272784,0.06791057192623226,-0.7776417513463753,-0.5444658870617235,-0.5542761664369562,-1.411704123541168,0.9343387747516719,-0.9582541688467753,0.7479892714659215,1.2126827589771356,0.510303119295219,-0.6722218099534093,-1.550220422107264,0.35285320915395685,-0.8067427399715676,0.16737787046256544,0.0365650228209155,-0.30463259879794174,-2.861709957323477,1.1584755519741414,1.5000865363330667,-0.09642640058709169,-0.2435902258847933,0.5343790811521274,1.1341385889903584,-0.6218649081781966,0.7477771015531922,0.36316962575259054,1.4003616248471362,0.32937729128952353,0.39609086441528224,-0.841340154839337,-0.6215241947163511,0.12326640057406395,-1.9432047982035314,0.8244174267664304,-1.3178095538209076,0.5654517019901604,1.1664780976891056,-0.6458552410316689,-0.6500179680772932,0.2238589850404101,0.12995202506737166,-1.093506872588567,0.6223205174277509,-1.9807843238092433,-0.06594422115741005,-2.8620690267851763,0.563435664201019,0.07954173212850851,-0.5248031321095691,-1.2020409356258026,0.11522801956360718,-1.801360574723593,0.7243923151115331,1.5249671717260707,-0.5784568818614482,0.24231935945589203,0.7166266682722041,-1.1786201199930653,0.040579455507920144,-0.6636566688547867,0.16819995288571493,-0.7288352631801918,1.0403353292599287,-0.8805520371862834,-1.4991017365600956,-0.3314045226668111,0.19443147276431116,0.6801701900499837,-2.149351856891487,-1.678957389242053,-0.6250791246780858,-0.24016969950991554,0.8149054657164504,-0.6694859578170503,-1.0546313148366682,2.1726959023083414,-0.7991354137558186,0.3455213373171523,-1.1165929749570915,-0.4967717218427245,1.089892527688267,0.042829001168998175,-0.06695817459117469,-1.4213292962753048,-1.3454070419610709,1.4085126366224479,-0.8806324440064404,0.4682150427316796,-0.5350413232145694,-0.14367815626720026,-1.2863069073441067,-0.07756652961093738,0.30374144902102035,-0.42354731224734987,0.3229185227809123,-0.032527054567264777,-0.5511026760897705,1.1294384522928635,-0.03898511823556023,-2.0634240270623394,1.6828693856780028,-1.0361434857487655,-1.315800752316283,0.5433584541641173,0.5839542923926633,-0.14841703158070563,-0.09153561453005143,1.164833009630149,-1.3014329822362332,0.906365177015409,-0.25909363021789206,-0.6477355042280298,0.3359819697523085,-0.305674354010646,0.31572071681067126,-2.350592185851206,0.48933021003259464,-0.20275398759032925,0.18675265242793823,1.2990596123259943,-0.40535630324137395,0.6414682970181466,1.4633730621691328,-1.8118437315731883,-1.700950322712058,-0.3600475851395593,-0.824636759892081,0.5639364827406429,0.47793727543597886,0.2705251275870536,-1.8435053147758866,-1.3689892532081018,0.671744297027475,1.7024591483505782,-0.7111440273512949,-0.048633875798312194,-0.03925244486575582,1.661869026379011,0.5892072254578522,0.28824797067260827,-1.0822667326044537,-0.00722896934759932,-0.5846351792960548,0.3056764372538602,0.42024319729629983,1.1728581950772194,1.5461534291296666,-0.8736400521787012,0.4384777188409119,1.043902492645178,-1.3240290254182103,-0.9960954965519975,0.2502829079511597,1.5352608467940794,-0.31233725238166843,0.9426391594236857,-0.5919729721696718,-0.6162381052898961,0.36892960443277745,-0.37965854358948176,-0.142444417617335,0.18634653752698255,-3.431670470448972,-1.287934417699408,-1.7998673868457722,-0.5972902893501968,-1.4973488047711316,-0.12913941827395872,-1.4662279138483365,-0.5685302178681566,0.19893233453629885,0.09517518455676055,-0.3391262818959545,-3.4820325094576066,-0.47223299160798293,0.9947437531516351,2.2667689942845866,0.3457813248307542,-0.8059743591920908,1.6253771437866424,-0.5768887579677073,-0.5522408826657909,-0.2226355645453337,0.6030794724240431,1.5105840642912725,-0.48067904007659207,0.9224647231795405,-0.21631272990575773,0.2385309745460963,-0.4477543072651163,-0.9150149657803354,0.6159685534092605,-1.3610996830754303,-0.7523077385588685,0.9061214753635987,-0.8296088034412678,0.841141018218597,-0.22145628406112106,1.1926849246851867,-0.5533767375502604,0.5986508993256561,1.174641855781811,1.1641683445852113,-0.5957424981119753,2.214106067623363,0.3262321576013885,-1.3449199095914692,-0.772779170642294,-1.2613446348110218,-0.18213985458250387,-1.1428131607058278,-0.020457304372915593,0.12886727079996996,0.42030005809768956,-0.2340676869109464,-1.279025210322731,1.1385283587772164,-0.14395871028286966,-0.06417089738391951,-0.4322061441378539,-0.1021359565721737,-1.2246571455638955,-1.9327465255830902,-1.356949038060187,-0.06373373096922418,0.9158566191692779,-0.3149391376322631,-0.5886728456741959,-0.7631685431900485,-1.176492007121655,-0.23678805777900802,1.7271436945170453,-1.6965359360173178,0.23682826035672286,-0.5144299001296758,-0.14567194765941177,0.022498090558109397,-2.5500130009776956,-0.08841689409418331,-2.1256878609544096,-0.8134363868026234,1.810632482014237,0.2290237506089409,0.0016174374464805387,1.8366018448576513,0.4967432616000841,-0.589757922640967,-1.849384148045962,0.09352034867020032,-1.2931386415882173,-0.4908723112748954,0.00034588458079921615,-0.3663498800618361,-1.396575732032583,-0.02502746130116935,-0.02583201170262564,0.314751751819501,-0.5339081581478116,0.10871525110100308,1.0576467942537617,0.8815864670817988,0.26962181756653686,-0.08675262855513965,-1.7780465109956747,1.071089233029983,0.2003888458650158,-1.1632571130968692,-0.7093995460930195,0.32890710046753957,-0.6959002387230024,-0.16863035737559318,-0.6474911542529175,1.5916698770466542,-0.37631630680493355,-1.167957951537597,-1.6647077518449593,-0.11521251077748011,0.5277012598248211,-0.7377522957339624,1.1477454290416438,0.6241977572125702,1.2422217441523948,0.9235146601953698,-1.2102202204970622,0.5227460931535721,1.1063265819084527,0.475006926498073,-1.3929147940267017,0.5281129985096594,-1.0396806251593913,-0.4334819198754055,0.8029373034175112,0.32676107801576526,0.9239911629506377,-0.2473842247701288,0.3150198579784504,0.49743788074221706,-1.1270871114674657,-0.349993416075848,-1.7178871245685063,-1.3642002564987774,-0.1696963795686569,-2.0815553326583878,-0.18956398019699983,1.4300586811890905,0.4803138538971734,0.5389501547057277,-1.4476564215196477,-1.4431958051461973,0.820741232028505,-0.6201984768566021,0.051381486996845784,-0.5227652512843103,-1.2508433062699345,0.9229082402427106,2.290636543599003,0.5683024562040193,0.5234501327454482,0.9241123017549289,-0.3320253128397059,-0.42431705440109135,1.0603489026896573,-1.0957723045253287,-0.011442041835736227,0.035308264006216096,1.1208157340954474,0.5637983400929135,0.21465314719210188,-1.0524985851837039,-1.1063981365502746,0.11350482719163947,1.4643652235924463,1.4606202011089546,0.4323532908739994,0.3328852636395619,-0.034925189698364126,0.6731718984730425,-1.3300331747806555,0.27765268488378253,0.6232234289045351,-0.6954101434779932,-2.124972603083117,1.2838490309248904,-0.02734241528573675,-0.9903833162335002,-2.2996667678960603,0.2116583101937308,1.1863926278824726,-0.07247038514541997,1.146891811121652,0.48055546740046945,0.3879922566032433,0.7808172859610389,-0.7350605813044279,0.7445320025399754,0.7661454624684036,-0.441660514867479,0.4858764533608364,-0.21249670566484846,-0.7543927882939605,1.5049375914918472,-0.9035976262205863,-0.19108419776569263,1.0197162900671415,-1.1141438739993834,1.5679754872275653,0.6694795232459173,-1.66971305616076,-1.6128424150371194,-0.7010067057613935,-1.0774349785939104,0.6621801032921452,0.4376425341516289,-0.07720522450221169,-0.299103808317292,-0.12781044217941528,0.5253495505352876,-1.152334288643905,0.5275418609423944,-0.7569699558981458,0.27702782037394197,-1.2924503340158073,0.04488643130727591,-0.9713625420920652,0.800511027160733,0.5074223218718162,-0.2098642018176125,-0.2655409764684862,-0.8111599094077504,0.4351679874339985,0.2186328610317142,-0.42760251783448944,1.0281478383462874,-0.62097886916468,2.236186777855252,-0.46002425436562444,-2.6319723211990933,-0.24550927505108042,0.38091234809245234,-0.4362484514768865,0.1559372781566248,-0.04017253954146818,-1.0820178853325688,-1.5978245268533429,-0.09974757669032468,-0.9841104354419408,0.8558498178388123,-0.5754166327067706,0.8562306809970613,-1.0123287504607543,-0.8482664258318576,0.5152744199591957,0.15590678552615242,1.6778240888015343,-0.20726992811115255,-0.6545875340328253,0.027657838447586316,0.9519780768751679,1.0126578924765495,1.3720749488751576,-0.10388366480575915,1.1656197672651054,1.3506924615708074,0.5006608958203982,-0.30374771024880937,-0.42221821781032853,0.9058143930806724,-0.12589392829275814,-0.22223700026926915,-0.9689783972239776,-0.14551261383297248,-0.7695487040627657,-0.6969447386084986,-1.274470368464066,-0.8586929759088179,0.22360487111218438,0.36235632277243346,0.14207525014036917,-0.3283483688322918,-0.7614428492437028,-0.062417561837502876,-1.9063578512542234,-0.15030541650503945,-0.9810831203087973,0.4730464782937963,-0.03611013580470426,2.1166323961257385,0.2867038903045203,-1.7605390451045395,1.3437807058358118,-0.5626610394076829,0.7593153832795423,-0.8993332729762876,-1.1462812161150686,0.7501405208056363,0.12073848814093666,0.31208746731268966,-0.8303897030474663,-1.0739724161857693,-0.6023842633641774,0.6910412476691524,1.0413751372945053,1.264796474459302,-0.6391951988785833,-0.6168065486889863,-0.11924797383628753,-0.765186810368315,-0.8148928550796258,-0.40055639743893945,0.4552659751100848,-0.0036541422668790206,-0.05012466368185055,1.4081911092743162,-1.6069707974569407,0.760776313189272,1.4839585506746782,2.1805903563091076,-0.9383580626934345,1.6687336042126877,-0.1572406142713326,0.4650711044540802,-1.4224335063607512,-0.6466413177301821,-1.096440157080271,0.2327363111959212,0.34524552371755135,-0.42236801703097804,0.0593202021188832,0.38846408554436324,0.8667689554203061,0.3206809869755467,1.578891054047507,1.888460551287709,0.01190867317865136,2.255917813201352,-1.273761919734749,-0.44112690371444846,0.23485886918870502,-0.3105101194500694,-0.06618763146343216,-1.0018317917105413,-0.17731804848250604,0.4676815707889166,-1.094954707295908,-0.6079856773989181,-1.0523966417222665,-1.2609678648626426,1.133224206412513,0.38437470254123157,-0.7710526916745304,2.9502504890648082,-1.505689455272335,-0.710709569986693,-1.1310928594026044,0.2681797628556006,-0.3535065210100873,0.6139623059595961,-1.401737163873184,0.33196269105491144,0.7079653833600255,-1.1775110627692347,-0.09411110359249307,-1.704189952278963,0.6029480453830154,1.3667834683748366,-1.1166517073527678,0.6101656684957489,0.0812439482960276,-0.7402717216438929,0.29377244686605075,0.09959948990796168,-0.7460072225152141,-0.485446414351246,2.3376980381103007,-0.04189312797569777,0.10214605121088638,0.04303419810702909,-1.446643781466003,-1.2215256727159054,-2.402848762496061,-0.4059793994043089,0.5512677285420386,-1.527009844963642,-0.7991894922907704,1.7723559638964168,-0.484150896115347,-0.15675322352173512,-0.19817757607094194,0.13913473681327237,-0.22642055302855488,-0.456593708176061,-0.3419461947637474,0.36023529416425376,0.1463386395050166,1.7391848710040396,0.506503009916249,-1.7461176063682995,-1.5794747445324322,-0.22772936644456326,-0.21066279503867683,-1.076127007648454,-0.8413682771526744,0.9852743465548078,0.6918112120090223,0.2709389103701787,-1.0870736344799259,-0.7398312652131955,0.34762089235394716,-0.4079734603051282,1.0266338011209324,0.1234294481216252,-0.807985653074431,-0.5238812622336352,-0.5397222263379606,-0.8351647337524651,0.44387122337121065,-0.140927294293115,-0.3638956484879738,1.5991712829489997,1.0128321635012902,-0.193934020194344,-1.8172793990044847,1.1822513847800753,1.8450631576023169,1.6108920394111825,-1.32217097640981,-0.31476357847703923,1.1729928267474115,0.10132673889269908,-0.012587048662969579,0.812905751517485,0.1330467270148945,0.8651969262025007,1.2789001616481244,1.8397657168601682,0.8116943753755951,0.03241341087106654,-0.7171644148079099,-1.230410733478044,-1.2933847588060035,0.01385740071996293,-1.6450979014789842,-1.3881542112676508,1.393628307739556,-0.41655739564254934,0.7904633307298499,-0.9042842207666159,0.2794417951473611,-0.15909088847825523,0.3229777134614714,0.64394961468058,0.9402260463922325,-0.5318346819289986,0.8014705450901346,-2.453189064720769,0.18513846559496205,1.4021604838425354,-0.2353872288751806,1.9938388948968018,-0.40042414379032026,-2.017712631206398,1.1519936127876127,1.2798175453426026,-1.2729388492107085,0.7564296308454538,0.25030519956373914,-1.5831049575252891,-0.17733261562210448,0.6388519617522203,0.9489013091817603,1.6146874964556204,0.5880729865215737,-1.1647458009203437,0.4609275371209059,0.5983891666699533,0.7892714327099885,-1.049906001023882,1.526857953136319,-1.7239728500016605],[-0.24669341372916515,0.3545636433031857,0.9275145978180961,-0.4730807151136772,-1.3895342743125547,-0.9042864382092021,0.12265712462608908,1.9600290100778943,0.6164584179251231,1.8415605942245126,1.0257631528838418,0.06675937470228598,1.4821360237088426,0.21493687464913958,0.3334243700738556,-0.9610897807008406,1.1861689339616495,-1.490772321144162,-1.0774713981549624,1.8496203853419602,0.2916947277340154,1.8003101009435505,-0.4555724962532509,-0.9229298938575087,-0.5516793785731173,-0.2760144857305622,-0.7299941498327045,0.562252087894913,0.5967958040722875,-0.10189920655989126,0.6804566282799221,-1.5162515674215888,0.2032643138707509,-0.37497857899709,-0.771026776776509,-2.130216643922526,-0.6330639152279228,-0.2436480884022866,0.28591665932274307,0.20243031814263424,-2.170867467580771,-0.6986598838734267,2.130209361309891,-0.1423422896317693,-0.4944907732208644,0.21551719275269873,2.0412904945425567,-1.8301448917031862,0.07708384463895357,1.1638549549503008,-1.0309312538528845,-0.45424155460759075,0.19463212494043633,0.3306232265712028,-0.10417445716279086,0.18617201149077148,-0.6096697039369635,-0.44500494052064266,-0.7724972862702242,-2.4963289999692346,0.8875102042151848,-0.8539989579517643,-1.916090590128298,-0.9069525500314727,0.22027147757966514,-0.2244317263154813,-1.1222236143045996,-1.369920067197333,-1.0884379567132982,1.422005398114902,0.481953587418629,-0.5031145283587152,1.5543532260712314,-0.39503812900639523,0.21947592608390853,-0.9670896409371051,1.0430116449504931,0.5183109935031784,-0.7820748252843464,-0.3321631698568546,-0.26994411578638045,1.4130830268373566,-0.20978970826412358,0.37918028905634105,-0.11175091458964838,-0.6324014522393164,-0.4095424730534771,0.8066181973381978,0.17404285944556386,0.15012201615492232,0.5055214259171539,-0.05331261592830126,-1.047556838221821,0.8977813341084823,-0.4082205048686557,0.8888769453961255,-1.2318239418826744,0.756949916756679,-1.8740144399509826,-1.1869045819550765,-0.5514919917334098,-0.25984205924390463,0.6615409486780404,1.1463731878319436,-0.8403312833035745,0.41710063291217325,1.6895226599451334,0.23820837813321152,1.201337860216704,1.2450527104513998,1.72076042372745,-1.5323291270385544,-0.10615406601974364,0.7686037034680284,-0.035023820036155937,-0.4139214361726357,-2.726186036511539,0.36288379472373183,2.091180187271437,-0.18458596254770193,0.38650128921913557,-0.46390181386312956,1.1214464605598242,0.4338811293311308,0.9574454405624556,0.6034119195224577,1.2365827141015446,0.8408495994421706,-0.22166665865251375,-0.5228625243164633,0.6271261515597806,1.0593919277972799,0.8229928833780062,0.5382971710852047,0.10417362529774005,0.21601205662012596,-0.31697069150904456,-1.0030504426289955,1.3963701456965283,-0.8801424347550831,-2.114498168865911,0.406916642117719,-0.10917952389272052,-0.36767562037199936,-0.3355672021464543,1.2452706708380983,-0.2618077833443313,0.5693664122172246,0.6343346840506963,-0.6391113350342407,-1.2382252269262803,0.9109455863048528,0.44785984553924113,-1.2809539693142684,0.37490547610518804,-0.06748685356603606,-1.364821841272447,0.9833644837328818,0.8417356735321552,-1.2094644175953437,1.065932769835537,-0.3846350114238381,0.20937240783895436,0.5412625435041033,1.2368377185765582,-0.25022234694334167,-0.904748758544656,-1.4225117057617487,1.6531847047248838,0.10284184308865177,-0.720551566133429,-0.5818655281316609,0.9323524113281992,1.0161882582411828,0.9391050357921724,0.6974478882701404,0.5165381689731571,1.0503695297482625,-1.1326071724917939,0.4806526688097839,2.0769411107592948,-2.681823643884706,-0.5544913739443792,-0.3784085641214426,0.1332792369292846,-0.4448356741540081,0.3857551630194155,0.21712710550447145,-0.7643756708246624,0.3140407990834516,1.721623658129827,-0.6091228548640885,1.2878248205539253,-0.5069710225994644,0.7637363830200855,0.29073829716071514,0.8295562924020039,-0.5366994536194686,0.28439477428577525,-0.6033839306543701,0.29526051623447647,-1.2571216284269435,0.02640057321859496,-0.15359258732909617,-0.6518084876551331,0.7076671965758015,0.3113546067072147,0.7694853885108748,-0.2651852759247988,-1.973630974716397,-1.379160088523987,-2.809503901807584,0.8993061616080794,-1.1062809522540384,-2.062187766384626,0.749745461389039,-0.9246908373236494,1.2704390006043287,-0.8452198031092177,-0.4464640158252226,0.5939635682309681,-0.8020331351565071,0.2791791429276208,-0.6279322293373735,0.39620806449940565,0.969292456291514,-0.468783985291451,0.2496326977504762,1.3690226995419392,0.8870810347079383,1.3270268577859654,-0.6361236490242397,1.8514793584745877,-1.429519470132375,0.06644394591814226,-1.1302945463458853,0.43352745201069004,-0.8004728509905455,-1.1253873114662343,-1.8731006715630325,-0.8858559160091398,1.0094217676954502,0.6899200724438811,-2.6107832006149723,0.5074175999151246,-0.08342907100446352,-0.047732966634303944,0.4920111252642065,1.0914272659782822,1.2581962949678094,-0.3494343478471491,0.2591114982365003,-1.8280688446364073,-1.3329162487022064,-0.459146293500761,-0.7545585722651104,1.4268441424495664,0.36636278187950505,-0.6619902617896686,0.996941011051871,0.7359890185522899,-0.4660018335553436,-0.07198003729611512,0.4324454422643816,-1.1171487710429002,-0.2322040444918222,0.18871524043991234,-0.6381051563481135,-0.5926241625411615,-0.9785410320809885,0.03578480358354486,-0.5957305184639269,0.32510883123549483,-1.114491433163928,-0.4308013026955049,-0.08637189245541471,-0.012979472229083232,1.169988386161209,0.5973472925824852,-0.25709450664921124,0.32576358091921914,1.024115680525279,-0.49425412541777847,-0.3016147231793147,-0.8958657996360819,0.4893451778285088,0.6366019979309432,-0.10683823456863045,-0.4488354042489143,-0.4759743202012462,0.4957404054601424,0.6618451348716893,-0.6225218642945143,-0.4904564726265259,-0.3742396786591396,0.06632403061875405,0.2954143198343547,0.5849654667572737,0.0503019067254053,-0.9518828138204101,0.2697497670898807,0.17186780426841541,0.5487662437271089,-0.8663619753226929,0.23054060743969274,0.8009540419482909,0.04731951109269932,0.014737850538687725,0.19027864102418734,0.9602841437825239,0.21867633859469338,-0.7444096110131854,1.1064917286219371,-1.1664458061287641,-1.8879873548506496,0.9189588774069023,-0.5796346943485149,0.43358415757730434,0.760457356114885,0.8745858891747379,-0.4973236982844055,0.09378796576684824,-0.808934174397947,-1.5896321764310264,0.5205928971224274,1.2568774803253333,0.541271350249771,-0.9932977652592186,-2.1515385176370985,0.8799936189268694,0.854204315291893,0.06998725127157315,0.26223256006845863,-1.9410451614950301,1.8020348927270553,1.1884985754050825,-0.6489617609451556,-0.44942602188748576,-1.0656322281132085,0.7815733865170964,-0.04458680513395014,0.18426703057782115,0.9138358791881658,-0.21966603024047432,0.04807444183875975,0.8109788997126497,1.0031640504781083,0.3476960081939646,0.29686555866963665,-1.0534617061021612,-2.504550466959294,0.09755224692515357,1.238563676793579,0.6950950732319643,0.5214870968258355,1.1473087808260525,-0.2219340374521942,1.0548866769595755,-0.21709771902996833,1.7331713915512734,-0.06934615950099458,-0.7176559742322447,-1.5099560003609902,0.8626833243499049,-0.4876286917819834,0.9328676006952511,1.4276559274323941,1.3410118737339969,0.4071783462756427,0.497114366304754,-0.10374877528657352,1.3162429085382141,-0.10144499340225524,-0.5824569325458825,0.9364206150440156,0.22144839022274274,0.6506000049998146,-1.596389608640978,-2.231467336905187,0.4904260257399748,-1.4977542807788842,1.0923099108857504,-0.5945477236889521,0.5777441673070497,1.1666794616156757,0.4577499453301724,-0.6617509496934783,1.4943276419767921,1.3806286688109157,0.49715951411583587,0.31223314501638894,1.7069083949960635,-0.8940042681649445,-0.3641527081615631,0.2270393413662771,-0.016477727775371015,-0.4713443813088485,0.4287360727058293,1.5831768013415795,-0.46071445320743903,0.33439279077815026,1.6137007076505148,0.7885999113447162,0.04381112112474809,-1.1435376117682945,-0.8519363955279365,-0.9559023832492499,-0.2972160230240655,0.4591081677112969,-0.1326298443247475,0.21669254485242678,0.25082524876442225,1.9266038289313934,1.6891408748370083,-1.051179699149042,1.1180337185466518,-0.6627754995923035,0.19059979415067832,0.20990961212133605,-0.4520969641893759,0.7194430454737973,-0.675891854682038,-0.05012274342901312,-0.8985471563263479,1.2659412959192486,-0.8098424450461396,-0.8619069731251635,0.9096123460211961,0.19328565151440424,1.026476209803915,-0.07210840408474205,-0.9594081872021618,-1.441933557825897,0.48609700374875614,-1.3095105822004778,-0.422658230895946,0.6405453857246652,1.3650910081054488,0.5706694779587668,-0.19372741342587055,0.8835959161237606,1.43156019348756,1.0008691995849937,1.2424214858333456,0.3206485782472979,-1.1815322105130148,-0.3264362132313416,0.9158097934761462,0.5619086533478879,-1.6865681758154145,2.7380358973120082,-1.2549428882514284,-0.1407710318344854,1.785938088236235,-0.3342344320958502,0.27449361116809773,1.0284142462739925,0.29699356710670854,0.7065895774463123,-0.4493933296191569,-1.994007564194246,-1.9628825577117435,1.7660649887118578,0.029443275258428447,1.4696986641767034,-0.3921566743236859,1.5803072864449217,0.945629866615138,-0.6618539774421378,-0.8730819852825701,-0.05967299816439784,-0.7080521444171142,-0.42135580564181924,0.1407123407392374,0.9730507287579457,-1.1292810256220094,1.0237040136195625,-0.48385642632129916,-0.6202009596447924,-0.6971468511709341,0.40813711641028566,-1.1036005297487974,1.2395399540489394,-0.6172482261152936,0.2274106161694082,-0.6182029249914573,0.45532310289829764,0.27437919571670266,-0.997606937428797,-0.12998473040681957,1.3301513324436354,0.8521020149454555,0.6440932038987564,-0.5257080553376239,0.3474599696328396,-0.046642699858536196,0.2168442736780217,0.3583563158621619,0.5839709509216312,1.3409010640022985,0.080951271138481,-0.35121541891385305,-1.5543296532521895,-0.52324449274906,-1.045288945392757,-1.627632139290857,-0.26347692361672653,0.6914421216999889,-0.8781507939348963,-0.4533758179386118,1.1199274133592443,0.04171091368572804,0.33278129647864474,0.33318611796032627,-1.1136024563033926,-0.609017510936317,-1.0821472135362904,-1.053723458626611,0.748927879822888,-0.07870529837529934,0.5901589861106347,0.897678916163279,0.12181317378349153,0.9886155974862892,0.43093436318138556,-1.1176099627745504,1.6958210990727487,-1.17914588656688,-0.29917101700441023,-1.8617717845324468,-0.0481616013808116,0.3160980937907899,0.37573352593188214,-1.8213858627582993,-0.488180838276799,-0.4040714667444957,-0.3184460538774559,2.606412162899793,-0.12098978055631032,0.4140773911940039,-0.19748464248300285,-0.24868929150219304,-0.9103487609462045,-0.21687616049380554,1.0216367113188647,-0.029558694889820162,-1.083106569042045,0.11885027004856495,0.0828527771328845,-1.4347094045380036,-0.09811400346501771,-2.1039936287945924,-1.9136914848996525,-0.6740858999858319,-0.4588956655834925,0.26566882719369356,0.4567513093164353,0.2865664478182205,0.5580219943065048,0.7641700426070913,-0.5260009832776391,-1.4554071784898457,-0.5945952664799262,-1.8674875492628054,1.069756109500256,-0.8234031709328596,-0.13681275899497505,0.0652825715099641,-0.9913594676126551,0.2211735738483657,-1.198407725823689,-0.6828156075920299,1.12265038991826,-0.056898875138103,0.14677568700090837,-1.1926433965508894,-0.5297134497947262,0.783298489829532,-1.0437658033243256,-0.7287146779435163,0.6318398044713107,2.7659440577252887,-1.3487052906999084,0.007565612050300794,3.713866695833787,-1.5162447812947968,-0.3949652796024665,-2.001404719527618,-0.5972018935999016,1.2177198122328134,-0.12114762374760109,-0.12443791746025763,1.1497017955614104,1.5531583436007934,0.9312518951162178,-2.3830910902120683,1.165149699467292,-1.0305169833139642,-0.5517977426472808,0.21641375648721134,0.43662485113890165,-1.072703187647712,-0.16961513119556526,-0.06506792561662707,-0.2290021268901755,-0.17899037766756576,-1.525400506316278,0.4453581471326265,-0.5055729561639521,0.6821879797663498,0.11717244698563661,-1.5712265218777703,0.2634887065537553,-0.4715359494478867,-0.8592147390593214,-0.040423746233732974,0.3195588036771284,-0.34433859751995405,1.2325176762781695,-0.10724326017347308,-0.4133053418074535,1.1986353352246373,-0.3764147788728297,-0.8899400221883143,-0.3034010857550368,-0.9292735641225327,-0.6556001275526392,-0.7844821388146525,1.0884643214357177,1.7207995976371306,-0.5719005919743115,0.5800727511000152,0.5338358486767432,0.9028912961038396,-0.30783506392940635,-0.3905981084177036,-1.0965908766373802,-0.8550541470752925,0.03230681076984759,-1.0310868091377254,0.49198414897145454,0.43519690507950226,0.699045851147815,-0.3716534922815342,-0.19056317707210477,1.307733774963596,2.311873432887508,0.14237109261145772,0.9422188336445724,0.07351057257906031,-0.11106159068768073,0.3965995517371617,1.1280714890584758,0.41092501347866706,0.10258072056119623,-0.4202898698929681,-0.06928979389352079,0.25538939044486014,-0.5604812926503921,0.047529101549667906,0.44605501022128996,-0.6847655756034651,1.0950107138169982,-0.2078751903360809,-0.9001877689823574,1.1503977181136125,-1.4757621931914449,0.8289298156507359,-0.6774271176788675,-0.08682243886127482,1.3680026094748168,-1.6674169089501465,-0.14642147056782756,1.3168302727220103,-0.7338084060969584,0.585415001003374,0.017646681995947367,-0.6410120936153216,-1.6432452075694224,-0.9541107567171981,-0.4505642654061503,0.8257638177978329,0.7144546159926344,-0.347170798563571,-0.7424239367404746,-1.199027543779356,1.7225446301339515,0.39691626191624596,0.8804414777454109,-1.4013000067469872,1.406258770980473,-1.062270683808721,0.8149838212487027,-0.5863522027505926,-0.3557008327216472,0.8646946900612874,-1.9193498307895676,2.385433093489853,-1.650723258189438,-0.03218390300527163,0.5243219916811427,-0.20432404215975772,-0.3077168232761098,1.3667590612318596,-0.1322758202931512,-0.6682947564289248,-0.13486826588472034,-1.2854526513355247,0.2700368792152664,-1.1321515196459182,0.7674499944483572,-0.753153326864533,1.116479547817214,-0.8693876319309827,-0.6443456932251425,-1.3021964117753033,-0.8428820495470333,-0.1959660224046438,-1.757971785968187,-0.8672077068262694,0.12280425468400268,-2.516651735144584,-1.0282848264934645,0.09486863721642157,-0.4559290583053768,-1.7109628883060939,-1.3664402855459847,2.088238523320592,-0.1517062893147298,1.790866872782926,-0.8412820756600252,1.0507054971622483,2.1577301852625386,0.41651701956312454,-1.1412818879782405,-0.3984450821395463,2.6319115509950275,1.509423294528532,1.0865003866769056,0.04978991444435065,0.7727849149036393,0.42310141861441675,0.004338481423117863,2.822441288991987,0.5923218448217202,-0.4272692305085535,0.6200366614386977,-0.6137094702718711,0.5111569058117258,-0.3729332073936161,-0.8508226892332666,-0.22478018464834726,-0.1689807297327218,1.524894995530584,0.0003586045150511949,0.1892112621363778,0.03120656547520161,0.5064340890863613,0.41140015919558176,-0.554337273287953,-0.05025561208449513,0.7005001231348379,0.25189317870738476,0.23457549377746684,-0.0034515437687589537,0.06088231509600489,0.6880827810637161,-0.48187407100248286,0.25552546281978594,0.9702333441968878,-0.30501584093413725,0.26692160323782477,-1.9301974321100617,0.689025148825662,1.152207760908297,-0.10470479952051222,-0.7772876112287602,0.2080579312228193,-0.3354961246070527,1.9209372640494211,-0.6286288406110306,0.598673070747952,-0.33918645047029355,1.145164785512195],[-0.2729757573989318,-0.021331031241587625,0.3964253228949816,-1.5836593715497655,-0.2890042633235874,0.7064095758649602,0.40304305124083756,-0.4425409497838321,-0.5352087420418581,-0.36604308903526717,1.8218064567178582,2.447007471185053,0.05322603622655326,-0.06438241960039709,-0.09797111527082245,0.3590860072192986,-0.6824096710995196,1.519709052023651,-0.18557159637347878,0.29462144932603035,0.2552896604326311,-1.9757722516862184,-0.9379399023238306,0.9359153733625425,-0.2738196816849824,0.7564381672620892,-0.26519661172663994,0.6647145090534564,0.8908627994370829,-0.3360974886497618,-0.25386896702306794,0.9313236285678634,-1.013076755818286,0.007085229666094753,1.0138844184292817,0.9431879850268332,-2.3432097299964303,-1.0869635752265376,0.13544031567368392,-1.2283002183762042,-0.021511659173475983,1.2993528511662196,1.269889156107796,0.8755131179331145,-1.1015556005323424,-0.38012365665125225,0.43112663195369366,-2.3214808625452945,-0.362131269803074,-1.318990824312868,0.7855597682162065,-1.864763162427626,-1.1823651437166696,0.06932116766175866,-0.21551786661244865,1.3052809815447979,-0.5311425080702911,-1.0657963507702237,2.6269415487061787,-0.44799224187328246,1.0038720881961438,-0.16679232047109294,-2.6065186905544344,-0.26846181195019325,-2.0002908031487716,1.4935797339236083,3.0121752734998504,-0.7573047249757271,-0.9824242256857338,-0.34051597060564753,-0.5315106150136345,-0.7636157795132231,1.9181165773944087,-1.649840038209834,-0.6555892726561018,0.3820746762283196,0.0024560299560485686,-0.28316246594010414,0.48655710106480154,1.136488673843046,-0.5538980629311588,-0.5899222445499951,-2.613904352481287,-0.9168060875201115,1.0072654189327912,-0.3302919827839621,-0.8939599578801385,0.06690881911377805,-0.3600033753328849,0.558246984681489,0.08376802269713357,0.3120198200848242,0.3169621833518556,1.5523172238236347,0.1945878488236207,1.0042944112408798,1.0417398919284564,-1.8169218491971806,0.7229410931812899,0.6312235819407249,1.4051607951296843,-1.340028421326293,-0.4094418207943083,-0.27748348896250896,-1.0958635751939207,0.6797485828730481,-1.6017733084456398,-2.11390422897169,-1.3933310610430818,0.5624094837181334,2.5324105298528203,-0.8463791867068403,0.5760208849242534,-1.4345374914792397,-1.5254075316400368,0.11428036852156978,0.2486695038002496,1.5410887923922618,0.12919137903197844,-0.7372571216671548,0.4366424668424033,-2.4160834877092414,-2.3725455088084573,0.5428678030524816,-0.8905192716327561,0.09033634262371273,0.08348926339732407,0.39481591229333046,0.9630675103172177,-0.7698726971628549,-0.3669072099493094,0.8590119515226945,0.6522917219404949,-0.7160076080068054,0.7288020950330719,1.7057863159730287,-1.3332355715871578,-0.9805572501699708,-0.2156838238344924,1.6484027513630755,-0.7456989963396873,0.9753648704359239,-0.32772014134756045,-0.222601001477499,0.5553304944129287,-0.3677381490683881,-0.5672950989220755,-1.2460857776446674,-1.5366130765005408,0.0564475465380919,0.5146514929938656,-0.9452192169132999,0.37351976803669096,0.470047407685881,-0.23974347772324403,1.3612567513430978,-0.3575318079503018,0.48846259042714185,0.6965255347596869,0.47854841812840765,-0.29416504622811757,0.022609831230218664,-0.23523873997875314,-0.9173195564583981,-0.4696143626741318,-0.2480104033915862,1.924149245916855,0.9311937564723309,-1.0740433798674214,0.35769904086615484,0.11795615137765743,1.0879118535464491,-0.9089105591135739,-0.0000773296940389509,0.2958442687346678,-1.7452515597935252,0.7829917140999291,-0.3930217867763317,1.6426198771988898,-0.9498400716545398,-0.04815881856533779,0.1160380279813295,0.1228194647329812,-0.21235086100845352,0.8493176755849305,-0.2795393711048835,0.704052080242605,0.6788167685711048,0.4883804381929109,0.026115611582718985,-1.851488964051368,-1.082360303882164,2.0244361851850976,1.057817160262308,1.6595203991400362,2.0595856569149413,-0.3126444172793052,-0.0019238489489711438,-0.6410545155444713,0.2527018210815245,-0.864835662605177,0.6847693143896962,1.1894818784993888,-0.15454969195698076,0.42211376787727556,1.0439654901755488,-0.35844314378603664,1.0414812537511755,0.8960713917319434,-0.031367748937809074,1.6965282173088811,0.4333765210628029,-0.011650342017165102,-0.8906461489213623,-1.058261219122462,-1.0213403025646128,-0.6488152258403075,-0.9961110345988692,-0.1600110657258819,0.5358125269686388,-2.429109024426747,1.495617263400644,0.5474137885931021,0.6757613263278442,-1.0823553862689612,1.316083156389905,0.09391851177528622,0.05555189094925075,-0.5250340831331952,0.25188316714384656,-0.3818319830799833,0.8731257146098174,1.1406679024759432,1.6356051474579547,2.1251325317422394,-0.5608430192200207,-0.40205920303852466,-1.5933500461101873,-0.5079890841030155,-1.0011656211531714,0.7389748681414561,-1.3128331546390246,1.4406951255254155,-1.0825381613592244,-0.6247423336592988,1.5738839753989247,0.45403302183051636,0.15514259508233233,0.16580838284016,0.7885452406235619,-0.6116757733277592,0.3734163736965082,0.39655169759966924,-0.38688803126168814,-3.115389278531999,-0.1890005477005862,0.2290880439047912,0.48555767061303967,-1.6855180935673384,0.19587652979516662,-0.664566170828552,-1.1802380607646044,1.5549668682960445,-0.08080149862903237,-1.262140438083526,0.08625448346123449,0.2159640334341001,0.42754924849401515,-0.1783486548610545,-1.4173099977437889,0.5174266836942143,0.4879589976822143,0.741722177370677,-0.13304266327417694,1.0669706721965582,1.034354316711306,0.7472629336422757,-3.014038216970026,-0.45240919690505166,-1.3923898885155965,-0.697314607924098,0.0469063876961465,-0.020589373964139047,0.8318614081028892,-0.06271164128704958,1.0968443704073592,1.1984773901086008,1.0849378762155395,0.6044192338370691,-0.5608794127083236,-1.190777342836916,0.10992199374204506,1.3634960789562514,0.47478447999081314,-1.190971387207407,1.4741451058168058,0.7408571104497225,-0.0969389545107626,0.7244646790323857,-0.17985341479751812,-0.23578575527406123,1.0641700143968957,0.3074468003788044,0.7200070429195425,-0.6774463079538948,-1.0904138364705334,-0.34813426896751015,0.7252081649082661,-0.24689622424658683,-1.9490672629883352,0.102289524865064,0.1338279716290718,-0.2654395952232852,0.9455837472170132,1.3644208986551347,-1.265019110754052,0.3903826980265431,-1.208829236749403,-0.49199871520324245,-0.2225859977528978,0.34940251627522817,0.8718698451401542,0.2635170530714238,0.8460789431219022,1.445178503899117,0.43863824878443364,-0.4989227031861711,0.5980894384165732,1.4342705530738162,-0.07839516563509515,-1.4484971652569243,-0.9924945801687627,0.12010553583032825,1.0594131311990616,-1.3647161094640223,-1.4940503819813586,2.3781224944194217,0.004402119448400352,0.5718502103550197,-0.48557254593719673,-0.5260841216255008,-0.6367370661451858,0.4529252977550627,