{"snapshots":{"0":{"biases":[[[1.190320414300804],[-0.46567916510091945],[0.6415259635028178],[0.0747754407297608],[0.4099227202934858],[1.2075289212853104],[0.5702363077484692],[0.3300743151524155],[-0.049449881585473206],[-1.754142087800104],[-0.16601779765782954],[-0.12441204576106203],[-0.012350251579042817],[2.19782753343538],[2.2171212564546523],[0.7056740781179881],[-0.3384105192585124],[1.0978405405961502],[0.5562184836720558],[-0.5808531088359107]],[[-1.754778704743313],[-0.24221801131228132],[-0.14711132625870976],[1.2975644261530062],[0.1701742054365894],[-1.292790439769169],[0.00006919199659482863],[0.10371590292026726],[2.159863276101209],[-0.25066045130594017]]],"weights":[[[-1.1060639077284864,1.1685085871325267,-0.1757218804671621,-1.9489725375631106,0.7565672022640855,-0.08617729150628449,-0.002567098221294048,-0.904577223337333,1.175819949154155,2.03574382034767,0.28228283401665527,0.8382563133202215,0.3498802148635609,-0.3932689144979297,-0.2334964080797516,-1.8497307369101723,-0.8358944514257132,-0.6405917398529645,-0.7698012423984266,-0.5612903698151689,0.5557362696930017,0.45625633294078627,-1.486360505620564,0.047542040506166304,1.1600090299223376,-1.171749135508366,-1.5154262019869404,-0.6562524103528149,-0.2215086831687392,-0.22760765117764145,-1.0552782985471478,0.4199201962273559,-0.4459409543369184,-0.4639305765063097,1.194891256957706,-0.48064405297198737,1.0851477992723286,-0.40428893821289585,-0.4609580944984484,-0.5858031838662439,-1.2588879282202508,0.06936392838750711,-1.093352968551198,0.6379270947475476,-0.22034890487161074,0.8148898432309618,-1.8247573303162945,1.7517270111534642,0.5052986792347436,-0.33089220527382757,-0.15208410993302615,-0.3881666956605627,-0.7856611690574601,0.37549414801239195,-0.6719558976327498,0.4291396241591271,-1.04803294901813,0.39678126619570653,1.8735350373511699,0.4024206654038228,0.4606355137114985,0.00026041200584712125,-0.6380430149374067,1.0084928906205652,-0.20346495859802322,-0.503944686822773,-0.003837654421266028,-0.2308368112772235,0.6725519506965693,1.2904630273586524,0.01964160244819274,-0.8495630097405803,-0.4049848110279558,-2.3112374536976446,-1.0200951688184614,-0.6679767796893177,-1.5178195829034962,1.5970253160607057,0.16892779139029512,-0.7014685132964658,-1.2885635754742728,0.11470083057840579,0.5024528532966865,1.6263657794133606,-0.41531925232926525,0.5101286867360774,-0.6684377563116642,0.215087322048538,-0.7748039358454326,0.37394514744932644,-1.8685722462110617,0.4532576621155095,-1.9128790637078328,0.45472066022127167,-1.4254495563695557,0.5959578483640363,2.539620725643195,-0.015558761495824922,0.617601637595478,0.3448209152109793,0.5896205180358033,0.2027221685652672,1.0541401630608769,0.5960906325183973,-0.14893155335966815,1.379270245452725,1.0528183371291195,0.2457909207781968,-1.6668437655326458,-1.8921032522726478,1.114211064110293,0.1359547013787545,-0.2977867033961602,0.19254759087825266,-0.7218488254382459,0.4112993773105014,0.46665582790577914,-1.0548342917351747,-0.07438009522611934,1.4835078197715434,-2.0822511368485537,0.48479247026031114,0.707329659025322,-0.4803051149783221,0.4134366492877419,-1.2332196011855416,-0.46129334504455644,-1.918164669285381,-1.621931825073701,-2.198174680946945,-0.45195062259803953,0.2745721289423588,-0.8492886087764755,-2.4123408797287573,0.2454813393158017,1.3618977774010887,0.7263910386449749,-1.0262115471252664,0.15871632895127044,-0.046019192085363134,0.6310775804056317,-1.3752013279722106,-0.165681914263022,0.6858742139216636,-0.06564968745747242,0.9033317587579676,-0.9426133074831143,0.9139158054791666,0.02440792234758476,1.7583323192555274,0.6489229918386553,-0.8911814579888769,0.20988386579991106,0.08786117468201851,-0.10557064158135736,-1.0340661408807323,-0.5181211969415236,1.5284814028629576,0.8099164731751666,0.7670191543039999,0.3983875593138782,0.40149002526538075,0.11867629090738745,-1.6923925790820242,1.1798052422647058,0.1787896928903156,-0.43506935618682907,-1.024586677331793,1.2307472393500687,-1.6226815018205267,-0.05582625408326192,0.32851687816122066,-1.7044588739812472,0.08034288842743549,1.427528883721174,-0.9427564810184915,-1.405349190986085,1.2641917724759433,0.486017304483497,1.2818641269014845,-1.1108631472806236,-0.5195619409899642,1.7743221139809924,-1.0679906470778435,0.3260067571163569,0.20618885301066744,-1.022476961991986,-0.27233779852396045,-1.2947208753390629,0.09501018661832426,1.0702809883009914,-0.5729433832541454,0.7833126353381156,0.7998803312513358,-0.5218733359645519,-0.747413128495157,-0.45262424200071977,-0.3099973650424233,0.5788743609601018,0.09118784722069509,1.2813197791632935,2.538084856157876,-0.13228896114173314,2.591359944708992,0.1604548435289058,0.9480175594929481,-0.3360152095525303,-1.16665871627641,-1.1309818860575644,2.6745393943481433,1.8687793269249733,0.18026370785635895,0.258536625331038,-0.625286702090934,-0.07513817984533859,-0.06690699643286838,0.47093300118798637,0.416439249121619,-0.8356246270097993,-0.2886075282859448,-1.70148220185966,0.5408753721611472,-0.035437672198324374,-0.21467020426150038,1.0179015832328098,-0.05110769352420065,-2.382875189580481,-0.6811970426903384,-1.1931740530832364,-1.5593783892524589,-0.1815666229042641,-0.05987768498771933,-0.7674348339362279,-0.14912250151946221,-0.186024562143371,1.1045225705221642,-1.1595111403191563,-2.0011149538649335,-1.6157072976671196,1.131219424380068,0.013531479807413642,0.8538749175424704,0.0850764301408028,0.3059604523711749,-0.7641977658585106,1.2279559341983575,1.4940745692381017,0.48386030981818956,-1.0851568891466037,-1.1435575263364268,1.1801951045800958,0.9993438410822358,0.5350110921997754,0.23383563886196596,-0.6449036172607839,1.515991798521051,1.2276154719721262,-0.2116245041724017,-1.865242549263391,-0.7056886516672728,0.31810983932794074,-1.387296649485651,0.14181237452152795,0.2746849437854584,-0.019181012126881874,0.3215183017314576,0.3643525699917308,1.0187513302774922,1.2414341218354341,-0.940837025446362,-2.047254774888808,-1.5194632332256588,-0.7309359185135312,-0.7202665937136438,0.5700493438002019,0.467958269850184,1.1892860700196306,-0.7407533038312062,0.2986455481823804,1.0315626435227268,-0.3145332088886921,1.3212720931381043,1.886893580504813,-0.6658816741497797,3.571182209505101,0.17727803344013204,-0.09659360111062115,-0.218668709599382,1.9464538878176907,0.4254731869231423,0.29291653613760515,-1.3805891510974149,-0.1547613281525746,0.3185215335349979,-1.1927614827155402,-0.6147710939041487,-0.6984284448809019,-0.5546238466719491,1.3333804378007876,-0.46128118539373925,-0.14207360232081134,0.5573863609475792,-0.40526606468037857,-0.024926431494480955,1.5362663063101627,-0.4088404038065492,-0.2524827525095733,1.0574594628095915,-1.9623319503870684,0.2703658469547387,-0.79014392780618,-0.5723447536813119,-0.0149561878636256,0.8470034905006152,-1.9257934414111089,0.9758981011032398,2.5079279182582965,0.7865772945127372,0.3719501650808342,-0.7441373025635435,-0.12314485661476512,1.6143222816589662,1.5980977506579743,0.35698564361002727,-0.03758502996543994,0.7989043377814534,-1.2751987986086732,-0.5519047377231026,-0.8997929699779311,0.1973607445640731,-0.4027436019961511,-0.3274941990870924,-0.47101122407711626,-1.724964289718161,0.33076295300261055,-0.976867511427905,-0.8402582922129084,-0.5033125279309973,-0.5412253108916663,-0.9161926352122917,0.743668553110762,-1.1512690986251013,-0.05684971191575804,0.43618458476817323,-0.5167875295900387,0.44001728904233034,0.1937917830080232,1.4335010050980412,1.2823640558137328,-0.7122378671841334,-0.31787916616123235,-0.22224118146406327,-0.7751190233883216,-0.29688034263882773,1.442173385782795,-0.7088460813314897,1.2691972196947043,-0.24542974679341797,-1.1577704313217096,0.7882635726842185,0.09484253026441539,0.24499531879904693,-1.455008835173593,0.8934101529419538,0.6930824249350868,-0.49222302014933966,-2.13119118505607,0.4056916631712508,0.13660810068528662,0.18801999175189266,0.2902490797005453,1.0407125194361504,0.8190427837069161,0.8340123442626599,0.375081728420117,0.0007081626417565253,0.014194309957581967,1.6433799429231613,1.076642717107253,0.6065758379403957,0.6916787279591415,0.9127668184533214,0.008141286203927412,-0.8024086225117092,0.7433059449163132,0.7056645582581348,-0.26243964993915037,1.9947982611375756,0.9012172166707365,1.0565223726681663,-0.06828233087010348,-0.033881523558627606,0.1341155510062008,0.255095814599582,-0.05450351551761842,-0.32498866165586704,-1.1957735030761172,0.29741137889075403,-0.9139622387162611,1.8499670103039503,0.9931397222653399,-0.2941133191275089,0.026928556071456677,-0.8504715559961618,-0.02442264323980002,1.7892607470912807,-0.9654140733597069,0.6020744992140221,-0.13504997391737922,0.5193777357512734,0.6269771612222277,0.6676542848127659,-1.2512217459319408,1.5596392409044817,-0.952969470815991,0.25818251594264585,-0.10095573402433786,-0.7017589391404955,0.5875185961086211,-0.9062900913184448,-1.1430877019064951,-0.31827346010793534,-1.7412002462840201,0.35386843988298633,0.28350121070973505,2.153669248162272,-0.42210800413389854,1.795581420060014,1.13057585687401,0.19836257425020834,0.16355730111785993,0.23200401250450925,-0.2064450496605054,0.24251740610030467,0.042388048229609857,-0.8251372281348142,-0.43603041307999957,-1.4504267147988568,-0.1698225820938683,0.8151990203214536,1.2412710545112038,-0.35480437597912684,1.1370274501574085,-0.053020822317748975,-1.5559771168160583,-0.23518536924175784,0.29216759598485,1.1759137264771076,-1.4523664901163924,-0.5203692549074095,0.561314185680854,-0.05883467666798781,-1.7772968719309232,-0.006232513065966712,-0.027150281316803145,-1.388873205949788,-0.7480113086806058,-0.6017652032273559,-0.8221595346207113,0.13914548151981998,-0.8528403528214397,-0.5737183333949355,-0.19841210903052914,-0.08551397662698274,-0.718602610586896,-1.00364393051606,0.5932714854796548,-0.3803302785809053,-0.24431835310901864,-1.1813722940762093,-1.350585072789147,-0.38912785589095394,0.9946701867775344,-0.8851389760944395,1.3265605397170679,-0.9626864288347023,1.4554131808023718,-1.2556170558422812,0.7760753465986254,0.01246847788167553,1.2666121627209344,-1.6099959854685053,-0.5931650813264941,-1.1345399109337122,0.4858781995170347,-0.892154657942419,0.1536063533134375,1.3605159812259076,-0.26371434176478403,1.6436431278211205,-0.4420260959343005,-0.8990142618447785,-0.947683014832593,0.1831202762095789,-0.2909728902288556,0.16863772377484404,-0.7854497585898559,0.5484171130190938,-0.1503367218651885,-0.19487772121259067,-0.22283647431509146,1.64453825324186,-1.4988077475805477,0.6873574964177294,-1.0026996074836907,-1.9052770998368036,-1.0969054318003455,-1.0002444887184792,1.724788514403551,-0.8490930639493884,0.12319456925930904,-0.387605093359037,0.39185263275154497,1.2106852953691827,2.6703720715054478,-0.06092589736021649,-0.010712201808352096,1.0375445837957686,-0.5503091031437314,-1.3536509055671486,0.8054809863098021,-0.4179119752120682,1.0675311533412382,1.006390529771823,0.1621389235802625,-1.2566890440326552,-0.8013298099408098,0.3028174461960777,-2.5224796517869335,-0.9409389819547285,-0.36456069296527766,1.0201640989784009,3.5093040858853226,-0.4949793818486803,-1.027649798008517,1.6358938855521983,1.5862128962059188,0.6291404522402444,1.5632325463179952,0.6294813437482532,1.6391165413807864,-1.837923131721699,0.6486598972082754,-0.954207877239401,-0.1154205701908938,-0.18648155099522618,2.025398164582343,-1.9979786112522708,-1.3276729104210576,0.6974363974413428,-0.06130419582519297,0.8567029300956347,0.03533398568663752,1.5499793789071523,0.24182882985952647,-0.3489233256947945,-0.7487238701822463,-0.1538490519071313,0.15330489828430724,-1.1108527285168934,0.14774525311678138,-1.5119056765560914,0.9323811039405334,0.44342812891419736,-0.23904336387245367,-0.11459474542988508,0.30822415854039165,0.690940484075568,-1.682302641922834,0.8689674116734981,-1.2010343152892031,0.5096224338354353,0.34072895988984536,-0.31190449050042196,-0.9723080337835583,1.2635234125729857,-0.714434229392154,1.05535413308574,0.8335020008944138,0.17824385963260553,-1.7241970842927197,0.039814152471022324,0.4128286647789868,0.3825750413639077,-0.3577319547992382,-0.6566675906970164,0.20088162697078205,0.8408722915224217,-0.08506158529148677,-1.3018925585694179,-1.9562030880282903,-0.5441647188219454,-0.7128479109689547,0.46944446194533496,0.1588944858660766,-1.0225270591501652,-0.5214684054472207,-0.4294334859080731,-0.5747234858035256,-1.3950305612823364,0.7206010626670121,-0.39939001975280736,0.7860376348330351,-0.1252510642652249,1.1972319015578377,-0.2989527315655065,-0.05181698415284181,-0.4814266861741073,1.5561679097116812,-1.2819624748427274,-0.2181192363717897,-0.35862002709676505,1.3760074262565372,0.9027704669818105,0.5204576556434056,1.834288979523393,0.10666804768079202,-0.26049405713951085,-1.3890241537625512,-0.09403281440035341,-0.024662330653013823,-0.2673906900470182,-0.1327220113926638,-1.8024883848578919,0.7487391617507173,0.2383399134727795,-0.4976241149710039,1.473127270495308,2.1028746361042336,0.8174827793474219,0.25874427654005583,1.0124451859767194,0.027453368271435845,0.7657450286215991,-1.2188190213125392,1.1562983426382885,0.6648388499180876,0.677107577011314,-0.47570312760048783,-0.30592168664498226,0.1429361018949617,0.7326018375784196,0.2713997614092015,0.821392337787355,-1.2174578401154286,0.8605112982471428,1.4131218697589385,1.2591351034198566,-0.313400965457983,0.5129582570113108,0.6848686785234238,1.1010343073161548,0.3297351133650587,-0.16966604417169923,1.795297192103494,0.9128782097440489,-1.2034848729970469,-0.6892257904504313,0.719637198292107,0.5062538804534318,-0.9821421196600878,1.9523472183470347,-0.4009742057242488,0.2967568524174925,-0.7141232580862361,1.1482001322719688,0.09867656760184744,1.0695646331693922,1.981012239123081,1.8567814439133907,-0.5164453328517239,-0.7344992053429785,-0.3145637145909933,-1.6965701883500701,-0.380133580230271,0.4422855611318203,-1.58977639242024,0.8327760159707733,0.6095780411243041,0.6791452548822118,-0.6668158627906398,0.09900563733889167,2.2506528910377335,-0.18883061917322794,-2.2362630294588457,-1.5749289854555604,-0.8488250254073777,-0.03848173548800079,-0.9860380225638631,-0.4166391611021332,2.189440669462961,0.1855469526827428,0.5683959666499868,-0.9067321020899484,-2.587006073789167,-2.0502590860727987,0.41284032500451,-1.469242593088628,1.3503073489475106,0.419404747080194,-0.5451252683973808,0.8895389310103355,-0.015402954576924371,0.060069703624372285,-0.03427564578366786,0.9115860123196788,0.16954647952110116,0.9717778152338422,-0.864817684702378,-0.5603264733293403,0.4814930609841658,-0.3632246874461468,0.5372027080044541,0.22640771078571317,-0.6549272292362096,2.3129667107001737,0.5573226001759951,-1.3231497015351588,1.7344377075325688,-1.2649104816221863,-0.5708296547505806,-1.570760020143624,-2.0475052565647403,-0.4565151637258381,0.7844753379048903,0.6498615882728768,0.36531271238184676,0.7185741386086708,-1.0598076426757583,1.1701093690382829,1.130738913390912,0.7453620855764453,0.7640394124341712,0.611296359760911,-0.17438772729831734,-0.18815979120532775,1.068160662971331,0.81145860060423,1.082778431605735,-1.2059684808961484,1.1322454816932892,-1.5391587105060778,0.1958819294305595,1.4745693300718408,0.05638430796981084,-0.30291138748503554,1.0153145800674115,-0.09135680605303158,1.5832726193064288,0.9812344447553165,0.0483063800603905,-0.7207947987224099,-0.38110265355518114,1.3581195644713155,-1.1343265753739489,-0.26089216042203117,2.486292418153263,0.66540898892581,-0.0868380955826067,-1.455283483539296,-0.48475222328402456,0.5288305462818054,-1.5063286107721443,0.46967791868255626,0.29703723401295123,-1.283494043757043,0.7316758361386639,0.5184935614466474,-0.17259201238650956,-0.17218592283455555,1.2066264243676244,0.022876569871435343,-0.5504724013605926,-1.6789041393692488,1.5923779130917919,-0.1283250228813375,0.06099690184803343,-1.0001033261718761,0.9266049474663987,1.6943394591926104,-0.016040428011438894,-0.06248767854838411,-0.6671685712192927,-0.8771187686131835],[0.13337489317482024,-1.1122597732820287,0.2177553666489381,1.4641927011885747,0.6826980468676144,-0.5463095842822119,-0.19256031204910687,1.5197352253111287,-0.1984223405646875,1.0729447972017163,0.27238239101949646,-1.5972563848697672,-0.10139567971363285,-0.03676275422518468,-2.368487678685555,0.10307436443535552,-0.5884332600155527,-0.35430079205915205,1.1202398873193724,0.6576685010270924,-1.1121949099671766,-0.5856613071382294,-1.4855241946789368,-0.07199114557426022,0.3853308795862887,-1.654291684190017,0.12902282565978568,0.24506117862241716,1.0464314485908692,1.682386796407736,-0.056032367340854164,0.9770701512598338,1.322991190948326,-0.18004987857307025,0.8148111880953266,-1.3043346089076633,-0.4466370947572984,0.6091385449868284,0.10213693880523887,1.3442602875564502,0.17897401324656745,-0.7529184421047022,-1.1723000139848876,1.150272902397536,0.5048233051056413,0.697976883899513,0.48942918582553174,0.3129519938949209,0.44445118102166564,-0.7005214641006902,-0.7072978747919527,0.281308009335572,-1.014578620129222,-0.32733303214577064,0.16139098879558308,-0.7846646245013712,1.5255958755980201,-0.3302332876303511,0.21667449746100106,0.3569864695337854,0.25881548009702765,0.015747495689258217,-0.8387022245960554,-1.6157679240591583,0.8835354366359279,0.3913101174318285,0.1442148943314773,-0.6037953561367063,0.5549963240724871,0.18687076826635143,0.04494130665160664,0.4687164546718397,0.44763336249806834,-0.13389242837502566,0.01932179876292597,1.8871481773184116,0.42975497837733817,-1.2454268619814424,-1.9849512461530805,-0.10528861317995711,-0.49275502441940977,-0.24872989009655705,0.35266906573064283,-1.082636421042875,-0.05902688441353462,0.10474362090950058,-0.061383367999768026,0.8266462836298172,-1.719552851797906,0.8418366089367768,-1.5633407429266934,-0.8887614502747028,0.5529953206976681,0.43439182750731004,0.4798905972521512,-0.7343641782589831,-0.762185637227522,-1.135021725634458,0.1823279214094222,0.5773905732985629,0.43370748530483544,-0.6704668785693669,0.40853514511394395,0.19569740586515944,-0.03023434138605097,-0.8682899993750706,-0.1360652095691493,-0.9796732177655967,-0.6142535661233988,0.08781248892873735,0.28412380273504867,1.9522452231616574,1.239085269959121,1.0834202990679955,-1.4737811608879654,-1.3248792646946685,-1.4508204640492541,0.36084111194640633,-2.239228850979301,-1.1784376126519083,-0.9192512593128592,0.29118924416307507,-0.35282871236681357,-2.914815277041139,0.6595362026563156,0.0071790057908110464,-0.16503512285286118,-0.047364094172866085,0.29563493579232714,-0.07429710522530913,-0.17534944818004253,-0.3122531467675641,0.26680445655864277,0.9028931457850851,-0.26781920419728344,0.4960167661506024,0.6372014111071119,0.993732575694854,-0.4545342820447479,1.511181894959793,-0.9768677910629939,-0.8149648805432104,0.10732605777659947,1.594209128803809,-0.08798664133598388,0.07468232326614897,-0.7332276928418829,1.1635513678365152,-1.721189926736402,0.30092793188331457,0.3577816925889478,0.9868629120727015,2.63764634661799,0.2959367373964907,1.9829744054804026,-0.6657303246954194,-0.5498585462768858,-0.4330545608653839,0.5878226811114715,1.3631308918120852,1.4925564222498895,0.21535988429462563,-0.5855034638325732,0.8106065976495127,0.901184334414786,-1.1848433334273463,0.3446912643841984,0.5283814765580999,-0.07225014067244284,-0.8009216656414025,1.2734038930668734,-0.3861037869892414,1.239555064801074,0.38179476053940953,0.5240273067996657,0.5234183022267991,0.08346863500602872,-0.8828340863836208,0.014303163603194233,-0.5575700199557354,0.021140356430239097,0.8029616254768167,2.5811600441280294,-1.4565404188642683,-1.0156911430988058,0.33391748063032584,0.20904377135695343,-0.4945325762970819,1.1801622512635617,-0.3316850915879713,0.6212816880858296,1.263304603497995,-0.9487071713965726,-0.448765056145083,0.2543212466465515,0.3027734917921382,-0.042374771142407085,-1.9497745462056972,-0.16168406569801275,-1.0592902211285897,-0.6667952321259157,-0.01940205247070977,-0.880250882594701,-1.2558983256109277,1.6245730082457388,0.6477718390672896,-0.28668276048723956,-0.6676829323900314,0.38046869358634466,1.1764108912305586,-0.5201910574701986,-0.7168447937648316,-0.7791866027302308,-0.22953031064126636,0.7282622294211331,-0.5794020518957699,-0.7696437725768052,-0.013731283170496628,-0.5692083989423105,0.2531594556651903,0.11598716504322658,1.4107365579191506,-0.14004951624885914,-0.7041626499213027,-0.03163105376440265,0.058534595045074626,-1.6396789253706896,-0.8563916329225455,0.9559342977364172,-0.34727764759680096,-0.3755795869326153,0.5189292098276909,0.6002665387446159,1.3539254163837506,0.45309713893169595,-0.7896181335873323,-0.45870272839096854,-0.47618087052023667,-1.232711954901144,1.8898331578822865,1.0490698355630146,1.2912701539063225,0.5245529265752703,0.9400726469563186,-1.384418006962397,-1.2624100296994587,-1.5912986903941866,0.43348668569651877,-0.3180799929420882,-1.1098390742989717,2.3010984900838634,0.48523783062646614,0.9414319064490951,-0.7674243582592511,1.298491598608041,0.11251162405899699,0.6843396404304537,-0.22759482411300072,1.5841566256079687,0.9386742761388965,0.7170183215515485,0.2061316210662425,-0.9539938013770018,-1.2747971225256294,-0.195633533519213,1.9049834097577252,-0.10575019370111843,0.11781020594678238,0.2240580209371321,-0.6055050297587191,0.5928296802370725,-0.1357422643016953,0.7391648405592621,-0.6779665560121413,0.34051403446219636,-1.0176012737949087,-0.20643720361814627,-0.965304834039554,-0.1659039939470598,1.13531392174877,0.28176687494756725,1.1948116154494957,0.33565219997675133,0.08124827867510313,1.6363997983166434,-0.886115117402258,0.5280640360339117,0.6160193181872057,1.0499401741705952,0.7616463724656897,0.3076149735963737,-1.3360226201678667,0.8807676574351437,0.253312786139319,0.9640009999754052,0.29386241537856084,-0.43734653777658755,-1.2909397257216908,0.5136910837115832,0.8667609162736342,-0.17421295664049471,0.7064110348025308,0.9945656686647166,0.29806308235165996,1.5321824461412623,1.0693081539776084,1.0469019122277499,0.9800320005020702,0.04919579708500243,-0.4580711305233009,0.3803671272515151,1.0668015250918617,0.14634325513043991,-0.0738626473371387,-0.30220716795257563,-1.134185747529683,-0.7816809189967739,-0.2834200723883092,1.5023362106722258,-0.40010694001359226,-0.8840335132974152,0.6454606443629833,-1.2102016689762793,1.1707851750398663,-1.3484402611756094,-0.6281612786122056,1.9506606138282958,-0.04259918397673092,-0.9675568534476874,-0.054169685167407715,-0.21402222293287645,-0.770323586433505,0.5118927912557448,-0.7293887093488117,0.985919662913692,-1.8641388980664177,0.5585979009173271,0.36085352597734627,0.19274949445722758,0.23231376408902615,0.04407276964678283,1.0385313575087003,1.5486711307019576,-0.5505008344878531,-1.673369339878605,-0.7010065026939869,-0.6221043609334693,-0.15040048275173626,1.3657459502496148,1.0679931584023126,-0.29103804183880094,0.5639908670428999,1.7870802200773226,0.9968758772658303,1.928158406484252,-0.8096086378121032,-0.15538208411785254,-0.6039959409388513,-0.2876754332691628,0.2591974180279839,-0.27026168020730756,-1.10585485771257,-0.3838922163178678,-0.28157620798401933,0.2239498594517971,-0.5749359521888562,-0.21086604140410622,-0.9420566353083366,-0.1984868363108545,-0.1961347169461578,0.5733370451398219,-0.8234019100035473,1.5265781969372545,1.0126392275178824,1.0030492005496507,-2.760222043380523,-0.6300803925036369,0.22688661877611968,0.7212678309876822,-2.1568454513392816,1.7154239019161224,0.7963785491819549,-0.8232801284582262,-1.5605130670379501,0.13380251938211923,0.6538219456205455,-0.6514075521897745,0.6630866086084055,0.15088231935175966,0.6917315299541331,0.4411313524398983,-1.9815086689307364,-0.722760757846833,0.4611480134745459,0.8378597824439759,0.27139953176972326,-0.29506575271865837,0.9539692072065973,-0.9922415884484038,-0.05903319350904628,0.46591699493675154,1.510463099737215,0.5966493789677083,0.7293612027223539,0.8173434124263043,-1.3558854458853193,-0.8846685223364126,-0.8864313653109129,1.7342732104516283,-0.252289581978897,1.1135060248027455,0.8823339251010127,-0.6531591035607986,0.8727489613958582,-0.5156971384983092,-1.1453570632861112,0.10623939460523538,-0.970209557968895,0.275642758310417,-0.7484880151676192,-2.224561740039839,1.5785176729251493,0.6393260666012596,-0.07390601730200638,0.4215539816636145,1.2301055671729426,-0.14467119190747757,0.36402827314544745,-0.5793219749670417,-1.208594250777284,1.2457020346378223,-1.1016763839014403,0.08689719361549147,0.5123572266128966,1.1244042297796766,-0.361166372366505,1.0476634059607848,1.5993020495190238,-0.5577227451561274,-1.1883085754617357,-1.1345994935461627,-1.1305338121708566,-1.5307537328589365,0.5859257277809974,-1.5215610907533133,1.341057472744046,-0.9976797371586669,1.875887250525546,1.7259382388340054,-1.0674778142743309,-0.8690065557325143,1.0080372853670114,-1.1988628238368857,-0.10631567151255654,-0.12933219838055682,-0.6243763443151631,0.20016665572327572,0.8090539677212606,-1.1460118412827804,-0.6389819777308708,-1.0542595720403918,-0.5125069382409307,-0.06363676954399353,-0.16487086860223016,-1.6143473014402878,-0.18555231078113169,0.23358213110846493,0.011160157467500728,0.1880139106164744,3.281364306816402,1.5050007986094716,1.9404175323775634,-0.16745610385126927,-0.6901358640993339,-0.5846337078654056,-0.12878341940499027,0.7668610871448623,-1.4639720752447034,2.30091412180136,1.0144875323787266,-0.45300042015804204,-2.3929345961167523,-0.07990011230115567,0.19106695251155184,-1.5902299056962683,0.41103717311910015,-0.8263508327545284,0.7510816858577904,-0.3024440036872319,0.7220726209859181,0.13756996717225867,-0.13853821941260522,0.5203694748337192,0.34197745753834735,-0.13839279511949257,-2.0121239814835077,0.6214579710537126,0.33719852639238435,-0.1937168954505612,-0.6316653754690518,-0.3758700506443349,-1.0069579697345599,1.8070233446697497,-0.36743777447133674,-2.070008395001536,-0.5500287908185827,1.579102737352472,0.7502250224652474,0.25816065385875775,1.3284490976267715,-0.013630868088308216,-0.5690001373769995,0.16062239130309952,-0.6561822560351224,0.6440925131967832,-0.9634687839748036,-0.4754508847384603,0.3572643933439959,-0.5329436205924823,0.14287029624865194,-0.8039328402725029,-2.0065763074739835,-0.3056659506251117,-0.16782259490012807,-0.21761927141388385,1.7051520357190575,-0.9186932516104587,-0.33408776945774527,1.4641261719236274,-0.17970426157413427,-0.008819084101422504,1.370956863215087,0.5746314388887979,0.6115650290469121,-2.320046133076868,1.1113898451079574,0.11804286039490487,0.6673242828999592,-2.1860514889127067,-1.3724143792956898,0.3950110786283411,1.1755427466430388,0.8144232350275624,-0.7541339816282235,0.059637297999746076,-0.09535657649132688,0.9984044713673498,-0.2394900924313276,-0.07153154650606154,-1.394121980053441,0.537611789545184,0.2156480915572067,-1.5707926761890574,-0.06827032091825816,0.7102706291614235,-1.3179031891280628,-0.06585341698557856,-0.7919206026914147,0.5063384893133154,0.009503051716729096,0.6940072941364154,-0.8525643001722555,2.549476605990173,0.107232392042406,-0.34168039098469327,1.5911446508103957,-0.4677258181249493,-1.516400566127497,-2.3773808683659925,-0.5962788177383067,0.0020243523230631063,0.5027908682789752,1.341302618514384,-1.9687452753303896,-0.5907587614057203,1.20917715234202,1.6693691125810803,2.1957702521117746,-0.957375303774515,-0.533118765928504,-0.05085213525443418,-0.9664872362309906,-0.7929763852927922,1.1631022030517433,1.727353685630125,-0.8428575879034146,-1.612760715347715,-0.8827466383239871,0.6939258121563412,0.5508163557493579,-1.229113237147671,0.5947728618847438,-0.28006039983042275,-1.6831181596764022,-0.2997367289507059,-0.1283629897738874,-0.9507562785837186,-0.4314772677279754,-0.39263993012375425,-0.132975420917236,0.28081091555948423,-1.0587339760249421,-0.24927899243333845,-0.49676841301625335,-0.38546876830987403,1.3102146364762142,-0.457643495449132,-1.324583712574405,0.3759894999356999,-0.7175698683301948,-0.6839161617108563,-0.8235568957208863,-1.0685932758311485,-0.09129373347178742,-0.18560722981314703,-0.2602964319205209,-0.5312550398713441,-0.34008418187779765,1.372116252457046,0.03246757204009187,-1.4200132936778282,-1.4836827520636258,-0.0741943339689025,1.7355220343170925,1.3334963660910708,0.04478540244546703,0.8936621202294657,0.07876188198145251,-0.7983972269985697,-1.1356079887651118,0.9349850747570241,0.9784754154327223,-0.41687862927287367,1.0215742689347687,0.8706595931525234,-1.3373766445864999,-0.3197396162102237,-0.04394649998327541,-2.3554428800860236,1.1071347972796877,-0.43157210475785845,-0.09280426257942559,0.5666158997546635,0.909176538759781,0.43212605417155076,0.17546331970966017,-1.0832725688827287,-0.7664250030216123,-0.4682227889517352,-0.580854323058201,0.179240773209259,0.6697296256861749,-0.03460822659077059,-0.1668061287673804,0.8893299791872374,-1.6591214952253865,0.533719408615731,0.5291575164074199,1.018115969035279,1.4196166878418492,-0.34630263628912056,0.0013905886680954224,0.5788064476790578,0.14459321872578823,-0.14240672217900097,-1.7311565720118514,-0.2754828170573286,-0.8779378033829872,-0.779094216462097,1.5572833023814288,-0.8636123138506729,2.3841984863823336,-0.2141171920823173,-0.9968734799369678,-0.16575143208441775,-0.5832897341642324,0.2729835223847912,-0.048810222953170265,2.031911071835648,-0.4691742146619611,-1.6335934717485332,-0.09637466243159902,0.38405151175482294,-0.050015659136550726,0.8577849447664444,0.23159651180553179,-0.5627783867956186,0.25068653095675036,-0.3492503080302004,-0.19306792406517054,0.890970506087009,0.3781532557396178,0.569696251893387,-0.33237071837090465,0.004856477035517017,1.1361082865639227,0.14415144275626324,0.46389125981827417,1.0348694325733774,0.5080992294703244,-0.9672942133938075,0.5897310319268867,0.6129808239741688,-1.3959130459485027,-1.6281383006683652,2.098469412111547,-0.6749705756454547,-0.24868596308133273,0.09170870385399607,-1.4061881720062237,-1.5631285545637725,0.22699090119728255,-0.6956386129613172,0.5640041468068584,-0.11951495799488612,-0.6337088433423724,-0.5933917242816602,1.0804242869942895,-0.10439563513000459,1.2108245880689472,1.595532808583687,1.023366331054203,-2.498867124993103,-0.07880257553961204,-1.129753772330378,1.7519952020428615,-0.5630631136784633,0.6109114042546041,0.3895643563563474,0.2135213862333799,3.5713595013870876,-0.9581159970407517,-1.5577004499142926,1.4705675959684044,0.6936075054700032,0.4092830829137799,0.13383296946348883,0.5682289916576585,-0.8634029633381224,1.112011275650034,-0.2977293875890141,0.990452910797955,0.5902970372218467,1.7574001486345727,-0.4401042706647151,0.07739182036108484,-0.8612812380196324,0.007471671971903272,0.5753629078309915,-0.1104208377709744,0.3621650415435621,-0.995475939820008,1.7850523614917058,-0.5402347769720838,0.04389427789068759,1.6943069449009045,0.8276555994112147,0.4887489647059711,2.2488625703546714,0.14143449004647016,0.8455749692206279,-0.01594516585410386,-0.15303307444081324,0.03782443056587599,-0.14776291363179425,1.9691995925047758,-0.04189481496085361,0.0596719672691899,-1.461827538092431,-0.23200778059435442,0.9253419976020673,-1.0711505020472332,-0.18413590564784682,-0.31823143015115335,-1.1336109540486103,-1.612587925240014,0.49827279747227454,0.11803861861014356,-0.28401044426596833,1.319333163084954,0.4402499562979302,0.9959328928628287,-0.6559850029776974,-1.0205623476736139],[-0.837795102169446,-0.44956401353121955,2.1462835236712845,1.0532925097574664,0.13347559834893366,-1.7291098516480443,-0.9199673539053528,-0.8679862727709282,0.09766725511181712,-0.22345185431946757,-2.6820411352149973,-0.9080361737254401,0.0711078416514904,0.5806951766562303,-1.4840901907878914,0.8442964176359905,0.5980687725177868,1.1000218314662076,1.6444006543453096,1.4161706301591972,-1.9624066713151396,0.9029743331584347,-0.5138138425649398,-2.199592066387554,-1.0956317743039865,1.0415598922502047,-0.8612961404393128,-0.02788801039287475,-0.7553810526267815,2.643438937016382,0.13503721706850969,-0.6552224390234509,-1.2292146348834965,0.10532870804373812,-1.0775857785476444,1.3282298288082748,-1.0878276903307518,0.40822609553946193,0.8714514779653565,-0.4545057929446545,0.8186691980927737,-0.6312589597087856,-0.363304645616295,-2.200354997691733,0.2918144950206473,0.6699965924854274,-1.2369275909890982,0.023678762266318015,1.1014936706719352,-2.8241458454587884,0.34781977574781475,-1.8782153982386616,0.264509153599718,1.0076229103328358,0.48239970870746923,2.589093930098215,0.4154563930677109,-0.3384264485811651,0.10180860705581522,-0.4306667622397288,-0.8706437969309623,-0.8130926965329013,0.27154136030714915,1.0154422696525127,-0.7953775484335759,0.05454855831887492,1.3385310578708016,0.5709308639173689,-1.0037107708410578,0.11404844097025557,0.12760017755935868,1.8762658280708935,-0.37651951998333955,0.09239038585410213,0.6389948890921167,0.3595213609364646,0.6708869972196758,-0.6254503684469147,0.49705436725011526,0.8648108585490951,1.1498449811978457,-0.33774266279844756,-0.825317500873549,-0.023156555141570435,0.07420687389585622,0.9380236224521207,-0.2148139271359696,0.9061409343261322,-0.44509280038062016,0.1834840265223188,-1.5565007752623874,0.5298652502188247,1.3091570290177776,0.900314334814011,1.4055583618636618,0.280786500466622,1.6487840941759915,-1.039698497065698,0.43347372512131205,1.4358713539099244,-1.1972793588325041,-1.0260018371530257,-1.3014535058215797,0.17976500414655344,-1.474679513195544,-0.8870239113580247,1.1854399554004753,-0.8073365971822368,1.9268393466477653,-0.8632592971419899,1.0684058034940258,-0.7423189613668519,1.111248488350508,0.060814169024298044,-0.2156080893788212,1.6083218476442531,-1.0829037636350003,-0.5682553983294127,1.4074041128635437,1.187107509572882,0.10647649319919784,-1.1647157787963043,1.4420289637598616,1.0449566785853959,0.4845464252334088,0.19796613152353024,0.4640484341464961,0.2785340218597968,0.2335986890734345,0.2077446051406389,-2.3020845139337265,-1.775866826780881,0.7951739899605504,-1.4664407475467895,1.2184967647281926,-1.8641343822112308,-0.07416227827240265,0.15767412785632917,0.7014559397741845,0.21906661202305253,-0.37089185275489983,0.2245852572731562,-1.0268162141161339,-1.1859131416734756,0.2986726818250784,0.48940624733692434,-0.27266274948426356,-0.045722731869028393,-0.4787042843849526,-0.03373338359557228,0.3711226302459466,-1.000640386826107,-0.5066038961834922,-0.6588235142570903,1.1144701933725494,-0.19838710002256046,-1.7370530273684948,-0.3649788821983699,0.25027045226165373,1.1934324496281783,-0.7160792528790391,0.62439741096532,0.8125714085657902,-0.05344173767262187,-0.12676659717437813,0.8187360481410478,-1.0516748671102762,-0.5231449664415417,-0.7610862157076522,0.555718629016219,-0.03652501033638178,-0.5327831981161623,-2.0385214148794994,-1.6604548169239342,1.4595073865337178,0.09335188951148823,-0.802921981955376,0.7695465621016734,0.18094642208879014,1.3037469747998407,0.05514855168428615,1.2192136608942128,0.4134574060389472,0.18701770363422632,0.6720919897312478,0.31670410716560643,0.030808111020221178,-0.18383949504559322,1.0946370192399915,-0.6158003113713084,-0.26961375273188987,-1.330260642691082,-0.08834753401985783,-0.7080318229128173,0.5365220885197731,-1.8844630629931691,0.0105425814743057,1.4104318886835714,-0.040609590314131465,0.030176709010176883,-2.0049422235464647,0.05395522935037471,-1.690960647989084,1.5536718143979675,-0.9021905729340438,0.1347663891534274,0.012980971183526754,0.7193283002969028,0.26745601938598024,-0.8240236693771639,-0.3542961329437447,0.605297844589846,0.6956125418432328,0.28741137354035146,-0.39224663437406065,-0.36688934001138374,-1.0505495922445993,-0.6231601938989467,1.889386179546827,0.9506906627916709,-0.5532760765578133,0.9367496943228208,-0.05434760127668699,-0.5876960704744688,0.053754074646929266,-0.6623636140997542,0.1969320119544381,1.6379002933302587,0.17095238856469552,-0.4142113173767662,0.5481720902713373,-0.2307826177786801,-0.21684786419416274,0.3119561026001029,0.7066379154277539,-0.39192359228614404,-1.2972123496882892,0.11805765988679778,1.0522069185746232,-1.6889966853377512,1.2346586595639186,-0.049760938159151516,-0.38555605730361003,0.9325732743556098,-0.3307287159889772,1.547546538758737,1.53831756419651,-0.9766757784923762,-1.3705926410688851,1.291891386562466,-0.9707567431758896,0.22458153683833623,-0.3426255693140001,-0.52218854966185,0.9872785971073472,-0.12702603420120584,-0.5738482192603708,-0.028805239715464004,1.5378376441331025,0.3640149940285355,-1.160820140714328,0.6921549834223047,-0.4154874115537424,-0.6573423790832205,1.6730330606320558,0.318502799746632,-0.7934169618287042,-2.481080557294699,0.6850664159284203,1.2691805674332648,-0.2838780730406049,-0.035630312890527954,-1.2095248305803568,1.3356165220524283,-0.07919113189003546,2.636489269989127,0.2651516258089937,0.9600907686249751,-1.5953307470909397,-1.0536390546366512,1.6509126748473963,0.7366287252154969,0.393295636539221,-0.393746388811252,-0.8893753599714008,0.7129180708530151,0.08279218198993464,-1.105803413418802,-1.2192740278326715,-1.5534586564231423,0.3319586861444942,0.2577714558905372,-0.43966005186027046,-1.7555695966846954,1.0690594478657498,-0.4866218185017017,0.07903491082633331,-0.16792673551510112,1.7699350570444208,0.35501781208706396,-0.8352134498707796,-0.24568775529859058,1.6422902162801254,0.895238899982816,-1.3953634694289767,2.136842288037904,-1.1427041870637258,-1.319344192622559,-0.8842958369604177,-0.2096168433170324,0.4324617974288716,-1.4512910947704722,-2.0783899139743163,-0.17039079422386347,0.32324297184881023,0.7739569217583943,-1.0006051644742777,0.20764924762857775,0.24377821783473985,0.26389507626452463,0.18219094185582893,0.22801728431196622,0.6458080962154392,-1.3220550461183158,0.03406628212106234,-1.1666995379890333,-0.2389512241972877,-0.2728894681903738,0.5928547824939923,0.4398956457330099,0.6700059114917782,-1.1594005663633342,0.6340523449182659,-2.3421603306742544,-0.7063347598036475,-0.19720763407150924,0.2294668056292131,1.7861144049332005,1.4386908926153543,-0.6404589515278255,0.47162049476480783,-0.2799787701331917,0.24032548123658665,-1.4456326915249285,0.8910727658648178,2.0226064525171106,0.13442915256160848,-0.2537492751071382,1.0727383356574889,-2.400224180934045,0.18587684281744235,-2.778849218667302,-0.7074842487797189,0.8655891777178424,-0.6297097023876432,0.08035505761489685,0.661986732427573,-0.596680482421466,-0.2184814511717761,1.1671221371149696,0.27863939497232487,0.45039541164619373,-2.3304192950846123,-1.5758933255572989,1.3489260688269658,-0.5317831987724134,0.19143218471373538,-2.1293288169364457,-1.2092821130034195,-0.4049045097647433,0.4133211511105924,0.7660412878893346,1.353672184593986,-0.7899523560517062,-0.02681406625500743,1.0595729345123033,-0.28506841291741103,1.0567997462303051,-0.42354678504734106,-0.07628149722152346,-0.7889751910280204,-0.694105351057423,0.923659751953855,0.1978813424944574,0.2447170919428658,-0.1633738711480593,1.153093496554294,-0.49621182947456194,1.2955300127626486,0.3322748527680938,-1.3161912363730564,0.39538303467060126,-0.10698998612401706,1.0596261269882745,0.5161767403671892,0.6127650141103927,0.35885817783435464,-1.5095916457202916,1.2493442019508558,0.434982552272216,0.7695777529129763,0.08125126194182436,-0.971594107513778,-0.3983330916560257,-0.30349435635125566,0.11896694991439682,0.35856251250785226,-0.5684306696398482,-0.40698465189714195,-1.539872591599698,2.075602015408129,0.9883575119559024,-0.5318933570921047,0.15908506004425294,2.4563583747355144,0.5890313389960472,0.3228062112495963,1.1510867612147262,-0.7918213588623899,-0.8162823763351471,1.502586906324062,0.3434524898198026,-0.8868510328993857,-0.6583314872475068,0.45491961721145796,1.026583529877863,0.9914050799344704,-1.2576926207641932,-1.7132025939700353,0.07980332049517354,0.9066245928558012,-0.04726619952608601,-0.7153634340902082,-0.33748023951392403,-0.04001714132900492,0.5990453292110168,1.2862652735084168,0.6297830801705986,0.20855880362351353,-0.13629483622051464,-0.22839805285509604,1.4424417885126162,-1.6732800001309296,0.7404746995651006,0.09140416526297761,-1.2720812860103676,0.7123988288935588,2.6358592210610685,2.636676259010814,-0.18776706416969266,-0.024589724902356787,-0.3347365939119771,0.6479114593277843,0.3996677696655227,1.1523434550722735,0.6054581405701797,-0.6365057585732927,0.0408270289161278,-1.5538546386890706,-1.5812013657842614,-0.3384238160739255,-0.11395134025647206,-1.5258242821098356,1.307637092063404,1.54433032960877,0.4582278833561943,0.31975210441725055,1.3473688246017699,1.642217359509847,-0.9861207439084242,0.1241470048390839,0.44303459498301373,-0.17158186370711306,-0.3598288324018205,1.5744748119459095,-1.313661170371413,-1.6266061579862048,-1.3452732440686728,0.6851700820714677,0.26413872458025556,0.6791420857783758,0.04811944583534983,0.6251612142720463,-2.0123329582026277,-1.2105993848804237,-0.0933083376985144,0.535043251519573,0.5785295769924529,0.35022069422390467,-0.4544528263060205,0.494925106010589,1.657499281866918,-2.377096554156869,0.17120779424927285,0.46022920845838583,-1.0454829549600928,1.1120772177271905,0.3280217412544719,-0.9488364101324028,1.5974269101981158,0.2958115588656151,-0.260131261784018,-0.028938495482408542,0.1839333275902454,0.16936134400539826,0.7991993494043229,0.4094499112901766,-0.5063907860011445,-0.9429896726465765,-0.15794903225522616,0.9624744994881289,-0.5028127062819798,1.7146685381536964,0.7303112434776959,0.4019900806284054,-2.5184958687795596,-0.5350964198299625,0.3481657048027024,-0.3067391918806209,-0.25422619667222973,-1.8925200987507014,-0.6459241742556537,0.1289042569812788,1.935939912893204,-1.2001202142010199,0.9378660786994666,1.4752223826027708,-1.0922779142622192,-0.5215672294428418,2.72037243589955,-1.941959023588708,0.6245873603409046,-1.0297900055261808,-1.5072769224178297,-1.3681637600736318,0.13589916679769865,0.04366149864179042,1.2766800094150137,0.6015244679345318,-1.3609709925899662,-2.210424735017775,0.6218629028874194,-1.546745945252752,-0.1367320301562142,-2.363621449706396,0.2716559148244558,0.18384925754448223,-1.037171365522039,1.4342704798449688,1.9289396460885246,-0.7776881420267082,-1.8192267507153579,-0.7411634138350287,-1.8273342860270367,0.6217172443575848,-2.89806945080703,0.4137619066421494,-1.083274314209862,0.9310618563724521,0.48694281735591066,-0.4287765638101555,1.2232476139884367,0.38638887020311385,0.9810808719568939,1.835292945517055,-1.4151494287303161,-0.5264957058201464,-0.8388959609969399,-2.2192722396799276,-0.6781844591022611,1.0883759813341525,-2.9607311198143735,1.3748423297728394,1.1613155881235133,1.2354005329603093,0.7665996689867489,-1.4000370474285846,-0.7319875099041282,-0.2898595695912719,-0.8297608122410131,-0.4272908383236048,0.2472008306234243,0.06761829402955254,-0.721243444469451,1.2946397286990772,-0.04454988592227854,-0.14651442167101525,0.49416451291590574,1.150054946420427,-1.1363393194001954,1.4485007126820173,0.606580875183178,-1.0774577510632557,-0.17714174543940953,-1.6026719329911305,1.8771461967185474,-1.68168110811598,-0.6015581503650677,-1.2409938427609228,-0.4940628569378316,-0.32308703273379585,-1.379366151795129,-1.9569776815087991,1.6829654926707216,0.48689392675929793,1.4697976855350894,1.596417719177934,-0.8691908694817483,0.8486482149221533,-0.2469184765682797,-0.21643988509494197,0.6041570850297192,-0.3193188817586371,0.6220465104582518,-1.4197508430833305,0.6201816883822489,-1.47620052177974,1.269910974446097,-1.6592556457010559,-1.0002713866736643,-1.057135185660605,0.05217625257176927,0.04400341892066498,0.9076913758428651,1.234837243842921,-0.23984168408764775,1.0601155116024712,-0.5259003925148618,-0.30522597869915224,0.4964835348003536,0.3131262623617364,1.1276218110304992,-0.4580327592677019,0.22783522925859204,0.606530303514612,1.6256449675420894,-0.44430532286645263,0.4050575670884237,0.9564242023563452,1.7957425372588087,0.876875240764511,0.3615425624558869,-0.6230928909441037,-0.7421316696690748,-0.8622871226492175,-1.5640360572201144,0.5424137963095076,-0.9511455256255642,-0.8618040477583198,2.596505817537821,-0.8527127583569268,0.27692289930357145,-2.906346925700969,-0.23638962325193122,0.9150042108045797,1.4099586748179331,0.3376732490612077,1.3737798759103939,-0.2686989697486947,-0.416170423215297,0.21832617910200294,0.906314001822019,-0.4605573563713131,-1.398211028683676,-0.5430977761244463,-1.6176483545931895,-0.8071356020257803,-0.25700008839329935,0.6060161869575839,-0.5466266887155145,-0.35769504003941405,-0.5315956117303589,0.5238205244847053,1.1146894387400232,0.7464931423332821,0.08690902498844016,-0.34329653181034575,1.0643476662338343,-0.6594820341062059,-0.030571574573078263,2.5291421954149116,0.8136918955187968,0.25197152540329537,0.21843796710890814,-1.2567068422546013,0.944058796085166,1.7293295504378066,-1.4348773426054833,0.6067165886258005,0.19217734843640213,-0.330922272448523,0.16563767514035685,-0.8224152903366393,-0.7815113258705542,2.3806722986288578,0.29023656568650114,-0.6289963471770502,-0.10209756869645802,0.43596535114744966,-0.34114536015941166,-0.5854363596722777,-0.5611051639791327,2.2096797293366017,0.035880306201872304,-0.41079507571818175,0.2486344019328821,-0.5996111264460557,0.8640133962089256,-1.0507539972171578,-0.024855114025385292,-1.405104257655191,0.7435022989879448,-0.20789364165125043,1.2195038800912719,-0.13277642838021836,-1.552213126917573,0.12792175814557874,0.49498266855868533,0.2671791643740111,0.19377971324410692,1.4820392763133141,0.9635502465078984,1.1485442754132822,0.4773367187492135,-1.2505155759073956,0.8387518796824986,0.9501774403382234,-0.03529790571991402,-0.616099798318456,-0.3290920034209063,-0.732989432839557,-0.9855355864175673,0.5606460881328461,-0.20857536910063865,0.7649481088424303,-0.4855079616577511,0.6303717174956149,-2.4896221753345498,0.28965896426139737,-0.4873850564333042,1.1889585981743276,0.25324320866144184,0.6113008633963719,0.06309085249308848,-1.1364261088664562,2.2922806662488946,-1.1225492410598974,0.11657375460208523,-0.13113534246186148,-1.5384484926660347,0.2546173573621319,-2.096294580349016,0.5487872801016295,-0.20206645135658066,-0.9542911852705173,-1.8808238690781809,1.0047102103440078,1.3960439827175615,-0.005714149333780871,1.0699647989700172,0.5792208346535198,-1.517040362307335,0.28775774363596746,0.5755404020562452,-0.8740650238356927,-1.6939197701634978,0.12335007518117075,-0.03826306751246695,-2.5461344326694855,-1.4066037080678144,-0.09982101986298937,0.3758938405360302,1.338087825774052,-0.6099980295991321,-0.20053150333650338,-0.7701792467549716,0.10980603136757988,-0.9731970405529944,1.9648459161148184,0.41256052385449277,-0.14259956937413984,-0.7688911813229136,0.6487549861555311,-0.34908341219875716],[-0.025341260985427792,1.6579191965113336,-0.5294973203600785,0.6120714790775645,0.22308779034532275,-1.3746240173247424,-0.28272283465935893,-0.9680438534255027,-0.33827482375372636,0.4107958139634356,-2.8973187403383327,-0.11820530878880957,-0.11839954088230552,0.000025226751069765228,0.9407878219187786,1.315869158160521,0.4509241032850577,-0.11741403480922707,2.537909394788374,0.7887378360858524,0.513716017899947,-0.9490998043251776,1.4479613199140813,0.6792074297462388,-0.3087985036256423,-0.3996159842282855,-0.2958286231659351,-0.09933060400334441,-1.3393944047932032,-1.1732024257860072,-0.028652842989565955,0.4280338063411881,-1.2998508752188112,1.310187617430145,-0.827160336623337,0.5417399250467828,-0.11448538592005283,0.05060480983882797,-1.2758390620364928,-0.03746602569104686,0.19686865520073207,0.4302309405271701,0.5514443300043956,0.5008738049604282,-0.8413418934352638,-0.3508735071969458,0.8205241401914928,-0.05871396546839909,0.4575703931662293,0.2743550946280248,1.2251122666366119,1.3760817994355399,1.546341997643989,-0.5403907452632255,-0.21292162565898107,0.6557710348341516,1.583080744286746,1.122429008917422,0.3214255210691906,-0.3165839227742127,1.0632233474837833,-0.6156582751048011,0.3821323152052868,0.7560172661266642,-0.8982407891798129,1.0519551070495254,-0.2981235629422027,0.4612307582702582,-0.7511295590512581,-0.5370190670838355,-1.2061350800952042,-0.8417525118838726,1.3838219303621637,-0.16485865697165455,0.9401736748320642,-0.6572324755782587,0.4756815878390124,-2.4388625561908075,0.9850173378727729,-0.5330270315433289,-0.09194657709358893,0.8358977610810897,1.0601879842134248,0.2215455313871249,0.07316303524840072,0.7419943041811091,-2.3976973959978882,0.4845836663101364,-0.443129429732173,-0.3246598762968278,-0.6135645905920466,0.8103603725437254,-0.22159906227922094,0.14431602612000294,-0.2954669207457076,0.8307844293471486,-0.6849069955620612,0.8700121469394618,0.1616293826689032,1.7101738091480916,0.6112194779144247,0.06002865127856586,0.25297528658743074,0.10973832153886563,0.5637490994088509,-0.09278050045231048,1.022030578211513,0.52918939638479,0.9944236488052658,1.0448191523190982,0.31362730281611934,-0.3694997249158807,0.21139778721790217,-0.40585988550207225,-0.0007841884709047074,0.6961290922835465,-0.059592604039697426,-1.0598084324510775,0.9552487635865158,-0.11150821079507968,0.7600613305510566,-0.7366459049196946,0.03568030830764783,-0.19631288142507186,0.47879343326493673,1.0947432185490633,-2.194150804515684,0.5008046497254354,-0.07941934891341151,-0.8806275974209241,-0.03717187823035805,-0.49288984323288815,0.08792962298675881,0.400605897006771,0.17972948626099852,-0.4954690189748559,-0.15310765314559305,-0.30595432429578034,0.16486260738923358,-1.1249166370391497,-0.4979912239367308,-1.9549169455626758,1.4461218622811352,-0.12995727185720993,0.4889767227649974,-0.6207307060231703,1.0348788876400086,0.05637985192126135,0.3741481906856788,0.13875438870639908,0.02205266958879288,-1.221274212927247,0.9666229929726672,1.0776449574648659,-0.17244416965601092,0.27614858080455834,2.3131544436367224,-0.12943670613134375,-0.2180552349793452,-0.8214413959988565,-1.557768282029817,-0.9695945373142068,0.7002755658283198,0.30283602413018146,0.7938815562584259,-0.055055537765546954,0.36080609034158007,-0.9874093350846155,0.6935443322152288,3.1849600714424957,2.4946387946838,-0.3919260333648506,0.42163330945483474,0.07431087889371947,1.4454275567263397,-0.37204029785688614,-0.5909234696130803,1.4373272699630764,0.1401560110437797,2.546724549711586,0.45546125861924125,0.849273984400395,1.5726716241695615,0.87779853657971,0.20696313752155326,0.4691776143366545,0.022250010990496567,-0.5178568818836038,-1.0122879202042174,1.0356421910499143,-0.8814980108365461,-0.697908088388497,-1.323180938616628,1.4006224736933217,-0.8684850880875309,-1.1319574108984238,-0.22825557325295062,-0.30215097507346544,0.30534247181487445,0.5857222708377241,-0.7040427764249468,0.11883210302265157,0.21083825149847332,0.2060388723071232,-1.372091915708376,1.024524972539572,-0.5653191555380116,0.2133671439161739,0.16499092457018802,-1.8123017851344918,0.29355870691253116,-0.002094328637317586,-1.1473515515025763,-0.9090101301558586,-2.7726006238774383,-0.9040066793949142,0.997728538174467,1.1609724815737326,1.0240181387112517,-0.259857907283234,0.18609077659677611,-0.9057575875100026,0.5518177109102362,-0.351437094848856,0.33131711327209484,-0.5504356494018202,-0.9848770113522902,2.0421668685457437,-0.14270111708788982,-1.5196887123041127,0.4925975060440619,0.5476639905485448,-0.7043397815734398,2.795997606065578,1.5364257224310214,-0.728284496515887,0.613463559556331,-1.8878134845701373,-0.5659216491255347,-1.1512395339183965,-1.8167664025863308,1.1069340658906508,0.5347758690432366,-0.058357131817190225,-0.6995540216765066,-2.1402564728647704,-1.5125611456007242,0.48861303614348384,-1.2160838458146692,1.1181458404329978,-0.9788933130597661,0.3254486728640455,0.638203050983905,-0.6606943155890586,-2.013563357170442,0.7417885262724151,0.20375402882271493,-1.1488439311873546,-0.4720122543419078,-0.11598546348553469,-0.2006472442321875,-2.189557766140395,-0.7270751997448035,0.39133821300390675,0.42010359181717355,0.13294226591146263,0.6168689268243995,-0.0781614183616444,-0.18200883134467014,-0.4621418053861187,0.07803876942258617,0.31842522231146053,-0.4207811994186705,-1.2617176480679586,0.4921863835155461,0.9706843514865783,0.9782371301218603,-0.4995013736028165,0.5771973730429847,0.297450632163463,0.047543173825824486,1.1864329171101753,0.6415720768321803,-0.1574188310694668,-0.8117128364064544,-0.508582744781733,0.33045181060448037,-0.8805191072854543,-1.5543129320087103,-0.4388527013322477,1.3014819432267353,-0.35866429727591215,2.6739812431428867,0.28780762114072306,1.4079312946902631,2.7585218211158717,-0.1059617951118469,-1.850030576034772,1.1207656707970892,1.329443238356603,0.36890272247196393,-1.491697899176869,-0.09927339989200584,-0.5147282193258637,-0.047161306541955994,-0.6388819094319653,-0.4666871430625729,0.35135067792977703,0.9376879124549972,0.5944390346286426,1.2192221403085115,0.8147500377433365,-0.20430746903361502,0.2312099240752736,0.020428901922172372,1.4541570111894697,-0.47739588735417354,1.0566474491004627,-0.24844337793436014,0.39218994872943574,-0.8222106898488103,0.12819465409315686,0.18125419683627636,-0.14001777748632863,1.7591736439802041,-1.034933820915901,1.5030373792974885,-1.424243822865089,0.9297591633444477,0.5204291967331338,-0.5541388116640182,-1.2641493563612562,-0.3221958090384528,2.578721713865367,-0.8720680994431513,1.081360311507968,0.013552109380182833,0.6143444735668152,-1.661550852381855,0.5353028054676569,-0.15003601390841637,0.5167502989708298,-0.4626588092867198,0.605113245904979,2.3907700168053383,-1.1701494517697666,1.0101409542586992,0.38230612363354727,1.174304658875082,-0.27510676252393296,1.7066932157488655,0.3682667289775859,-0.07903584062648603,0.6870974604535802,0.5725662080431755,1.6819657256059755,-0.1818895640618557,0.32912761924488704,-0.145429659021568,0.11309339163384985,-0.6920743383903937,0.6790272566905629,-0.3445719800089834,0.4376788023090161,-0.7104915226457741,1.7377900379665132,0.6580099703933368,0.030687756865875458,0.7886863872850506,0.28421662714758444,1.6543747295757922,-0.9079309582096656,1.9101488245094158,1.0205147280985376,-0.6135283656742899,0.6832709143398751,0.009749026406634973,-1.1616031558341087,1.8628071749080959,2.017215737353462,1.8159948191070254,0.4733862189069622,0.34217671262905625,1.3054919868490924,0.641807192843324,0.5548528567219639,-0.7752580110872435,0.11084832167590827,-0.10746139615842679,-0.6914183243187177,-0.8597751150839691,-1.1517489890600638,0.9161047205603595,-0.44675322544595136,-0.007244507240024193,-1.3248423585227205,0.38778611043932143,-0.5597448775809699,-0.5034630626618039,-2.8944133225444526,-0.2505866305710865,0.9654899974577896,-0.9466541878261505,-0.06159610719877599,0.7804654150344998,1.5499414684519621,1.585004420238432,1.261034300435296,1.2806783035534979,1.3200522575533602,-0.22483911123178682,1.8411346130642272,-0.6292777990851397,-0.8551856826196328,0.6968399816762961,0.5325419206180932,0.047393437477236164,0.6713323826499378,0.5840471303535832,-0.06397683011712099,0.3076781735260852,1.8648154728543387,0.9108079867311328,-1.7996607652473984,-0.2648459491363181,0.1622331335115724,0.22819017954902635,-0.5989836686237707,0.7406436256032499,-0.26966407269346104,1.460462193175819,1.0215784620392747,-0.21293429942660683,-0.7005208301303879,-1.2678118251909973,-1.8806646122059139,-1.3538950766802342,-0.8147578152487893,0.3478120543419523,-0.6687140491871727,-1.307263439878849,-0.5265583001205374,0.6547590173191781,0.31211457223601613,-1.3045769765510231,0.943412222911682,-1.1942062394360673,1.2953340676521095,0.250374021983753,-1.1021447713782406,-1.6184658796378135,-0.12684242247995386,0.06758154128704526,-0.7654352785769593,-2.0375669427067913,-0.3812754829906648,1.2611115794276455,1.4688985686319123,0.9460630087314154,-0.6263649910371019,0.918883997897086,-0.11825905937213749,1.755275474259597,0.044567497141387885,0.288254451053751,-0.2780546793625736,-1.0123163466936609,1.0596479383474984,-0.16976372343745758,1.0306923671705477,3.0148320336753707,-0.3320076968052842,-0.8053958924778233,0.29566668081135905,-3.298863946775791,-0.5095407460735109,-0.8005477549873913,0.3368377942760329,-1.9791406226301516,-0.815884621917408,1.2625324706755745,1.1590217815094876,-0.29475925813746945,-0.3960628871573014,-1.271446558173249,1.2684650938838022,0.5739564849955134,-1.5121848586349371,0.12830646750897373,0.1355711764999,0.7846641541030069,-0.7575526458170864,-0.3136247464220623,0.9369132238683158,0.1860812271775166,1.6932810961874851,-1.033568157320921,-0.485780069199273,-0.9760082281184358,0.0015100773082066924,0.22151547317626288,0.3456153385779796,0.854501108695007,-0.8324764693628358,1.3364879187052388,1.9098975649172836,0.3291629524595506,-0.5462171507593374,-0.3289709803081797,-0.36824683765381216,0.035938552230158426,0.2059160464589889,-0.23230053644221021,0.6050221665798456,-0.21151704721578501,-0.2771481207644633,-0.7907461139680027,0.46669106261539556,-0.5208265287136701,-0.23758037747554153,-1.4082070953325303,-1.2908422795130159,0.3593732719171723,0.49943859906762195,1.9926050313077364,0.6923343849232951,1.5086487369479116,-0.7851944063266478,0.6960929209406536,-1.8062563245198562,-0.16118193440256953,1.0443447725675354,-0.6999131921517601,-1.2990769067710093,2.78190811586289,-1.6854596315908719,-1.048430919574702,1.3727345175430459,-0.5622435086532194,-0.1462302652963215,-0.2681428872753519,0.771440579961096,-0.10156328049870716,-0.24565818020657454,0.8148685876953576,-0.5126385331531756,-0.3121039763936349,-0.8042632775735928,-1.7521414309397307,-0.8876569724522975,-0.722250069834484,0.005844832926911118,1.1117880369659447,-0.32088035619180394,-0.4084706375163877,1.4990531854813915,0.9699609905787404,-0.27663004376780576,-0.4904606613733311,-0.36580520808535866,-0.9557281267581321,-1.4772403239571232,-0.9070339410951243,-0.46395046487997105,0.899195591911816,0.03419939957776599,-0.7267464246613077,1.325437531827329,1.8579838287059582,-0.6158916499634123,0.8638752927494011,2.082357454767897,-0.3358307104369908,0.9228514584499907,1.0845124876286711,-2.4933753841781896,-0.26662708572384686,0.06271680726871784,1.19651912359136,1.1282972534202091,-0.5397151090286144,0.9391148154392667,-0.11034891291664299,-0.18186291859523707,-1.3561894245935946,1.3271928788506901,-1.4048215796070795,0.052738800609461144,-1.1007442173714146,1.6077906433814046,-0.345240082612045,-0.4014969437658272,-1.515413358596823,-0.6541509430704808,-0.2715202086629085,0.026351954551559455,0.6624039614780903,-0.6476608202000933,0.24290794409590963,0.510631715306628,1.874081838631563,2.300245062806831,0.6199057578065775,-0.6778112335563751,0.9203532357492029,0.19636933433745055,0.7608827147065008,1.541240442265983,1.5404344076531982,0.6984967902924637,0.9206270366470178,-0.5647983730452215,-0.16387267347330678,1.4211288669473736,-0.22203706347345262,-0.10092160423526218,0.5293001150831063,0.7284588761541788,-0.18406321363017802,0.6204139175517026,-0.44463928331921415,1.370156219010594,-0.7161964585508377,0.08123327976547719,-1.4915876966577362,-0.1986611646528611,1.0113375834951899,-0.6747560994850158,0.4959568818238999,1.7554805461523746,2.08650780437057,1.6029955659769335,-0.4837296940201151,-0.42008118693758906,-0.494228502010577,-0.7331223498320804,0.43983668271752235,0.5323333736106258,0.937676738292821,0.345440982579124,-0.9399551704890778,0.35472574441858634,-0.621609721864646,-0.1143520769759762,1.536426680411218,0.5418603578482709,-0.383783381011253,0.3510239558071429,-1.5042165189113528,-1.7566298533519242,0.8616878445132726,-1.1397893423528491,2.3704923793348733,0.34590350395134245,0.6447352612582072,-0.012266725241372801,2.216407786802776,-0.04055424081548654,-1.137115061857437,-0.6912812322057901,-0.3391870307995173,-0.44387729164066286,-0.19100006189234395,1.1597791228071137,-0.9029813362398044,-0.8457011492526618,1.1899578094495806,0.13078528600691186,-1.3912108035576511,0.9576144049816198,-1.661798979668528,1.414335473399685,0.034314581471814806,0.5395233183902197,0.795474398888958,-0.47743029325909003,0.6891940675362492,-0.15479875257277192,-1.7542730367721304,-0.559644870134782,-0.9186705837683059,-0.48151812429671675,0.6936049899485063,0.5523396781386376,0.46084702082111306,0.22498492319066857,-1.5296560162939115,-0.9711357495047418,-0.9865426614400512,2.0437980537742244,-1.0095053804426697,-0.31263551379249227,2.424849379062919,-0.2388447237696831,0.2536673071936597,-0.8997388976052808,0.3211407963028306,2.1344832021263427,-1.1609992515266376,-1.0096866568630731,0.18081089287093283,0.29991549836848375,-0.03113317235961627,-0.977188028363347,0.6508077289254807,0.32026518193973963,-0.5144763351021283,-0.2665972869333326,-0.32060064037928526,0.20317487512376461,0.8464771576181878,0.9904186499932327,-0.25011372388378583,1.655498513421401,0.7331727684069477,-0.31555362113176616,-0.7015648341738878,0.5227180594077774,-1.3550728980032671,0.03160532921966662,0.2960485660807132,-0.7477467933536205,-2.031471505470198,1.9431139110071505,0.5892885906618264,1.9896632352193,-0.3084591208367599,0.0059644939227130895,-0.3471216959790747,-0.06975467900271308,0.6350124155611596,1.456860205711382,-0.40253199070311896,0.34145976997357813,-0.4875710856643185,-0.23753682219246103,1.0223564839577142,-1.4812299938918958,1.3420458020335482,-0.4989766256453909,-0.8820721636959504,0.4288976933326559,-1.5238348068592464,0.10611251330865895,-1.301345609563803,-2.319451071741207,-0.5505589082443249,-0.756517079678641,1.2365573489241344,-1.1530660439058125,0.04098665931952282,0.8997849996193148,0.4042553589450037,1.0185788910864229,0.8720030621229048,1.0239565512062812,1.058759873234448,-2.0597518278421654,-1.310354000105889,1.6278574614869792,-0.47187845444643245,0.004365482757067142,0.33820617752757764,0.6873408663545654,-0.7863617692300988,-0.30270446566977954,0.48504155252724235,0.18463086055107664,-0.062385903671858645,-0.8944792850818487,-0.23316706727089748,0.6660666528231743,0.049943543254791264,-0.12160923342307307,0.6445036907800895,-0.0834106432932493,0.9685668528344052,-2.0156144211242797,-1.0916744467355486,1.6665865082880542,0.06580394030337429,-0.4875164265445277,-1.2705041533825037,-1.761105239692775],[-0.3510545858742399,0.16741788613732078,-0.18130175672974552,-0.5959819907656982,0.9127205550135984,0.7325758679699912,0.9368669348378776,0.9386509145801176,0.5690753851882765,-1.8842531943762177,0.6114205471201338,0.6013334023697933,0.9254021984739541,-0.23257748296324585,-0.43219649659424453,-0.03423090067985002,1.6457856407760776,0.282806854293686,-0.9327034468275369,-1.3237544191368076,-1.4953626076655415,0.7756608528419369,-0.8870905401365752,-0.25613615821381835,-0.3047658099228631,0.08159435666039876,0.6420371303062395,0.6468943522857326,-0.5070608662911807,-0.14432552288311276,0.055979553921993906,-0.3885194423987826,-0.8763526577295828,-1.2373850381204234,-0.9265563736041678,1.171324743612835,1.0644841847337356,-1.5559943959490665,-0.6622757631740601,-0.06571679922685675,0.9201087582841608,1.83101753268921,-0.1735168966955385,0.32520541274508435,-0.7121244343284805,0.36062886734828775,-0.7826009530894682,0.24600039740581853,0.40076266563521196,-1.325149916707125,-0.511475841022989,-0.9479767849880837,2.256218049393891,-0.2771246354592143,-0.3987703324712025,-0.24710690241748046,-0.14822074506627048,1.197915859063748,0.28636167550267533,1.5964643179316895,1.480489619923163,0.09905708054525876,-0.3385256241573862,-0.2887331753213092,-1.620367259387302,0.058164977527143655,0.26384780371677946,-0.9058471868784926,1.4467613681116884,1.2764144434676836,0.9592581062025171,-0.30712469611218535,-1.1600147447318119,-1.6729180875355953,-0.49727414305773376,-0.287911768654916,1.1017740268120841,-0.4505217009250847,0.8597193821650946,-0.251626181466518,-0.4473828248212746,-0.20492001610988106,2.7817823929608885,-0.8039023246877772,-1.6987425725674405,0.680214905978804,0.7078143870114906,0.7300761046313107,-0.2986225608345364,-0.4506363908381903,1.2835208441113206,-1.69559599952288,0.07444998798328695,-0.5573127966860276,-0.26061690604486343,-0.8192750109606818,2.137114143860029,0.562384414804591,0.3944742759504919,0.7779312715596062,0.7885089285311963,-0.5831472815685621,-0.20150565141913843,1.2664089863127799,0.7473369914525635,-0.2260293412904712,-0.5024678328472001,0.421406427926342,-0.24019356854098556,2.276167237823865,-1.815760856179049,1.0956897205032412,-1.414815360606362,-0.7991067215953902,0.20038950351108778,0.6346379614994704,-2.628971562082118,-1.1931476549565736,-1.5701926664327719,-0.6570233674081863,-1.2997271130793668,-1.249477398807642,2.311081566628919,0.4170967169040215,-1.0437958581600033,-0.6834411789952713,0.6197966075197274,2.0071196014837893,-2.1301390679133787,-0.2666489247032253,-0.5521148663718048,-0.8729308456794495,0.9675310510110343,-1.6883424324780865,0.7641946351024642,0.6032865303467433,-1.3302326696513662,1.0314731236817405,-1.325666748051249,1.9577313318921832,-0.890792902714116,1.1583390452037923,-0.6073782066118574,-0.31316587472620117,2.1376607812768946,-0.3107081970845527,-0.48842610090499694,-0.8722176997945568,0.4229861483493078,0.02048678865391902,-0.18387012277444958,-0.0932167375856387,0.24550859505184447,1.5718343529370165,0.3504007377946454,0.4847040856880309,1.1333051832499321,0.21458305091103058,1.4663654354809905,0.44167947588240697,-0.2746108421561911,-3.0221911985970262,0.47260288058222094,0.31760725140617924,-0.4993499425370985,0.13023097987671547,-0.2925374302875675,0.6195156486566085,-0.6860077749613178,-0.34976933408235145,-0.5787565451875284,-0.5574905899687793,-0.6000132742641343,-0.6159659137619191,-1.022047853237781,0.9281311833689034,-0.1842337482887071,0.6857203621350767,-0.7611600787040727,0.9801483501269892,0.9305824288595014,-1.8485224290681976,-1.0114930129853217,0.5986718107061114,0.6182051708081356,2.0065984634612,0.6488200382572401,-1.2972874700223465,-0.5981394882819471,0.48568850363060173,-1.493833557177755,-1.4558082913873684,1.4554773351741541,-0.2509612971206077,-1.1549721716921217,0.005071746379101356,-2.0896472466509266,-0.9233230201273371,0.17647864768187024,-0.6761753381468072,0.6304535474792684,0.4095451859231235,-1.1590688568726562,0.20485365736532177,1.0418561430278068,1.804479992943269,1.7374917857440784,0.0513513095941031,-0.8009053054404539,0.2754827900129774,1.5366430552488155,-0.35172730470822167,-0.6767065993982593,0.8914344665583903,1.2353194730036474,-0.09552202051169792,-0.06891755014119086,1.2464308526547883,-1.5150207241230584,-1.1407282629181061,-0.863766440970187,1.5390230514434684,0.024147197830699508,0.416994174175401,1.603688688656693,0.2162840557292891,-1.3004576923536202,0.11745034122467857,-0.4183196733106119,-1.0820524113569165,0.9137259539522558,-0.758794559993684,-1.1688913977721829,-0.22636337314093466,0.043422611471547204,1.3011036360075123,-0.6803583593033307,-0.17786733486170192,0.8581459155462094,0.660698736368683,1.3508465313607487,-0.09731998752349705,2.7012774251017255,-0.40287724294344535,-0.2009478708348534,-0.7726032929226585,-1.0505643220680734,-0.3249452338889968,-1.6529694638797936,-1.0968448889587705,-0.5608562687462546,-2.07913238069915,0.6177411733499639,-1.4868258654924402,2.157989254431596,-0.726284839536606,-1.1408443551574763,-1.2863367375237837,-0.27066283128286506,-0.5095984806953207,-0.14946499096423038,-0.03372808696770348,-1.1776265818131653,-0.07065291079543624,1.7506618529245277,-0.16251701836148372,-1.9818620942307015,-0.10951033086784452,0.40113221554385126,0.6755101802086807,-1.04767069402095,-0.3339265055634707,-0.4751374389608251,0.02670437707756443,0.6385854357282367,-0.3493974741036487,1.144565374287267,-1.0817757874397764,-0.7347433905088575,-0.22341186542288624,0.834617174624769,-0.009236439341434746,-0.6106998763241667,1.130628730184081,-0.2901271039253585,-0.8549598262783135,0.7579787809252877,-0.18968618981202082,-0.14553423668971516,1.926092920356814,0.91928361850455,0.6317311478073742,-0.7029757202394935,0.013152278202102984,0.13821423178964365,-0.13546721057940678,0.374860314152924,-1.139752584544872,0.3368732507652276,0.8533803261096305,1.2340199761200727,0.4915750368082239,-1.528349294684063,1.6085306502650591,0.0771355397023705,0.40636202199491867,-0.8261808932562281,-0.9854117007489517,0.49669814538052764,-0.06818054317292838,0.9790937580647165,-1.6535954580797751,0.2674970646299891,1.0544426999794485,-0.5977615574377547,1.0471355916633838,-1.1968480268099768,0.8366668486892693,1.4632686547338882,0.5899048231621719,1.1737168533401139,-0.5252730064186794,-0.9523525871518045,-1.2899052135078515,0.5905051513929392,0.9359617679894043,0.22522075493494673,0.6027856200155914,-0.24751997665404152,-0.4888137549924822,0.7234958652145728,1.1908519692674244,0.5456284970208726,0.5441314785289052,1.0534125630537108,-1.1462008420962815,2.661210496346526,-1.0078172924033761,-0.14981182056630551,0.6626916996890633,0.38591523569051833,-1.316038943138682,-0.7910382975421613,-1.6639375220358688,-1.4600325928811853,-0.29217549675804866,0.7467340336647333,0.6966606488631173,-0.17361630098822992,-0.3083142375085293,1.4257215817144544,0.2976988485578923,-0.15892052724109057,-1.1176692014192582,1.1110094705704263,0.13799598643017186,-1.8014049541490138,1.2791189987134877,-0.04028741087005889,0.8049519785878403,-1.0743464804468759,-0.1749561496990556,-1.3656261587870824,1.7239741549810657,1.0624222263997034,-0.065199667769898,1.6251811823902689,1.0318108898150313,-0.7764179870977889,1.2154447886708843,-0.8193967029705099,-1.591248807079045,-0.9160001196706962,-1.7860735571762867,-0.6880262427641403,1.577730556895145,-0.7619468172836255,0.27180778436441894,0.9930152152705591,-0.5737809586656105,1.1529481940584585,-0.1297555553502809,0.48675607700132645,1.1154380026696367,0.45806255809460833,-2.1642994596071894,-0.3180240556150628,-0.495024491854911,-0.3002783238104702,0.14602732370993526,-0.4231494584972806,0.09028799153159803,-0.5599558191158067,0.40607144443595017,0.3221172233578804,0.5782787720362464,2.1989232664436207,1.462785846913039,-1.90190126475118,-1.1440604697721712,1.204630198832102,-0.6174151116813194,-1.7500273429119064,0.10950601277004558,0.7245453870061119,0.34671371430103953,1.0856941980029677,-0.5192391261063521,-0.3256039092381491,1.4126538111916158,0.05738768120562152,0.327847371080697,-0.17812665042674955,-0.9441364271430561,-1.087039760105517,1.5322387980590026,0.427747447082581,-1.1985605709558242,-2.2280937181344425,0.10287272911439442,0.28641569672122175,-0.40122296050000333,-0.5301193428149855,1.1092097440555446,-0.01130046297887193,-1.1793594412552828,-1.0072155422134712,-0.23883318861120428,1.116273549009156,-0.7483505678891473,-0.855025165875849,0.5988220601608082,-0.48304437491235785,0.9838620875733368,-0.5354704768009758,1.7460404916438146,0.7178373038223645,-0.725845568044204,0.07231875087710352,2.195672653232042,0.17388369020986633,0.4287136426483303,1.1137607220816663,-0.2740335949872643,0.39535584004693664,0.12899726012701518,-1.3005759768218448,-0.6813098253234451,0.7977867419701018,2.9455867066367234,-0.9565205037907706,0.2509888067842888,1.3857169095631356,-1.757033279168443,0.12808065184469855,-0.12241333603062632,-0.47636126819285163,0.05584221665143415,0.32546202670057445,-1.4062262580331608,0.3092390329122545,0.2769107807839997,-0.07044475067366716,1.056205070589915,-0.8704071235767714,1.808907390670577,-0.231732090740163,1.0231962057171766,-0.4530047665043263,1.8813414289203723,0.032437424637767706,-1.382989949921896,-0.5511357628957871,-2.085579983820137,0.6399008637232042,0.7530678658343344,0.6374030425895217,-0.7616610770257168,-0.10064136407538644,1.4368049641207379,1.0043479116086045,-0.007464791617663147,2.486614569907776,1.685757291125693,1.383464186956775,-0.6800094935464853,0.957982412432545,0.7151617845573311,-0.4348589463627191,1.403609649595026,-0.4635568993230547,-0.5978194121873721,-0.5988107920755913,-1.2233419931785199,1.3166458641347252,0.988827701150046,1.6416529210940694,-1.5476594474219443,0.40187874399827167,-0.5560761383172182,1.5248554939692784,-0.7263580071854934,-0.21307984437488028,1.6944546677515575,-1.1807092343966805,-0.6546415774546804,-1.5896946478725593,0.5576643624623413,1.2779548578742808,0.29016916560190487,-0.552618101446269,-0.9863971010246013,-0.06724165926456811,-1.193666235219664,0.2541416356719133,1.4109902225239026,-0.679625786440123,0.425508444100862,-0.677622556245527,-1.575274499560727,0.7241281618417917,1.3116506319939227,0.27333533923412495,0.49431321904412495,-0.21510572272599288,1.2650296844802238,-1.1969655052637838,1.9497104232582285,1.103970419150675,0.049705949584277584,-0.43477352270041375,-1.2256129440794024,-1.2243301324251268,0.1844760262199492,-2.0289434169203453,0.7658548528812932,-0.43223357635433474,-0.6487841616641339,0.13750382471288997,1.157659236165216,-1.9907769454990538,0.25474598179836433,-0.3278629575206642,-0.7187572604542575,-1.4226904121194404,-0.29568971029652785,0.8908444168606857,0.8325652282053174,0.6619681788120836,0.9855769400241076,-0.33207248283430063,-1.304547716003861,-0.44706078962559465,1.0056925186883254,-0.2518040363736957,0.8674832705916978,-1.7138954046472699,-0.15270363139590268,-1.4187188157158745,0.30492054924862666,0.24170551307599172,0.03526453057939276,-1.8634949086838337,0.5330695534719253,-0.3573574842415864,0.7514513235491652,-0.5702803931087707,-0.499063264321426,-0.05991527677333961,-0.40596803656178515,1.1883229059153666,1.8511179774602045,0.24854994757062068,0.030516944274298137,1.596139857231959,0.31892395233403587,1.0802689985041631,0.3729856802805862,1.3727652836230255,-0.6680689906561977,0.14951956292033686,-0.15715274706640772,-1.2337700224422912,0.3827079576465196,1.5995238342210663,0.8627807757129299,-0.5452706405724456,-0.811975218517722,-1.1703722051341923,-1.565247167877428,-0.7052894082452895,1.8655558212301069,-1.3528805536006476,1.538535582447089,0.030336950581130305,1.6117246768826194,-0.4840742811548446,0.2757589841728926,-0.4097909975046607,0.7894676650891802,1.6916215111423478,-0.961680648039305,-0.8275727877670378,-0.059102720842666004,-0.5109241681338021,-0.39611175728218534,-1.3668723468225699,-0.9359190040175729,-1.0543910590541914,0.47790885787581555,-0.47061024649012856,0.20288205753863672,-0.4147128442133718,-2.148196266637159,-1.0787837808508047,0.47741814544395506,-1.283164553701743,0.6532415275658506,0.845132847149626,1.2093805123174546,-1.0482930441667735,0.28466408380214225,1.0357721790939811,-0.32654221455868915,1.8480624739321319,0.20449920229667465,1.0149521244973736,-0.5213026850844181,0.43967688771084185,0.8943548514210891,-1.4420910718173434,1.2308616482615957,0.5921675461566729,-1.4736412967819559,-0.5517238171002653,-1.5341614431690962,-0.9113192761567833,0.5049388110149275,0.16167208119147064,-0.69513855800377,-0.5927704708424076,0.38865757040116733,1.542974943102465,-2.6569359153903855,0.7063786598710501,0.11853851300882619,0.41020765614544613,1.63195094417196,0.6555276498303422,-1.2295900238653552,0.3574300217229048,0.15593031755303594,-0.5286631846547242,-0.8583884735366053,-1.3497335029432151,-0.9729227294032011,-0.6046971835885184,1.9073928455448668,-0.02007230311836201,-0.21280958673093914,1.3548989783815193,-0.1994530469866657,-0.2749084605489618,-1.5247565190672496,-0.22685153812081155,-0.8698119608119869,-0.4241795659959055,-1.3147370398663292,1.4665576844471109,0.004040027670416245,2.580386406973958,2.1146609739936584,0.2324591094297567,0.5818608134549503,-0.5342772405194893,0.28579151304845823,-1.0815312488931834,-0.39012960061815477,-0.8538866518157916,-2.3587393514450565,-0.3741406069241325,0.3095682114587791,0.8030362486487733,0.26858617491349224,-0.10579306532560524,0.9231032784173391,1.1730166718231934,0.5788938099150095,1.6411263052576717,0.32686209889495105,0.5761484681521919,-2.460415948483535,0.034100815592086595,0.766240409605212,-0.09509692410594633,0.34097061057751865,1.0097154974641067,1.4949978323051443,-0.5342659876864391,-2.20442429264834,0.6613561049291052,-0.022062711810416726,0.5537540803005817,1.1350593183234865,1.213723325113005,0.06455192839147027,-0.5584824798400772,-0.6869675426403663,0.11496099337844072,0.561958038805676,0.29981962438797227,-0.38046115865607993,0.8036569900786209,-0.3502853369875499,0.14513896068629728,-0.5680299328434697,0.5962929447071335,-0.1544061186261869,1.0965899207413938,-0.6589549623844763,0.980762444845883,0.08854894805613231,-1.4721213936166193,1.0036205408962477,-0.09027058888298392,1.3580732693843691,1.0326844260295434,-1.3782443609636608,-1.255415677267776,1.3905893660958284,1.1718076107109199,1.5160808967682156,-0.04882901189552561,-0.4343688298140422,-1.0837983569484786,-0.29252883144880193,0.3250823195008878,-2.3078413584038615,0.05182040021894426,0.12285569511111827,0.06674903747444377,0.250692376753555,-1.1796539373441512,-0.42900850208100444,-0.8716344257540967,0.1889871229669159,1.5740994872656997,-0.7404002842634223,0.5242135351444718,0.16300748387276037,1.4088343028032777,-1.411072195941198,0.7822456933490518,-1.4467871170731728,0.33472351068354733,-2.2245706817812176,-0.10897416624177887,-1.6319499272059554,1.6584537445131369,-1.0182517542664535,-0.9386878492563687,0.20044683010387984,-1.4909470372391087,-0.8093190705024876,-0.36984058114430624,-0.8798318381181496,0.8367719344428961,0.19130541165449697,-1.2269362139302893,1.0576655629535017,-0.3337421404064203,1.3018985241132597,-0.7189928970228514,-1.4468783099742426,-0.40489608946050154,0.8756777263311761,0.31920990692463175,0.491833358196395,-1.4180320984294343,-0.3477845557449809,0.29244322326519717,0.451381556905928,-0.16343346698879901,-0.23921861956854945],[1.115514339388649,-0.09822108468239692,-1.0182430820100459,0.7015571392211072,0.5524233378103054,0.27688891264527765,0.4515425975507214,0.5311517601293378,1.0191728839855014,-0.8138431809447632,0.6410276185051493,0.19338556960012881,0.9706813779381918,0.9010333041763092,0.4060654619529135,0.4181964243101944,-0.3105513188058464,-0.1778223365434981,-0.028262312077223718,0.2432440800967158,-0.2618728505513298,-1.3453869229759,0.18318363804816898,1.4068010617126852,-0.20809731299806108,0.1238299264620434,1.7334163792387416,-0.0020921972758465622,1.0552400927915841,-0.002817025663286496,0.2986384997749829,0.3480473971606658,-0.9753894387210246,-1.1093226422921754,-2.1303025613319786,-0.926141717118597,-0.32345638957632133,-3.0310889442537743,0.6119067501260924,0.165263904531963,-0.0536862009389297,0.03420478707867947,-0.3521662275287414,-0.10407606113709668,-1.9170335996573817,-2.357713218113088,0.4315057900471043,1.0606219628509974,1.2953510455089026,-1.0951086715017118,0.4141175355171344,1.1016119800152193,0.7373788056171828,-1.386797326888552,-0.8399841368073279,0.7815670515999235,1.868784411127844,-0.2775370858801853,-0.6703068824581659,1.452487804068365,-0.5314211874464694,-0.6268715084553356,0.27308410904160824,0.31410982719986325,0.47998429137639,-0.04142380754856469,1.745053645098303,0.008591608751646657,1.078600591434182,-0.22978006609451584,-1.3926829887252894,0.2622085558570702,-1.420843433427662,2.275847399137714,0.6264311342225706,1.8886979740401746,0.30776034325375795,0.7189164027168059,-0.22629739279348027,-2.083040153176448,-0.35639553296065435,-0.8648811507151388,2.019738424329162,-0.34919358653575533,0.8043616588722003,-0.32757245553609743,-2.8108750211490765,-0.15376597387726984,-1.17838010805028,-0.2980829860566573,0.9494777703419719,0.7330555552827358,1.3676845195858072,1.0775412636331219,1.8718737894910566,1.2690824745170122,-0.10176474884073913,1.8228238987044536,-2.7261224127322294,-1.3859991545244865,-0.4863210173656129,0.3463073947708907,-0.8983905764394381,0.6466532298630358,0.2841452925267957,0.8517646500297019,0.32562676864656376,-1.1543717681042045,0.06823975623948988,0.3760211232361077,-1.11187067306044,-0.18568919742120252,-0.9233640392502084,-0.19287626593478066,-0.31057108459360455,-0.6402052788206634,-0.8023799361617806,-1.583445518621845,-0.3676635471618217,0.3634298350567003,0.780347038200941,-0.7696593348358045,-0.15679023150631852,0.09922569799874645,-0.6660529251922324,-1.1401115339023842,0.7895648813098393,-0.8704466320111588,-0.32541902535891254,0.7640357288650962,1.6501628227615635,-1.4744275742313144,-0.597468028992343,0.5799501904363682,1.2333449846691786,0.4513186106617812,0.2857791160764449,-0.08243072677560402,-0.7893212753436256,-0.711421237996454,0.8979644242108055,0.5742782080122778,-0.24338988340844867,0.37465698703662953,0.42251889359689093,0.31752833140892106,0.7008108589564411,-2.238654158646477,-0.8711691954096311,0.5725453969055735,-0.5057323218876804,0.7273976747571104,0.990328188487677,0.11990707170948284,-0.335823183214563,1.0534301129034929,-0.5744875850139127,0.6442231829852152,0.5742305966546453,-0.03224354079441971,0.3950337500993237,-0.5302673260433739,-1.2079854968571175,-1.0678269620842973,-0.048240909220897195,-0.7001899175562318,-0.08408217163615148,0.7590892569113382,-1.9299751027390952,1.0006598977760168,0.7927223387244142,-0.19163933042215175,-0.7832485658081489,0.7089988983527976,1.0057385844501903,1.559941646823304,-0.9747263679330872,0.8150094888156735,-0.08252960080241206,0.4798929797960094,-0.9826074976390833,0.9292294042053547,0.6436289050984165,0.047605972785618296,-2.4143852585146637,-1.920256846167102,-1.0244822814438717,1.792863832900015,1.3366350704246857,-0.9952411010297261,0.7050490664150002,0.17979365572959335,1.6537432186454575,-1.1264665408618206,0.828225147903451,-0.270697054988496,-0.42977905456177296,-3.1072448817547778,0.5362756295014517,0.033723729962603484,0.1941682819562467,-1.1166205140363725,0.08225927092447907,0.13116626370871756,0.8467601971891052,-0.7949039599519659,1.0759320625155102,-0.47318521597676827,1.1972386034539357,1.3715474455600045,0.9328384886389193,1.3092397307366286,1.0526470673793853,1.0191506289812047,-2.286758218892737,0.7916850202493954,0.8270979675404893,0.4889922533625353,-0.003635509722960429,-0.22026074748904828,0.40489204942873674,0.2407209459530612,-0.32543813994757653,0.8830458985954971,0.38087705433560254,0.7799238256898186,0.2204442137947632,-0.024489387253059852,-0.7749481781309475,1.7917452874146762,-0.9330046632254455,-0.5826003335334012,-1.8989301821974855,-1.5521179991288294,0.2967870286634246,0.3115404327302096,0.607379766105468,0.74962339931638,-1.3577761329517501,1.6685113283335073,0.5100565975144172,-0.44234135357811005,0.29025856676251377,0.29862268809555353,-1.2012109816216272,-1.2620688372000344,1.7211444036694572,-0.3040558145077843,-1.475785816071747,-0.23643554135121236,1.467111901466597,-1.4741573001311938,-0.5065056893522638,-0.23920925242003963,1.1808106425571794,-1.933896903271433,-1.0123409037433018,0.9916254524159148,-0.43167893268290375,1.3890464970340668,-0.972490614057312,-1.8951909960989022,-1.9118587088551984,0.9318358238550668,0.19498550695416467,0.3969424930871025,-2.238722698252293,0.480638987520145,-1.0462237780838388,-0.4416108633874141,-0.2640611148471221,-1.4825022781541397,-0.4063214028321332,-1.5164897665586918,0.6604775519169482,-0.49869693268858306,1.0956706953086575,-0.2897665223581489,-0.725582577354573,1.2676018001386484,0.77005293041322,-0.43817127913372345,-0.3817778320599092,0.5403127603318831,-0.33501802433056216,-2.6415817230940912,-0.3440656828378642,-1.1075374364172057,-1.5547325504929226,-1.1396602993699092,0.498516646052568,0.2683473385915275,-0.45617684192104624,-0.09661782235093466,1.421799980262055,0.002390244875471843,-1.3985232356339403,0.9608943019087005,-3.5758281643951033,-0.27698774867857695,-0.8085138685100116,-0.7238402091736144,-0.881799779116308,0.5738314651917861,-1.7942546061057452,1.7058678973386072,0.9143142582052322,-0.4024086480213481,-0.9553235576926242,1.6030538982426126,-0.42576591032189665,0.9775313497199379,-0.4595333412427452,0.48669773849032766,-1.195752855993424,-2.0386439749543674,0.6481193255390446,-1.0288254947570814,0.0082277767420508,-0.24501639836423048,-1.3565976192223779,1.3009406674999422,1.128721709562064,-0.14248595819033502,-0.08125220302038437,-0.07864895565097621,0.4085441376303774,0.13156112643011011,-1.1426165329872675,-0.41343441008612714,-0.44529155157557687,-1.873646865753447,1.2548868106036206,-0.373655676135825,-0.9510744322203222,0.2970844093990084,0.41881109512315656,-0.08123922542158513,0.5491620966439648,1.3155171824620389,-0.7198301801239326,1.2641009364618605,-0.4337155138411958,1.7021704778811853,-0.44670607340628765,1.1392671443917408,-0.5733133298056049,-0.8644019143986823,0.9706182453731337,1.7605446429984992,-1.1858072293273882,-1.0403541530284104,-0.15443525928084745,1.3028322335937468,0.8424098949601619,0.4304282095881979,1.2749900313087887,-1.5367392207746067,-0.896881414176547,1.5705490920534775,0.3992750122715011,1.5694943300199586,-0.9466376026780312,0.4944050446729258,1.86306820485685,-0.596400906789451,-1.1782337997162344,-1.0137400883829955,0.5752634984084237,0.5585305779577132,0.452472406833729,-1.0093211406139961,2.32435001503361,1.282344547254626,0.6934239520005513,0.19167441934771418,-0.29400240005768064,-1.0066536262876309,1.0545434507227383,-0.7754221521280371,-1.0397982895055367,-0.9162339233079158,0.15341673142333603,-0.34824639840895016,0.22062776435066356,1.201715523467089,-0.6650827322213019,0.5304901624392236,-0.6481533747062093,0.022081890725512133,-0.16020706341297578,-0.24260952573050323,-1.5016432651519123,1.4861967555698992,0.17657632419745586,2.600947485715164,1.1448028590496842,0.6469871533160314,0.48151479615765524,-0.6472303586986254,0.022147051835166888,0.28709208430652383,0.26046368256050156,-0.23655879836260169,1.372497030528293,0.6362232149889036,0.09746089673679197,1.9413061072504751,-1.6444653821783395,0.4410543214133448,-1.0852504340141065,-1.3381418342494054,-1.5829566994163897,0.26516109936374127,-1.174988876659738,0.6487477719902256,-1.9878587440455273,-0.8427859725446054,-0.04250078336160494,1.3718014103081329,0.6473555866968888,2.3194635522780818,-0.4028833286362508,1.1121679013697834,0.9422187113638794,-0.5864128373974786,-0.4940281770758936,0.27729582012742743,-0.44812767553940946,0.7686519778488821,0.957121560071961,-1.3312477188578828,-0.35669415777546587,-1.7197415794722841,0.34331597245085094,0.7376166761703812,0.02029828490964966,-1.1519279919661671,-0.5824182433224885,0.5460154528080349,3.4737857076868077,1.0197122863030503,0.8863490337012438,0.2869890384055866,-0.6886203714110845,0.9215235630896886,-0.5304612958101208,0.3298327040526187,1.8984553650767757,-0.13791942432076987,-0.7948626300315186,1.030986174205221,0.8155765138615627,0.8190973439902608,-0.8448229197196648,0.9797017917595947,0.13806948462135243,-0.6757776562009734,-0.09744898261632388,1.9097222352654544,0.552750780154104,-0.23407265232207974,-2.6818473718686135,-1.2458483897334587,-1.0967396163770453,-0.2398082634240412,0.28461441724828496,0.45409143196170804,-0.12883305725820535,1.5459174412032988,0.0987757318691684,-2.250467895921026,-0.8346200973003661,-0.44237095925616865,-1.149616613996953,0.3489165766466509,0.8637612550286774,0.5934027192207489,-0.2673362525977824,-0.759604654162086,0.23016365227058944,-0.10103196947320849,-0.12229545944764733,-0.4766487089925874,0.6720057504727928,0.8145973035594904,-1.8917929378766454,-0.8756193068961656,-0.9027190779920933,-0.5688971410560325,-1.3667235547020269,-0.3021809405052842,-1.469082079580002,1.8984576187524138,-1.4065985820730909,-0.49270069040518855,1.4547240881229735,1.143008137441915,-0.1381714080865566,0.27579918162664613,0.7965669886596486,-1.6415981107787732,1.383819887267131,-0.23226363651871937,1.0028618266526408,0.09451958019901475,-0.5262292890198587,-1.3703015952477993,0.12284887753950896,-1.697829107249214,0.7695094417373833,1.7513705493095095,-0.6095623431448699,-0.6775388929345683,1.4354995069140162,-0.9898473157879616,0.5119125015957168,0.10875778215954743,1.0833270514298656,-0.9407742028834961,-0.34649490547392287,0.3342398966897534,-1.3047210187398857,0.6306153484739634,1.8533621241532967,0.7824025384574542,0.6032919033237649,-0.5997508671257537,-0.3442609047894693,-0.5421789897315388,-0.21816764998969768,1.9196313394765026,-0.3170057196786364,-0.28479065777713525,1.5026675915145702,-0.9758921268387716,0.48190610542205786,2.0700156613482203,-1.6016578816696248,-0.25124123334234344,1.8982463320921776,0.46688873864916847,-1.1229085285647162,1.0008765607202894,0.7513420122593014,0.49765199553778894,-1.5674918588237114,-1.7784715037248946,1.73094620006357,1.3719685298623578,0.5088339006677643,-0.3081735968036339,-0.16102101104244423,-2.506150586091921,0.8595081654944839,0.19146695608185893,0.08944419768463266,-1.472304682788852,1.4547486318597898,-0.16621348125797242,-0.6110731768067608,0.8960485148565084,-0.8671937191796251,0.9170287284458356,-1.9642490484758757,0.8393511057809893,2.537381989067747,-0.5804282662454084,-2.430019398509371,-0.7753108336470839,-0.26408756794833216,0.26561692124989933,0.28769479864942127,1.5993693471129444,-0.31427288027025396,1.6837160097906338,-1.648628989532623,-0.3139749101940528,0.3474369750746973,0.19486989720867798,0.7532801640809156,1.0615501906038178,-1.5188336910068096,1.1807436380753904,-1.9764020577199768,-0.32421920430735296,0.3423658785560386,-0.378951961004309,-0.6698110468495609,0.22749305993132327,-0.5858527494806854,-0.1131811351925108,-0.312599738028744,1.342692670363811,0.04815307472689556,0.9763991519377127,-1.0687786187891575,1.9647816168073324,-0.1532098310267244,-0.45513154443881154,0.23075376960647137,-1.4527786935547098,-0.4732335545933534,1.4654813923653212,0.6308296433369861,-0.9594362410541472,2.143404215684848,1.0471688684829248,0.14445881512555683,-1.528943123475641,-0.19470867007389356,0.6066422518937485,-2.1517275470552946,-0.11159650694919133,0.4445407465982731,0.6773179869153072,-0.9335763391736641,0.23989905863745947,-2.049066192923473,-1.0475407136674209,-0.9183978442106919,0.5159885902437534,0.7454381517857894,-0.8792173375355147,-0.6324598140383244,1.3110657827284198,0.06224684850534812,1.2255162512366637,0.27348525525419487,-0.07664463775962403,0.7243536597938751,-0.5057427350038726,-0.8726474882760509,0.49203989312767465,-0.42670905798740416,0.13466746369312324,0.1852428659493695,0.7665069794472765,-0.08884768759796187,-1.4072190150648902,0.6342628750759446,-0.9509419227038202,-0.4792309149319742,-0.09094469869844835,-0.8217473650117209,0.5242506463127231,-1.968660486329838,0.5803058521626632,0.4076375991670191,-1.572628072561175,-1.5915507525535628,1.0674713606638144,0.6101200167917684,0.4116346423222295,-0.8805673395327416,2.4351253862893194,0.44978185983492247,-0.2765927827498602,0.2955234325340884,-0.8198715355700905,1.246928112598123,0.32512773435314407,0.7617648546653798,-0.6072706050505469,1.0996563271378001,2.1375552049455826,0.9841534881483853,-0.8440355823589543,0.6256458016465949,0.033491299458129904,0.5125190903990454,-0.3595617898835532,0.6846945843706504,0.12387337763862495,-0.7149806949140861,-1.0789504380210024,0.3896251503167122,2.108806037963354,1.7924103207434716,0.4839563312166351,1.3384276988640926,0.2116098825268709,0.5826069633655582,-1.0306082161852552,-0.5687222038220292,-0.40607168824130785,0.056131003622079956,1.611746564997766,-1.8966097270939057,1.6483307017751956,0.6039115719065798,-0.9098411600056817,-1.6140824982810436,0.20426339396930632,-0.8727798523139118,0.4049411938341542,-0.4661585356259539,0.23354777925052636,-0.41604338122673135,0.42236088765679586,0.13787103292155084,1.0677765577802822,0.13955914370160233,1.6485969353894043,-0.16648697654516048,-0.37056959698436237,-0.8057565462783076,0.6680908377819054,0.0142277953741763,1.9691051234453407,-1.694313883666381,-0.4884255618993099,-1.4763500023646137,0.8681751402005756,1.9322936956265995,0.4715629066929648,-1.4614670009229491,-0.1495753511854322,1.4187604371686695,-1.064794972662123,-0.38833349805895584,0.5717056511136248,0.16891454739820902,-0.038981969364574355,-0.7817039236771881,0.05874796531072359,-0.6721235576866758,0.42449431280503136,-1.559602923943406,-0.6244853839639438,-0.5364471921487315,0.7075388865452086,0.503990855410022,-1.808054151612645,1.3343205976371684,-0.2417300240269995,-1.0229655980840002,1.1708367843420537,0.3250770574693023,0.49410591859848063,0.4342437334782154,-0.9167184740336474,1.0163570910152795,1.1078068354235975,-1.2320433991446071,1.215701003536074,-0.41387828926993186,-0.7181797304535239,1.4286517766840623,-0.35945348472421723,-0.17382842671864698,1.7172207411223745,0.6408090639758349,-0.20129520620280805,1.903296640833897,-0.760802126773664,1.0672437299008344,-2.0149197438535467,-0.6637586674345479,1.4491460876264386,0.8995391166973881,0.5912783448112005,-1.9566097995701461,-0.1964325393255305,0.3200656304729984,-1.404492475577328,-0.8998736026192634,0.8024298765482833,0.30909493363367685,0.8015961368756723,-0.3480716595948593,-0.3576650380043166,-0.16769154929077834,0.4593623167398253,1.3898402145504796,0.1396837330732808,-0.05042321064600216,0.9801918046751066,-1.0098369625605466,-0.08671969085709091,-1.7271761572644175,-0.6951998303543258,1.0081169072310638,-0.03902222909890857],[1.1867292413592931,0.495523657827452,-0.15448981069719822,-0.9878387147303801,1.4182162883320075,-0.4214508255646066,-1.9764361021405539,-0.10659453336558175,0.40050251466482184,-0.7967067466132358,-0.32777897529183697,-1.156545372267049,-2.157701325604379,-0.62304232686075,-1.037057243772989,-0.17685823482742313,0.18077018608445544,-0.7544686178061792,1.2457340573191171,-0.8537925242296072,-0.31338993944010574,-0.8639829700674735,-2.709804455095679,0.7185509384989271,0.5429562614762851,-0.20364745645212332,0.4597139605843884,2.197364216986602,-1.1407971054253214,0.22969872220220802,-1.891465713118405,0.6499802199004305,1.8078034667848073,0.1477076996977196,0.9044532858343186,1.4108979762002778,0.26988326273933444,0.46267012153836967,1.672901745905434,-1.179729144233481,0.12104753831910992,1.2238268765169817,1.2297846399270016,-0.5630630986347414,0.13649827707543133,-0.6602592346993539,-0.35622711596441825,-0.009386093373352432,0.8525620755321169,-0.9767687560982334,2.1738854804158745,-0.4816294033996475,-2.182023024721944,-0.5515838388837092,-1.2015283247852284,0.7201651488935205,2.356309161659693,0.5797791491253854,0.49574904339565573,-1.5101606419433424,-0.27216038186179475,0.6912402562427206,-1.2663161670549694,-0.21603131072381115,-0.46556653800035014,-1.5448997856066786,1.0712180466901888,-0.36215359732053337,-0.606921016165236,-0.6876911700636905,0.9669769547436319,0.715134771861304,0.7391266879609203,-0.5869733328095685,-2.0801356762202428,2.7429371771274074,-1.5835496782464142,0.5376882091507907,0.22676812888160203,1.0419520110819893,-0.5963302345149004,0.22999744587719148,0.5276572395429452,-1.5333547651435622,0.2816563601758047,0.8769574887041246,0.6883044316969007,0.8896010409807682,0.6209216083802449,-0.4068114857949976,-0.0012910285222044638,0.36317037457945656,-0.1276599743484914,0.6502662450002228,-0.09896344101131965,-1.4503683266637364,-0.452811645799529,-0.7001336434085675,0.32040822741806646,0.5099999535878112,0.22418404016882804,-0.6576417973158789,-1.3773761239201803,0.5979298385418866,-0.20272870530613737,0.12133195998542902,-0.307973465666856,-0.5978634594365007,2.080464897403739,-0.29026304421932053,0.44875689795343654,0.8573677107101999,0.9669696429178883,0.25235850363874607,0.19358974250943556,-0.6009198477577099,-0.33802166690776564,0.22699144258608708,0.1376937907156743,-0.28770324011357595,-0.14430390159082873,-1.1232195617474576,0.4278156106339864,-0.0977042288562734,-0.5651523762049759,-1.33034067299904,-1.5638583655630895,0.7006466210120449,1.360664453335501,-0.32792410223719604,0.51995250345569,0.5466752046544461,2.1842930656199853,-2.543935949040254,2.329360845473712,-1.3695733030616684,0.6121736322463861,-1.0633087323630452,0.1392951861248294,-0.5045847105995107,-0.5370361462571395,1.1104261826727173,0.832287000646123,-1.1465219493503434,-1.3144815281623377,-0.38355430060040485,0.7207785125954542,-0.6654804577816361,-1.8500423719164507,0.18573335431114066,-1.6916256257427655,-2.3637875327487676,-1.1122702342238877,0.3033468935373275,-0.27959410443928273,0.7874845783121949,-1.0043263480699463,0.6140884593334734,1.0230390786398689,-1.2979586874572977,-0.8045874661586041,0.3541921396774133,1.2123942814034354,-0.050190324899890844,-1.0617594750881278,-0.4714770974675044,0.3985958674667371,-0.20637616091988378,1.5069860128447061,1.1129893661152894,-0.8350762192476087,-0.8224787353516174,-1.2875289783612085,-1.7287514771453785,0.9618341626410584,0.5434905317941406,0.8679790207851231,0.32076998816497204,0.4948958601305785,0.5817468985036681,1.2120736195376511,-0.8269594330594511,-0.30566588284313967,-0.3328898262095921,-0.1698462072838901,-0.30566806369791544,-0.22296714439748652,0.1310473445625762,-0.6684474329944925,-0.34542931404551314,-0.21616039626450048,-0.43928355279686987,0.14977056143649622,-0.8774798684917707,1.8908560965233954,-0.5260252449262078,1.1995258315127515,-0.918805979090444,-2.482256882859793,0.13361428735928566,-1.3447525887755136,0.8571724986287658,0.5971661254061904,0.5623698942261289,0.24597628006345662,-1.1507435397726926,0.3057080934727481,0.3195051685445996,0.19815274626985302,-0.019445445686303582,-0.16011935321629261,0.9156682315785891,-0.16838770535094902,-0.08668097486801682,0.4120021267757805,0.7786268480321958,-0.6082864218247426,-0.2395845401991907,0.219457627256929,0.06849905264061926,-1.858892867503975,0.4722414586770217,0.6947283830113884,-0.9485221324525497,-0.4416633251990599,0.5541104526027798,0.13388408106698893,-0.00503821392360665,0.9796112267058052,-1.0338433968504777,-1.1305608311329611,-0.3124154787467429,0.21085273282769715,0.7010804251055324,-0.09128975474462914,-0.8398696187416962,-0.1621992191249665,0.6391504455111782,0.7126481781988219,-0.3405884003114633,-0.8896707493020618,0.07360758814919113,0.7281433804935609,-0.44082182695045213,0.318994335187332,0.26442832081031037,0.6765160596188552,-1.2868183517271,1.9263843035112795,0.2700788940446638,0.20086497681230112,-0.8017393600739415,-0.4579953451300325,-1.0831127667409226,1.0879450975661886,-1.5124497730278037,-0.9291250568798037,0.3048862823951848,-0.2257712920827168,0.12221917500055304,-0.5125409254742384,-1.3742256350892033,1.2258716119705089,-0.8794408142944627,-0.1570739969061056,0.5435808567523608,-0.07657140592062141,0.4590414391367792,-1.5868752405292834,-1.1254104453177116,-0.10770469499715399,-0.5829786137100019,0.19665481945736366,-0.7067756761468833,-1.557667390683748,1.1663075994003618,1.4599176580672972,0.557947215966471,-0.07425859544151314,-0.9475822403424838,0.02162159680397375,1.1845405495133503,0.9124716283111164,0.9061295572795726,-0.017148461259209997,1.8539599351205096,-0.654578885377258,-1.8411030479586137,0.6967285899355884,-0.5690491236063067,0.5078004302519985,-0.08778845392671601,-0.24764320651412325,-0.12014804077452212,-0.006494585406793369,0.2749712017955308,1.0540671346542791,-0.8912833713084674,-0.4960710286931231,-0.474912859755555,-1.4932130820694816,0.009867363059041519,-0.30529892348650395,-0.3231244622857317,-0.893952109948883,-0.859351167029886,-0.4147466822481716,-0.535389852054238,-0.4776286313666433,0.415487768034539,1.908148908331397,0.128954132189794,2.071341181637463,0.1174123419469866,-0.5370006663849907,-0.6924262112464014,-1.4445250961115685,-0.8695591188976793,0.30059679828361,0.38139629966757266,-0.43711970772351694,-0.4725935365723191,-0.7298690671983751,-0.039442902764248985,-1.1268431444719227,0.08934639404353865,0.013180081492197142,-0.20943885139709204,-0.19266058836736022,-0.3105137166182482,-1.3631241088820907,0.2326774970446695,-1.997607345743929,1.3130078702672467,1.1224235236432736,1.1390662525748367,-1.2387770487483867,0.7220473980060762,-0.7624560198354653,0.5879550499985844,-0.29683957896132557,-0.2650851233437238,-0.5008959549867287,1.2453502511168215,-0.08370352572797453,1.2273709496470548,0.3005701175391201,0.8034959784214107,0.4023436271562508,0.6935906532837841,-0.745078516251259,0.7800449214076343,