{"snapshots":{"0":{"biases":[[[-0.7769307038851943],[0.7981124271723748],[0.6690971409960075],[-0.09606835943766792],[-0.14638586340955886]],[[0.14800291288887657],[-0.4445619554577284],[1.0786928576702823],[0.2921660974321845],[-0.40438137871550583]],[[0.38048477991472046],[2.0082206261660653],[0.7410161303071753],[0.031924359422792474],[-1.306669899186298],[1.4782143795904477],[-0.6783773042726673],[1.2376788106678651],[-2.346254750724459],[1.646250865821167]]],"weights":[[[0.04763042613697997,0.018347923909697503,0.06149149839112899,-0.007235575825517188,0.027812628161456094,0.008607652600966272,-0.048322285538426275,-0.03537420583833772,-0.03202640364969269,-0.051404914743196535,0.061824249202892305,0.008765801724604196,-0.00006747726023704867,0.039755176397980936,-0.019559571786547773,-0.04485338966639587,0.038844804259104755,-0.025356708479451307,-0.030745242887923206,0.016177097847577683,-0.007976920291795846,0.013879031335803222,-0.01867330916402998,0.015350315390824543,-0.01241389348610389,0.09952217983831131,0.06338332494820434,0.058618253501661735,-0.031425815953172696,-0.03925184520237347,-0.009638387277211186,-0.036341445417528886,-0.005499648438385594,-0.008586733410439019,0.01368254722214571,-0.019730733245755888,0.027281572878092127,-0.041641903262967114,0.03496388040520568,0.05222182982461508,-0.02202201577612015,-0.02735889145247438,-0.00048134864672174515,-0.0017904811382764788,0.036593264293769745,0.01610728187546922,0.009180447843923977,-0.054207324661258056,-0.023674521027233247,0.021780669477076794,-0.02322373734284922,-0.03128396888937459,-0.0614092305945827,-0.02704379128245605,0.0072687959898638885,-0.035759875306873745,-0.01042520649836222,0.002574540553949925,-0.04735195091327884,0.08535953740518833,-0.025216514171687892,-0.004068060715315016,-0.006240248865979965,0.028734728995886954,-0.054619321835418524,0.00315010052053059,0.04339564426558586,0.045752601069245315,-0.05213878751615291,-0.03783877880505678,0.06839336432230367,0.09104176212454433,0.029316297538856072,0.03578468909198164,0.012119561410552529,0.020534907868958906,0.0045232328833166,0.0020700217552271057,-0.010127519492512288,0.021649849768636216,0.014216389997028721,-0.0564970094999304,-0.016429965238078346,0.017769879900765933,-0.004141622219935494,-0.0017974732326569846,-0.028068799284280826,0.017166873409987442,-0.06600691072305988,0.0330089843640688,-0.009496632804289659,-0.0364671377088759,-0.08578969182858416,-0.02701072443698105,-0.009818107798010591,-0.07289807048097138,0.04799694255002306,-0.023830715822288323,-0.0030188174289156626,0.03790560335198458,0.048370708533840186,0.008251036734431108,0.003304151204172497,0.004462789640839955,0.0020115551615054648,0.006137493765084201,-0.017713061424084457,0.023922519704291368,-0.013909122418352566,-0.003672313682582058,-0.11059787396998487,-0.0015810670194708215,-0.004229170946603953,-0.009186799733721177,0.05881008505596267,-0.06561622477759564,-0.03594985124309503,-0.04551682734489711,-0.02350399321632291,0.03868097647813638,-0.02276644251328283,0.041350932900092376,0.05078391965322225,0.04060252512781004,-0.017375937206202976,0.0367896928786562,0.018418209501201894,0.018943562621383074,-0.020862850475298397,-0.0074400471033201935,-0.011150752511404152,-0.04172316955914597,-0.0063106731139861635,0.052737567417924756,-0.04780047350803658,0.011946385136719336,0.011291100690698745,0.01186018685868806,-0.0026955535711297614,-0.0006281002632548375,-0.014232681189456553,0.019820640048081685,0.018712328394080675,-0.00913452782794591,0.0568342254415648,-0.05064845639202719,0.025254238123612476,0.014732232392592718,-0.014722077573274997,-0.04890264006327929,0.034260536188381735,-0.03699710345869557,0.023338932296776024,0.061691581283532936,-0.06314877217224217,0.005397094979076151,-0.0227094682949246,-0.021182732958753066,0.004005348515692968,0.03313335932515902,-0.08299973588193839,0.05080762951874468,0.0006894347670008876,0.05009681349100261,-0.05829369298183947,0.01491344308733848,-0.04507296801198278,0.049267303026261054,0.03628748220801819,0.03091556687876908,-0.028557098807186983,0.00525675634787363,-0.06938261200224387,0.0031917217367975308,0.029049319277855513,0.029335724672736728,0.07486702345575576,0.005680054989257595,0.015607401107182459,-0.031584321613345505,-0.0256455456710702,0.018208638877598098,0.04519221891821205,0.012064351320628877,0.008970176652177638,-0.05125576465022525,0.0325379404363585,0.02290545715264624,0.011913154204449621,-0.014320955352012527,-0.04324745703665063,-0.0510206246670819,0.0031084371076305598,-0.07343234564960385,0.01838243713422416,-0.039101993678544514,0.016083149526800334,0.04889661095621022,0.04475889686533994,0.025038055446749106,-0.02697021499388211,-0.05437656666726822,-0.02833450978076176,-0.02665592153068613,-0.007852772045129698,-0.02648221690376329,-0.011810358800257308,-0.038106111637159226,0.049776950410085785,-0.04564901288888113,0.018743701547096047,0.010030614084977253,-0.006593151612198092,-0.00996281751520535,-0.004480909786877338,0.02149443467020459,0.0672044219922109,0.034054913697407076,-0.005891200132668887,0.03789401855750043,-0.02558582503553373,0.020768948972994906,-0.02802688767054256,0.03465079683752861,0.032251629197142626,-0.014704582349491914,0.015955129177184082,0.05334726130989805,0.02479501512110941,-0.020260128485566537,-0.02269840315633756,0.02825049812945048,0.045691145312213396,0.018944428381518736,0.00894776583586232,0.03598140034244024,-0.03161131851939157,0.020096997444635202,0.02984818794843725,-0.04186466720387794,-0.021179083652947905,-0.0003985584944860009,0.039299045056160546,0.06930099850910645,-0.009097070219919925,-0.01350321550680362,0.05132520412274712,0.002669665327726932,-0.03433372395065391,0.020621013682055742,-0.005151467867715043,-0.06142568311455845,-0.0394243216597362,-0.024090548317443082,-0.01159899080262356,-0.03537361706338468,-0.031887784483823726,0.04258023041181236,0.014743667910268191,0.010140890213283562,-0.035546942372593614,-0.03260297873529156,0.010699364900329213,-0.019309350143633098,-0.04918092916120766,0.0071287956821175025,0.04148962067270088,0.021473309974348685,0.023471557767074748,-0.05995580261921609,-0.08391677286617989,-0.017688900809623105,0.05547607188405767,0.0030238890159776884,0.0231757638975915,-0.05387384101495122,0.035684044029246485,-0.0037679601957609503,0.0031486604415175085,0.017399114887371343,0.0897089370949512,-0.005308775354987629,0.0049531844098663555,-0.013145974440023406,-0.03327580814418914,0.0006485315100688188,-0.019215792008823375,-0.01611846752398656,-0.06119774543480965,0.10424434710307152,-0.04252076924341103,0.04657650374269815,-0.06679651232414191,-0.02685370732652276,-0.01335109410453335,-0.05154375229008769,-0.037022723460482486,0.03512725231850037,-0.020886854915278967,-0.003254952096311867,-0.011096215116875632,-0.010433411406480431,-0.012932941790519853,0.0016753932718968465,0.039771613162217265,-0.050630950397328504,0.029568077382916277,-0.025658424893649258,0.05071165155202314,-0.014357201769327263,-0.02190792997683028,-0.05016174052787242,0.032485106131612894,-0.011915649784570737,-0.03150988102282048,0.007698671808423706,0.006702480244419755,-0.011962441558396425,0.015161269749570161,-0.006803947822200002,0.002307786749769964,-0.02972647460314683,-0.062113382083480724,0.027092207547664737,-0.07761274374708738,-0.013405500082687144,-0.017048511822163544,0.01468414864969421,-0.04177232724312276,-0.05695075469910337,-0.0014081592614083162,-0.014678640276466337,0.0029134715942729953,0.025416115675211518,-0.01828735156152293,0.009993367053506891,-0.04493866998758867,0.022028947432205733,0.0009306723981376927,-0.03465708007257498,0.036228670436721754,-0.010312688351241172,-0.03336561625851814,-0.0026741841909807894,0.022309428227351488,0.029104047274935162,0.044666696460798946,0.012018342644277284,-0.012650439293545057,0.04442200343435099,-0.04417860133215027,0.05810191333685759,0.01460781317832663,-0.030465872523029205,0.04337422896539734,-0.0013527249279805683,0.012269204854221389,0.013227304438455448,-0.009974240034564727,0.005016789914055411,0.0190910697565785,0.011937785017620408,0.003517791208589891,0.033278049658627476,-0.042602892347525144,-0.03429987688965156,0.009034071707744437,-0.02114632241885528,-0.027345879703980745,0.08270333774319272,0.02372782950667381,-0.008720244525886234,0.016986233072033025,-0.0876666276976431,0.010827697063124872,-0.04200714187159443,-0.013651568545712173,-0.07763669708118562,-0.06515874484109065,-0.026090693560027245,-0.033880255907186185,-0.0011668885561931872,-0.023777582864436795,-0.016160505575563294,-0.0172930329467829,0.03733487431272086,-0.05786465797264504,-0.007397325767496287,-0.05361574543334482,-0.017495029583064443,0.04241382670769187,-0.04027467159142989,0.01616478057189969,0.05992114419003753,-0.02247462426985785,0.013864531910946973,-0.020764656316903662,-0.059946863062097774,0.027799396909165167,-0.10860184662842572,-0.01851830628203963,0.0220720439257574,-0.035594382960175454,-0.002453791746451844,0.015631658505460645,0.007331797870935317,-0.025816418844151458,-0.016807560253051895,-0.04860819847003284,-0.017299616828449483,-0.017170756947559394,0.0012325614764018653,0.03333981129736553,-0.016808062320932522,-0.02489302049599765,-0.09761606384910244,0.02961040974600907,-0.02914752204456903,-0.0671073447432037,0.02631496702299705,0.016052868686418486,0.049047321085031625,-0.011910977538177655,-0.08125249612976061,-0.00024553687155305274,0.005966983963961822,0.045377485475888546,0.03613634436338862,-0.019441049054496572,-0.0030679391865390815,-0.06162622774133491,-0.03499052377064336,0.0262121424180572,-0.029906010933237446,-0.003843720994220727,0.05802222850637606,-0.01437243574244809,-0.04132497264308343,-0.016714099932273647,0.019611613162882516,0.026996291652847785,-0.04848333609915786,0.016107175006175003,-0.02343270220812907,0.00978380588141776,0.034417347136418024,-0.033404833634387836,0.007075452362315432,0.011741479353099868,-0.0681121042163713,0.03124529376627017,-0.005755647591546217,-0.07511853565567791,0.03580426118378675,-0.039827735588404356,0.02515058467866543,0.014701908094216537,-0.021149167535155246,-0.0709123859517537,0.00775540076079084,-0.049332888360962265,-0.03791696901947155,0.024731728272286976,-0.027946517149947697,0.0141642926196331,-0.04671988125696345,-0.003334905866240905,0.05474222310589539,-0.011027492999667918,0.0630698386873095,-0.0449949205129973,0.053885519369462724,0.04153097579858457,-0.02151670650499581,-0.028859273314680082,0.01346104782479682,-0.019922566747608533,0.03847483156401208,0.0200439915479649,-0.004859171035914447,-0.03435968840215447,-0.005960413723775845,0.023574747568165515,-0.003003442248606083,-0.03495288358519253,0.01016774758696004,-0.020656002361448433,0.008335145213805644,0.05201576964689949,0.03616590218531891,-0.0237944854958291,0.04347754782521982,-0.04373562769920827,0.000010505020885640499,-0.0074429136490001034,-0.03485194702782803,0.022988988069112253,0.049411088131175306,-0.013204577764457498,0.01791438035565284,0.01366767131748486,0.009121624486862448,0.031719222513479285,0.07810079517086663,0.048159212952350164,0.011808013854326522,-0.03793014543051195,0.028183341991881928,0.02592429841741086,0.004724497125699737,0.05169567437436094,-0.01394031938947474,-0.0501647238466123,0.024191082423228812,0.05557103082126049,-0.05633190666796902,0.01987428797124916,0.008118999731020192,0.03564273483791368,-0.016960762080370135,0.011665420779369462,0.007740361306500697,0.013135966397434548,0.03786197740791734,0.018026889860826588,-0.0019850987138163366,-0.0036068868464557355,-0.04527781465641293,-0.016487054777098217,-0.032722514064306804,0.04442996777006684,0.008487193911064598,-0.014514733916326667,0.039794008669333476,-0.027856785595153675,0.035189673647296214,0.007234781674067234,0.026706335382855,-0.033742296932636605,-0.0009602031526248353,0.05124865561695218,0.0366662962035686,0.017765879986228555,0.016258522178748576,-0.007589112433080437,0.028793618102648556,0.009433252631796226,0.017337299771124085,0.03976079126236698,0.03510342511373786,0.03622031246095146,0.026646507845486826,-0.06404372517444301,0.028991359480424677,0.037722260602686505,-0.026197479162907034,0.029781095049499544,0.08980936803809188,-0.02389376114434515,-0.03231781377537297,-0.027694998908801727,-0.013454913291806361,0.019403782962185683,-0.04344097834529612,-0.0432777288909415,0.02257896256718219,0.02537185537669413,-0.002580757567976774,0.06931358924507508,-0.0015076356987232715,0.004192676866977228,-0.04677301081516165,-0.028417801315188868,0.006853515711559452,-0.034794692057206485,0.07883039803748035,-0.05378966822831932,0.02834336242211736,-0.009620617183865076,0.012644949966861425,-0.023033775006888826,-0.01743153788696944,0.010958633688907008,-0.04688982752337501,0.013630004244761757,0.027647744818340148,0.02459594276286936,0.007981807191850654,-0.0461514317124808,-0.02413027904944803,-0.030204856021139474,-0.016237446112793787,-0.011173713025877224,0.041166456341235114,-0.07322742542039576,-0.025405998187744503,0.05526494574253033,-0.020035258867212247,-0.050260106302861596,-0.0003856094824676597,0.004344342244400146,-0.010533104267700365,-0.005648897416541318,-0.048657307799642766,0.046529969583927085,0.0076384894858939,0.03996722735336129,-0.03821604426718685,0.004965532327706913,-0.02789226687839369,0.013976302684963988,-0.04772849124774413,0.007847067305129024,0.0009366045885374059,0.08430280023127042,0.014610531854612547,0.022574314780618006,-0.047612063669608344,0.03853718204966335,-0.010170925285799163,-0.02579329005240721,0.016520127027235862,-0.022804485997006768,0.04178022608783862,-0.03953921464318326,0.07151453435488807,-0.04435206852381906,-0.007248659072105063,-0.0236168352282847,0.01998036463038746,-0.021472129222715342,0.02716634356521433,-0.01108605977707893,-0.01732140196358973,0.083462069929309,0.044573651915336146,-0.050600773967391634,-0.07466497162589711,-0.025126318178355162,0.00040976572433841735,0.00940179422351412,-0.027862640213916604,0.005878410641076702,0.003196282319332694,0.018400182025826144,-0.02878071359596965,0.005080062532068276,0.03812883888807832,0.003037251422128815,-0.01991749650724085,0.004395768051439276,-0.06922619429836092,-0.01445785429692598,0.022387095795773963,0.02941908304713794,-0.019704484993554455,-0.011010485011872545,0.01689472678606762,-0.025839150632341094,-0.04121271691484098,-0.06459741285825969,-0.013581573797402121,-0.034279736343128926,-0.02592067947289985,-0.007258159788100156,0.008821675217658085,0.005531224925332,-0.013246637721487502,0.057753638821604406,-0.07870680079082773,-0.06731796545639848,0.051125196295100414,0.026985698953041894,-0.02555414739675767,0.0030208700483827515,0.047300908400310246,-0.008717304343507816,0.0441025610197543,-0.014579652836251594,-0.012954454447376956,0.003309446950569479,-0.00935208594173026,0.019106651975550778,0.011025840429621722,0.015273121615766277,0.029026358210254708,-0.013475505678166199,-0.023876961664375976,0.0014062577695728592,0.026411308608272212,-0.04700148662225453,-0.02750864758878193,0.0038033262267002377,-0.017821077397309672,-0.038259179579555554,0.007685957631268889,-0.031108469455290756,-0.036402178683312685,-0.013387394824641392,-0.03984545304336305,0.03217538872658315,-0.021670354069672472,-0.054797563555795674,0.05505217803421079,0.03435929856176591,0.03751298951686404,-0.01752596494562223,0.012714725383449475,-0.019305643175350638,-0.051737597259997097,0.01781876669508624,-0.004652604149504866,-0.006326703490198297,-0.02391621387085666,0.03411891000038597,-0.0005334596700590814,0.019260077004567003,0.012278570974944752,-0.06566047608168596,-0.013444818311114895,-0.034410201633471894,0.0071010827297180844,-0.07773303946256524,-0.01768909481527018,-0.024156031302593205,0.032151125108153183,0.052680026494143224,-0.07068466928209598,-0.03787105556829127,0.03659505996010052,-0.04074343016850258,-0.05684198373883836,0.00893159376225421,-0.02905608392518687,0.0030772183346557233,0.021178700550007278,-0.005619344194370909,0.028557411005191043,-0.028374694031797616,0.00047378362928242063,-0.0003594245173947141,0.07648776201996876,0.02782704926055845,0.020384916896938655,-0.08883076837961144,0.019955223646527655,-0.037606023215562834,0.004433698176609915,0.032051007201333345,0.02710929956604954,0.06353114373420292,-0.005854209451507298,0.02689724411559339,0.037458966910023185,0.003969351995100607,0.05999688286579262,0.013175779041387276,0.026998324135607744,0.0027784662401336923,0.032926968666572444,-0.10727935990977193,-0.062395539030061016,0.007937833064748562,-0.020600146119981826,-0.014616455620194254,-0.056069771603718795,-0.08276802129228103,0.05525455439394471,-0.0028753716879129873,-0.024756689449263132,0.0029380163835233306,0.023189959425575838,-0.0031895711933407653,0.02176618016050208,-0.026317333166230535,0.08176209886872711,-0.02379807137614576,-0.07238269244100871,-0.014969755095857074,0.026112031549214987,0.04129351212195469,-0.0688604274511702,-0.04306227213194708,-0.01853175517352485],[0.006377936769561126,-0.032102324153764274,-0.048829263721325664,0.03249330227527862,0.014145133236292533,0.03791595870742375,-0.021644192658103852,0.03051532493791522,0.024543843891484007,-0.02411230459693289,0.00595672175753993,0.020332917598438964,0.0056328609846314345,-0.013277975204052637,0.00837258344916343,0.04721859280443872,0.06245110904498465,0.017206110427914086,-0.028982634461397806,-0.02811531984621109,0.024115347715671937,-0.012332629946188773,-0.03144665215009616,0.022286679256088692,0.04572330662270683,0.037308907841285675,-0.03245514660623506,0.006755469699727514,0.013036576697674584,0.0018989402197173125,-0.046632014822308464,0.00005573467708950976,0.08529830485821101,-0.0007278833636610017,-0.008477050052782325,0.057725791198819355,-0.03462732763891917,0.06550797143328249,-0.043337040118976065,0.0066474695632904954,-0.034453776233370335,0.009896475251201768,0.024658425400398993,-0.04365101276217294,-0.030041478139785676,-0.015254403653488841,-0.0028555058502113114,-0.0574880195822496,-0.003734775799122124,0.04897896304484582,0.0405713868447062,-0.025967533123346327,-0.04449587549242411,-0.0013426966194957624,-0.025472139404223722,-0.06962770477143077,-0.010965049765857415,-0.05984211124163039,-0.046481777146584906,0.018607432995976975,0.002528427811383616,-0.006760249419124439,-0.01954742680806843,-0.016338713505009574,-0.01568344336019181,-0.0003411766326668736,0.027848343185023824,0.0022651426836768768,-0.04158876472924044,-0.02762806096514133,0.01724835682957152,0.032883892047182825,0.031877640966916775,0.004318715964906639,-0.012505053877841638,0.014081284108861555,0.02826568118559934,0.01935687266657147,-0.04312930806996663,-0.014363400274803106,-0.02927624159587259,0.00847075614097556,-0.005064340915804564,0.03071234526520747,-0.01308275095987515,-0.05795502121394423,-0.027288979591914436,0.07069972392520255,0.028391053178610366,-0.03348348099600103,-0.02325458530786367,0.0033745126090007414,-0.03270111022417801,0.07047791435830596,0.025962022421624546,0.025448681978564876,0.016019805797365415,0.049278547854201195,-0.020902422026145697,-0.03624141380107495,0.008094732606475499,0.016775942970767396,-0.09394800311001557,0.014155011223189146,0.06260320216824122,-0.07947400090433332,-0.009432563009141482,-0.041538043536330324,0.04010059208853301,-0.03441716848239104,0.04853493407419349,-0.05473142608048636,0.028822478481809206,-0.002102618799041608,-0.06275697661631281,0.021084068105914518,0.05018630298228628,-0.03904122988610861,-0.0010944526858262561,-0.013194829938604269,-0.02383015440413781,-0.05255018048877263,0.05006947589061745,-0.000531603833023277,0.034659193228747075,0.053640478833982486,-0.037799932150931186,-0.08114157423953837,0.027670838928608863,0.031450566585776045,-0.000020806815738467196,0.021343189297682103,0.06252164503452166,-0.04130468610188428,0.0061786529669816195,0.011505431040114672,-0.04961896151185241,0.06756119880040838,0.011062068853185935,0.005191359346094476,0.001971593901333726,-0.017937694735252356,-0.025458025190657773,0.01746517860565135,0.05431286708869876,0.006009776871920044,-0.03213285604210041,-0.05149819785831911,-0.046131420372102154,0.017842721561276146,-0.045094571603448416,0.04870662408594644,-0.05092703836322967,0.014958393920614961,0.04286484089029653,-0.06697374292905144,-0.029877758301052933,0.017253462580460722,0.02059203597323709,0.004449883872461448,-0.031642197370236,-0.015127790158502716,0.012589802677437737,-0.041057953358362716,-0.010980932787619566,0.04660140003566597,-0.004729993010016504,0.00015849014254095824,-0.09795363846861539,-0.013908373550898604,0.01898251215351526,-0.030023174465265662,0.03491590485487596,-0.036150978678958,0.020257784789672353,-0.012592507610734244,-0.032045502055714166,-0.004840405897695713,0.022520116610931614,-0.024541063208519325,-0.003726946493773037,0.0024679900917343673,0.027415767563874975,-0.011438863402336604,-0.0415098687246243,-0.011056867108116928,0.02315226660750978,-0.02893384877333354,-0.057132042152667976,0.0002965954368382246,0.09021267092849124,-0.05307422992446643,-0.012218534130894477,-0.011236579554268534,-0.0011231585309812205,0.02444165541921558,-0.011235974401382794,0.08244223978376773,0.040659262845919156,-0.01443565468487778,-0.017094039793322878,0.01813225190703685,0.013796735798944531,0.02007797420700391,-0.03190388787785845,-0.020395768469937875,-0.009044187453638955,0.018491628697618393,0.06832676289398822,-0.005604756452173205,0.0594291530118473,-0.04234454539188404,0.05882173993126442,0.018861647459301124,-0.04185177705971798,0.004543655837118034,-0.063827901110287,0.008925816992477109,-0.031198194542700543,0.019559176043948707,0.021207648129866252,0.00830675335355829,-0.004043858079092595,0.030298171303860703,-0.025966377241857862,0.04617465183284097,-0.04789517848784878,0.005073323052495911,0.06303337568309987,-0.07200417039058901,0.01901804748541459,-0.03724214664141014,-0.0424633877122663,-0.005978508703421191,0.015127301305907887,-0.08212302706475307,0.006945697189178299,-0.0016922455403345024,-0.013875643973334503,0.038791059811604266,-0.018299203203799602,-0.021189705542599725,0.01243227691866578,0.03681966369459675,0.037906760248245366,0.004548796142080767,-0.04227558940509404,0.006784354760565096,0.020078344866443363,0.04288944203881218,0.03401420566093886,0.04385727808514126,-0.009201641378909522,-0.001371119536263071,-0.1261844937844257,0.004986036603643884,0.06392668535437605,-0.0812714887212258,0.010062641125939723,0.04206091157093964,0.018777597460917134,-0.03977588961902977,0.08384201303609871,-0.059857618251700516,0.046199336395637135,-0.04676267321621597,0.03474551605286969,0.04348829000255301,-0.012384016805551831,0.016728238696625385,0.026776797379092433,-0.04154007857007678,0.00538010437470756,0.0224662782789789,0.027550104321321538,-0.07727992794942515,-0.021895722033889033,-0.01779779155859621,-0.007566843486825593,0.008266352198626311,0.0452374765987858,-0.02885820076257103,0.044600571509022524,0.03370651267185419,0.026595989439548804,-0.01488498636563772,-0.015428685030695196,0.01646795997366596,0.044139524974530074,0.005251955523820133,-0.028315087338866597,0.004679787122279828,0.053344523682084165,0.03237797475191866,-0.0006304085591603603,-0.02122945810574082,-0.01379287561546091,-0.0300711026628314,-0.0008183637375740136,0.004068072681811371,-0.03844533155573204,-0.025146584719882348,0.03159086010228074,0.0008440911461682919,0.0009588937346600796,0.04588407754243834,0.017981014331193635,0.03757202303754307,0.03622985252662232,-0.02297152367148316,-0.010090259860464228,-0.054328509739039174,-0.03037229838682944,0.006445836424570778,-0.022510927046616086,-0.021851066125898756,-0.0511752818180871,-0.051262125286648856,0.0359316674784223,0.07067737255084391,0.01535452406215273,0.027654220810773893,0.01342916106793637,-0.013584933092782813,-0.04998098754549146,0.036977939111688056,0.0078040627793392785,0.050831892807192816,-0.017893038359245127,0.002742524715222862,-0.036088659720540726,-0.011042614168245774,0.014311325898951243,0.03918503777410958,0.025067268993423715,0.08253563432613915,0.004047847755065023,0.0258596696353448,-0.017854742468402178,-0.032123549535223395,-0.030019807522087442,0.046297269691507256,0.049630007096763025,0.007424985669556584,-0.018942223884607305,-0.029641590289676823,0.011348445251706307,-0.02328838378007134,-0.060252934337799595,-0.021119723518127707,0.02770589911991993,-0.053294519308439044,-0.031591800878734706,0.05368355808161492,0.023871905005902395,0.008457693133997923,-0.024514114123562015,-0.013099115931755402,-0.021904747222450355,-0.015333473110763727,0.0269359265342006,-0.018274539392351293,0.02462938660601268,-0.022527595383979526,0.01754919582197937,-0.006266603808228215,0.04890150752111476,-0.05135132627210083,-0.015364467492737375,-0.07705296117860563,-0.07836228700265903,0.04778736532646066,-0.045370614760661065,-0.035488245594107695,-0.01675001673678998,0.016819638611725606,-0.006605161178153555,0.03120504062337372,-0.03248615100306424,0.024261246303262245,-0.0025169736713079724,0.008184309220887722,0.0531376495416818,0.01878509758702713,-0.06840999048935399,-0.04462023017141568,0.04461337440001705,-0.033013608548599374,-0.0010213060793590923,0.03626622007179003,-0.05203972487691612,0.01107741456117413,0.04888475977004618,0.037279012126279924,-0.011228023764805528,-0.006893306552246076,-0.029226873321469646,-0.0012136961363054604,0.028782595499480663,0.048249908345427694,-0.03937006293216235,0.05551795641742158,-0.03833412667119292,0.005301794901516722,0.023275760335936868,-0.01635580417786815,-0.04963597770399376,-0.004710243122965402,0.039312808856941675,0.05866222359756425,-0.01481741033606267,0.003694481062889957,-0.01320075621939579,0.06830946657354119,0.010578075298039299,0.0755530690122668,0.014555453492106329,0.02658528928603368,0.013258602986796863,-0.036583419333387164,0.00462804704743878,-0.004851015679786833,0.005629145992735426,-0.0104123994372639,0.026058545782556692,0.06401475043596606,-0.03175479594824858,-0.01615732121974823,-0.01459016924345781,0.023529899478664674,0.0004020091267981428,-0.03169802029426679,-0.05420977003688027,0.03604760320381539,-0.010948805289088833,-0.010466780848645987,-0.01606017086502593,0.03301416053812916,0.09136590758246643,0.017442199661250154,-0.03181074051323753,-0.025458390745982228,-0.026802937951994593,-0.04903198904022726,-0.0004261647278477818,-0.028495680177089144,0.022724791093094557,-0.06302714762446025,0.0626497611924991,0.02199239892699962,0.08744638426477404,0.04103873534833068,-0.0183637962808298,0.003571344132823085,0.022792344574014866,0.035787940272064556,-0.049017983011137835,0.015693063427227268,-0.0034188169988126774,0.010504103448018864,0.0026330225058657556,-0.0070081074633486385,-0.040883069216131517,0.012794931947079627,-0.031350835823011444,-0.0011492096676351533,-0.015979615616751895,-0.008968297920766621,0.035522250833342386,-0.005365526497105873,0.01082684037610655,0.07103894879974744,0.04007108778556166,-0.0768221675605306,0.04117225424765347,0.005415223084330831,0.016842306264778548,0.09638408527376487,-0.020445108222666125,0.00034347061691987875,-0.001819211911993652,-0.06812512287494335,0.0035060944078029385,-0.02635491767506288,0.00943324474975534,0.007817752347757294,0.002196213828812888,0.007174401062140051,-0.049749555535571775,-0.09107270677808844,0.0839549828954382,0.0013298975182538706,-0.019051765208386688,-0.03241326240396166,0.014961446627966654,0.021324166302379155,0.015792903773803626,-0.0217527612198671,-0.0856953232108655,0.03503595677851225,-0.02483249720753753,0.04502470028720461,0.002710133509013345,-0.02226638383292714,-0.06358125547859414,0.04788439982183934,0.017773298159430816,0.04499044266324352,-0.03571849948287586,-0.03456513858056999,-0.03491483131680193,0.018291419439097477,-0.048446106304545745,0.010507396499353224,-0.029861076744348958,-0.03758599238467286,0.08043922100908928,-0.02795044801613725,0.05622070633090632,-0.03163342546093351,0.04125001371180585,-0.04427102626031914,-0.020429145743548732,0.01569359005490992,-0.02733741757047351,-0.0699613536839536,-0.024805370743120957,-0.019274375864686742,-0.027383507940015938,0.050796951676307885,-0.006452461525253271,-0.010447784821381487,0.0017996406885956548,-0.07010924171424018,-0.014116302059471324,-0.04167518051237629,0.021752976294350652,0.027385832623131816,-0.045880643302231836,0.0256382662183268,0.0016001733165426724,-0.012100659018397339,0.005043051182534966,-0.003367980834981081,-0.00439072563306661,0.037396633970519524,-0.017411187747482827,-0.017204884082318083,0.030526144244904664,-0.04159743220261624,0.023524576235095265,0.00824688406753024,0.015029281409602658,0.06877480586714073,-0.0251073410797366,0.03231653370057449,0.032641464223183134,0.013326774286865762,0.018821883991715693,0.02074670965097258,-0.03441147023143669,-0.002391582737899751,0.0024230829810421256,0.008895767854463858,-0.02078853704394918,-0.04162692736028106,0.07602478896888373,0.017202999116594394,0.02590538998316826,0.0124578584778816,0.00653105639375869,-0.01216058098787639,-0.031261477992301424,0.026451841470440378,0.017714694892397822,0.026363963466005995,0.04237175666729536,-0.010999879651390876,0.007838812156132198,0.033348126671314385,0.04777228384518728,-0.035252327012856646,0.024775495055663642,-0.08010554370577071,0.020758946499644482,0.006818223080067418,-0.00928832801575658,-0.003989687809392397,-0.023048053533940436,-0.046402719275286865,0.04530282541980594,0.008952107378998079,0.04873503276524508,0.021723053310285446,0.040776266664380036,-0.034202595010049734,0.036362448256761166,0.008234054393995573,-0.012264852265301435,0.042032347077817334,-0.006109300331349399,-0.038286303956266934,-0.024601112373371405,-0.03169654835032542,-0.06875544431786247,-0.0253984473017107,-0.01958884021203456,-0.007881289170694956,0.0029770881433183183,-0.04651366620223909,0.04107892399945074,-0.010400491470606269,0.008634078717324054,0.006064952342627716,-0.02286316511932901,0.008741595359917352,0.011783826453696414,-0.03887872713943197,-0.08727081531451267,0.0038151103153254047,-0.025726035743091014,0.02856880852047066,-0.014032849416236243,0.030473643954707957,-0.046044415564807095,-0.05546176454222691,-0.014857767515926558,0.003932649711959742,-0.01538737636915968,0.029506738861223687,0.052882632333482,0.03885874784625804,-0.01533981260326176,-0.01741461401207745,0.029681711348987727,0.017693055822492136,-0.008530648144148455,0.007305043301073064,-0.009821154071562158,-0.021822442389995273,-0.01597278650924178,-0.007175361118118886,-0.03344087775207202,-0.01950051923766463,-0.0013799309563696793,-0.02222178078165459,0.007897060489293188,-0.08093793133234993,0.021158874867102696,0.06728823783843516,0.006576865359519009,-0.008821519174266698,-0.03612907155123723,0.00468259034012324,-0.022660667654011448,0.039436017146422815,0.033843820964218015,0.024409755803152477,0.04739621260055802,0.04169456782701373,0.037901241021425856,-0.009600256671391994,0.03137914569303861,-0.034467053655580907,0.04314617992080735,-0.04479171415274242,-0.006929449297118384,-0.018933168587073484,-0.05796317019668187,0.05575905536529321,0.02552445184654909,-0.00586010279498472,-0.0007617602056608309,-0.024676376250111345,0.035839942933549085,0.0014747017234577827,-0.00866370223300945,-0.0015930805716266433,-0.03354600416905912,-0.00043939070930193767,-0.03160494256554126,0.009295221735545974,-0.0585883301066708,-0.005634026560537069,-0.009100012330098734,0.0261545478309022,-0.017465639955633726,-0.015310330633854074,0.002668309315855957,0.005522757512155059,0.0018744108494308177,-0.010191122449494768,-0.04613965777402853,-0.04195131987181753,-0.008901011183844728,-0.05327316961973144,-0.0372491851007935,0.04961596035146262,-0.061368362182233974,0.03973262150201009,0.05080722753506621,-0.023268200126971637,0.03031629905468199,0.052342319216868056,0.037567312083377255,0.006975693615734247,-0.04836179192927683,-0.04291391318309753,-0.019325238175526355,-0.011007047717516495,-0.058552949289335895,-0.033479308743536655,-0.00976681637444388,-0.024745341130268265,0.042256062010800656,-0.0343835946327037,0.09373999441464477,-0.019088677383395987,0.04324339929090988,0.00905281644815461,0.04228932819036744,-0.06333546571756708,0.06192712798045324,-0.0759738748720842,-0.05369250795058649,-0.050553386596721935,0.004003138234586147,0.044053410023501986,-0.04149317675327816,0.014056900263379607,0.013679758975387823,0.05676386379569904,0.041278263516153026,0.020018473094100733,-0.004552740833135891,0.005727563546599396,-0.06655868834542403,0.023091573264891353,-0.023782663939464075,-0.003782001069161441,0.039606656555571926,-0.008587206568286768,0.016421782689301334,-0.054539299964831985,-0.05733397367860891,-0.05090894474713258,-0.05422525052993782,-0.06558383027637939,-0.061483098205454764,-0.06689984114659242,0.014003212530413343,0.003656004331151006,0.03485802943369328,-0.0245087434461632,0.09487064338289264,0.0048405916097404595,-0.060550990991363414,-0.02277025044634273,0.04776543002355049,0.021366788541896737,-0.02975826318884665,0.07256906128373011,0.007585135455704263,-0.00542631604360856,-0.0048651184919642435,0.053094311820941174,0.025798962317035077,-0.0563558358045068,-0.006719358187267265,0.05169941577794717,0.06750540518013719,-0.01617770734301023,-0.013816853300465661,0.008473412728812125,-0.012192537063997439,-0.011964127522182197,0.015693613157704418,0.009041688584215158,-0.00943631145372358,-0.015261323377367188,-0.0017585653056253012,0.021491936832596203,-0.023766898086056882,-0.01739698112447795],[0.058817575112838937,0.033967218009697916,-0.011724054715687505,-0.023511602939757046,-0.010974278583420028,-0.018189200339672036,0.004731299491840194,0.03913621906061943,-0.0028224900330354645,0.013066267385560021,-0.060988492458159835,0.038038714853562534,0.009773456740286264,-0.005885576755426544,0.006482422726706806,0.023836910152628666,0.002242971365784136,-0.02123790605783379,-0.010603865378194454,0.04343292845501377,-0.008689002793305343,0.004970001699612672,0.03192982394991692,0.04291013944782784,-0.019687555758162972,-0.0317409446955151,0.009641813793184682,-0.01525269388725163,-0.00531063740532158,-0.002262893955735582,0.025518146171097482,-0.006007985515921784,-0.05791777230547516,0.054120386049893575,-0.0100628170495746,0.02532415694616238,-0.007693158458542543,0.004362756784718709,-0.021691125131707695,0.035717341123628996,0.02307663656528772,-0.05734748714273875,-0.019950804129509652,0.04410583928947464,0.05059145435045218,-0.011017100679242347,0.0247703024633954,0.008428989888996848,0.05070069093451195,0.06844132892982367,0.05522321157474445,0.032190326358470245,-0.051319135788335926,-0.021852455841473137,0.021282202166326657,0.056993995966539604,0.0030372099376802584,-0.008868042192050191,0.006396071966498718,-0.026542057109387684,-0.012267544886109644,0.014146607006490786,0.03204244668198497,0.08590632295788521,0.03604564231225437,-0.02101844441333425,-0.0030606736647723304,-0.000632495035533218,-0.04354827570124144,-0.027137004825906124,-0.03258677686409674,0.03281524519594699,-0.04295317288731686,0.0416083320282341,-0.041325546429155084,-0.015191357343759813,0.04211845662975889,-0.0018093580788107377,-0.041696491784223425,-0.011190089143550326,-0.0310102542759769,-0.0280440338967801,-0.10013124058975795,-0.006733006581998372,-0.016339617371667666,0.020954407092309533,-0.010746488288399534,-0.011008279098834473,0.05610695862169012,0.0658002128864191,-0.062844962919088,0.009402141249696058,0.06806757145596799,-0.12075464058216287,-0.01720891091961369,0.004037910213048964,0.020226952550375966,0.01756369910926431,-0.03827178622360928,0.0324731259733527,0.008002198901320751,-0.06737531336067436,0.01618791668974743,-0.04372315993283233,0.03699865911750487,-0.008783604121827316,0.03836003310892265,-0.020869461363176803,0.0025228621650853667,-0.01660849207863161,0.026260363347546927,-0.02852049784879798,-0.000013396779450539157,0.026558212233313238,-0.013604021552336127,0.010189323858049552,0.021647630956914434,0.028398335931273496,-0.01613171815429531,-0.020682089423375134,-0.054254356131503034,0.003182825890245271,0.019711917335812568,0.019055468968763478,-0.0204966428119726,0.04104247042207467,0.0674524730471118,0.02836514328978885,0.07945812771701939,0.024856761495037825,0.04607715367083232,0.011144500754840182,-0.003298088703390723,-0.005606735216213699,0.039348097874324486,0.02164527707654848,-0.03719118166958356,-0.04817067228065016,-0.032912148862812615,-0.009063599293908221,-0.03982503223567174,0.01795777470001132,-0.061276354564483694,-0.014270503152607078,0.020924589361166788,0.045225433609686,0.04934871718447327,0.08242998370030248,-0.020152196650594093,0.005648413697637278,-0.004261924901003785,-0.029830687239500685,0.0353076736575275,0.034340894866844315,-0.016211526762261466,0.012040027964878392,-0.0072116146597022155,0.032552083944065155,-0.00203288728148096,0.0045548933964786095,-0.02687525242153438,0.02388362988349917,-0.03975397406436767,-0.006921074321267988,-0.040576766287505964,-0.006913363963886028,0.009280577329914491,0.018610489864900128,0.03456760543221043,-0.01976730725764376,-0.005154403731343849,-0.010916198055715686,0.039833063756213136,0.07129342015739719,0.005295717366106908,0.037262999537423215,-0.0022888489237766654,-0.011175876478646245,0.05784691232803942,0.04672405856876034,-0.014402610412316594,-0.035029824127570205,0.021312049273603414,-0.030293021592911345,-0.016545220989257037,0.025486748799997155,0.0025073929349128895,-0.014015014166201092,0.02350130995329137,0.06529710614069688,-0.005626348195880509,-0.03875762033499274,0.0021412478881885464,-0.01725942831986076,0.003223072635458789,0.008496445976946009,0.07980384409171612,0.06016201316493042,0.028320306981185796,0.009225204809560263,0.052945216814105134,-0.029750369332664867,0.027590360359920574,0.026944146979208834,-0.019147956948036456,0.007297309129407693,0.019850898560076713,-0.033334852275351254,-0.00364206099458173,0.05853411209110015,-0.018249707440960446,0.020770491087664402,0.029675785085637684,-0.02741254057486599,0.03059862250925979,0.04886634226324219,0.018455186027539976,0.02403687856895917,-0.049028762675413555,-0.0371243125890995,0.007623008212909572,0.007766582217177618,-0.057815904796232116,-0.04339882717794508,0.015241416624290913,-0.004762371319518158,0.0006650857024372232,0.029943437884114316,0.00033117603851399877,0.05699599413609261,0.0829395087667149,-0.024676182206495378,0.0112849719984484,0.04907827361591024,0.009250479219852795,-0.04806773047266523,0.05782760249347861,0.006419668983292431,-0.030440355243471696,-0.09099169617998906,0.006372340637620687,-0.02179179578047084,0.033156060923703864,-0.0030585836039103338,0.08011920644892337,0.002794998413407691,-0.004221035993358372,0.010250087415953294,-0.004564340224305676,0.04520304642026461,-0.0030490658598549213,-0.00007939098699073642,0.0057538638622666605,0.024391711503979323,0.01164080045266141,0.008627711307132047,0.0013117428688826757,-0.03458874637791489,0.03871391154710341,-0.013615151806759545,0.020517356068038266,-0.023438959349872838,0.06422521887451045,0.019277507755078516,0.030906878926185665,-0.038415635602294725,0.0008162997096394046,-0.06661093961441034,0.005448330283914807,-0.06147211392980586,-0.06362197315472665,0.001318027669263351,-0.029419727110648563,-0.031209872913454395,0.010925409063384931,-0.019792718184385095,0.016483329070429337,-0.014801908884752952,-0.0624638681050831,-0.009823117475281834,-0.021421154635429235,-0.016398129269348388,0.0030836479136913254,-0.055735254226474885,0.02878540409267894,0.035900548413301966,-0.0036507704772574426,-0.022324458843355027,-0.03224552832839282,-0.015618872937422923,-0.055928583435736756,-0.03724769972564472,0.02157198651825826,0.07278825732884206,-0.03875050649596474,-0.0001074214508863655,-0.018422760498568825,-0.03477010981958885,-0.03175829462882317,-0.024490762548489524,-0.03410697075403661,-0.05052718174002372,-0.05728467495047447,-0.036707626322749355,0.014526512568029084,0.01173351930803238,-0.0035485992250483675,0.02653945499119387,-0.04210364546501712,0.01190847539890626,0.004992386868589095,0.012265171885841567,0.04955187174847136,0.03723034844692709,0.0008372402306266385,-0.025607357006030614,0.007628479211772884,-0.0251045261650729,-0.030923337712443218,-0.005873770042067424,0.00314854754901081,0.030735276787141753,0.03190133782058376,0.0009331790281547085,-0.019345199576357823,-0.06261160083125787,-0.02178089783761816,-0.01722301228964772,0.0014418989103629168,0.004015211210666047,-0.04355599703878032,-0.022453985207066145,0.021027589743062364,-0.02647567216552479,0.0838149974968215,0.04340054806148857,-0.019629381501085556,-0.016508331574820078,-0.027484329845582932,0.055402085198722965,-0.03593567770004048,-0.06089654164714152,0.002424327459755348,-0.0030869725227231463,-0.02023554786318615,0.04966159250609157,-0.08075262655665309,0.0010109398010600989,-0.019257168679003678,-0.07553823736022107,-0.060804323598724626,0.0022561745569485035,-0.000896682319552845,0.02976189648011451,0.0045701360888974535,-0.05127484626816314,-0.004339900554975136,0.08287828159986078,0.031169126456158696,0.02490178871409951,-0.03263762091294297,-0.030431802066265272,0.025313878740062915,-0.04122917140678698,-0.0351888946386857,-0.003806185857620545,0.022485835099708026,-0.07940509745069899,-0.04584097146967771,-0.02342254699739755,0.03518563814825678,0.024519266656449188,-0.06174004142634008,-0.03299983568649308,-0.027382620186634447,-0.0644261513132235,0.054644901526171075,-0.02380182025063059,0.007598308652727397,0.026456941748640765,-0.013756137500349642,0.0004981653140703142,-0.03508580794057327,-0.020482619317962858,0.021356684308890362,-0.07180701869997275,0.046161137744893756,0.010873141340063938,-0.03911692242763816,-0.004975600021556727,-0.016383965683935343,0.01872471332963576,0.00926077129316,0.013916590119324238,-0.07919489247083164,-0.004755091231347689,0.028950090133786122,-0.03223593584764461,0.01512040795944294,0.04094447041776929,0.039105412081118236,0.05363340166062403,0.003686016179580614,0.02437054763256522,0.017388858292525095,-0.0556102318652487,0.002914456702227436,0.03904204365144607,-0.004438225878894954,-0.0038815684886978753,-0.016547641491189806,-0.0475540503336922,0.05882865648129904,-0.03365185005096371,0.0704274287555608,0.06093349441793923,-0.014394403514534552,0.04306160897281252,0.02525465453445932,-0.0020676705498098727,0.0013260282129348227,0.017754756753654195,-0.08108830535899159,0.03925121921316368,-0.0058840303441386405,0.03142335350864773,-0.10573840519723052,0.01915729013829131,-0.023728800924001436,-0.01285721356142697,0.01355576774146851,-0.039982490738146984,0.022956185200166422,-0.020908078593500502,0.022296772108329966,0.0003639192684177766,0.008668827941752544,0.03390265954335886,0.039560069848680254,0.0033781844523377877,-0.0020326078418780934,0.039125393054433626,0.06056441449801815,-0.019179438889241843,0.02625551558124704,-0.0036711766367887822,-0.05406631614885154,0.07620769837179461,-0.02578712118002572,-0.011301460980710127,0.03675268529327024,0.013138540504330009,0.0011300622417374985,-0.04763266977312956,-0.07290289349127711,-0.026281015439846362,0.04034197962251177,0.015103765017634252,-0.03400346655841686,-0.04470645348611568,0.05374890950926603,-0.05404979256065532,-0.03963876871207942,0.04426642825078308,0.02491568984470171,-0.0304707244869995,0.021016907822996016,-0.007055691948796193,0.004525655530454546,0.015556866243872008,-0.012046343588682914,-0.0006253413710179302,0.02689615742150106,-0.024198835044984914,-0.013056697089431071,-0.01199597994104797,-0.03342222353919883,-0.0300864562679667,-0.03430058782359401,-0.043966426259845356,0.025637234287209685,0.020906305331150846,-0.03329208139586539,-0.06230469738841536,-0.05431728252840902,0.006767727667968841,0.014702779883406751,0.039563657955282994,0.04154481557182514,0.031579989467655244,-0.020978468687727438,0.026299673583690866,-0.006420992309408327,-0.04273126156536287,-0.03504654161613805,0.017217484722435665,-0.05202994877689609,-0.024163021849873297,0.05155236402542616,-0.03750986351098363,0.030984452470842576,-0.01126929112030051,-0.04103402880374518,-0.012727862424652353,0.025845261113509137,0.031455314526926265,-0.047017801943229756,-0.07705719870889907,0.010294751130678995,-0.026385723516411604,0.0016675776340690709,-0.06693014261284094,-0.01158312213318881,-0.031371696611765566,0.021608600189887535,-0.025323085136776696,-0.039273911776364516,0.05546114912431883,0.04866489327812488,-0.02218847352829007,-0.013916248313635273,-0.02703759827197389,-0.010275682947752083,0.007895667914181986,0.03521395529361208,-0.03442907157379609,-0.016111973514774124,-0.02499725842890323,0.016640431025824333,0.03428780608300225,0.012510525240511895,0.009507005360721372,0.03184289158172428,0.002973578977343453,0.010072440577040537,-0.008942168880212974,-0.03434097151419901,-0.01909602878655242,0.04886012658572313,-0.022129356744876875,0.025246236124548228,-0.029527220920997476,0.0320858143675309,-0.014805303275660627,-0.03323870829495924,0.015839713958403178,-0.053728260467976845,0.00662679995615485,0.045222747876621394,0.06826752171009204,-0.00845051056998083,0.012616390415985371,-0.03399950527951311,-0.011505085524006586,-0.030536319446352617,0.004664772154042797,-0.02709939263407613,0.009844331740460252,-0.005872694569255597,0.011510199820851347,0.08747306244823534,0.054527770586188185,-0.014389053583096913,0.045250237743932345,0.05809009885319111,0.10622736206174854,-0.04388035488607046,-0.018528871641597614,0.007977017343904661,0.009663611589674397,0.011581120909939124,-0.027334948242889328,-0.02394754625500923,0.009066998368637367,-0.012877504964089372,-0.0033524913184193477,-0.03872776733533941,0.026875156382789655,0.04294298695401103,0.006815177565537944,0.013715112964825906,0.08645243137952063,-0.019057120381949864,0.0176163322773539,0.048997508629605814,0.05649992033427796,0.06634464035206664,0.033271777228488945,0.010099021109913425,-0.06833367751180379,0.006329901737629202,-0.03484575970865439,-0.01117609909554036,0.03490114728298006,-0.09780493353170083,0.08633681365131675,-0.018982340006462425,0.024722282070513062,-0.01695882939106414,0.044212687168990725,-0.014257420718138365,0.07246524627361495,0.04109002508720313,-0.0019143812867003296,-0.0024136706228014416,-0.0032547180802611083,-0.012841902676662185,0.012461204987028154,0.0019958881535915786,0.026450409886680886,-0.006915819209406759,0.016895065247973868,0.012045749627813605,0.045426313900106714,-0.03866120557698622,0.009132574901729725,-0.03146678056813367,-0.016681377882943153,0.01886054835244359,-0.025559681860217114,0.023188986648888958,-0.02215467143127453,-0.018505817159395418,-0.08247652288100517,0.0728578745287513,-0.014630450656912838,0.017656459992590072,0.02079068797704835,-0.03857112017760734,-0.009277552362250193,-0.032283401666736676,0.013378983710942025,0.05530903817055188,0.08758906019728215,-0.04468724876551006,-0.03953127227908294,0.020637908089546225,0.009768584048016454,-0.04168507593722122,0.05798974003844356,-0.015442582001234587,-0.005566194040425915,-0.006120212665132434,-0.012789605976420742,-0.06146811154091405,-0.028887349431037733,-0.05150768687473422,-0.0409839681698846,0.017186309486417976,0.01173174086928676,-0.0027645932529143115,-0.007266125815757356,-0.099905753073972,-0.0018481987867146556,-0.11117786474237899,-0.015685615102208054,0.041872857090249606,0.04631805082889295,-0.0076461932828281055,0.0950628874574362,-0.02400713369973009,-0.04285307388974118,0.05265593041740024,0.04983963288630157,0.037643219017742036,-0.01619732294601131,-0.038008378476886415,-0.011255692171812354,0.0033425972465052503,-0.0474691397222311,0.036807050272459764,-0.04052753826563784,-0.065640634123431,-0.03491774589305795,-0.021031117889283246,0.031792118972538926,-0.006682530565578741,-0.021302939034019187,-0.013870278428563141,-0.0010694625827796698,0.08747789721447882,-0.039985212318092926,0.03330642874029444,-0.06669219902831014,-0.02174993999035396,-0.01481642097604203,0.04439155394970549,0.0176287719766381,0.018889901310841263,-0.0324122551538985,0.07588432733315166,0.036411021860352145,0.010023057527070467,0.04445566664327126,0.0026931993044877,0.039509766598730775,0.007905691145797028,-0.032102239430894026,0.05606634649506697,-0.046549047888854785,-0.008604109401771382,0.013376374011089305,-0.030948959124274197,0.04926082080965775,-0.023440322886334537,-0.0035644155382729267,0.010448033519897242,0.005585076157517775,0.012642383192105557,0.024406640299594825,0.02640996688087233,-0.030674065993928405,0.0017840104689599689,-0.057687458332581466,-0.006891306599671814,-0.031421603849796725,0.0508418944837586,-0.012745342762876493,0.02471010655183083,0.04352737942064301,-0.02641708300966713,0.011238056766296545,-0.04448435758959066,-0.05205207489088642,0.03813066125145128,-0.033904097690387956,0.025568092289104675,-0.02436823160347123,0.00560994481240605,-0.034764247720184424,-0.005404480645349569,0.04666290918760541,0.025751402093120802,0.01636408997477281,0.015170899829465168,0.020933091336690586,0.0014945417094982191,0.021022141738813904,0.015726179651722023,-0.041405849449800726,0.053998921610030885,0.04988597695115935,-0.01851971051892939,0.0034667943423028155,-0.04424370692997915,-0.0300014242461507,-0.009694839399296178,-0.01571225357268913,0.009956248154902661,-0.023715669390531845,0.07226619949030713,-0.04335885707442421,-0.00796162065801794,-0.007994326275915046,0.05636042800953783,0.004088983950049799,-0.01264199457929131,-0.005478271802564723,-0.015052187294225361,-0.017829406132322197,0.03335569469254183,0.06747826745466433,-0.03238650321588758,-0.03998670702064631,0.0130963849859906,-0.02438826559536265,-0.007384273279507865,-0.08103575192203598,0.04871386085509027,0.03062065940725,-0.0033740902203420195,0.009151060334578973,0.009334782082720271,-0.0006640467928951245,-0.020374326640186645,0.04194335569265204,-0.004945527395310652,-0.03285709332034338,-0.04150820151965642,-0.0027244355470902068,-0.010095618563140216,0.033707765959486366,-0.03572430604297898,-0.002760693336291167],[0.020715185814948234,0.0401672435924769,0.038481272332635284,0.0056075630278139815,0.05657725822431393,-0.02353374207223672,0.00026998381372731015,0.005530835989471501,0.05314987142945055,0.00657830312276999,-0.01201607588050563,-0.027385125009502582,-0.01468115874252176,0.010675495123022962,-0.03014129058992506,-0.023558691060196046,0.03845917094622535,0.06004683135335996,-0.02371554041520439,0.024259716094642576,-0.015773218478838884,0.06675304186024944,-0.02843538936338495,-0.061131394681118834,-0.01293195814625271,0.06024095820435245,-0.03139839004423286,-0.050176731491499656,-0.01429734364224014,0.021267417791889672,0.03203127712853217,0.020422933131281743,0.025339405129344496,0.041389415532294895,0.036447191999091175,-0.021956494942736292,-0.025803590195134878,0.014315045673392392,-0.0053275794673425265,-0.005032559798104194,0.0017571307122204657,0.001920035651811251,0.050227097353859995,0.0009373535508947251,0.007803659890354501,-0.041727853649274296,0.07457858783431244,0.07618205669107236,-0.018494026538156228,-0.026344853460243824,0.0016870447227971847,0.05229755591028976,0.021063576658236886,0.04952887490323068,-0.03635120418568143,-0.01793480782321185,-0.0244776199799172,0.05628555647914021,0.0549569197066754,0.000016082035262213935,0.0016025278466919918,-0.008695395863127984,-0.02515229256575565,0.007573572015042081,-0.04752464076680855,0.03146570871699188,0.010818536539353444,-0.026410762611653482,0.019035647169264584,-0.029970824023386144,-0.0019805955416014806,-0.00493221929134916,-0.062363782701914165,-0.023692004850080252,0.04243311104414394,0.048782410619529114,0.01276853497279001,0.012143718624087722,0.022927980711285052,-0.011202384649110803,0.04079921222675165,-0.03276042467100114,0.06945981562900806,-0.03589879450219896,-0.03568938067821437,-0.01340045075653951,-0.06839729991392902,-0.06464284262627683,0.030931757604006842,-0.032118467586614956,-0.01623351309259324,-0.08034425603662569,-0.05185765233986507,0.004527753399662,0.034794690872122155,-0.008890452744783495,0.06200259519753808,-0.0000585558657873379,-0.028868025271278776,0.0008007065143170441,-0.030338576632125424,0.01399414506262821,0.0596371005944211,0.00991780481485193,0.06557197803296569,0.031963903415111336,-0.012279764450307222,-0.02142543583640525,0.05110968510301113,-0.02776736472869488,0.05663625205179341,0.004008459089015177,-0.03931697866278701,-0.043288560058221105,-0.00433451804361207,-0.005024916044336677,-0.007481878693085003,0.06086920922556009,-0.0152002104250032,0.01786238062239489,0.029483905840749978,-0.028902329352315775,0.05456523090529194,0.03041285367558665,0.006973075403908473,-0.019546142682019235,0.0003586507505989675,-0.011176820158397773,0.06538730247104753,0.009171513121865581,0.011589645722478528,-0.012571616900459912,0.01904750844351379,-0.03245369488011156,-0.03638630034657202,-0.061744538774642886,-0.012159940994912218,-0.0009112235050372414,0.00012670907821116703,-0.017350606726985397,0.04596197198948278,-0.013402228736041338,0.003153339006388144,0.007425671240569608,0.004299479730870426,-0.020554470292166317,0.03659264422260679,0.09223207212131698,-0.0023612281988288305,0.016428021413730173,-0.009771870181024227,0.009671328735836395,0.011915067660581365,0.031074234429172308,-0.035387370866476815,0.00888572332670065,-0.04530789225260305,0.00696123803152205,0.008129842171394978,0.008807633476121226,-0.04741962653576737,-0.0652675238523333,-0.06968361904748553,0.06170823172383278,0.006225589363565891,0.0016296635100997317,-0.04955770963093992,0.09353143904317884,0.017740209985567627,-0.00013421655216978778,-0.0042395224294410885,0.010936004512328049,0.0482073133992053,0.00848010346551207,0.026639394891942555,-0.053962566716834415,-0.09416270675390526,0.0024292404460377623,0.021705884182012154,-0.008790646785255872,-0.046970183223110626,-0.006456335128596746,0.035284934209886855,-0.049284196703330764,-0.014002772571615984,-0.07666397979801019,-0.08118226010749673,-0.011242823768027339,0.00600435832222314,0.02875423511301096,-0.043619834304569824,-0.027874466984515376,-0.019366819940341454,0.024038730226338196,0.015727368515815344,-0.024935198277261473,-0.001311212586860876,0.004606415090106099,0.0016349196992595258,-0.008949677248813102,0.02836714832342846,-0.06192062091218299,-0.0023560021769887898,-0.07134103466604544,0.02251901465547312,-0.014869469562037095,-0.003549496087579908,-0.007834019400173153,0.035893874592287475,-0.034774187017786784,-0.0036850361739432336,-0.03158438218721646,0.025254174499969813,-0.04847305686122969,-0.007545600686602338,-0.012137448334438866,-0.0038550038110602555,0.008270223749083438,0.06944320467116052,0.0029055083301685754,-0.05905054038917632,0.01948288169494416,0.03064621203544011,-0.04464872428983095,0.04205216885220609,0.025159993191308256,-0.06110790183963162,0.02408790204273033,0.05248969252132645,-0.06327347151505912,-0.030151049428529846,-0.027470506017255213,-0.0033827678961151483,-0.0008738740980731523,-0.015053467976233704,-0.041000313555022386,-0.032774689728505876,-0.03394205492602191,0.017957339789311855,-0.013786760110585031,0.009008675227287124,-0.0004511670316872688,-0.002739271106287811,0.004364905944545873,-0.030600206552317124,0.036133575682771465,-0.011265682897496854,-0.015222232721422565,-0.06226202013384995,0.058957433696823026,-0.018298188169220287,-0.0007830068262644293,0.02868248682179777,-0.001071077294378348,0.015762025363968195,-0.012738453857017546,-0.010244775557683996,-0.043652730633043035,-0.020991412690546277,-0.06814657524501141,0.02659650272603642,-0.028713399757475812,-0.03795055281614852,0.043736159876982796,-0.04283071622416892,-0.051603318881432825,-0.011768134343588652,-0.005718615682777479,0.01435273261955274,0.03184019868867426,0.011869934740874404,-0.02324049557093033,0.04362873373096097,0.009332016884765012,-0.0027218255542009176,-0.06699420254477202,-0.04198499419954506,-0.01637977619956536,-0.04453217023630972,0.05960064611700583,-0.012154128619116997,-0.03796832844895935,-0.06813743554956843,0.024420000233674573,-0.06341451158148668,0.0060237217427077175,0.010236995354478964,-0.022010788581590827,0.08086485810713237,0.03808661042886152,-0.010699259814460505,0.03840123519434049,-0.031609127546199496,0.027516351614213227,-0.0603572992635794,-0.027347267272254474,-0.0028872587540555183,0.01704447859070771,0.016894219748189946,0.04212866952903532,0.001487046400142976,0.08727187107246695,0.004466002626945391,0.0007227307103916672,-0.01594243771398398,0.06594451400657872,0.02058082495558605,-0.010843150698472154,0.05067653015390472,0.018106786683003938,0.03769130874026919,0.04071705568705442,0.0001173758363530616,0.004215146349589767,-0.039684157901329016,0.020879252738574845,-0.004047832595878784,0.004631993477803635,0.004020533466216458,0.0027069109214518396,0.053998890614057334,0.013772883265911185,-0.05947146502350385,0.04647866406323251,-0.07555958795375897,0.008787410247095217,0.03081205056578626,0.004256668466220911,0.006850567229044729,0.01913684927687298,0.008517612004161573,-0.10461575291300407,0.031136068328974534,-0.0559417136070214,0.080549800480749,0.01614999379812234,0.0012695057943216091,0.00012683182100793963,0.027267703195585514,-0.03183312939419269,0.014154024482347038,-0.0002477052437345824,-0.02646241435136974,-0.05781389656564384,0.00009300414577536993,0.0020965802737236967,-0.013781319224775107,-0.03507141343374414,0.008636150464559613,0.01869140632384927,-0.016244999043808512,0.019239135616776475,0.06906225547595937,0.01540949043141611,-0.024713617197262956,0.008765043734708983,-0.015071149216990645,-0.056583435320372265,-0.0008290820820358556,-0.047083791212415,0.04415609266995785,-0.010150079285788111,-0.00923358460905852,0.03668650028080563,-0.040512728723778035,-0.006740233862160399,-0.045168151904214415,-0.03420566148317732,0.05587555439595783,0.0037610242890275323,0.009306545854192322,-0.03489351604374941,-0.03253520377969465,0.04156666683032868,0.02880690899737043,-0.03748885336040441,0.003078762756459096,-0.014804319606808895,0.01434307609379798,-0.0255381565134255,-0.021386010320669422,0.05826090986648813,-0.047468361087884214,0.03841172409749505,0.006933215776107149,-0.0259508430369531,-0.04362828235648375,-0.0019279771116204613,-0.01132132770888469,0.0028090760355818714,0.04555474599864428,-0.03187208128461309,0.008022727508058297,-0.0463596946819227,-0.03882457380783978,0.0832970113031305,-0.012962343517127403,0.02233896082115824,0.0030969765117746417,0.008938959119793078,0.031210845303731583,-0.04869629107906864,-0.016303954792913293,-0.021728940342328647,-0.04108942115539344,0.010903423390344748,-0.012790538087327287,-0.04278504790282776,0.02521625900455566,0.006695696937728196,0.0385248081064604,-0.015204335394379298,0.05187889803839159,0.05634886914283315,-0.06815442589468494,-0.05065706954257948,-0.021343441042063583,-0.04854665339176579,-0.10754479509734752,-0.015438383940610303,-0.027256162930017307,-0.03569402090909091,0.028528122505621093,-0.07651096972346032,0.05796874753237215,0.038353712083823696,0.04330443871633789,0.0021779202561413163,-0.04610333352969919,0.03928011832301659,0.014005976159728534,0.03562903754585609,-0.01584601207851379,0.009880827641234352,0.02597405991603252,-0.03485775027198255,0.02532567975452533,0.026517391961209134,-0.0385124162618385,0.029039312461664687,-0.03262705895668364,-0.009675461334106511,-0.027483509957290177,-0.03590217807185735,0.030183584949737708,0.02161976755911354,0.04554810526507431,-0.029283870608890167,-0.019787805294963847,-0.06559509128875167,-0.012713990425745834,0.018522715438712017,-0.08873809177165262,0.04072799331346844,-0.02279991807689159,-0.040224304878182175,0.021056313735659225,0.005021757505467717,0.022953253604710566,0.008931047268088353,0.031531114422135666,0.03373002316678426,-0.003769188318622206,-0.008571584592550146,-0.08533045425227903,0.020968041184107677,0.07921346162096983,0.046392662059102543,-0.08286843203643082,-0.015920876360602233,0.025722214017045584,0.0492391373297449,-0.043720430828435165,0.016850536763104405,-0.04693269049628727,-0.029402471473918158,-0.010230420270512613,-0.01989286682243796,-0.019370111139144282,-0.024552675503712342,-0.04153476966779119,-0.019077410848367317,-0.010866977291708046,0.05686383957470091,0.026661728091981435,0.03471768576370229,-0.008256487527524541,0.01646013739963,0.05396833577650135,-0.034923607468519254,0.0061177531290077785,-0.00038231495840005753,-0.011141747817249848,0.005410317970543195,-0.021348816698160186,0.01101109267628861,-0.011946425764733213,-0.051218043441160065,0.01654253293492835,0.018772358392974607,-0.04347099924725199,0.002440711849367331,-0.005218485137292861,0.014618393323735815,0.04164311198088353,-0.04105570833487203,-0.009385557203228092,0.02509789659472538,0.015393520542667332,-0.09548598395986603,-0.029400608799925395,-0.028464289334387858,0.005135262529675445,0.008111019756705534,0.03986148393819996,0.056489916730996535,-0.031625981028999585,0.061440474107641564,0.012492505694989862,-0.010517878483549552,0.053218767719016666,0.05302405971905689,-0.029910936840907322,-0.0022731178284434617,-0.03776232314707876,-0.026633326960627084,0.014328935949512093,0.01785274066424233,-0.023278753011941898,0.0513910556567305,0.012893829363216773,-0.04577521986305287,-0.03350311600733261,0.03232642118983567,0.00456080623091777,-0.0014923822932760222,-0.05367177258633828,-0.0022273920586912653,0.05367833994455308,-0.03917529547728905,-0.0009398661235785944,0.04024506865246434,0.022249242067840173,0.05278309322189686,-0.009897705648916526,-0.03133195993550908,-0.04763010994704901,0.02449158779410365,0.008979170524838292,-0.04774327413732803,-0.06759322788353088,-0.03308258939565904,0.04330050663392431,-0.000135724785321469,-0.0029635992260064943,-0.01812101365636463,-0.02267474797536882,0.008325506915861482,-0.02264509859934142,-0.029197635687924307,-0.007184020963115688,-0.009032321046893802,-0.02621342664015991,-0.033184667543327925,-0.01917692476318746,0.06962640712696924,-0.02392826779610493,0.0095806681638952,0.10163445116347522,0.006424274865953618,-0.06418719663547243,-0.06738917403891312,0.02245480626277212,0.028215311583937055,-0.006570275634870326,0.023913705269236623,0.005676209683240905,-0.03893825316820603,-0.0230114798981883,-0.06201167372928935,0.01845760277868595,-0.07933516700079891,-0.004167034598305939,-0.0019906416119031987,-0.036722184461001235,0.02713672545358248,-0.00790982384323347,0.02092890963135167,0.05450369522618619,-0.02047816553887586,-0.0005748471919013602,-0.02757802155201669,0.0024436030800890764,0.028042389644246463,-0.029971453806801596,-0.00511548766815679,-0.041998628352617154,0.11516260095834266,0.024984127602589102,-0.07427913106696374,-0.024816016047875984,-0.005499765923643431,-0.028377066493953475,-0.04975582486209311,-0.04184279412492103,-0.03145349127703549,-0.01610276598483527,0.003794566915155996,0.03589357218849239,-0.04523080416612678,-0.008548419573717141,-0.016362177169172466,0.037868986425105326,0.00971623444959884,0.008346154202843044,0.044708560258695344,-0.025308590493720483,0.005395960576660088,0.017768616547041212,-0.09541558381727162,-0.04520807629538937,-0.009071219292446918,0.048416201954705626,-0.008915980033112995,0.020302316630553992,0.023711150018491167,-0.02854491038638568,-0.06362125885154582,0.005706797227231747,-0.029663767660351826,-0.08181368005399714,0.0037531483874067286,0.028263524881739437,0.03589209586066004,-0.04040028921046459,-0.0736873792004791,0.10338766775419304,-0.005036949571299848,-0.04031837973678966,0.02587664381756149,-0.05765469601966155,0.027636018204146878,0.007438624551050549,-0.0143231600384417,-0.04390767917822445,0.03644438556459051,-0.1358136214931943,-0.027703479300969096,-0.01005666463476253,-0.022254546566837428,-0.016796564655429422,-0.008276388693623142,0.0169631409342486,0.009571195858765352,0.009514995775966715,0.0214220997665647,0.012540641834787187,-0.016276766608258216,0.035196655441349575,0.013321805526633273,0.01765428138890717,0.03303129684810835,0.006519574470027232,-0.0548077520040531,0.02779680814589026,-0.020370139672618685,0.007833493732323452,0.046653007431920315,0.03656595517025762,-0.014323541771419637,0.022301177727155064,0.015242497542215985,-0.017559624593834127,0.02320895632006303,-0.0042143362584938695,0.06195129702929213,0.04178756652570815,0.02211119321640354,0.03066754495105589,0.017824598020350125,-0.037492537345157895,0.012016574456818713,-0.007238966060791219,0.028636621446784468,-0.015167781985931258,-0.016786543693664408,-0.008452704065165859,-0.04110629491525013,-0.015092531415096727,0.025103161027412575,-0.020349593822076212,-0.023617301416652033,0.02087768022631126,0.000610777727615912,-0.018891983196108224,0.009494282676115672,-0.029602238366134133,0.03934127966727037,-0.016130423084718175,0.02248751366795256,-0.004167884970608741,0.0011873251374615343,0.07608603933262174,-0.02050070312972591,0.02135523854304123,0.10786976961384316,0.011565236982793254,-0.04288926355527755,0.01232559340032397,0.03166236782919387,0.023097069305230897,0.021469072548684305,0.02442437347609438,-0.020020303953692913,0.013603335540339044,0.010823640622761645,-0.01373523121202404,0.013529779184994959,0.010248946051638858,-0.016045378201487315,0.06482233752730523,0.027687731671242277,-0.012685963261398025,-0.018960189892982923,-0.0029532039615865723,-0.03106146495987133,-0.02009475807646533,0.04556815915638013,-0.08104118626427305,0.0032076828920708407,-0.018047199861465833,-0.052004670173148804,-0.025881933279647582,-0.03284332602873723,0.05747238634438255,0.026126628315722024,0.009676419666233343,-0.007126641679827154,-0.022307672356131895,-0.034445317807642664,-0.000677509926200162,-0.030893937539419658,0.0040924981806052425,0.07410704966526559,0.011770433248978208,-0.015633958065539407,0.05173966773886929,-0.021919605890658663,-0.0016703925482283132,-0.01277940312652146,-0.0022058219504449608,0.01955002529391952,0.015022865827654854,0.030914580689906206,-0.0045533549869160445,0.019782253752869617,0.030993674770954084,0.04659319691306441,0.02808462440007794,0.08678305301789495,-0.0033703128203885165,-0.003979840877636998,0.015889893634862953,0.016360962453277596,-0.03537940533784841,-0.0028960149730065878,-0.017225252782258317,-0.03143457658132586,-0.024341289397950345,0.004680053033132382,0.04304881366153702,-0.02729620018272246,-0.025767321444064302,-0.011516382741213497,-0.01851046425678316,-0.0249804436136847,0.015423477747844342,0.005815344145974749,0.011581095322111505,0.01351874792353683,-0.02856585829896991,-0.005387917386981577,-0.0022176100646986436,-0.00011320702527641424],[0.03067073561984925,0.018665630040630526,0.01732495749923546,-0.06319657363836086,0.040503816018358486,0.020352806152363033,0.025054534603702914,-0.06836844270456692,-0.05001353587443045,0.022848961500750727,-0.04663950043922566,0.02388691041515158,-0.007880883960405387,0.005599624937441226,0.04843832902219691,-0.004122150947508984,0.02709790862881331,-0.0037124393047369554,-0.053944861827654796,0.02137032634689936,-0.040877385737102825,0.027966573673121248,-0.03172102788044406,-0.01431367121346805,0.02297873835377647,0.06903907390041622,-0.015142532203600734,-0.02491833697706464,-0.019639992266216977,-0.07053442434017988,-0.03711194595157448,0.002376638211906112,-0.011469783906906362,0.008727070404660572,0.007804818174810365,-0.041107709629391934,-0.06192521869596835,-0.02852436905852449,-0.00494557990223189,-0.017557900724993518,-0.007159889427509685,-0.03623213589529881,0.0216109668183869,0.01189408243567234,-0.015337819850664935,0.016827451660642225,0.03640049524655133,-0.02741586376914722,0.04026610096451222,-0.0002417660803079924,0.0015226210857933367,0.006057106748426818,0.004529013826974078,0.10066668264394384,0.025775888901892318,-0.031045630360623366,-0.04923634554271768,0.024273345983047707,-0.024379215343923837,0.016426361273764702,0.0011102390802359766,0.04366426116165208,-0.002869671623864946,-0.018512624481763273,0.005554992346380698,-0.0180252765606177,-0.037461398235636996,0.00952146242170591,0.04362458589335177,-0.020615545423694127,0.028160625658793178,-0.06760433199890827,-0.03339818559065381,-0.04821502851341297,0.03705500201649979,0.011414199379479354,0.05317248298663725,-0.03980792120609599,0.008117162357293877,0.017108518199493664,-0.0072018586249829875,-0.010864178362788829,-0.0036919720451771207,-0.0017661603690389198,-0.056924942936234124,-0.014780927671262495,0.033315580071667454,-0.021293104639116316,-0.02222002311617085,-0.08076295574320583,0.023162639771388827,-0.02424144748911624,-0.0288882811444307,0.005272299861158928,0.02171974367806881,-0.021125265732120323,0.0651653625446075,0.041239420327983174,0.033279571024143986,-0.013960824824579497,-0.024252314354469617,-0.03842111151157741,-0.008709105243586285,-0.06335505730559786,-0.006474416792848087,-0.017747603307703717,-0.017637058553076335,0.02370999752010175,0.0352482309854363,-0.04910097771331878,-0.04990970714377346,0.00014072511431397305,-0.005956896024556582,-0.047076424946160954,-0.004210943690713225,-0.03420608598557911,-0.0314950966398318,0.02287409429507626,-0.02481019746142583,-0.059289102619346876,0.047987383765973564,0.0031139909315174657,-0.022052590956691678,0.008408155845780066,-0.005912082437242989,-0.022553284064352867,0.027737014478358833,0.03631004244932302,-0.03842308183444783,0.042477191339715115,0.0299860277937953,-0.03802491546993281,-0.05289347116812128,-0.020594460140269628,0.004822125088797888,0.07384853062419458,-0.03307790838345594,-0.0077580550423466,-0.012271958647856657,-0.005314785084925422,0.05427392712025881,-0.029606138115223595,-0.03541485113671111,-0.0011809677152682658,0.08484946931626505,-0.006860073538256636,-0.023498775146606445,0.04737809622002025,0.0359375997361343,-0.01974118353191645,-0.04907615779045272,-0.012976640851595389,-0.01846608910541481,0.011141698350391301,-0.02417199887083951,-0.053982069924975305,0.03169392905227119,0.025319653085692433,0.0015134628948505389,-0.05303313538399761,0.007986711369995618,0.010008949652159588,0.03896350407097038,0.04845887065641002,0.030363645795286696,-0.02762089750633864,0.014116604441892415,-0.009092618294091092,-0.008805846963963603,0.0038403042487558563,-0.030119717902629607,0.009046344942836099,-0.03930396341691638,0.050805811480105705,-0.03876744306815506,0.0026286437258107804,-0.020701796158202192,-0.06022274460306579,0.0020722913320888724,-0.010541501239472974,-0.04065866947894877,0.013345802327399214,0.007566128189750081,-0.04803926655371681,-0.015913069404680596,0.02132488380698986,0.09293659717226985,-0.025425509217280966,-0.0016901157164921795,-0.015005277033081698,-0.04588648483896524,-0.005342217708138321,0.02765619419611166,-0.04874903249167643,0.02523541901683404,-0.0025302690334070396,-0.020200183805929816,-0.04524157212429025,0.09028983501666334,0.007258925071344131,0.016040588928223378,-0.04665071409571723,0.04092735668286006,-0.0008823445528488583,0.001728959085447811,0.012054894173609169,0.04557326981827852,-0.008094904952005896,0.0699056486267917,0.011434733529938129,-0.01006930205161681,0.02972046120448042,-0.0006487114400210292,-0.03735975400447066,-0.03683806474614306,0.029194756516636836,-0.021828641688501675,0.03703763760105006,-0.008606831746048973,-0.024785846566256493,0.013799279391130027,-0.01920567299971305,0.016069185392063777,-0.002561153660697871,0.04546298557886518,0.05408161830442086,-0.032378121869487284,-0.028486560663743214,-0.05748683772499778,-0.010146002120691711,-0.0013532971843001102,0.014183292494027801,-0.03889674025874134,-0.01832976212335221,-0.0232472741585246,-0.010442001698045959,0.02105810962229341,-0.050732138765788144,0.035484787737659625,-0.008692911420313207,0.03063927488715012,-0.034421065916790644,0.02058674078105375,-0.02175575238700591,0.040584534683505265,0.019727193381536917,-0.029058611789644966,0.005171138137068582,-0.017470320109294248,-0.031154905254459714,0.005530089941721844,-0.03797917732467615,-0.018568989840099838,-0.02039341879798613,0.05689815852594172,-0.07078594341125274,0.030381872308109376,0.027533625907989,-0.0037339370798692476,-0.04410376235173681,-0.018125269799170406,-0.02724064843068655,-0.01774534799881486,0.006342403377451732,-0.04588668440927355,-0.024002031244897422,0.008857980892367516,-0.011131596313691485,-0.026334738763669097,0.030457461444277297,0.017567765047340197,0.011047325386971249,0.07030642498640807,-0.036910746782411866,-0.022507125173063337,-0.025301471329736234,-0.04301647551257502,0.01129086626257927,-0.028909262901757486,-0.0020073604815278533,0.046229671945751095,-0.02772131968352739,0.04848008554031456,0.015506814105792837,0.04424884581632065,0.0041457047938406755,0.03993126807424501,-0.00370123156377384,-0.009266638521640088,0.004348202522419897,-0.000545423333712181,0.05170867385762863,-0.016231180126579862,0.043737554402600236,0.039103632778606005,-0.03249597767672253,0.001766197936044178,0.04551323292030164,-0.016536846033968367,-0.1134986989211433,0.001142064465924446,0.036172958252924096,-0.0044636261844454034,-0.056527838822562744,-0.0082852601461303,0.08734292635806042,-0.04947869956324367,0.03661460574625328,0.013871444344124182,-0.01717556820872285,0.033746272196785256,-0.02575909366698777,0.027559992500095283,-0.032230492308111945,0.045698076223991864,-0.027528334768777106,-0.029554557572835125,0.003432484072289378,-0.03528208073590005,-0.04574024777814166,0.0009443631041965153,0.05705355901996832,0.09178002412117467,-0.034760711125492186,0.00022270118681337215,-0.029656888828733314,0.03693703031620401,0.03555647739293999,-0.022339187331713067,-0.02740130949924857,0.027677772963209054,0.027378527414532505,-0.04201860511225409,-0.09095638638074968,0.029091692388692254,0.0025010564673367823,-0.015238508155637561,-0.04067653305427071,0.061780654088737605,-0.03982919709697575,-0.008419997650585615,-0.008601718430210873,-0.011279555587165747,0.0943138532727846,-0.010110180728805412,-0.022683867884784194,-0.01664735829550328,0.07256507929436093,0.04089281715215497,-0.02412687545150519,-0.010820632538524862,-0.007200306547877915,-0.0032777116904467054,-0.024154301512370156,0.007032166105426229,0.0003514622058735354,0.014557342260011681,-0.028460705746893078,0.018573834763162995,-0.04086317726982402,0.01932242028164951,-0.04572048859009984,0.05363748617209848,0.035347008337960575,0.01425875075287704,-0.03455338896348455,-0.019406296955321256,0.01573006629084325,-0.016622512521263184,-0.034897096247058286,-0.03374136542184491,0.02025777877788748,-0.05813723082258159,0.004850403864777544,0.038776107749292264,-0.04189189349209797,-0.020080338038002372,0.001489614339614897,0.04738585351925729,0.03157474771384309,0.02612326259182866,0.009971141797574256,0.039156818936835106,-0.012482834156794109,0.061592997259871045,0.02230044965665299,0.009116441815024535,0.13176642041582837,0.021133205872640476,0.10222281314229735,-0.014976815646073323,0.009682011741403035,-0.0388425679048442,0.041246894863317576,-0.01365053646725357,-0.01479245133234813,0.06312991091628103,-0.03826137000680767,-0.045783340925813605,-0.041786229962128975,-0.013265755496106202,-0.005646293845576898,-0.02692610046674866,-0.03819316649335574,-0.006498819862538255,0.024407529706495974,-0.008176797757121906,0.031208416325834536,-0.03775775911482473,0.039330338360652965,0.03830524765872549,0.055846289406619974,0.012964277198341622,-0.008776264382153152,0.048431372289408955,0.10428599868974993,0.011672219688470835,-0.05781436924049582,-0.08106279670407339,-0.0584206444011963,-0.02027366910615665,0.011373304085905669,-0.011630048769056827,0.0714573872631564,0.017630295463190275,0.049742247247382014,0.008197537088683064,-0.05573614583935898,0.012313814289913582,0.01819763178713179,-0.029805841085458803,-0.03272242473588677,-0.022791537483204373,0.05015922221409613,-0.036380972485312114,-0.01099694217020033,0.018334582292816558,-0.047113692102363484,-0.018852828921503424,-0.014641773958845522,0.037864219791270685,0.07531812739669778,0.014432487172561945,-0.08323188957333338,0.002465835943984527,0.008089437734948668,-0.004485745785296224,0.005476976815307307,0.00456107887160191,0.0717498246695831,0.059119805311963695,0.05815290472223517,-0.024421048985415604,-0.03993653802294927,-0.024188825092558135,0.04455236506694795,-0.021464262091839773,0.050305186662045975,-0.055607725778301434,0.01648178535877511,-0.00590773976367223,-0.05834824917539146,-0.07467316572039383,-0.02203948662767366,-0.03881395130599059,-0.006828095117832827,-0.005357354669666028,0.00144307520869211,0.00824474782551602,-0.08257486441769177,0.021003489016304864,-0.07768887604253717,0.0024724175075082756,-0.008227521937042334,0.00762698881836323,0.04116228369935491,-0.017437174991771814,0.04383166597935096,-0.016049760081527843,-0.09641326170758603,0.04289115292214257,-0.01666926321213783,0.07829044016671893,-0.0447587336061665,-0.016029951434400426,-0.015891254980845225,-0.029103669959680188,-0.020094958360253688,-0.006081478612845954,0.016193300441947094,0.014662405392956653,0.03482950863039814,-0.018232832188524648,0.02435538569523116,-0.06056145724054929,0.034121619130942804,-0.06133501973340431,-0.0068532644360308915,-0.0002542153189736434,0.04043045220987162,-0.0033076676102883917,-0.08399803948298669,-0.007176164447588889,0.014226512536980146,-0.013807201186418806,-0.016476013365251677,0.0036555034620492596,0.013974471112914147,0.014322641129961178,0.018402954731420788,-0.08303523449714904,-0.0019264872416965366,0.03066916704112927,0.006306269653041491,0.0079249407135911,-0.061322259272586145,0.002105071651143251,0.06952191703694302,-0.01953106972690979,0.009044772660997454,-0.022855647118484656,-0.03919135008188602,0.07500347797320527,-0.01997969279956389,0.007072624141357104,-0.02350607577206414,-0.004886368002109625,-0.06164086726003578,-0.04066837726797595,-0.0460165664439553,-0.00696535752313021,-0.02132630917969141,0.0001573622387315982,0.05085921870517603,0.04417914301679413,-0.009880092399257846,0.03419718203102083,-0.09555305402209886,0.027232293688802513,-0.03355797144958624,-0.03405295852413236,0.0018750652386509078,0.029501004141422447,-0.07840690713915921,0.030517742878702254,0.03338026358231157,-0.0017205978794776846,-0.04097850248511659,0.03793001100672238,0.02091993003474039,0.01927138624506041,-0.045183021501541264,-0.08418283110543746,-0.023967406445047402,-0.03481055434946144,-0.014598897251090334,0.015843489547841347,0.005647243881383998,0.02851095139184051,-0.04242591952592859,-0.07607789746365864,-0.009827638416620332,0.015514456368548405,-0.057163292354440086,0.0208940861980502,0.019465046039687756,-0.01757251057391215,0.03450510455100582,0.02815235989631448,-0.034408314818036585,0.034386941541500876,0.022544248907806992,-0.04871250502270623,0.0014024680720118206,0.029838000654596884,0.00043335425052513964,0.007207645198200381,0.012088632433377666,-0.04520237323714854,0.06616699599534032,-0.08241138095478193,-0.020311642727721766,-0.005503614361875512,-0.017359012716418085,-0.004919659200192332,0.005767309036290266,0.03950873414634455,-0.04612593217839034,-0.007607112481269302,-0.019172076532373246,0.04997238707273433,-0.01141055197107022,0.016642670300724784,0.003465404847784074,0.00303554255272052,0.04603688584587399,0.03502815693397119,-0.04259866430159253,-0.06885255983692784,0.0074029757467823165,-0.00843069880103978,-0.04665739776991222,-0.02046794645591382,-0.009541853550133218,-0.029344574512630252,-0.003959604570667509,0.04309590495255578,-0.004024209269454257,-0.0029721615439347246,-0.03223874564225393,-0.06451210951728951,0.01609596814238739,0.024691327225512733,-0.0570298631340869,-0.002918581537367426,0.01121800783102076,0.09297918194678212,0.02585292232075092,-0.01922547602439844,-0.017196980343872546,-0.008609625465262585,0.0398564087350568,-0.022298020415550898,0.0072171091868200475,0.012319418543566218,0.0501557043362185,-0.04717269165115717,0.018776965517635563,-0.004772172893222571,-0.029603729978462646,-0.026199084895611797,-0.007844189271102317,0.008536472495886684,0.026392012053982207,0.03551757781940261,0.012260500867390358,0.05367158462323048,-0.057553737814840765,0.008043560743662163,0.028400225806399452,-0.012726045749839047,0.015087092404813953,-0.013645278573293456,0.010180963536985471,-0.00860658270792442,0.014257857056627974,-0.012823403866468042,0.03175627185011976,-0.036619792728837704,0.13153515511856875,0.03238355966893492,-0.0016591949181585606,0.06542736907599446,-0.00036172655374135213,-0.0017609303399679793,0.021543975708758493,0.03959711220054578,-0.0071477436655168125,0.05774949310490881,0.02272094189182856,0.03234632448979032,-0.06588344829810379,0.009138263582992565,0.029668450492468412,0.0036023521982902207,0.0288428463260301,-0.0013067400686352776,0.008185179336512544,0.07566582803919673,-0.006750681807947738,0.006471867338311552,0.03438451509472738,-0.02911682984351798,-0.05623390874965606,-0.027697177694023294,-0.00183297915640734,0.028934971611195702,0.015387256289898382,-0.0022563993814163287,-0.004610951730279638,-0.04441982806868355,0.04457101167325638,0.08847822731175148,-0.006780262715461667,0.01731745620479985,0.025077711406165576,0.06612545429675971,0.0068251394009048935,-0.023454708333906647,0.022774908335302,-0.006211297085666894,0.0002864792206448589,0.06097550392295868,-0.034467948789208086,-0.03596711886488351,-0.010189557331282417,-0.02421599269470146,-0.07234087906264113,0.010322904627146098,0.024129985787331044,0.011424299830126454,-0.014654150705250236,0.0406125612367033,-0.0557765529530948,-0.060850320386403346,-0.08176820528941964,0.01660273131804334,-0.05673832783570123,-0.0014629252775130047,0.021205068892898155,-0.03353248868580661,0.04211002163061178,-0.026542865907438467,-0.0634073678488503,-0.0431782876769247,0.00005599912462305662,-0.0000671705779383292,0.02659048285220127,-0.0026895671446612165,0.009807855014046667,0.07176259841988882,0.0393100370657077,-0.03406488433344742,-0.006337237507173305,0.03917553194898212,-0.01971730915484101,-0.004085760841195791,-0.004713502417348005,0.07674787581568479,0.02977483579524538,0.04427860820656345,-0.09919864075990027,-0.05877186890967197,-0.006545814843711298,0.013996695187061354,0.004432536157610145,-0.036775649449613465,-0.019923182157049323,-0.01903041777145274,-0.03375424376621481,-0.02499825365768304,-0.012849815638728071,0.05662166805988283,0.01578452940329687,0.012465479566169007,0.0027108579167946846,0.07631710100807787,0.015050017300389587,0.04008646689667424,-0.019741598526051878,-0.02160121194895856,0.01185042423299735,-0.008577514217043943,-0.05216161506464145,0.03466002042791328,-0.028595884525781372,0.03989519814027658,-0.00743481227603011,-0.0169685631896684,0.0020564837436109324,-0.015782689016123036,-0.02389461458908809,0.0734069988658346,-0.07013010499344562,-0.01277563761574843,-0.0065756995510983735,0.03453095086854329,-0.041808638186469904,0.04393608666437431,0.0136954039993037,-0.008353472964957967,-0.038206540459724006,-0.008365599057706747,0.0255660674667304,-0.025041858894666987,0.01626440413434863,-0.08996566560339521,0.05170396839409099,-0.026782411946735817,0.03656535669673817,-0.018883215387299212,0.02036131719702183,0.00969318717207583,-0.042225930135420406]],[[-0.5349818827768493,-0.14088914116281087,0.6084269429988282,0.06235231804842141,-0.9068534869938498],[0.7412398950212107,0.39814447063586883,0.195090797678074,0.34575298659056786,-0.42481183330350886],[-0.5636926812882777,-0.10778299611815213,-0.3956487968003735,-0.3396798119746569,-0.3061619194356027],[0.32210793536322646,0.3772301737345269,-0.22003760895675412,-0.6997658789911979,0.17851944266041872],[-0.3113999191697558,0.012054441806050233,0.6441119345577505,0.4315605659333842,0.17886748719233833]],[[0.3474769119113568,0.5029678363757081,0.7355922100048663,0.8411526720010758,0.2292198707430095],[0.012910533697378546,-0.06280277326028139,0.33656657555517905,0.14726031898331232,0.6139453385062603],[0.5604911336627938,-0.06260657114403974,0.17132355687178039,-0.9002853493006716,-0.2679980324523195],[-1.1621474804173402,0.09644060646061914,-0.4911066926367665,-0.46472030048390733,0.13772568643203537],[-0.10626920664993061,-0.49706510062860343,-0.691608682856321,0.8216936080964636,0.11988988646991947],[0.220215439179718,0.15148782501018518,0.6166402217530474,-0.008424059739451805,-0.17369020799702528],[0.8896816584454956,-0.3417452476917269,-0.5676776039501088,0.08888776987135646,-0.638924760689395],[-0.6274497394656557,0.532427510028144,0.5561072861272732,0.4089103968021938,-0.2810885165283253],[0.214196395121589,-0.152539358009922,-0.24781749190592134,0.5537130837694635,0.06607125284369268],[-0.10159906318522131,0.26072378631760207,0.12586982060627536,0.2867133276138733,0.15382305303099308]]],"testResults":{"0":{"correct":[],"wrong":{"1":[3,10,13,25,28,55,69,71,101,126,136,148,157,183,188,192,194,215,246,269,271,294,296,297,305,311,312,324,327,346,365,372,380,407,424,440,441,443,459,485,490,498,525,545,546,552,561,564,567,581,586,592,597,608,611,620,642,644,656,661,701,704,713,717,721,723,742,750,763,794,804,821,845,851,854,871,884,895,896,904,932,972,981,993,997,1001,1009,1034,1047,1061,1084,1094,1121,1148,1154,1176,1188,1191,1195,1197,1203,1218,1220,1223,1231,1246,1261,1271,1273,1288,1294,1297,1333,1379,1390,1399,1404,1408,1411,1416,1438,1445,1454,1457,1468,1487,1504,1517,1526,1533,1534,1535,1558,1565,1570,1589,1590,1610,1619,1621,1623,1638,1650,1692,1700,1708,1712,1713,1723,1726,1739,1748,1757,1762,1764,1768,1775,1777,1794,1796,1807,1808,1826,1841,1843,1870,1892,1898,1907,1918,1944,1959,1972,1987,1995,2023,2033,2042,2060,2061,2067,2081,2087,2096,2106,2127,2155,2178,2185,2188,2190,2204,2209,2217,2226,2236,2294,2295,2304,2318,2326,2328,2329,2333,2370,2376,2378,2384,2385,2403,2410,2417,2435,2449,2455,2461,2479,2485,2492,2506,2527,2531,2536,2557,2568,2571,2592,2593,2619,2627,2631,2638,2641,2649,2656,2657,2660,2687,2703,2707,2713,2714,2717,2733,2747,2748,2761,2763,2764,2765,2777,2779,2794,2811,2817,2821,2824,2842,2873,2894,2899,2932,2937,2942,2944,2954,2962,2972,2988,2996,2999,3013,3016,3020,3032,3043,3044,3052,3077,3087,3090,3140,3170,3178,3179,3185,3191,3210,3215,3219,3226,3242,3243,3251,3265,3266,3271,3297,3305,3306,3310,3315,3317,3322,3325,3346,3347,3358,3359,3368,3371,3401,3412,3413,3417,3439,3445,3446,3450,3458,3479,3481,3496,3512,3536,3540,3574,3581,3584,3608,3613,3624,3634,3640,3646,3650,3660,3677,3680,3695,3698,3706,3710,3724,3734,3735,3764,3768,3774,3790,3803,3804,3805,3818,3830,3847,3849,3864,3867,3870,3883,3895,3903,3911,3940,3942,3959,3980,3982,3989,4023,4033,4034,4043,4048,4062,4065,4070,4079,4080,4082,4090,4091,4146,4150,4155,4157,4166,4186,4188,4208,4227,4241,4278,4281,4282,4286,4320,4327,4329,4343,4348,4351,4353,4361,4365,4370,4392,4403,4404,4432,4447,4448,4457,4462,4470,4473,4477,4495,4515,4527,4531,4542,4554,4604,4611,4614,4617,4628,4631,4641,4642,4650,4672,4675,4718,4720,4739,4741,4757,4776,4780,4788,4804,4819,4824,4834,4857,4862,4880,4887,4891,4923,4935,4937,4957,4958,4959,4992,4999,5006,5008,5031,5033,5035,5043,5051,5069,5079,5087,5108,5109,5124,5133,5139,5141,5147,5155,5165,5241,5243,5244,5249,5251,5253,5255,5257,5259,5270,5280,5290,5301,5305,5307,5320,5321,5337,5342,5353,5368,5369,5398,5405,5415,5428,5430,5435,5443,5450,5452,5459,5463,5470,5483,5505,5513,5519,5526,5529,5531,5554,5567,5584,5592,5593,5603,5613,5652,5653,5659,5669,5673,5684,5685,5686,5695,5718,5721,5731,5737,5750,5756,5778,5791,5806,5812,5818,5827,5828,5830,5838,5847,5865,5870,5890,5899,5918,5929,5930,5932,5942,5952,5965,5974,5980,5987,5990,5993,6003,6015,6016,6040,6062,6072,6082,6097,6099,6114,6117,6127,6129,6131,6133,6140,6163,6181,6191,6201,6211,6241,6250,6259,6264,6280,6286,6287,6288,6293,6309,6319,6328,6342,6344,6351,6383,6398,6400,6424,6426,6428,6429,6437,6444,6454,6461,6470,6473,6478,6489,6510,6526,6532,6546,6557,6567,6580,6583,6588,6590,6597,6602,6621,6633,6643,6651,6672,6701,6711,6719,6750,6752,6753,6760,6766,6770,6779,6781,6786,6795,6798,6808,6818,6833,6835,6841,6843,6877,6892,6894,6921,6923,6925,6927,6937,6947,6959,6962,6968,6970,6971,6978,6979,7031,7037,7049,7052,7062,7072,7084,7086,7112,7129,7133,7139,7161,7162,7168,7175,7190,7202,7203,7216,7221,7225,7231,7255,7261,7263,7269,7279,7289,7317,7330,7337,7342,7354,7363,7367,7368,7381,7385,7410,7440,7446,7449,7452,7465,7485,7491,7505,7506,7516,7526,7536,7537,7555,7558,7566,7593,7599,7601,7607,7617,7625,7646,7655,7671,7688,7693,7699,7702,7703,7706,7723,7727,7737,7747,7780,7782,7791,7810,7817,7820,7830,7835,7838,7846,7855,7866,7868,7873,7882,7887,7889,7898,7907,7913,7933,7943,7953,7967,7987,7989,8007,8016,8021,8023,8029,8055,8056,8057,8067,8077,8085,8098,8111,8114,8117,8127,8137,8152,8163,8172,8179,8194,8195,8199,8212,8221,8228,8243,8251,8260,8273,8278,8283,8307,8325,8335,8338,8342,8343,8351,8359,8373,8382,8388,8389,8414,8425,8448,8458,8468,8481,8490,8496,8501,8513,8514,8528,8535,8548,8558,8567,8576,8587,8595,8611,8614,8619,8621,8629,8634,8657,8671,8681,8691,8730,8731,8738,8748,8752,8763,8764,8765,8772,8795,8798,8808,8818,8845,8849,8851,8858,8859,8865,8868,8881,8895,8913,8921,8929,8951,8978,8983,8991,8992,8999,9004,9016,9037,9038,9052,9060,9070,9080,9095,9105,9134,9137,9158,9162,9167,9174,9179,9189,9199,9220,9221,9223,9230,9236,9239,9244,9264,9273,9281,9296,9297,9310,9311,9325,9339,9352,9358,9367,9377,9387,9396,9405,9414,9425,9436,9439,9440,9455,9457,9459,9488,9498,9508,9519,9527,9528,9542,9552,9585,9601,9611,9621,9631,9633,9634,9647,9648,9663,9666,9677,9687,9688,9704,9714,9724,9739,9753,9757,9761,9763,9791,9800,9801,9809,9818,9826,9850,9865,9879,9885,9897,9902,9911,9930,9939,9948,9951,9952,9962,9964,9983,9993]}},"1":{"correct":[2,5,14,29,31,37,39,40,46,57,74,89,94,96,107,135,137,143,145,154,168,176,178,180,189,190,191,196,202,203,204,224,228,239,251,265,267,272,276,279,288,302,314,329,330,332,342,345,348,350,354,357,377,378,385,388,393,409,416,419,427,430,455,473,476,480,489,504,506,523,529,537,584,615,619,640,647,652,663,672,675,682,695,696,700,716,725,735,745,749,754,755,767,768,772,777,783,790,798,809,818,824,826,831,835,836,840,848,850,889,900,907,918,920,929,948,949,956,963,964,967,977,979,984,988,994,1004,1008,1011,1019,1025,1027,1030,1037,1038,1040,1054,1075,1083,1097,1129,1136,1137,1139,1179,1180,1189,1193,1201,1211,1213,1214,1236,1238,1240,1254,1257,1280,1295,1302,1305,1316,1318,1329,1338,1350,1351,1358,1360,1368,1392,1397,1403,1424,1430,1434,1448,1483,1484,1515,1527,1528,1548,1555,1582,1603,1630,1633,1643,1646,1657,1659,1667,1673,1674,1691,1704,1707,1715,1728,1729,1736,1753,1760,1766,1773,1780,1785,1791,1820,1829,1830,1834,1835,1836,1838,1844,1861,1867,1868,1876,1884,1885,1897,1900,1909,1922,1934,1939,1945,1986,1988,1993,1994,2010,2013,2015,2017,2018,2027,2034,2041,2051,2071,2136,2137,2154,2164,2166,2171,2175,2182,2221,2228,2235,2239,2245,2258,2261,2266,2273,2276,2277,2283,2287,2302,2315,2316,2324,2335,2343,2355,2356,2357,2358,2359,2366,2379,2398,2409,2411,2416,2418,2421,2434,2444,2473,2504,2510,2519,2524,2529,2541,2553,2576,2590,2599,2612,2626,2655,2661,2674,2676,2688,2693,2704,2705,2706,2719,2722,2725,2734,2746,2753,2757,2786,2788,2789,2803,2815,2816,2822,2825,2827,2867,2868,2878,2880,2885,2902,2912,2928,2943,2946,2950,2965,2974,2982,2984,2997,3003,3014,3019,3026,3027,3039,3050,3070,3073,3092,3097,3099,3124,3126,3132,3143,3148,3152,3175,3196,3203,3211,3214,3227,3230,3231,3237,3244,3253,3255,3259,3264,3268,3272,3276,3281,3314,3320,3351,3353,3354,3379,3380,3386,3419,3420,3421,3430,3433,3434,3438,3452,3454,3455,3457,3464,3471,3480,3532,3546,3562,3582,3586,3593,3598,3601,3605,3606,3625,3638,3639,3641,3648,3649,3651,3652,3669,3673,3679,3689,3699,3733,3741,3745,3747,3761,3765,3777,3779,3784,3786,3789,3809,3815,3843,3851,3852,3858,3866,3894,3900,3906,3919,3922,3925,3930,3937,3974,3983,3990,4005,4006,4010,4013,4014,4021,4025,4032,4035,4036,4039,4050,4057,4069,4074,4077,4085,4104,4105,4110,4138,4144,4147,4153,4168,4169,4170,4171,4178,4179,4181,4185,4190,4191,4195,4201,4212,4216,4232,4249,4262,4264,4267,4273,4292,4303,4304,4308,4318,4328,4331,4337,4349,4386,4409,4428,4450,4491,4507,4516,4524,4525,4533,4538,4563,4564,4574,4580,4588,4589,4595,4597,4602,4603,4606,4643,4646,4651,4653,4655,4670,4674,4676,4685,4687,4691,4708,4717,4719,4729,4732,4733,4754,4759,4764,4774,4778,4806,4847,4853,4858,4859,4864,4869,4871,4872,4877,4903,4909,4917,4924,4927,4930,4931,4932,4949,4951,4953,4972,4977,4984,5005,5013,5014,5025,5036,5044,5052,5072,5081,5090,5091,5092,5093,5112,5113,5128,5132,5148,5156,5166,5186,5193,5203,5208,5211,5227,5232,5252,5254,5258,5271,5281,5291,5314,5316,5318,5323,5327,5331,5350,5361,5370,5384,5399,5406,5416,5431,5442,5453,5457,5460,5461,5477,5486,5490,5499,5506,5514,5520,5524,5534,5535,5544,5550,5552,5553,5566,5588,5590,5594,5604,5614,5630,5637,5642,5646,5651,5661,5666,5679,5689,5699,5722,5732,5738,5746,5759,5762,5776,5783,5786,5794,5809,5811,5831,5839,5848,5859,5872,5873,5880,5889,5893,5896,5902,5915,5917,5933,5943,5953,5970,5978,5984,5991,5998,6005,6008,6012,6044,6058,6060,6063,6073,6083,6092,6101,6108,6110,6115,6125,6135,6141,6159,6162,6182,6192,6202,6222,6224,6231,6232,6233,6239,6254,6276,6278,6308,6310,6320,6329,6338,6356,6374,6375,6397,6407,6408,6419,6430,6438,6445,6456,6468,6472,6482,6484,6502,6506,6515,6527,6533,6540,6545,6556,6572,6601,6604,6618,6622,6623,6628,6634,6644,6652,6661,6670,6673,6678,6680,6683,6688,6694,6702,6712,6720,6726,6729,6733,6743,6748,6751,6757,6758,6783,6789,6799,6809,6819,6829,6848,6868,6869,6883,6891,6901,6902,6913,6917,6928,6938,6948,6961,6969,6976,7000,7005,7014,7019,7023,7048,7053,7063,7073,7087,7091,7123,7138,7150,7165,7167,7171,7173,7176,7183,7191,7217,7223,7226,7228,7232,7247,7253,7262,7270,7280,7290,7299,7303,7319,7323,7325,7340,7344,7353,7373,7395,7399,7405,7411,7418,7422,7424,7442,7447,7453,7463,7468,7480,7507,7517,7527,7556,7561,7563,7567,7581,7582,7591,7600,7608,7618,7626,7636,7638,7658,7661,7665,7686,7708,7717,7722,7725,7728,7738,7748,7783,7784,7790,7802,7806,7811,7812,7822,7832,7839,7847,7856,7869,7881,7890,7896,7899,7900,7911,7916,7920,7928,7934,7944,7954,7969,7973,7980,7990,8004,8005,8020,8022,8045,8048,8058,8068,8078,8086,8088,8090,8099,8100,8113,8118,8128,8138,8159,8164,8166,8187,8219,8229,8231,8233,8239,8244,8252,8261,8268,8286,8289,8303,8305,8306,8324,8340,8344,8352,8360,8367,8376,8390,8396,8418,8420,8427,8432,8439,8443,8449,8459,8469,8488,8491,8493,8509,8526,8536,8538,8540,8543,8545,8549,8559,8568,8575,8586,8600,8604,8633,8636,8650,8658,8659,8666,8672,8682,8692,8708,8715,8720,8724,8729,8740,8745,8758,8768,8776,8799,8809,8819,8850,8862,8873,8875,8887,8892,8905,8914,8922,8930,8938,8971,8976,8979,8980,8986,8988,8995,9002,9003,9005,9017,9025,9030,9039,9049,9051,9061,9071,9081,9090,9096,9112,9120,9121,9124,9140,9143,9155,9171,9180,9190,9200,9222,9233,9241,9249,9258,9265,9274,9282,9291,9295,9301,9313,9324,9335,9336,9345,9348,9356,9368,9378,9388,9395,9401,9407,9415,9434,9435,9438,9443,9444,9464,9485,9489,9499,9509,9518,9520,9540,9549,9556,9570,9591,9593,9594,9599,9602,9612,9622,9641,9643,9645,9649,9653,9657,9661,9674,9682,9689,9699,9705,9715,9725,9737,9760,9772,9774,9795,9796,9799,9802,9810,9819,9836,9838,9844,9845,9846,9848,9876,9878,9896,9898,9903,9912,9923,9931,9946,9950,9955,9956,9969,9978,9984,9994],"wrong":{}},"2":{"correct":[],"wrong":{"1":[1,35,38,43,47,72,77,82,106,119,147,149,172,174,186,199,208,221,222,225,236,237,244,249,256,258,278,280,285,291,293,298,303,306,318,321,326,331,362,363,371,387,390,396,400,404,418,421,423,444,452,456,467,477,492,503,512,513,516,536,539,547,549,583,609,612,613,624,629,632,633,635,643,646,653,659,690,715,728,731,738,741,744,764,775,796,799,816,823,828,830,837,858,863,867,868,873,875,888,891,892,905,919,921,922,924,926,939,945,974,975,980,985,990,995,996,1002,1016,1031,1036,1049,1050,1053,1056,1064,1065,1076,1132,1138,1155,1174,1177,1184,1187,1207,1210,1224,1227,1237,1245,1251,1256,1262,1269,1303,1335,1336,1337,1341,1345,1348,1349,1352,1356,1365,1372,1374,1375,1381,1395,1402,1407,1409,1410,1412,1431,1432,1446,1451,1459,1462,1485,1506,1514,1518,1538,1546,1551,1574,1585,1604,1609,1620,1642,1644,1654,1656,1658,1678,1682,1689,1696,1711,1722,1749,1771,1790,1795,1802,1811,1817,1824,1839,1842,1863,1871,1890,1891,1895,1915,1927,1930,1932,1936,1947,1957,1965,1984,1991,2044,2055,2058,2082,2085,2092,2098,2101,2108,2110,2112,2122,2126,2133,2138,2157,2158,2176,2184,2186,2191,2198,2200,2242,2248,2253,2254,2260,2269,2296,2299,2311,2327,2350,2353,2354,2374,2390,2391,2396,2397,2412,2415,2429,2432,2433,2437,2439,2446,2459,2462,2475,2481,2488,2491,2495,2496,2500,2503,2517,2572,2596,2602,2610,2621,2625,2635,2652,2662,2664,2669,2679,2699,2726,2729,2741,2752,2780,2784,2787,2802,2838,2848,2861,2864,2891,2904,2910,2918,2940,2959,2971,2977,2981,3004,3021,3035,3037,3047,3048,3057,3071,3081,3089,3105,3106,3116,3128,3134,3142,3151,3176,3180,3195,3201,3207,3212,3223,3229,3239,3250,3256,3257,3258,3260,3267,3274,3280,3293,3301,3318,3327,3330,3337,3339,3355,3367,3375,3384,3396,3415,3435,3436,3474,3482,3489,3508,3510,3511,3513,3514,3522,3547,3566,3577,3578,3599,3600,3611,3628,3655,3658,3661,3668,3675,3681,3682,3694,3696,3703,3729,3731,3772,3773,3775,3785,3796,3802,3811,3817,3823,3832,3839,3844,3862,3876,3899,3904,3909,3912,3913,3921,3932,3933,3945,3946,3958,3963,3986,4038,4055,4066,4098,4100,4103,4113,4114,4115,4127,4133,4135,4149,4156,4161,4167,4173,4176,4180,4187,4189,4204,4205,4206,4247,4248,4250,4260,4274,4275,4279,4289,4296,4326,4339,4341,4342,4345,4350,4354,4367,4384,4385,4387,4401,4402,4415,4418,4427,4442,4445,4451,4456,4476,4482,4503,4504,4506,4510,4517,4521,4546,4549,4559,4562,4573,4582,4594,4615,4625,4632,4636,4656,4666,4668,4684,4705,4709,4710,4713,4716,4723,4725,4734,4775,4801,4805,4812,4816,4848,4870,4876,4878,4889,4899,4905,4920,4939,4941,4943,4944,4950,4954,4961,4962,4964,4965,4969,4981,4985,4995,4997,5018,5024,5037,5045,5053,5086,5089,5095,5099,5105,5119,5120,5125,5127,5149,5157,5167,5189,5192,5216,5217,5250,5264,5266,5267,5272,5282,5292,5308,5338,5340,5366,5367,5381,5385,5390,5392,5407,5417,5427,5436,5449,5455,5475,5487,5494,5502,5507,5515,5521,5536,5541,5545,5557,5562,5595,5605,5615,5626,5629,5634,5636,5641,5643,5667,5692,5716,5717,5723,5733,5739,5748,5761,5763,5767,5772,5785,5799,5820,5823,5829,5840,5849,5863,5879,5883,5895,5907,5921,5924,5931,5934,5944,5954,5983,6010,6014,6027,6035,6036,6041,6051,6052,6057,6064,6074,6084,6093,6106,6109,6111,6118,6123,6132,6156,6180,6183,6193,6203,6217,6225,6234,6240,6246,6266,6274,6279,6281,6305,6311,6321,6330,6337,6340,6345,6352,6357,6384,6391,6412,6418,6423,6431,6439,6446,6462,6466,6469,6480,6497,6499,6513,6519,6521,6528,6534,6541,6554,6562,6566,6574,6581,6584,6594,6607,6614,6616,6635,6645,6677,6698,6703,6713,6721,6732,6744,6754,6773,6785,6796,6797,6800,6810,6820,6828,6831,6836,6844,6849,6878,6885,6906,6912,6920,6929,6939,6949,6989,6993,7001,7002,7007,7012,7013,7015,7022,7054,7064,7074,7093,7100,7115,7120,7135,7147,7151,7154,7156,7163,7184,7192,7205,7212,7229,7235,7237,7245,7249,7266,7271,7281,7291,7308,7321,7327,7328,7345,7348,7349,7359,7364,7386,7400,7406,7412,7420,7457,7469,7472,7482,7483,7486,7492,7497,7508,7518,7528,7539,7564,7570,7572,7575,7587,7604,7609,7619,7627,7635,7637,7678,7683,7685,7687,7710,7716,7724,7729,7739,7749,7762,7772,7773,7781,7785,7789,7794,7815,7840,7848,7857,7876,7886,7894,7909,7917,7922,7930,7935,7945,7955,7977,7986,7992,7994,8019,8025,8031,8036,8047,8059,8069,8079,8091,8094,8102,8108,8112,8119,8129,8139,8153,8161,8165,8168,8174,8198,8208,8225,8238,8245,8253,8262,8292,8295,8310,8315,8318,8320,8323,8345,8353,8361,8365,8381,8394,8409,8424,8438,8450,8460,8470,8482,8492,8495,8498,8521,8532,8544,8550,8560,8569,8584,8592,8594,8602,8612,8615,8625,8639,8646,8648,8673,8683,8693,8704,8707,8712,8714,8719,8721,8746,8793,8794,8800,8810,8820,8830,8838,8844,8870,8880,8889,8902,8907,8908,8915,8923,8936,8943,8950,8966,8969,8973,9006,9010,9018,9032,9043,9046,9048,9062,9072,9082,9097,9111,9118,9123,9129,9131,9135,9145,9154,9168,9181,9191,9201,9209,9215,9225,9246,9259,9266,9303,9304,9309,9318,9341,9346,9351,9359,9369,9379,9389,9417,9421,9442,9446,9456,9470,9476,9477,9480,9487,9490,9500,